solver_type L2R_L2LOSS_SVC
nr_class 3
label 0 1 2
nr_feature 12183
bias 1.000000000000000
w
0.005581827669275944 3.148234990878947e-07 -0.007052405313065263 
0.002816284733170516 3.048838469069676e-07 -0.002988213223896074 
-0.006462182435987141 0.004409136942563463 -0.0006840695560889747 
0.005581827669275944 3.148234990878947e-07 -0.007052405313065263 
0.002816284733170516 3.048838469069676e-07 -0.002988213223896074 
0.002816284733170516 3.048838469069676e-07 -0.002988213223896074 
0.002816284733170516 3.048838469069676e-07 -0.002988213223896074 
0.002816284733170516 3.048838469069676e-07 -0.002988213223896074 
0.002816284733170516 3.048838469069676e-07 -0.002988213223896074 
0.002816284733170516 3.048838469069676e-07 -0.002988213223896074 
0.02665473540428128 -0.01512703334952235 -0.01787135388897372 
0.002816284733170516 3.048838469069676e-07 -0.002988213223896074 
-0.01666912076538019 -0.003507562834045680 0.01348531426949128 
0.002816284733170516 3.048838469069676e-07 -0.002988213223896074 
-0.003360452905233897 0.008368667689949351 -0.006439669782386466 
0.002816284733170516 3.048838469069676e-07 -0.002988213223896074 
-0.009745970897971180 0.0008971598386529902 0.004704292716804551 
0.02000728169734860 -0.02967933589344618 -0.0007975940800921935 
0.01637063621432670 -0.01804949530711587 -0.001512588545053483 
0.06757778582025112 -0.1128098995927129 -0.002161913946540179 
0.02069026340849813 0.004282930003494477 -0.04017499034781789 
0.0005580676233427241 -0.001185076606836793 -0.008699199384347790 
-0.006036860666377897 0.01373149908909047 -0.01381041403325893 
0.02703051812023868 -0.003852108375917568 -0.03223297556078814 
0.002816284733170516 3.048838469069676e-07 -0.002988213223896074 
-0.05526609207970171 -0.03428602077455976 0.07202374153857952 
0.002816284733170516 3.048838469069676e-07 -0.002988213223896074 
-0.003428950953573924 0.001155252902129603 0.001177256758367802 
0.01879107921421538 -0.02176600870282247 -0.003847508331679407 
0.002816284733170516 3.048838469069676e-07 -0.002988213223896074 
0.003830893322977477 0.008850699118566485 -0.01327762377101533 
0.01005228307693969 0.002567307434302265 -0.01527950866396513 
0.002816284733170516 3.048838469069676e-07 -0.002988213223896074 
-0.006116027674740035 0.01606094975198412 -0.03447925646485295 
0.002816284733170516 3.048838469069676e-07 -0.002988213223896074 
0.002816284733170516 3.048838469069676e-07 -0.002988213223896074 
0.002816284733170516 3.048838469069676e-07 -0.002988213223896074 
0.006836369363129341 0.01166847061865138 -0.01829962909281877 
0.002816284733170516 3.048838469069676e-07 -0.002988213223896074 
0.002816284733170516 3.048838469069676e-07 -0.002988213223896074 
-0.01210532543655809 -0.01032746921814079 0.01768417028335693 
0.002816284733170516 3.048838469069676e-07 -0.002988213223896074 
-0.001641981247139141 -0.003880204275306603 0.004107864082768986 
-0.04423247799037304 0.001024132001718668 0.01042760209916558 
0.004169567126245422 9.432727729469649e-07 -0.007255336001331180 
0.03019682853460854 -0.03059858287969764 -0.004672328207321557 
0.002816284733170516 3.048838469069676e-07 -0.002988213223896074 
0.001859392072983441 -0.06276972003396984 0.04307278631067797 
0.01188803196698803 -0.0002941261350417088 -0.01232190366835611 
0.002816284733170516 3.048838469069676e-07 -0.002988213223896074 
-0.06701046628223144 0.05625573733440276 -0.002924268024292019 
0.002816284733170516 3.048838469069676e-07 -0.002988213223896074 
0.003907001471134193 3.271891316374877e-07 -0.006055702884237907 
-0.007299491577769573 0.01769382941673512 -0.01216297898819351 
0.002816284733170516 3.048838469069676e-07 -0.002988213223896074 
0.006982988058764827 1.867958542953630e-06 -0.007598685385223914 
0.002816284733170516 3.048838469069676e-07 -0.002988213223896074 
0.009363618706482732 -0.0006343562257609095 -0.007888961873325174 
0.002816284733170516 3.048838469069676e-07 -0.002988213223896074 
0.006388642263029028 -0.003007456710445279 -0.004946210808964806 
0.01165381777992792 -0.01184109254373555 -0.007574045349431028 
0.01184800455931897 0.0005384035001504221 -0.01121830981887474 
0.07132635053569901 -0.08330894813947240 -0.01396322104407687 
0.02605493926248511 -0.01596026058197115 -0.01173538904260963 
0.03071171518892809 -0.05260414158150691 0.01369892862825750 
0.001661417290235428 -0.01932811658864896 0.007592108881046247 
0.04223158646360959 -0.01953410894145008 -0.02762881237651959 
0.02451615690134103 -0.01002330894466477 -0.01808914812672544 
0.005581827669275944 3.148234990878947e-07 -0.007052405313065263 
0.02153934835352606 -0.008431990118468239 -0.01837562079769358 
0.002383060530526236 -0.007256486956378682 0.001379595156449374 
0.005581827669275944 3.148234990878947e-07 -0.007052405313065263 
0.005581827669275944 3.148234990878947e-07 -0.007052405313065263 
0.002816284733170516 3.048838469069676e-07 -0.002988213223896074 
0.005770904719576643 6.933050733148242e-07 -0.006969250542690384 
0.002816284733170516 3.048838469069676e-07 -0.002988213223896074 
-0.001797220483145537 -0.0009546619413310002 0.004768164069528868 
0.008489396686505876 -0.004411736836785262 -0.006657814516243925 
0.001763309910051943 -0.006656687129662755 -0.001935189771147825 
0.002816284733170516 3.048838469069676e-07 -0.002988213223896074 
0.08576479653122440 -0.03223682746151249 -0.06405454384015091 
0.002816284733170516 3.048838469069676e-07 -0.002988213223896074 
0.01038730376959213 -0.004418091428466003 -0.008030308314250424 
-1.065996352347304e-05 -0.004413201911956144 0.004149183459771394 
-0.01646021562587116 -0.008235362977436530 0.01567239294790031 
0.002816284733170516 3.048838469069676e-07 -0.002988213223896074 
0.002816284733170516 3.048838469069676e-07 -0.002988213223896074 
0.03276492533573361 -0.03827104574682994 -0.001578004655892545 
0.002816284733170516 3.048838469069676e-07 -0.002988213223896074 
0.02288936575849299 -0.001295441694218718 -0.02385822567121166 
0.01084943335946240 -0.04039147565642063 0.009594165874784640 
0.004842715143951962 -0.004620213841151441 -0.002086871886405055 
0.002816284733170516 3.048838469069676e-07 -0.002988213223896074 
0.002816284733170516 3.048838469069676e-07 -0.002988213223896074 
0.009640365184761359 -0.01357906361884109 0.002405418039690346 
0.01157604622423305 1.748921933407774e-06 -0.01440624046099613 
0.01880290881386887 -0.01433488931463009 -0.005175513101538233 
0.002816284733170516 3.048838469069676e-07 -0.002988213223896074 
0.01506604818771791 0.001008815639239170 -0.02484910768710409 
0.003907001471134193 3.271891316374877e-07 -0.006055702884237907 
0.009363618706482732 -0.0006343562257609095 -0.007888961873325174 
-0.001767049849841993 -0.001221797459316654 0.003122881674254777 
0.001319923099110481 -0.01285003649936203 0.003110098284188209 
0.006553990856206727 -0.001662634458345521 -0.006726541667233899 
0.07033568315268693 -0.03766181563116221 -0.03798202618054741 
0.02803763352477111 -0.01675166200316324 -0.009689113714112330 
0.002816284733170516 3.048838469069676e-07 -0.002988213223896074 
0.01294170494059068 -0.005508525221717802 -0.009212813936371073 
0.04215671547557166 -0.1022093170579562 0.03174977838771356 
0.01308953267417050 -0.007256881414184907 -0.01138397103137018 
0.002816284733170516 3.048838469069676e-07 -0.002988213223896074 
0.05354442256830851 -0.03464841331257586 -0.03381586159767541 
0.007769931995513153 -0.0004744626082192823 -0.007554314565208284 
0.002816284733170516 3.048838469069676e-07 -0.002988213223896074 
0.03532322898835220 -0.01135413461736303 -0.02799710766539713 
0.05451526619401324 -0.04069271572563216 -0.01518512124684641 
0.002816284733170516 3.048838469069676e-07 -0.002988213223896074 
0.002816284733170516 3.048838469069676e-07 -0.002988213223896074 
0.04346743802349655 -0.01867430212203090 -0.03000275013013410 
-0.004941448062994174 0.01373147302429179 -0.01183760061742921 
0.05655811683388732 -0.01044596180820267 -0.04632930191640649 
0.004024084531919651 6.935602718850537e-07 -0.004452961444411588 
0.002816284733170516 3.048838469069676e-07 -0.002988213223896074 
0.01426240986282649 -0.004790540876897286 -0.01075112981462057 
-0.009095194355353367 -0.005769895167790853 0.01232126823653724 
0.002816284733170516 3.048838469069676e-07 -0.002988213223896074 
-0.01161784534874797 -0.03841759535256643 0.04394691750877928 
0.007271004658830060 1.359232506650419e-06 -0.006746684220775248 
0.005199060772642486 -0.0005558150057945806 -0.004887162253717474 
0.006357859534006478 -0.004747191316675836 -0.003382611781005398 
0.02043635126666216 -0.002767220242987791 -0.01967592136987725 
0.02610528632149098 -0.009981201715767234 -0.01843026941487399 
0.002816284733170516 3.048838469069676e-07 -0.002988213223896074 
0.002816284733170516 3.048838469069676e-07 -0.002988213223896074 
0.03346788766185741 -0.01338491481824338 -0.01905505788080337 
0.02833522316514633 -0.01451136877347243 -0.01883405195447627 
0.03418311804083461 -0.01491066836447260 -0.02706320688525030 
0.03361322168592900 -0.01925804074247869 -0.02730392313648935 
0.02883446074970533 -0.004005551397557088 -0.03238751589650923 
-0.03735403082685199 -0.06595907746932139 0.07132380009049478 
-0.01055846525386432 0.008229809736314564 0.004319695511280372 
0.002816284733170516 3.048838469069676e-07 -0.002988213223896074 
0.01195793235050607 -0.009911157636261532 -0.002927893297233346 
0.01195793235050607 -0.009911157636261532 -0.002927893297233346 
0.01195793235050607 -0.009911157636261532 -0.002927893297233346 
0.01288698537359014 -0.006748943572270709 -0.004906192551669717 
0.07770179374893993 -0.03379107867772459 -0.05282356852217262 
0.01195793235050607 -0.009911157636261532 -0.002927893297233346 
0.005034393338230758 -0.02174218900154972 0.01422456844437961 
0.01195793235050607 -0.009911157636261532 -0.002927893297233346 
0.03738072058353667 -0.03621202191238500 -0.005843932307012569 
-0.08119033915847720 0.04569314950697927 -0.1036439365759229 
0.01195793235050607 -0.009911157636261532 -0.002927893297233346 
-0.01079717150532246 0.005154084103097472 -0.04870256211807540 
-0.08858206870365896 0.1779727405107069 -0.1268551793432125 
0.01195793235050607 -0.009911157636261532 -0.002927893297233346 
0.01195793235050607 -0.009911157636261532 -0.002927893297233346 
0.01195793235050607 -0.009911157636261532 -0.002927893297233346 
0.01057903869121727 -0.002610986753421140 -0.01039587234118479 
0.01195793235050607 -0.009911157636261532 -0.002927893297233346 
0.01195793235050607 -0.009911157636261532 -0.002927893297233346 
0.01195793235050607 -0.009911157636261532 -0.002927893297233346 
0.01195793235050607 -0.009911157636261532 -0.002927893297233346 
0.01828052540156212 -0.04404895092601291 0.003333781250833804 
0.01195793235050607 -0.009911157636261532 -0.002927893297233346 
0.01195793235050607 -0.009911157636261532 -0.002927893297233346 
0.01195793235050607 -0.009911157636261532 -0.002927893297233346 
0.01195793235050607 -0.009911157636261532 -0.002927893297233346 
0.04625991006874698 -0.03648880185026385 -0.01774290104378186 
0.02613960439133369 -0.02187034028880791 -0.001582780421758905 
0.01195793235050607 -0.009911157636261532 -0.002927893297233346 
0.02340398221603104 -0.01532058097335317 -0.009848169293111952 
0.01096044099400029 -0.01130632406947006 -0.002980418351726436 
0.01195793235050607 -0.009911157636261532 -0.002927893297233346 
0.04498082194855049 -0.03188999705708706 -0.01709384668304941 
0.01195793235050607 -0.009911157636261532 -0.002927893297233346 
0.01195793235050607 -0.009911157636261532 -0.002927893297233346 
0.01195793235050607 -0.009911157636261532 -0.002927893297233346 
0.01195793235050607 -0.009911157636261532 -0.002927893297233346 
0.01195793235050607 -0.009911157636261532 -0.002927893297233346 
0.03234233094332489 -0.02595749612038115 -0.007736668704585798 
0.01195793235050607 -0.009911157636261532 -0.002927893297233346 
0.01195793235050607 -0.009911157636261532 -0.002927893297233346 
0.01195793235050607 -0.009911157636261532 -0.002927893297233346 
0.01195793235050607 -0.009911157636261532 -0.002927893297233346 
-0.02333606679135311 0.04192350554542721 -0.02822121652450089 
0.01195793235050607 -0.009911157636261532 -0.002927893297233346 
0.01003393456016841 0.008445006190000971 -0.01842328648227179 
0.01195793235050607 -0.009911157636261532 -0.002927893297233346 
0.01195793235050607 -0.009911157636261532 -0.002927893297233346 
0.01195793235050607 -0.009911157636261532 -0.002927893297233346 
0.01195793235050607 -0.009911157636261532 -0.002927893297233346 
0.01195793235050607 -0.009911157636261532 -0.002927893297233346 
-0.01699563025176911 0.01494798388217189 -0.002707475866453709 
0.03750321170152050 -0.01523860749477088 -0.02288800382327395 
0.01195793235050607 -0.009911157636261532 -0.002927893297233346 
0.01195793235050607 -0.009911157636261532 -0.002927893297233346 
0.01195793235050607 -0.009911157636261532 -0.002927893297233346 
-0.001645059937381133 0.01828748165301547 -0.01565069739274142 
0.01195793235050607 -0.009911157636261532 -0.002927893297233346 
0.01195793235050607 -0.009911157636261532 -0.002927893297233346 
0.01908914413005857 -0.01220586743155056 -0.006688907908803287 
0.01195793235050607 -0.009911157636261532 -0.002927893297233346 
0.01195793235050607 -0.009911157636261532 -0.002927893297233346 
-0.01245923248752451 -0.004342634783970572 0.01118899523023440 
-0.03556502962558857 -0.01019506889266410 0.01584459643576583 
0.02462803889968002 -0.01327281191075152 -0.01550840718262585 
0.01195793235050607 -0.009911157636261532 -0.002927893297233346 
0.01195793235050607 -0.009911157636261532 -0.002927893297233346 
0.01195793235050607 -0.009911157636261532 -0.002927893297233346 
0.01195793235050607 -0.009911157636261532 -0.002927893297233346 
0.01110195425685443 0.08323382090279592 -0.1011086896921597 
0.01195793235050607 -0.009911157636261532 -0.002927893297233346 
0.01195793235050607 -0.009911157636261532 -0.002927893297233346 
0.01791449327931618 -0.008693538172458928 -0.008966654554315848 
0.01993133798626767 -0.01024871783458544 -0.009407941404486912 
0.01791449327931618 -0.008693538172458928 -0.008966654554315848 
0.01791449327931618 -0.008693538172458928 -0.008966654554315848 
-0.009274883941807994 -0.002346572684365631 0.007298551050443589 
0.01681173801195881 -0.02211453461942465 0.001940479597432475 
-0.04430277007368298 0.001021327625773832 0.008344423898661388 
-0.03491451301024434 0.05385833477115135 -0.03374826483843221 
0.01138891479646978 -0.01378846667638762 0.001897987804258985 
0.003620994270687938 -0.04448762817219273 0.02443514616080447 
0.03599819267278487 -0.06177923200019023 0.01548617767166695 
0.01791449327931618 -0.008693538172458928 -0.008966654554315848 
-0.003154248075881017 -0.03162888929333475 0.0003634313025349304 
0.01791449327931618 -0.008693538172458928 -0.008966654554315848 
0.01791449327931618 -0.008693538172458928 -0.008966654554315848 
-0.003351383541916111 0.0008871436780671268 -0.02688952425746812 
0.02756748923642373 -0.02713721271515046 -0.002737684206205070 
0.05206311804018980 -0.03169891391851707 -0.01994041871050007 
0.005785631983539596 -0.01621001973260294 0.008883554284055847 
0.01791449327931618 -0.008693538172458928 -0.008966654554315848 
0.01791449327931618 -0.008693538172458928 -0.008966654554315848 
-0.01012676215667779 0.05401240401868952 -0.04848270290525799 
-0.01511541279570150 0.01451717526056424 -0.006325645426537884 
0.02857835870638902 -0.01881369168260713 -0.01083631340015732 
-0.03272615947032651 -0.01331625983376607 0.02772114162559625 
0.02560203831910096 -0.01694466311624101 -0.01699363375227733 
0.01791449327931618 -0.008693538172458928 -0.008966654554315848 
0.01791449327931618 -0.008693538172458928 -0.008966654554315848 
0.01791449327931618 -0.008693538172458928 -0.008966654554315848 
0.02714030022510814 -0.02826520635006062 0.001443081675034677 
0.01791449327931618 -0.008693538172458928 -0.008966654554315848 
0.02354264460722855 -0.02093957703825209 -0.003765113823419219 
0.01269950762077667 -0.01342626958419973 0.0004130979235927152 
0.009497941940163677 0.004938701673626376 -0.01636860271370146 
0.07663195304497276 -0.04794288384567153 -0.02930774127999987 
0.01791449327931618 -0.008693538172458928 -0.008966654554315848 
0.01791449327931618 -0.008693538172458928 -0.008966654554315848 
0.01717972873392127 -0.05873474220341149 0.03256367437020031 
0.01791449327931618 -0.008693538172458928 -0.008966654554315848 
0.01791449327931618 -0.008693538172458928 -0.008966654554315848 
0.005278355690988577 -0.01346364463761418 0.005424247035537757 
0.01791449327931618 -0.008693538172458928 -0.008966654554315848 
0.01791449327931618 -0.008693538172458928 -0.008966654554315848 
0.01791449327931618 -0.008693538172458928 -0.008966654554315848 
0.0008283311110583832 -0.005745880343922265 -0.0004020527967030982 
0.01791449327931618 -0.008693538172458928 -0.008966654554315848 
0.001677449720011728 -0.01049256712717392 0.0004018247157382188 
0.01791449327931618 -0.008693538172458928 -0.008966654554315848 
0.06156120346276642 -0.02313125471990175 -0.03883388450160134 
0.007571019036421611 -0.004418396312312910 -0.005042095090354351 
0.007571019036421611 -0.004418396312312910 -0.005042095090354351 
0.007571019036421611 -0.004418396312312910 -0.005042095090354351 
0.007571019036421611 -0.004418396312312910 -0.005042095090354351 
0.007571019036421611 -0.004418396312312910 -0.005042095090354351 
0.007571019036421611 -0.004418396312312910 -0.005042095090354351 
0.007571019036421611 -0.004418396312312910 -0.005042095090354351 
0.007571019036421611 -0.004418396312312910 -0.005042095090354351 
0.007571019036421611 -0.004418396312312910 -0.005042095090354351 
0.007571019036421611 -0.004418396312312910 -0.005042095090354351 
0.007571019036421611 -0.004418396312312910 -0.005042095090354351 
0.002997965491942758 -0.006691655398987188 0.003222554841793895 
0.007571019036421611 -0.004418396312312910 -0.005042095090354351 
0.007571019036421611 -0.004418396312312910 -0.005042095090354351 
0.007571019036421611 -0.004418396312312910 -0.005042095090354351 
0.007571019036421611 -0.004418396312312910 -0.005042095090354351 
0.01804393027890977 -0.04973535094541907 0.02201709352383489 
0.01023206585758584 -0.07120080201191029 0.04066389165931561 
0.007571019036421611 -0.004418396312312910 -0.005042095090354351 
-0.02772501878273858 0.01311706177700960 0.001179665907577128 
0.007571019036421611 -0.004418396312312910 -0.005042095090354351 
0.04753286215275834 -0.002681759997018124 -0.04208854601660110 
0.04131978226881342 -0.02053808517698032 -0.02496914161425700 
-0.001581341852834053 0.04523759910951451 -0.05049052733174798 
0.007571019036421611 -0.004418396312312910 -0.005042095090354351 
0.007571019036421611 -0.004418396312312910 -0.005042095090354351 
0.007571019036421611 -0.004418396312312910 -0.005042095090354351 
0.007571019036421611 -0.004418396312312910 -0.005042095090354351 
0.007571019036421611 -0.004418396312312910 -0.005042095090354351 
0.007571019036421611 -0.004418396312312910 -0.005042095090354351 
0.007571019036421611 -0.004418396312312910 -0.005042095090354351 
0.007571019036421611 -0.004418396312312910 -0.005042095090354351 
0.002997965491942758 -0.006691655398987188 0.003222554841793895 
0.007571019036421611 -0.004418396312312910 -0.005042095090354351 
0.02903164189274581 -0.01563503120409931 -0.01799989785055483 
0.02563751429668937 -0.01490735287821658 -0.01518299052397330 
0.007571019036421611 -0.004418396312312910 -0.005042095090354351 
0.007571019036421611 -0.004418396312312910 -0.005042095090354351 
0.05514942919260526 -0.02640212685134036 -0.03996614253036674 
0.007571019036421611 -0.004418396312312910 -0.005042095090354351 
0.007571019036421611 -0.004418396312312910 -0.005042095090354351 
0.003631980363885937 0.004906765414472857 -0.01076540429616139 
0.007571019036421611 -0.004418396312312910 -0.005042095090354351 
0.007571019036421611 -0.004418396312312910 -0.005042095090354351 
0.007571019036421611 -0.004418396312312910 -0.005042095090354351 
0.007571019036421611 -0.004418396312312910 -0.005042095090354351 
0.007571019036421611 -0.004418396312312910 -0.005042095090354351 
0.007571019036421611 -0.004418396312312910 -0.005042095090354351 
0.007571019036421611 -0.004418396312312910 -0.005042095090354351 
0.01033656197252704 -0.004418386372660729 -0.009106287179523541 
0.007571019036421611 -0.004418396312312910 -0.005042095090354351 
0.007571019036421611 -0.004418396312312910 -0.005042095090354351 
0.007571019036421611 -0.004418396312312910 -0.005042095090354351 
0.007571019036421611 -0.004418396312312910 -0.005042095090354351 
0.009871619526068291 -0.004583317668211851 -0.007120657221358513 
0.01037116042872036 -0.005801315980785128 -0.005565163132469519 
-0.01839184526374686 0.02129848708761239 -0.006770318275057319 
0.007571019036421611 -0.004418396312312910 -0.005042095090354351 
0.007571019036421611 -0.004418396312312910 -0.005042095090354351 
0.007571019036421611 -0.004418396312312910 -0.005042095090354351 
-0.01551073095287310 -0.01815588427423515 0.02113502347203279 
0.007571019036421611 -0.004418396312312910 -0.005042095090354351 
0.007571019036421611 -0.004418396312312910 -0.005042095090354351 
0.007571019036421611 -0.004418396312312910 -0.005042095090354351 
0.007571019036421611 -0.004418396312312910 -0.005042095090354351 
0.003929943681822748 0.001332217807263426 -0.007892011554244087 
0.007571019036421611 -0.004418396312312910 -0.005042095090354351 
0.007571019036421611 -0.004418396312312910 -0.005042095090354351 
0.01412672683327513 -0.006762267246053646 -0.01057476740547286 
0.01095584038816729 -0.003243300167273498 -0.01229152462872918 
0.1597975354985055 -0.06212778621311157 -0.1033144966378857 
0.03740368411895868 -0.02248769519143982 -0.02208679562713491 
0.007571019036421611 -0.004418396312312910 -0.005042095090354351 
0.007571019036421611 -0.004418396312312910 -0.005042095090354351 
0.007571019036421611 -0.004418396312312910 -0.005042095090354351 
0.008134139705907718 -0.01366931108778303 0.001748697809932929 
0.01542529620961920 -0.01086038366987793 -0.009796674283693580 
0.007571019036421611 -0.004418396312312910 -0.005042095090354351 
0.007571019036421611 -0.004418396312312910 -0.005042095090354351 
0.007571019036421611 -0.004418396312312910 -0.005042095090354351 
0.007571019036421611 -0.004418396312312910 -0.005042095090354351 
0.007571019036421611 -0.004418396312312910 -0.005042095090354351 
-0.01017487910817199 -0.01559171910420655 0.01807329500777173 
0.007485934917136982 -0.004268876547188019 -0.01688353333041703 
0.007571019036421611 -0.004418396312312910 -0.005042095090354351 
0.007571019036421611 -0.004418396312312910 -0.005042095090354351 
0.01038276701767682 0.002377191667932415 -0.01325867274885221 
0.007571019036421611 -0.004418396312312910 -0.005042095090354351 
0.004916447649875701 0.001586316454785838 -0.008294762979299703 
0.007571019036421611 -0.004418396312312910 -0.005042095090354351 
0.007571019036421611 -0.004418396312312910 -0.005042095090354351 
0.007571019036421611 -0.004418396312312910 -0.005042095090354351 
0.01289641477667664 -0.007466874191148173 -0.007741265325032040 
0.007571019036421611 -0.004418396312312910 -0.005042095090354351 
0.007571019036421611 -0.004418396312312910 -0.005042095090354351 
0.007571019036421611 -0.004418396312312910 -0.005042095090354351 
0.01383889836536525 -0.008181783204360698 -0.005844873676935543 
0.01157973937266173 -0.01110472467953046 -8.389341319307884e-06 
0.04245862965843595 -0.04620911821685856 -0.001247328830439475 
0.01383889836536525 -0.008181783204360698 -0.005844873676935543 
0.01166888039963577 -0.003630594513546945 -0.01354705605904931 
0.01383889836536525 -0.008181783204360698 -0.005844873676935543 
0.01383889836536525 -0.008181783204360698 -0.005844873676935543 
0.01157973937266173 -0.01110472467953046 -8.389341319307884e-06 
0.01383889836536525 -0.008181783204360698 -0.005844873676935543 
0.01383889836536525 -0.008181783204360698 -0.005844873676935543 
0.01383889836536525 -0.008181783204360698 -0.005844873676935543 
0.01636455995736708 -0.007905799472834870 -0.01620074973811577 
0.04841423453394510 -0.07483753077930470 0.02044223326656866 
0.01383889836536525 -0.008181783204360698 -0.005844873676935543 
0.01383889836536525 -0.008181783204360698 -0.005844873676935543 
0.01383889836536525 -0.008181783204360698 -0.005844873676935543 
0.01383889836536525 -0.008181783204360698 -0.005844873676935543 
0.01383889836536525 -0.008181783204360698 -0.005844873676935543 
0.02255523093699025 -0.01124511607383370 -0.01276041333386290 
0.05971887167567998 -0.03576176378073296 -0.02558281576778552 
-0.002130970697789102 -0.001086310600270911 0.005244178883641602 
0.01383889836536525 -0.008181783204360698 -0.005844873676935543 
0.005259854687330852 -0.02930292424724572 0.02116094982075353 
0.01860555242445198 -0.01285175773268792 -0.007120396115167056 
-0.01956730300689926 0.009568810027140663 -0.007493742147972942 
0.0001978935542325799 0.008096167337144999 -0.01929501768720063 
0.01464202704651558 -0.002778841076202239 -0.01387653319796338 
0.01383889836536525 -0.008181783204360698 -0.005844873676935543 
0.01383889836536525 -0.008181783204360698 -0.005844873676935543 
0.007274111810832912 -0.01362582799732655 0.005071548952550790 
0.01383889836536525 -0.008181783204360698 -0.005844873676935543 
0.03003260851431753 -0.01693593265639908 -0.01464944136446735 
0.01383889836536525 -0.008181783204360698 -0.005844873676935543 
-0.02708055492104855 0.0007500282164908354 -0.005222784047760547 
0.01383889836536525 -0.008181783204360698 -0.005844873676935543 
0.01383889836536525 -0.008181783204360698 -0.005844873676935543 
0.03554357856328468 -0.01921285881512730 -0.01741668157475550 
0.03425088549284902 -0.01264333546760561 -0.02105046532410825 
-0.02443651543801504 -0.06053799790661097 0.06937839348799789 
0.01383889836536525 -0.008181783204360698 -0.005844873676935543 
0.01383889836536525 -0.008181783204360698 -0.005844873676935543 
0.01383889836536525 -0.008181783204360698 -0.005844873676935543 
-0.01570386881047251 0.03183582804293191 -0.04347174630501869 
0.01383889836536525 -0.008181783204360698 -0.005844873676935543 
0.007693903596146561 0.01373916650635219 -0.02481558588186076 
0.01383889836536525 -0.008181783204360698 -0.005844873676935543 
0.01383889836536525 -0.008181783204360698 -0.005844873676935543 
0.01383889836536525 -0.008181783204360698 -0.005844873676935543 
0.01383889836536525 -0.008181783204360698 -0.005844873676935543 
0.01383889836536525 -0.008181783204360698 -0.005844873676935543 
0.01383889836536525 -0.008181783204360698 -0.005844873676935543 
0.01383889836536525 -0.008181783204360698 -0.005844873676935543 
0.01383889836536525 -0.008181783204360698 -0.005844873676935543 
0.01383889836536525 -0.008181783204360698 -0.005844873676935543 
9.237257690547488e-05 0.01616175027507153 -0.01651400811257038 
-0.01762363277330995 -0.02979266234276709 0.03897195312547288 
0.03510801287517202 -0.01502466289552584 -0.02023973258217961 
0.01779898357307023 -0.006574957932651813 -0.01378877521052137 
0.03404500119390472 -0.006672812380923583 -0.03462352948064282 
0.002035945307032357 0.01426448382358610 -0.02582867782470414 
-0.003013338542958073 -0.02243620485929814 0.02106687550898460 
0.01702191024338593 0.005589608706690758 -0.02226097199548976 
0.03981132029027552 -0.02561763348274692 -0.01760239253343509 
0.008716332571624990 -0.003063332869472995 -0.006915539656927358 
0.02088709654340303 -0.002045783210205620 -0.02429523487723234 
0.02582330244077508 -0.01031700596897007 -0.02021555388889049 
0.008716332571624990 -0.003063332869472995 -0.006915539656927358 
0.006457173578921463 -0.005986274344642758 -0.001079055321311124 
0.008716332571624990 -0.003063332869472995 -0.006915539656927358 
-0.006313928276444726 -0.0006549246148403471 0.001286723667997582 
0.03035895706248952 -0.009624422455144725 -0.02595536951002699 
0.008716332571624990 -0.003063332869472995 -0.006915539656927358 
0.008716332571624990 -0.003063332869472995 -0.006915539656927358 
0.008716332571624990 -0.003063332869472995 -0.006915539656927358 
0.008716332571624990 -0.003063332869472995 -0.006915539656927358 
0.03374258805423309 -0.01309466091337049 -0.02478357654837714 
0.008716332571624990 -0.003063332869472995 -0.006915539656927358 
0.008716332571624990 -0.003063332869472995 -0.006915539656927358 
0.009961898916089590 -0.005849214878017319 -0.01157587973447267 
0.008716332571624990 -0.003063332869472995 -0.006915539656927358 
0.008716332571624990 -0.003063332869472995 -0.006915539656927358 
0.008716332571624990 -0.003063332869472995 -0.006915539656927358 
0.005515806834057042 0.01685119949575411 -0.02479542342467452 
0.008716332571624990 -0.003063332869472995 -0.006915539656927358 
0.06735076701558589 -0.01958153031695201 -0.05690621694962528 
0.008716332571624990 -0.003063332869472995 -0.006915539656927358 
0.008716332571624990 -0.003063332869472995 -0.006915539656927358 
0.008716332571624990 -0.003063332869472995 -0.006915539656927358 
0.008716332571624990 -0.003063332869472995 -0.006915539656927358 
0.008716332571624990 -0.003063332869472995 -0.006915539656927358 
0.008716332571624990 -0.003063332869472995 -0.006915539656927358 
0.008716332571624990 -0.003063332869472995 -0.006915539656927358 
0.008716332571624990 -0.003063332869472995 -0.006915539656927358 
0.008716332571624990 -0.003063332869472995 -0.006915539656927358 
0.004046045588961553 -0.007596538102057947 -0.002019367131059688 
0.008716332571624990 -0.003063332869472995 -0.006915539656927358 
0.007923041005026407 0.001870680993255668 -0.01449654947648133 
0.03634533537363615 -0.01574871126652750 -0.02867072859100613 
0.03480242587343922 -0.007127091458388145 -0.03415817362923321 
0.008716332571624990 -0.003063332869472995 -0.006915539656927358 
0.03877481427558084 0.01060124220779297 -0.05406685717540715 
0.008716332571624990 -0.003063332869472995 -0.006915539656927358 
0.008716332571624990 -0.003063332869472995 -0.006915539656927358 
0.02464075908741101 -0.02289086807062015 -0.007601838034357242 
0.008716332571624990 -0.003063332869472995 -0.006915539656927358 
0.008716332571624990 -0.003063332869472995 -0.006915539656927358 
0.008716332571624990 -0.003063332869472995 -0.006915539656927358 
0.005711818784931413 0.02015888873601228 -0.03139133015578586 
-0.03159994888427072 -0.04057272628796609 0.05246096133098394 
0.03256899083773236 -0.01964243428656851 -0.02158358724341312 
0.008716332571624990 -0.003063332869472995 -0.006915539656927358 
0.01835649904357999 -0.01282846488136177 -0.005978508821488193 
0.02333142112466024 -0.02103751027809231 -0.004652522313100880 
0.02160537539094288 0.001243880082627538 -0.02908651281420973 
0.01835649904357999 -0.01282846488136177 -0.005978508821488193 
0.01835649904357999 -0.01282846488136177 -0.005978508821488193 
0.01835649904357999 -0.01282846488136177 -0.005978508821488193 
0.01966809476890410 -0.007718403859464247 -0.01372483047190893 
0.01835649904357999 -0.01282846488136177 -0.005978508821488193 
0.02995877247873994 -0.006886456792746040 -0.02310828020556021 
0.01835649904357999 -0.01282846488136177 -0.005978508821488193 
0.02512897378543441 -0.01215176379032800 -0.01353815633567196 
0.01835649904357999 -0.01282846488136177 -0.005978508821488193 
0.01835649904357999 -0.01282846488136177 -0.005978508821488193 
0.01407889253209410 -0.003155462603045542 -0.01132554603666914 
0.01835649904357999 -0.01282846488136177 -0.005978508821488193 
0.006062074505555352 -5.035726989539964e-05 -0.007973329396173236 
0.01835649904357999 -0.01282846488136177 -0.005978508821488193 
0.008939467673344657 -0.04293302636458532 0.01045220148889815 
0.01835649904357999 -0.01282846488136177 -0.005978508821488193 
0.03136820378132860 0.005792390795167243 -0.04166242403953861 
0.01835649904357999 -0.01282846488136177 -0.005978508821488193 
0.01835649904357999 -0.01282846488136177 -0.005978508821488193 
0.01835649904357999 -0.01282846488136177 -0.005978508821488193 
0.01835649904357999 -0.01282846488136177 -0.005978508821488193 
0.02275357585527792 -0.01410658456805504 -0.008733036284737280 
0.02247389408813418 -0.02411016292669569 -0.001600315710591577 
-0.01452626325221269 -0.01389094854107369 0.01580898363770020 
0.01835649904357999 -0.01282846488136177 -0.005978508821488193 
0.006924639134825455 -0.002921423829699252 -0.004979844769490767 
-0.006186299150500702 -0.01765444984524511 0.01480645016567322 
0.01835649904357999 -0.01282846488136177 -0.005978508821488193 
0.03507667873953677 -0.007742486952916514 -0.02679634708634366 
0.01619371014895228 -0.008754149452038375 -0.008804567687531809 
0.01619371014895228 -0.008754149452038375 -0.008804567687531809 
0.01619371014895228 -0.008754149452038375 -0.008804567687531809 
0.01412957527399621 0.008891340777610427 -0.02340561867819125 
0.01619371014895228 -0.008754149452038375 -0.008804567687531809 
0.01267568410472701 -0.01156475661579386 -0.002885456206553901 
0.01619371014895228 -0.008754149452038375 -0.008804567687531809 
0.01313824202656718 -0.01986866368583307 0.004786123903993338 
0.01187513685379916 -0.02968445018999261 0.01523443083689680 
0.01619371014895228 -0.008754149452038375 -0.008804567687531809 
0.02989338111323124 0.02906925493974655 -0.06185823692544830 
0.01619371014895228 -0.008754149452038375 -0.008804567687531809 
0.01619371014895228 -0.008754149452038375 -0.008804567687531809 
0.01412088052712895 -0.02478280307789419 0.003484389128433743 
0.02712614028894860 -0.03173273879639287 0.006370668840367686 
0.01619371014895228 -0.008754149452038375 -0.008804567687531809 
0.01619371014895228 -0.008754149452038375 -0.008804567687531809 
0.01619371014895228 -0.008754149452038375 -0.008804567687531809 
0.01619371014895228 -0.008754149452038375 -0.008804567687531809 
0.01619371014895228 -0.008754149452038375 -0.008804567687531809 
0.01619371014895228 -0.008754149452038375 -0.008804567687531809 
0.05765227329518134 -0.01091821195404179 -0.05938651192326787 
0.01619371014895228 -0.008754149452038375 -0.008804567687531809 
0.01619371014895228 -0.008754149452038375 -0.008804567687531809 
0.01619371014895228 -0.008754149452038375 -0.008804567687531809 
0.03402754675232440 -0.008811059359826949 -0.03001361541376674 
0.003455372215351669 0.01152436669457044 -0.02053742279160133 
0.005277248549974376 0.01405280150082303 -0.02075739642207032 
0.01619371014895228 -0.008754149452038375 -0.008804567687531809 
0.01619371014895228 -0.008754149452038375 -0.008804567687531809 
-0.03675293743205167 -0.03720345022614560 0.05915548116916386 
0.01375006649363446 -0.01263190827260663 -0.002768478558586408 
0.01619371014895228 -0.008754149452038375 -0.008804567687531809 
0.01619371014895228 -0.008754149452038375 -0.008804567687531809 
0.01619371014895228 -0.008754149452038375 -0.008804567687531809 
-0.04227466891920539 -0.06073918322808055 0.08796949365184951 
0.01619371014895228 -0.008754149452038375 -0.008804567687531809 
0.01619371014895228 -0.008754149452038375 -0.008804567687531809 
0.01619371014895228 -0.008754149452038375 -0.008804567687531809 
0.01619371014895228 -0.008754149452038375 -0.008804567687531809 
0.01619371014895228 -0.008754149452038375 -0.008804567687531809 
0.01477739074264543 -0.02665257671630609 0.009170736446763990 
0.01619371014895228 -0.008754149452038375 -0.008804567687531809 
0.01619371014895228 -0.008754149452038375 -0.008804567687531809 
0.006133918159274397 -0.004165331261935959 -0.005290599859853823 
0.01619371014895228 -0.008754149452038375 -0.008804567687531809 
0.01619371014895228 -0.008754149452038375 -0.008804567687531809 
0.01619371014895228 -0.008754149452038375 -0.008804567687531809 
0.01619371014895228 -0.008754149452038375 -0.008804567687531809 
0.01619371014895228 -0.008754149452038375 -0.008804567687531809 
0.01619371014895228 -0.008754149452038375 -0.008804567687531809 
0.03632552315090253 -0.01727179516621580 -0.02758714411043011 
0.01619371014895228 -0.008754149452038375 -0.008804567687531809 
0.01575448279105117 -0.01238485516250810 -0.005466825061713642 
0.01619371014895228 -0.008754149452038375 -0.008804567687531809 
0.01619371014895228 -0.008754149452038375 -0.008804567687531809 
0.01619371014895228 -0.008754149452038375 -0.008804567687531809 
0.01619371014895228 -0.008754149452038375 -0.008804567687531809 
0.01619371014895228 -0.008754149452038375 -0.008804567687531809 
0.01007558621228451 -0.02510203845858411 0.01309693801417046 
0.05152365232473152 -0.04993049706288246 -0.01201130655553295 
0.003734845308958166 -0.001663576462918119 -0.003149724587329291 
0.01140373480677459 -0.007771027805574158 -0.007029324364283782 
-0.01452387280916630 -0.01260104583603220 0.02327928630537862 
0.003734845308958166 -0.001663576462918119 -0.003149724587329291 
0.003734845308958166 -0.001663576462918119 -0.003149724587329291 
0.003734845308958166 -0.001663576462918119 -0.003149724587329291 
0.003734845308958166 -0.001663576462918119 -0.003149724587329291 
0.003734845308958166 -0.001663576462918119 -0.003149724587329291 
0.02310333298428101 -0.01790354869173886 -0.005883158289512920 
0.003734845308958166 -0.001663576462918119 -0.003149724587329291 
0.003734845308958166 -0.001663576462918119 -0.003149724587329291 
0.003734845308958166 -0.001663576462918119 -0.003149724587329291 
-0.0005427612025277251 0.008009425815398112 -0.008496761802510230 
0.003734845308958166 -0.001663576462918119 -0.003149724587329291 
0.07609925370451670 -0.03190730918906943 -0.04859090642829079 
0.003734845308958166 -0.001663576462918119 -0.003149724587329291 
0.01150149078625312 -0.04911192850940768 0.01809123214462940 
0.01844490385933277 -0.007729068418491468 -0.01473171802892671 
0.003734845308958166 -0.001663576462918119 -0.003149724587329291 
0.003734845308958166 -0.001663576462918119 -0.003149724587329291 
0.003734845308958166 -0.001663576462918119 -0.003149724587329291 
0.003734845308958166 -0.001663576462918119 -0.003149724587329291 
-0.001351175591482570 0.006704808648469056 -0.009668670806161517 
-0.0008354536579075494 -0.003611298814340607 0.003067237412626337 
0.01893481557120193 -0.002882069159094859 -0.01811868000335709 
0.01029055310581168 -0.004007447396658856 -0.008682396902447804 
0.02067376096450058 -0.03347185530132665 0.002444847197560768 
0.007901548634552478 -0.001662013388222072 -0.007760196748657132 
0.003734845308958166 -0.001663576462918119 -0.003149724587329291 
0.003734845308958166 -0.001663576462918119 -0.003149724587329291 
0.02014267832063389 -0.01289742876792022 -0.01261749229793189 
0.003734845308958166 -0.001663576462918119 -0.003149724587329291 
-0.04491765359982231 -0.03881433628083744 0.07119069110159140 
0.02580342245853056 -0.01575360671110818 -0.01446947945247514 
0.003734845308958166 -0.001663576462918119 -0.003149724587329291 
0.04903518512064441 -0.01750570083714428 -0.03921304939064776 
0.003734845308958166 -0.001663576462918119 -0.003149724587329291 
0.003734845308958166 -0.001663576462918119 -0.003149724587329291 
0.003734845308958166 -0.001663576462918119 -0.003149724587329291 
0.003734845308958166 -0.001663576462918119 -0.003149724587329291 
0.006957057857266045 0.008827412475513876 -0.01761341952626734 
-0.01677806134729756 0.001881224503246143 0.01067846733875561 
0.003734845308958166 -0.001663576462918119 -0.003149724587329291 
0.003734845308958166 -0.001663576462918119 -0.003149724587329291 
0.04826566824859109 -0.003663992263442630 -0.04966914598420328 
0.003734845308958166 -0.001663576462918119 -0.003149724587329291 
0.007783627044677400 -0.002877800644979767 -0.006250447262372827 
0.02936581834895619 -0.01193726125967275 -0.02279771321346343 
0.0006708968650477986 0.02278427008111613 -0.02710307674686995 
0.003734845308958166 -0.001663576462918119 -0.003149724587329291 
0.003734845308958166 -0.001663576462918119 -0.003149724587329291 
0.02278764585826962 -0.002876184887554377 -0.02304338614374206 
0.003734845308958166 -0.001663576462918119 -0.003149724587329291 
-0.01495673143180563 0.01978068407394240 -0.01241367517787442 
0.003734845308958166 -0.001663576462918119 -0.003149724587329291 
0.003734845308958166 -0.001663576462918119 -0.003149724587329291 
0.02145933352785548 -0.01476500851239101 -0.009816066061999626 
0.001490130757914182 0.0002871507438645242 -0.002293393961644957 
0.01064301661520845 -0.007691053424614179 -0.001657850448297915 
0.01064301661520845 -0.007691053424614179 -0.001657850448297915 
0.01064301661520845 -0.007691053424614179 -0.001657850448297915 
0.01064301661520845 -0.007691053424614179 -0.001657850448297915 
0.01064301661520845 -0.007691053424614179 -0.001657850448297915 
0.003493806193498373 -0.007691294054376109 0.005688072279215051 
-0.001660327367217722 -0.007981956260738651 -0.004512760568362739 
0.007469013271015789 -0.01113863207154348 0.004817744789087034 
0.01064301661520845 -0.007691053424614179 -0.001657850448297915 
-0.005456407996935849 0.007605704010471184 -0.0009107092792918121 
0.007548542724929591 -0.01404156396187992 0.003837764377218205 
0.01064301661520845 -0.007691053424614179 -0.001657850448297915 
0.01064301661520845 -0.007691053424614179 -0.001657850448297915 
0.01064301661520845 -0.007691053424614179 -0.001657850448297915 
0.01064301661520845 -0.007691053424614179 -0.001657850448297915 
0.01064301661520845 -0.007691053424614179 -0.001657850448297915 
0.01064301661520845 -0.007691053424614179 -0.001657850448297915 
0.004260657080296038 0.03550187502146948 -0.04355167430849748 
0.01064301661520845 -0.007691053424614179 -0.001657850448297915 
0.01064301661520845 -0.007691053424614179 -0.001657850448297915 
0.01064301661520845 -0.007691053424614179 -0.001657850448297915 
0.009213856219763394 -0.003049545800977059 -0.005074799297119571 
0.004614774341690757 -0.01382646549322496 0.007235691355759849 
0.01064301661520845 -0.007691053424614179 -0.001657850448297915 
0.01064301661520845 -0.007691053424614179 -0.001657850448297915 
-0.003653207525947303 0.002357786667217165 0.001365921671492643 
0.01682260795093255 -0.01161252348944600 -0.004762035374511463 
0.007656793954973695 0.001367793450534507 -0.006995707323923538 
0.01064301661520845 -0.007691053424614179 -0.001657850448297915 
-0.0005346035325562064 0.01350399015406194 -0.01295986358559917 
0.004290357772721694 -0.01117649847107196 0.004273050624129214 
0.01064301661520845 -0.007691053424614179 -0.001657850448297915 
0.01064301661520845 -0.007691053424614179 -0.001657850448297915 
0.01064301661520845 -0.007691053424614179 -0.001657850448297915 
0.01064301661520845 -0.007691053424614179 -0.001657850448297915 
-9.082399542222659e-05 0.02026349366233057 -0.02501296342224580 
-0.0005437643859309577 0.01378237811559242 -0.01292435643642358 
0.01064301661520845 -0.007691053424614179 -0.001657850448297915 
0.01064301661520845 -0.007691053424614179 -0.001657850448297915 
0.04363944246013912 -0.01029347212072804 -0.03743752299302259 
0.008255145641388415 -0.01091050460506648 0.001775167259548174 
0.01064301661520845 -0.007691053424614179 -0.001657850448297915 
0.01064301661520845 -0.007691053424614179 -0.001657850448297915 
0.01064301661520845 -0.007691053424614179 -0.001657850448297915 
0.01064301661520845 -0.007691053424614179 -0.001657850448297915 
0.01064301661520845 -0.007691053424614179 -0.001657850448297915 
0.01064301661520845 -0.007691053424614179 -0.001657850448297915 
0.01064301661520845 -0.007691053424614179 -0.001657850448297915 
0.01064301661520845 -0.007691053424614179 -0.001657850448297915 
0.01064301661520845 -0.007691053424614179 -0.001657850448297915 
0.01064301661520845 -0.007691053424614179 -0.001657850448297915 
0.01408183784753147 -0.02650103548596792 0.01248400044186127 
0.01064301661520845 -0.007691053424614179 -0.001657850448297915 
0.01064301661520845 -0.007691053424614179 -0.001657850448297915 
0.02874426050837406 -0.01739645033273807 -0.008313021194516514 
0.01064301661520845 -0.007691053424614179 -0.001657850448297915 
0.01064301661520845 -0.007691053424614179 -0.001657850448297915 
0.005518604883822264 -0.01930653665895400 0.01725580427972208 
0.01064301661520845 -0.007691053424614179 -0.001657850448297915 
0.02100829200189672 -0.01269298689840926 -0.009247084058290271 
0.01064301661520845 -0.007691053424614179 -0.001657850448297915 
0.02847978225842393 -0.02029131454250188 -0.008057682779892205 
0.001672524856293780 -0.007892009553590701 0.005792019848119084 
0.01064301661520845 -0.007691053424614179 -0.001657850448297915 
-4.217705185075307e-05 0.01059174725933862 -0.01140900537573842 
-0.02389597761056701 -0.01671424373980117 0.03084685546486504 
0.01064301661520845 -0.007691053424614179 -0.001657850448297915 
0.01064301661520845 -0.007691053424614179 -0.001657850448297915 
0.01064301661520845 -0.007691053424614179 -0.001657850448297915 
0.05261994768794949 -0.02774688152959287 -0.02752661755614932 
0.01064301661520845 -0.007691053424614179 -0.001657850448297915 
0.01064301661520845 -0.007691053424614179 -0.001657850448297915 
0.006983606954456490 0.0003130959727461755 -0.006525605395744547 
0.01353409951378314 0.002459559630683527 -0.01670961034126551 
-0.0005910972306609629 0.01479320198027046 -0.01264240285681398 
0.01064301661520845 -0.007691053424614179 -0.001657850448297915 
0.01064301661520845 -0.007691053424614179 -0.001657850448297915 
0.0005417966524287636 0.01809395596520716 -0.02543473711859891 
0.01064301661520845 -0.007691053424614179 -0.001657850448297915 
0.01064301661520845 -0.007691053424614179 -0.001657850448297915 
0.01064301661520845 -0.007691053424614179 -0.001657850448297915 
0.01064301661520845 -0.007691053424614179 -0.001657850448297915 
0.01308255001009556 -0.006765406540190471 -0.005079102090956218 
0.01308255001009556 -0.006765406540190471 -0.005079102090956218 
0.01308255001009556 -0.006765406540190471 -0.005079102090956218 
0.01942781270921357 -0.01815328801935612 -0.0006786431413331366 
0.01308255001009556 -0.006765406540190471 -0.005079102090956218 
-0.007155636660673640 -0.001733611252437965 0.002988586899792194 
0.01308255001009556 -0.006765406540190471 -0.005079102090956218 
0.01308255001009556 -0.006765406540190471 -0.005079102090956218 
0.02979183242544100 -0.02577649738689190 -0.01714075086020878 
0.03027624243469631 -0.01879550026198088 -0.01395005496959301 
0.01308255001009556 -0.006765406540190471 -0.005079102090956218 
0.01308255001009556 -0.006765406540190471 -0.005079102090956218 
0.01538315049974223 -0.006930327896089412 -0.007157664221960380 
0.007861207926399580 0.002038797527344156 -0.009180594604371485 
0.03399826301357607 -0.01542975156806662 -0.02059425571681715 
0.002276879768872170 0.01046146391668827 -0.01809424254710725 
0.04635124161834521 -0.03179265070948280 -0.01595416334760801 
0.01308255001009556 -0.006765406540190471 -0.005079102090956218 
0.008714311565023200 -0.01126541906358817 0.007066745209346424 
0.01308255001009556 -0.006765406540190471 -0.005079102090956218 
0.01308255001009556 -0.006765406540190471 -0.005079102090956218 
0.01308255001009556 -0.006765406540190471 -0.005079102090956218 
0.01308255001009556 -0.006765406540190471 -0.005079102090956218 
0.006374995821146291 -0.01923164269515524 0.01327465365395350 
0.01308255001009556 -0.006765406540190471 -0.005079102090956218 
0.01308255001009556 -0.006765406540190471 -0.005079102090956218 
-0.007604690610754077 -0.007217000314473232 0.008443040278449325 
0.04439516925395178 -0.01947815908280627 -0.02601390602175819 
0.01308255001009556 -0.006765406540190471 -0.005079102090956218 
0.01308255001009556 -0.006765406540190471 -0.005079102090956218 
0.01308255001009556 -0.006765406540190471 -0.005079102090956218 
-0.004807408942864907 -0.004211108484785023 0.0007106494343974647 
0.01308255001009556 -0.006765406540190471 -0.005079102090956218 
0.01308255001009556 -0.006765406540190471 -0.005079102090956218 
-0.007041845291535457 0.008429446009660520 -0.005133240712042840 
0.01429200494739781 -0.001880427859592017 -0.01162321092086453 
0.01980544666882931 -0.002494036595700097 -0.02097983435843380 
0.01308255001009556 -0.006765406540190471 -0.005079102090956218 
0.01308255001009556 -0.006765406540190471 -0.005079102090956218 
0.01308255001009556 -0.006765406540190471 -0.005079102090956218 
0.01308255001009556 -0.006765406540190471 -0.005079102090956218 
0.01308255001009556 -0.006765406540190471 -0.005079102090956218 
0.01308255001009556 -0.006765406540190471 -0.005079102090956218 
0.01308255001009556 -0.006765406540190471 -0.005079102090956218 
0.07815298495909326 -0.04192780418306919 -0.05496235181384049 
0.05005450082933363 -0.02728184673331025 -0.05248547342329957 
-0.008170596608046195 -0.001642751237318521 0.008716470647696735 
2.860814078044081e-06 6.371207256904656e-07 -0.0005886038560085349 
-0.01410237977685903 -0.007294567731017494 0.01032977715607346 
2.860814078044081e-06 6.371207256904656e-07 -0.0005886038560085349 
2.860814078044081e-06 6.371207256904656e-07 -0.0005886038560085349 
2.860814078044081e-06 6.371207256904656e-07 -0.0005886038560085349 
2.860814078044081e-06 6.371207256904656e-07 -0.0005886038560085349 
-0.004658685058399042 -0.03330816158423024 0.02412793535488575 
-0.04911910722698964 0.03617375872603422 0.004897589616255175 
2.860814078044081e-06 6.371207256904656e-07 -0.0005886038560085349 
0.006047224814384356 -0.0004741080660557683 -0.008222194857662578 
2.860814078044081e-06 6.371207256904656e-07 -0.0005886038560085349 
0.008647940652398512 -0.01395736711059223 -0.004473750549439701 
0.03678635445504302 -0.05990757341248704 0.004489958353800545 
-0.0001123112261421722 0.001253632847117244 -0.005641964730653010 
-0.02092666589030878 -0.01319649630177467 0.02865520093177863 
0.02675474659753923 -0.004709996950805070 -0.02160730775803650 
0.01648463598889799 -0.01061735613136146 -0.007634082743257707 
0.009909563868945377 -0.02588822368871314 0.007409155472169619 
0.01758377647575368 -0.01032522996273399 -0.01962688011636826 
0.01822989733287363 -0.002669307945124213 -0.01975688863260016 
0.03492227187868699 -0.02232790426148246 -0.02618504754408831 
-0.001615448052998500 -6.061959764875068e-05 -0.0007141970789959584 
0.008476610857445650 -0.01058056299820268 0.001126972323199777 
0.004169564139672356 2.200195421737114e-06 -0.005199076017336376 
2.860814078044081e-06 6.371207256904656e-07 -0.0005886038560085349 
0.02248878821107544 0.005478167837161958 -0.03154055928703174 
2.860814078044081e-06 6.371207256904656e-07 -0.0005886038560085349 
-0.003419319362709911 -0.005122726265156912 0.006368664222996991 
0.01167183751863367 -0.005071080519795134 -0.007347359049598636 
0.05787346903110030 -0.02994116366541214 -0.03611060269079092 
-0.01467718366506346 -0.01232896282807014 0.02010569858104755 
-0.003336122159150495 0.009865892536138069 -0.008743544929153508 
0.001567451113922640 -0.003733090068849472 -0.006826209031133090 
2.860814078044081e-06 6.371207256904656e-07 -0.0005886038560085349 
-0.006311428369711472 -0.009267718511568837 0.01331642158105311 
0.005600799388646912 7.605537475826994e-07 -0.01026317012416614 
-0.005365472494917152 -0.003216908810889385 -0.002749790709101592 
0.006235961160210403 -0.002769515369116979 -0.004843176754613508 
0.01467256007218658 -0.005164004494195689 -0.01278262743557728 
0.04961763999288547 -0.01028346444004742 -0.04114595602979732 
0.01832717962812749 -0.01801506705381398 -0.005450615589663026 
0.01520486586522364 0.008579541533608124 -0.02200097808142159 
2.860814078044081e-06 6.371207256904656e-07 -0.0005886038560085349 
-0.002689049805201326 -0.01225713214087383 0.01198571128340033 
2.860814078044081e-06 6.371207256904656e-07 -0.0005886038560085349 
0.01806117104378492 -0.01110689395945661 -0.01118446401119379 
0.01145523869561346 -0.0009300180824667884 -0.01021257078856983 
2.860814078044081e-06 6.371207256904656e-07 -0.0005886038560085349 
0.005344945534519997 6.558228083480461e-07 -0.01065733451137140 
2.860814078044081e-06 6.371207256904656e-07 -0.0005886038560085349 
0.02689619677686845 -0.01023981516132416 -0.01540308355565112 
0.03413640640834117 -0.01514641355004098 -0.02181080622756320 
-0.006373878322891952 -0.006656754777061480 0.009671878827850993 
0.05594783280649229 -0.01447335237655534 -0.04464479577715824 
-0.01435322591382216 0.006525410226734865 0.006156995820944474 
2.860814078044081e-06 6.371207256904656e-07 -0.0005886038560085349 
2.860814078044081e-06 6.371207256904656e-07 -0.0005886038560085349 
0.01754770720656497 -0.05651669409573566 0.02875260053574354 
0.01166897670455562 -0.005071717640520825 -0.006758755193590101 
0.01166897670455562 -0.005071717640520825 -0.006758755193590101 
0.02647044063655755 -0.01510271316992209 -0.01444298610505312 
0.003919014849233837 -0.02220582404217178 0.01208583008458675 
0.01166897670455562 -0.005071717640520825 -0.006758755193590101 
0.01166897670455562 -0.005071717640520825 -0.006758755193590101 
0.008239425642416576 0.003411237810183072 -0.01303135243610268 
0.002762986164356888 0.01022522220311665 -0.01342736493436812 
0.01329637873040741 -0.01519809376492998 0.001534690882483971 
0.01166897670455562 -0.005071717640520825 -0.006758755193590101 
0.01166897670455562 -0.005071717640520825 -0.006758755193590101 
0.01166897670455562 -0.005071717640520825 -0.006758755193590101 
0.01166897670455562 -0.005071717640520825 -0.006758755193590101 
0.01166897670455562 -0.005071717640520825 -0.006758755193590101 
0.009257878594186635 -0.009969524892665574 0.0003455489059890174 
0.01166897670455562 -0.005071717640520825 -0.006758755193590101 
0.01166897670455562 -0.005071717640520825 -0.006758755193590101 
0.01166897670455562 -0.005071717640520825 -0.006758755193590101 
0.01166897670455562 -0.005071717640520825 -0.006758755193590101 
0.01166897670455562 -0.005071717640520825 -0.006758755193590101 
0.01166897670455562 -0.005071717640520825 -0.006758755193590101 
0.01166897670455562 -0.005071717640520825 -0.006758755193590101 
0.01166897670455562 -0.005071717640520825 -0.006758755193590101 
0.01166897670455562 -0.005071717640520825 -0.006758755193590101 
0.01166897670455562 -0.005071717640520825 -0.006758755193590101 
0.01166897670455562 -0.005071717640520825 -0.006758755193590101 
0.01166897670455562 -0.005071717640520825 -0.006758755193590101 
-0.01468433012830720 -0.002830275685970813 0.002855239403375298 
0.01166897670455562 -0.005071717640520825 -0.006758755193590101 
0.01166897670455562 -0.005071717640520825 -0.006758755193590101 
0.01166897670455562 -0.005071717640520825 -0.006758755193590101 
0.01166897670455562 -0.005071717640520825 -0.006758755193590101 
0.01166897670455562 -0.005071717640520825 -0.006758755193590101 
0.01166897670455562 -0.005071717640520825 -0.006758755193590101 
0.02447155616555428 -0.01883227198010112 -0.01107516041432222 
0.04951819454643549 -0.03480573799473479 -0.01735339968665709 
0.006110976888461928 -0.01385684779327459 0.005278263472666616 
0.01166897670455562 -0.005071717640520825 -0.006758755193590101 
0.06948491002808756 -0.04514653537926740 -0.02342533924388588 
0.01166897670455562 -0.005071717640520825 -0.006758755193590101 
0.01166897670455562 -0.005071717640520825 -0.006758755193590101 
-0.002345150101854041 0.008440577651520450 -0.01088391007436933 
0.01166897670455562 -0.005071717640520825 -0.006758755193590101 
0.01166897670455562 -0.005071717640520825 -0.006758755193590101 
0.01166897670455562 -0.005071717640520825 -0.006758755193590101 
0.005393683214566966 0.002486301743143334 -0.01023155187444762 
0.01166897670455562 -0.005071717640520825 -0.006758755193590101 
0.01166897670455562 -0.005071717640520825 -0.006758755193590101 
-0.007786757766746404 -0.04535125406797025 0.05187463195462415 
0.01166897670455562 -0.005071717640520825 -0.006758755193590101 
0.01166897670455562 -0.005071717640520825 -0.006758755193590101 
0.01166897670455562 -0.005071717640520825 -0.006758755193590101 
0.01166897670455562 -0.005071717640520825 -0.006758755193590101 
0.01166897670455562 -0.005071717640520825 -0.006758755193590101 
-0.003554591681063978 0.007982611363320260 -0.007666403412872746 
-0.01852887020939505 -0.02254409525830593 0.03349048803599838 
0.005430610997254935 -0.01232956509760651 0.005046043105061092 
0.01166897670455562 -0.005071717640520825 -0.006758755193590101 
0.01166897670455562 -0.005071717640520825 -0.006758755193590101 
0.01166897670455562 -0.005071717640520825 -0.006758755193590101 
0.01166897670455562 -0.005071717640520825 -0.006758755193590101 
0.01166897670455562 -0.005071717640520825 -0.006758755193590101 
0.005348084056841199 -0.01018927921440980 0.002218852058582365 
0.01166897670455562 -0.005071717640520825 -0.006758755193590101 
0.01166897670455562 -0.005071717640520825 -0.006758755193590101 
0.01166897670455562 -0.005071717640520825 -0.006758755193590101 
0.01166897670455562 -0.005071717640520825 -0.006758755193590101 
-0.005250362083091654 0.009862560636065060 -0.008921118863147153 
0.01166897670455562 -0.005071717640520825 -0.006758755193590101 
0.01166897670455562 -0.005071717640520825 -0.006758755193590101 
0.01166897670455562 -0.005071717640520825 -0.006758755193590101 
0.01166897670455562 -0.005071717640520825 -0.006758755193590101 
0.01166897670455562 -0.005071717640520825 -0.006758755193590101 
-0.004484417467272436 -0.009412427694501953 0.005628907126201643 
-0.008064246298382097 0.01626841432365481 -0.008671638434062106 
0.01166897670455562 -0.005071717640520825 -0.006758755193590101 
0.01166897670455562 -0.005071717640520825 -0.006758755193590101 
0.01846773961520394 -0.02101326399549162 -0.003342831820790890 
0.01166897670455562 -0.005071717640520825 -0.006758755193590101 
0.01166897670455562 -0.005071717640520825 -0.006758755193590101 
0.003572357529858512 -0.003007761594292186 -0.001957997585068733 
0.005357751466214769 -0.02087243598223201 0.01180263318725039 
0.003572357529858512 -0.003007761594292186 -0.001957997585068733 
0.01206530565516403 -0.008406199827267239 -0.006551122557659325 
0.003716000050093467 -0.02136565980560018 0.01293145422914723 
0.003572357529858512 -0.003007761594292186 -0.001957997585068733 
0.003572357529858512 -0.003007761594292186 -0.001957997585068733 
-0.0007739959533751120 0.006544319271936103 -0.006209428825530814 
0.003572357529858512 -0.003007761594292186 -0.001957997585068733 
0.04938473867126568 -0.01646080892345348 -0.04286573482356716 
0.003572357529858512 -0.003007761594292186 -0.001957997585068733 
0.003572357529858512 -0.003007761594292186 -0.001957997585068733 
0.003572357529858512 -0.003007761594292186 -0.001957997585068733 
0.003572357529858512 -0.003007761594292186 -0.001957997585068733 
0.003572357529858512 -0.003007761594292186 -0.001957997585068733 
0.004252373434876331 -0.01926423236982043 0.01016438646898589 
0.003572357529858512 -0.003007761594292186 -0.001957997585068733 
0.003572357529858512 -0.003007761594292186 -0.001957997585068733 
0.0009178257130393573 -0.02162443960028177 0.01423436736472082 
0.003572357529858512 -0.003007761594292186 -0.001957997585068733 
0.003572357529858512 -0.003007761594292186 -0.001957997585068733 
0.003572357529858512 -0.003007761594292186 -0.001957997585068733 
0.003572357529858512 -0.003007761594292186 -0.001957997585068733 
0.02320821266430690 -0.01311253887885010 -0.01373937838304752 
0.003572357529858512 -0.003007761594292186 -0.001957997585068733 
0.003572357529858512 -0.003007761594292186 -0.001957997585068733 
0.003572357529858512 -0.003007761594292186 -0.001957997585068733 
0.003572357529858512 -0.003007761594292186 -0.001957997585068733 
0.003572357529858512 -0.003007761594292186 -0.001957997585068733 
0.003572357529858512 -0.003007761594292186 -0.001957997585068733 
0.003572357529858512 -0.003007761594292186 -0.001957997585068733 
0.003572357529858512 -0.003007761594292186 -0.001957997585068733 
0.007134534399821362 -0.008377790452541856 0.0007768044545105092 
0.01979302740052400 -0.004070642925609804 -0.01922422197901089 
0.003572357529858512 -0.003007761594292186 -0.001957997585068733 
0.003572357529858512 -0.003007761594292186 -0.001957997585068733 
0.003572357529858512 -0.003007761594292186 -0.001957997585068733 
0.003572357529858512 -0.003007761594292186 -0.001957997585068733 
0.007621139265577746 -0.004221985776353834 -0.005058720260112268 
0.001266160515649746 -0.01117797530279526 0.007930781603002186 
0.003572357529858512 -0.003007761594292186 -0.001957997585068733 
0.003572357529858512 -0.003007761594292186 -0.001957997585068733 
0.003572357529858512 -0.003007761594292186 -0.001957997585068733 
0.003572357529858512 -0.003007761594292186 -0.001957997585068733 
0.003572357529858512 -0.003007761594292186 -0.001957997585068733 
0.001701269160643826 0.001537372138170855 -0.003413228797389935 
0.003572357529858512 -0.003007761594292186 -0.001957997585068733 
0.003572357529858512 -0.003007761594292186 -0.001957997585068733 
0.003572357529858512 -0.003007761594292186 -0.001957997585068733 
0.003572357529858512 -0.003007761594292186 -0.001957997585068733 
0.003572357529858512 -0.003007761594292186 -0.001957997585068733 
0.003572357529858512 -0.003007761594292186 -0.001957997585068733 
0.003572357529858512 -0.003007761594292186 -0.001957997585068733 
0.003572357529858512 -0.003007761594292186 -0.001957997585068733 
0.002246653675121800 -0.009244323310969112 0.004323305161691871 
0.007621139265577746 -0.004221985776353834 -0.005058720260112268 
-0.04025616013568115 0.08601914126681594 -0.05210667365730536 
0.003572357529858512 -0.003007761594292186 -0.001957997585068733 
0.003572357529858512 -0.003007761594292186 -0.001957997585068733 
0.003572357529858512 -0.003007761594292186 -0.001957997585068733 
-0.001104606533767768 -0.01552430779576312 0.01223317795380381 
0.003572357529858512 -0.003007761594292186 -0.001957997585068733 
0.003572357529858512 -0.003007761594292186 -0.001957997585068733 
0.003572357529858512 -0.003007761594292186 -0.001957997585068733 
0.003572357529858512 -0.003007761594292186 -0.001957997585068733 
0.003572357529858512 -0.003007761594292186 -0.001957997585068733 
0.007584303596446338 -0.003793637119850023 -0.003660497470643403 
0.003572357529858512 -0.003007761594292186 -0.001957997585068733 
0.003572357529858512 -0.003007761594292186 -0.001957997585068733 
0.003572357529858512 -0.003007761594292186 -0.001957997585068733 
0.003572357529858512 -0.003007761594292186 -0.001957997585068733 
0.003572357529858512 -0.003007761594292186 -0.001957997585068733 
0.01049409168889742 -0.006304119810930329 -0.003670898038655415 
0.003572357529858512 -0.003007761594292186 -0.001957997585068733 
0.003572357529858512 -0.003007761594292186 -0.001957997585068733 
0.003572357529858512 -0.003007761594292186 -0.001957997585068733 
0.003572357529858512 -0.003007761594292186 -0.001957997585068733 
0.003572357529858512 -0.003007761594292186 -0.001957997585068733 
0.003572357529858512 -0.003007761594292186 -0.001957997585068733 
-0.001677322706996884 -0.01935894466761782 0.01677956303004989 
0.003572357529858512 -0.003007761594292186 -0.001957997585068733 
0.003572357529858512 -0.003007761594292186 -0.001957997585068733 
0.003572357529858512 -0.003007761594292186 -0.001957997585068733 
0.003572357529858512 -0.003007761594292186 -0.001957997585068733 
-0.002610810001463885 0.01696302262814130 -0.01497988189684720 
0.003572357529858512 -0.003007761594292186 -0.001957997585068733 
0.01496677261616108 -0.02064024972136036 0.002611775400583453 
0.003572357529858512 -0.003007761594292186 -0.001957997585068733 
0.003572357529858512 -0.003007761594292186 -0.001957997585068733 
0.003572357529858512 -0.003007761594292186 -0.001957997585068733 
0.003572357529858512 -0.003007761594292186 -0.001957997585068733 
0.003572357529858512 -0.003007761594292186 -0.001957997585068733 
0.003572357529858512 -0.003007761594292186 -0.001957997585068733 
0.003572357529858512 -0.003007761594292186 -0.001957997585068733 
0.003572357529858512 -0.003007761594292186 -0.001957997585068733 
0.003572357529858512 -0.003007761594292186 -0.001957997585068733 
0.003572357529858512 -0.003007761594292186 -0.001957997585068733 
0.003572357529858512 -0.003007761594292186 -0.001957997585068733 
0.01618274588658084 -0.01084845704606018 -0.007504798827775328 
0.003572357529858512 -0.003007761594292186 -0.001957997585068733 
0.003572357529858512 -0.003007761594292186 -0.001957997585068733 
0.01206530565516403 -0.008406199827267239 -0.006551122557659325 
0.003572357529858512 -0.003007761594292186 -0.001957997585068733 
0.01679227967631188 0.002163139279124601 -0.02282897913633529 
0.01806139302662807 -0.004157761062873808 -0.01433109913093933 
0.006150370365809000 0.009954383399762677 -0.01734894878737699 
-0.001203439129569269 -0.0009779837325563667 -0.001564155678929917 
0.01224621874452783 0.01816067679791681 -0.03129571832421403 
0.003953303229391750 0.004065282588429382 -0.01012871202873221 
-0.001244397301111755 -0.01026102875926001 0.009517289671486557 
0.009987328325835465 -0.01929756708868678 0.006874759689445903 
0.01300064510173958 -0.007422104065897986 -0.005351976557185120 
-0.0004923562519011938 -0.02645635343277460 0.02197733020169820 
0.01300064510173958 -0.007422104065897986 -0.005351976557185120 
0.01300064510173958 -0.007422104065897986 -0.005351976557185120 
0.009237050829648595 -0.01956557092312023 0.005174298777638391 
0.003658383787693625 -0.006001630326201676 0.002802400745690632 
0.01300064510173958 -0.007422104065897986 -0.005351976557185120 
0.01300064510173958 -0.007422104065897986 -0.005351976557185120 
0.001592012928232611 -0.02304118341386996 0.01333265103688091 
0.007129130989125736 -0.01422467901332590 0.006537937951652572 
0.01300064510173958 -0.007422104065897986 -0.005351976557185120 
0.01300064510173958 -0.007422104065897986 -0.005351976557185120 
0.01300064510173958 -0.007422104065897986 -0.005351976557185120 
0.007817514169466555 -0.02209616185687748 0.01189204510591263 
0.007723494300652016 -0.002276593916665530 -0.007004072790674466 
0.01300064510173958 -0.007422104065897986 -0.005351976557185120 
0.01300064510173958 -0.007422104065897986 -0.005351976557185120 
0.01300064510173958 -0.007422104065897986 -0.005351976557185120 
0.01300064510173958 -0.007422104065897986 -0.005351976557185120 
0.006080942871214762 -0.01654728459957897 0.01229317992431074 
0.01300064510173958 -0.007422104065897986 -0.005351976557185120 
-0.01314884156819766 0.004506626705534382 -0.0008625602141727316 
0.01300064510173958 -0.007422104065897986 -0.005351976557185120 
0.01300064510173958 -0.007422104065897986 -0.005351976557185120 
0.01300064510173958 -0.007422104065897986 -0.005351976557185120 
0.009707462902461616 -0.007421121464595152 -0.001742826375002355 
0.006150183758231341 0.008181804083509357 -0.01790680668119710 
-0.007996047710723890 -0.001839537484444378 0.002995250036976318 
0.01300064510173958 -0.007422104065897986 -0.005351976557185120 
0.02497944191546030 -0.01953025731028326 -0.005282775112525110 
0.01300064510173958 -0.007422104065897986 -0.005351976557185120 
0.01300064510173958 -0.007422104065897986 -0.005351976557185120 
0.01300064510173958 -0.007422104065897986 -0.005351976557185120 
0.01300064510173958 -0.007422104065897986 -0.005351976557185120 
0.01300064510173958 -0.007422104065897986 -0.005351976557185120 
0.02862705682067596 -0.02398585182419266 -0.005349329620348538 
0.006823907463335165 0.0009462587402044581 -0.008803433115675512 
0.01300064510173958 -0.007422104065897986 -0.005351976557185120 
0.007228290804020498 -0.009265685639895318 0.002568701445811208 
0.01300064510173958 -0.007422104065897986 -0.005351976557185120 
0.03213651913048605 -0.01896587321061402 -0.01207615749780720 
0.01300064510173958 -0.007422104065897986 -0.005351976557185120 
-0.004024059478920384 0.004844789299868430 -0.003867050461995769 
0.01300064510173958 -0.007422104065897986 -0.005351976557185120 
0.03217337315539518 -0.01781068903022051 -0.01653451749844315 
0.01300064510173958 -0.007422104065897986 -0.005351976557185120 
0.01300064510173958 -0.007422104065897986 -0.005351976557185120 
0.01300064510173958 -0.007422104065897986 -0.005351976557185120 
0.01300064510173958 -0.007422104065897986 -0.005351976557185120 
0.008654291618505955 0.002129976800330303 -0.009603407797647201 
0.01300064510173958 -0.007422104065897986 -0.005351976557185120 
-0.004046396977309689 -0.01878965658469608 0.01858047145583277 
-0.02725462253228492 -0.04572912379297538 0.05993744939082617 
0.01300064510173958 -0.007422104065897986 -0.005351976557185120 
0.01300064510173958 -0.007422104065897986 -0.005351976557185120 
0.04702387447695821 -0.01479049519476961 -0.03571408018472637 
0.01009278087195301 -0.004943291581136931 -0.006151116852513068 
0.01793376480202872 -0.01689663357681056 -0.001787738207288621 
-0.01744812469895131 -0.04764272614119374 0.05912614809209077 
0.01574763546068132 -0.01689662981729661 -0.0006930619627765064 
0.02154227815911329 -0.01216231961226888 -0.01010299082426332 
0.02154227815911329 -0.01216231961226888 -0.01010299082426332 
0.01009278087195301 -0.004943291581136931 -0.006151116852513068 
0.008967162335636594 -0.009711397781511935 -0.001132174945347049 
0.01405895740820889 -0.005019286482136132 -0.01030053100231684 
0.01009278087195301 -0.004943291581136931 -0.006151116852513068 
0.01009278087195301 -0.004943291581136931 -0.006151116852513068 
0.01009278087195301 -0.004943291581136931 -0.006151116852513068 
-0.07169836177718411 0.02657610179729365 0.03024138715430312 
0.02271950212465940 -0.008234525504094741 -0.01603546246575834 
0.01556548103471624 0.001975326345346456 -0.01826380759835622 
0.007915025986262359 -0.009224482809944241 7.078690474009934e-05 
0.01009278087195301 -0.004943291581136931 -0.006151116852513068 
0.01009278087195301 -0.004943291581136931 -0.006151116852513068 
0.01009278087195301 -0.004943291581136931 -0.006151116852513068 
0.006484267514868440 -0.009677605545678614 0.002164135764461634 
0.01009278087195301 -0.004943291581136931 -0.006151116852513068 
0.01009278087195301 -0.004943291581136931 -0.006151116852513068 
0.01020442281565257 0.002520897979733692 -0.01069357242130057 
0.01009278087195301 -0.004943291581136931 -0.006151116852513068 
0.01009278087195301 -0.004943291581136931 -0.006151116852513068 
0.006574754827727739 -0.007753898744892414 -0.0002320053715351591 
0.01540379664077564 -0.005275579458229544 -0.01156259973157601 
0.01009278087195301 -0.004943291581136931 -0.006151116852513068 
0.01009278087195301 -0.004943291581136931 -0.006151116852513068 
0.006574754827727739 -0.007753898744892414 -0.0002320053715351591 
0.006179464234952342 -0.02158044817935819 0.01148977195351442 
0.01009278087195301 -0.004943291581136931 -0.006151116852513068 
0.01009278087195301 -0.004943291581136931 -0.006151116852513068 
0.01009278087195301 -0.004943291581136931 -0.006151116852513068 
0.01009278087195301 -0.004943291581136931 -0.006151116852513068 
0.01009278087195301 -0.004943291581136931 -0.006151116852513068 
0.008663620476507957 -0.0003017839574998111 -0.009568065701334724 
0.01009278087195301 -0.004943291581136931 -0.006151116852513068 
-0.004382881778621893 -0.008584855149669559 0.01422810041174636 
0.01009278087195301 -0.004943291581136931 -0.006151116852513068 
0.01757698426015756 -0.006729554103592223 -0.01100383038938699 
0.01009278087195301 -0.004943291581136931 -0.006151116852513068 
0.01009278087195301 -0.004943291581136931 -0.006151116852513068 
0.01009278087195301 -0.004943291581136931 -0.006151116852513068 
0.004932514370263544 -0.006758266655993770 0.0004907245288563917 
0.01009278087195301 -0.004943291581136931 -0.006151116852513068 
0.01009278087195301 -0.004943291581136931 -0.006151116852513068 
0.01009278087195301 -0.004943291581136931 -0.006151116852513068 
0.008663620476507957 -0.0003017839574998111 -0.009568065701334724 
0.01009278087195301 -0.004943291581136931 -0.006151116852513068 
0.01009278087195301 -0.004943291581136931 -0.006151116852513068 
0.01009278087195301 -0.004943291581136931 -0.006151116852513068 
0.01009278087195301 -0.004943291581136931 -0.006151116852513068 
0.01009278087195301 -0.004943291581136931 -0.006151116852513068 
0.01009278087195301 -0.004943291581136931 -0.006151116852513068 
0.01009278087195301 -0.004943291581136931 -0.006151116852513068 
0.01009278087195301 -0.004943291581136931 -0.006151116852513068 
0.01009278087195301 -0.004943291581136931 -0.006151116852513068 
0.01009278087195301 -0.004943291581136931 -0.006151116852513068 
0.01009278087195301 -0.004943291581136931 -0.006151116852513068 
0.01009278087195301 -0.004943291581136931 -0.006151116852513068 
0.01009278087195301 -0.004943291581136931 -0.006151116852513068 
0.01009278087195301 -0.004943291581136931 -0.006151116852513068 
0.01009278087195301 -0.004943291581136931 -0.006151116852513068 
0.01009278087195301 -0.004943291581136931 -0.006151116852513068 
0.01009278087195301 -0.004943291581136931 -0.006151116852513068 
0.01009278087195301 -0.004943291581136931 -0.006151116852513068 
0.01009278087195301 -0.004943291581136931 -0.006151116852513068 
0.01009278087195301 -0.004943291581136931 -0.006151116852513068 
0.01009278087195301 -0.004943291581136931 -0.006151116852513068 
0.01009278087195301 -0.004943291581136931 -0.006151116852513068 
-0.006391086543097775 -0.03053695407665906 0.03357503263231569 
0.02360444777853259 -0.001368689823466110 -0.02332918286919978 
0.01009278087195301 -0.004943291581136931 -0.006151116852513068 
0.01009278087195301 -0.004943291581136931 -0.006151116852513068 
0.01009278087195301 -0.004943291581136931 -0.006151116852513068 
0.01414156260767224 -0.006157515763198579 -0.009251839527556602 
0.01009278087195301 -0.004943291581136931 -0.006151116852513068 
0.01612051821202261 -0.01740476615829117 8.425263581550042e-05 
0.01214343827480326 -0.006126076149000438 -0.007346498653951930 
0.01009278087195301 -0.004943291581136931 -0.006151116852513068 
0.01009278087195301 -0.004943291581136931 -0.006151116852513068 
0.04584176138902690 -0.06316655241483517 0.01035535751272649 
0.01009278087195301 -0.004943291581136931 -0.006151116852513068 
0.008967162335636594 -0.009711397781511935 -0.001132174945347049 
-0.01176718927678858 0.01279386664655452 -0.006009427984772872 
0.01009278087195301 -0.004943291581136931 -0.006151116852513068 
0.01402637991201356 -0.006899453997043012 -0.007746449964509912 
0.005503330165047139 0.005559886240926931 -0.01233132253392592 
0.02018507166648843 -0.01031556427864289 -0.009461938252453360 
-5.180156410816142e-05 0.0005356610701317218 -0.003178429935403468 
0.002560745193920013 -0.01693374513757203 0.01025493712267312 
0.002959979290806322 0.01017477529337729 -0.01805935037787414 
-0.01469421422436029 -0.01471925934775842 0.02122084842966840 
0.01009278087195301 -0.004943291581136931 -0.006151116852513068 
0.006145343812119891 -0.01467609188952950 0.007397484447560759 
0.01009278087195301 -0.004943291581136931 -0.006151116852513068 
0.01009278087195301 -0.004943291581136931 -0.006151116852513068 
0.01648177517481995 -0.01061799325208715 -0.007045478887249172 
0.01648177517481995 -0.01061799325208715 -0.007045478887249172 
0.01648177517481995 -0.01061799325208715 -0.007045478887249172 
0.01648177517481995 -0.01061799325208715 -0.007045478887249172 
0.01648177517481995 -0.01061799325208715 -0.007045478887249172 
0.04327511690065445 -0.01902080564699981 -0.02811896070438962 
0.03706997952437142 -0.04481439340985179 0.006155606115033489 
0.01437748915823794 -0.001287313689752495 -0.01506708049725918 
0.01648177517481995 -0.01061799325208715 -0.007045478887249172 
0.01648177517481995 -0.01061799325208715 -0.007045478887249172 
-0.005758677161822526 0.01683839648650866 -0.009985590108182230 
0.01648177517481995 -0.01061799325208715 -0.007045478887249172 
0.01648177517481995 -0.01061799325208715 -0.007045478887249172 
0.003777678281873609 0.01633484108404135 -0.02221649199442840 
0.01648177517481995 -0.01061799325208715 -0.007045478887249172 
0.01648177517481995 -0.01061799325208715 -0.007045478887249172 
0.01220416866333405 -0.0009449909737709162 -0.01239251610243011 
-0.01642710569865924 -0.03881596526734243 0.03880940175835806 
0.01399369922799453 0.002802041094941297 -0.01784974966633754 
0.01648177517481995 -0.01061799325208715 -0.007045478887249172 
0.01648177517481995 -0.01061799325208715 -0.007045478887249172 
0.01648177517481995 -0.01061799325208715 -0.007045478887249172 
-0.02928622053662161 -0.03553147188425478 0.05708045633793291 
0.01648177517481995 -0.01061799325208715 -0.007045478887249172 
0.01648177517481995 -0.01061799325208715 -0.007045478887249172 
0.01648177517481995 -0.01061799325208715 -0.007045478887249172 
0.01648177517481995 -0.01061799325208715 -0.007045478887249172 
0.01648177517481995 -0.01061799325208715 -0.007045478887249172 
0.01631660334818352 -0.02340321274801120 0.005544434880502029 
0.01648177517481995 -0.01061799325208715 -0.007045478887249172 
0.02926611531855324 -0.01885700010644808 -0.01232915216306976 
0.01648177517481995 -0.01061799325208715 -0.007045478887249172 
0.01648177517481995 -0.01061799325208715 -0.007045478887249172 
0.01341507214408357 -0.02169269969466027 0.006424053502314040 
0.01908370776077852 -0.01612108314712721 -0.0009792395565875803 
0.01648177517481995 -0.01061799325208715 -0.007045478887249172 
0.01648177517481995 -0.01061799325208715 -0.007045478887249172 
0.01447537491405693 -0.0005882016825396539 -0.01800916278973985 
0.01648177517481995 -0.01061799325208715 -0.007045478887249172 
0.01025134774703063 -0.005698496459477506 -0.006885979002085504 
0.009216437294842679 -0.03007357553674013 0.007033227283400653 
0.01025134774703063 -0.005698496459477506 -0.006885979002085504 
0.01025134774703063 -0.005698496459477506 -0.006885979002085504 
0.01025134774703063 -0.005698496459477506 -0.006885979002085504 
0.03635558530851496 -0.02021099824580573 -0.02127557746664923 
0.01025134774703063 -0.005698496459477506 -0.006885979002085504 
0.01025134774703063 -0.005698496459477506 -0.006885979002085504 
0.01025134774703063 -0.005698496459477506 -0.006885979002085504 
0.02997884617154497 -0.02686839014359290 -0.01101509478278971 
0.01025134774703063 -0.005698496459477506 -0.006885979002085504 
0.01025134774703063 -0.005698496459477506 -0.006885979002085504 
0.01025134774703063 -0.005698496459477506 -0.006885979002085504 
0.02858094681069558 -0.01248261634007636 -0.02019084767185086 
0.01025134774703063 -0.005698496459477506 -0.006885979002085504 
0.01982176345485183 -0.004269728853852043 -0.01642805068203405 
0.01717308190606954 -0.008994854676115650 -0.008598879455672186 
0.01025134774703063 -0.005698496459477506 -0.006885979002085504 
0.0008900789935310224 -0.01563613646689740 0.006342732448153576 
0.01485864731159237 -0.006282738772557569 -0.009905658789548062 
0.01025134774703063 -0.005698496459477506 -0.006885979002085504 
0.01025134774703063 -0.005698496459477506 -0.006885979002085504 
0.01025134774703063 -0.005698496459477506 -0.006885979002085504 
0.01025134774703063 -0.005698496459477506 -0.006885979002085504 
-3.064755988350264e-05 0.001309516259565536 -0.003046450566599927 
0.01025134774703063 -0.005698496459477506 -0.006885979002085504 
0.01025134774703063 -0.005698496459477506 -0.006885979002085504 
0.01025134774703063 -0.005698496459477506 -0.006885979002085504 
0.01025134774703063 -0.005698496459477506 -0.006885979002085504 
0.01025134774703063 -0.005698496459477506 -0.006885979002085504 
0.01025134774703063 -0.005698496459477506 -0.006885979002085504 
0.01025134774703063 -0.005698496459477506 -0.006885979002085504 
0.01025134774703063 -0.005698496459477506 -0.006885979002085504 
0.007424403050336639 -0.01011200325528056 0.0002514176815819629 
0.01025134774703063 -0.005698496459477506 -0.006885979002085504 
0.01025134774703063 -0.005698496459477506 -0.006885979002085504 
0.01025134774703063 -0.005698496459477506 -0.006885979002085504 
0.01183857323966725 -0.03267203205912780 0.01609028635497257 
0.006941691051479252 -0.004587476042949054 -0.008345975302923091 
0.01025134774703063 -0.005698496459477506 -0.006885979002085504 
-0.005902330690615836 -0.01645081401224222 0.01804463034033228 
0.01025134774703063 -0.005698496459477506 -0.006885979002085504 
0.01025134774703063 -0.005698496459477506 -0.006885979002085504 
0.01025134774703063 -0.005698496459477506 -0.006885979002085504 
0.02330607393803518 -0.01126017924784073 -0.01513609397727687 
0.01025134774703063 -0.005698496459477506 -0.006885979002085504 
0.01025134774703063 -0.005698496459477506 -0.006885979002085504 
0.01025134774703063 -0.005698496459477506 -0.006885979002085504 
0.01025134774703063 -0.005698496459477506 -0.006885979002085504 
0.01025134774703063 -0.005698496459477506 -0.006885979002085504 
0.01025134774703063 -0.005698496459477506 -0.006885979002085504 
0.008492948125305520 -0.005398438232975053 -0.004593124972590593 
0.008492948125305520 -0.005398438232975053 -0.004593124972590593 
0.008492948125305520 -0.005398438232975053 -0.004593124972590593 
0.008492948125305520 -0.005398438232975053 -0.004593124972590593 
0.008492948125305520 -0.005398438232975053 -0.004593124972590593 
0.008492948125305520 -0.005398438232975053 -0.004593124972590593 
0.008492948125305520 -0.005398438232975053 -0.004593124972590593 
0.008492948125305520 -0.005398438232975053 -0.004593124972590593 
0.008492948125305520 -0.005398438232975053 -0.004593124972590593 
0.008492948125305520 -0.005398438232975053 -0.004593124972590593 
0.008492948125305520 -0.005398438232975053 -0.004593124972590593 
0.008492948125305520 -0.005398438232975053 -0.004593124972590593 
0.008492948125305520 -0.005398438232975053 -0.004593124972590593 
0.008492948125305520 -0.005398438232975053 -0.004593124972590593 
0.008492948125305520 -0.005398438232975053 -0.004593124972590593 
-0.001461538052055732 0.004518440031184901 -0.004601275822907093 
0.008492948125305520 -0.005398438232975053 -0.004593124972590593 
0.008492948125305520 -0.005398438232975053 -0.004593124972590593 
0.008492948125305520 -0.005398438232975053 -0.004593124972590593 
0.008492948125305520 -0.005398438232975053 -0.004593124972590593 
0.003010157571221570 0.003313522024256469 -0.006489778303228595 
0.008492948125305520 -0.005398438232975053 -0.004593124972590593 
0.008492948125305520 -0.005398438232975053 -0.004593124972590593 
0.01116589703331909 -0.007531667199386017 -0.005447894095149980 
0.008492948125305520 -0.005398438232975053 -0.004593124972590593 
0.01273107792976728 -0.006416595412393366 -0.008387325591804487 
0.008492948125305520 -0.005398438232975053 -0.004593124972590593 
0.008492948125305520 -0.005398438232975053 -0.004593124972590593 
0.008647869831592181 -0.01615301823070947 0.006392488513338891 
0.008492948125305520 -0.005398438232975053 -0.004593124972590593 
0.008492948125305520 -0.005398438232975053 -0.004593124972590593 
0.008492948125305520 -0.005398438232975053 -0.004593124972590593 
0.008492948125305520 -0.005398438232975053 -0.004593124972590593 
0.008492948125305520 -0.005398438232975053 -0.004593124972590593 
0.008492948125305520 -0.005398438232975053 -0.004593124972590593 
0.008492948125305520 -0.005398438232975053 -0.004593124972590593 
0.02532212757439766 -0.01862312820176221 -0.009954510670874850 
0.008492948125305520 -0.005398438232975053 -0.004593124972590593 
0.008492948125305520 -0.005398438232975053 -0.004593124972590593 
0.008492948125305520 -0.005398438232975053 -0.004593124972590593 
0.008492948125305520 -0.005398438232975053 -0.004593124972590593 
0.008492948125305520 -0.005398438232975053 -0.004593124972590593 
0.003457828843914149 -0.04219493651559714 0.03282991745761364 
0.008492948125305520 -0.005398438232975053 -0.004593124972590593 
0.008492948125305520 -0.005398438232975053 -0.004593124972590593 
0.008492948125305520 -0.005398438232975053 -0.004593124972590593 
0.008492948125305520 -0.005398438232975053 -0.004593124972590593 
0.008492948125305520 -0.005398438232975053 -0.004593124972590593 
0.008492948125305520 -0.005398438232975053 -0.004593124972590593 
0.008492948125305520 -0.005398438232975053 -0.004593124972590593 
0.008492948125305520 -0.005398438232975053 -0.004593124972590593 
0.008492948125305520 -0.005398438232975053 -0.004593124972590593 
0.008492948125305520 -0.005398438232975053 -0.004593124972590593 
0.01556500466714663 -0.007905000223174486 -0.009639624283853522 
0.02427336773178866 -0.009176216003037651 -0.01774553925302546 
0.008492948125305520 -0.005398438232975053 -0.004593124972590593 
0.008492948125305520 -0.005398438232975053 -0.004593124972590593 
0.008492948125305520 -0.005398438232975053 -0.004593124972590593 
0.008492948125305520 -0.005398438232975053 -0.004593124972590593 
0.008492948125305520 -0.005398438232975053 -0.004593124972590593 
0.008492948125305520 -0.005398438232975053 -0.004593124972590593 
0.008492948125305520 -0.005398438232975053 -0.004593124972590593 
0.008492948125305520 -0.005398438232975053 -0.004593124972590593 
0.008492948125305520 -0.005398438232975053 -0.004593124972590593 
0.008492948125305520 -0.005398438232975053 -0.004593124972590593 
0.008492948125305520 -0.005398438232975053 -0.004593124972590593 
0.008492948125305520 -0.005398438232975053 -0.004593124972590593 
0.008492948125305520 -0.005398438232975053 -0.004593124972590593 
0.008492948125305520 -0.005398438232975053 -0.004593124972590593 
0.008492948125305520 -0.005398438232975053 -0.004593124972590593 
0.003456389422758511 -0.01297480935031617 0.005619688661841428 
0.008492948125305520 -0.005398438232975053 -0.004593124972590593 
0.006764917028396850 -0.01355172542779170 0.005781510103904620 
0.008492948125305520 -0.005398438232975053 -0.004593124972590593 
0.008492948125305520 -0.005398438232975053 -0.004593124972590593 
0.008492948125305520 -0.005398438232975053 -0.004593124972590593 
0.01250489419189335 -0.006184313758532891 -0.006295624858165264 
0.008492948125305520 -0.005398438232975053 -0.004593124972590593 
-0.01422624599846943 -0.02174539376937837 0.02591849870081385 
0.008492948125305520 -0.005398438232975053 -0.004593124972590593 
0.008492948125305520 -0.005398438232975053 -0.004593124972590593 
0.008492948125305520 -0.005398438232975053 -0.004593124972590593 
0.008492948125305520 -0.005398438232975053 -0.004593124972590593 
0.005160715643834433 0.0007585494937470014 -0.008412114617517914 
0.008492948125305520 -0.005398438232975053 -0.004593124972590593 
0.008492948125305520 -0.005398438232975053 -0.004593124972590593 
0.02111448558656898 -0.002031945400530930 -0.02754044649515822 
0.008922826362003122 -0.007257187566232164 -0.004717238886047537 
0.008922826362003122 -0.007257187566232164 -0.004717238886047537 
0.02315167015948670 -0.01844255240483429 -0.01298531649438388 
0.008922826362003122 -0.007257187566232164 -0.004717238886047537 
0.006369372102088894 -0.01076008957978117 0.001058436263737028 
0.01638801146226118 -0.01153661689612937 -0.01378998234747169 
-0.009555026939634760 0.007782519868230137 -0.004457777667960750 
0.008922826362003122 -0.007257187566232164 -0.004717238886047537 
0.008922826362003122 -0.007257187566232164 -0.004717238886047537 
0.01027324794099998 -0.007257186298031814 -0.008395757807474109 
0.008922826362003122 -0.007257187566232164 -0.004717238886047537 
0.008922826362003122 -0.007257187566232164 -0.004717238886047537 
0.008922826362003122 -0.007257187566232164 -0.004717238886047537 
0.01621847144650072 -0.01141347073578312 -0.007261585500265063 
0.004221950824985478 -0.04868332303948445 0.02796317025783466 
0.008922826362003122 -0.007257187566232164 -0.004717238886047537 
0.008922826362003122 -0.007257187566232164 -0.004717238886047537 
0.008922826362003122 -0.007257187566232164 -0.004717238886047537 
0.008922826362003122 -0.007257187566232164 -0.004717238886047537 
0.008922826362003122 -0.007257187566232164 -0.004717238886047537 
0.01813271382726308 -0.007700617504562093 -0.01389430681224336 
0.01348818630862156 0.0002997614750818485 -0.01560313894408923 
0.009706179861137556 -0.01144464007397023 -0.002329233198169722 
0.01179604600621169 -0.007452785552282256 -0.006603274609791460 
0.01316095616646488 -0.008275344745650476 -0.008511439505261430 
0.01734710558770336 -0.008288689763380801 -0.01366117506151444 
0.008922826362003122 -0.007257187566232164 -0.004717238886047537 
0.01592649910257030 -0.008275334805998295 -0.01257563159443062 
-0.001792988455922164 0.01329477145563163 -0.01535188975420940 
0.02154954761470951 -0.01054842148918997 -0.01460158449929280 
0.008922826362003122 -0.007257187566232164 -0.004717238886047537 
0.02745049288313430 -0.01804570380492344 -0.01207419228965641 
0.008922826362003122 -0.007257187566232164 -0.004717238886047537 
0.01640702975020767 -0.009043450088687456 -0.009569952422921463 
0.008922826362003122 -0.007257187566232164 -0.004717238886047537 
0.008922826362003122 -0.007257187566232164 -0.004717238886047537 
0.008922826362003122 -0.007257187566232164 -0.004717238886047537 
0.01866489373142553 -0.01131273456746505 -0.01055917953660808 
0.008922826362003122 -0.007257187566232164 -0.004717238886047537 
0.008922826362003122 -0.007257187566232164 -0.004717238886047537 
0.01455920380608423 -0.005555546009188088 -0.01034213890184276 
0.008922826362003122 -0.007257187566232164 -0.004717238886047537 
0.008922826362003122 -0.007257187566232164 -0.004717238886047537 
0.008922826362003122 -0.007257187566232164 -0.004717238886047537 
0.01547853415885664 -0.009601058499972899 -0.01024991120116605 
0.008922826362003122 -0.007257187566232164 -0.004717238886047537 
0.008922826362003122 -0.007257187566232164 -0.004717238886047537 
0.008922826362003122 -0.007257187566232164 -0.004717238886047537 
0.001734821937313573 -0.0008497922225396493 -0.002411072923252463 
-0.002204216735222102 0.008475369504246117 -0.008134382129059503 
-0.007715192620122966 -0.001115905555199465 0.002760863554720048 
0.001734821937313573 -0.0008497922225396493 -0.002411072923252463 
0.006131898749011497 -0.002127911909232914 -0.005165600386501548 
0.02165400764022090 -0.008604269250455786 -0.01489625251007516 
0.001734821937313573 -0.0008497922225396493 -0.002411072923252463 
0.001734821937313573 -0.0008497922225396493 -0.002411072923252463 
0.007914413273037671 -0.004771262287371472 -0.005515257849466011 
0.003097994391910651 0.0005971466645405145 -0.005217885115658958 
-0.006022494274195924 -0.01237965514139519 0.01263067101280338 
0.005972951741775328 -0.001867949401957962 -0.006205273542466356 
0.01862790792214259 -0.01495036125781250 -0.008605231703171613 
0.006189541862973116 -0.0008487378738799058 -0.006169543920131637 
-0.003247860951141869 -0.02320988796745554 0.01997568569037080 
0.001734821937313573 -0.0008497922225396493 -0.002411072923252463 
0.004809792235933985 -0.001437089959309007 -0.009723469807029437 
0.002825538675277249 -0.0008497699172549187 -0.005478562583594296 
0.009219025325518118 -0.002636054744994941 -0.007263786460126388 
0.001734821937313573 -0.0008497922225396493 -0.002411072923252463 
0.02556832019418177 -0.01872173995845181 -0.01231215686922905 
0.03571068564057973 -0.02427921744227782 -0.01265081407506296 
0.009885898471175335 -0.003339561030365861 -0.005743952158490537 
0.001734821937313573 -0.0008497922225396493 -0.002411072923252463 
0.004500364873418999 -0.0008497822828874683 -0.006475265012421652 
0.001734821937313573 -0.0008497922225396493 -0.002411072923252463 
0.001734821937313573 -0.0008497922225396493 -0.002411072923252463 
0.001734821937313573 -0.0008497922225396493 -0.002411072923252463 
0.01674201684415183 -0.006943110304506965 -0.01491033504700781 
0.001734821937313573 -0.0008497922225396493 -0.002411072923252463 
0.006900388168378353 0.007419899379204968 -0.01443318540536346 
0.007295645084497596 -0.004156283169550955 -0.002544346614217526 
0.004309422424262844 0.004902563705597731 -0.007882203489843148 
0.007295645084497596 -0.004156283169550955 -0.002544346614217526 
0.007295645084497596 -0.004156283169550955 -0.002544346614217526 
0.007295645084497596 -0.004156283169550955 -0.002544346614217526 
0.001171355224297812 -0.003439590906238403 -0.002811811118033577 
0.007295645084497596 -0.004156283169550955 -0.002544346614217526 
0.007295645084497596 -0.004156283169550955 -0.002544346614217526 
0.003345966571959329 -0.005762924828405184 0.003095670604478320 
0.007295645084497596 -0.004156283169550955 -0.002544346614217526 
0.001203668206681222 -0.006850481897959100 0.003919338796398822 
0.007295645084497596 -0.004156283169550955 -0.002544346614217526 
0.007295645084497596 -0.004156283169550955 -0.002544346614217526 
0.007295645084497596 -0.004156283169550955 -0.002544346614217526 
0.007295645084497596 -0.004156283169550955 -0.002544346614217526 
0.007295645084497596 -0.004156283169550955 -0.002544346614217526 
0.007295645084497596 -0.004156283169550955 -0.002544346614217526 
0.007295645084497596 -0.004156283169550955 -0.002544346614217526 
0.007295645084497596 -0.004156283169550955 -0.002544346614217526 
0.007295645084497596 -0.004156283169550955 -0.002544346614217526 
0.007295645084497596 -0.004156283169550955 -0.002544346614217526 
0.007295645084497596 -0.004156283169550955 -0.002544346614217526 
0.007295645084497596 -0.004156283169550955 -0.002544346614217526 
0.007295645084497596 -0.004156283169550955 -0.002544346614217526 
-0.007781744773396676 0.02769346338620259 -0.02088578248742244 
0.007295645084497596 -0.004156283169550955 -0.002544346614217526 
0.007295645084497596 -0.004156283169550955 -0.002544346614217526 
0.007295645084497596 -0.004156283169550955 -0.002544346614217526 
0.007295645084497596 -0.004156283169550955 -0.002544346614217526 
0.007295645084497596 -0.004156283169550955 -0.002544346614217526 
0.007295645084497596 -0.004156283169550955 -0.002544346614217526 
0.007295645084497596 -0.004156283169550955 -0.002544346614217526 
0.007295645084497596 -0.004156283169550955 -0.002544346614217526 
0.007295645084497596 -0.004156283169550955 -0.002544346614217526 
0.007295645084497596 -0.004156283169550955 -0.002544346614217526 
0.007295645084497596 -0.004156283169550955 -0.002544346614217526 
0.007295645084497596 -0.004156283169550955 -0.002544346614217526 
0.007295645084497596 -0.004156283169550955 -0.002544346614217526 
-0.005818388931509875 -0.003029248843104303 0.006835830939506163 
0.007295645084497596 -0.004156283169550955 -0.002544346614217526 
0.007295645084497596 -0.004156283169550955 -0.002544346614217526 
6.696103467007575e-05 -0.004186043192536361 0.006537072549306871 
0.007295645084497596 -0.004156283169550955 -0.002544346614217526 
0.007295645084497596 -0.004156283169550955 -0.002544346614217526 
0.01503418068511371 -0.008870255906043550 -0.004429558677005316 
0.007295645084497596 -0.004156283169550955 -0.002544346614217526 
0.007295645084497596 -0.004156283169550955 -0.002544346614217526 
0.007295645084497596 -0.004156283169550955 -0.002544346614217526 
0.007295645084497596 -0.004156283169550955 -0.002544346614217526 
0.007295645084497596 -0.004156283169550955 -0.002544346614217526 
0.007295645084497596 -0.004156283169550955 -0.002544346614217526 
0.007295645084497596 -0.004156283169550955 -0.002544346614217526 
0.0007624375144928852 -0.03479891396265106 0.03239868503307857 
0.002870443631896824 0.006422232466412525 -0.008630587839430074 
0.007295645084497596 -0.004156283169550955 -0.002544346614217526 
0.007097714268518694 0.002186452361017342 -0.007569710797615975 
0.007295645084497596 -0.004156283169550955 -0.002544346614217526 
0.007295645084497596 -0.004156283169550955 -0.002544346614217526 
-0.01093951841759590 0.001637300146955726 0.01273630179031179 
0.004852001429179782 -0.008034041990119210 0.003491742514727875 
0.007295645084497596 -0.004156283169550955 -0.002544346614217526 
0.007295645084497596 -0.004156283169550955 -0.002544346614217526 
0.007295645084497596 -0.004156283169550955 -0.002544346614217526 
0.007295645084497596 -0.004156283169550955 -0.002544346614217526 
0.007295645084497596 -0.004156283169550955 -0.002544346614217526 
0.007295645084497596 -0.004156283169550955 -0.002544346614217526 
0.02625588297088595 -0.01632052120821744 -0.01402039555409177 
-0.01804542267276106 -0.03851244413442403 0.04960670848940908 
0.007295645084497596 -0.004156283169550955 -0.002544346614217526 
0.01059157901790868 -0.0008200525811552895 -0.01008763861774324 
0.04077100410084662 -0.02290801318547224 -0.01964140161412523 
0.007295645084497596 -0.004156283169550955 -0.002544346614217526 
-0.0004916096759624827 0.01039186765056457 -0.01181553267187229 
0.007295645084497596 -0.004156283169550955 -0.002544346614217526 
0.007295645084497596 -0.004156283169550955 -0.002544346614217526 
0.007295645084497596 -0.004156283169550955 -0.002544346614217526 
0.007295645084497596 -0.004156283169550955 -0.002544346614217526 
0.009579299939620887 -0.003668316083488932 -0.008754152093885690 
0.007295645084497596 -0.004156283169550955 -0.002544346614217526 
0.01263803022303019 -0.01892995837394511 0.003504574107042727 
0.008685199827935454 0.01079891762521750 -0.02268247013281282 
0.001660141267800857 -0.01022409842362231 0.01000334237213293 
0.007295645084497596 -0.004156283169550955 -0.002544346614217526 
0.007295645084497596 -0.004156283169550955 -0.002544346614217526 
0.007295645084497596 -0.004156283169550955 -0.002544346614217526 
0.007295645084497596 -0.004156283169550955 -0.002544346614217526 
0.007072056541841107 -0.002506561990199435 -0.005046499311262930 
0.007072056541841107 -0.002506561990199435 -0.005046499311262930 
0.003709557373724524 -0.004453895665196944 -0.0002942855318228160 
0.007072056541841107 -0.002506561990199435 -0.005046499311262930 
0.007072056541841107 -0.002506561990199435 -0.005046499311262930 
0.02098357180806506 -0.004865694283592344 -0.01812576565257052 
0.01002667652824724 -0.002506173568973027 -0.009027536630057240 
-0.004734824759837926 0.01364799811880097 -0.006641226353824374 
0.007072056541841107 -0.002506561990199435 -0.005046499311262930 
0.007072056541841107 -0.002506561990199435 -0.005046499311262930 
0.01271101898828580 -0.01408349094353159 -0.0003599530303925742 
0.007072056541841107 -0.002506561990199435 -0.005046499311262930 
0.01002667652824724 -0.002506173568973027 -0.009027536630057240 
0.007072056541841107 -0.002506561990199435 -0.005046499311262930 
0.007072056541841107 -0.002506561990199435 -0.005046499311262930 
0.007072056541841107 -0.002506561990199435 -0.005046499311262930 
0.007072056541841107 -0.002506561990199435 -0.005046499311262930 
0.007072056541841107 -0.002506561990199435 -0.005046499311262930 
0.007072056541841107 -0.002506561990199435 -0.005046499311262930 
0.007072056541841107 -0.002506561990199435 -0.005046499311262930 
0.007072056541841107 -0.002506561990199435 -0.005046499311262930 
0.007072056541841107 -0.002506561990199435 -0.005046499311262930 
0.007072056541841107 -0.002506561990199435 -0.005046499311262930 
0.002223190061586995 0.01848004528324313 -0.01947628705042361 
0.007072056541841107 -0.002506561990199435 -0.005046499311262930 
0.007072056541841107 -0.002506561990199435 -0.005046499311262930 
0.007072056541841107 -0.002506561990199435 -0.005046499311262930 
0.007072056541841107 -0.002506561990199435 -0.005046499311262930 
0.007072056541841107 -0.002506561990199435 -0.005046499311262930 
0.002618568556736937 0.001989319272491941 -0.003880852049588085 
0.007072056541841107 -0.002506561990199435 -0.005046499311262930 
0.007072056541841107 -0.002506561990199435 -0.005046499311262930 
0.007072056541841107 -0.002506561990199435 -0.005046499311262930 
0.007072056541841107 -0.002506561990199435 -0.005046499311262930 
0.007072056541841107 -0.002506561990199435 -0.005046499311262930 
-0.0001836690571562148 -0.004669123024856364 0.003640061201331458 
0.007072056541841107 -0.002506561990199435 -0.005046499311262930 
0.007072056541841107 -0.002506561990199435 -0.005046499311262930 
0.007072056541841107 -0.002506561990199435 -0.005046499311262930 
0.003951660661295401 -0.01620357507182850 0.006656647330899994 
0.007072056541841107 -0.002506561990199435 -0.005046499311262930 
0.007072056541841107 -0.002506561990199435 -0.005046499311262930 
