solver_type L2R_L2LOSS_SVC
nr_class 3
label 0 1 2
nr_feature 12184
bias 1.000000000000000
w
0.007150312737296583 -0.009492020075643254 0.002839904307990686 
0.009646859991653486 -0.004422705241201819 -0.004247609950732278 
-0.04490567001749207 0.005007431545800505 0.01725535684557210 
-0.001199103261415543 -0.008623839034124618 0.0004837341600874690 
0.009646859991653486 -0.004422705241201819 -0.004247609950732278 
0.009646859991653486 -0.004422705241201819 -0.004247609950732278 
0.009646859991653486 -0.004422705241201819 -0.004247609950732278 
0.007436148741235792 0.003734891556054159 -0.008761472244103294 
0.01250907729978450 -0.02193724120743242 -0.0002933940962821067 
0.05035786863116506 -0.01614023002932859 -0.03859970650042062 
0.009646859991653486 -0.004422705241201819 -0.004247609950732278 
0.04012956099424701 -0.09621564512743135 -0.08514916223122602 
0.0001497886218434614 0.01000791852491043 -0.04536270511967089 
0.02256069312091718 -0.004487529055000186 -0.01731188470450935 
0.009646859991653486 -0.004422705241201819 -0.004247609950732278 
0.04156527063497848 -0.02754700170826819 -0.02368229577441811 
0.009646859991653486 -0.004422705241201819 -0.004247609950732278 
0.01511673189444973 -0.01320965539287161 -0.0002731257860171890 
0.001564667769449624 0.01555334155242810 -0.01944655386647127 
0.009646859991653486 -0.004422705241201819 -0.004247609950732278 
0.02942344283284360 -0.06261973348335512 0.03032572950513267 
0.01399523643437739 -0.03186212078483920 -0.007717264907231686 
0.004591636677027196 -0.001889923862960681 -0.004355386318312141 
-0.05972857080582467 0.004130750064116168 0.03696507798070829 
0.009646859991653486 -0.004422705241201819 -0.004247609950732278 
0.009646859991653486 -0.004422705241201819 -0.004247609950732278 
-0.003007188625667554 -0.003039235462978799 -0.005238015687513200 
0.009646859991653486 -0.004422705241201819 -0.004247609950732278 
0.02031733516612011 -0.01971591986737972 -0.001015074858157166 
0.009646859991653486 -0.004422705241201819 -0.004247609950732278 
0.009646859991653486 -0.004422705241201819 -0.004247609950732278 
0.005557963128570823 -0.03172723870261910 0.02259413785002410 
0.006599112149828350 -0.006314462951068934 -0.0007111966137404523 
0.0001440526147694999 -0.008358515130710658 0.006278281623321049 
0.009646859991653486 -0.004422705241201819 -0.004247609950732278 
0.03609015018338013 0.004907785971363770 -0.04913511770362822 
0.01698609108021905 -0.02505442753975114 0.005644681883442708 
0.01653290318521448 -0.006982903068989109 -0.008192751489276071 
-0.01499532689083845 -0.05402731709324702 0.05505022955245115 
-0.01578678259060610 -0.0006590843636548729 0.009976530901845707 
-0.01186903309093927 0.03577735269445635 -0.03103209077712868 
0.004388033929637675 -0.04734719310607050 -0.01168835811887509 
0.009646859991653486 -0.004422705241201819 -0.004247609950732278 
-0.03168688479837997 0.006861301921888636 0.02666629789194220 
0.009646859991653486 -0.004422705241201819 -0.004247609950732278 
0.009646859991653486 -0.004422705241201819 -0.004247609950732278 
-0.004316700112411680 -0.01233968368046588 0.01103024795119625 
0.009646859991653486 -0.004422705241201819 -0.004247609950732278 
0.009646859991653486 -0.004422705241201819 -0.004247609950732278 
0.009646859991653486 -0.004422705241201819 -0.004247609950732278 
0.009646859991653486 -0.004422705241201819 -0.004247609950732278 
0.009646859991653486 -0.004422705241201819 -0.004247609950732278 
0.009646859991653486 -0.004422705241201819 -0.004247609950732278 
0.009646859991653486 -0.004422705241201819 -0.004247609950732278 
-0.01957470045530296 -0.01325740545720504 0.03157088917842633 
-0.03637652107869613 -0.03001287200486274 0.05121541601680557 
0.02282357732847511 -0.02735813915317287 0.0008453253000580159 
0.004270343285234179 -0.001848571955561256 -0.003745053932288920 
0.009646859991653486 -0.004422705241201819 -0.004247609950732278 
0.009646859991653486 -0.004422705241201819 -0.004247609950732278 
0.01833884690777648 -0.008729899382119622 -0.009181528060996199 
0.05658053755977869 -0.003737963734475498 -0.06651839620283094 
-0.04448203455853102 0.02433600264509929 0.003737119145849215 
-0.0006368027906708678 0.001347954285351259 -0.002229140280183675 
0.009646859991653486 -0.004422705241201819 -0.004247609950732278 
0.009646859991653486 -0.004422705241201819 -0.004247609950732278 
0.01471072799773613 -0.01371189220872472 -0.0005528497449776090 
0.003612787933265722 0.02095941011542956 -0.02587498988410477 
0.009646859991653486 -0.004422705241201819 -0.004247609950732278 
0.002640901340665323 0.008797160319901319 -0.01249336666771158 
0.009646859991653486 -0.004422705241201819 -0.004247609950732278 
0.001336505220097065 -0.003128528311772621 2.421545032293539e-05 
0.009400539462377700 -0.0008354667291169327 -0.007255030035064246 
0.009646859991653486 -0.004422705241201819 -0.004247609950732278 
0.009646859991653486 -0.004422705241201819 -0.004247609950732278 
0.002555493755398470 -0.01699311230113061 0.01370799067498439 
0.0008529835758342246 -0.02469966610609828 0.01500775782918567 
-0.001085851291422039 0.01285054049309983 -0.04569465923943825 
0.01642680080901174 -0.008933630223134084 -0.006797250411210110 
0.009646859991653486 -0.004422705241201819 -0.004247609950732278 
0.001537656827152745 0.005877072472641882 -0.005930983771786674 
0.01577465809896926 -0.008217539909853284 -0.007590282847926597 
0.009646859991653486 -0.004422705241201819 -0.004247609950732278 
0.009646859991653486 -0.004422705241201819 -0.004247609950732278 
0.009646859991653486 -0.004422705241201819 -0.004247609950732278 
0.002235101845113820 -0.009821251763592383 0.008781027680102891 
0.01315502891675010 0.0008263604386880466 -0.02750559251467826 
-0.008559728707850477 0.003992894388398336 0.0003790431559213755 
0.008629780836189363 -0.008618016569269277 -0.008295330965511376 
-0.07093729057781582 0.04026009154170778 0.01049073691784699 
0.009646859991653486 -0.004422705241201819 -0.004247609950732278 
0.009646859991653486 -0.004422705241201819 -0.004247609950732278 
0.009646859991653486 -0.004422705241201819 -0.004247609950732278 
-0.001569471368023255 -0.005965442202633692 0.007571809215548219 
0.02286505576985785 0.03340729665930324 -0.06551513826487301 
0.005691990632287372 0.01669025485984081 -0.02560680836033519 
0.009646859991653486 -0.004422705241201819 -0.004247609950732278 
0.009646859991653486 -0.004422705241201819 -0.004247609950732278 
0.01621315303091775 -0.01664557133820184 0.0001662549905317498 
0.009646859991653486 -0.004422705241201819 -0.004247609950732278 
0.03329485962234244 -0.01491192002428892 -0.02114549635677965 
0.1783052471528649 -0.1280329882489376 -0.08792066144815786 
0.008336620886443024 -0.003408950254626832 -0.006195832327802863 
0.02342300216279017 -0.01993897969495395 -0.005229472856773240 
0.008336620886443024 -0.003408950254626832 -0.006195832327802863 
0.008336620886443024 -0.003408950254626832 -0.006195832327802863 
0.008336620886443024 -0.003408950254626832 -0.006195832327802863 
0.02251953813965154 -0.0008118368781957016 -0.02791203903482827 
0.008336620886443024 -0.003408950254626832 -0.006195832327802863 
-0.03151204491449861 -0.0003049730994313371 -0.002773208783888421 
0.008336620886443024 -0.003408950254626832 -0.006195832327802863 
0.008336620886443024 -0.003408950254626832 -0.006195832327802863 
-0.002164436744126317 0.009256314584550900 -0.01332104756982508 
0.008336620886443024 -0.003408950254626832 -0.006195832327802863 
-0.1132242002924952 -0.001367273726664924 0.06701441733066540 
0.008336620886443024 -0.003408950254626832 -0.006195832327802863 
0.008336620886443024 -0.003408950254626832 -0.006195832327802863 
0.008336620886443024 -0.003408950254626832 -0.006195832327802863 
0.008336620886443024 -0.003408950254626832 -0.006195832327802863 
0.008336620886443024 -0.003408950254626832 -0.006195832327802863 
0.001146312388603564 0.01512928382218290 -0.02143911030604639 
0.008336620886443024 -0.003408950254626832 -0.006195832327802863 
0.008336620886443024 -0.003408950254626832 -0.006195832327802863 
0.008336620886443024 -0.003408950254626832 -0.006195832327802863 
0.008336620886443024 -0.003408950254626832 -0.006195832327802863 
0.009852540557313204 -0.009030860893866845 -0.005189767743131038 
0.008336620886443024 -0.003408950254626832 -0.006195832327802863 
-0.002856999428918871 -0.01446151392411793 0.006877296633178385 
-0.01165928147439661 -0.01372545343847151 0.01633698566665113 
-0.02732324069809270 -0.05264672083351049 0.05021799960580997 
0.001411146131138498 -0.02939712651716200 0.02174752377016936 
0.01706408269106833 -0.01405340647103750 -0.003575092366987961 
0.008336620886443024 -0.003408950254626832 -0.006195832327802863 
-0.01162508205307396 0.01547571421142668 -0.008998602100046925 
0.02590910791823816 -0.01499399769981108 -0.01360391804037207 
0.008336620886443024 -0.003408950254626832 -0.006195832327802863 
0.01766665483815718 -0.009139696091555039 -0.01013445778715929 
0.008336620886443024 -0.003408950254626832 -0.006195832327802863 
0.008336620886443024 -0.003408950254626832 -0.006195832327802863 
0.008336620886443024 -0.003408950254626832 -0.006195832327802863 
0.008336620886443024 -0.003408950254626832 -0.006195832327802863 
0.008336620886443024 -0.003408950254626832 -0.006195832327802863 
0.0007828171225142416 -0.005742627925853481 -0.02672825653104111 
0.008336620886443024 -0.003408950254626832 -0.006195832327802863 
0.008336620886443024 -0.003408950254626832 -0.006195832327802863 
0.008336620886443024 -0.003408950254626832 -0.006195832327802863 
0.008336620886443024 -0.003408950254626832 -0.006195832327802863 
0.008336620886443024 -0.003408950254626832 -0.006195832327802863 
-0.002432863032244671 -0.01084699427500552 0.01238308493282475 
0.04522279170904031 -0.05050747572766366 -0.001568520040322511 
0.004030548112618140 -0.01958186618035947 0.01302428557064818 
0.0009248627399033583 -0.008807496777017396 0.006832805303032307 
0.008336620886443024 -0.003408950254626832 -0.006195832327802863 
0.008336620886443024 -0.003408950254626832 -0.006195832327802863 
-0.03656236875271884 -0.01707271216773347 0.04569822658410076 
0.006366036097410345 -0.002719768941084146 -0.007705276665746347 
0.008336620886443024 -0.003408950254626832 -0.006195832327802863 
0.008336620886443024 -0.003408950254626832 -0.006195832327802863 
0.01766774890430123 -0.01213196651901578 -0.007309137662632983 
0.008336620886443024 -0.003408950254626832 -0.006195832327802863 
0.008336620886443024 -0.003408950254626832 -0.006195832327802863 
0.008336620886443024 -0.003408950254626832 -0.006195832327802863 
0.008336620886443024 -0.003408950254626832 -0.006195832327802863 
-0.01406496218196767 -0.004380495572885286 0.008575232915921540 
0.006527861808016694 0.006105870833120391 -0.01432997548829220 
0.006625729026074326 -0.009517010849504064 -0.001418920786715913 
0.008336620886443024 -0.003408950254626832 -0.006195832327802863 
0.01228025524755478 -0.007467881809868620 -0.01304329098202243 
0.008337714952587076 -0.006401220682087573 -0.003370512203276550 
0.008336620886443024 -0.003408950254626832 -0.006195832327802863 
0.008336620886443024 -0.003408950254626832 -0.006195832327802863 
0.006409432812974729 -0.03844890841935079 0.02633410367461515 
0.008336620886443024 -0.003408950254626832 -0.006195832327802863 
0.008336620886443024 -0.003408950254626832 -0.006195832327802863 
0.008336620886443024 -0.003408950254626832 -0.006195832327802863 
-0.002071109132299952 0.004157937410529713 -0.007996795488382008 
0.01907329852231990 -0.01411956168054319 -0.005251391888491844 
0.008336620886443024 -0.003408950254626832 -0.006195832327802863 
0.008336620886443024 -0.003408950254626832 -0.006195832327802863 
0.008336620886443024 -0.003408950254626832 -0.006195832327802863 
0.003550813910108206 0.001632197641698419 -0.007335370942759057 
0.008336620886443024 -0.003408950254626832 -0.006195832327802863 
0.008336620886443024 -0.003408950254626832 -0.006195832327802863 
0.008336620886443024 -0.003408950254626832 -0.006195832327802863 
0.008336620886443024 -0.003408950254626832 -0.006195832327802863 
0.008336620886443024 -0.003408950254626832 -0.006195832327802863 
0.008336620886443024 -0.003408950254626832 -0.006195832327802863 
0.008336620886443024 -0.003408950254626832 -0.006195832327802863 
-0.003459483135640781 0.01339339194832854 -0.01660253643345463 
0.008336620886443024 -0.003408950254626832 -0.006195832327802863 
0.01018880698240286 0.007535403583994511 -0.03748332208714787 
0.006011124851164189 -0.04213056179012188 0.03162218668388282 
0.01173701611668867 -0.006232059082833416 -0.006380195486462084 
0.007648540592790552 -0.0009900727256303343 -0.005410518135907053 
-0.004759541360253558 -0.01835114387347969 0.02112220265481012 
0.01173701611668867 -0.006232059082833416 -0.006380195486462084 
0.01173701611668867 -0.006232059082833416 -0.006380195486462084 
0.01173701611668867 -0.006232059082833416 -0.006380195486462084 
0.01173701611668867 -0.006232059082833416 -0.006380195486462084 
0.005457798312253554 0.006773448359495114 -0.01415681553221051 
-0.05866356731230526 0.03296324725269342 0.01677423482925212 
0.004136966385159535 0.004012558677214843 -0.01143729476020470 
0.005746945678358592 0.009225243268443862 -0.02047661747917884 
0.01173701611668867 -0.006232059082833416 -0.006380195486462084 
0.01564723217971589 -0.004994569281176926 -0.01113853897399974 
0.01173701611668867 -0.006232059082833416 -0.006380195486462084 
0.01821214328567972 -0.01306358033159105 -0.005634351408949522 
0.01173701611668867 -0.006232059082833416 -0.006380195486462084 
0.03811983644499321 -0.02251561241805852 -0.01728016023909924 
0.03439050072995271 0.01324102243982180 -0.04848263359322959 
-0.01529385074250573 -0.02087692833276125 0.03415358183846540 
0.01173701611668867 -0.006232059082833416 -0.006380195486462084 
0.08346212086395435 -0.1016931361070781 0.01143620665540109 
0.01173701611668867 -0.006232059082833416 -0.006380195486462084 
-0.01226498316368914 -0.005760204616593267 0.01592123495241039 
-0.04764656689454808 -0.02993328297192420 0.07699767612758912 
0.001757721145631642 0.007428114353416702 -0.01121278479007719 
0.01837283344975403 -0.006206494554912430 -0.01169428156523779 
0.01173701611668867 -0.006232059082833416 -0.006380195486462084 
0.01173701611668867 -0.006232059082833416 -0.006380195486462084 
0.01173701611668867 -0.006232059082833416 -0.006380195486462084 
0.006258947417295189 -0.01036722729831681 0.002731256489705534 
0.01185950181694362 -0.0005537891505901813 -0.01106832145175899 
0.01173701611668867 -0.006232059082833416 -0.006380195486462084 
0.01173701611668867 -0.006232059082833416 -0.006380195486462084 
0.01173701611668867 -0.006232059082833416 -0.006380195486462084 
0.01173701611668867 -0.006232059082833416 -0.006380195486462084 
0.01173701611668867 -0.006232059082833416 -0.006380195486462084 
-0.005551915772112557 0.02377172866487134 -0.01843196596327764 
0.01173701611668867 -0.006232059082833416 -0.006380195486462084 
0.002196605884238224 -0.01869636877728556 0.01580807906587042 
0.01173701611668867 -0.006232059082833416 -0.006380195486462084 
0.008372986611914901 0.004005289138120124 -0.01036862432067095 
-0.01831750668593890 0.01348322878452796 0.001461289201708536 
0.002689521155129722 0.004984379964724633 -0.009667230544109895 
0.008838099911717004 -0.004135517436461100 -0.005205332403588175 
0.008838099911717004 -0.004135517436461100 -0.005205332403588175 
0.006106547258436534 -0.0004702918462422291 -0.004803313120939267 
0.008838099911717004 -0.004135517436461100 -0.005205332403588175 
0.008838099911717004 -0.004135517436461100 -0.005205332403588175 
0.002133676070499586 -0.009323710166946155 0.007941812089996595 
0.01868314678587144 -0.01196049301504555 -0.007441004283518006 
-0.01641608825544148 -0.04311895361935891 0.04952460138583890 
-0.01368947525122603 0.002852243075779478 0.003703626301361950 
0.003554743699991007 -0.01450371361185813 0.007206388135202465 
0.005627931357980052 -0.005981426102284798 0.001791865427120352 
0.008838099911717004 -0.004135517436461100 -0.005205332403588175 
0.008838099911717004 -0.004135517436461100 -0.005205332403588175 
0.008838099911717004 -0.004135517436461100 -0.005205332403588175 
0.004758985936977289 -0.04110661096859193 0.02117386567208757 
0.008838099911717004 -0.004135517436461100 -0.005205332403588175 
0.008838099911717004 -0.004135517436461100 -0.005205332403588175 
0.008838099911717004 -0.004135517436461100 -0.005205332403588175 
0.008838099911717004 -0.004135517436461100 -0.005205332403588175 
0.008838099911717004 -0.004135517436461100 -0.005205332403588175 
5.502533773679757e-05 -0.0008912237049363120 -0.002509192032496384 
0.008838099911717004 -0.004135517436461100 -0.005205332403588175 
0.008838099911717004 -0.004135517436461100 -0.005205332403588175 
0.008838099911717004 -0.004135517436461100 -0.005205332403588175 
0.008838099911717004 -0.004135517436461100 -0.005205332403588175 
-0.005846127159172238 -0.002908959717538323 0.004419997104134323 
0.01496589801903278 -0.007930352105112566 -0.008548005300782494 
0.008838099911717004 -0.004135517436461100 -0.005205332403588175 
0.008838099911717004 -0.004135517436461100 -0.005205332403588175 
0.01541887486652282 -0.002628718365211737 -0.01411348842480084 
0.008838099911717004 -0.004135517436461100 -0.005205332403588175 
0.008838099911717004 -0.004135517436461100 -0.005205332403588175 
-0.01872456367674187 0.01846496425626677 -0.003980351565408484 
-0.003896079763204267 9.728163110244081e-05 -0.004473329667166388 
-0.04083124793087276 0.05322020396526758 -0.03218740885795057 
-0.01977892456001420 -0.01571690277208984 0.02610907007195181 
0.008676779962894020 -0.01262875229570919 0.0009696007256804075 
0.008838099911717004 -0.004135517436461100 -0.005205332403588175 
0.008838099911717004 -0.004135517436461100 -0.005205332403588175 
0.007798234286222208 -0.007917029130492543 -0.0009716932725775167 
0.008838099911717004 -0.004135517436461100 -0.005205332403588175 
0.008838099911717004 -0.004135517436461100 -0.005205332403588175 
0.006170539979413615 -0.005941790128511200 -0.0004109207793828714 
0.008838099911717004 -0.004135517436461100 -0.005205332403588175 
0.01591827609607592 -0.008536821238192058 -0.007908167505011035 
0.008838099911717004 -0.004135517436461100 -0.005205332403588175 
0.002732261111627829 -0.0008917844814023225 -0.001788036757436795 
0.008838099911717004 -0.004135517436461100 -0.005205332403588175 
0.05415275351128366 -0.04878878004602835 -0.009956552395932466 
-0.004577268195096619 0.01141135048634140 -0.007484737900232017 
-0.001793083458049389 -0.01175158889621375 0.01436308586017027 
0.002022134913828139 -0.01871407687637056 0.01528819127937780 
0.008838099911717004 -0.004135517436461100 -0.005205332403588175 
0.008838099911717004 -0.004135517436461100 -0.005205332403588175 
-0.01545748198074474 0.006085603438237800 0.001044570976334746 
0.008838099911717004 -0.004135517436461100 -0.005205332403588175 
0.006045074413595684 0.001730877723955019 -0.008691454641921616 
0.008838099911717004 -0.004135517436461100 -0.005205332403588175 
0.007579469025374822 -0.006916553979145379 -0.0007927269424946213 
0.008838099911717004 -0.004135517436461100 -0.005205332403588175 
-0.02270022876763887 0.005797445894616916 0.01387526922424466 
0.008838099911717004 -0.004135517436461100 -0.005205332403588175 
0.003040914532514488 0.003300945877789338 -0.006669485279093628 
0.02805902286023106 -0.01517592020922573 -0.01473089268191774 
0.0003065572396631404 -0.006476986083113747 0.006955273497230223 
0.008838099911717004 -0.004135517436461100 -0.005205332403588175 
0.02768313291725226 -0.02522175149421754 -0.004483992580044217 
-0.0007305122135258735 0.009835723520221159 -0.01010873167709615 
0.05425621926905227 -0.002189080869725319 -0.06431441058150919 
0.02015981762361359 -0.03152669369875965 0.005796946663990309 
-0.009531270240589177 -0.003891111938355070 0.01202864785739188 
0.008838099911717004 -0.004135517436461100 -0.005205332403588175 
0.008838099911717004 -0.004135517436461100 -0.005205332403588175 
0.008838099911717004 -0.004135517436461100 -0.005205332403588175 
0.008838099911717004 -0.004135517436461100 -0.005205332403588175 
0.008838099911717004 -0.004135517436461100 -0.005205332403588175 
0.008838099911717004 -0.004135517436461100 -0.005205332403588175 
0.0004206790017061376 -0.009760663521691219 0.008204848214179078 
0.008838099911717004 -0.004135517436461100 -0.005205332403588175 
0.008838099911717004 -0.004135517436461100 -0.005205332403588175 
0.001190466193634599 -0.02773791215107606 -0.002878702248357098 
0.003384669038921726 -0.01011662652812085 0.007074690838634221 
0.003991770765636997 0.008210909984907226 -0.01381242140367484 
0.01704420592970492 -0.01034711380046188 -0.005551083434462450 
0.01059707275617965 -0.006136284937297979 -0.004394379124758635 
0.01059707275617965 -0.006136284937297979 -0.004394379124758635 
-0.009829290718083306 0.01484194519490468 -0.03501762948414594 
-0.06143365024542852 0.01530301727543338 0.03592409258283621 
0.01059707275617965 -0.006136284937297979 -0.004394379124758635 
0.01059707275617965 -0.006136284937297979 -0.004394379124758635 
0.01059707275617965 -0.006136284937297979 -0.004394379124758635 
0.01059707275617965 -0.006136284937297979 -0.004394379124758635 
0.01059707275617965 -0.006136284937297979 -0.004394379124758635 
0.01636663085658079 -0.02234115794151749 0.003849269720109101 
0.01059707275617965 -0.006136284937297979 -0.004394379124758635 
0.01059707275617965 -0.006136284937297979 -0.004394379124758635 
0.01059707275617965 -0.006136284937297979 -0.004394379124758635 
0.01059707275617965 -0.006136284937297979 -0.004394379124758635 
0.01059707275617965 -0.006136284937297979 -0.004394379124758635 
0.007929512823876262 -0.007942557629348078 0.0004000324994466684 
-0.007567471591665722 -0.02714896634551375 0.03527615893798607 
0.006670313227630675 -0.008564163666565573 0.002026894645415044 
0.01063061686046392 -0.05433024887878165 0.03893327302661040 
0.01059707275617965 -0.006136284937297979 -0.004394379124758635 
0.01059707275617965 -0.006136284937297979 -0.004394379124758635 
-0.008326627897705727 0.02229312456341893 -0.01545905131401734 
0.02099117892734309 0.005830219581872195 -0.03105234505563525 
0.01059707275617965 -0.006136284937297979 -0.004394379124758635 
0.001125886478843460 0.003876521997980891 -0.006127805165042672 
0.01059707275617965 -0.006136284937297979 -0.004394379124758635 
0.01059707275617965 -0.006136284937297979 -0.004394379124758635 
0.02495647231227856 -0.04490222353168493 0.01521846845747224 
0.01059707275617965 -0.006136284937297979 -0.004394379124758635 
0.01059707275617965 -0.006136284937297979 -0.004394379124758635 
-0.03017452825831421 0.05278365450581598 -0.04738418586208684 
0.01059707275617965 -0.006136284937297979 -0.004394379124758635 
-0.02575824237942137 -0.01746987323220082 0.02999067671277656 
0.008270269219886819 -0.007466147751868581 -0.006325969411406222 
0.001876219433422280 -0.02254569580424782 0.01886362044120682 
0.01059707275617965 -0.006136284937297979 -0.004394379124758635 
0.006501818320997136 -0.008766652214730648 0.002946472966449412 
0.03274430515736086 -0.02520561777261525 -0.009254315856724229 
0.01059707275617965 -0.006136284937297979 -0.004394379124758635 
0.01059707275617965 -0.006136284937297979 -0.004394379124758635 
0.01059707275617965 -0.006136284937297979 -0.004394379124758635 
-0.06195745711661507 0.09068710134279255 -0.04391555745580605 
0.01059707275617965 -0.006136284937297979 -0.004394379124758635 
0.01059707275617965 -0.006136284937297979 -0.004394379124758635 
0.002075009656728679 -0.004036325586849232 0.002710509989482519 
0.01059707275617965 -0.006136284937297979 -0.004394379124758635 
0.007727348001848614 -0.0003878701537092242 -0.006603082151818453 
0.01059707275617965 -0.006136284937297979 -0.004394379124758635 
0.001633907896105115 0.002225532062380118 -0.002220776956962456 
0.01059707275617965 -0.006136284937297979 -0.004394379124758635 
0.03449659339620892 -0.01149935828347133 -0.02681777562924212 
0.01059707275617965 -0.006136284937297979 -0.004394379124758635 
0.01059707275617965 -0.006136284937297979 -0.004394379124758635 
0.01059707275617965 -0.006136284937297979 -0.004394379124758635 
0.01059707275617965 -0.006136284937297979 -0.004394379124758635 
0.01059707275617965 -0.006136284937297979 -0.004394379124758635 
0.01026220505059405 -0.002736280581928223 -0.008512149396466419 
0.002140049212473773 -0.02291031032390783 0.01683894553176623 
0.01059707275617965 -0.006136284937297979 -0.004394379124758635 
0.01059707275617965 -0.006136284937297979 -0.004394379124758635 
0.01059707275617965 -0.006136284937297979 -0.004394379124758635 
0.01059707275617965 -0.006136284937297979 -0.004394379124758635 
0.004408003235705111 -0.0006966983252756787 -0.01317460580181581 
0.006584952420467378 -0.004793329335211816 -0.003707736754797163 
0.01479659160645103 -0.01634567101155528 -0.0009795532189748911 
0.01059707275617965 -0.006136284937297979 -0.004394379124758635 
0.01059707275617965 -0.006136284937297979 -0.004394379124758635 
0.01059707275617965 -0.006136284937297979 -0.004394379124758635 
0.009099795900144236 -0.005393123090885490 -0.002960871268464172 
0.009099795900144236 -0.005393123090885490 -0.002960871268464172 
0.02179054769012469 -0.01909128863621334 -0.002539590746241761 
0.009099795900144236 -0.005393123090885490 -0.002960871268464172 
0.01217542212316683 -0.01284408230578180 0.001450815808985633 
0.005004541464961721 -0.008023490368318160 0.004379980822743874 
-0.01659742117390293 0.03054459961587580 -0.02373405671424582 
-0.02936646612307828 0.04249636302665632 -0.02753623788628841 
0.009099795900144236 -0.005393123090885490 -0.002960871268464172 
0.009099795900144236 -0.005393123090885490 -0.002960871268464172 
-0.007249520641083171 0.01645875024675730 -0.009040962078486437 
0.009099795900144236 -0.005393123090885490 -0.002960871268464172 
0.009099795900144236 -0.005393123090885490 -0.002960871268464172 
0.009099795900144236 -0.005393123090885490 -0.002960871268464172 
-0.01627342787980789 -0.008007923472404099 0.02243255929866586 
0.01587973671750249 -0.009904048072817756 -0.005510511728942005 
0.01587973671750249 -0.009904048072817756 -0.005510511728942005 
0.009099795900144236 -0.005393123090885490 -0.002960871268464172 
0.009099795900144236 -0.005393123090885490 -0.002960871268464172 
0.009099795900144236 -0.005393123090885490 -0.002960871268464172 
0.01388683282267538 -0.006995737891893704 -0.004546038051265246 
0.009099795900144236 -0.005393123090885490 -0.002960871268464172 
-0.001328842773210969 -0.02344966219263628 0.02363888782946881 
0.009099795900144236 -0.005393123090885490 -0.002960871268464172 
-0.005100947998778235 0.01380079236336509 -0.01070131794854761 
-0.05217976826109742 0.01276018332793304 0.03123939601630960 
0.009099795900144236 -0.005393123090885490 -0.002960871268464172 
0.009099795900144236 -0.005393123090885490 -0.002960871268464172 
0.009099795900144236 -0.005393123090885490 -0.002960871268464172 
0.01350489803939723 -0.01012448144951351 -0.003435968140052012 
0.009099795900144236 -0.005393123090885490 -0.002960871268464172 
-0.002934697147422222 0.003823768571671828 0.001903496635986255 
0.01972811493146684 -0.006410523890217628 -0.01749231653965229 
0.006230071145813199 0.0003552916927032646 -0.005169574295523990 
0.009099795900144236 -0.005393123090885490 -0.002960871268464172 
0.009099795900144236 -0.005393123090885490 -0.002960871268464172 
0.009099795900144236 -0.005393123090885490 -0.002960871268464172 
0.004248411465624337 0.001630749000074306 -0.005329265845308717 
-0.01801881727627101 0.02126357332932444 -0.01720292247112261 
0.009099795900144236 -0.005393123090885490 -0.002960871268464172 
-0.004064566967253551 0.006356077568223026 0.0001655674515224595 
0.002598054883002542 -0.01089209815580592 0.007984715479533014 
0.001440641257964460 -0.007083950371414126 0.007697871481474632 
0.009099795900144236 -0.005393123090885490 -0.002960871268464172 
0.009099795900144236 -0.005393123090885490 -0.002960871268464172 
0.009099795900144236 -0.005393123090885490 -0.002960871268464172 
0.009099795900144236 -0.005393123090885490 -0.002960871268464172 
0.009099795900144236 -0.005393123090885490 -0.002960871268464172 
0.01382461144120992 -0.02501542706677003 0.007809048661833467 
0.009099795900144236 -0.005393123090885490 -0.002960871268464172 
0.009099795900144236 -0.005393123090885490 -0.002960871268464172 
0.009099795900144236 -0.005393123090885490 -0.002960871268464172 
0.01917495651566786 -0.01080039873021855 -0.008406048699777274 
0.009099795900144236 -0.005393123090885490 -0.002960871268464172 
0.008572379954552406 -0.005497832188721976 -0.006841110046149865 
0.01099039949323555 -0.01555020844095193 0.003468073724644934 
0.009099795900144236 -0.005393123090885490 -0.002960871268464172 
0.009099795900144236 -0.005393123090885490 -0.002960871268464172 
0.009099795900144236 -0.005393123090885490 -0.002960871268464172 
0.02571765923843461 -0.01678646505049874 -0.008847824344550689 
0.01723253481453828 -0.009539357702624996 -0.007098157719788887 
-0.01853461472858713 -0.01300841760875834 0.02319188224627925 
0.03450399258116835 -0.02396097528949854 -0.009659013645412840 
0.009099795900144236 -0.005393123090885490 -0.002960871268464172 
-0.01011268620628789 0.009839046643715050 0.001753024525469098 
0.01240290998214635 -0.01584895957776973 0.003379279612605973 
0.01511877338360971 -0.004926712538174938 -0.006659550462615591 
0.009099795900144236 -0.005393123090885490 -0.002960871268464172 
0.01816173530470381 -0.01010149451102465 -0.005896504816748768 
0.009099795900144236 -0.005393123090885490 -0.002960871268464172 
0.05395070767999678 -0.03423231945803117 -0.03460895462207819 
0.009099795900144236 -0.005393123090885490 -0.002960871268464172 
0.009099795900144236 -0.005393123090885490 -0.002960871268464172 
0.009099795900144236 -0.005393123090885490 -0.002960871268464172 
-0.04439314381758988 0.005280449566567281 0.03757840327092459 
0.006538459164263249 0.002723529897643871 -0.008906636220464443 
0.009099795900144236 -0.005393123090885490 -0.002960871268464172 
0.01824605859177990 -0.03149691510124424 0.01237747634867101 
0.009099795900144236 -0.005393123090885490 -0.002960871268464172 
0.009099795900144236 -0.005393123090885490 -0.002960871268464172 
-0.002774297765920610 0.01182582216172483 -0.009922890219241911 
0.005751301029370940 -0.002847777094612477 -0.003646558837519351 
-0.006448626150430500 -0.007330040935619613 0.01063530585005549 
0.01164949095751376 -0.01825321523964981 0.006819913731474097 
-0.002153955453073412 -0.007213446542611344 0.007827770955801906 
0.005751301029370940 -0.002847777094612477 -0.003646558837519351 
0.005751301029370940 -0.002847777094612477 -0.003646558837519351 
0.005751301029370940 -0.002847777094612477 -0.003646558837519351 
0.005751301029370940 -0.002847777094612477 -0.003646558837519351 
0.005751301029370940 -0.002847777094612477 -0.003646558837519351 
0.005751301029370940 -0.002847777094612477 -0.003646558837519351 
0.003733038769482425 0.004253430105874804 -0.008624893968354934 
-0.002532271225098061 -0.04232887295978755 0.04766621164155217 
0.005751301029370940 -0.002847777094612477 -0.003646558837519351 
0.005751301029370940 -0.002847777094612477 -0.003646558837519351 
0.005751301029370940 -0.002847777094612477 -0.003646558837519351 
0.005751301029370940 -0.002847777094612477 -0.003646558837519351 
0.005751301029370940 -0.002847777094612477 -0.003646558837519351 
0.005751301029370940 -0.002847777094612477 -0.003646558837519351 
0.005751301029370940 -0.002847777094612477 -0.003646558837519351 
0.005751301029370940 -0.002847777094612477 -0.003646558837519351 
0.08645420176877415 -0.05288737102851867 -0.03982311206566182 
0.005751301029370940 -0.002847777094612477 -0.003646558837519351 
0.005751301029370940 -0.002847777094612477 -0.003646558837519351 
-0.004337405664318862 0.01321222829586143 -0.01416784791766490 
0.005751301029370940 -0.002847777094612477 -0.003646558837519351 
0.005751301029370940 -0.002847777094612477 -0.003646558837519351 
-0.002845542497527223 -0.005118536981869629 0.006991817709242002 
0.005751301029370940 -0.002847777094612477 -0.003646558837519351 
0.005751301029370940 -0.002847777094612477 -0.003646558837519351 
0.002474243470161003 -0.0004947951669706071 -0.005141892042909605 
-0.004698657319321945 -0.008210508759801014 0.006864026370133130 
0.005751301029370940 -0.002847777094612477 -0.003646558837519351 
0.03595589979439633 -0.02487286759133424 -0.01465740443332037 
0.005751301029370940 -0.002847777094612477 -0.003646558837519351 
0.005751301029370940 -0.002847777094612477 -0.003646558837519351 
0.005751301029370940 -0.002847777094612477 -0.003646558837519351 
0.002005291590049724 -0.01474471148100541 0.008054264281908460 
-0.0004408108818412937 0.006104198152852750 -0.009706595798333474 
0.005751301029370940 -0.002847777094612477 -0.003646558837519351 
0.005751301029370940 -0.002847777094612477 -0.003646558837519351 
0.005751301029370940 -0.002847777094612477 -0.003646558837519351 
-0.01716562624069054 -0.02775575667067819 0.03639604598715040 
0.005751301029370940 -0.002847777094612477 -0.003646558837519351 
0.005751248343608428 0.0006788247901983186 -0.006885529372710144 
0.005751301029370940 -0.002847777094612477 -0.003646558837519351 
0.005751301029370940 -0.002847777094612477 -0.003646558837519351 
0.005751301029370940 -0.002847777094612477 -0.003646558837519351 
0.005751301029370940 -0.002847777094612477 -0.003646558837519351 
0.005751301029370940 -0.002847777094612477 -0.003646558837519351 
0.001058621425829565 0.005415862557084549 -0.007230771298408054 
0.01395112060593580 -0.006738840597400037 -0.008111568396362644 
0.01939175423398050 0.005748150793729319 -0.03068351944748516 
0.008466971325958550 -0.01092586260070565 -0.002330820072695390 
0.005751301029370940 -0.002847777094612477 -0.003646558837519351 
0.005751301029370940 -0.002847777094612477 -0.003646558837519351 
-0.001102332655445044 0.005117246473864184 -0.005758128289862557 
0.005751301029370940 -0.002847777094612477 -0.003646558837519351 
0.005751301029370940 -0.002847777094612477 -0.003646558837519351 
0.005751301029370940 -0.002847777094612477 -0.003646558837519351 
0.005751301029370940 -0.002847777094612477 -0.003646558837519351 
0.005751301029370940 -0.002847777094612477 -0.003646558837519351 
0.005751301029370940 -0.002847777094612477 -0.003646558837519351 
-0.002004164397056526 -0.01312732684963919 0.01101478735706870 
0.005751301029370940 -0.002847777094612477 -0.003646558837519351 
0.005751301029370940 -0.002847777094612477 -0.003646558837519351 
0.005751301029370940 -0.002847777094612477 -0.003646558837519351 
-0.03263459406602538 0.02308501508287615 0.007670987712913179 
0.005751301029370940 -0.002847777094612477 -0.003646558837519351 
0.005751301029370940 -0.002847777094612477 -0.003646558837519351 
0.001265505599422282 -0.007803344808332562 0.003872233822208497 
0.005751301029370940 -0.002847777094612477 -0.003646558837519351 
0.005751301029370940 -0.002847777094612477 -0.003646558837519351 
0.008311966722614153 -0.004474087745940191 -0.004082604571225052 
0.008311966722614153 -0.004474087745940191 -0.004082604571225052 
0.008311966722614153 -0.004474087745940191 -0.004082604571225052 
0.008311966722614153 -0.004474087745940191 -0.004082604571225052 
-0.003020847110214268 0.005273954689130628 -0.009263706053419647 
0.008311966722614153 -0.004474087745940191 -0.004082604571225052 
0.008311966722614153 -0.004474087745940191 -0.004082604571225052 
0.008311966722614153 -0.004474087745940191 -0.004082604571225052 
0.008311966722614153 -0.004474087745940191 -0.004082604571225052 
0.008311966722614153 -0.004474087745940191 -0.004082604571225052 
0.008311966722614153 -0.004474087745940191 -0.004082604571225052 
0.008311966722614153 -0.004474087745940191 -0.004082604571225052 
0.008311966722614153 -0.004474087745940191 -0.004082604571225052 
0.008311966722614153 -0.004474087745940191 -0.004082604571225052 
0.006389545290831682 -0.01070050849773025 0.003787318281730478 
0.008311966722614153 -0.004474087745940191 -0.004082604571225052 
0.008311966722614153 -0.004474087745940191 -0.004082604571225052 
0.01737390612717373 -0.009182459166079352 -0.007018238119509648 
0.008311966722614153 -0.004474087745940191 -0.004082604571225052 
0.008311966722614153 -0.004474087745940191 -0.004082604571225052 
0.008311966722614153 -0.004474087745940191 -0.004082604571225052 
0.008311966722614153 -0.004474087745940191 -0.004082604571225052 
0.003125315090912561 -0.01585704328488106 0.009134153089157538 
0.008311966722614153 -0.004474087745940191 -0.004082604571225052 
0.01860196247985809 -0.01966285554386722 0.002325776408474479 
0.008311966722614153 -0.004474087745940191 -0.004082604571225052 
0.01486740013278423 -0.01356613889117628 -0.001097882164929128 
0.008311966722614153 -0.004474087745940191 -0.004082604571225052 
0.008311966722614153 -0.004474087745940191 -0.004082604571225052 
0.008311966722614153 -0.004474087745940191 -0.004082604571225052 
-0.001128827296237916 -0.01540458307497137 0.01456695233906187 
0.02019821949412206 -0.02495507008403511 -0.0001185232459406729 
0.008311966722614153 -0.004474087745940191 -0.004082604571225052 
0.01740860897720628 -0.008504386583154786 -0.01162004863653937 
0.008311966722614153 -0.004474087745940191 -0.004082604571225052 
-0.02445243492735950 0.03027935054387181 -0.01163098623920931 
0.008311966722614153 -0.004474087745940191 -0.004082604571225052 
0.01795865713931778 -0.02746397236452898 0.003911935951395729 
0.002131926814926183 0.008793964240588743 -0.01354007511888292 
0.008538217634926206 -0.01856806783993514 0.01010484561757875 
0.008311966722614153 -0.004474087745940191 -0.004082604571225052 
0.008311966722614153 -0.004474087745940191 -0.004082604571225052 
0.008311966722614153 -0.004474087745940191 -0.004082604571225052 
0.008311966722614153 -0.004474087745940191 -0.004082604571225052 
0.008311966722614153 -0.004474087745940191 -0.004082604571225052 
0.008311966722614153 -0.004474087745940191 -0.004082604571225052 
0.008311966722614153 -0.004474087745940191 -0.004082604571225052 
0.008311966722614153 -0.004474087745940191 -0.004082604571225052 
0.008311966722614153 -0.004474087745940191 -0.004082604571225052 
0.006671491343012041 -0.004679102833317036 0.001666848322260736 
0.008311966722614153 -0.004474087745940191 -0.004082604571225052 
0.008311966722614153 -0.004474087745940191 -0.004082604571225052 
-0.02258160624622131 0.03348884260296890 -0.01852454663080365 
0.008311966722614153 -0.004474087745940191 -0.004082604571225052 
0.008311966722614153 -0.004474087745940191 -0.004082604571225052 
0.008311966722614153 -0.004474087745940191 -0.004082604571225052 
0.008311966722614153 -0.004474087745940191 -0.004082604571225052 
0.008311966722614153 -0.004474087745940191 -0.004082604571225052 
0.008311966722614153 -0.004474087745940191 -0.004082604571225052 
0.01139034857601860 -0.005908769334446843 -0.005256546116873808 
0.01139034857601860 -0.005908769334446843 -0.005256546116873808 
0.02687839491280184 0.02978261998012004 -0.07143310094075535 
0.01139034857601860 -0.005908769334446843 -0.005256546116873808 
0.01139034857601860 -0.005908769334446843 -0.005256546116873808 
0.01139042867183474 -0.008906858944101545 -0.004196997358505712 
0.007456790929261245 -0.008993297300012668 0.0009106449578256966 
0.01139034857601860 -0.005908769334446843 -0.005256546116873808 
0.01139034857601860 -0.005908769334446843 -0.005256546116873808 
0.01139034857601860 -0.005908769334446843 -0.005256546116873808 
0.01139034857601860 -0.005908769334446843 -0.005256546116873808 
0.01139034857601860 -0.005908769334446843 -0.005256546116873808 
0.01139034857601860 -0.005908769334446843 -0.005256546116873808 
0.01139034857601860 -0.005908769334446843 -0.005256546116873808 
0.0002960911389435008 0.007581553040534682 -0.008333146663274534 
0.01139034857601860 -0.005908769334446843 -0.005256546116873808 
0.01139034857601860 -0.005908769334446843 -0.005256546116873808 
0.01283494497878923 -0.006127872660225110 -0.01170471574110960 
0.003544688227016934 0.007664575241713324 -0.01346195761223469 
0.01139034857601860 -0.005908769334446843 -0.005256546116873808 
0.01139034857601860 -0.005908769334446843 -0.005256546116873808 
0.01139034857601860 -0.005908769334446843 -0.005256546116873808 
0.01139034857601860 -0.005908769334446843 -0.005256546116873808 
0.01139034857601860 -0.005908769334446843 -0.005256546116873808 
-0.02809994651157145 0.01194444517744197 0.01325875527445308 
0.01139034857601860 -0.005908769334446843 -0.005256546116873808 
-0.003065435418906318 0.01409337752836341 -0.009391643625357762 
0.01139034857601860 -0.005908769334446843 -0.005256546116873808 
0.01139034857601860 -0.005908769334446843 -0.005256546116873808 
0.03515794428600007 -0.02466797054383352 -0.01157153324133066 
0.01139034857601860 -0.005908769334446843 -0.005256546116873808 
0.008365827436893986 -0.01826328772474622 0.006341349977096759 
0.01139034857601860 -0.005908769334446843 -0.005256546116873808 
0.01139034857601860 -0.005908769334446843 -0.005256546116873808 
-0.01771097327379190 -0.006230996348784204 0.02329829614071552 
0.01139034857601860 -0.005908769334446843 -0.005256546116873808 
0.01139034857601860 -0.005908769334446843 -0.005256546116873808 
0.04226526720824527 -0.04070034773475754 -0.009899485940712507 
0.01139034857601860 -0.005908769334446843 -0.005256546116873808 
0.01139034857601860 -0.005908769334446843 -0.005256546116873808 
0.01139034857601860 -0.005908769334446843 -0.005256546116873808 
0.01139034857601860 -0.005908769334446843 -0.005256546116873808 
0.01376958698747189 -0.009849118033873283 -0.007412037292261470 
0.009095216936316850 -0.01180095194242535 0.0003689153370264820 
0.01376958698747189 -0.009849118033873283 -0.007412037292261470 
0.01376958698747189 -0.009849118033873283 -0.007412037292261470 
0.02450353808555320 -0.01505537976010629 -0.01445092826633752 
0.02952489613736036 -0.02191783179170001 -0.01562204318565131 
0.01376958698747189 -0.009849118033873283 -0.007412037292261470 
0.01376958698747189 -0.009849118033873283 -0.007412037292261470 
0.01376958698747189 -0.009849118033873283 -0.007412037292261470 
0.01376958698747189 -0.009849118033873283 -0.007412037292261470 
0.01376958698747189 -0.009849118033873283 -0.007412037292261470 
0.01376958698747189 -0.009849118033873283 -0.007412037292261470 
0.01376958698747189 -0.009849118033873283 -0.007412037292261470 
0.01376958698747189 -0.009849118033873283 -0.007412037292261470 
0.01376958698747189 -0.009849118033873283 -0.007412037292261470 
0.01376958698747189 -0.009849118033873283 -0.007412037292261470 
0.01376958698747189 -0.009849118033873283 -0.007412037292261470 
0.03188237919738435 -0.04383786763168709 -0.01550973620263433 
0.01376958698747189 -0.009849118033873283 -0.007412037292261470 
0.01376958698747189 -0.009849118033873283 -0.007412037292261470 
0.01376958698747189 -0.009849118033873283 -0.007412037292261470 
0.01376958698747189 -0.009849118033873283 -0.007412037292261470 
0.01376958698747189 -0.009849118033873283 -0.007412037292261470 
0.01376958698747189 -0.009849118033873283 -0.007412037292261470 
0.01376958698747189 -0.009849118033873283 -0.007412037292261470 
0.01376958698747189 -0.009849118033873283 -0.007412037292261470 
0.01376958698747189 -0.009849118033873283 -0.007412037292261470 
0.01222664434319334 -0.01296020997793434 0.0001398038600222838 
0.01543681289693030 -0.01111430131211064 -0.006857393970686243 
0.008583179212114310 -0.003149277743633977 -0.008968963423029446 
0.01543681289693030 -0.01111430131211064 -0.006857393970686243 
0.01543681289693030 -0.01111430131211064 -0.006857393970686243 
0.02908190457169158 -0.02103639712718262 -0.01442657312197346 
-0.02211649503911580 0.001867898387302655 0.01686078933240454 
0.01543681289693030 -0.01111430131211064 -0.006857393970686243 
0.01543681289693030 -0.01111430131211064 -0.006857393970686243 
0.01543681289693030 -0.01111430131211064 -0.006857393970686243 
0.01543681289693030 -0.01111430131211064 -0.006857393970686243 
0.01543681289693030 -0.01111430131211064 -0.006857393970686243 
0.03774781806795569 -0.03143519071100879 -0.02380655711502710 
0.04292638297704441 -0.02614160938368125 -0.01972228165471357 
0.01543681289693030 -0.01111430131211064 -0.006857393970686243 
0.01543681289693030 -0.01111430131211064 -0.006857393970686243 
0.01543681289693030 -0.01111430131211064 -0.006857393970686243 
0.01543681289693030 -0.01111430131211064 -0.006857393970686243 
0.02526775537885458 -0.01684017315147784 -0.01530146691828481 
0.01543681289693030 -0.01111430131211064 -0.006857393970686243 
0.01543681289693030 -0.01111430131211064 -0.006857393970686243 
0.01543681289693030 -0.01111430131211064 -0.006857393970686243 
0.01543681289693030 -0.01111430131211064 -0.006857393970686243 
0.01138030436134576 -0.009247732814957195 -0.005589908664804281 
0.01138030436134576 -0.009247732814957195 -0.005589908664804281 
0.02421919945088014 -0.01799205186501180 -0.01267351293326264 
0.01138030436134576 -0.009247732814957195 -0.005589908664804281 
0.01709569150016098 -0.01830317543852088 0.0003019241214972758 
0.01138030436134576 -0.009247732814957195 -0.005589908664804281 
0.01138030436134576 -0.009247732814957195 -0.005589908664804281 
0.01138030436134576 -0.009247732814957195 -0.005589908664804281 
0.01138030436134576 -0.009247732814957195 -0.005589908664804281 
0.01138030436134576 -0.009247732814957195 -0.005589908664804281 
0.01138030436134576 -0.009247732814957195 -0.005589908664804281 
0.01138030436134576 -0.009247732814957195 -0.005589908664804281 
0.01138030436134576 -0.009247732814957195 -0.005589908664804281 
0.01138030436134576 -0.009247732814957195 -0.005589908664804281 
0.01138030436134576 -0.009247732814957195 -0.005589908664804281 
0.01138030436134576 -0.009247732814957195 -0.005589908664804281 
0.01138030436134576 -0.009247732814957195 -0.005589908664804281 
0.01138030436134576 -0.009247732814957195 -0.005589908664804281 
0.01138030436134576 -0.009247732814957195 -0.005589908664804281 
0.01138030436134576 -0.009247732814957195 -0.005589908664804281 
0.01138030436134576 -0.009247732814957195 -0.005589908664804281 
0.01138030436134576 -0.009247732814957195 -0.005589908664804281 
0.01327083558842426 0.02619815200340232 -0.05437730923557874 
0.01138030436134576 -0.009247732814957195 -0.005589908664804281 
-0.001101576520419863 0.006689557451781509 -0.01008438776980323 
0.01138030436134576 -0.009247732814957195 -0.005589908664804281 
0.01138030436134576 -0.009247732814957195 -0.005589908664804281 
0.01138030436134576 -0.009247732814957195 -0.005589908664804281 
0.01138030436134576 -0.009247732814957195 -0.005589908664804281 
0.01138030436134576 -0.009247732814957195 -0.005589908664804281 
0.01006832476476036 -0.02198731383465448 0.009015088669242928 
0.008766031869794888 0.002249612295319266 -0.01916229122820122 
-0.001753844636517395 -0.01400748117695476 0.01127757229466006 
0.01086544227466344 -0.007610539905092574 -0.006555668012482676 
0.01086544227466344 -0.007610539905092574 -0.006555668012482676 
0.01086544227466344 -0.007610539905092574 -0.006555668012482676 
0.01086544227466344 -0.007610539905092574 -0.006555668012482676 
0.007901220299497134 -0.004454304681429760 -0.02124588011442580 
0.01086544227466344 -0.007610539905092574 -0.006555668012482676 
0.01086544227466344 -0.007610539905092574 -0.006555668012482676 
0.01086544227466344 -0.007610539905092574 -0.006555668012482676 
0.01086544227466344 -0.007610539905092574 -0.006555668012482676 
0.01086544227466344 -0.007610539905092574 -0.006555668012482676 
0.01086544227466344 -0.007610539905092574 -0.006555668012482676 
0.01086544227466344 -0.007610539905092574 -0.006555668012482676 
0.02234729552817255 -0.01479081277507518 -0.01026168952609591 
0.01086544227466344 -0.007610539905092574 -0.006555668012482676 
0.01086544227466344 -0.007610539905092574 -0.006555668012482676 
0.01086544227466344 -0.007610539905092574 -0.006555668012482676 
0.01086544227466344 -0.007610539905092574 -0.006555668012482676 
0.01759189088508571 -0.01055065305021349 -0.01704746503700643 
0.01086544227466344 -0.007610539905092574 -0.006555668012482676 
0.01086544227466344 -0.007610539905092574 -0.006555668012482676 
0.01090682952980713 -0.02289911929319725 0.008808251499608661 
0.01112762775438705 -0.006409005066075079 -0.02205816200153101 
0.05458291307262734 -0.05151597936171956 -0.01758479512627418 
0.03083732247942474 -0.02394612941996195 -0.01536294279251836 
0.01575530914988848 -0.01206871375782673 -0.008210005893389846 
0.01575530914988848 -0.01206871375782673 -0.008210005893389846 
0.0006799009316074675 0.007661883199198178 -0.01544337747182714 
0.01575530914988848 -0.01206871375782673 -0.008210005893389846 
0.01575530914988848 -0.01206871375782673 -0.008210005893389846 
0.01575530914988848 -0.01206871375782673 -0.008210005893389846 
0.01575530914988848 -0.01206871375782673 -0.008210005893389846 
0.01575530914988848 -0.01206871375782673 -0.008210005893389846 
0.01575530914988848 -0.01206871375782673 -0.008210005893389846 
0.01575530914988848 -0.01206871375782673 -0.008210005893389846 
0.01575530914988848 -0.01206871375782673 -0.008210005893389846 
0.03029003031112040 -0.02274457414100599 -0.01582833661929587 
0.01575530914988848 -0.01206871375782673 -0.008210005893389846 
-0.008349162532189690 0.01582907920149100 -0.01654703982342550 
0.01575530914988848 -0.01206871375782673 -0.008210005893389846 
0.01575530914988848 -0.01206871375782673 -0.008210005893389846 
0.01575530914988848 -0.01206871375782673 -0.008210005893389846 
0.01575530914988848 -0.01206871375782673 -0.008210005893389846 
0.01484315158683987 -0.01153714345166386 -0.007457492327146351 
0.01484315158683987 -0.01153714345166386 -0.007457492327146351 
0.01484315158683987 -0.01153714345166386 -0.007457492327146351 
0.01484315158683987 -0.01153714345166386 -0.007457492327146351 
0.01484315158683987 -0.01153714345166386 -0.007457492327146351 
0.01484315158683987 -0.01153714345166386 -0.007457492327146351 
0.01484315158683987 -0.01153714345166386 -0.007457492327146351 
0.01484315158683987 -0.01153714345166386 -0.007457492327146351 
0.01484315158683987 -0.01153714345166386 -0.007457492327146351 
0.01484315158683987 -0.01153714345166386 -0.007457492327146351 
0.01484315158683987 -0.01153714345166386 -0.007457492327146351 
0.02641200722808773 -0.01728776367204203 -0.01446872532314773 
0.01484315158683987 -0.01153714345166386 -0.007457492327146351 
0.01484315158683987 -0.01153714345166386 -0.007457492327146351 
0.01484315158683987 -0.01153714345166386 -0.007457492327146351 
0.01484315158683987 -0.01153714345166386 -0.007457492327146351 
0.01484315158683987 -0.01153714345166386 -0.007457492327146351 
0.01484315158683987 -0.01153714345166386 -0.007457492327146351 
0.01484315158683987 -0.01153714345166386 -0.007457492327146351 
0.01484315158683987 -0.01153714345166386 -0.007457492327146351 
0.01484315158683987 -0.01153714345166386 -0.007457492327146351 
0.01484315158683987 -0.01153714345166386 -0.007457492327146351 
0.01646638123750326 -0.009417405304614976 -0.007163394745273589 
0.007750340991410252 -0.005247810272778223 -0.002760355586467386 
0.007750340991410252 -0.005247810272778223 -0.002760355586467386 
0.007750340991410252 -0.005247810272778223 -0.002760355586467386 
0.007750340991410252 -0.005247810272778223 -0.002760355586467386 
0.007750340991410252 -0.005247810272778223 -0.002760355586467386 
0.007750340991410252 -0.005247810272778223 -0.002760355586467386 
0.007750340991410252 -0.005247810272778223 -0.002760355586467386 
0.007750340991410252 -0.005247810272778223 -0.002760355586467386 
0.007750340991410252 -0.005247810272778223 -0.002760355586467386 
0.03399967797282909 -0.02165207979249785 -0.02041727488056971 
0.007750340991410252 -0.005247810272778223 -0.002760355586467386 
0.007750340991410252 -0.005247810272778223 -0.002760355586467386 
0.007750340991410252 -0.005247810272778223 -0.002760355586467386 
-0.01875169857205572 0.03848273954902256 -0.02773011226379474 
0.007750340991410252 -0.005247810272778223 -0.002760355586467386 
0.007750340991410252 -0.005247810272778223 -0.002760355586467386 
0.007750340991410252 -0.005247810272778223 -0.002760355586467386 
0.007750340991410252 -0.005247810272778223 -0.002760355586467386 
0.007750340991410252 -0.005247810272778223 -0.002760355586467386 
0.007750340991410252 -0.005247810272778223 -0.002760355586467386 
0.007750340991410252 -0.005247810272778223 -0.002760355586467386 
0.007750340991410252 -0.005247810272778223 -0.002760355586467386 
0.007750340991410252 -0.005247810272778223 -0.002760355586467386 
0.007750340991410252 -0.005247810272778223 -0.002760355586467386 
0.007750340991410252 -0.005247810272778223 -0.002760355586467386 
0.007750340991410252 -0.005247810272778223 -0.002760355586467386 
0.007750340991410252 -0.005247810272778223 -0.002760355586467386 
0.007750340991410252 -0.005247810272778223 -0.002760355586467386 
0.007750340991410252 -0.005247810272778223 -0.002760355586467386 
0.007750340991410252 -0.005247810272778223 -0.002760355586467386 
0.0006889357177007869 -0.02611317096821799 0.02224978922638351 
0.008393145799094280 -0.01822041640553099 0.006712666093509681 
0.007750340991410252 -0.005247810272778223 -0.002760355586467386 
0.007750340991410252 -0.005247810272778223 -0.002760355586467386 
0.007750340991410252 -0.005247810272778223 -0.002760355586467386 
-0.01122096303580713 0.01859393807711008 -0.008938544189747226 
0.007750340991410252 -0.005247810272778223 -0.002760355586467386 
-0.06470658822273744 0.01333079179183732 0.04419415295286934 
0.007750340991410252 -0.005247810272778223 -0.002760355586467386 
0.007750340991410252 -0.005247810272778223 -0.002760355586467386 
-0.004935202390941792 0.01645208075426521 -0.01255524387482736 
0.007750340991410252 -0.005247810272778223 -0.002760355586467386 
0.007750340991410252 -0.005247810272778223 -0.002760355586467386 
0.007750340991410252 -0.005247810272778223 -0.002760355586467386 
0.007750340991410252 -0.005247810272778223 -0.002760355586467386 
0.007750340991410252 -0.005247810272778223 -0.002760355586467386 
0.007750340991410252 -0.005247810272778223 -0.002760355586467386 
0.007750340991410252 -0.005247810272778223 -0.002760355586467386 
0.007750340991410252 -0.005247810272778223 -0.002760355586467386 
0.009090845763327813 -0.02482728731987369 0.01252544897159360 
0.007750340991410252 -0.005247810272778223 -0.002760355586467386 
0.007750340991410252 -0.005247810272778223 -0.002760355586467386 
0.007750340991410252 -0.005247810272778223 -0.002760355586467386 
0.007750340991410252 -0.005247810272778223 -0.002760355586467386 
0.007750340991410252 -0.005247810272778223 -0.002760355586467386 
0.007750340991410252 -0.005247810272778223 -0.002760355586467386 
0.007750340991410252 -0.005247810272778223 -0.002760355586467386 
0.007750340991410252 -0.005247810272778223 -0.002760355586467386 
0.007750340991410252 -0.005247810272778223 -0.002760355586467386 
0.007750340991410252 -0.005247810272778223 -0.002760355586467386 
-0.002569022033257785 0.002280765164233291 -0.01436189851692462 
0.0002524429813634615 -0.01552900669526623 0.01341278342763272 
0.005082781059106862 -0.007054082964828323 0.002034056037737917 
0.02058923608094463 -0.01399212932283283 -0.009843959854925744 
0.007750340991410252 -0.005247810272778223 -0.002760355586467386 
-0.01121638789103048 0.004273565078305338 0.004294216664569250 
0.01646638123750326 -0.009417405304614976 -0.007163394745273589 
0.06763905970315548 -0.03865908395673433 -0.03478283345507303 
0.007750340991410252 -0.005247810272778223 -0.002760355586467386 
0.007750340991410252 -0.005247810272778223 -0.002760355586467386 
0.01522600856585339 -0.01248843420681534 -0.003128762644855813 
0.007750340991410252 -0.005247810272778223 -0.002760355586467386 
0.01401004139973307 -0.008741395025300415 -0.007228797887004742 
0.01401004139973307 -0.008741395025300415 -0.007228797887004742 
0.01809193240608794 -0.02552589141924880 0.0005957597094934642 
-0.02419411578159445 -0.002359995537082039 0.02044639760063778 
0.03602820336399416 -0.02297899638190542 -0.01806352525584639 
0.01401004139973307 -0.008741395025300415 -0.007228797887004742 
0.01401004139973307 -0.008741395025300415 -0.007228797887004742 
-0.005703658649456233 -0.0004881243644586817 0.0008773712351206909 
0.01401004139973307 -0.008741395025300415 -0.007228797887004742 
0.01401004139973307 -0.008741395025300415 -0.007228797887004742 
0.01401004139973307 -0.008741395025300415 -0.007228797887004742 
0.01401004139973307 -0.008741395025300415 -0.007228797887004742 
-0.03894941181265207 0.03886681122046091 -0.01645296070032931 
0.01401004139973307 -0.008741395025300415 -0.007228797887004742 
-0.04885053666493668 0.02804514459828041 0.004201224254511440 
0.01401004139973307 -0.008741395025300415 -0.007228797887004742 
0.01401004139973307 -0.008741395025300415 -0.007228797887004742 
0.01401004139973307 -0.008741395025300415 -0.007228797887004742 
0.01401004139973307 -0.008741395025300415 -0.007228797887004742 
0.01401004139973307 -0.008741395025300415 -0.007228797887004742 
0.01401004139973307 -0.008741395025300415 -0.007228797887004742 
0.01401004139973307 -0.008741395025300415 -0.007228797887004742 
0.01401004139973307 -0.008741395025300415 -0.007228797887004742 
0.01401004139973307 -0.008741395025300415 -0.007228797887004742 
0.01401004139973307 -0.008741395025300415 -0.007228797887004742 
0.01401004139973307 -0.008741395025300415 -0.007228797887004742 
0.01453738327326610 -0.009296464843037488 -0.007777175512291634 
-0.01810307746573885 -0.05250015311829898 0.06284581742104309 
0.01453738327326610 -0.009296464843037488 -0.007777175512291634 
0.01453738327326610 -0.009296464843037488 -0.007777175512291634 
0.04335915907060220 -0.01956157699000150 -0.03187255533133277 
0.01044212883808359 -0.01192683212047016 -0.0004363234210835863 
0.02377975029184873 -0.02105548341885001 -0.006362923600415152 
0.01453738327326610 -0.009296464843037488 -0.007777175512291634 
0.01453739550605790 -0.01540996904785455 -0.002852025502271441 
0.01453738327326610 -0.009296464843037488 -0.007777175512291634 
0.01453738327326610 -0.009296464843037488 -0.007777175512291634 
0.01453738327326610 -0.009296464843037488 -0.007777175512291634 
0.01453738327326610 -0.009296464843037488 -0.007777175512291634 
0.01453738327326610 -0.009296464843037488 -0.007777175512291634 
-0.003556784435084478 -0.01869242969633353 0.01458778122543099 
-0.03711215549900294 0.05876384319776584 -0.03648879711992605 
0.01818531878724263 -0.01845937374864711 -0.004279039344973479 
0.007623357989164565 -0.01803988777145149 -0.0006974617267112056 
0.01453738327326610 -0.009296464843037488 -0.007777175512291634 
0.01453738327326610 -0.009296464843037488 -0.007777175512291634 
0.01453738327326610 -0.009296464843037488 -0.007777175512291634 
0.02309107819568218 -0.01261225584245040 -0.01247694041100945 
0.01453738327326610 -0.009296464843037488 -0.007777175512291634 
0.01453738327326610 -0.009296464843037488 -0.007777175512291634 
0.01453738327326610 -0.009296464843037488 -0.007777175512291634 
0.01453738327326610 -0.009296464843037488 -0.007777175512291634 
0.03563249534299862 -0.04384372965272317 0.004418628837387800 
0.02138548916305911 -0.006975428856653672 -0.01829063970249131 
0.006127798107315777 -0.003794834668651466 -0.003342672897194319 
0.006127798107315777 -0.003794834668651466 -0.003342672897194319 
0.006127798107315777 -0.003794834668651466 -0.003342672897194319 
-0.01282846247642547 0.01386089117560468 -0.004906433252123945 
0.006127798107315777 -0.003794834668651466 -0.003342672897194319 
0.006127798107315777 -0.003794834668651466 -0.003342672897194319 
0.006127798107315777 -0.003794834668651466 -0.003342672897194319 
0.006127798107315777 -0.003794834668651466 -0.003342672897194319 
0.006127798107315777 -0.003794834668651466 -0.003342672897194319 
0.006127798107315777 -0.003794834668651466 -0.003342672897194319 
0.007246478612820614 0.01475087016896613 -0.03298903605536788 
0.006127798107315777 -0.003794834668651466 -0.003342672897194319 
0.01256062676203399 -0.02191621433105692 0.005551254981472310 
0.006127798107315777 -0.003794834668651466 -0.003342672897194319 
0.006127798107315777 -0.003794834668651466 -0.003342672897194319 
0.006127798107315777 -0.003794834668651466 -0.003342672897194319 
0.006127798107315777 -0.003794834668651466 -0.003342672897194319 
0.006127798107315777 -0.003794834668651466 -0.003342672897194319 
0.006127798107315777 -0.003794834668651466 -0.003342672897194319 
-0.001907961164156197 0.007661457314455899 -0.006314586034215784 
0.006127798107315777 -0.003794834668651466 -0.003342672897194319 
-0.007074650314687668 -0.001319570698524598 0.005875285845740112 
0.006127798107315777 -0.003794834668651466 -0.003342672897194319 
0.006127798107315777 -0.003794834668651466 -0.003342672897194319 
0.0007069620740968940 -0.008366744161264752 0.005137613758202175 
0.006127798107315777 -0.003794834668651466 -0.003342672897194319 
0.006127798107315777 -0.003794834668651466 -0.003342672897194319 
0.006127798107315777 -0.003794834668651466 -0.003342672897194319 
0.006127798107315777 -0.003794834668651466 -0.003342672897194319 
0.006127798107315777 -0.003794834668651466 -0.003342672897194319 
0.01899863814377545 -0.006101980769129337 -0.02016783380216866 
-0.02541781468777038 0.09446765972993044 -0.08283990261406693 
-0.001907961164156197 0.007661457314455899 -0.006314586034215784 
0.006127798107315777 -0.003794834668651466 -0.003342672897194319 
-0.01311741909530423 -0.02023044818071262 0.02727193107021088 
0.01751419058371182 -0.01144752038434594 -0.008970153882709747 
0.006127798107315777 -0.003794834668651466 -0.003342672897194319 
-0.007668598397616681 0.001638637514955635 0.005117976150389102 
0.006127798107315777 -0.003794834668651466 -0.003342672897194319 
0.006127798107315777 -0.003794834668651466 -0.003342672897194319 
0.006127798107315777 -0.003794834668651466 -0.003342672897194319 
0.006127798107315777 -0.003794834668651466 -0.003342672897194319 
0.006127798107315777 -0.003794834668651466 -0.003342672897194319 
0.006127798107315777 -0.003794834668651466 -0.003342672897194319 
0.003432092606150392 0.001729898908953909 -0.006415974827329747 
0.006127798107315777 -0.003794834668651466 -0.003342672897194319 
-0.01749277762933264 0.01445594177138893 -0.005997412821476417 
0.001760299851011353 0.008045962875186512 -0.008644222568597244 
0.006127798107315777 -0.003794834668651466 -0.003342672897194319 
0.01769665374856363 -0.009545454889029636 -0.01035390589319570 
0.006127798107315777 -0.003794834668651466 -0.003342672897194319 
0.006127798107315777 -0.003794834668651466 -0.003342672897194319 
0.006127798107315777 -0.003794834668651466 -0.003342672897194319 
0.04065716523759871 -0.02417761037514700 -0.01795957464268556 
0.006127798107315777 -0.003794834668651466 -0.003342672897194319 
0.01902499325699563 -0.01401630429422560 -0.006337539004196064 
0.001251865585614275 0.001912766636333767 -0.004661859709813586 
0.004955518771215533 0.006630613428191844 -0.01625004899937890 
0.004109535847427262 0.003306372531835814 -0.008321008028029900 
0.006127798107315777 -0.003794834668651466 -0.003342672897194319 
0.001341991130980959 0.001246313227673786 -0.004482211512150512 
0.006127798107315777 -0.003794834668651466 -0.003342672897194319 
0.006127798107315777 -0.003794834668651466 -0.003342672897194319 
0.006127798107315777 -0.003794834668651466 -0.003342672897194319 
0.01181955125937328 -0.005362867530469889 -0.005926063165693974 
0.006127798107315777 -0.003794834668651466 -0.003342672897194319 
0.006127798107315777 -0.003794834668651466 -0.003342672897194319 
0.006127798107315777 -0.003794834668651466 -0.003342672897194319 
-0.001732519067990554 -0.009307241363484885 0.009245791947678866 
0.006127798107315777 -0.003794834668651466 -0.003342672897194319 
0.006127798107315777 -0.003794834668651466 -0.003342672897194319 
0.006127798107315777 -0.003794834668651466 -0.003342672897194319 
0.006127798107315777 -0.003794834668651466 -0.003342672897194319 
0.003334772609194457 0.002071560491764653 -0.006828795135527760 
-0.0008029553641318230 -0.01011394989831984 0.01060659551777978 
0.006127798107315777 -0.003794834668651466 -0.003342672897194319 
0.006127798107315777 -0.003794834668651466 -0.003342672897194319 
0.006127798107315777 -0.003794834668651466 -0.003342672897194319 
0.006127798107315777 -0.003794834668651466 -0.003342672897194319 
0.006127798107315777 -0.003794834668651466 -0.003342672897194319 
0.006127798107315777 -0.003794834668651466 -0.003342672897194319 
0.01102377152273898 -0.008161688837565927 -0.006498480345239702 
0.01102377152273898 -0.008161688837565927 -0.006498480345239702 
0.01102377152273898 -0.008161688837565927 -0.006498480345239702 
0.01102377152273898 -0.008161688837565927 -0.006498480345239702 
0.02195761388819536 -0.01572966235898673 -0.01247008890485205 
0.01102377152273898 -0.008161688837565927 -0.006498480345239702 
0.01102377152273898 -0.008161688837565927 -0.006498480345239702 
0.01102377152273898 -0.008161688837565927 -0.006498480345239702 
0.01102377152273898 -0.008161688837565927 -0.006498480345239702 
-0.01329564529276004 0.02751129455862165 -0.03261283080685332 
0.01102377152273898 -0.008161688837565927 -0.006498480345239702 
0.002284274158313174 -0.03292509480899718 0.02101452386709170 
0.01102377152273898 -0.008161688837565927 -0.006498480345239702 
0.01102377152273898 -0.008161688837565927 -0.006498480345239702 
0.01102377152273898 -0.008161688837565927 -0.006498480345239702 
0.01102377152273898 -0.008161688837565927 -0.006498480345239702 
0.01102377152273898 -0.008161688837565927 -0.006498480345239702 
0.01102377152273898 -0.008161688837565927 -0.006498480345239702 
0.01102377152273898 -0.008161688837565927 -0.006498480345239702 
0.01102377152273898 -0.008161688837565927 -0.006498480345239702 
0.01102377152273898 -0.008161688837565927 -0.006498480345239702 
0.01102377152273898 -0.008161688837565927 -0.006498480345239702 
0.01989404075517451 -0.01397410062783892 -0.009125045286613597 
0.01102377152273898 -0.008161688837565927 -0.006498480345239702 
0.01102377152273898 -0.008161688837565927 -0.006498480345239702 
-0.04305726686080073 0.01042386173555914 0.008963422119599579 
0.01102377152273898 -0.008161688837565927 -0.006498480345239702 
0.01102377152273898 -0.008161688837565927 -0.006498480345239702 
0.01102377152273898 -0.008161688837565927 -0.006498480345239702 
0.01102377152273898 -0.008161688837565927 -0.006498480345239702 
0.01102377152273898 -0.008161688837565927 -0.006498480345239702 
0.01102377152273898 -0.008161688837565927 -0.006498480345239702 
0.01138639247639605 -0.007652685715694471 -0.005627480985515430 
0.01138639247639605 -0.007652685715694471 -0.005627480985515430 
0.01138639247639605 -0.007652685715694471 -0.005627480985515430 
0.01138639247639605 -0.007652685715694471 -0.005627480985515430 
0.01138639247639605 -0.007652685715694471 -0.005627480985515430 
0.01138639247639605 -0.007652685715694471 -0.005627480985515430 
0.01138639247639605 -0.007652685715694471 -0.005627480985515430 
0.01138639247639605 -0.007652685715694471 -0.005627480985515430 
0.01138639247639605 -0.007652685715694471 -0.005627480985515430 
0.01138639247639605 -0.007652685715694471 -0.005627480985515430 
0.01138639247639605 -0.007652685715694471 -0.005627480985515430 
0.01138639247639605 -0.007652685715694471 -0.005627480985515430 
0.02490574452317158 -0.01719974497797509 -0.01204325905247377 
0.01138639247639605 -0.007652685715694471 -0.005627480985515430 
0.01138639247639605 -0.007652685715694471 -0.005627480985515430 
-0.01616541381119063 -0.005359407599373386 0.01592332709693838 
0.01138639247639605 -0.007652685715694471 -0.005627480985515430 
0.01138639247639605 -0.007652685715694471 -0.005627480985515430 
0.01138639247639605 -0.007652685715694471 -0.005627480985515430 
0.01138639247639605 -0.007652685715694471 -0.005627480985515430 
0.01138639247639605 -0.007652685715694471 -0.005627480985515430 
0.01203981317201532 -0.01806834810531885 0.004015851262010901 
0.01138639247639605 -0.007652685715694471 -0.005627480985515430 
0.01138639247639605 -0.007652685715694471 -0.005627480985515430 
0.01138639247639605 -0.007652685715694471 -0.005627480985515430 
0.01138639247639605 -0.007652685715694471 -0.005627480985515430 
0.01138639247639605 -0.007652685715694471 -0.005627480985515430 
0.01138639247639605 -0.007652685715694471 -0.005627480985515430 
0.01138639247639605 -0.007652685715694471 -0.005627480985515430 
0.01138639247639605 -0.007652685715694471 -0.005627480985515430 
0.01154158748199355 -0.007758738823644159 -0.005984112597198940 
0.01154158748199355 -0.007758738823644159 -0.005984112597198940 
0.01154158748199355 -0.007758738823644159 -0.005984112597198940 
0.01154158748199355 -0.007758738823644159 -0.005984112597198940 
0.01154158748199355 -0.007758738823644159 -0.005984112597198940 
0.01154158748199355 -0.007758738823644159 -0.005984112597198940 
0.01154158748199355 -0.007758738823644159 -0.005984112597198940 
0.01154158748199355 -0.007758738823644159 -0.005984112597198940 
0.01154158748199355 -0.007758738823644159 -0.005984112597198940 
0.01154158748199355 -0.007758738823644159 -0.005984112597198940 
0.01154158748199355 -0.007758738823644159 -0.005984112597198940 
0.01154158748199355 -0.007758738823644159 -0.005984112597198940 
0.01154158748199355 -0.007758738823644159 -0.005984112597198940 
0.01154158748199355 -0.007758738823644159 -0.005984112597198940 
0.01154158748199355 -0.007758738823644159 -0.005984112597198940 
0.01154158748199355 -0.007758738823644159 -0.005984112597198940 
0.01154158748199355 -0.007758738823644159 -0.005984112597198940 
0.01154158748199355 -0.007758738823644159 -0.005984112597198940 
0.01154158748199355 -0.007758738823644159 -0.005984112597198940 
0.01154158748199355 -0.007758738823644159 -0.005984112597198940 
0.01154158748199355 -0.007758738823644159 -0.005984112597198940 
0.01154158748199355 -0.007758738823644159 -0.005984112597198940 
-0.01047603112925394 0.0002897198999989515 0.001738019481730532 
0.01154158748199355 -0.007758738823644159 -0.005984112597198940 
0.01154158748199355 -0.007758738823644159 -0.005984112597198940 
0.01040177790650804 -0.006746469541858414 -0.006903557282463931 
0.01040177790650804 -0.006746469541858414 -0.006903557282463931 
0.01040177790650804 -0.006746469541858414 -0.006903557282463931 
-0.02018092776002338 -0.008325399288485769 0.02293783237220433 
0.01040177790650804 -0.006746469541858414 -0.006903557282463931 
0.01040177790650804 -0.006746469541858414 -0.006903557282463931 
0.01040177790650804 -0.006746469541858414 -0.006903557282463931 
0.01040177790650804 -0.006746469541858414 -0.006903557282463931 
0.01040177790650804 -0.006746469541858414 -0.006903557282463931 
0.01040177790650804 -0.006746469541858414 -0.006903557282463931 
0.01040177790650804 -0.006746469541858414 -0.006903557282463931 
0.01040177790650804 -0.006746469541858414 -0.006903557282463931 
-0.004735582949034692 -0.01574714192273508 0.01438330664391256 
0.01040177790650804 -0.006746469541858414 -0.006903557282463931 
0.01040177790650804 -0.006746469541858414 -0.006903557282463931 
0.01040177790650804 -0.006746469541858414 -0.006903557282463931 
0.01040177790650804 -0.006746469541858414 -0.006903557282463931 
0.01040177790650804 -0.006746469541858414 -0.006903557282463931 
0.01040177790650804 -0.006746469541858414 -0.006903557282463931 
-0.006739664574501988 0.009616107503652680 -0.006891695720175393 
0.01040177790650804 -0.006746469541858414 -0.006903557282463931 
0.01040177790650804 -0.006746469541858414 -0.006903557282463931 
0.01040177790650804 -0.006746469541858414 -0.006903557282463931 
0.01040177790650804 -0.006746469541858414 -0.006903557282463931 
0.01040177790650804 -0.006746469541858414 -0.006903557282463931 
0.01040177790650804 -0.006746469541858414 -0.006903557282463931 
0.01040177790650804 -0.006746469541858414 -0.006903557282463931 
0.01040177790650804 -0.006746469541858414 -0.006903557282463931 
0.01040177790650804 -0.006746469541858414 -0.006903557282463931 
0.01091617694593597 -0.008525025199453133 -0.006112267188513229 
0.01091617694593597 -0.008525025199453133 -0.006112267188513229 
0.01091617694593597 -0.008525025199453133 -0.006112267188513229 
0.01091617694593597 -0.008525025199453133 -0.006112267188513229 
0.01091617694593597 -0.008525025199453133 -0.006112267188513229 
0.01091617694593597 -0.008525025199453133 -0.006112267188513229 
0.03097907280963615 -0.02389069297913269 -0.01225614133164972 
0.01091617694593597 -0.008525025199453133 -0.006112267188513229 
0.01091617694593597 -0.008525025199453133 -0.006112267188513229 
0.01091617694593597 -0.008525025199453133 -0.006112267188513229 
0.01960816386205896 -0.01283221934037094 -0.01104618529877715 
0.01091617694593597 -0.008525025199453133 -0.006112267188513229 
0.01091617694593597 -0.008525025199453133 -0.006112267188513229 
0.01091617694593597 -0.008525025199453133 -0.006112267188513229 
0.01091617694593597 -0.008525025199453133 -0.006112267188513229 
0.01091617694593597 -0.008525025199453133 -0.006112267188513229 
0.01091617694593597 -0.008525025199453133 -0.006112267188513229 
0.01091617694593597 -0.008525025199453133 -0.006112267188513229 
0.01091617694593597 -0.008525025199453133 -0.006112267188513229 
0.01091617694593597 -0.008525025199453133 -0.006112267188513229 
0.01091617694593597 -0.008525025199453133 -0.006112267188513229 
0.01091617694593597 -0.008525025199453133 -0.006112267188513229 
-0.003019356173831653 0.02186731604145671 -0.02123301966917236 
0.01351935204677554 -0.009547059262280617 -0.006415778066958334 
0.01351935204677554 -0.009547059262280617 -0.006415778066958334 
0.01351935204677554 -0.009547059262280617 -0.006415778066958334 
0.01351935204677554 -0.009547059262280617 -0.006415778066958334 
0.01351935204677554 -0.009547059262280617 -0.006415778066958334 
0.01351935204677554 -0.009547059262280617 -0.006415778066958334 
0.01351935204677554 -0.009547059262280617 -0.006415778066958334 
0.01351935204677554 -0.009547059262280617 -0.006415778066958334 
0.01351935204677554 -0.009547059262280617 -0.006415778066958334 
0.01351935204677554 -0.009547059262280617 -0.006415778066958334 
0.01351935204677554 -0.009547059262280617 -0.006415778066958334 
0.01351935204677554 -0.009547059262280617 -0.006415778066958334 
0.01152564237721606 -0.005653284977076947 -0.009125224816514036 
0.01351935204677554 -0.009547059262280617 -0.006415778066958334 
0.01351935204677554 -0.009547059262280617 -0.006415778066958334 
0.01351935204677554 -0.009547059262280617 -0.006415778066958334 
0.01351935204677554 -0.009547059262280617 -0.006415778066958334 
0.01351935204677554 -0.009547059262280617 -0.006415778066958334 
0.01351935204677554 -0.009547059262280617 -0.006415778066958334 
0.01351935204677554 -0.009547059262280617 -0.006415778066958334 
0.01351935204677554 -0.009547059262280617 -0.006415778066958334 
0.01351935204677554 -0.009547059262280617 -0.006415778066958334 
0.01351935204677554 -0.009547059262280617 -0.006415778066958334 
0.01351935204677554 -0.009547059262280617 -0.006415778066958334 
0.01351935204677554 -0.009547059262280617 -0.006415778066958334 
0.01351935204677554 -0.009547059262280617 -0.006415778066958334 
0.01351935204677554 -0.009547059262280617 -0.006415778066958334 
0.01351935204677554 -0.009547059262280617 -0.006415778066958334 
0.01351935204677554 -0.009547059262280617 -0.006415778066958334 
0.01073395109808131 -0.005206261726233003 -0.007038890974076052 
0.01021054772979828 -0.01343570548480883 0.002772684889171139 
0.01073395109808131 -0.005206261726233003 -0.007038890974076052 
0.01868582129250083 0.0007604137433896305 -0.01822319972080284 
0.01073395109808131 -0.005206261726233003 -0.007038890974076052 
0.01073395109808131 -0.005206261726233003 -0.007038890974076052 
0.01073395109808131 -0.005206261726233003 -0.007038890974076052 
0.002474078512523935 -0.01047293562685404 0.005739735505136115 
0.01073395109808131 -0.005206261726233003 -0.007038890974076052 
0.01073395109808131 -0.005206261726233003 -0.007038890974076052 
0.01073395109808131 -0.005206261726233003 -0.007038890974076052 
0.01073395109808131 -0.005206261726233003 -0.007038890974076052 
0.01073395109808131 -0.005206261726233003 -0.007038890974076052 
0.01073395109808131 -0.005206261726233003 -0.007038890974076052 
0.0009493894655955457 -0.01091099442627292 0.008519420922710866 
0.01073395109808131 -0.005206261726233003 -0.007038890974076052 
0.01073395109808131 -0.005206261726233003 -0.007038890974076052 
0.01073395109808131 -0.005206261726233003 -0.007038890974076052 
-0.03366176001347077 -0.05308320472764368 0.07782190725495057 
0.01073395109808131 -0.005206261726233003 -0.007038890974076052 
0.01073395109808131 -0.005206261726233003 -0.007038890974076052 
0.01073395109808131 -0.005206261726233003 -0.007038890974076052 
0.01073395109808131 -0.005206261726233003 -0.007038890974076052 
0.01073395109808131 -0.005206261726233003 -0.007038890974076052 
0.01073395109808131 -0.005206261726233003 -0.007038890974076052 
0.01073395109808131 -0.005206261726233003 -0.007038890974076052 
0.01073395109808131 -0.005206261726233003 -0.007038890974076052 
0.01073395109808131 -0.005206261726233003 -0.007038890974076052 
0.01073395109808131 -0.005206261726233003 -0.007038890974076052 
0.01073395109808131 -0.005206261726233003 -0.007038890974076052 
0.01073395109808131 -0.005206261726233003 -0.007038890974076052 
0.01073395109808131 -0.005206261726233003 -0.007038890974076052 
-0.01094905110390881 0.005568441839769377 0.005473453291539039 
0.01210133349405391 -0.009333763253838740 -0.004866176535635098 
0.01210133349405391 -0.009333763253838740 -0.004866176535635098 
0.01210133349405391 -0.009333763253838740 -0.004866176535635098 
0.01210133349405391 -0.009333763253838740 -0.004866176535635098 
0.01210133349405391 -0.009333763253838740 -0.004866176535635098 
0.01210133349405391 -0.009333763253838740 -0.004866176535635098 
0.01210133349405391 -0.009333763253838740 -0.004866176535635098 
0.01210133349405391 -0.009333763253838740 -0.004866176535635098 
0.01210133349405391 -0.009333763253838740 -0.004866176535635098 
0.01210133349405391 -0.009333763253838740 -0.004866176535635098 
0.01210133349405391 -0.009333763253838740 -0.004866176535635098 
0.01210133349405391 -0.009333763253838740 -0.004866176535635098 
0.01210133349405391 -0.009333763253838740 -0.004866176535635098 
0.01210133349405391 -0.009333763253838740 -0.004866176535635098 
0.01210133349405391 -0.009333763253838740 -0.004866176535635098 
0.01210133349405391 -0.009333763253838740 -0.004866176535635098 
0.01210133349405391 -0.009333763253838740 -0.004866176535635098 
0.01210133349405391 -0.009333763253838740 -0.004866176535635098 
0.01210133349405391 -0.009333763253838740 -0.004866176535635098 
0.01210133349405391 -0.009333763253838740 -0.004866176535635098 
0.01210133349405391 -0.009333763253838740 -0.004866176535635098 
0.01210133349405391 -0.009333763253838740 -0.004866176535635098 
0.01210133349405391 -0.009333763253838740 -0.004866176535635098 
0.01386632711756244 -0.01332967484492476 -0.001028293033961077 
0.01210133349405391 -0.009333763253838740 -0.004866176535635098 
0.01359426935144798 -0.007364317227120916 -0.008434209845313047 
0.01359426935144798 -0.007364317227120916 -0.008434209845313047 
0.02228625626757097 -0.01167151136803872 -0.01336812795557697 
0.01359426935144798 -0.007364317227120916 -0.008434209845313047 
-0.0006064745474744937 0.01182959822712966 -0.01617465652539649 
0.01359426935144798 -0.007364317227120916 -0.008434209845313047 
0.0005274168020840640 -0.003203666356730629 -3.167979296793384e-05 
0.01359426935144798 -0.007364317227120916 -0.008434209845313047 
0.01359426935144798 -0.007364317227120916 -0.008434209845313047 
0.01359426935144798 -0.007364317227120916 -0.008434209845313047 
0.01359426935144798 -0.007364317227120916 -0.008434209845313047 
0.01359426935144798 -0.007364317227120916 -0.008434209845313047 
0.01359426935144798 -0.007364317227120916 -0.008434209845313047 
0.01359426935144798 -0.007364317227120916 -0.008434209845313047 
0.01359426935144798 -0.007364317227120916 -0.008434209845313047 
0.01359426935144798 -0.007364317227120916 -0.008434209845313047 
0.01359426935144798 -0.007364317227120916 -0.008434209845313047 
0.01359426935144798 -0.007364317227120916 -0.008434209845313047 
0.004958599280090720 -0.01642527419910722 0.009529816048426376 
-0.003282011009955962 -0.01229687686097565 0.01097225802499125 
0.003172117265366987 0.005088998505736432 -0.01048367315198713 
-0.008525440281099157 -0.03058276779320514 0.03435078659806658 
0.01197769660708371 -0.006964810307898270 -0.004915029371676962 
0.01581445493328284 -0.004028700962732851 -0.01665007374791272 
0.007716008621859580 -0.0007895191566654725 -0.007062525814368580 
0.01197769660708371 -0.006964810307898270 -0.004915029371676962 
0.01197769660708371 -0.006964810307898270 -0.004915029371676962 
0.01197769660708371 -0.006964810307898270 -0.004915029371676962 
0.01197769660708371 -0.006964810307898270 -0.004915029371676962 
0.01197769660708371 -0.006964810307898270 -0.004915029371676962 
0.01197769660708371 -0.006964810307898270 -0.004915029371676962 
0.01197769660708371 -0.006964810307898270 -0.004915029371676962 
0.001913505158158589 -0.01460821625670542 0.009860874785657399 
0.009614882253967545 0.01058271368040802 -0.01868295236862782 
0.01197769660708371 -0.006964810307898270 -0.004915029371676962 
0.01197769660708371 -0.006964810307898270 -0.004915029371676962 
0.01277191132706759 -0.009989575344557002 0.0001487844417405847 
0.004246423409719120 -0.002075625038112483 -0.006657612589552392 
0.01197769660708371 -0.006964810307898270 -0.004915029371676962 
0.01197769660708371 -0.006964810307898270 -0.004915029371676962 
0.01197769660708371 -0.006964810307898270 -0.004915029371676962 
0.01197769660708371 -0.006964810307898270 -0.004915029371676962 
0.01197769660708371 -0.006964810307898270 -0.004915029371676962 
0.01197769660708371 -0.006964810307898270 -0.004915029371676962 
0.01197769660708371 -0.006964810307898270 -0.004915029371676962 
0.01197769660708371 -0.006964810307898270 -0.004915029371676962 
0.03187642759791103 -0.01895826888413543 -0.01817966791865244 
0.01197769660708371 -0.006964810307898270 -0.004915029371676962 
0.01197769660708371 -0.006964810307898270 -0.004915029371676962 
0.01197769660708371 -0.006964810307898270 -0.004915029371676962 
0.0007550862004261336 0.005577766822064179 -0.007735439432613071 
0.006499627907690229 -0.01109997852338166 0.004196422604490655 
0.005730016946420495 -0.02249343206109830 0.01715253979229157 
0.009170324190154490 -0.02390967061396371 0.01440324225790047 
0.01197769660708371 -0.006964810307898270 -0.004915029371676962 
0.01197769660708371 -0.006964810307898270 -0.004915029371676962 
0.01197769660708371 -0.006964810307898270 -0.004915029371676962 
0.008242453080080977 -0.005854301608256042 -0.003469460253212776 
0.008242453080080977 -0.005854301608256042 -0.003469460253212776 
0.008242453080080977 -0.005854301608256042 -0.003469460253212776 
0.008242453080080977 -0.005854301608256042 -0.003469460253212776 
0.008242453080080977 -0.005854301608256042 -0.003469460253212776 
0.008242453080080977 -0.005854301608256042 -0.003469460253212776 
0.008242453080080977 -0.005854301608256042 -0.003469460253212776 
0.008242453080080977 -0.005854301608256042 -0.003469460253212776 
0.0001332499155802366 0.004445476105587659 -0.005152834074267173 
0.008242453080080977 -0.005854301608256042 -0.003469460253212776 
0.008242453080080977 -0.005854301608256042 -0.003469460253212776 
0.008242453080080977 -0.005854301608256042 -0.003469460253212776 
0.008242453080080977 -0.005854301608256042 -0.003469460253212776 
0.003366520558379476 -0.0001467003032708092 -0.004788647065832045 
0.008242453080080977 -0.005854301608256042 -0.003469460253212776 
0.008242453080080977 -0.005854301608256042 -0.003469460253212776 
0.008242453080080977 -0.005854301608256042 -0.003469460253212776 
0.008242453080080977 -0.005854301608256042 -0.003469460253212776 
0.008242453080080977 -0.005854301608256042 -0.003469460253212776 
0.008242453080080977 -0.005854301608256042 -0.003469460253212776 
0.008242453080080977 -0.005854301608256042 -0.003469460253212776 
0.01288244574248182 -0.009283344488176557 -0.004893403898072500 
0.008242453080080977 -0.005854301608256042 -0.003469460253212776 
0.008242453080080977 -0.005854301608256042 -0.003469460253212776 
0.008242453080080977 -0.005854301608256042 -0.003469460253212776 
0.008242453080080977 -0.005854301608256042 -0.003469460253212776 
0.008242453080080977 -0.005854301608256042 -0.003469460253212776 
0.008242453080080977 -0.005854301608256042 -0.003469460253212776 
0.008242453080080977 -0.005854301608256042 -0.003469460253212776 
0.008242453080080977 -0.005854301608256042 -0.003469460253212776 
-0.04043319532941924 0.009460049883703279 0.01094728020929749 
0.008242453080080977 -0.005854301608256042 -0.003469460253212776 
0.008242453080080977 -0.005854301608256042 -0.003469460253212776 
0.008242453080080977 -0.005854301608256042 -0.003469460253212776 
0.008242453080080977 -0.005854301608256042 -0.003469460253212776 
0.008242453080080977 -0.005854301608256042 -0.003469460253212776 
0.008242453080080977 -0.005854301608256042 -0.003469460253212776 
0.008242453080080977 -0.005854301608256042 -0.003469460253212776 
-0.02231045887387478 0.01217919870237958 0.003868503703905104 
0.008242453080080977 -0.005854301608256042 -0.003469460253212776 
0.008242453080080977 -0.005854301608256042 -0.003469460253212776 
0.01674575712904522 -0.002586101123985690 -0.01722489326608443 
0.008242453080080977 -0.005854301608256042 -0.003469460253212776 
0.01404848659549075 -0.005144607401627505 -0.01096581567486549 
0.008242453080080977 -0.005854301608256042 -0.003469460253212776 
0.008242453080080977 -0.005854301608256042 -0.003469460253212776 
0.008242453080080977 -0.005854301608256042 -0.003469460253212776 
0.008242453080080977 -0.005854301608256042 -0.003469460253212776 
0.008242453080080977 -0.005854301608256042 -0.003469460253212776 
-0.02598786763041362 0.02046860922041836 0.002999852743561482 
0.008242453080080977 -0.005854301608256042 -0.003469460253212776 
0.008242453080080977 -0.005854301608256042 -0.003469460253212776 
0.008242453080080977 -0.005854301608256042 -0.003469460253212776 
0.008242453080080977 -0.005854301608256042 -0.003469460253212776 
0.008242453080080977 -0.005854301608256042 -0.003469460253212776 
0.008242453080080977 -0.005854301608256042 -0.003469460253212776 
0.008242453080080977 -0.005854301608256042 -0.003469460253212776 
0.007002080408431112 -0.008925330510456405 0.0005651718472050007 
0.008242453080080977 -0.005854301608256042 -0.003469460253212776 
-0.02765736138722665 -0.02774704742088937 0.05274061633957699 
0.008242453080080977 -0.005854301608256042 -0.003469460253212776 
0.008242453080080977 -0.005854301608256042 -0.003469460253212776 
0.01288244574248182 -0.009283344488176557 -0.004893403898072500 
0.0009173437349301992 0.004594169740800693 -0.009659590630451171 
0.008242453080080977 -0.005854301608256042 -0.003469460253212776 
0.008242453080080977 -0.005854301608256042 -0.003469460253212776 
0.008242453080080977 -0.005854301608256042 -0.003469460253212776 
0.008242453080080977 -0.005854301608256042 -0.003469460253212776 
0.008242453080080977 -0.005854301608256042 -0.003469460253212776 
0.008242453080080977 -0.005854301608256042 -0.003469460253212776 
0.008242453080080977 -0.005854301608256042 -0.003469460253212776 
0.008242453080080977 -0.005854301608256042 -0.003469460253212776 
-0.001085146787205459 -0.001407420561249381 -0.001290318050738013 
-0.003530108040349867 -0.008929408730664480 0.009662427750679497 
0.008242453080080977 -0.005854301608256042 -0.003469460253212776 
0.008242453080080977 -0.005854301608256042 -0.003469460253212776 
0.008242453080080977 -0.005854301608256042 -0.003469460253212776 
0.008242453080080977 -0.005854301608256042 -0.003469460253212776 
0.008242453080080977 -0.005854301608256042 -0.003469460253212776 
0.008242453080080977 -0.005854301608256042 -0.003469460253212776 
0.008242453080080977 -0.005854301608256042 -0.003469460253212776 
0.006287772197402531 -0.003349064171217024 -0.002180021525322252 
0.006287772197402531 -0.003349064171217024 -0.002180021525322252 
0.006287772197402531 -0.003349064171217024 -0.002180021525322252 
0.006287772197402531 -0.003349064171217024 -0.002180021525322252 
-0.01480786359270997 0.02136761115830787 -0.01471202806836774 
-0.01085766742441490 0.02350304678007097 -0.01155639161915355 
0.006287772197402531 -0.003349064171217024 -0.002180021525322252 
0.01258732962783750 -0.01638319595007769 0.003875014909665906 
0.006287772197402531 -0.003349064171217024 -0.002180021525322252 
0.006287772197402531 -0.003349064171217024 -0.002180021525322252 
0.006287772197402531 -0.003349064171217024 -0.002180021525322252 
0.006287772197402531 -0.003349064171217024 -0.002180021525322252 
0.006287772197402531 -0.003349064171217024 -0.002180021525322252 
0.006287772197402531 -0.003349064171217024 -0.002180021525322252 
0.006287772197402531 -0.003349064171217024 -0.002180021525322252 
0.006287772197402531 -0.003349064171217024 -0.002180021525322252 
0.006287772197402531 -0.003349064171217024 -0.002180021525322252 
0.01671015515720402 -0.0004938994483174323 -0.01550919255691358 
0.006287772197402531 -0.003349064171217024 -0.002180021525322252 
0.008777049283417870 -0.02246889769969769 0.01546792664960505 
0.006287772197402531 -0.003349064171217024 -0.002180021525322252 
-0.01918452242303334 0.006584216074137389 0.01015198343522972 
0.006287772197402531 -0.003349064171217024 -0.002180021525322252 
0.006287772197402531 -0.003349064171217024 -0.002180021525322252 
0.006287772197402531 -0.003349064171217024 -0.002180021525322252 
0.02605644741521525 -0.01299074789438276 -0.01365626408016692 
0.006287772197402531 -0.003349064171217024 -0.002180021525322252 
0.006287772197402531 -0.003349064171217024 -0.002180021525322252 
0.006287772197402531 -0.003349064171217024 -0.002180021525322252 
0.006287772197402531 -0.003349064171217024 -0.002180021525322252 
0.006287772197402531 -0.003349064171217024 -0.002180021525322252 
0.006287772197402531 -0.003349064171217024 -0.002180021525322252 
0.006292056082510236 -0.008305173405558563 0.003830956665171127 
0.006287772197402531 -0.003349064171217024 -0.002180021525322252 
0.006287772197402531 -0.003349064171217024 -0.002180021525322252 
0.002947377258787718 -0.01817447119036620 0.01416957580899090 
0.006287772197402531 -0.003349064171217024 -0.002180021525322252 
0.01638936005829680 -0.008920985631913340 -0.007922635742486308 
-0.002310962160597128 0.007086853141196696 -0.009155902504563660 
0.006287772197402531 -0.003349064171217024 -0.002180021525322252 
0.006287772197402531 -0.003349064171217024 -0.002180021525322252 
0.01979705845633063 -0.01263587465106374 -0.01483119080252929 
0.006287772197402531 -0.003349064171217024 -0.002180021525322252 
0.006287772197402531 -0.003349064171217024 -0.002180021525322252 
0.006287772197402531 -0.003349064171217024 -0.002180021525322252 
0.006287772197402531 -0.003349064171217024 -0.002180021525322252 
0.006287772197402531 -0.003349064171217024 -0.002180021525322252 
0.006287772197402531 -0.003349064171217024 -0.002180021525322252 
0.006287772197402531 -0.003349064171217024 -0.002180021525322252 
0.006287772197402531 -0.003349064171217024 -0.002180021525322252 
0.006287772197402531 -0.003349064171217024 -0.002180021525322252 
0.006287772197402531 -0.003349064171217024 -0.002180021525322252 
0.006287772197402531 -0.003349064171217024 -0.002180021525322252 
0.006287772197402531 -0.003349064171217024 -0.002180021525322252 
0.006287772197402531 -0.003349064171217024 -0.002180021525322252 
0.006287772197402531 -0.003349064171217024 -0.002180021525322252 
0.006287772197402531 -0.003349064171217024 -0.002180021525322252 
0.006287772197402531 -0.003349064171217024 -0.002180021525322252 
-0.01249209666415686 0.02066323367767119 -0.009514051820268626 
0.006287772197402531 -0.003349064171217024 -0.002180021525322252 
0.007376630011761009 0.001527201315246123 -0.007589315939371497 
-3.636649292718674e-05 -0.007621356415224299 0.008004945948317035 
0.006287772197402531 -0.003349064171217024 -0.002180021525322252 
0.006287772197402531 -0.003349064171217024 -0.002180021525322252 
0.006287772197402531 -0.003349064171217024 -0.002180021525322252 
0.006287772197402531 -0.003349064171217024 -0.002180021525322252 
0.006287772197402531 -0.003349064171217024 -0.002180021525322252 
0.006287772197402531 -0.003349064171217024 -0.002180021525322252 
0.006287772197402531 -0.003349064171217024 -0.002180021525322252 
0.02030995797894742 -0.02301319465533304 0.005653429483432711 
0.006287772197402531 -0.003349064171217024 -0.002180021525322252 
-0.06227631398899649 0.05212562259628820 0.008284615960185652 
0.006287772197402531 -0.003349064171217024 -0.002180021525322252 
0.008553694922416075 -0.003315790999412914 -0.004699764898717812 
-0.002063291550845489 -0.02759846555463852 0.02115310405218600 
0.008553694922416075 -0.003315790999412914 -0.004699764898717812 
0.008553694922416075 -0.003315790999412914 -0.004699764898717812 
-0.04611299632039658 -0.001517538091352452 0.04261713501901344 
0.008221115415939100 0.005671116283331124 -0.01408119101726053 
0.008553694922416075 -0.003315790999412914 -0.004699764898717812 
0.02091707598673103 -0.01185764654873805 -0.01167445640384568 
0.008553694922416075 -0.003315790999412914 -0.004699764898717812 
0.008553694922416075 -0.003315790999412914 -0.004699764898717812 
0.008553694922416075 -0.003315790999412914 -0.004699764898717812 
0.008553694922416075 -0.003315790999412914 -0.004699764898717812 
0.008553694922416075 -0.003315790999412914 -0.004699764898717812 
0.008553694922416075 -0.003315790999412914 -0.004699764898717812 
0.008553694922416075 -0.003315790999412914 -0.004699764898717812 
0.008553694922416075 -0.003315790999412914 -0.004699764898717812 
0.008553694922416075 -0.003315790999412914 -0.004699764898717812 
0.008553694922416075 -0.003315790999412914 -0.004699764898717812 
0.009434964353029870 0.004000708792702445 -0.01959314847792977 
0.008553694922416075 -0.003315790999412914 -0.004699764898717812 
0.008553694922416075 -0.003315790999412914 -0.004699764898717812 
0.008553694922416075 -0.003315790999412914 -0.004699764898717812 
0.008553694922416075 -0.003315790999412914 -0.004699764898717812 
0.008553694922416075 -0.003315790999412914 -0.004699764898717812 
0.008553694922416075 -0.003315790999412914 -0.004699764898717812 
0.008553694922416075 -0.003315790999412914 -0.004699764898717812 
0.008553694922416075 -0.003315790999412914 -0.004699764898717812 
0.008553694922416075 -0.003315790999412914 -0.004699764898717812 
0.008553694922416075 -0.003315790999412914 -0.004699764898717812 
0.008553694922416075 -0.003315790999412914 -0.004699764898717812 
0.008553694922416075 -0.003315790999412914 -0.004699764898717812 
0.008553694922416075 -0.003315790999412914 -0.004699764898717812 
0.008553694922416075 -0.003315790999412914 -0.004699764898717812 
0.008553694922416075 -0.003315790999412914 -0.004699764898717812 
-0.02023796493305463 0.03462789955268440 -0.02292334088612790 
0.002357538699092436 -0.01322919206995347 0.01036095636086955 
0.008553694922416075 -0.003315790999412914 -0.004699764898717812 
0.01560134069146660 -0.01129669670819697 -0.007941114344817290 
0.02017057025840716 -0.007650024892873255 -0.01500461709866614 
0.01560134069146660 -0.01129669670819697 -0.007941114344817290 
-0.008669364187199910 0.0005144854296992186 -0.002303358038261158 
0.02024133335386744 -0.01472573958811748 -0.009365057989677014 
0.01560134069146660 -0.01129669670819697 -0.007941114344817290 
0.01560134069146660 -0.01129669670819697 -0.007941114344817290 
0.01560134069146660 -0.01129669670819697 -0.007941114344817290 
-0.02532702137293774 0.03920775287417636 -0.02373959390718982 
0.01560134069146660 -0.01129669670819697 -0.007941114344817290 
0.01560134069146660 -0.01129669670819697 -0.007941114344817290 
0.01560134069146660 -0.01129669670819697 -0.007941114344817290 
0.01560134069146660 -0.01129669670819697 -0.007941114344817290 
0.01560134069146660 -0.01129669670819697 -0.007941114344817290 
0.01560134069146660 -0.01129669670819697 -0.007941114344817290 
0.01560134069146660 -0.01129669670819697 -0.007941114344817290 
0.01560134069146660 -0.01129669670819697 -0.007941114344817290 
0.01560134069146660 -0.01129669670819697 -0.007941114344817290 
0.01560134069146660 -0.01129669670819697 -0.007941114344817290 
0.01560134069146660 -0.01129669670819697 -0.007941114344817290 
0.01560134069146660 -0.01129669670819697 -0.007941114344817290 
0.01560134069146660 -0.01129669670819697 -0.007941114344817290 
0.01560134069146660 -0.01129669670819697 -0.007941114344817290 
0.008001290959937462 -0.001052078948148710 -0.01299821361855991 
0.01560134069146660 -0.01129669670819697 -0.007941114344817290 
-0.007244654017899078 0.008358512615043227 -0.007547179333949746 
0.01560134069146660 -0.01129669670819697 -0.007941114344817290 
0.01154046999981409 -0.008007817097109795 -0.005714058115376935 
0.01461629002176603 0.003974375294861167 -0.02201581493968994 
0.01154046999981409 -0.008007817097109795 -0.005714058115376935 
0.008823806816836156 -0.01762986867668398 0.006939055795619663 
0.01154046999981409 -0.008007817097109795 -0.005714058115376935 
0.01154046999981409 -0.008007817097109795 -0.005714058115376935 
0.01154046999981409 -0.008007817097109795 -0.005714058115376935 
0.01154046999981409 -0.008007817097109795 -0.005714058115376935 
0.01154046999981409 -0.008007817097109795 -0.005714058115376935 
-0.002660273899108383 0.01118609835714079 -0.01345450479546038 
0.01154046999981409 -0.008007817097109795 -0.005714058115376935 
0.01154046999981409 -0.008007817097109795 -0.005714058115376935 
0.01154046999981409 -0.008007817097109795 -0.005714058115376935 
0.01154046999981409 -0.008007817097109795 -0.005714058115376935 
0.01154046999981409 -0.008007817097109795 -0.005714058115376935 
0.01154046999981409 -0.008007817097109795 -0.005714058115376935 
0.01154046999981409 -0.008007817097109795 -0.005714058115376935 
0.01154046999981409 -0.008007817097109795 -0.005714058115376935 
0.01154046999981409 -0.008007817097109795 -0.005714058115376935 
0.01154046999981409 -0.008007817097109795 -0.005714058115376935 
0.01154046999981409 -0.008007817097109795 -0.005714058115376935 
0.01283889508953438 -0.008744319050054608 -0.007083604268458358 
-0.01619735825188948 0.006563644071724196 0.004015668975715166 
0.01283889508953438 -0.008744319050054608 -0.007083604268458358 
0.01283889508953438 -0.008744319050054608 -0.007083604268458358 
0.01283889508953438 -0.008744319050054608 -0.007083604268458358 
0.02357128884030355 -0.01449882124162943 -0.01215014201964072 
-0.06302856131144799 0.04403479315410935 0.001167651388591992 
0.009232059847437251 0.0003514793498888140 -0.01211354618381831 
0.01283889508953438 -0.008744319050054608 -0.007083604268458358 
0.01675587079240347 -0.006868143425285897 -0.01388654470476447 
0.02200243237032093 -0.01487475101268426 -0.01035885612343580 
0.01283889508953438 -0.008744319050054608 -0.007083604268458358 
0.01283889508953438 -0.008744319050054608 -0.007083604268458358 
0.01283889508953438 -0.008744319050054608 -0.007083604268458358 
0.01195788231521304 -0.002311302938468363 -0.01723674612743251 
0.01283889508953438 -0.008744319050054608 -0.007083604268458358 
0.01283889508953438 -0.008744319050054608 -0.007083604268458358 
