solver_type L2R_L2LOSS_SVC
nr_class 3
label 0 1 2
nr_feature 12183
bias 1.000000000000000
w
0.007055459920387179 -0.009307948965703010 0.002732038673421419 
0.009574204350216171 -0.004277069108971427 -0.004331141581293203 
-0.04458251953261169 0.003984471076822722 0.01791198795188785 
-0.001305029556533051 -0.008568551936840077 0.0004759938008438504 
0.009574204350216171 -0.004277069108971427 -0.004331141581293203 
0.009574204350216171 -0.004277069108971427 -0.004331141581293203 
0.009574204350216171 -0.004277069108971427 -0.004331141581293203 
0.007330889466660014 0.003951034686656360 -0.008883314431446777 
0.01403574662413512 -0.02555246103801303 0.001879306768490142 
0.05008958156071571 -0.01552451092498697 -0.03897459875138629 
0.009574204350216171 -0.004277069108971427 -0.004331141581293203 
0.04239277572515023 -0.09967258864944262 -0.08344641116369675 
0.0002084357098624692 0.009327990436857763 -0.04486191783126479 
0.02231571263649081 -0.004020172848440218 -0.01757876074790103 
0.009574204350216171 -0.004277069108971427 -0.004331141581293203 
0.04169015510637926 -0.02793761702098788 -0.02349616174377664 
0.009574204350216171 -0.004277069108971427 -0.004331141581293203 
0.01483101538039133 -0.01268722242321299 -0.0005656822045235897 
0.001426565008237252 0.01582670258292778 -0.01960497575051264 
0.009574204350216171 -0.004277069108971427 -0.004331141581293203 
0.02899666993233402 -0.06176873257965450 0.02984300295712426 
0.01546900143951306 -0.03376593934027615 -0.006527217549779567 
0.004429210195108067 -0.001577336582423526 -0.004550231389005621 
-0.06034599461066932 0.005022304271696983 0.03648155671903198 
0.009574204350216171 -0.004277069108971427 -0.004331141581293203 
0.009574204350216171 -0.004277069108971427 -0.004331141581293203 
-0.003438412633578766 -0.002521665249779401 -0.005503998491212281 
0.009574204350216171 -0.004277069108971427 -0.004331141581293203 
0.02019338707115077 -0.01951913675335249 -0.001123008957712431 
0.009574204350216171 -0.004277069108971427 -0.004331141581293203 
0.009574204350216171 -0.004277069108971427 -0.004331141581293203 
0.005440608835760310 -0.03150563957594032 0.02245985540959156 
0.006532526957525426 -0.006193888114543240 -0.0007821850172281166 
-9.679000243161777e-05 -0.007918750917052755 0.006031266356033317 
0.009574204350216171 -0.004277069108971427 -0.004331141581293203 
0.03600671100015667 0.005060778247900335 -0.04922464492105159 
0.01680180448994860 -0.02474204950259310 0.005472798113053425 
0.01647103217804334 -0.006844208554642182 -0.008276192730473276 
-0.01123103031563373 -0.05900078711782815 0.05743524975824409 
-0.01595955861234911 -0.0003853973702812642 0.009791257490836217 
-0.01205269273723422 0.03608844336426472 -0.03120950962625999 
0.003888998708461744 -0.04717526712844639 -0.01166507653597201 
0.009574204350216171 -0.004277069108971427 -0.004331141581293203 
-0.03169279686815218 0.006323992210210430 0.02715330234314635 
0.009574204350216171 -0.004277069108971427 -0.004331141581293203 
0.009574204350216171 -0.004277069108971427 -0.004331141581293203 
-0.003770606216586681 -0.01337287966632785 0.01157155535135638 
0.009574204350216171 -0.004277069108971427 -0.004331141581293203 
0.009574204350216171 -0.004277069108971427 -0.004331141581293203 
0.009574204350216171 -0.004277069108971427 -0.004331141581293203 
0.009574204350216171 -0.004277069108971427 -0.004331141581293203 
0.009574204350216171 -0.004277069108971427 -0.004331141581293203 
0.009574204350216171 -0.004277069108971427 -0.004331141581293203 
0.009574204350216171 -0.004277069108971427 -0.004331141581293203 
-0.01926736411471640 -0.01447013645261681 0.03245120299133602 
-0.03499632417191213 -0.03340548305510287 0.05330563023432961 
0.02267269146064520 -0.02696182382440923 0.0005929464760338981 
0.004086359220626738 -0.001512967549140366 -0.003951619305883142 
0.009574204350216171 -0.004277069108971427 -0.004331141581293203 
0.009574204350216171 -0.004277069108971427 -0.004331141581293203 
0.01825713868856219 -0.008563220670571697 -0.009277181759084308 
0.05591967232148600 -0.002546781250935092 -0.06723325879900822 
-0.04486905572700820 0.02489544321045799 0.003360335034410644 
-0.0007404258323863645 0.001556339908420851 -0.002351258132178360 
0.009574204350216171 -0.004277069108971427 -0.004331141581293203 
0.009574204350216171 -0.004277069108971427 -0.004331141581293203 
0.01462357827855658 -0.01353338406589950 -0.0006765776097809984 
0.003854460047687175 0.01985842645748899 -0.02505581868512610 
0.009574204350216171 -0.004277069108971427 -0.004331141581293203 
0.002467159868019174 0.009118392295346650 -0.01269063158875476 
0.009574204350216171 -0.004277069108971427 -0.004331141581293203 
0.001266070068732567 -0.002992212790382623 -6.056772896538651e-05 
0.009360218555839123 -0.0007235905348472907 -0.007322237859912616 
0.009574204350216171 -0.004277069108971427 -0.004331141581293203 
0.009574204350216171 -0.004277069108971427 -0.004331141581293203 
0.002442243980312918 -0.01668784065947225 0.01352222964928665 
0.0008328676616365027 -0.02462944524288371 0.01494563828504793 
0.0002333822001628942 0.01135365718375599 -0.04476165718681442 
0.01631060459774143 -0.008694076988887557 -0.006937468174752064 
0.009574204350216171 -0.004277069108971427 -0.004331141581293203 
0.001432672816265814 0.006082490986512752 -0.006050670400373165 
0.01570729347722986 -0.008066857963335212 -0.007679946087969045 
0.009574204350216171 -0.004277069108971427 -0.004331141581293203 
0.009574204350216171 -0.004277069108971427 -0.004331141581293203 
0.009574204350216171 -0.004277069108971427 -0.004331141581293203 
0.002154914865010560 -0.009632782436043659 0.008671272950645573 
0.01276990960857296 0.001605670052755391 -0.02796551203978078 
-0.008666821720304614 0.004175411053176349 0.0002746141239009830 
0.008401408136338847 -0.008183209053975767 -0.008558312057467038 
-0.07163904755153841 0.04120315895655979 0.009919259514762522 
0.009574204350216171 -0.004277069108971427 -0.004331141581293203 
0.009574204350216171 -0.004277069108971427 -0.004331141581293203 
0.009574204350216171 -0.004277069108971427 -0.004331141581293203 
-0.001660220833463495 -0.005780267025760088 0.007460315424122715 
0.02223998838625110 0.03438985103484797 -0.06607194938677580 
0.005467303021002450 0.01711607125961832 -0.02585850659475366 
0.009574204350216171 -0.004277069108971427 -0.004331141581293203 
0.009574204350216171 -0.004277069108971427 -0.004331141581293203 
0.01615034635707621 -0.01649793197440356 8.402024398466625e-05 
0.009574204350216171 -0.004277069108971427 -0.004331141581293203 
0.03323690671688206 -0.01481022234888325 -0.02120784219281740 
0.1770948219194007 -0.1257962830895117 -0.08918363864629734 
0.008339011172377644 -0.003416343569417547 -0.006196684672862407 
0.02340608528003709 -0.01994968074633556 -0.005223274694317404 
0.008339011172377644 -0.003416343569417547 -0.006196684672862407 
0.008339011172377644 -0.003416343569417547 -0.006196684672862407 
0.008339011172377644 -0.003416343569417547 -0.006196684672862407 
0.02246299658127181 -0.0007189113310867092 -0.02796594372822209 
0.008339011172377644 -0.003416343569417547 -0.006196684672862407 
-0.03241781244534329 0.001311192287997974 -0.003694711046196713 
0.008339011172377644 -0.003416343569417547 -0.006196684672862407 
0.008339011172377644 -0.003416343569417547 -0.006196684672862407 
-0.002268358056384511 0.009471177301300525 -0.01344925491140618 
0.008339011172377644 -0.003416343569417547 -0.006196684672862407 
-0.1139423095307921 -0.0007960782620975880 0.06680277396920402 
0.008339011172377644 -0.003416343569417547 -0.006196684672862407 
0.008339011172377644 -0.003416343569417547 -0.006196684672862407 
0.008339011172377644 -0.003416343569417547 -0.006196684672862407 
0.008339011172377644 -0.003416343569417547 -0.006196684672862407 
0.008339011172377644 -0.003416343569417547 -0.006196684672862407 
0.001092554430445398 0.01521959840497641 -0.02150673929617585 
0.008339011172377644 -0.003416343569417547 -0.006196684672862407 
0.008339011172377644 -0.003416343569417547 -0.006196684672862407 
0.008339011172377644 -0.003416343569417547 -0.006196684672862407 
0.008339011172377644 -0.003416343569417547 -0.006196684672862407 
0.009746471557231415 -0.008779728421568087 -0.005330000633858254 
0.008339011172377644 -0.003416343569417547 -0.006196684672862407 
-0.003162201294022684 -0.01392407013530774 0.006564777047552887 
-0.01178604218501506 -0.01348182530373601 0.01621555558899239 
-0.02786184234541932 -0.05178694251831364 0.04965315303114311 
0.001091945356235012 -0.02890751745824932 0.02150529444828521 
0.01703559113632961 -0.01404457906560364 -0.003585065200676420 
0.008339011172377644 -0.003416343569417547 -0.006196684672862407 
-0.01168036138187896 0.01547758743261516 -0.009014152648223708 
0.02589657991706254 -0.01498500045597503 -0.01360945090935926 
0.008339011172377644 -0.003416343569417547 -0.006196684672862407 
0.01765495655497401 -0.009127885537572693 -0.01014205139226088 
0.008339011172377644 -0.003416343569417547 -0.006196684672862407 
0.008339011172377644 -0.003416343569417547 -0.006196684672862407 
0.008339011172377644 -0.003416343569417547 -0.006196684672862407 
0.008339011172377644 -0.003416343569417547 -0.006196684672862407 
0.008339011172377644 -0.003416343569417547 -0.006196684672862407 
4.676516892771880e-05 -0.004390366067687476 -0.02755198841520047 
0.008339011172377644 -0.003416343569417547 -0.006196684672862407 
0.008339011172377644 -0.003416343569417547 -0.006196684672862407 
0.008339011172377644 -0.003416343569417547 -0.006196684672862407 
0.008339011172377644 -0.003416343569417547 -0.006196684672862407 
0.008339011172377644 -0.003416343569417547 -0.006196684672862407 
-0.002439989202702787 -0.01078396558731420 0.01233720470661283 
0.04508004538073965 -0.05027727963461043 -0.001701356425242201 
0.003714425431547979 -0.01909281259835225 0.01272313992814513 
0.0009197216871720320 -0.008772056896489779 0.006805729859076369 
0.008339011172377644 -0.003416343569417547 -0.006196684672862407 
0.008339011172377644 -0.003416343569417547 -0.006196684672862407 
-0.03665152109268531 -0.01751829914695592 0.04613511700317954 
0.006354039046003776 -0.002655283870438688 -0.007758319319917341 
0.008339011172377644 -0.003416343569417547 -0.006196684672862407 
0.008339011172377644 -0.003416343569417547 -0.006196684672862407 
0.01765527229935705 -0.01211433051630324 -0.007326141448415205 
0.008339011172377644 -0.003416343569417547 -0.006196684672862407 
0.008339011172377644 -0.003416343569417547 -0.006196684672862407 
0.008339011172377644 -0.003416343569417547 -0.006196684672862407 
0.008339011172377644 -0.003416343569417547 -0.006196684672862407 
-0.01422066391619191 -0.004157311976061423 0.008458888878721368 
0.006499146747898105 0.006152997097228653 -0.01436523833037291 
0.006642434830239130 -0.009606651651013796 -0.001384323715556888 
0.008339011172377644 -0.003416343569417547 -0.006196684672862407 
0.01215506602771688 -0.007222948318099236 -0.01320006892473391 
0.008339326916760682 -0.006402788548148089 -0.003380774729016730 
0.008339011172377644 -0.003416343569417547 -0.006196684672862407 
0.008339011172377644 -0.003416343569417547 -0.006196684672862407 
0.008676878517307966 -0.04167542012495452 0.02828823562559808 
0.008339011172377644 -0.003416343569417547 -0.006196684672862407 
0.008339011172377644 -0.003416343569417547 -0.006196684672862407 
0.008339011172377644 -0.003416343569417547 -0.006196684672862407 
-0.001871185860702056 0.003154145546494198 -0.007249829703299356 
0.01905276539331154 -0.01402935913126052 -0.005305105332816123 
0.008339011172377644 -0.003416343569417547 -0.006196684672862407 
0.008339011172377644 -0.003416343569417547 -0.006196684672862407 
0.008339011172377644 -0.003416343569417547 -0.006196684672862407 
0.003551476289798012 0.001626449742635198 -0.007335963528439879 
0.008339011172377644 -0.003416343569417547 -0.006196684672862407 
0.008339011172377644 -0.003416343569417547 -0.006196684672862407 
0.008339011172377644 -0.003416343569417547 -0.006196684672862407 
0.008339011172377644 -0.003416343569417547 -0.006196684672862407 
0.008339011172377644 -0.003416343569417547 -0.006196684672862407 
0.008339011172377644 -0.003416343569417547 -0.006196684672862407 
0.008339011172377644 -0.003416343569417547 -0.006196684672862407 
-0.003664804633431639 0.01367826518855623 -0.01677815344836326 
0.008339011172377644 -0.003416343569417547 -0.006196684672862407 
0.009765560223952748 0.008132021166410873 -0.03785438783198359 
0.005687440555434883 -0.04153539103605885 0.03129602701302459 
0.01174470369665312 -0.006242652421410534 -0.006373067557453024 
0.007635017482382656 -0.0009464329376460373 -0.005436404348468745 
-0.004893796790861834 -0.01806291897694560 0.02094843312551360 
0.01174470369665312 -0.006242652421410534 -0.006373067557453024 
0.01174470369665312 -0.006242652421410534 -0.006373067557453024 
0.01174470369665312 -0.006242652421410534 -0.006373067557453024 
0.01174470369665312 -0.006242652421410534 -0.006373067557453024 
0.005430932470776384 0.006813469056653114 -0.01417621426887847 
-0.05894063316688671 0.03281337262809895 0.01703830809925191 
0.004111174455738797 0.004038439044163690 -0.01144841277450264 
0.005660577629685856 0.009335598490231370 -0.02053346651535836 
0.01174470369665312 -0.006242652421410534 -0.006373067557453024 
0.01557414374967251 -0.004842936693875165 -0.01122743419634086 
0.01174470369665312 -0.006242652421410534 -0.006373067557453024 
0.01821692202907503 -0.01307921843439020 -0.005622548953189515 
0.01174470369665312 -0.006242652421410534 -0.006373067557453024 
0.03810321603048111 -0.02251342358696984 -0.01726480716825381 
0.03421301942203840 0.01366644714220039 -0.04874478759554102 
-0.01547544661453383 -0.02054029073369367 0.03396777880675883 
0.01174470369665312 -0.006242652421410534 -0.006373067557453024 
0.08307657103927583 -0.1009203269492502 0.01099484407880349 
0.01174470369665312 -0.006242652421410534 -0.006373067557453024 
-0.01243782739912153 -0.005401301007479796 0.01571766405853766 
-0.04796230536014702 -0.02928494788539228 0.07661969494580569 
0.001732257224880573 0.007462053754004856 -0.01122980696664441 
0.01826912941583089 -0.005993421079441378 -0.01182033542830873 
0.01174470369665312 -0.006242652421410534 -0.006373067557453024 
0.01174470369665312 -0.006242652421410534 -0.006373067557453024 
0.01174470369665312 -0.006242652421410534 -0.006373067557453024 
0.006245786877267922 -0.01032681300467372 0.002705893992662904 
0.01190342739507617 -0.0005927470122724399 -0.01105294378743089 
0.01174470369665312 -0.006242652421410534 -0.006373067557453024 
0.01174470369665312 -0.006242652421410534 -0.006373067557453024 
0.01174470369665312 -0.006242652421410534 -0.006373067557453024 
0.01174470369665312 -0.006242652421410534 -0.006373067557453024 
0.01174470369665312 -0.006242652421410534 -0.006373067557453024 
-0.005714661775593437 0.02412393701402913 -0.01864327983735246 
0.01174470369665312 -0.006242652421410534 -0.006373067557453024 
0.001952388166920619 -0.01823360370401406 0.01554856405950974 
0.01174470369665312 -0.006242652421410534 -0.006373067557453024 
0.008279096179682704 0.004262527243477037 -0.01052514808512126 
-0.01837006589793432 0.01357398254729384 0.001411234880318887 
0.002670489303992267 0.005027845619126221 -0.009693540845934668 
0.008793069108319528 -0.004087111540529518 -0.005229533336784650 
0.008793069108319528 -0.004087111540529518 -0.005229533336784650 
0.006060487844446847 -0.0004040109682827408 -0.004839477033134838 
0.008793069108319528 -0.004087111540529518 -0.005229533336784650 
0.008793069108319528 -0.004087111540529518 -0.005229533336784650 
0.002056499482714218 -0.009201576355342023 0.007873205878694063 
0.01854077132131789 -0.01176258791621788 -0.007548387243821247 
-0.01672282449076780 -0.04254686767739986 0.04920497359832862 
-0.01408303647935709 0.003455960219303604 0.003367713974651706 
0.003541290704047682 -0.01447356847317287 0.007185320022928006 
0.005539920193650215 -0.005851940576343165 0.001721880410550992 
0.008793069108319528 -0.004087111540529518 -0.005229533336784650 
0.008793069108319528 -0.004087111540529518 -0.005229533336784650 
0.008793069108319528 -0.004087111540529518 -0.005229533336784650 
0.003969535539992596 -0.03982448246061880 0.02049535340915872 
0.008793069108319528 -0.004087111540529518 -0.005229533336784650 
0.008793069108319528 -0.004087111540529518 -0.005229533336784650 
0.008793069108319528 -0.004087111540529518 -0.005229533336784650 
0.008793069108319528 -0.004087111540529518 -0.005229533336784650 
0.008793069108319528 -0.004087111540529518 -0.005229533336784650 
3.615079012729048e-05 -0.0008915909917044130 -0.002504886797036212 
0.008793069108319528 -0.004087111540529518 -0.005229533336784650 
0.008793069108319528 -0.004087111540529518 -0.005229533336784650 
0.008793069108319528 -0.004087111540529518 -0.005229533336784650 
0.008793069108319528 -0.004087111540529518 -0.005229533336784650 
-0.005897470693993245 -0.002854327401329934 0.004394471323504770 
0.01492615823533322 -0.007876900394893303 -0.008578337843460494 
0.008793069108319528 -0.004087111540529518 -0.005229533336784650 
0.008793069108319528 -0.004087111540529518 -0.005229533336784650 
0.01531255103430169 -0.002415548371877150 -0.01422319822728225 
0.008793069108319528 -0.004087111540529518 -0.005229533336784650 
0.008793069108319528 -0.004087111540529518 -0.005229533336784650 
-0.01889111944175174 0.01870256143084175 -0.004115867875694624 
-0.004404733497992667 0.0009503923723534679 -0.004941829826005512 
-0.04103590068442455 0.05296969438903737 -0.03189265795561408 
-0.01988882571437071 -0.01559493146927761 0.02604226435765699 
0.008695977231627164 -0.01277374047590062 0.001040187742054083 
0.008793069108319528 -0.004087111540529518 -0.005229533336784650 
0.008793069108319528 -0.004087111540529518 -0.005229533336784650 
0.007759890817785482 -0.007862604924747912 -0.001001857764939426 
0.008793069108319528 -0.004087111540529518 -0.005229533336784650 
0.008793069108319528 -0.004087111540529518 -0.005229533336784650 
0.006081973406675269 -0.005827030933667773 -0.0004752974285603188 
0.008793069108319528 -0.004087111540529518 -0.005229533336784650 
0.01584920065274168 -0.008440990659576618 -0.007962186165503983 
0.008793069108319528 -0.004087111540529518 -0.005229533336784650 
0.002715595410718740 -0.0008633865893184835 -0.001805535379808185 
0.008793069108319528 -0.004087111540529518 -0.005229533336784650 
0.05390330001649650 -0.04834889243712343 -0.01020200285170748 
-0.004680326069106350 0.01157088947541427 -0.007576079614488060 
-0.001862162544176587 -0.01164514457060280 0.01430448258652962 
0.001967200578686371 -0.01861177278843068 0.01523176670679206 
0.008793069108319528 -0.004087111540529518 -0.005229533336784650 
0.008793069108319528 -0.004087111540529518 -0.005229533336784650 
-0.01583782652156143 0.006619522736434936 0.0007342411363395387 
0.008793069108319528 -0.004087111540529518 -0.005229533336784650 
0.005973626631076310 0.001842773647059544 -0.008753617112091182 
0.008793069108319528 -0.004087111540529518 -0.005229533336784650 
0.007523298650964076 -0.006851275503331963 -0.0008269224166128502 
0.008793069108319528 -0.004087111540529518 -0.005229533336784650 
-0.02299268300503464 0.006228061462327112 0.01364721536104667 
0.008793069108319528 -0.004087111540529518 -0.005229533336784650 
0.002940841117283511 0.003422370009546274 -0.006731654880097732 
0.02803752391174378 -0.01515158635019001 -0.01474043254234726 
0.0003114491890817054 -0.006519052752916395 0.006980511760211800 
0.008793069108319528 -0.004087111540529518 -0.005229533336784650 
0.02756802136510902 -0.02503866840578185 -0.004561892397559693 
-0.0008078312301777590 0.009916093991121335 -0.01014755503573380 
0.05394893492425433 -0.001758359438496439 -0.06454250894649760 
0.02001827216762013 -0.03121977463188489 0.005616140989203816 
-0.009674322753049785 -0.003670693267289324 0.01191003892993692 
0.008793069108319528 -0.004087111540529518 -0.005229533336784650 
0.008793069108319528 -0.004087111540529518 -0.005229533336784650 
0.008793069108319528 -0.004087111540529518 -0.005229533336784650 
0.008793069108319528 -0.004087111540529518 -0.005229533336784650 
0.008793069108319528 -0.004087111540529518 -0.005229533336784650 
0.008793069108319528 -0.004087111540529518 -0.005229533336784650 
0.0003447224310534576 -0.009659678743899178 0.008156538842546104 
0.008793069108319528 -0.004087111540529518 -0.005229533336784650 
0.008793069108319528 -0.004087111540529518 -0.005229533336784650 
0.0002052589424946687 -0.02606522568057763 -0.003819609968604678 
0.003368335363843082 -0.01004871761642862 0.007030611669851384 
0.003954244905108685 0.008301359768024374 -0.01387294609704806 
0.01686320797074718 -0.01001451005206343 -0.005741772164999671 
0.01058139521084147 -0.006089645484535592 -0.004423195338969317 
0.01058139521084147 -0.006089645484535592 -0.004423195338969317 
-0.01089161759826158 0.01668363310561708 -0.03604156449236864 
-0.06202001969263042 0.01575851386519888 0.03583231109874736 
0.01058139521084147 -0.006089645484535592 -0.004423195338969317 
0.01058139521084147 -0.006089645484535592 -0.004423195338969317 
0.01058139521084147 -0.006089645484535592 -0.004423195338969317 
0.01058139521084147 -0.006089645484535592 -0.004423195338969317 
0.01058139521084147 -0.006089645484535592 -0.004423195338969317 
0.01628572249316734 -0.02215465776479315 0.003743432072298381 
0.01058139521084147 -0.006089645484535592 -0.004423195338969317 
0.01058139521084147 -0.006089645484535592 -0.004423195338969317 
0.01058139521084147 -0.006089645484535592 -0.004423195338969317 
0.01058139521084147 -0.006089645484535592 -0.004423195338969317 
0.01058139521084147 -0.006089645484535592 -0.004423195338969317 
0.007870299509197215 -0.007829564877673846 0.0003310405692550140 
-0.007730952795491022 -0.02681296575198868 0.03508565119860601 
0.006662733183950668 -0.008533213699796363 0.002008081368866243 
0.01049174072951859 -0.05393837585491704 0.03870290637181083 
0.01058139521084147 -0.006089645484535592 -0.004423195338969317 
0.01058139521084147 -0.006089645484535592 -0.004423195338969317 
-0.008370586387792003 0.02242401530187867 -0.01554861233597723 
0.02084853364897144 0.006076370413895356 -0.03119204909776071 
0.01058139521084147 -0.006089645484535592 -0.004423195338969317 
0.002774347935679096 0.0006211431086676881 -0.004330036059533474 
0.01058139521084147 -0.006089645484535592 -0.004423195338969317 
0.01058139521084147 -0.006089645484535592 -0.004423195338969317 
0.02475157090511902 -0.04450049908082616 0.01499620645834879 
0.01058139521084147 -0.006089645484535592 -0.004423195338969317 
0.01058139521084147 -0.006089645484535592 -0.004423195338969317 
-0.03096874461201173 0.05413596502016384 -0.04823859000126594 
0.01058139521084147 -0.006089645484535592 -0.004423195338969317 
-0.02609700670652902 -0.01675571334894253 0.02957242027193258 
0.008266996832225315 -0.007452340642315286 -0.006342467921831880 
0.001796403729520420 -0.02235965426711269 0.01875596258107506 
0.01058139521084147 -0.006089645484535592 -0.004423195338969317 
0.006437806137309310 -0.008649374824846156 0.002881128307524338 
0.03273599529504334 -0.02516616257316227 -0.009266699114386897 
0.01058139521084147 -0.006089645484535592 -0.004423195338969317 
0.01058139521084147 -0.006089645484535592 -0.004423195338969317 
0.01058139521084147 -0.006089645484535592 -0.004423195338969317 
-0.06108100532377894 0.08838423213731965 -0.04250983510409202 
0.01058139521084147 -0.006089645484535592 -0.004423195338969317 
0.01058139521084147 -0.006089645484535592 -0.004423195338969317 
0.002004396072431546 -0.003897623484475823 0.002628201803542717 
0.01058139521084147 -0.006089645484535592 -0.004423195338969317 
0.007674435016335596 -0.0002729218770840922 -0.006671235384398289 
0.01058139521084147 -0.006089645484535592 -0.004423195338969317 
0.001364946327301168 0.002660940322450247 -0.002457688359391749 
0.01058139521084147 -0.006089645484535592 -0.004423195338969317 
0.03442726079583742 -0.01129445821295395 -0.02694468910324551 
0.01058139521084147 -0.006089645484535592 -0.004423195338969317 
0.01058139521084147 -0.006089645484535592 -0.004423195338969317 
0.01058139521084147 -0.006089645484535592 -0.004423195338969317 
0.01058139521084147 -0.006089645484535592 -0.004423195338969317 
0.01058139521084147 -0.006089645484535592 -0.004423195338969317 
0.01023669636777264 -0.002678670421178451 -0.008547225200477994 
0.002055413948440432 -0.02270416051877212 0.01672503240369837 
0.01058139521084147 -0.006089645484535592 -0.004423195338969317 
0.01058139521084147 -0.006089645484535592 -0.004423195338969317 
0.01058139521084147 -0.006089645484535592 -0.004423195338969317 
0.01058139521084147 -0.006089645484535592 -0.004423195338969317 
0.004287005115698545 -0.0005971784786244906 -0.01329947438807522 
0.006556232713338090 -0.004718547959562866 -0.003750280339233957 
0.01479353740706555 -0.01633609555729727 -0.0009871597273884184 
0.01058139521084147 -0.006089645484535592 -0.004423195338969317 
0.01058139521084147 -0.006089645484535592 -0.004423195338969317 
0.01058139521084147 -0.006089645484535592 -0.004423195338969317 
0.009077086173503635 -0.005359348418744444 -0.002973810565807634 
0.009077086173503635 -0.005359348418744444 -0.002973810565807634 
0.02169756524031220 -0.01894876643765174 -0.002614473711227520 
0.009077086173503635 -0.005359348418744444 -0.002973810565807634 
0.01217345994526948 -0.01282341918927237 0.001441809759536113 
0.004933497099971473 -0.007919077759055010 0.004330513080686022 
-0.01694407344410349 0.03112568383728620 -0.02405448232736344 
-0.02995168138666533 0.04342607279034524 -0.02803796608331770 
0.009077086173503635 -0.005359348418744444 -0.002973810565807634 
0.009077086173503635 -0.005359348418744444 -0.002973810565807634 
-0.007284583064063703 0.01655810856557222 -0.009101213281535478 
0.009077086173503635 -0.005359348418744444 -0.002973810565807634 
0.009077086173503635 -0.005359348418744444 -0.002973810565807634 
0.009077086173503635 -0.005359348418744444 -0.002973810565807634 
-0.01216663138060146 -0.01351814524799126 0.02511786274135473 
0.01581348642102889 -0.009776356298660575 -0.005580137159266495 
0.01581348642102889 -0.009776356298660575 -0.005580137159266495 
0.009077086173503635 -0.005359348418744444 -0.002973810565807634 
0.009077086173503635 -0.005359348418744444 -0.002973810565807634 
0.009077086173503635 -0.005359348418744444 -0.002973810565807634 
0.01369276955192558 -0.006691604799434561 -0.004706009824056790 
0.009077086173503635 -0.005359348418744444 -0.002973810565807634 
-0.001386651764616443 -0.02331264798512534 0.02359632037281178 
0.009077086173503635 -0.005359348418744444 -0.002973810565807634 
-0.005141007239015614 0.01383895766149038 -0.01071852296665893 
-0.05279104315617721 0.01392534145076116 0.03058354945547643 
0.009077086173503635 -0.005359348418744444 -0.002973810565807634 
0.009077086173503635 -0.005359348418744444 -0.002973810565807634 
0.009077086173503635 -0.005359348418744444 -0.002973810565807634 
0.01350968336563653 -0.01016906211949592 -0.003400161918882223 
0.009077086173503635 -0.005359348418744444 -0.002973810565807634 
-0.003014763520634498 0.003980404418839727 0.001814795182387274 
0.01948011907435574 -0.005964307603377349 -0.01773392498320045 
0.006170125978997760 0.0004573751887070549 -0.005221850611236604 
0.009077086173503635 -0.005359348418744444 -0.002973810565807634 
0.009077086173503635 -0.005359348418744444 -0.002973810565807634 
0.009077086173503635 -0.005359348418744444 -0.002973810565807634 
0.004174029497694100 0.001751982876648231 -0.005388813234256168 
-0.01418402893254686 0.01616345964651189 -0.01472736420763095 
0.009077086173503635 -0.005359348418744444 -0.002973810565807634 
-0.004129347862508501 0.006468749258789969 0.0001058976072088211 
0.002526691527436207 -0.01077631738703504 0.007926371095864887 
0.001415697323968536 -0.007053391829022329 0.007689637218970942 
0.009077086173503635 -0.005359348418744444 -0.002973810565807634 
0.009077086173503635 -0.005359348418744444 -0.002973810565807634 
0.009077086173503635 -0.005359348418744444 -0.002973810565807634 
0.009077086173503635 -0.005359348418744444 -0.002973810565807634 
0.009077086173503635 -0.005359348418744444 -0.002973810565807634 
0.01365843513599007 -0.02471869898846793 0.007638532347229673 
0.009077086173503635 -0.005359348418744444 -0.002973810565807634 
0.009077086173503635 -0.005359348418744444 -0.002973810565807634 
0.009077086173503635 -0.005359348418744444 -0.002973810565807634 
0.01915883201473630 -0.01076395872112987 -0.008422712643017080 
0.009077086173503635 -0.005359348418744444 -0.002973810565807634 
0.008339607189694860 -0.005022456711192500 -0.007104072554201060 
0.01091760893090658 -0.01544927479746725 0.003409206072936496 
0.009077086173503635 -0.005359348418744444 -0.002973810565807634 
0.009077086173503635 -0.005359348418744444 -0.002973810565807634 
0.009077086173503635 -0.005359348418744444 -0.002973810565807634 
0.02567268503046679 -0.01672493099658926 -0.008873518597026975 
0.01712188704834005 -0.009364557807618168 -0.007185478724768325 
-0.01864319194046902 -0.01274354580187186 0.02301604723209732 
0.03412602793583651 -0.02325035407226144 -0.01004980122256329 
0.009077086173503635 -0.005359348418744444 -0.002973810565807634 
-0.01019070449895258 0.009962770798571339 0.001682743375727825 
0.01237281506193770 -0.01580990311825806 0.003363511043830772 
0.01508270961089763 -0.004865745449556425 -0.006685051384531876 
0.009077086173503635 -0.005359348418744444 -0.002973810565807634 
0.01808799708509906 -0.009960971303867570 -0.005971267046618724 
0.009077086173503635 -0.005359348418744444 -0.002973810565807634 
0.05350579700875340 -0.03332075954205018 -0.03515642673514753 
0.009077086173503635 -0.005359348418744444 -0.002973810565807634 
0.009077086173503635 -0.005359348418744444 -0.002973810565807634 
0.009077086173503635 -0.005359348418744444 -0.002973810565807634 
-0.04485028645905589 0.006200403934822131 0.03704515516825711 
0.006523113564296844 0.002744739927293999 -0.008916575332622117 
0.009077086173503635 -0.005359348418744444 -0.002973810565807634 
0.01813663088927459 -0.03126580998956746 0.01222962028491022 
0.009077086173503635 -0.005359348418744444 -0.002973810565807634 
0.009077086173503635 -0.005359348418744444 -0.002973810565807634 
-0.002790863907702005 0.01183735843525418 -0.009922891448772965 
0.005733519039293417 -0.002828503559235729 -0.003653128302633399 
-0.006583337505970064 -0.007164319574036510 0.01054550224339895 
0.01166345688883461 -0.01828686318503673 0.006830512808671392 
-0.002316915860859356 -0.006954241762020834 0.007695250549066670 
0.005733519039293417 -0.002828503559235729 -0.003653128302633399 
0.005733519039293417 -0.002828503559235729 -0.003653128302633399 
0.005733519039293417 -0.002828503559235729 -0.003653128302633399 
0.005733519039293417 -0.002828503559235729 -0.003653128302633399 
0.005733519039293417 -0.002828503559235729 -0.003653128302633399 
0.005733519039293417 -0.002828503559235729 -0.003653128302633399 
0.004128579507164442 0.002809483965597859 -0.007601644513463309 
-0.002629174784564088 -0.04214958710536058 0.04756765859358306 
0.005733519039293417 -0.002828503559235729 -0.003653128302633399 
0.005733519039293417 -0.002828503559235729 -0.003653128302633399 
0.005733519039293417 -0.002828503559235729 -0.003653128302633399 
0.005733519039293417 -0.002828503559235729 -0.003653128302633399 
0.005733519039293417 -0.002828503559235729 -0.003653128302633399 
0.005733519039293417 -0.002828503559235729 -0.003653128302633399 
0.005733519039293417 -0.002828503559235729 -0.003653128302633399 
0.005733519039293417 -0.002828503559235729 -0.003653128302633399 
0.08586307832655705 -0.05190976243349230 -0.04036614715056539 
0.005733519039293417 -0.002828503559235729 -0.003653128302633399 
0.005733519039293417 -0.002828503559235729 -0.003653128302633399 
-0.004392601726859678 0.01329289149920939 -0.01421476574140454 
0.005733519039293417 -0.002828503559235729 -0.003653128302633399 
0.005733519039293417 -0.002828503559235729 -0.003653128302633399 
-0.002944728331559155 -0.004951961164492955 0.006908643697081519 
0.005733519039293417 -0.002828503559235729 -0.003653128302633399 
0.005733519039293417 -0.002828503559235729 -0.003653128302633399 
0.002406514593024011 -0.0003620744084337153 -0.005222539450644937 
-0.004732520772149294 -0.008170868963935792 0.006843147826301656 
0.005733519039293417 -0.002828503559235729 -0.003653128302633399 
0.03576225101730738 -0.02458302940816488 -0.01479340459365472 
0.005733519039293417 -0.002828503559235729 -0.003653128302633399 
0.005733519039293417 -0.002828503559235729 -0.003653128302633399 
0.005733519039293417 -0.002828503559235729 -0.003653128302633399 
0.001773199831957242 -0.01434774750000518 0.007839451790679403 
-0.0004788462148842202 0.006157519269754180 -0.009733909177254928 
0.005733519039293417 -0.002828503559235729 -0.003653128302633399 
0.005733519039293417 -0.002828503559235729 -0.003653128302633399 
0.005733519039293417 -0.002828503559235729 -0.003653128302633399 
-0.01740084507455609 -0.02748812039389463 0.03625769756920690 
0.005733519039293417 -0.002828503559235729 -0.003653128302633399 
0.005734566315611020 0.0007786905718709316 -0.006945191632719395 
0.005733519039293417 -0.002828503559235729 -0.003653128302633399 
0.005733519039293417 -0.002828503559235729 -0.003653128302633399 
0.005733519039293417 -0.002828503559235729 -0.003653128302633399 
0.005733519039293417 -0.002828503559235729 -0.003653128302633399 
0.005733519039293417 -0.002828503559235729 -0.003653128302633399 
0.0009989743287972652 0.005487469803157557 -0.007261820884318390 
0.01393878055383792 -0.006710760072685113 -0.008124830443708172 
0.02376007151045290 -0.0001083626626308816 -0.02780315469248678 
0.008348462858231969 -0.01078773653235224 -0.002399787623693144 
0.005733519039293417 -0.002828503559235729 -0.003653128302633399 
0.005733519039293417 -0.002828503559235729 -0.003653128302633399 
-0.001140866828500857 0.005177439679055515 -0.005791177589541968 
0.005733519039293417 -0.002828503559235729 -0.003653128302633399 
0.005733519039293417 -0.002828503559235729 -0.003653128302633399 
0.005733519039293417 -0.002828503559235729 -0.003653128302633399 
0.005733519039293417 -0.002828503559235729 -0.003653128302633399 
0.005733519039293417 -0.002828503559235729 -0.003653128302633399 
0.005733519039293417 -0.002828503559235729 -0.003653128302633399 
-0.002026616807038827 -0.01309661694547055 0.01100358075348810 
0.005733519039293417 -0.002828503559235729 -0.003653128302633399 
0.005733519039293417 -0.002828503559235729 -0.003653128302633399 
0.005733519039293417 -0.002828503559235729 -0.003653128302633399 
-0.03291144643165751 0.02355234337876590 0.007415582095432250 
0.005733519039293417 -0.002828503559235729 -0.003653128302633399 
0.005733519039293417 -0.002828503559235729 -0.003653128302633399 
0.001267198572373451 -0.007812279852740450 0.003884825523577741 
0.005733519039293417 -0.002828503559235729 -0.003653128302633399 
0.005733519039293417 -0.002828503559235729 -0.003653128302633399 
0.008318289256507967 -0.004471258890680009 -0.004085692718828712 
0.008318289256507967 -0.004471258890680009 -0.004085692718828712 
0.008318289256507967 -0.004471258890680009 -0.004085692718828712 
0.008318289256507967 -0.004471258890680009 -0.004085692718828712 
-0.002001228781174055 0.003185901294261767 -0.008104957568674680 
0.008318289256507967 -0.004471258890680009 -0.004085692718828712 
0.008318289256507967 -0.004471258890680009 -0.004085692718828712 
0.008318289256507967 -0.004471258890680009 -0.004085692718828712 
0.008318289256507967 -0.004471258890680009 -0.004085692718828712 
0.008318289256507967 -0.004471258890680009 -0.004085692718828712 
0.008318289256507967 -0.004471258890680009 -0.004085692718828712 
0.008318289256507967 -0.004471258890680009 -0.004085692718828712 
0.008318289256507967 -0.004471258890680009 -0.004085692718828712 
0.008318289256507967 -0.004471258890680009 -0.004085692718828712 
0.006320382650180147 -0.01059037920281215 0.003734443000261224 
0.008318289256507967 -0.004471258890680009 -0.004085692718828712 
0.008318289256507967 -0.004471258890680009 -0.004085692718828712 
0.01732920016810339 -0.009072881775803135 -0.007083149199639803 
0.008318289256507967 -0.004471258890680009 -0.004085692718828712 
0.008318289256507967 -0.004471258890680009 -0.004085692718828712 
0.008318289256507967 -0.004471258890680009 -0.004085692718828712 
0.008318289256507967 -0.004471258890680009 -0.004085692718828712 
0.003098893684204575 -0.01580583327199983 0.009104091116419693 
0.008318289256507967 -0.004471258890680009 -0.004085692718828712 
0.01850795154972242 -0.01950908583716158 0.002242111239952113 
0.008318289256507967 -0.004471258890680009 -0.004085692718828712 
0.01482451882065660 -0.01347278272614537 -0.001149834593422949 
0.008318289256507967 -0.004471258890680009 -0.004085692718828712 
0.008318289256507967 -0.004471258890680009 -0.004085692718828712 
0.008318289256507967 -0.004471258890680009 -0.004085692718828712 
-0.001331696274201333 -0.01501313666221565 0.01434709015340549 
0.02018014524476400 -0.02488091072876813 -0.0001657328493560422 
0.008318289256507967 -0.004471258890680009 -0.004085692718828712 
0.01738719158887258 -0.008437668542814662 -0.01165201174689435 
0.008318289256507967 -0.004471258890680009 -0.004085692718828712 
-0.02464624594247658 0.03063632612395571 -0.01183982884088497 
0.008318289256507967 -0.004471258890680009 -0.004085692718828712 
0.01763159972209850 -0.02713534500997677 0.003854049336606286 
0.002083633930717108 0.008892365846680843 -0.01359410754052938 
0.008446595729216898 -0.01842478784689075 0.01003455109317463 
0.008318289256507967 -0.004471258890680009 -0.004085692718828712 
0.008318289256507967 -0.004471258890680009 -0.004085692718828712 
0.008318289256507967 -0.004471258890680009 -0.004085692718828712 
0.008318289256507967 -0.004471258890680009 -0.004085692718828712 
0.008318289256507967 -0.004471258890680009 -0.004085692718828712 
0.008318289256507967 -0.004471258890680009 -0.004085692718828712 
0.008318289256507967 -0.004471258890680009 -0.004085692718828712 
0.008318289256507967 -0.004471258890680009 -0.004085692718828712 
0.008318289256507967 -0.004471258890680009 -0.004085692718828712 
0.006557429868729790 -0.004429451705863797 0.001515784868099321 
0.008318289256507967 -0.004471258890680009 -0.004085692718828712 
0.008318289256507967 -0.004471258890680009 -0.004085692718828712 
-0.02271981045946498 0.03369951757386051 -0.01864880441082831 
0.008318289256507967 -0.004471258890680009 -0.004085692718828712 
0.008318289256507967 -0.004471258890680009 -0.004085692718828712 
0.008318289256507967 -0.004471258890680009 -0.004085692718828712 
0.008318289256507967 -0.004471258890680009 -0.004085692718828712 
0.008318289256507967 -0.004471258890680009 -0.004085692718828712 
0.008318289256507967 -0.004471258890680009 -0.004085692718828712 
0.01135071018939066 -0.005844817470641501 -0.005290594209842662 
0.01135071018939066 -0.005844817470641501 -0.005290594209842662 
0.02619739119121074 0.03070069931232699 -0.07195385365201608 
0.01135071018939066 -0.005844817470641501 -0.005290594209842662 
0.01135071018939066 -0.005844817470641501 -0.005290594209842662 
0.01135073340678859 -0.008927487303794264 -0.004190098621442905 
0.007409308610103229 -0.008925606319873939 0.0008757308505643139 
0.01135071018939066 -0.005844817470641501 -0.005290594209842662 
0.01135071018939066 -0.005844817470641501 -0.005290594209842662 
0.01135071018939066 -0.005844817470641501 -0.005290594209842662 
0.01135071018939066 -0.005844817470641501 -0.005290594209842662 
0.01135071018939066 -0.005844817470641501 -0.005290594209842662 
0.01135071018939066 -0.005844817470641501 -0.005290594209842662 
0.01135071018939066 -0.005844817470641501 -0.005290594209842662 
0.0002597330605913878 0.007644170770978383 -0.008368450741164914 
0.01135071018939066 -0.005844817470641501 -0.005290594209842662 
0.01135071018939066 -0.005844817470641501 -0.005290594209842662 
0.01268051651206696 -0.005871986896037813 -0.01184509823564173 
0.003520869061229735 0.007682900546476884 -0.01346924862847302 
0.01135071018939066 -0.005844817470641501 -0.005290594209842662 
0.01135071018939066 -0.005844817470641501 -0.005290594209842662 
0.01135071018939066 -0.005844817470641501 -0.005290594209842662 
0.01135071018939066 -0.005844817470641501 -0.005290594209842662 
0.01135071018939066 -0.005844817470641501 -0.005290594209842662 
-0.02672100627587644 0.009252731329414645 0.01473044468609764 
0.01135071018939066 -0.005844817470641501 -0.005290594209842662 
-0.003143338663867894 0.01423018138281472 -0.009463009910332778 
0.01135071018939066 -0.005844817470641501 -0.005290594209842662 
0.01135071018939066 -0.005844817470641501 -0.005290594209842662 
0.03484226304567170 -0.02414871710877340 -0.01185739697414206 
0.01135071018939066 -0.005844817470641501 -0.005290594209842662 
0.008095082269838185 -0.01780158305724874 0.006089977871854078 
0.01135071018939066 -0.005844817470641501 -0.005290594209842662 
0.01135071018939066 -0.005844817470641501 -0.005290594209842662 
-0.01792689326858073 -0.005852878456058057 0.02308672669930919 
0.01135071018939066 -0.005844817470641501 -0.005290594209842662 
0.01135071018939066 -0.005844817470641501 -0.005290594209842662 
0.04211689456947411 -0.04045138802414221 -0.01002430138640024 
0.01135071018939066 -0.005844817470641501 -0.005290594209842662 
0.01135071018939066 -0.005844817470641501 -0.005290594209842662 
0.01135071018939066 -0.005844817470641501 -0.005290594209842662 
0.01135071018939066 -0.005844817470641501 -0.005290594209842662 
0.01366634620345524 -0.009705342501737841 -0.007480549800928252 
0.008978694310491251 -0.01162235419712192 0.0002762719155792271 
0.01366634620345524 -0.009705342501737841 -0.007480549800928252 
0.01366634620345524 -0.009705342501737841 -0.007480549800928252 
0.02438373353745317 -0.01487691370906961 -0.01453913689894172 
0.02937068360347466 -0.02172376023041791 -0.01571552315041720 
0.01366634620345524 -0.009705342501737841 -0.007480549800928252 
0.01366634620345524 -0.009705342501737841 -0.007480549800928252 
0.01366634620345524 -0.009705342501737841 -0.007480549800928252 
0.01366634620345524 -0.009705342501737841 -0.007480549800928252 
0.01366634620345524 -0.009705342501737841 -0.007480549800928252 
0.01366634620345524 -0.009705342501737841 -0.007480549800928252 
0.01366634620345524 -0.009705342501737841 -0.007480549800928252 
0.01366634620345524 -0.009705342501737841 -0.007480549800928252 
0.01366634620345524 -0.009705342501737841 -0.007480549800928252 
0.01366634620345524 -0.009705342501737841 -0.007480549800928252 
0.01366634620345524 -0.009705342501737841 -0.007480549800928252 
0.03120023256520380 -0.04270360236216301 -0.01613989608132012 
0.01366634620345524 -0.009705342501737841 -0.007480549800928252 
0.01366634620345524 -0.009705342501737841 -0.007480549800928252 
0.01366634620345524 -0.009705342501737841 -0.007480549800928252 
0.01366634620345524 -0.009705342501737841 -0.007480549800928252 
0.01366634620345524 -0.009705342501737841 -0.007480549800928252 
0.01366634620345524 -0.009705342501737841 -0.007480549800928252 
0.01366634620345524 -0.009705342501737841 -0.007480549800928252 
0.01366634620345524 -0.009705342501737841 -0.007480549800928252 
0.01366634620345524 -0.009705342501737841 -0.007480549800928252 
0.01214972689091885 -0.01282152988546624 6.027770719377665e-05 
0.01540287580558817 -0.01105670084965259 -0.006891136040141866 
0.008528489937793890 -0.003050757611361349 -0.009029185327050434 
0.01540287580558817 -0.01105670084965259 -0.006891136040141866 
0.01540287580558817 -0.01105670084965259 -0.006891136040141866 
0.02899920141900134 -0.02090417758975838 -0.01450059146449182 
-0.02219210081041141 0.002034379542979436 0.01675851368348199 
0.01540287580558817 -0.01105670084965259 -0.006891136040141866 
0.01540287580558817 -0.01105670084965259 -0.006891136040141866 
0.01540287580558817 -0.01105670084965259 -0.006891136040141866 
0.01540287580558817 -0.01105670084965259 -0.006891136040141866 
0.01540287580558817 -0.01105670084965259 -0.006891136040141866 
0.03759135882778924 -0.03121847519916192 -0.02392153969591806 
0.04284183248670728 -0.02598400598349287 -0.01981730749757180 
0.01540287580558817 -0.01105670084965259 -0.006891136040141866 
0.01540287580558817 -0.01105670084965259 -0.006891136040141866 
0.01540287580558817 -0.01105670084965259 -0.006891136040141866 
0.01540287580558817 -0.01105670084965259 -0.006891136040141866 
0.02523797218744651 -0.01679752575636892 -0.01532830324644363 
0.01540287580558817 -0.01105670084965259 -0.006891136040141866 
0.01540287580558817 -0.01105670084965259 -0.006891136040141866 
0.01540287580558817 -0.01105670084965259 -0.006891136040141866 
0.01540287580558817 -0.01105670084965259 -0.006891136040141866 
0.01135562419831679 -0.009219732682741812 -0.005602733591889008 
0.01135562419831679 -0.009219732682741812 -0.005602733591889008 
0.02412529157833515 -0.01784529811273844 -0.01275314168179779 
0.01135562419831679 -0.009219732682741812 -0.005602733591889008 
0.01708783300441129 -0.01829327338558249 0.0003048720478882985 
0.01135562419831679 -0.009219732682741812 -0.005602733591889008 
0.01135562419831679 -0.009219732682741812 -0.005602733591889008 
0.01135562419831679 -0.009219732682741812 -0.005602733591889008 
0.01135562419831679 -0.009219732682741812 -0.005602733591889008 
0.01135562419831679 -0.009219732682741812 -0.005602733591889008 
0.01135562419831679 -0.009219732682741812 -0.005602733591889008 
0.01135562419831679 -0.009219732682741812 -0.005602733591889008 
0.01135562419831679 -0.009219732682741812 -0.005602733591889008 
0.01135562419831679 -0.009219732682741812 -0.005602733591889008 
0.01135562419831679 -0.009219732682741812 -0.005602733591889008 
0.01135562419831679 -0.009219732682741812 -0.005602733591889008 
0.01135562419831679 -0.009219732682741812 -0.005602733591889008 
0.01135562419831679 -0.009219732682741812 -0.005602733591889008 
0.01135562419831679 -0.009219732682741812 -0.005602733591889008 
0.01135562419831679 -0.009219732682741812 -0.005602733591889008 
0.01135562419831679 -0.009219732682741812 -0.005602733591889008 
0.01135562419831679 -0.009219732682741812 -0.005602733591889008 
0.01316459941055437 0.02571246548716568 -0.05392500879766662 
0.01135562419831679 -0.009219732682741812 -0.005602733591889008 
-0.001154141133093455 0.006769336370838421 -0.01013170346069973 
0.01135562419831679 -0.009219732682741812 -0.005602733591889008 
0.01135562419831679 -0.009219732682741812 -0.005602733591889008 
0.01135562419831679 -0.009219732682741812 -0.005602733591889008 
0.01135562419831679 -0.009219732682741812 -0.005602733591889008 
0.01135562419831679 -0.009219732682741812 -0.005602733591889008 
0.009998536515897065 -0.02182197520989887 0.008920119958362588 
0.008642875059838010 0.002428349094652902 -0.01925619736439758 
-0.001816367475412503 -0.01390588031363380 0.01122753607416302 
0.01081078687083451 -0.007538433997854863 -0.006590827133873901 
0.01081078687083451 -0.007538433997854863 -0.006590827133873901 
0.01081078687083451 -0.007538433997854863 -0.006590827133873901 
0.01081078687083451 -0.007538433997854863 -0.006590827133873901 
0.009162125518845578 -0.007003057993065406 -0.01984630850389816 
0.01081078687083451 -0.007538433997854863 -0.006590827133873901 
0.01081078687083451 -0.007538433997854863 -0.006590827133873901 
0.01081078687083451 -0.007538433997854863 -0.006590827133873901 
0.01081078687083451 -0.007538433997854863 -0.006590827133873901 
0.01081078687083451 -0.007538433997854863 -0.006590827133873901 
0.01081078687083451 -0.007538433997854863 -0.006590827133873901 
0.01081078687083451 -0.007538433997854863 -0.006590827133873901 
0.02227333572523637 -0.01469000208341962 -0.01030879969833575 
0.01081078687083451 -0.007538433997854863 -0.006590827133873901 
0.01081078687083451 -0.007538433997854863 -0.006590827133873901 
0.01081078687083451 -0.007538433997854863 -0.006590827133873901 
0.01081078687083451 -0.007538433997854863 -0.006590827133873901 
0.01747309438032592 -0.01036732675198371 -0.01714978502830957 
0.01081078687083451 -0.007538433997854863 -0.006590827133873901 
0.01081078687083451 -0.007538433997854863 -0.006590827133873901 
0.01072020421427341 -0.02258521496516123 0.008630772160881534 
0.01075478913992330 -0.005726779530049987 -0.02247392369760236 
0.05447335549935700 -0.05136056215870131 -0.01766394016551948 
0.03073179262350718 -0.02381733783624778 -0.01542989671195318 
0.01570433740001942 -0.01201841772868007 -0.008234973349488948 
0.01570433740001942 -0.01201841772868007 -0.008234973349488948 
0.0005893533229249705 0.007778022905970083 -0.01550765311326294 
0.01570433740001942 -0.01201841772868007 -0.008234973349488948 
0.01570433740001942 -0.01201841772868007 -0.008234973349488948 
0.01570433740001942 -0.01201841772868007 -0.008234973349488948 
0.01570433740001942 -0.01201841772868007 -0.008234973349488948 
0.01570433740001942 -0.01201841772868007 -0.008234973349488948 
0.01570433740001942 -0.01201841772868007 -0.008234973349488948 
0.01570433740001942 -0.01201841772868007 -0.008234973349488948 
0.01570433740001942 -0.01201841772868007 -0.008234973349488948 
0.03019069329567109 -0.02262105409777799 -0.01589205838380162 
0.01570433740001942 -0.01201841772868007 -0.008234973349488948 
-0.008442418591755320 0.01592396274000341 -0.01660279746674797 
0.01570433740001942 -0.01201841772868007 -0.008234973349488948 
0.01570433740001942 -0.01201841772868007 -0.008234973349488948 
0.01570433740001942 -0.01201841772868007 -0.008234973349488948 
0.01570433740001942 -0.01201841772868007 -0.008234973349488948 
0.01478255818029621 -0.01144349985841808 -0.007508853084630531 
0.01478255818029621 -0.01144349985841808 -0.007508853084630531 
0.01478255818029621 -0.01144349985841808 -0.007508853084630531 
0.01478255818029621 -0.01144349985841808 -0.007508853084630531 
0.01478255818029621 -0.01144349985841808 -0.007508853084630531 
0.01478255818029621 -0.01144349985841808 -0.007508853084630531 
0.01478255818029621 -0.01144349985841808 -0.007508853084630531 
0.01478255818029621 -0.01144349985841808 -0.007508853084630531 
0.01478255818029621 -0.01144349985841808 -0.007508853084630531 
0.01478255818029621 -0.01144349985841808 -0.007508853084630531 
0.01478255818029621 -0.01144349985841808 -0.007508853084630531 
0.02631470961578159 -0.01714721210743280 -0.01454169488951831 
0.01478255818029621 -0.01144349985841808 -0.007508853084630531 
0.01478255818029621 -0.01144349985841808 -0.007508853084630531 
0.01478255818029621 -0.01144349985841808 -0.007508853084630531 
0.01478255818029621 -0.01144349985841808 -0.007508853084630531 
0.01478255818029621 -0.01144349985841808 -0.007508853084630531 
0.01478255818029621 -0.01144349985841808 -0.007508853084630531 
0.01478255818029621 -0.01144349985841808 -0.007508853084630531 
0.01478255818029621 -0.01144349985841808 -0.007508853084630531 
0.01478255818029621 -0.01144349985841808 -0.007508853084630531 
0.01478255818029621 -0.01144349985841808 -0.007508853084630531 
0.01643785344409164 -0.009374071219267250 -0.007187350595705250 
0.007746413979336329 -0.005235191291881965 -0.002766336242345823 
0.007746413979336329 -0.005235191291881965 -0.002766336242345823 
0.007746413979336329 -0.005235191291881965 -0.002766336242345823 
0.007746413979336329 -0.005235191291881965 -0.002766336242345823 
0.007746413979336329 -0.005235191291881965 -0.002766336242345823 
0.007746413979336329 -0.005235191291881965 -0.002766336242345823 
0.007746413979336329 -0.005235191291881965 -0.002766336242345823 
0.007746413979336329 -0.005235191291881965 -0.002766336242345823 
0.007746413979336329 -0.005235191291881965 -0.002766336242345823 
0.03391960343120929 -0.02152756126605036 -0.02047773780412408 
0.007746413979336329 -0.005235191291881965 -0.002766336242345823 
0.007746413979336329 -0.005235191291881965 -0.002766336242345823 
0.007746413979336329 -0.005235191291881965 -0.002766336242345823 
-0.01872803171680915 0.03848003560467180 -0.02774229189940820 
0.007746413979336329 -0.005235191291881965 -0.002766336242345823 
0.007746413979336329 -0.005235191291881965 -0.002766336242345823 
0.007746413979336329 -0.005235191291881965 -0.002766336242345823 
0.007746413979336329 -0.005235191291881965 -0.002766336242345823 
0.007746413979336329 -0.005235191291881965 -0.002766336242345823 
0.007746413979336329 -0.005235191291881965 -0.002766336242345823 
0.007746413979336329 -0.005235191291881965 -0.002766336242345823 
0.007746413979336329 -0.005235191291881965 -0.002766336242345823 
0.007746413979336329 -0.005235191291881965 -0.002766336242345823 
0.007746413979336329 -0.005235191291881965 -0.002766336242345823 
0.007746413979336329 -0.005235191291881965 -0.002766336242345823 
0.007746413979336329 -0.005235191291881965 -0.002766336242345823 
0.007746413979336329 -0.005235191291881965 -0.002766336242345823 
0.007746413979336329 -0.005235191291881965 -0.002766336242345823 
0.007746413979336329 -0.005235191291881965 -0.002766336242345823 
0.007746413979336329 -0.005235191291881965 -0.002766336242345823 
0.0006800632503435459 -0.02612564893963832 0.02224358492072804 
0.008326492627729387 -0.01809248003875731 0.006636540559297862 
0.007746413979336329 -0.005235191291881965 -0.002766336242345823 
0.007746413979336329 -0.005235191291881965 -0.002766336242345823 
0.007746413979336329 -0.005235191291881965 -0.002766336242345823 
-0.01124834656422137 0.01869067991638829 -0.009001905063987810 
0.007746413979336329 -0.005235191291881965 -0.002766336242345823 
-0.06332781511104774 0.01054897639780897 0.04573142929582510 
0.007746413979336329 -0.005235191291881965 -0.002766336242345823 
0.007746413979336329 -0.005235191291881965 -0.002766336242345823 
-0.005044481669428233 0.01664147501229868 -0.01267802871176355 
0.007746413979336329 -0.005235191291881965 -0.002766336242345823 
0.007746413979336329 -0.005235191291881965 -0.002766336242345823 
0.007746413979336329 -0.005235191291881965 -0.002766336242345823 
0.007746413979336329 -0.005235191291881965 -0.002766336242345823 
0.007746413979336329 -0.005235191291881965 -0.002766336242345823 
0.007746413979336329 -0.005235191291881965 -0.002766336242345823 
0.007746413979336329 -0.005235191291881965 -0.002766336242345823 
0.007746413979336329 -0.005235191291881965 -0.002766336242345823 
0.008868874043456255 -0.02451625573897460 0.01234771290625306 
0.007746413979336329 -0.005235191291881965 -0.002766336242345823 
0.007746413979336329 -0.005235191291881965 -0.002766336242345823 
0.007746413979336329 -0.005235191291881965 -0.002766336242345823 
0.007746413979336329 -0.005235191291881965 -0.002766336242345823 
0.007746413979336329 -0.005235191291881965 -0.002766336242345823 
0.007746413979336329 -0.005235191291881965 -0.002766336242345823 
0.007746413979336329 -0.005235191291881965 -0.002766336242345823 
0.007746413979336329 -0.005235191291881965 -0.002766336242345823 
0.007746413979336329 -0.005235191291881965 -0.002766336242345823 
0.007746413979336329 -0.005235191291881965 -0.002766336242345823 
-0.003153830607030823 0.003260969475610296 -0.01491415845134421 
0.0002333600546915823 -0.01552458758153842 0.01344477677648664 
0.005035318277692072 -0.006975110685020219 0.001987899665878508 
0.02051608135935469 -0.01386075672187859 -0.009916744332254606 
0.007746413979336329 -0.005235191291881965 -0.002766336242345823 
-0.01122703885903417 0.004331510627555432 0.004257752761650776 
0.01643785344409164 -0.009374071219267250 -0.007187350595705250 
0.06758911748842776 -0.03859853066001069 -0.03481584985106281 
0.007746413979336329 -0.005235191291881965 -0.002766336242345823 
0.007746413979336329 -0.005235191291881965 -0.002766336242345823 
0.01521538832016761 -0.01246490655584659 -0.003144338833012380 
0.007746413979336329 -0.005235191291881965 -0.002766336242345823 
0.01399453386351498 -0.008729525874350288 -0.007233708546984775 
0.01399453386351498 -0.008729525874350288 -0.007233708546984775 
0.01793163485120820 -0.02524042372587586 0.0004309375632598891 
-0.02426785616044367 -0.002211516136761075 0.02035694422879241 
0.03600649093671851 -0.02294762345298830 -0.01807649446274218 
0.01399453386351498 -0.008729525874350288 -0.007233708546984775 
0.01399453386351498 -0.008729525874350288 -0.007233708546984775 
-0.005868478839570237 -0.0002538103207187931 0.0007443623424975850 
0.01399453386351498 -0.008729525874350288 -0.007233708546984775 
0.01399453386351498 -0.008729525874350288 -0.007233708546984775 
0.01399453386351498 -0.008729525874350288 -0.007233708546984775 
0.01399453386351498 -0.008729525874350288 -0.007233708546984775 
-0.03919836576145641 0.03927116558447098 -0.01668984008286423 
0.01399453386351498 -0.008729525874350288 -0.007233708546984775 
-0.04909273307961078 0.02845506625016817 0.003943206090567498 
0.01399453386351498 -0.008729525874350288 -0.007233708546984775 
0.01399453386351498 -0.008729525874350288 -0.007233708546984775 
0.01399453386351498 -0.008729525874350288 -0.007233708546984775 
0.01399453386351498 -0.008729525874350288 -0.007233708546984775 
0.01399453386351498 -0.008729525874350288 -0.007233708546984775 
0.01399453386351498 -0.008729525874350288 -0.007233708546984775 
0.01399453386351498 -0.008729525874350288 -0.007233708546984775 
0.01399453386351498 -0.008729525874350288 -0.007233708546984775 
0.01399453386351498 -0.008729525874350288 -0.007233708546984775 
0.01399453386351498 -0.008729525874350288 -0.007233708546984775 
0.01399453386351498 -0.008729525874350288 -0.007233708546984775 
0.01448984865934502 -0.009200784728045195 -0.007827376888274408 
-0.01823856453388147 -0.05215621729890899 0.06264445817304339 
0.01448984865934502 -0.009200784728045195 -0.007827376888274408 
0.01448984865934502 -0.009200784728045195 -0.007827376888274408 
0.04328334146675743 -0.01940898910615652 -0.03195822856441195 
0.01034625958581286 -0.01176051406835576 -0.0005230532417807521 
0.02374031704369008 -0.02096671056624922 -0.006409761556048969 
0.01448984865934502 -0.009200784728045195 -0.007827376888274408 
0.01448985176320547 -0.01518059046740444 -0.002984464431369149 
0.01448984865934502 -0.009200784728045195 -0.007827376888274408 
0.01448984865934502 -0.009200784728045195 -0.007827376888274408 
0.01448984865934502 -0.009200784728045195 -0.007827376888274408 
0.01448984865934502 -0.009200784728045195 -0.007827376888274408 
0.01448984865934502 -0.009200784728045195 -0.007827376888274408 
-0.003695433848175657 -0.01840943569284914 0.01443279190910604 
-0.03754581781739681 0.05957062091177513 -0.03698832523619983 
0.01815866286955566 -0.01840222045463135 -0.004312219453645968 
0.007837852588243682 -0.01898273435003161 2.060765139833734e-05 
0.01448984865934502 -0.009200784728045195 -0.007827376888274408 
0.01448984865934502 -0.009200784728045195 -0.007827376888274408 
0.01448984865934502 -0.009200784728045195 -0.007827376888274408 
0.02308513925049607 -0.01258069491530994 -0.01249071811304659 
0.01448984865934502 -0.009200784728045195 -0.007827376888274408 
0.01448984865934502 -0.009200784728045195 -0.007827376888274408 
0.01448984865934502 -0.009200784728045195 -0.007827376888274408 
0.01448984865934502 -0.009200784728045195 -0.007827376888274408 
0.03541696580789353 -0.04344979615174786 0.004203134935959787 
0.02120171908994369 -0.006649092734345784 -0.01845990039538979 
0.006133089127013694 -0.003789788854363785 -0.003348804506675844 
0.006133089127013694 -0.003789788854363785 -0.003348804506675844 
0.006133089127013694 -0.003789788854363785 -0.003348804506675844 
-0.01288468359611980 0.01398545193313017 -0.004990098674310647 
0.006133089127013694 -0.003789788854363785 -0.003348804506675844 
0.006133089127013694 -0.003789788854363785 -0.003348804506675844 
0.006133089127013694 -0.003789788854363785 -0.003348804506675844 
0.006133089127013694 -0.003789788854363785 -0.003348804506675844 
0.006133089127013694 -0.003789788854363785 -0.003348804506675844 
0.006133089127013694 -0.003789788854363785 -0.003348804506675844 
0.007006715204881512 0.01506663285546456 -0.03318840252048297 
0.006133089127013694 -0.003789788854363785 -0.003348804506675844 
0.01244427236617164 -0.02171832065858262 0.005435736105006492 
0.006133089127013694 -0.003789788854363785 -0.003348804506675844 
0.006133089127013694 -0.003789788854363785 -0.003348804506675844 
0.006133089127013694 -0.003789788854363785 -0.003348804506675844 
0.006133089127013694 -0.003789788854363785 -0.003348804506675844 
0.006133089127013694 -0.003789788854363785 -0.003348804506675844 
0.006133089127013694 -0.003789788854363785 -0.003348804506675844 
-0.001963983311919672 0.007788746663088615 -0.006385674133347294 
0.006133089127013694 -0.003789788854363785 -0.003348804506675844 
-0.007139174140224858 -0.001165764703507375 0.005777501842234702 
0.006133089127013694 -0.003789788854363785 -0.003348804506675844 
0.006133089127013694 -0.003789788854363785 -0.003348804506675844 
0.0006977360737365376 -0.008338258140437463 0.005119065284966580 
0.006133089127013694 -0.003789788854363785 -0.003348804506675844 
0.006133089127013694 -0.003789788854363785 -0.003348804506675844 
0.006133089127013694 -0.003789788854363785 -0.003348804506675844 
0.006133089127013694 -0.003789788854363785 -0.003348804506675844 
0.006133089127013694 -0.003789788854363785 -0.003348804506675844 
0.01894229123752744 -0.006013471687894545 -0.02022386898298639 
-0.02585500615886402 0.09514341768550123 -0.08321576110466261 
-0.001963983311919672 0.007788746663088615 -0.006385674133347294 
0.006133089127013694 -0.003789788854363785 -0.003348804506675844 
-0.01316567620337788 -0.02011282048860522 0.02720019728878478 
0.01748616891058607 -0.01137005899553053 -0.009020217697886242 
0.006133089127013694 -0.003789788854363785 -0.003348804506675844 
-0.007719108335704127 0.001719479066690350 0.005078381308814397 
0.006133089127013694 -0.003789788854363785 -0.003348804506675844 
0.006133089127013694 -0.003789788854363785 -0.003348804506675844 
0.006133089127013694 -0.003789788854363785 -0.003348804506675844 
0.006133089127013694 -0.003789788854363785 -0.003348804506675844 
0.006133089127013694 -0.003789788854363785 -0.003348804506675844 
0.006133089127013694 -0.003789788854363785 -0.003348804506675844 
0.003460196386751278 0.001705007920715534 -0.006411508123171652 
0.006133089127013694 -0.003789788854363785 -0.003348804506675844 
-0.01784234704887085 0.01501612266222381 -0.006306247112056121 
0.002076773341308754 0.006797580312919192 -0.007744457932654400 
0.006133089127013694 -0.003789788854363785 -0.003348804506675844 
0.01766524056249908 -0.009493501103378498 -0.01038164631156362 
0.006133089127013694 -0.003789788854363785 -0.003348804506675844 
0.006133089127013694 -0.003789788854363785 -0.003348804506675844 
0.006133089127013694 -0.003789788854363785 -0.003348804506675844 
0.04071286065909093 -0.02422776970161346 -0.01793010647851608 
0.006133089127013694 -0.003789788854363785 -0.003348804506675844 
0.01899500682339918 -0.01395502328742423 -0.006373437523726182 
0.001266733499012561 0.001897443314893782 -0.004658133623939997 
0.004872687035607145 0.006769877536912754 -0.01632874766170296 
0.004528149594884719 0.001848198670469803 -0.007297320717505753 
0.006133089127013694 -0.003789788854363785 -0.003348804506675844 
0.001345554244434062 0.001253004457688960 -0.004488083362253315 
0.006133089127013694 -0.003789788854363785 -0.003348804506675844 
0.006133089127013694 -0.003789788854363785 -0.003348804506675844 
0.006133089127013694 -0.003789788854363785 -0.003348804506675844 
0.01177642959769810 -0.005301400844501055 -0.005963196251564214 
0.006133089127013694 -0.003789788854363785 -0.003348804506675844 
0.006133089127013694 -0.003789788854363785 -0.003348804506675844 
0.006133089127013694 -0.003789788854363785 -0.003348804506675844 
-0.001726974479164537 -0.009314145918856993 0.009248797261566693 
0.006133089127013694 -0.003789788854363785 -0.003348804506675844 
0.006133089127013694 -0.003789788854363785 -0.003348804506675844 
0.006133089127013694 -0.003789788854363785 -0.003348804506675844 
0.006133089127013694 -0.003789788854363785 -0.003348804506675844 
0.003313646649770477 0.002140096333225277 -0.006872888281982375 
-0.0008319821991487050 -0.01007235648826925 0.01058302535681626 
0.006133089127013694 -0.003789788854363785 -0.003348804506675844 
0.006133089127013694 -0.003789788854363785 -0.003348804506675844 
0.006133089127013694 -0.003789788854363785 -0.003348804506675844 
0.006133089127013694 -0.003789788854363785 -0.003348804506675844 
0.006133089127013694 -0.003789788854363785 -0.003348804506675844 
0.006133089127013694 -0.003789788854363785 -0.003348804506675844 
0.01102525078182561 -0.008173979969633188 -0.006490796118582500 
0.01102525078182561 -0.008173979969633188 -0.006490796118582500 
0.01102525078182561 -0.008173979969633188 -0.006490796118582500 
0.01102525078182561 -0.008173979969633188 -0.006490796118582500 
0.02190784257447297 -0.01565735580840724 -0.01250584628121523 
0.01102525078182561 -0.008173979969633188 -0.006490796118582500 
0.01102525078182561 -0.008173979969633188 -0.006490796118582500 
0.01102525078182561 -0.008173979969633188 -0.006490796118582500 
0.01102525078182561 -0.008173979969633188 -0.006490796118582500 
-0.01374199546023583 0.02823401596904667 -0.03301842519165493 
0.01102525078182561 -0.008173979969633188 -0.006490796118582500 
0.002143959703905522 -0.03271029222952857 0.02091001331155611 
0.01102525078182561 -0.008173979969633188 -0.006490796118582500 
0.01102525078182561 -0.008173979969633188 -0.006490796118582500 
0.01102525078182561 -0.008173979969633188 -0.006490796118582500 
0.01102525078182561 -0.008173979969633188 -0.006490796118582500 
0.01102525078182561 -0.008173979969633188 -0.006490796118582500 
0.01102525078182561 -0.008173979969633188 -0.006490796118582500 
0.01102525078182561 -0.008173979969633188 -0.006490796118582500 
0.01102525078182561 -0.008173979969633188 -0.006490796118582500 
0.01102525078182561 -0.008173979969633188 -0.006490796118582500 
0.01102525078182561 -0.008173979969633188 -0.006490796118582500 
0.01993697880197797 -0.01404204906217242 -0.009088429773565556 
0.01102525078182561 -0.008173979969633188 -0.006490796118582500 
0.01102525078182561 -0.008173979969633188 -0.006490796118582500 
-0.04348361911395857 0.01111664856034075 0.008561842963641195 
0.01102525078182561 -0.008173979969633188 -0.006490796118582500 
0.01102525078182561 -0.008173979969633188 -0.006490796118582500 
0.01102525078182561 -0.008173979969633188 -0.006490796118582500 
0.01102525078182561 -0.008173979969633188 -0.006490796118582500 
0.01102525078182561 -0.008173979969633188 -0.006490796118582500 
0.01102525078182561 -0.008173979969633188 -0.006490796118582500 
0.01135307978357238 -0.007580270141166748 -0.005671413191210399 
0.01135307978357238 -0.007580270141166748 -0.005671413191210399 
0.01135307978357238 -0.007580270141166748 -0.005671413191210399 
0.01135307978357238 -0.007580270141166748 -0.005671413191210399 
0.01135307978357238 -0.007580270141166748 -0.005671413191210399 
0.01135307978357238 -0.007580270141166748 -0.005671413191210399 
0.01135307978357238 -0.007580270141166748 -0.005671413191210399 
0.01135307978357238 -0.007580270141166748 -0.005671413191210399 
0.01135307978357238 -0.007580270141166748 -0.005671413191210399 
0.01135307978357238 -0.007580270141166748 -0.005671413191210399 
0.01135307978357238 -0.007580270141166748 -0.005671413191210399 
0.01135307978357238 -0.007580270141166748 -0.005671413191210399 
0.02480955595033913 -0.01701517941923257 -0.01214696033210336 
0.01135307978357238 -0.007580270141166748 -0.005671413191210399 
0.01135307978357238 -0.007580270141166748 -0.005671413191210399 
-0.01628176741520603 -0.005093548188642902 0.01576682527233237 
0.01135307978357238 -0.007580270141166748 -0.005671413191210399 
0.01135307978357238 -0.007580270141166748 -0.005671413191210399 
0.01135307978357238 -0.007580270141166748 -0.005671413191210399 
0.01135307978357238 -0.007580270141166748 -0.005671413191210399 
0.01135307978357238 -0.007580270141166748 -0.005671413191210399 
0.01186190601110912 -0.01773579509432272 0.003833313446238592 
0.01135307978357238 -0.007580270141166748 -0.005671413191210399 
0.01135307978357238 -0.007580270141166748 -0.005671413191210399 
0.01135307978357238 -0.007580270141166748 -0.005671413191210399 
0.01135307978357238 -0.007580270141166748 -0.005671413191210399 
0.01135307978357238 -0.007580270141166748 -0.005671413191210399 
0.01135307978357238 -0.007580270141166748 -0.005671413191210399 
0.01135307978357238 -0.007580270141166748 -0.005671413191210399 
0.01135307978357238 -0.007580270141166748 -0.005671413191210399 
0.01153121794169651 -0.007758542803046392 -0.005983663827438768 
0.01153121794169651 -0.007758542803046392 -0.005983663827438768 
0.01153121794169651 -0.007758542803046392 -0.005983663827438768 
0.01153121794169651 -0.007758542803046392 -0.005983663827438768 
0.01153121794169651 -0.007758542803046392 -0.005983663827438768 
0.01153121794169651 -0.007758542803046392 -0.005983663827438768 
0.01153121794169651 -0.007758542803046392 -0.005983663827438768 
0.01153121794169651 -0.007758542803046392 -0.005983663827438768 
0.01153121794169651 -0.007758542803046392 -0.005983663827438768 
0.01153121794169651 -0.007758542803046392 -0.005983663827438768 
0.01153121794169651 -0.007758542803046392 -0.005983663827438768 
0.01153121794169651 -0.007758542803046392 -0.005983663827438768 
0.01153121794169651 -0.007758542803046392 -0.005983663827438768 
0.01153121794169651 -0.007758542803046392 -0.005983663827438768 
0.01153121794169651 -0.007758542803046392 -0.005983663827438768 
0.01153121794169651 -0.007758542803046392 -0.005983663827438768 
0.01153121794169651 -0.007758542803046392 -0.005983663827438768 
0.01153121794169651 -0.007758542803046392 -0.005983663827438768 
0.01153121794169651 -0.007758542803046392 -0.005983663827438768 
0.01153121794169651 -0.007758542803046392 -0.005983663827438768 
0.01153121794169651 -0.007758542803046392 -0.005983663827438768 
0.01153121794169651 -0.007758542803046392 -0.005983663827438768 
-0.01068607939172067 0.0006335032879196685 0.001545652178920557 
0.01153121794169651 -0.007758542803046392 -0.005983663827438768 
0.01153121794169651 -0.007758542803046392 -0.005983663827438768 
0.01035998179673484 -0.006692189237435483 -0.006930649248619538 
0.01035998179673484 -0.006692189237435483 -0.006930649248619538 
0.01035998179673484 -0.006692189237435483 -0.006930649248619538 
-0.01896786473942173 -0.01088893734492550 0.02436689163181873 
0.01035998179673484 -0.006692189237435483 -0.006930649248619538 
0.01035998179673484 -0.006692189237435483 -0.006930649248619538 
0.01035998179673484 -0.006692189237435483 -0.006930649248619538 
0.01035998179673484 -0.006692189237435483 -0.006930649248619538 
0.01035998179673484 -0.006692189237435483 -0.006930649248619538 
0.01035998179673484 -0.006692189237435483 -0.006930649248619538 
0.01035998179673484 -0.006692189237435483 -0.006930649248619538 
0.01035998179673484 -0.006692189237435483 -0.006930649248619538 
-0.004815469567035112 -0.01563257882572466 0.01432968002221246 
0.01035998179673484 -0.006692189237435483 -0.006930649248619538 
0.01035998179673484 -0.006692189237435483 -0.006930649248619538 
0.01035998179673484 -0.006692189237435483 -0.006930649248619538 
0.01035998179673484 -0.006692189237435483 -0.006930649248619538 
0.01035998179673484 -0.006692189237435483 -0.006930649248619538 
0.01035998179673484 -0.006692189237435483 -0.006930649248619538 
-0.006917493506712069 0.009896548757429067 -0.007044971430636570 
0.01035998179673484 -0.006692189237435483 -0.006930649248619538 
0.01035998179673484 -0.006692189237435483 -0.006930649248619538 
0.01035998179673484 -0.006692189237435483 -0.006930649248619538 
0.01035998179673484 -0.006692189237435483 -0.006930649248619538 
0.01035998179673484 -0.006692189237435483 -0.006930649248619538 
0.01035998179673484 -0.006692189237435483 -0.006930649248619538 
0.01035998179673484 -0.006692189237435483 -0.006930649248619538 
0.01035998179673484 -0.006692189237435483 -0.006930649248619538 
0.01035998179673484 -0.006692189237435483 -0.006930649248619538 
0.01084679629116811 -0.008437529881742551 -0.006159652884250845 
0.01084679629116811 -0.008437529881742551 -0.006159652884250845 
0.01084679629116811 -0.008437529881742551 -0.006159652884250845 
0.01084679629116811 -0.008437529881742551 -0.006159652884250845 
0.01084679629116811 -0.008437529881742551 -0.006159652884250845 
0.01084679629116811 -0.008437529881742551 -0.006159652884250845 
0.03076260244063508 -0.02357969608455146 -0.01240748178165928 
0.01084679629116811 -0.008437529881742551 -0.006159652884250845 
0.01084679629116811 -0.008437529881742551 -0.006159652884250845 
0.01084679629116811 -0.008437529881742551 -0.006159652884250845 
0.01952973062951413 -0.01272368144334282 -0.01110569306204195 
0.01084679629116811 -0.008437529881742551 -0.006159652884250845 
0.01084679629116811 -0.008437529881742551 -0.006159652884250845 
0.01084679629116811 -0.008437529881742551 -0.006159652884250845 
0.01084679629116811 -0.008437529881742551 -0.006159652884250845 
0.01084679629116811 -0.008437529881742551 -0.006159652884250845 
0.01084679629116811 -0.008437529881742551 -0.006159652884250845 
0.01084679629116811 -0.008437529881742551 -0.006159652884250845 
0.01084679629116811 -0.008437529881742551 -0.006159652884250845 
0.01084679629116811 -0.008437529881742551 -0.006159652884250845 
0.01084679629116811 -0.008437529881742551 -0.006159652884250845 
0.01084679629116811 -0.008437529881742551 -0.006159652884250845 
-0.003083105252955164 0.02201197483855033 -0.02132862827928316 
0.01345647616676676 -0.009434909278065826 -0.006475547140892963 
0.01345647616676676 -0.009434909278065826 -0.006475547140892963 
0.01345647616676676 -0.009434909278065826 -0.006475547140892963 
0.01345647616676676 -0.009434909278065826 -0.006475547140892963 
0.01345647616676676 -0.009434909278065826 -0.006475547140892963 
0.01345647616676676 -0.009434909278065826 -0.006475547140892963 
0.01345647616676676 -0.009434909278065826 -0.006475547140892963 
0.01345647616676676 -0.009434909278065826 -0.006475547140892963 
0.01345647616676676 -0.009434909278065826 -0.006475547140892963 
0.01345647616676676 -0.009434909278065826 -0.006475547140892963 
0.01345647616676676 -0.009434909278065826 -0.006475547140892963 
0.01345647616676676 -0.009434909278065826 -0.006475547140892963 
0.01145388103830262 -0.005545158762386611 -0.009183565341227218 
0.01345647616676676 -0.009434909278065826 -0.006475547140892963 
0.01345647616676676 -0.009434909278065826 -0.006475547140892963 
0.01345647616676676 -0.009434909278065826 -0.006475547140892963 
0.01345647616676676 -0.009434909278065826 -0.006475547140892963 
0.01345647616676676 -0.009434909278065826 -0.006475547140892963 
0.01345647616676676 -0.009434909278065826 -0.006475547140892963 
0.01345647616676676 -0.009434909278065826 -0.006475547140892963 
0.01345647616676676 -0.009434909278065826 -0.006475547140892963 
0.01345647616676676 -0.009434909278065826 -0.006475547140892963 
0.01345647616676676 -0.009434909278065826 -0.006475547140892963 
0.01345647616676676 -0.009434909278065826 -0.006475547140892963 
0.01345647616676676 -0.009434909278065826 -0.006475547140892963 
0.01345647616676676 -0.009434909278065826 -0.006475547140892963 
0.01345647616676676 -0.009434909278065826 -0.006475547140892963 
0.01345647616676676 -0.009434909278065826 -0.006475547140892963 
0.01345647616676676 -0.009434909278065826 -0.006475547140892963 
0.01071738733399793 -0.005171571207331771 -0.007058587098013473 
0.01021409870211564 -0.01341392179456242 0.002755202118296377 
0.01071738733399793 -0.005171571207331771 -0.007058587098013473 
0.01863959269537158 0.0009034799040994935 -0.01831147329172771 
0.01071738733399793 -0.005171571207331771 -0.007058587098013473 
0.01071738733399793 -0.005171571207331771 -0.007058587098013473 
0.01071738733399793 -0.005171571207331771 -0.007058587098013473 
0.002461318282429475 -0.01043497891463623 0.005714180493374822 
0.01071738733399793 -0.005171571207331771 -0.007058587098013473 
0.01071738733399793 -0.005171571207331771 -0.007058587098013473 
0.01071738733399793 -0.005171571207331771 -0.007058587098013473 
0.01071738733399793 -0.005171571207331771 -0.007058587098013473 
0.01071738733399793 -0.005171571207331771 -0.007058587098013473 
0.01071738733399793 -0.005171571207331771 -0.007058587098013473 
0.0008580188368799519 -0.01073966316078208 0.008425899727675643 
0.01071738733399793 -0.005171571207331771 -0.007058587098013473 
0.01071738733399793 -0.005171571207331771 -0.007058587098013473 
0.01071738733399793 -0.005171571207331771 -0.007058587098013473 
-0.03402470259914858 -0.05253924743834058 0.07753131000745976 
0.01071738733399793 -0.005171571207331771 -0.007058587098013473 
0.01071738733399793 -0.005171571207331771 -0.007058587098013473 
0.01071738733399793 -0.005171571207331771 -0.007058587098013473 
0.01071738733399793 -0.005171571207331771 -0.007058587098013473 
0.01071738733399793 -0.005171571207331771 -0.007058587098013473 
0.01071738733399793 -0.005171571207331771 -0.007058587098013473 
0.01071738733399793 -0.005171571207331771 -0.007058587098013473 
0.01071738733399793 -0.005171571207331771 -0.007058587098013473 
0.01071738733399793 -0.005171571207331771 -0.007058587098013473 
0.01071738733399793 -0.005171571207331771 -0.007058587098013473 
0.01071738733399793 -0.005171571207331771 -0.007058587098013473 
0.01071738733399793 -0.005171571207331771 -0.007058587098013473 
0.01071738733399793 -0.005171571207331771 -0.007058587098013473 
-0.01096973455795895 0.005615753336910274 0.005437179768111167 
0.01205018160152275 -0.009231522987727059 -0.004920657829672386 
0.01205018160152275 -0.009231522987727059 -0.004920657829672386 
0.01205018160152275 -0.009231522987727059 -0.004920657829672386 
0.01205018160152275 -0.009231522987727059 -0.004920657829672386 
0.01205018160152275 -0.009231522987727059 -0.004920657829672386 
0.01205018160152275 -0.009231522987727059 -0.004920657829672386 
0.01205018160152275 -0.009231522987727059 -0.004920657829672386 
0.01205018160152275 -0.009231522987727059 -0.004920657829672386 
0.01205018160152275 -0.009231522987727059 -0.004920657829672386 
0.01205018160152275 -0.009231522987727059 -0.004920657829672386 
0.01205018160152275 -0.009231522987727059 -0.004920657829672386 
0.01205018160152275 -0.009231522987727059 -0.004920657829672386 
0.01205018160152275 -0.009231522987727059 -0.004920657829672386 
0.01205018160152275 -0.009231522987727059 -0.004920657829672386 
0.01205018160152275 -0.009231522987727059 -0.004920657829672386 
0.01205018160152275 -0.009231522987727059 -0.004920657829672386 
0.01205018160152275 -0.009231522987727059 -0.004920657829672386 
0.01205018160152275 -0.009231522987727059 -0.004920657829672386 
0.01205018160152275 -0.009231522987727059 -0.004920657829672386 
0.01205018160152275 -0.009231522987727059 -0.004920657829672386 
0.01205018160152275 -0.009231522987727059 -0.004920657829672386 
0.01205018160152275 -0.009231522987727059 -0.004920657829672386 
0.01205018160152275 -0.009231522987727059 -0.004920657829672386 
0.01377486004531635 -0.01318670319312510 -0.001103772866725196 
0.01205018160152275 -0.009231522987727059 -0.004920657829672386 
0.01358199543804328 -0.007340852646121482 -0.008450988996749068 
0.01358199543804328 -0.007340852646121482 -0.008450988996749068 
0.02226492977638930 -0.01162700420772175 -0.01339702917454018 
0.01358199543804328 -0.007340852646121482 -0.008450988996749068 
-0.0006360979744759700 0.01185745343411334 -0.01619570139760037 
0.01358199543804328 -0.007340852646121482 -0.008450988996749068 
0.0004740991693351998 -0.003103804638457611 -9.399883172770597e-05 
0.01358199543804328 -0.007340852646121482 -0.008450988996749068 
0.01358199543804328 -0.007340852646121482 -0.008450988996749068 
0.01358199543804328 -0.007340852646121482 -0.008450988996749068 
0.01358199543804328 -0.007340852646121482 -0.008450988996749068 
0.01358199543804328 -0.007340852646121482 -0.008450988996749068 
0.01358199543804328 -0.007340852646121482 -0.008450988996749068 
0.01358199543804328 -0.007340852646121482 -0.008450988996749068 
0.01358199543804328 -0.007340852646121482 -0.008450988996749068 
0.01358199543804328 -0.007340852646121482 -0.008450988996749068 
0.01358199543804328 -0.007340852646121482 -0.008450988996749068 
0.01358199543804328 -0.007340852646121482 -0.008450988996749068 
0.004894960593434037 -0.01631506038129503 0.009468083117139262 
-0.003362874732098151 -0.01215004062528501 0.01087563829067774 
0.003051393321299734 0.005273590010721444 -0.01058230700979770 
-0.008924329762773422 -0.02987344060494729 0.03394865228284281 
0.01189115352060513 -0.006829005252863043 -0.004986981075549619 
0.01562447360378916 -0.003719978703999028 -0.01683096977649758 
0.007604474010523905 -0.0006013005243790331 -0.007168175508453791 
0.01189115352060513 -0.006829005252863043 -0.004986981075549619 
0.01189115352060513 -0.006829005252863043 -0.004986981075549619 
0.01189115352060513 -0.006829005252863043 -0.004986981075549619 
0.01189115352060513 -0.006829005252863043 -0.004986981075549619 
0.01189115352060513 -0.006829005252863043 -0.004986981075549619 
0.01189115352060513 -0.006829005252863043 -0.004986981075549619 
0.01189115352060513 -0.006829005252863043 -0.004986981075549619 
0.001792423605365982 -0.01443190305763209 0.009768179776429898 
0.01118103574855335 0.007498215173275171 -0.01697439992908647 
0.01189115352060513 -0.006829005252863043 -0.004986981075549619 
0.01189115352060513 -0.006829005252863043 -0.004986981075549619 
0.01250607482891091 -0.009546484032901360 -9.266461243184054e-05 
0.006804367811084429 -0.005589563163115838 -0.004520826335484214 
0.01189115352060513 -0.006829005252863043 -0.004986981075549619 
0.01189115352060513 -0.006829005252863043 -0.004986981075549619 
0.01189115352060513 -0.006829005252863043 -0.004986981075549619 
0.01189115352060513 -0.006829005252863043 -0.004986981075549619 
0.01189115352060513 -0.006829005252863043 -0.004986981075549619 
0.01189115352060513 -0.006829005252863043 -0.004986981075549619 
0.01189115352060513 -0.006829005252863043 -0.004986981075549619 
0.01189115352060513 -0.006829005252863043 -0.004986981075549619 
0.03172095766842647 -0.01871988226372933 -0.01830973382553355 
0.01189115352060513 -0.006829005252863043 -0.004986981075549619 
0.01189115352060513 -0.006829005252863043 -0.004986981075549619 
0.01189115352060513 -0.006829005252863043 -0.004986981075549619 
0.0006835750601216494 0.005695468819869281 -0.007801364857459082 
0.006392236701219927 -0.01091316583612623 0.004091980474566308 
0.005582271624408262 -0.02225168360635588 0.01701665917475571 
0.008876438974711473 -0.02338707611895446 0.01411899696906533 
0.01189115352060513 -0.006829005252863043 -0.004986981075549619 
0.01189115352060513 -0.006829005252863043 -0.004986981075549619 
0.01189115352060513 -0.006829005252863043 -0.004986981075549619 
0.008241623362088535 -0.005857114918402340 -0.003467399517098381 
0.008241623362088535 -0.005857114918402340 -0.003467399517098381 
0.008241623362088535 -0.005857114918402340 -0.003467399517098381 
0.008241623362088535 -0.005857114918402340 -0.003467399517098381 
0.008241623362088535 -0.005857114918402340 -0.003467399517098381 
0.008241623362088535 -0.005857114918402340 -0.003467399517098381 
0.008241623362088535 -0.005857114918402340 -0.003467399517098381 
0.008241623362088535 -0.005857114918402340 -0.003467399517098381 
0.0001000918281381768 0.004502445177081839 -0.005186928336178343 
0.008241623362088535 -0.005857114918402340 -0.003467399517098381 
0.008241623362088535 -0.005857114918402340 -0.003467399517098381 
0.008241623362088535 -0.005857114918402340 -0.003467399517098381 
0.008241623362088535 -0.005857114918402340 -0.003467399517098381 
0.003375267734087401 -0.0001698827491447722 -0.004776728634362535 
0.008241623362088535 -0.005857114918402340 -0.003467399517098381 
0.008241623362088535 -0.005857114918402340 -0.003467399517098381 
0.008241623362088535 -0.005857114918402340 -0.003467399517098381 
0.008241623362088535 -0.005857114918402340 -0.003467399517098381 
0.008241623362088535 -0.005857114918402340 -0.003467399517098381 
0.008241623362088535 -0.005857114918402340 -0.003467399517098381 
0.008241623362088535 -0.005857114918402340 -0.003467399517098381 
0.01287793114295739 -0.009267748454559020 -0.004900198661324132 
0.008241623362088535 -0.005857114918402340 -0.003467399517098381 
0.008241623362088535 -0.005857114918402340 -0.003467399517098381 
0.008241623362088535 -0.005857114918402340 -0.003467399517098381 
0.008241623362088535 -0.005857114918402340 -0.003467399517098381 
0.008241623362088535 -0.005857114918402340 -0.003467399517098381 
0.008241623362088535 -0.005857114918402340 -0.003467399517098381 
0.008241623362088535 -0.005857114918402340 -0.003467399517098381 
0.008241623362088535 -0.005857114918402340 -0.003467399517098381 
-0.04080763851596590 0.01006434652635500 0.01057438065674118 
0.008241623362088535 -0.005857114918402340 -0.003467399517098381 
0.008241623362088535 -0.005857114918402340 -0.003467399517098381 
0.008241623362088535 -0.005857114918402340 -0.003467399517098381 
0.008241623362088535 -0.005857114918402340 -0.003467399517098381 
0.008241623362088535 -0.005857114918402340 -0.003467399517098381 
0.008241623362088535 -0.005857114918402340 -0.003467399517098381 
0.008241623362088535 -0.005857114918402340 -0.003467399517098381 
-0.02235327922781532 0.01226515091797214 0.003816660344817144 
0.008241623362088535 -0.005857114918402340 -0.003467399517098381 
0.008241623362088535 -0.005857114918402340 -0.003467399517098381 
0.01660228857143669 -0.002416026392072970 -0.01732593586127917 
0.008241623362088535 -0.005857114918402340 -0.003467399517098381 
0.01394621638796560 -0.004979217796691511 -0.01105480412566607 
0.008241623362088535 -0.005857114918402340 -0.003467399517098381 
0.008241623362088535 -0.005857114918402340 -0.003467399517098381 
0.008241623362088535 -0.005857114918402340 -0.003467399517098381 
0.008241623362088535 -0.005857114918402340 -0.003467399517098381 
0.008241623362088535 -0.005857114918402340 -0.003467399517098381 
-0.02607861666676378 0.02063796904372948 0.002898097674565501 
0.008241623362088535 -0.005857114918402340 -0.003467399517098381 
0.008241623362088535 -0.005857114918402340 -0.003467399517098381 
0.008241623362088535 -0.005857114918402340 -0.003467399517098381 
0.008241623362088535 -0.005857114918402340 -0.003467399517098381 
0.008241623362088535 -0.005857114918402340 -0.003467399517098381 
0.008241623362088535 -0.005857114918402340 -0.003467399517098381 
0.008241623362088535 -0.005857114918402340 -0.003467399517098381 
0.007019158238164506 -0.008947950254981680 0.0005756122455944886 
0.008241623362088535 -0.005857114918402340 -0.003467399517098381 
-0.02781065342526288 -0.02744862470736106 0.05257572092582534 
0.008241623362088535 -0.005857114918402340 -0.003467399517098381 
0.008241623362088535 -0.005857114918402340 -0.003467399517098381 
0.01287793114295739 -0.009267748454559020 -0.004900198661324132 
0.0008001202079564547 0.004823088911978079 -0.009812219878667454 
0.008241623362088535 -0.005857114918402340 -0.003467399517098381 
0.008241623362088535 -0.005857114918402340 -0.003467399517098381 
0.008241623362088535 -0.005857114918402340 -0.003467399517098381 
0.008241623362088535 -0.005857114918402340 -0.003467399517098381 
0.008241623362088535 -0.005857114918402340 -0.003467399517098381 
0.008241623362088535 -0.005857114918402340 -0.003467399517098381 
0.008241623362088535 -0.005857114918402340 -0.003467399517098381 
0.008241623362088535 -0.005857114918402340 -0.003467399517098381 
-0.001068304005841761 -0.001452861043889987 -0.001266317135327717 
-0.003744182552898498 -0.008662115156465690 0.009526556461401912 
0.008241623362088535 -0.005857114918402340 -0.003467399517098381 
0.008241623362088535 -0.005857114918402340 -0.003467399517098381 
0.008241623362088535 -0.005857114918402340 -0.003467399517098381 
0.008241623362088535 -0.005857114918402340 -0.003467399517098381 
0.008241623362088535 -0.005857114918402340 -0.003467399517098381 
0.008241623362088535 -0.005857114918402340 -0.003467399517098381 
0.008241623362088535 -0.005857114918402340 -0.003467399517098381 
0.006279178443625552 -0.003296189469097030 -0.002211472164972510 
0.006279178443625552 -0.003296189469097030 -0.002211472164972510 
0.006279178443625552 -0.003296189469097030 -0.002211472164972510 
0.006279178443625552 -0.003296189469097030 -0.002211472164972510 
-0.01490871410787526 0.02145077180557968 -0.01482403523159993 
-0.01096726409558350 0.02373753955781536 -0.01168509318026488 
0.006279178443625552 -0.003296189469097030 -0.002211472164972510 
0.01261675808706525 -0.01636321908493793 0.003854645288702420 
0.006279178443625552 -0.003296189469097030 -0.002211472164972510 
0.006279178443625552 -0.003296189469097030 -0.002211472164972510 
0.006279178443625552 -0.003296189469097030 -0.002211472164972510 
0.006279178443625552 -0.003296189469097030 -0.002211472164972510 
0.006279178443625552 -0.003296189469097030 -0.002211472164972510 
0.006279178443625552 -0.003296189469097030 -0.002211472164972510 
0.006279178443625552 -0.003296189469097030 -0.002211472164972510 
0.006279178443625552 -0.003296189469097030 -0.002211472164972510 
0.006279178443625552 -0.003296189469097030 -0.002211472164972510 
0.01698728498554376 -0.001638832345327522 -0.01466933997988323 
0.006279178443625552 -0.003296189469097030 -0.002211472164972510 
0.008616498209827173 -0.02208712209631288 0.01524011694315137 
0.006279178443625552 -0.003296189469097030 -0.002211472164972510 
-0.01936251537102804 0.006956111233214378 0.009941329449488522 
0.006279178443625552 -0.003296189469097030 -0.002211472164972510 
0.006279178443625552 -0.003296189469097030 -0.002211472164972510 
0.006279178443625552 -0.003296189469097030 -0.002211472164972510 
0.02601659139365545 -0.01288215823156113 -0.01371601611093506 
0.006279178443625552 -0.003296189469097030 -0.002211472164972510 
0.006279178443625552 -0.003296189469097030 -0.002211472164972510 
0.006279178443625552 -0.003296189469097030 -0.002211472164972510 
0.006279178443625552 -0.003296189469097030 -0.002211472164972510 
0.006279178443625552 -0.003296189469097030 -0.002211472164972510 
0.006279178443625552 -0.003296189469097030 -0.002211472164972510 
0.006279602608997757 -0.008168472544030672 0.003755496043549991 
0.006279178443625552 -0.003296189469097030 -0.002211472164972510 
0.006279178443625552 -0.003296189469097030 -0.002211472164972510 
0.002781048406307682 -0.01782417515204920 0.01397935034635415 
0.006279178443625552 -0.003296189469097030 -0.002211472164972510 
0.01626040500579518 -0.008662502244829843 -0.008069416321335683 
-0.002448506047469553 0.007422750661396704 -0.009344623442417729 
0.006279178443625552 -0.003296189469097030 -0.002211472164972510 
0.006279178443625552 -0.003296189469097030 -0.002211472164972510 
0.01956369744640148 -0.01214226012382798 -0.01510908065251657 
0.006279178443625552 -0.003296189469097030 -0.002211472164972510 
0.006279178443625552 -0.003296189469097030 -0.002211472164972510 
0.006279178443625552 -0.003296189469097030 -0.002211472164972510 
0.006279178443625552 -0.003296189469097030 -0.002211472164972510 
0.006279178443625552 -0.003296189469097030 -0.002211472164972510 
0.006279178443625552 -0.003296189469097030 -0.002211472164972510 
0.006279178443625552 -0.003296189469097030 -0.002211472164972510 
0.006279178443625552 -0.003296189469097030 -0.002211472164972510 
0.006279178443625552 -0.003296189469097030 -0.002211472164972510 
0.006279178443625552 -0.003296189469097030 -0.002211472164972510 
0.006279178443625552 -0.003296189469097030 -0.002211472164972510 
0.006279178443625552 -0.003296189469097030 -0.002211472164972510 
0.006279178443625552 -0.003296189469097030 -0.002211472164972510 
0.006279178443625552 -0.003296189469097030 -0.002211472164972510 
0.006279178443625552 -0.003296189469097030 -0.002211472164972510 
0.006279178443625552 -0.003296189469097030 -0.002211472164972510 
-0.01249947980687647 0.02072719570145545 -0.009560935026176791 
0.006279178443625552 -0.003296189469097030 -0.002211472164972510 
0.007323778280416705 0.001646152635308007 -0.007658644857465665 
-7.422709136257741e-05 -0.007496390314492604 0.007928257819061413 
0.006279178443625552 -0.003296189469097030 -0.002211472164972510 
0.006279178443625552 -0.003296189469097030 -0.002211472164972510 
0.006279178443625552 -0.003296189469097030 -0.002211472164972510 
0.006279178443625552 -0.003296189469097030 -0.002211472164972510 
0.006279178443625552 -0.003296189469097030 -0.002211472164972510 
0.006279178443625552 -0.003296189469097030 -0.002211472164972510 
0.006279178443625552 -0.003296189469097030 -0.002211472164972510 
0.02032348913368174 -0.02294984902988939 0.005612271731432916 
0.006279178443625552 -0.003296189469097030 -0.002211472164972510 
-0.06253707053085703 0.05272026070838498 0.007933428790140133 
0.006279178443625552 -0.003296189469097030 -0.002211472164972510 
0.008595290591151043 -0.003379910187264741 -0.004663341224772180 
-0.002205666924212241 -0.02730167732194964 0.02097951791600361 
0.008595290591151043 -0.003379910187264741 -0.004663341224772180 
0.008595290591151043 -0.003379910187264741 -0.004663341224772180 
-0.04633479214034645 -0.001095192892207693 0.04237238126596741 
0.008235887292282047 0.005656892646343877 -0.01407605518527154 
0.008595290591151043 -0.003379910187264741 -0.004663341224772180 
0.02091747398347758 -0.01185825625853783 -0.01167646809432019 
0.008595290591151043 -0.003379910187264741 -0.004663341224772180 
0.008595290591151043 -0.003379910187264741 -0.004663341224772180 
0.008595290591151043 -0.003379910187264741 -0.004663341224772180 
0.008595290591151043 -0.003379910187264741 -0.004663341224772180 
0.008595290591151043 -0.003379910187264741 -0.004663341224772180 
0.008595290591151043 -0.003379910187264741 -0.004663341224772180 
0.008595290591151043 -0.003379910187264741 -0.004663341224772180 
0.008595290591151043 -0.003379910187264741 -0.004663341224772180 
0.008595290591151043 -0.003379910187264741 -0.004663341224772180 
0.008595290591151043 -0.003379910187264741 -0.004663341224772180 
0.009404652402119556 0.004019475785402371 -0.01960297698808772 
0.008595290591151043 -0.003379910187264741 -0.004663341224772180 
0.008595290591151043 -0.003379910187264741 -0.004663341224772180 
0.008595290591151043 -0.003379910187264741 -0.004663341224772180 
0.008595290591151043 -0.003379910187264741 -0.004663341224772180 
0.008595290591151043 -0.003379910187264741 -0.004663341224772180 
0.008595290591151043 -0.003379910187264741 -0.004663341224772180 
0.008595290591151043 -0.003379910187264741 -0.004663341224772180 
0.008595290591151043 -0.003379910187264741 -0.004663341224772180 
0.008595290591151043 -0.003379910187264741 -0.004663341224772180 
0.008595290591151043 -0.003379910187264741 -0.004663341224772180 
0.008595290591151043 -0.003379910187264741 -0.004663341224772180 
0.008595290591151043 -0.003379910187264741 -0.004663341224772180 
0.008595290591151043 -0.003379910187264741 -0.004663341224772180 
0.008595290591151043 -0.003379910187264741 -0.004663341224772180 
0.008595290591151043 -0.003379910187264741 -0.004663341224772180 
-0.02026371245919319 0.03455994756925658 -0.02294764384597062 
0.002360962373118562 -0.01323818333898059 0.01037120790967547 
0.008595290591151043 -0.003379910187264741 -0.004663341224772180 
0.01554602383179145 -0.01121076712936084 -0.007987481222314604 
0.02003910919576055 -0.007399671213649183 -0.01514598066592704 
0.01554602383179145 -0.01121076712936084 -0.007987481222314604 
-0.008786763769300092 0.0006592043619786795 -0.002376541672136075 
0.02018233161266030 -0.01462140066551752 -0.009420280366540353 
0.01554602383179145 -0.01121076712936084 -0.007987481222314604 
0.01554602383179145 -0.01121076712936084 -0.007987481222314604 
0.01554602383179145 -0.01121076712936084 -0.007987481222314604 
-0.02544099022249843 0.03940971156620778 -0.02386179265032266 
0.01554602383179145 -0.01121076712936084 -0.007987481222314604 
0.01554602383179145 -0.01121076712936084 -0.007987481222314604 
0.01554602383179145 -0.01121076712936084 -0.007987481222314604 
0.01554602383179145 -0.01121076712936084 -0.007987481222314604 
0.01554602383179145 -0.01121076712936084 -0.007987481222314604 
0.01554602383179145 -0.01121076712936084 -0.007987481222314604 
0.01554602383179145 -0.01121076712936084 -0.007987481222314604 
0.01554602383179145 -0.01121076712936084 -0.007987481222314604 
0.01554602383179145 -0.01121076712936084 -0.007987481222314604 
0.01554602383179145 -0.01121076712936084 -0.007987481222314604 
0.01554602383179145 -0.01121076712936084 -0.007987481222314604 
0.01554602383179145 -0.01121076712936084 -0.007987481222314604 
0.01554602383179145 -0.01121076712936084 -0.007987481222314604 
0.01554602383179145 -0.01121076712936084 -0.007987481222314604 
0.007912494590877124 -0.0009296756637866175 -0.01306282643936422 
0.01554602383179145 -0.01121076712936084 -0.007987481222314604 
-0.007364555383021370 0.008619934248104854 -0.007705342060338652 
0.01554602383179145 -0.01121076712936084 -0.007987481222314604 
0.01152301936362569 -0.007977894341899858 -0.005728901034789716 
0.01497642464909308 0.002635777297567790 -0.02105961131622786 
0.01152301936362569 -0.007977894341899858 -0.005728901034789716 
0.008792364376542457 -0.01756913869885822 0.006933456770330119 
0.01152301936362569 -0.007977894341899858 -0.005728901034789716 
0.01152301936362569 -0.007977894341899858 -0.005728901034789716 
0.01152301936362569 -0.007977894341899858 -0.005728901034789716 
0.01152301936362569 -0.007977894341899858 -0.005728901034789716 
0.01152301936362569 -0.007977894341899858 -0.005728901034789716 
-0.002695074048893562 0.01122041173833496 -0.01347361343564101 
0.01152301936362569 -0.007977894341899858 -0.005728901034789716 
0.01152301936362569 -0.007977894341899858 -0.005728901034789716 
0.01152301936362569 -0.007977894341899858 -0.005728901034789716 
0.01152301936362569 -0.007977894341899858 -0.005728901034789716 
0.01152301936362569 -0.007977894341899858 -0.005728901034789716 
0.01152301936362569 -0.007977894341899858 -0.005728901034789716 
0.01152301936362569 -0.007977894341899858 -0.005728901034789716 
0.01152301936362569 -0.007977894341899858 -0.005728901034789716 
0.01152301936362569 -0.007977894341899858 -0.005728901034789716 
0.01152301936362569 -0.007977894341899858 -0.005728901034789716 
0.01152301936362569 -0.007977894341899858 -0.005728901034789716 
0.01276966738001836 -0.008625565429996625 -0.007150408089908781 
-0.01635218639179563 0.006834519287745325 0.003850778093112776 
0.01276966738001836 -0.008625565429996625 -0.007150408089908781 
0.01276966738001836 -0.008625565429996625 -0.007150408089908781 
0.01276966738001836 -0.008625565429996625 -0.007150408089908781 
0.02348299743558005 -0.01436629791690596 -0.01222579695838500 
-0.06315110747123112 0.04354256859973091 0.001599745840943671 
0.009184429263697056 0.0004531588205961947 -0.01217203281579699 
0.01276966738001836 -0.008625565429996625 -0.007150408089908781 
0.01665220586849893 -0.006684910474494360 -0.01399514474671016 
0.02188779582829005 -0.01469263584113030 -0.01045986982935438 
0.01276966738001836 -0.008625565429996625 -0.007150408089908781 
0.01276966738001836 -0.008625565429996625 -0.007150408089908781 
0.01276966738001836 -0.008625565429996625 -0.007150408089908781 
0.01177940741372585 -0.002014108166056947 -0.01741094012396514 
0.01276966738001836 -0.008625565429996625 -0.007150408089908781 
0.01276966738001836 -0.008625565429996625 -0.007150408089908781 
