solver_type L2R_L2LOSS_SVC
nr_class 5
label 0 1 2 3 4
nr_feature 13704
bias 1.000000000000000
w
0.005848380254224488 -0.006304508205724855 0.003158655206624728 -0.001050632917717326 -0.0009500047217860750 
0.007666482501602663 -0.002416323432040835 -0.002681860699182196 5.506513375833080e-07 -0.0003611417280272005 
-0.02143805810174387 0.003285238272242277 0.02462474637665282 -0.03702439131576937 -0.05687831134256446 
0.001155525582358125 -0.004977017259003396 0.02289310642401188 -0.004769926522419579 -0.02512907320868830 
0.007666482501602663 -0.002416323432040835 -0.002681860699182196 5.506513375833080e-07 -0.0003611417280272005 
0.007666482501602663 -0.002416323432040835 -0.002681860699182196 5.506513375833080e-07 -0.0003611417280272005 
0.007666482501602663 -0.002416323432040835 -0.002681860699182196 5.506513375833080e-07 -0.0003611417280272005 
0.005512429981939830 0.004574880574748179 -0.005694008753197810 1.685631180280427e-06 -0.0003602088488885125 
0.002133482333914959 -0.01946779795770310 -0.002632661788580066 -0.01418506192956213 -0.004802725291197052 
0.04402760918495646 -0.02323560509972482 -0.01931923581179819 -0.001998351105321230 -0.01350797125391326 
0.007666482501602663 -0.002416323432040835 -0.002681860699182196 5.506513375833080e-07 -0.0003611417280272005 
0.03854960782501461 -0.09378400858906179 -0.06646536966476066 -0.1325139490808364 -0.1656732865191996 
-0.01757194024862160 0.003065460546154290 -0.03492809986706033 -0.03445766682800613 -0.04019457074528804 
0.01862485539774818 -0.02165276396064841 -0.01596992488478627 -0.002537260043878508 0.009065722417333074 
0.007666482501602663 -0.002416323432040835 -0.002681860699182196 5.506513375833080e-07 -0.0003611417280272005 
0.04221943570868184 -0.04124380467903870 -0.02312499768338249 -0.008477764157288292 -0.02749742272127327 
0.007666482501602663 -0.002416323432040835 -0.002681860699182196 5.506513375833080e-07 -0.0003611417280272005 
0.01299365483116368 -0.005634355727418086 0.001541001620732997 -0.006362325597881685 -0.005330060100416295 
0.001630985618239743 0.01457125775209935 -0.009712631459995010 -0.003972239721520185 -0.009825061232691992 
0.007666482501602663 -0.002416323432040835 -0.002681860699182196 5.506513375833080e-07 -0.0003611417280272005 
0.02135042589993960 -0.04678914823835784 0.02440856231102809 -0.005426134531844641 -0.006608429889023142 
0.01363816780542073 -0.04529723535171007 -0.009818235086216450 -0.0005733965791651055 -0.03908835111360214 
0.003348263054335968 0.004948530653644791 0.0001415602116018275 -0.001825292739898533 -0.007109673881497303 
-0.05005486750291792 0.002383137444573441 0.02658692915121760 -0.02572953840988116 -0.02290195245280063 
0.007666482501602663 -0.002416323432040835 -0.002681860699182196 5.506513375833080e-07 -0.0003611417280272005 
0.007666482501602663 -0.002416323432040835 -0.002681860699182196 5.506513375833080e-07 -0.0003611417280272005 
-0.002680599642135774 0.001336372705107600 0.0006920812946024057 -0.01638236344828660 -0.008375810879172656 
0.007666482501602663 -0.002416323432040835 -0.002681860699182196 5.506513375833080e-07 -0.0003611417280272005 
0.009969451795626992 -0.02018528191945871 -0.005741663466353387 -0.002384678649310937 0.006445451371044762 
0.007666482501602663 -0.002416323432040835 -0.002681860699182196 5.506513375833080e-07 -0.0003611417280272005 
0.007666482501602663 -0.002416323432040835 -0.002681860699182196 5.506513375833080e-07 -0.0003611417280272005 
-0.001473957234839216 -0.02732479477248116 0.01554620487408040 -0.008715461052320430 0.01298122628542365 
0.005093544629518471 -0.004317880474363081 0.0005263926754481606 -0.001188703872383199 -0.001824815484454539 
0.002239214462298333 -0.002814528922524157 0.003290002670801745 -0.004894161430294215 -0.004096971417582581 
0.007666482501602663 -0.002416323432040835 -0.002681860699182196 5.506513375833080e-07 -0.0003611417280272005 
0.01992235146100142 -0.0007108908432326761 -0.03948100033426970 0.0006467231347873204 -0.002409130455208920 
0.009655852212902773 -0.01687507743545247 0.009063782352535946 -0.008003328872441168 -0.003518736087871049 
0.01329809426321957 -0.004367611991045889 -0.004944014895364533 -7.065732318285618e-05 -0.0003608602825738363 
-0.005697290444544739 -0.03364357058828932 0.04259588040954668 -0.01609527716988376 -0.02651067840973658 
-0.01439385339544247 -0.005316406457397462 -0.005916686333465183 -0.01079673737757234 0.01633918107858574 
-0.006773203806652717 0.02663180412749684 -0.01876530452682617 -0.01061154558827491 -0.01004718483552584 
0.006420627234777081 -0.05977243605368302 -0.001607796487319509 -0.04452184814910883 -0.08575702929133731 
0.007666482501602663 -0.002416323432040835 -0.002681860699182196 5.506513375833080e-07 -0.0003611417280272005 
-0.02878572941971679 0.01211605696934210 0.01704685352340635 0.007387302071341682 -0.007961538560873003 
0.007666482501602663 -0.002416323432040835 -0.002681860699182196 5.506513375833080e-07 -0.0003611417280272005 
0.007666482501602663 -0.002416323432040835 -0.002681860699182196 5.506513375833080e-07 -0.0003611417280272005 
-0.009429914976971463 -0.01510208089431027 -0.01911859427116378 -0.001923599482929510 0.007530456348356245 
0.007666482501602663 -0.002416323432040835 -0.002681860699182196 5.506513375833080e-07 -0.0003611417280272005 
0.007666482501602663 -0.002416323432040835 -0.002681860699182196 5.506513375833080e-07 -0.0003611417280272005 
0.007666482501602663 -0.002416323432040835 -0.002681860699182196 5.506513375833080e-07 -0.0003611417280272005 
0.007666482501602663 -0.002416323432040835 -0.002681860699182196 5.506513375833080e-07 -0.0003611417280272005 
0.007666482501602663 -0.002416323432040835 -0.002681860699182196 5.506513375833080e-07 -0.0003611417280272005 
0.007666482501602663 -0.002416323432040835 -0.002681860699182196 5.506513375833080e-07 -0.0003611417280272005 
0.007666482501602663 -0.002416323432040835 -0.002681860699182196 5.506513375833080e-07 -0.0003611417280272005 
-0.007517465963654362 -0.003187488217070049 0.01387019599824495 -0.003324691745205392 -0.003323091508845346 
-0.01919695973983569 -0.01153488625837006 0.01885245299794565 -0.02135313059061494 -0.003256196421214780 
0.01748034694654405 -0.01749607160453756 0.006096555177472528 -0.01049532071791162 -0.01079650788630284 
-0.01130689323074469 -0.002230150142555488 -0.006587171840476479 0.008506123098120254 0.01064947387832793 
0.006357741339733544 -0.003867634376713741 -0.004687081861580464 -0.001360551118753871 0.003946176610976588 
0.007666482501602663 -0.002416323432040835 -0.002681860699182196 5.506513375833080e-07 -0.0003611417280272005 
0.01322074800134584 -0.006972343345845707 -0.007942079466864756 -0.002567396071391978 0.003070341696129442 
0.04492653358988705 -0.02312452083282700 -0.04734208938962305 -0.05146901514059373 0.003806656314122110 
-0.02164068608836949 -0.02169686638074962 -0.006728153004305293 -0.004297327771160608 0.01693047668473675 
0.003767193192733598 0.005091386262197147 -0.005615841545112880 -0.001932358684846077 -0.002567033306803427 
0.007666482501602663 -0.002416323432040835 -0.002681860699182196 5.506513375833080e-07 -0.0003611417280272005 
0.007666482501602663 -0.002416323432040835 -0.002681860699182196 5.506513375833080e-07 -0.0003611417280272005 
-0.003830174476806623 -0.02075954778265155 -0.009935365714615643 0.02684001642065605 -0.005911290582510446 
0.006457254457604610 0.01581368176259293 -0.01737798918861079 -0.004709994788881435 -0.004179212955959778 
0.007666482501602663 -0.002416323432040835 -0.002681860699182196 5.506513375833080e-07 -0.0003611417280272005 
0.001260739969198883 0.007892917125553608 -0.007094074978838451 -0.002998227481256340 -0.003233573003743780 
0.007666482501602663 -0.002416323432040835 -0.002681860699182196 5.506513375833080e-07 -0.0003611417280272005 
0.001625514556383368 -0.0003472600154292167 0.0007932583321295548 -0.002058644247116275 -0.004481286324419191 
0.008194200977769258 0.0009257953075961094 -0.005666209346155000 -0.0008939561493479869 -0.001754779566162523 
0.007666482501602663 -0.002416323432040835 -0.002681860699182196 5.506513375833080e-07 -0.0003611417280272005 
0.007666482501602663 -0.002416323432040835 -0.002681860699182196 5.506513375833080e-07 -0.0003611417280272005 
-0.0001223154934213512 -0.01265487692493152 0.009371106697628587 -0.006487387382647710 0.0006935535193945125 
0.001188737025433889 -0.01742074485614168 0.009208824278561602 -0.01442621508243220 0.002471481459042604 
-0.01332810357250365 0.002724215271371296 -0.05764405414825140 -0.02702865715541941 -0.01865733426386351 
0.01356013873103300 -0.005632782960343724 -0.004460955507592821 -0.0008750526085645247 -0.001267409892249225 
0.007666482501602663 -0.002416323432040835 -0.002681860699182196 5.506513375833080e-07 -0.0003611417280272005 
0.0002541493311232449 0.003560354769251845 -0.006369430628583899 -0.0007066183413525116 0.004974746638341072 
0.01301542430945091 -0.005268292833864105 -0.005247412800751086 -0.001250339159067731 -0.001700455399040000 
0.007666482501602663 -0.002416323432040835 -0.002681860699182196 5.506513375833080e-07 -0.0003611417280272005 
0.007666482501602663 -0.002416323432040835 -0.002681860699182196 5.506513375833080e-07 -0.0003611417280272005 
0.007666482501602663 -0.002416323432040835 -0.002681860699182196 5.506513375833080e-07 -0.0003611417280272005 
0.002409765163252755 -0.005928502063201726 0.006903164881362268 -0.001022543694843422 -0.0003620808490762826 
0.01281832264483158 0.008623417644925910 -0.01006630940939189 -0.02384605757278783 -0.03278624288666575 
-0.004487749799087027 0.005043863257397997 0.0003589179635303061 -0.005857194115866779 -0.006533729460552609 
0.01234818367123852 -0.01206412997694318 0.001357614397981189 -0.01011893000846978 -0.01304372312098930 
-0.05998280367286741 0.03946782750774581 0.01058906535217481 -0.01156603468289245 -0.04982847288928808 
0.007666482501602663 -0.002416323432040835 -0.002681860699182196 5.506513375833080e-07 -0.0003611417280272005 
0.007666482501602663 -0.002416323432040835 -0.002681860699182196 5.506513375833080e-07 -0.0003611417280272005 
0.007666482501602663 -0.002416323432040835 -0.002681860699182196 5.506513375833080e-07 -0.0003611417280272005 
-0.009428395551810060 -0.006337906292130059 -0.01289695295160759 0.01175502380976976 0.01193870852054985 
0.01495082963469453 0.03165783121407285 -0.05096915750959476 -0.01980931976368097 -0.01319940227889396 
0.01613456875853924 -0.003854654045324194 -0.01917280012909504 -0.006900562079296456 0.005225358497310121 
0.007666482501602663 -0.002416323432040835 -0.002681860699182196 5.506513375833080e-07 -0.0003611417280272005 
0.007666482501602663 -0.002416323432040835 -0.002681860699182196 5.506513375833080e-07 -0.0003611417280272005 
0.01303662866141729 -0.01052458467596996 0.0006756277992698526 -0.001588917915310441 -0.003291600339327280 
0.007666482501602663 -0.002416323432040835 -0.002681860699182196 5.506513375833080e-07 -0.0003611417280272005 
0.02716944558023567 -0.009590719666539758 -0.01673294411463081 -0.005535322267623179 -0.005471641751910524 
0.1366451496851899 -0.1049481812008523 -0.06988802922351087 -0.03062590273757109 -0.04938454582558707 
0.006612527252643503 -0.002821468488215487 -0.004390817474784412 -0.001780363188930390 -0.001266451080701236 
0.009917622393291843 -0.01583360330748633 -0.003258450809526980 0.008837001652640700 -0.005703459173705404 
0.006612527252643503 -0.002821468488215487 -0.004390817474784412 -0.001780363188930390 -0.001266451080701236 
0.006612527252643503 -0.002821468488215487 -0.004390817474784412 -0.001780363188930390 -0.001266451080701236 
0.006612527252643503 -0.002821468488215487 -0.004390817474784412 -0.001780363188930390 -0.001266451080701236 
0.008921725323145991 -0.0008010556748588275 -0.02322804944068904 0.006320721796710084 -0.01132289553198549 
0.006612527252643503 -0.002821468488215487 -0.004390817474784412 -0.001780363188930390 -0.001266451080701236 
0.01055397707244995 -0.004135461271576908 -0.02258940459717560 -0.03635238544096503 -0.04339915890188813 
0.006612527252643503 -0.002821468488215487 -0.004390817474784412 -0.001780363188930390 -0.001266451080701236 
0.006612527252643503 -0.002821468488215487 -0.004390817474784412 -0.001780363188930390 -0.001266451080701236 
-0.001003397321574301 0.003464267687224531 -0.01420524301169854 -0.002152529420962137 -0.008377999824540891 
0.006612527252643503 -0.002821468488215487 -0.004390817474784412 -0.001780363188930390 -0.001266451080701236 
-0.07597237739328011 0.02836681361014504 0.09657856641973676 -0.07455069751859009 -0.1132739887868582 
0.006612527252643503 -0.002821468488215487 -0.004390817474784412 -0.001780363188930390 -0.001266451080701236 
0.006612527252643503 -0.002821468488215487 -0.004390817474784412 -0.001780363188930390 -0.001266451080701236 
0.006612527252643503 -0.002821468488215487 -0.004390817474784412 -0.001780363188930390 -0.001266451080701236 
0.006612527252643503 -0.002821468488215487 -0.004390817474784412 -0.001780363188930390 -0.001266451080701236 
0.006612527252643503 -0.002821468488215487 -0.004390817474784412 -0.001780363188930390 -0.001266451080701236 
0.001664882597997145 0.01182383256957563 -0.01437857218370912 -0.005935499200146310 -0.006599063990858765 
0.006612527252643503 -0.002821468488215487 -0.004390817474784412 -0.001780363188930390 -0.001266451080701236 
0.006612527252643503 -0.002821468488215487 -0.004390817474784412 -0.001780363188930390 -0.001266451080701236 
0.006612527252643503 -0.002821468488215487 -0.004390817474784412 -0.001780363188930390 -0.001266451080701236 
0.006612527252643503 -0.002821468488215487 -0.004390817474784412 -0.001780363188930390 -0.001266451080701236 
0.007145033589977066 -0.006528406861655349 -0.001883593907672319 -0.005798310435646395 -0.003006103137831567 
0.006612527252643503 -0.002821468488215487 -0.004390817474784412 -0.001780363188930390 -0.001266451080701236 
-0.004105532966203680 -0.008002923931426717 0.002703023782911495 -0.01256772268646926 -0.01166831090241139 
-0.004541282372332806 -0.01880309221904925 0.01363966277151065 -0.003372266892672303 -0.009651884055648239 
-0.01667629090979327 -0.02683346821287861 0.06281175350618265 -0.03867788695184368 -0.05407845193175252 
-0.0008187152892477874 -0.02167735647093535 0.01707019839864481 -0.01080503033592625 -0.001437199755848486 
0.006555055035334041 -0.01863216930877193 -0.01302555147263041 0.01907998986785548 -0.01164674636483886 
0.006612527252643503 -0.002821468488215487 -0.004390817474784412 -0.001780363188930390 -0.001266451080701236 
-0.01137170627420089 0.01003452737563204 -0.007587306699703495 -0.002750222876455131 -0.01146121673655048 
0.02156147058922807 -0.01020961244796320 -0.008764404664537958 -0.004810994570191753 -0.005518658493653602 
0.006612527252643503 -0.002821468488215487 -0.004390817474784412 -0.001780363188930390 -0.001266451080701236 
0.01511754829267444 -0.005667564692032508 -0.006116461761215053 -0.003731090364975279 -0.004174285500336771 
0.006612527252643503 -0.002821468488215487 -0.004390817474784412 -0.001780363188930390 -0.001266451080701236 
0.006612527252643503 -0.002821468488215487 -0.004390817474784412 -0.001780363188930390 -0.001266451080701236 
0.006612527252643503 -0.002821468488215487 -0.004390817474784412 -0.001780363188930390 -0.001266451080701236 
0.006612527252643503 -0.002821468488215487 -0.004390817474784412 -0.001780363188930390 -0.001266451080701236 
0.006612527252643503 -0.002821468488215487 -0.004390817474784412 -0.001780363188930390 -0.001266451080701236 
0.01163316466304160 -0.01032340268610568 -0.01657655455323948 -0.04350251176579136 -0.03795608862891268 
0.006612527252643503 -0.002821468488215487 -0.004390817474784412 -0.001780363188930390 -0.001266451080701236 
0.006612527252643503 -0.002821468488215487 -0.004390817474784412 -0.001780363188930390 -0.001266451080701236 
0.006612527252643503 -0.002821468488215487 -0.004390817474784412 -0.001780363188930390 -0.001266451080701236 
0.006612527252643503 -0.002821468488215487 -0.004390817474784412 -0.001780363188930390 -0.001266451080701236 
0.006615028668036932 -0.005132370279493855 -0.008120955120382625 -0.003322946332061322 0.005420380743259738 
-0.0005108858327943583 -0.006865630219525650 0.008170683782346613 -0.004021179039347417 0.0002675810761053683 
0.03096505496650618 -0.04331199810120425 -0.007310109866460917 7.077516745244660e-05 -0.01207217932069126 
-0.002897989255840926 -0.01953529303836026 -0.005522103937625809 -0.01602768199623714 0.02517875769807859 
0.001355809914293595 -0.006333647119376378 0.005194208105760051 -0.002803457535111395 -0.001267390201750318 
0.006612527252643503 -0.002821468488215487 -0.004390817474784412 -0.001780363188930390 -0.001266451080701236 
0.006612527252643503 -0.002821468488215487 -0.004390817474784412 -0.001780363188930390 -0.001266451080701236 
-0.02215222462273562 -0.02059243323683646 0.03942960775995937 -0.01339658524495350 -0.01958633161307197 
0.006350176158473673 -0.002026056202978258 -0.003622453840482018 -0.004561955363180495 -0.006215956925801629 
0.006612527252643503 -0.002821468488215487 -0.004390817474784412 -0.001780363188930390 -0.001266451080701236 
0.006612527252643503 -0.002821468488215487 -0.004390817474784412 -0.001780363188930390 -0.001266451080701236 
0.01511921665168586 -0.007701993548648822 -0.006153240037362838 -0.004836588067517721 -0.001488247458284392 
0.006612527252643503 -0.002821468488215487 -0.004390817474784412 -0.001780363188930390 -0.001266451080701236 
0.006612527252643503 -0.002821468488215487 -0.004390817474784412 -0.001780363188930390 -0.001266451080701236 
0.006612527252643503 -0.002821468488215487 -0.004390817474784412 -0.001780363188930390 -0.001266451080701236 
0.006612527252643503 -0.002821468488215487 -0.004390817474784412 -0.001780363188930390 -0.001266451080701236 
-0.006517748036494638 0.004920580923184215 0.01254834768147852 -0.01350825933956497 -0.02418179551813766 
0.005610077619904112 0.007305291367446578 -0.007957372692089357 -0.002519417739648334 -0.004718266530180830 
-0.0007209126053190340 -0.01592294123220293 -0.006939560263018606 0.001477774736285951 0.007233045701013993 
0.006612527252643503 -0.002821468488215487 -0.004390817474784412 -0.001780363188930390 -0.001266451080701236 
0.007493804964259354 -0.009670887195644575 -0.02006573879923854 -0.007778388561476621 0.008184738195862585 
0.005306060200884562 -0.005594954404810837 0.004005905031675146 -0.003139668744870968 -0.005297817217166467 
0.006612527252643503 -0.002821468488215487 -0.004390817474784412 -0.001780363188930390 -0.001266451080701236 
0.006612527252643503 -0.002821468488215487 -0.004390817474784412 -0.001780363188930390 -0.001266451080701236 
-0.001162286914122020 -0.03432707976957312 0.01862464726458597 0.009184448436939066 -0.02243747912224275 
0.006612527252643503 -0.002821468488215487 -0.004390817474784412 -0.001780363188930390 -0.001266451080701236 
0.006612527252643503 -0.002821468488215487 -0.004390817474784412 -0.001780363188930390 -0.001266451080701236 
0.006612527252643503 -0.002821468488215487 -0.004390817474784412 -0.001780363188930390 -0.001266451080701236 
-0.002808700078550589 0.004953527561498756 -0.006802184006619055 -0.01291687226362485 -0.002599260209468023 
0.01513074410471660 -0.009896123910582286 -0.002922073995181310 -0.001880971808153584 -0.002710804227236202 
0.006612527252643503 -0.002821468488215487 -0.004390817474784412 -0.001780363188930390 -0.001266451080701236 
0.006612527252643503 -0.002821468488215487 -0.004390817474784412 -0.001780363188930390 -0.001266451080701236 
0.006612527252643503 -0.002821468488215487 -0.004390817474784412 -0.001780363188930390 -0.001266451080701236 
0.003051973749973946 0.001507115945323197 -0.005508945091130519 -0.002675110876473268 -0.002661192545562392 
0.006612527252643503 -0.002821468488215487 -0.004390817474784412 -0.001780363188930390 -0.001266451080701236 
0.006612527252643503 -0.002821468488215487 -0.004390817474784412 -0.001780363188930390 -0.001266451080701236 
0.006612527252643503 -0.002821468488215487 -0.004390817474784412 -0.001780363188930390 -0.001266451080701236 
0.006612527252643503 -0.002821468488215487 -0.004390817474784412 -0.001780363188930390 -0.001266451080701236 
0.006612527252643503 -0.002821468488215487 -0.004390817474784412 -0.001780363188930390 -0.001266451080701236 
0.006612527252643503 -0.002821468488215487 -0.004390817474784412 -0.001780363188930390 -0.001266451080701236 
0.006612527252643503 -0.002821468488215487 -0.004390817474784412 -0.001780363188930390 -0.001266451080701236 
0.0001850955329858849 0.01285786798689073 -0.001261059709897230 -0.01040032252584814 -0.01977518424571744 
0.006612527252643503 -0.002821468488215487 -0.004390817474784412 -0.001780363188930390 -0.001266451080701236 
0.009753784004739613 0.004912645308059416 -0.02432970604391114 -0.01814593076641278 -0.01849275813681489 
0.008938231779595676 -0.02285362485341781 0.01345955109101423 -0.001040203557419323 -0.01064001772038563 
0.008151673407121227 -0.003771935871107374 -0.003867381497410057 -0.001705026655967104 -0.0009057969558143993 
0.004120918450063157 0.001221907176955578 -0.001710136189085995 -0.002704470072584815 -0.001193507843902452 
-0.007819012083120122 -0.01513192712101848 0.02036007175894370 0.0001132296430706453 -0.009844437611525161 
0.008151673407121227 -0.003771935871107374 -0.003867381497410057 -0.001705026655967104 -0.0009057969558143993 
0.008151673407121227 -0.003771935871107374 -0.003867381497410057 -0.001705026655967104 -0.0009057969558143993 
0.008151673407121227 -0.003771935871107374 -0.003867381497410057 -0.001705026655967104 -0.0009057969558143993 
0.008151673407121227 -0.003771935871107374 -0.003867381497410057 -0.001705026655967104 -0.0009057969558143993 
0.003112692134811995 0.005649719817293170 -0.009309329399041992 -0.003120342887705852 -0.001894694102373025 
-0.008229504152777843 0.01388470117598083 0.004075338834536067 -0.02025667932916032 -0.01699024148598557 
0.002543703831439559 0.004458826372227277 -0.007498609555241830 -0.004365715435044121 -0.003857054381097075 
0.006568456830991249 0.005727528318789360 -0.01267061418992931 -0.007189257646271149 -0.005993818424373260 
0.008151673407121227 -0.003771935871107374 -0.003867381497410057 -0.001705026655967104 -0.0009057969558143993 
0.007891021129754480 -0.003794601047689415 -0.009851241266003745 0.007321699110375222 -0.002012175637015269 
0.008151673407121227 -0.003771935871107374 -0.003867381497410057 -0.001705026655967104 -0.0009057969558143993 
0.01022294452872713 -0.01067490613285744 -0.003764911239456199 0.005579275629362536 -0.002490071786020057 
0.008151673407121227 -0.003771935871107374 -0.003867381497410057 -0.001705026655967104 -0.0009057969558143993 
0.02816388775425048 -0.01503943307453785 -0.01098017943543899 -0.004678763315020307 -0.003653650162174486 
0.03224084279540850 0.008004405926488307 -0.03012276204218631 -0.01237012474237471 -0.009173515805914911 
-0.01377290417193043 -0.01585004858704559 0.02473859905138062 0.003217874247604515 -0.004623746817210347 
0.008151673407121227 -0.003771935871107374 -0.003867381497410057 -0.001705026655967104 -0.0009057969558143993 
0.07535080622024114 -0.06899907937770460 0.001080358522757614 -0.01443654259462932 -0.02264191633248307 
0.008151673407121227 -0.003771935871107374 -0.003867381497410057 -0.001705026655967104 -0.0009057969558143993 
-0.01053499794617661 -0.002954099697946123 0.01558816655333269 -0.005840509715346572 -0.003847567943008818 
-0.04407996550926049 -0.03298792325057653 0.04018302433245258 0.01588407994924455 0.004993139566231985 
-0.001746903293518817 0.004037921215413898 -0.008442654473723130 0.004618379819301816 -0.003296297554105592 
0.01112823512516203 -0.005153011042216629 -0.008288563423777774 -0.004108315555024783 0.004339575692858071 
0.008151673407121227 -0.003771935871107374 -0.003867381497410057 -0.001705026655967104 -0.0009057969558143993 
0.008151673407121227 -0.003771935871107374 -0.003867381497410057 -0.001705026655967104 -0.0009057969558143993 
0.008151673407121227 -0.003771935871107374 -0.003867381497410057 -0.001705026655967104 -0.0009057969558143993 
0.001280438601541714 -0.009252204737384119 0.001452969916118920 0.005613597613879248 -0.004227836014456350 
0.006447582371257911 0.0001767027981293969 -0.008920604006873986 0.004394827153829431 -0.002179414724171590 
0.008062881362530772 -0.004090770989644004 -0.005179735713155568 -0.002175595469298183 0.0009551301782809854 
0.008151673407121227 -0.003771935871107374 -0.003867381497410057 -0.001705026655967104 -0.0009057969558143993 
0.008151673407121227 -0.003771935871107374 -0.003867381497410057 -0.001705026655967104 -0.0009057969558143993 
0.008151673407121227 -0.003771935871107374 -0.003867381497410057 -0.001705026655967104 -0.0009057969558143993 
0.008151673407121227 -0.003771935871107374 -0.003867381497410057 -0.001705026655967104 -0.0009057969558143993 
0.007092773639630259 0.006958003006889269 -0.007100338560350971 -0.006366196188557397 -0.004702373490436419 
0.008151673407121227 -0.003771935871107374 -0.003867381497410057 -0.001705026655967104 -0.0009057969558143993 
0.0008700283217614800 -0.01071442362895190 0.01465887426022164 -0.005222845695333989 -0.004102783332902576 
0.008151673407121227 -0.003771935871107374 -0.003867381497410057 -0.001705026655967104 -0.0009057969558143993 
0.001606260419638787 0.001205485338883696 -0.01260869243296763 0.004408218551325021 0.001375907231309963 
-0.004881185516036585 0.01550676313488999 -0.009309140272587512 -0.004660273661495421 -0.004989480235987262 
-0.001435129561506801 0.004283359736056877 -0.008216286250382692 0.003369725314213528 -0.002785748751540796 
0.006768697040643490 -0.002959419144740353 -0.003401946254759743 -0.001270252683791880 -0.0008252967061206031 
0.006768697040643490 -0.002959419144740353 -0.003401946254759743 -0.001270252683791880 -0.0008252967061206031 
0.003799486895582152 0.0004051911238530846 -0.003880458868241490 -0.002643228442441620 0.001852826364782364 
0.006768697040643490 -0.002959419144740353 -0.003401946254759743 -0.001270252683791880 -0.0008252967061206031 
0.006768697040643490 -0.002959419144740353 -0.003401946254759743 -0.001270252683791880 -0.0008252967061206031 
0.001623539304902718 -0.006361670452868426 0.006732194975972007 -0.001270383910384560 -0.0008238758019998581 
0.01324035655099116 -0.008229063393551294 -0.004308806615507550 -0.002753165253532970 -0.001543595655370802 
-0.01383015722460198 -0.02947507102539374 0.04828171739676057 -0.01877744296245883 -0.01629104751840762 
-0.006992607604791265 0.009174153781971044 -0.01286373712693154 -0.01110236322787823 -0.003250230465479099 
0.002066768185326732 -0.01153271552034576 0.008189745222912362 -0.003526535371394155 -0.004591937267670395 
0.003774386280152379 -0.003826173943329486 0.003009785525628521 -0.001269588919620432 -0.0008235345274907635 
0.006768697040643490 -0.002959419144740353 -0.003401946254759743 -0.001270252683791880 -0.0008252967061206031 
0.006768697040643490 -0.002959419144740353 -0.003401946254759743 -0.001270252683791880 -0.0008252967061206031 
0.006768697040643490 -0.002959419144740353 -0.003401946254759743 -0.001270252683791880 -0.0008252967061206031 
0.01462402367359531 -0.04103083757777806 0.03251589404986829 -0.02092163561401707 -0.03772955297954102 
0.006768697040643490 -0.002959419144740353 -0.003401946254759743 -0.001270252683791880 -0.0008252967061206031 
0.006768697040643490 -0.002959419144740353 -0.003401946254759743 -0.001270252683791880 -0.0008252967061206031 
0.006768697040643490 -0.002959419144740353 -0.003401946254759743 -0.001270252683791880 -0.0008252967061206031 
0.006768697040643490 -0.002959419144740353 -0.003401946254759743 -0.001270252683791880 -0.0008252967061206031 
0.006768697040643490 -0.002959419144740353 -0.003401946254759743 -0.001270252683791880 -0.0008252967061206031 
0.0002764315144399548 -0.0009253585955308001 -0.001288433366507028 -0.003968592943277068 -0.003896042078436662 
0.006768697040643490 -0.002959419144740353 -0.003401946254759743 -0.001270252683791880 -0.0008252967061206031 
0.006768697040643490 -0.002959419144740353 -0.003401946254759743 -0.001270252683791880 -0.0008252967061206031 
0.006768697040643490 -0.002959419144740353 -0.003401946254759743 -0.001270252683791880 -0.0008252967061206031 
0.006768697040643490 -0.002959419144740353 -0.003401946254759743 -0.001270252683791880 -0.0008252967061206031 
-0.002649840012014298 -0.001513422276884241 0.003129674833075462 -0.005516040988377806 -0.004822215213765617 
0.01211763884849174 -0.005811388546563622 -0.005967498356328633 -0.002521142494197195 -0.002164610377133403 
0.006768697040643490 -0.002959419144740353 -0.003401946254759743 -0.001270252683791880 -0.0008252967061206031 
0.006768697040643490 -0.002959419144740353 -0.003401946254759743 -0.001270252683791880 -0.0008252967061206031 
0.01257031228095125 0.002028356776829257 -0.007501316120971962 -0.006015763943174696 -0.006115397586494009 
0.006768697040643490 -0.002959419144740353 -0.003401946254759743 -0.001270252683791880 -0.0008252967061206031 
0.006768697040643490 -0.002959419144740353 -0.003401946254759743 -0.001270252683791880 -0.0008252967061206031 
-0.01053849297145375 0.01670473559859096 -0.005624595454767975 -0.006005365437917324 -0.005397825217274834 
0.003082731218265782 -0.002275573789872019 -0.005556614327068669 -0.002418540008868216 -0.01971220044479041 
-0.04461876510944079 0.03111498320842335 -0.02198072541021008 0.01278380023142592 -0.05788165941803977 
0.001747492765726183 0.002398528195828770 -0.003050024339704664 -0.001592248320723645 -0.001527405756125531 
0.006692793808824836 -0.008325253103194348 0.004526534795091212 -0.001952831427197000 -0.004201616237721219 
0.006768697040643490 -0.002959419144740353 -0.003401946254759743 -0.001270252683791880 -0.0008252967061206031 
0.006768697040643490 -0.002959419144740353 -0.003401946254759743 -0.001270252683791880 -0.0008252967061206031 
0.005801210136776540 -0.005690226266141022 0.0005087319268482878 -0.002010095405640085 -0.001808349892659879 
0.006768697040643490 -0.002959419144740353 -0.003401946254759743 -0.001270252683791880 -0.0008252967061206031 
0.006768697040643490 -0.002959419144740353 -0.003401946254759743 -0.001270252683791880 -0.0008252967061206031 
0.004405866216738477 -0.004688230652006620 0.0008079135303586303 -0.001749655319324759 -0.0008250504991603673 
0.006768697040643490 -0.002959419144740353 -0.003401946254759743 -0.001270252683791880 -0.0008252967061206031 
0.01277032323086310 -0.005436477711448579 -0.005500079059700755 -0.002249118373281558 -0.001641977219841467 
0.006768697040643490 -0.002959419144740353 -0.003401946254759743 -0.001270252683791880 -0.0008252967061206031 
0.001122261201831700 -0.0002160975586135666 0.001067958360491680 -0.001744361253393221 -0.001146645301851674 
0.006768697040643490 -0.002959419144740353 -0.003401946254759743 -0.001270252683791880 -0.0008252967061206031 
0.03498190158325160 -0.03371928672043823 -0.009227542210919771 0.006946923218533426 -0.01168217395301245 
-0.002347000035457847 0.009083658881120523 -0.003841041710423493 -0.003585941177736076 -0.003178598090881896 
-0.003950246687222489 -0.01150221599264291 0.009741033114946690 0.006800358558672335 -0.004133721732869856 
0.002293838905851850 -0.01233474774317615 0.01227047443236349 -0.005166860510713837 -0.004267329463783326 
0.006768697040643490 -0.002959419144740353 -0.003401946254759743 -0.001270252683791880 -0.0008252967061206031 
0.006768697040643490 -0.002959419144740353 -0.003401946254759743 -0.001270252683791880 -0.0008252967061206031 
-0.009559193686855310 0.01138305370233327 0.008506939763399425 -0.01629753491417263 -0.02003270442543450 
0.006768697040643490 -0.002959419144740353 -0.003401946254759743 -0.001270252683791880 -0.0008252967061206031 
0.004332668489425398 0.002177337815574407 -0.005730475374448599 -0.002270840599501711 -0.001544443305991079 
0.006768697040643490 -0.002959419144740353 -0.003401946254759743 -0.001270252683791880 -0.0008252967061206031 
0.005732036071711497 -0.004956845643893247 0.0009391132225224823 -0.001518220992066928 -0.0008627701456272994 
0.006768697040643490 -0.002959419144740353 -0.003401946254759743 -0.001270252683791880 -0.0008252967061206031 
-0.02156450245767308 0.004214275184757935 0.005638479358278518 0.002713864087788203 -0.0006492811044391255 
0.006768697040643490 -0.002959419144740353 -0.003401946254759743 -0.001270252683791880 -0.0008252967061206031 
0.002923766350545196 0.003483502217226745 -0.004575055376840884 -0.001633143802950327 -0.001600055081500326 
0.02122581983642562 -0.01043959493694749 -0.009989318487251420 -0.003638413492759678 -0.002320925667891085 
-0.0009587023031180223 -0.004438552403401461 0.004261302618198442 -0.003383905826368044 0.0002274595823096099 
0.006768697040643490 -0.002959419144740353 -0.003401946254759743 -0.001270252683791880 -0.0008252967061206031 
0.01983903915099776 -0.01970821175900588 -0.002764520606857570 -0.005010368559788308 0.002303023761786473 
-0.0006640617545663630 0.005779701535458541 -0.01058416462491712 -0.004102121695254083 0.003528498238444895 
0.04183499794162402 0.006859710557530208 -0.04165915975045367 -0.02171341796336249 -0.02303184620764497 
0.01711762620073470 -0.01733179755965402 0.009171154744194372 -0.01182560130475108 -0.01752850123569875 
0.0004795291605202589 0.002692030809727799 -0.001782201844034536 -0.003591469337809815 -0.004182119494669587 
0.006768697040643490 -0.002959419144740353 -0.003401946254759743 -0.001270252683791880 -0.0008252967061206031 
0.006768697040643490 -0.002959419144740353 -0.003401946254759743 -0.001270252683791880 -0.0008252967061206031 
0.006768697040643490 -0.002959419144740353 -0.003401946254759743 -0.001270252683791880 -0.0008252967061206031 
0.006768697040643490 -0.002959419144740353 -0.003401946254759743 -0.001270252683791880 -0.0008252967061206031 
0.006768697040643490 -0.002959419144740353 -0.003401946254759743 -0.001270252683791880 -0.0008252967061206031 
0.006768697040643490 -0.002959419144740353 -0.003401946254759743 -0.001270252683791880 -0.0008252967061206031 
0.001207101040860597 -0.006714155624929404 0.006388482672672180 -0.002248470614947125 -0.002026218402752646 
0.006768697040643490 -0.002959419144740353 -0.003401946254759743 -0.001270252683791880 -0.0008252967061206031 
0.006768697040643490 -0.002959419144740353 -0.003401946254759743 -0.001270252683791880 -0.0008252967061206031 
0.01237104017108213 -0.04708224339035794 -0.01793258544576449 -0.01478264065843861 -0.02499320368504618 
0.001783278325058420 -0.006475545625817717 0.005616315271613761 -0.0005826787515769200 -0.0001864795815656182 
0.002386565905307536 0.002685484857040620 -0.01196757778462873 0.004926026086558536 -0.005329813191989880 
0.02141026715291005 7.423784093854189e-05 -0.01518729301847744 -0.002172478275307693 -0.002463809459498942 
0.007184804295658744 -0.003531036933681609 -0.003096022297861526 -0.0005826221779112195 -0.0001738693738236278 
0.007184804295658744 -0.003531036933681609 -0.003096022297861526 -0.0005826221779112195 -0.0001738693738236278 
0.01327475518898612 0.001754377599160162 -0.01986533459710538 -0.03426993941095616 -0.04879244801591861 
-0.02069404581490716 0.007044831590769960 0.01024170325223913 -0.009956091575527135 -0.02203514751105772 
0.007184804295658744 -0.003531036933681609 -0.003096022297861526 -0.0005826221779112195 -0.0001738693738236278 
0.007184804295658744 -0.003531036933681609 -0.003096022297861526 -0.0005826221779112195 -0.0001738693738236278 
0.007184804295658744 -0.003531036933681609 -0.003096022297861526 -0.0005826221779112195 -0.0001738693738236278 
0.007184804295658744 -0.003531036933681609 -0.003096022297861526 -0.0005826221779112195 -0.0001738693738236278 
0.007184804295658744 -0.003531036933681609 -0.003096022297861526 -0.0005826221779112195 -0.0001738693738236278 
0.01426316992979955 -0.009461371452506456 -0.009277215401498090 -0.003468970088393658 0.004808227653113479 
0.007184804295658744 -0.003531036933681609 -0.003096022297861526 -0.0005826221779112195 -0.0001738693738236278 
0.007184804295658744 -0.003531036933681609 -0.003096022297861526 -0.0005826221779112195 -0.0001738693738236278 
0.007184804295658744 -0.003531036933681609 -0.003096022297861526 -0.0005826221779112195 -0.0001738693738236278 
0.007184804295658744 -0.003531036933681609 -0.003096022297861526 -0.0005826221779112195 -0.0001738693738236278 
0.007184804295658744 -0.003531036933681609 -0.003096022297861526 -0.0005826221779112195 -0.0001738693738236278 
0.004821973471753732 -0.005259848440947876 0.001113837487256847 -0.001062024813444098 -0.0001736231668633921 
-0.008652369150271889 -0.01767754967222502 0.02394695193307282 0.004035564557906316 -0.002229193936122410 
0.004061913561651533 -0.005263654747956694 0.002377674963897294 -0.0005818540833343128 -0.0006876623032879462 
0.002701860299298449 -0.05085714954573244 0.02133075782183880 -0.001471322201737555 0.009344980660666498 
0.007184804295658744 -0.003531036933681609 -0.003096022297861526 -0.0005826221779112195 -0.0001738693738236278 
0.007184804295658744 -0.003531036933681609 -0.003096022297861526 -0.0005826221779112195 -0.0001738693738236278 
-0.004921635068586840 0.01702810807560270 -0.01015156389193211 -0.003566307938152018 -0.002124496981276596 
0.01338247381422815 0.01065329609259095 -0.02167130015939679 -0.007262700067837811 -0.006717136158319264 
0.007184804295658744 -0.003531036933681609 -0.003096022297861526 -0.0005826221779112195 -0.0001738693738236278 
-0.005692046221482000 0.0002555825567580718 -0.005544653042736413 0.01226399672137539 -0.003440646190488273 
0.007184804295658744 -0.003531036933681609 -0.003096022297861526 -0.0005826221779112195 -0.0001738693738236278 
0.007184804295658744 -0.003531036933681609 -0.003096022297861526 -0.0005826221779112195 -0.0001738693738236278 
0.02662119479328423 -0.02159956758240811 -0.01015757393151259 -0.01006789824009568 0.005127930614716953 
0.007184804295658744 -0.003531036933681609 -0.003096022297861526 -0.0005826221779112195 -0.0001738693738236278 
0.007184804295658744 -0.003531036933681609 -0.003096022297861526 -0.0005826221779112195 -0.0001738693738236278 
-0.02193440862597466 0.04863637349149536 -0.03656027312067635 -0.02728427887412095 -0.03935171720198768 
0.007184804295658744 -0.003531036933681609 -0.003096022297861526 -0.0005826221779112195 -0.0001738693738236278 
-0.01292312297193542 -0.007894462161901813 0.01876821080130992 -0.01752126104099517 -0.03278079128252221 
0.005658271023893572 -0.004022914552385836 -0.001296315850550617 -0.008011361909735639 -0.008692967363713604 
-0.001534047305607109 -0.01730789741445661 0.003555287990854482 -0.005933590147771560 0.01725307306689639 
0.007184804295658744 -0.003531036933681609 -0.003096022297861526 -0.0005826221779112195 -0.0001738693738236278 
0.003739541461015184 -0.005778894257976314 0.002732738888740117 -0.0005825332813158169 -0.0001738926341035860 
0.02231968841011489 -0.01619284924241360 -0.004987237118627445 -0.004038986432256641 -0.004035619497677378 
0.007184804295658744 -0.003531036933681609 -0.003096022297861526 -0.0005826221779112195 -0.0001738693738236278 
0.007184804295658744 -0.003531036933681609 -0.003096022297861526 -0.0005826221779112195 -0.0001738693738236278 
0.007184804295658744 -0.003531036933681609 -0.003096022297861526 -0.0005826221779112195 -0.0001738693738236278 
-0.02068006993247825 0.05731357014133552 -0.02517365462887451 -0.02376160549696781 -0.03538743833280827 
0.007184804295658744 -0.003531036933681609 -0.003096022297861526 -0.0005826221779112195 -0.0001738693738236278 
0.007184804295658744 -0.003531036933681609 -0.003096022297861526 -0.0005826221779112195 -0.0001738693738236278 
-0.0001296536548731453 -0.001446106875602613 0.003775408800358907 -0.001631147137877037 -0.0007626704563610304 
0.007184804295658744 -0.003531036933681609 -0.003096022297861526 -0.0005826221779112195 -0.0001738693738236278 
0.004149770988398486 0.002080159078676580 -0.004722576158775099 -0.0009978412768228400 -0.0001737033437532312 
0.007184804295658744 -0.003531036933681609 -0.003096022297861526 -0.0005826221779112195 -0.0001738693738236278 
0.0007562522242978170 0.004009359297719537 -0.0001584533763986775 -0.002219381042012691 -0.001658978271592404 
0.007184804295658744 -0.003531036933681609 -0.003096022297861526 -0.0005826221779112195 -0.0001738693738236278 
0.03763091456001533 -0.01772344674288643 -0.01771166849025819 -0.005560067829785869 -0.004030225779011902 
0.007184804295658744 -0.003531036933681609 -0.003096022297861526 -0.0005826221779112195 -0.0001738693738236278 
0.007184804295658744 -0.003531036933681609 -0.003096022297861526 -0.0005826221779112195 -0.0001738693738236278 
0.007184804295658744 -0.003531036933681609 -0.003096022297861526 -0.0005826221779112195 -0.0001738693738236278 
0.007184804295658744 -0.003531036933681609 -0.003096022297861526 -0.0005826221779112195 -0.0001738693738236278 
0.007184804295658744 -0.003531036933681609 -0.003096022297861526 -0.0005826221779112195 -0.0001738693738236278 
0.006271175623851245 -0.001255704744430745 -0.005622093234850734 -0.003077483694562991 -0.002506520936886309 
-0.004308956933664264 -0.02210379610873188 0.01290545018567633 0.001752920350254880 -0.002101941693360292 
0.007184804295658744 -0.003531036933681609 -0.003096022297861526 -0.0005826221779112195 -0.0001738693738236278 
0.007184804295658744 -0.003531036933681609 -0.003096022297861526 -0.0005826221779112195 -0.0001738693738236278 
0.007184804295658744 -0.003531036933681609 -0.003096022297861526 -0.0005826221779112195 -0.0001738693738236278 
0.007184804295658744 -0.003531036933681609 -0.003096022297861526 -0.0005826221779112195 -0.0001738693738236278 
0.002225775739905287 -0.005386161128826943 -0.008840014929307160 0.001696239200297856 -0.009545930117181424 
0.01883713769488681 -0.01020002228088800 -0.007146484062303967 -0.001007131767987363 -0.0008286058225430179 
0.01032927416693978 -0.01412904844485749 -0.003796056801334397 -0.004521941186751360 0.003382483050314750 
0.007184804295658744 -0.003531036933681609 -0.003096022297861526 -0.0005826221779112195 -0.0001738693738236278 
0.007184804295658744 -0.003531036933681609 -0.003096022297861526 -0.0005826221779112195 -0.0001738693738236278 
0.007184804295658744 -0.003531036933681609 -0.003096022297861526 -0.0005826221779112195 -0.0001738693738236278 
0.006459521968117446 -0.003235215004614663 -0.002066939016007601 -3.442967615389822e-05 4.927428086906840e-07 
0.006459521968117446 -0.003235215004614663 -0.002066939016007601 -3.442967615389822e-05 4.927428086906840e-07 
0.01045831420007206 -0.01977683951152177 -0.004482502121092712 0.004276296398898215 0.008031556126019268 
0.006459521968117446 -0.003235215004614663 -0.002066939016007601 -3.442967615389822e-05 4.927428086906840e-07 
0.008242836881503090 -0.008068399743024991 0.002732745366341756 -0.001176606128552046 -0.001447523321891125 
0.003014259133473885 -0.005483072328909367 0.003761822170594042 -3.434077955849568e-05 4.694825287324604e-07 
-0.02350975501302131 0.02196906377597119 -0.01980219394519812 -0.0002067473761600305 -0.008580784756633661 
-0.01914403384176984 0.02248250855388356 -0.01248233049927888 -0.01333860067106376 -0.01837420689993577 
0.006459521968117446 -0.003235215004614663 -0.002066939016007601 -3.442967615389822e-05 4.927428086906840e-07 
0.006459521968117446 -0.003235215004614663 -0.002066939016007601 -3.442967615389822e-05 4.927428086906840e-07 
0.006459521968117446 -0.003235215004614663 -0.002066939016007601 -3.442967615389822e-05 4.927428086906840e-07 
0.002405653660377248 -0.003879728448278967 -0.003520106087205781 0.008007969740674510 -0.0006080006560615609 
0.006459521968117446 -0.003235215004614663 -0.002066939016007601 -3.442967615389822e-05 4.927428086906840e-07 
0.006459521968117446 -0.003235215004614663 -0.002066939016007601 -3.442967615389822e-05 4.927428086906840e-07 
-0.007100534646786439 -0.003943460658219230 0.01944430543434635 -0.01032345872892809 -0.008850906627541918 
0.008299309889807588 -0.007096187976581857 -0.005299200895616406 0.007132366480772403 -0.001514268820283586 
0.01235317819754779 -0.006451674532917551 -0.003846033824418226 -0.0009100329360560062 -0.0009057754214133343 
0.006459521968117446 -0.003235215004614663 -0.002066939016007601 -3.442967615389822e-05 4.927428086906840e-07 
0.006459521968117446 -0.003235215004614663 -0.002066939016007601 -3.442967615389822e-05 4.927428086906840e-07 
0.006459521968117446 -0.003235215004614663 -0.002066939016007601 -3.442967615389822e-05 4.927428086906840e-07 
0.01100641926060250 -0.002926897849921858 -0.002706611422017366 -0.001853399383854422 -0.001564445199791032 
0.006459521968117446 -0.003235215004614663 -0.002066939016007601 -3.442967615389822e-05 4.927428086906840e-07 
-0.001603238682761741 -0.01532822105178361 0.01959134553913199 -0.003206354660884953 -0.002634685218815833 
0.006459521968117446 -0.003235215004614663 -0.002066939016007601 -3.442967615389822e-05 4.927428086906840e-07 
-0.001852335362275129 0.009001714431765964 -0.006933652692340669 -0.003007821833302872 -0.003058343209640151 
-0.04675531703928895 0.01153376899899722 0.02109108405954750 -0.003659887011354549 -0.02196077448772657 
0.006459521968117446 -0.003235215004614663 -0.002066939016007601 -3.442967615389822e-05 4.927428086906840e-07 
0.006459521968117446 -0.003235215004614663 -0.002066939016007601 -3.442967615389822e-05 4.927428086906840e-07 
0.006459521968117446 -0.003235215004614663 -0.002066939016007601 -3.442967615389822e-05 4.927428086906840e-07 
0.009321591824341580 -0.005730363787695194 -0.001260208508194408 -0.003020954514662342 -0.0009311261319957431 
0.006459521968117446 -0.003235215004614663 -0.002066939016007601 -3.442967615389822e-05 4.927428086906840e-07 
-0.0009218312416094237 0.006863358702964723 -0.001883213748493556 -3.325946000994444e-05 -0.0002427210875056430 
0.01590759509543399 0.001936660538258284 -0.01079712533566323 -0.01085754408031502 -0.01233426733805298 
0.003424488660857187 0.002375981007743526 -0.003693492876921174 -0.0004496487750655189 6.587728790873011e-07 
0.006459521968117446 -0.003235215004614663 -0.002066939016007601 -3.442967615389822e-05 4.927428086906840e-07 
0.006459521968117446 -0.003235215004614663 -0.002066939016007601 -3.442967615389822e-05 4.927428086906840e-07 
0.006459521968117446 -0.003235215004614663 -0.002066939016007601 -3.442967615389822e-05 4.927428086906840e-07 
0.002782205761427645 0.002407019951461883 -0.003714977443426716 -0.0005162355727239378 -0.0003901847087476839 
-0.002897892945292191 0.01240786741232814 -0.02007714561749640 -0.01280505618827364 -0.01191369668496057 
0.006459521968117446 -0.003235215004614663 -0.002066939016007601 -3.442967615389822e-05 4.927428086906840e-07 
0.003014259133473885 -0.005483072328909367 0.003761822170594042 -3.434077955849568e-05 4.694825287324604e-07 
-0.006491350089400601 -0.009059465865197170 0.003448040868931001 -0.003308031370324968 0.01192371950056965 
0.0005931153019631850 -0.004611726174215171 0.006057659057145830 -3.421989039603785e-05 1.147411485854641e-06 
0.006459521968117446 -0.003235215004614663 -0.002066939016007601 -3.442967615389822e-05 4.927428086906840e-07 
0.003340246768580615 -0.005652616665252005 -0.004645150115277092 0.01028311844900216 -0.0001997838042405501 
0.006459521968117446 -0.003235215004614663 -0.002066939016007601 -3.442967615389822e-05 4.927428086906840e-07 
0.006459521968117446 -0.003235215004614663 -0.002066939016007601 -3.442967615389822e-05 4.927428086906840e-07 
0.006459521968117446 -0.003235215004614663 -0.002066939016007601 -3.442967615389822e-05 4.927428086906840e-07 
0.008576521120453076 -0.01523339340236249 0.007952918881550787 -0.005129173793275144 -0.005524797768451881 
0.006459521968117446 -0.003235215004614663 -0.002066939016007601 -3.442967615389822e-05 4.927428086906840e-07 
0.006459521968117446 -0.003235215004614663 -0.002066939016007601 -3.442967615389822e-05 4.927428086906840e-07 
0.006459521968117446 -0.003235215004614663 -0.002066939016007601 -3.442967615389822e-05 4.927428086906840e-07 
0.01418421866262411 -0.006774174290912556 -0.005979399363525434 -0.001274752219977019 -0.0007101342857714952 
0.006459521968117446 -0.003235215004614663 -0.002066939016007601 -3.442967615389822e-05 4.927428086906840e-07 
-0.001028313720572400 0.001473350126696709 -0.001426013628976838 -0.007311931435135550 -0.007748969401216733 
0.008937423261766856 -0.01021750134809719 0.003774991992930237 -0.002548149962645773 -0.002972283548534906 
0.006459521968117446 -0.003235215004614663 -0.002066939016007601 -3.442967615389822e-05 4.927428086906840e-07 
0.006459521968117446 -0.003235215004614663 -0.002066939016007601 -3.442967615389822e-05 4.927428086906840e-07 
0.006459521968117446 -0.003235215004614663 -0.002066939016007601 -3.442967615389822e-05 4.927428086906840e-07 
0.01533345535812153 -0.01236810635962078 -0.01108775846234389 0.006666279124512841 0.001689682598164530 
0.01305830526017114 -0.005924012222265174 -0.005156965900370915 -0.0008023491229784333 -0.0007868871700405653 
-0.007015790605861311 -0.0002828797830895559 0.01101843891432210 -0.01088677972750212 -0.01706775456094488 
0.02234181014724601 -0.01345463920298467 -0.006802630517985625 -0.009576509003781987 0.007350444588732583 
0.006459521968117446 -0.003235215004614663 -0.002066939016007601 -3.442967615389822e-05 4.927428086906840e-07 
-0.006299941832225390 0.006089897601822640 0.003551415272027327 -0.001685003042522044 -0.001607996474819591 
0.008201886772658937 -0.01058389440367414 0.004117770746734213 -0.0009610016890514635 -0.002165787085021377 
0.009423975043896443 -0.001192333232883121 -0.003365938195515380 -0.0004491994980224906 -1.780400298477461e-05 
0.006459521968117446 -0.003235215004614663 -0.002066939016007601 -3.442967615389822e-05 4.927428086906840e-07 
0.01279298611487542 -0.005622218628245175 -0.003788433100222176 -3.427763918915476e-05 1.111995913457812e-06 
0.006459521968117446 -0.003235215004614663 -0.002066939016007601 -3.442967615389822e-05 4.927428086906840e-07 
0.04838110589138477 -0.01776975254400580 -0.01887643328748638 -0.03173636668265596 -0.03527631036220552 
0.006459521968117446 -0.003235215004614663 -0.002066939016007601 -3.442967615389822e-05 4.927428086906840e-07 
0.006459521968117446 -0.003235215004614663 -0.002066939016007601 -3.442967615389822e-05 4.927428086906840e-07 
0.006459521968117446 -0.003235215004614663 -0.002066939016007601 -3.442967615389822e-05 4.927428086906840e-07 
-0.02090232828432830 0.01554624607907278 -0.0005328650951769171 0.007795451873485714 -0.008996656884141661 
0.004308567600736374 0.003579783901313730 -0.006154365880915769 -0.0006290032302037202 -0.001126670604482535 
0.006459521968117446 -0.003235215004614663 -0.002066939016007601 -3.442967615389822e-05 4.927428086906840e-07 
0.01371261286840901 -0.02011003269045206 0.01186336288204028 -0.006402185241457567 -0.006439689946546448 
0.006459521968117446 -0.003235215004614663 -0.002066939016007601 -3.442967615389822e-05 4.927428086906840e-07 
0.006459521968117446 -0.003235215004614663 -0.002066939016007601 -3.442967615389822e-05 4.927428086906840e-07 
0.006459521968117446 -0.003235215004614663 -0.002066939016007601 -3.442967615389822e-05 4.927428086906840e-07 
0.004958179270595949 -0.002438019806346140 -0.002892543134699435 -0.0007745403810036630 -0.001028432485307985 
-0.003925033303920631 -0.004382763656974305 0.008516948830395820 -0.004111499621631307 -0.005395910791378323 
0.004221727520567394 -0.01632726150947037 0.009865896989290183 -0.004877191695800590 -0.002768221785812168 
0.002664825911306479 -0.002421520603878741 0.001143145715553374 -0.002887867053075045 -0.002519519869215475 
0.004958179270595949 -0.002438019806346140 -0.002892543134699435 -0.0007745403810036630 -0.001028432485307985 
0.004958179270595949 -0.002438019806346140 -0.002892543134699435 -0.0007745403810036630 -0.001028432485307985 
0.004958179270595949 -0.002438019806346140 -0.002892543134699435 -0.0007745403810036630 -0.001028432485307985 
0.004958179270595949 -0.002438019806346140 -0.002892543134699435 -0.0007745403810036630 -0.001028432485307985 
0.004958179270595949 -0.002438019806346140 -0.002892543134699435 -0.0007745403810036630 -0.001028432485307985 
0.004958179270595949 -0.002438019806346140 -0.002892543134699435 -0.0007745403810036630 -0.001028432485307985 
0.001910024259050015 0.002305013194626723 -0.01120338639151337 -0.002042382536918330 0.006788622741179823 
-5.813645257394474e-05 -0.03139895845560568 0.02704002761152673 -0.007097419332412631 0.002464934244104862 
0.004958179270595949 -0.002438019806346140 -0.002892543134699435 -0.0007745403810036630 -0.001028432485307985 
0.004958179270595949 -0.002438019806346140 -0.002892543134699435 -0.0007745403810036630 -0.001028432485307985 
0.004958179270595949 -0.002438019806346140 -0.002892543134699435 -0.0007745403810036630 -0.001028432485307985 
0.004958179270595949 -0.002438019806346140 -0.002892543134699435 -0.0007745403810036630 -0.001028432485307985 
0.004958179270595949 -0.002438019806346140 -0.002892543134699435 -0.0007745403810036630 -0.001028432485307985 
0.004958179270595949 -0.002438019806346140 -0.002892543134699435 -0.0007745403810036630 -0.001028432485307985 
0.004958179270595949 -0.002438019806346140 -0.002892543134699435 -0.0007745403810036630 -0.001028432485307985 
0.004958179270595949 -0.002438019806346140 -0.002892543134699435 -0.0007745403810036630 -0.001028432485307985 
0.07164068971108770 -0.02961595494125193 -0.02770109584562244 -0.01757956020405942 -0.02210865142837442 
0.004958179270595949 -0.002438019806346140 -0.002892543134699435 -0.0007745403810036630 -0.001028432485307985 
0.004958179270595949 -0.002438019806346140 -0.002892543134699435 -0.0007745403810036630 -0.001028432485307985 
-0.001727269613647006 0.01091795055435772 -0.01010160226083568 -0.006154147907164331 -0.006842040752510545 
0.004958179270595949 -0.002438019806346140 -0.002892543134699435 -0.0007745403810036630 -0.001028432485307985 
0.004958179270595949 -0.002438019806346140 -0.002892543134699435 -0.0007745403810036630 -0.001028432485307985 
-0.0004107422581263473 -0.001922013839223995 0.003792746344765222 -0.002876418804661825 -0.002350921648935092 
0.004958179270595949 -0.002438019806346140 -0.002892543134699435 -0.0007745403810036630 -0.001028432485307985 
0.004958179270595949 -0.002438019806346140 -0.002892543134699435 -0.0007745403810036630 -0.001028432485307985 
0.002990228677392015 -0.0006328693845461107 -0.004245231030196500 -0.005544971478755859 -0.001505451543501909 
-0.001251805261816966 -0.005728242123138241 0.005271251521485542 -0.007200905772321394 -0.008798701177879693 
0.004958179270595949 -0.002438019806346140 -0.002892543134699435 -0.0007745403810036630 -0.001028432485307985 
0.02666695063700824 -0.01514472344362201 -0.008798419211899266 -0.006053987610337811 -0.007386864210449071 
0.004958179270595949 -0.002438019806346140 -0.002892543134699435 -0.0007745403810036630 -0.001028432485307985 
0.004958179270595949 -0.002438019806346140 -0.002892543134699435 -0.0007745403810036630 -0.001028432485307985 
0.004958179270595949 -0.002438019806346140 -0.002892543134699435 -0.0007745403810036630 -0.001028432485307985 
0.005500781119986872 -0.006761936343467384 0.008174854212403725 -0.009139032149090490 -0.01360210453615009 
0.0006180637948148158 0.004606516402245533 -0.007075119074653301 -0.004048639387245805 -0.004692748327742243 
0.004958179270595949 -0.002438019806346140 -0.002892543134699435 -0.0007745403810036630 -0.001028432485307985 
0.004958179270595949 -0.002438019806346140 -0.002892543134699435 -0.0007745403810036630 -0.001028432485307985 
0.004958179270595949 -0.002438019806346140 -0.002892543134699435 -0.0007745403810036630 -0.001028432485307985 
-0.01163583389225836 -0.01704172126517602 0.03697699828452026 -0.006564110527287477 -0.01457756815311268 
0.004958179270595949 -0.002438019806346140 -0.002892543134699435 -0.0007745403810036630 -0.001028432485307985 
0.004665880450063078 0.001480467224569221 -0.005520460688601019 -0.001479092351642113 -0.001392376294827071 
0.004958179270595949 -0.002438019806346140 -0.002892543134699435 -0.0007745403810036630 -0.001028432485307985 
0.004958179270595949 -0.002438019806346140 -0.002892543134699435 -0.0007745403810036630 -0.001028432485307985 
0.004958179270595949 -0.002438019806346140 -0.002892543134699435 -0.0007745403810036630 -0.001028432485307985 
0.004958179270595949 -0.002438019806346140 -0.002892543134699435 -0.0007745403810036630 -0.001028432485307985 
0.004958179270595949 -0.002438019806346140 -0.002892543134699435 -0.0007745403810036630 -0.001028432485307985 
0.001322759957602693 0.003779455244932661 -0.005351852980627775 -0.001096853260069505 -0.001731200835317137 
0.01078515660588448 -0.005381440135012854 -0.005887052024983333 -0.0007747101472362846 -0.001537693891097884 
0.01734733966996253 0.006102559796621968 -0.01801217840620856 -0.009722267706039556 -0.01178185638877583 
-0.0004295506349931628 -0.01643221140955712 -0.01056391070295097 -0.004865368791353527 0.01597308152210381 
0.004958179270595949 -0.002438019806346140 -0.002892543134699435 -0.0007745403810036630 -0.001028432485307985 
0.004958179270595949 -0.002438019806346140 -0.002892543134699435 -0.0007745403810036630 -0.001028432485307985 
0.0002389939353572694 0.004407157128583261 -0.004661603706605744 -0.002020520960535807 -0.002799813005259294 
0.004958179270595949 -0.002438019806346140 -0.002892543134699435 -0.0007745403810036630 -0.001028432485307985 
0.004958179270595949 -0.002438019806346140 -0.002892543134699435 -0.0007745403810036630 -0.001028432485307985 
0.004958179270595949 -0.002438019806346140 -0.002892543134699435 -0.0007745403810036630 -0.001028432485307985 
0.004958179270595949 -0.002438019806346140 -0.002892543134699435 -0.0007745403810036630 -0.001028432485307985 
0.004958179270595949 -0.002438019806346140 -0.002892543134699435 -0.0007745403810036630 -0.001028432485307985 
0.004958179270595949 -0.002438019806346140 -0.002892543134699435 -0.0007745403810036630 -0.001028432485307985 
0.0006964177018438817 -0.008521912979630860 0.007565102406941241 -0.003217716582859748 -0.006073122473428036 
0.004958179270595949 -0.002438019806346140 -0.002892543134699435 -0.0007745403810036630 -0.001028432485307985 
0.004958179270595949 -0.002438019806346140 -0.002892543134699435 -0.0007745403810036630 -0.001028432485307985 
0.004958179270595949 -0.002438019806346140 -0.002892543134699435 -0.0007745403810036630 -0.001028432485307985 
-0.01539449391781650 0.03074377070793791 -0.007265577488109622 -0.005347553838229074 -0.007897501513050366 
0.004958179270595949 -0.002438019806346140 -0.002892543134699435 -0.0007745403810036630 -0.001028432485307985 
0.004958179270595949 -0.002438019806346140 -0.002892543134699435 -0.0007745403810036630 -0.001028432485307985 
0.001489930864967696 -0.007038372750028995 0.004062420925357807 -0.002884718288127476 -0.003202339308956066 
0.004958179270595949 -0.002438019806346140 -0.002892543134699435 -0.0007745403810036630 -0.001028432485307985 
0.004958179270595949 -0.002438019806346140 -0.002892543134699435 -0.0007745403810036630 -0.001028432485307985 
0.006366633617674367 -0.003135934257697085 -0.002556749553312700 -0.0008294095075481919 -0.0007645837142592854 
0.006366633617674367 -0.003135934257697085 -0.002556749553312700 -0.0008294095075481919 -0.0007645837142592854 
0.006366633617674367 -0.003135934257697085 -0.002556749553312700 -0.0008294095075481919 -0.0007645837142592854 
0.006366633617674367 -0.003135934257697085 -0.002556749553312700 -0.0008294095075481919 -0.0007645837142592854 
0.007470623135470018 0.01241455699171185 -0.009770729902191924 -0.01761919105081358 -0.01581200972874921 
0.006366633617674367 -0.003135934257697085 -0.002556749553312700 -0.0008294095075481919 -0.0007645837142592854 
0.006366633617674367 -0.003135934257697085 -0.002556749553312700 -0.0008294095075481919 -0.0007645837142592854 
0.006366633617674367 -0.003135934257697085 -0.002556749553312700 -0.0008294095075481919 -0.0007645837142592854 
0.006366633617674367 -0.003135934257697085 -0.002556749553312700 -0.0008294095075481919 -0.0007645837142592854 
0.006366633617674367 -0.003135934257697085 -0.002556749553312700 -0.0008294095075481919 -0.0007645837142592854 
0.006366633617674367 -0.003135934257697085 -0.002556749553312700 -0.0008294095075481919 -0.0007645837142592854 
0.006366633617674367 -0.003135934257697085 -0.002556749553312700 -0.0008294095075481919 -0.0007645837142592854 
0.006366633617674367 -0.003135934257697085 -0.002556749553312700 -0.0008294095075481919 -0.0007645837142592854 
0.006366633617674367 -0.003135934257697085 -0.002556749553312700 -0.0008294095075481919 -0.0007645837142592854 
0.005432458787244921 -0.008385609834541780 0.003245294790684303 -0.001705936045005668 -0.001043549725151276 
0.006366633617674367 -0.003135934257697085 -0.002556749553312700 -0.0008294095075481919 -0.0007645837142592854 
0.006366633617674367 -0.003135934257697085 -0.002556749553312700 -0.0008294095075481919 -0.0007645837142592854 
0.01270009776443234 -0.005522937881327597 -0.004278243637527275 -0.0008292574705834484 -0.0007639644611545183 
0.006366633617674367 -0.003135934257697085 -0.002556749553312700 -0.0008294095075481919 -0.0007645837142592854 
0.006366633617674367 -0.003135934257697085 -0.002556749553312700 -0.0008294095075481919 -0.0007645837142592854 
0.006366633617674367 -0.003135934257697085 -0.002556749553312700 -0.0008294095075481919 -0.0007645837142592854 
0.006366633617674367 -0.003135934257697085 -0.002556749553312700 -0.0008294095075481919 -0.0007645837142592854 
0.004770410872433182 -0.01079154578816315 0.006661399324799437 -0.004368188314964815 -0.004515358499696811 
0.006366633617674367 -0.003135934257697085 -0.002556749553312700 -0.0008294095075481919 -0.0007645837142592854 
0.01335625002096798 -0.01363160692683401 0.004643592802923891 -0.002520207234008014 -0.001650999763005698 
0.006366633617674367 -0.003135934257697085 -0.002556749553312700 -0.0008294095075481919 -0.0007645837142592854 
0.01077649486045144 -0.008375099000579408 0.0007928790539628430 -0.002651768818438665 -0.002705359984967146 
0.006366633617674367 -0.003135934257697085 -0.002556749553312700 -0.0008294095075481919 -0.0007645837142592854 
0.006366633617674367 -0.003135934257697085 -0.002556749553312700 -0.0008294095075481919 -0.0007645837142592854 
0.006366633617674367 -0.003135934257697085 -0.002556749553312700 -0.0008294095075481919 -0.0007645837142592854 
0.006615756988003502 -0.004177917534214693 0.0001402781357766306 -0.003173673978068590 -0.002946656028201096 
0.01978898804717300 -0.01420016308475547 -0.002104875295531499 -0.007454748381662032 -0.008065254531295593 
0.006366633617674367 -0.003135934257697085 -0.002556749553312700 -0.0008294095075481919 -0.0007645837142592854 
0.01238314504416577 -0.003598881713142939 -0.008270661688925731 -0.003811107352595846 -0.004226754226093814 
0.006366633617674367 -0.003135934257697085 -0.002556749553312700 -0.0008294095075481919 -0.0007645837142592854 
-0.01598112639663035 0.02401098187035224 -0.01616119681169406 -0.002574810533483242 -0.0005317721725581706 
0.006366633617674367 -0.003135934257697085 -0.002556749553312700 -0.0008294095075481919 -0.0007645837142592854 
0.01726580212447724 -0.02475177413196557 0.01350238549406978 -0.007624032428667606 -0.007825840140470166 
-0.0004731845841717462 0.006256613288744644 -0.01139424912398089 0.003825446542345925 -0.004515067303375047 
0.005677697157717354 -0.01615554581611385 0.005575461621582512 0.004980257853063066 -0.006076700452793135 
0.006366633617674367 -0.003135934257697085 -0.002556749553312700 -0.0008294095075481919 -0.0007645837142592854 
0.006366633617674367 -0.003135934257697085 -0.002556749553312700 -0.0008294095075481919 -0.0007645837142592854 
0.006366633617674367 -0.003135934257697085 -0.002556749553312700 -0.0008294095075481919 -0.0007645837142592854 
0.006366633617674367 -0.003135934257697085 -0.002556749553312700 -0.0008294095075481919 -0.0007645837142592854 
0.006366633617674367 -0.003135934257697085 -0.002556749553312700 -0.0008294095075481919 -0.0007645837142592854 
0.006366633617674367 -0.003135934257697085 -0.002556749553312700 -0.0008294095075481919 -0.0007645837142592854 
0.006366633617674367 -0.003135934257697085 -0.002556749553312700 -0.0008294095075481919 -0.0007645837142592854 
0.006366633617674367 -0.003135934257697085 -0.002556749553312700 -0.0008294095075481919 -0.0007645837142592854 
0.006366633617674367 -0.003135934257697085 -0.002556749553312700 -0.0008294095075481919 -0.0007645837142592854 
0.004925999674748571 -0.001325542325238254 0.003075167499921550 -0.002177721763476871 -0.001709437055135257 
0.006366633617674367 -0.003135934257697085 -0.002556749553312700 -0.0008294095075481919 -0.0007645837142592854 
0.006366633617674367 -0.003135934257697085 -0.002556749553312700 -0.0008294095075481919 -0.0007645837142592854 
-0.01882065709894171 0.007753629835715623 -0.01206220427584619 0.005724699841937792 -0.004838444588293876 
0.006366633617674367 -0.003135934257697085 -0.002556749553312700 -0.0008294095075481919 -0.0007645837142592854 
0.006366633617674367 -0.003135934257697085 -0.002556749553312700 -0.0008294095075481919 -0.0007645837142592854 
0.006366633617674367 -0.003135934257697085 -0.002556749553312700 -0.0008294095075481919 -0.0007645837142592854 
0.006366633617674367 -0.003135934257697085 -0.002556749553312700 -0.0008294095075481919 -0.0007645837142592854 
0.006366633617674367 -0.003135934257697085 -0.002556749553312700 -0.0008294095075481919 -0.0007645837142592854 
0.006366633617674367 -0.003135934257697085 -0.002556749553312700 -0.0008294095075481919 -0.0007645837142592854 
0.004689555024357325 -0.009588694629126343 -0.006101193744251312 0.009113138967583553 -0.003019225785603696 
0.007374046473760850 -0.003501597135953622 -0.003262044779484166 -0.0005170500314382816 -0.0002888670718035804 
0.02454814670461024 0.03120461711223537 -0.05048220665157727 -0.03244288096389608 -0.02095475279555618 
0.007374046473760850 -0.003501597135953622 -0.003262044779484166 -0.0005170500314382816 -0.0002888670718035804 
0.007374046473760850 -0.003501597135953622 -0.003262044779484166 -0.0005170500314382816 -0.0002888670718035804 
0.007374545018765928 -0.005781103334764045 -0.001579438936592101 -0.0005168130285821337 -0.0002902260171679426 
0.007374046473760850 -0.003501597135953622 -0.003262044779484166 -0.0005170500314382816 -0.0002888670718035804 
0.007374046473760850 -0.003501597135953622 -0.003262044779484166 -0.0005170500314382816 -0.0002888670718035804 
0.007374046473760850 -0.003501597135953622 -0.003262044779484166 -0.0005170500314382816 -0.0002888670718035804 
0.007374046473760850 -0.003501597135953622 -0.003262044779484166 -0.0005170500314382816 -0.0002888670718035804 
0.007374046473760850 -0.003501597135953622 -0.003262044779484166 -0.0005170500314382816 -0.0002888670718035804 
0.007374046473760850 -0.003501597135953622 -0.003262044779484166 -0.0005170500314382816 -0.0002888670718035804 
0.007374046473760850 -0.003501597135953622 -0.003262044779484166 -0.0005170500314382816 -0.0002888670718035804 
0.007374046473760850 -0.003501597135953622 -0.003262044779484166 -0.0005170500314382816 -0.0002888670718035804 
-0.0001022210274970046 0.006868831530850933 -0.005868949762846021 -0.001751689432708507 -0.001030924319023732 
0.007374046473760850 -0.003501597135953622 -0.003262044779484166 -0.0005170500314382816 -0.0002888670718035804 
-0.0002499423245187046 -0.006743749084967761 -0.006155369518867483 0.01438787182543015 0.003274700049380266 
0.007852627233923494 -0.003513638053445564 -0.008976845942280648 -0.01062458337712763 -0.003168135348321751 
0.003900367518059029 0.005568217056430641 -0.009273247825349771 -0.002981421607810353 -0.003483792105468100 
0.007374046473760850 -0.003501597135953622 -0.003262044779484166 -0.0005170500314382816 -0.0002888670718035804 
0.007374046473760850 -0.003501597135953622 -0.003262044779484166 -0.0005170500314382816 -0.0002888670718035804 
0.007374046473760850 -0.003501597135953622 -0.003262044779484166 -0.0005170500314382816 -0.0002888670718035804 
0.007374046473760850 -0.003501597135953622 -0.003262044779484166 -0.0005170500314382816 -0.0002888670718035804 
0.007374046473760850 -0.003501597135953622 -0.003262044779484166 -0.0005170500314382816 -0.0002888670718035804 
-0.02107386286251360 0.01061211394367637 0.01181759485191996 -0.01282924382246155 -0.003363786438503195 
0.007374046473760850 -0.003501597135953622 -0.003262044779484166 -0.0005170500314382816 -0.0002888670718035804 
-0.004046430919792904 0.01168054429282669 -0.003983137602665616 -0.001984133443581382 -0.0009056839112416304 
0.007374046473760850 -0.003501597135953622 -0.003262044779484166 -0.0005170500314382816 -0.0002888670718035804 
0.007374046473760850 -0.003501597135953622 -0.003262044779484166 -0.0005170500314382816 -0.0002888670718035804 
0.02244279174812465 -0.01644863958839873 -0.006366660756420170 -0.006319417527967713 0.002025862368651655 
0.007374046473760850 -0.003501597135953622 -0.003262044779484166 -0.0005170500314382816 -0.0002888670718035804 
0.005568580441644037 -0.01158740000265375 0.003931050750310848 -0.008480483873783670 -0.002567653529154222 
0.007374046473760850 -0.003501597135953622 -0.003262044779484166 -0.0005170500314382816 -0.0002888670718035804 
0.007374046473760850 -0.003501597135953622 -0.003262044779484166 -0.0005170500314382816 -0.0002888670718035804 
-0.004610774860231567 -0.0003318368233703446 0.009592633926132587 -0.004684707183535881 -0.003749947468686196 
0.007374046473760850 -0.003501597135953622 -0.003262044779484166 -0.0005170500314382816 -0.0002888670718035804 
0.007374046473760850 -0.003501597135953622 -0.003262044779484166 -0.0005170500314382816 -0.0002888670718035804 
0.03993486198499942 -0.02060644754709351 -0.01925785279082564 -0.008901581492487706 -0.007397009686145458 
0.007374046473760850 -0.003501597135953622 -0.003262044779484166 -0.0005170500314382816 -0.0002888670718035804 
0.007374046473760850 -0.003501597135953622 -0.003262044779484166 -0.0005170500314382816 -0.0002888670718035804 
0.007374046473760850 -0.003501597135953622 -0.003262044779484166 -0.0005170500314382816 -0.0002888670718035804 
0.007374046473760850 -0.003501597135953622 -0.003262044779484166 -0.0005170500314382816 -0.0002888670718035804 
0.009251369270542405 -0.005993504516836683 -0.004351726192849461 -0.003346898818803634 -0.003828445379679192 
0.005148656589973660 -0.007382231596950939 0.002613568110259976 -0.003346569307785128 -0.003827409536950295 
0.009251369270542405 -0.005993504516836683 -0.004351726192849461 -0.003346898818803634 -0.003828445379679192 
0.009251369270542405 -0.005993504516836683 -0.004351726192849461 -0.003346898818803634 -0.003828445379679192 
0.01710679699491862 -0.009622453464460725 -0.008914925762619200 -0.005472408432460028 -0.005324492617561214 
0.01947588206900057 -0.01276074911270842 -0.009386863916026547 -0.007383862249445123 -0.008100898932393122 
0.009251369270542405 -0.005993504516836683 -0.004351726192849461 -0.003346898818803634 -0.003828445379679192 
0.009251369270542405 -0.005993504516836683 -0.004351726192849461 -0.003346898818803634 -0.003828445379679192 
0.009251369270542405 -0.005993504516836683 -0.004351726192849461 -0.003346898818803634 -0.003828445379679192 
0.009251369270542405 -0.005993504516836683 -0.004351726192849461 -0.003346898818803634 -0.003828445379679192 
0.009251369270542405 -0.005993504516836683 -0.004351726192849461 -0.003346898818803634 -0.003828445379679192 
0.009251369270542405 -0.005993504516836683 -0.004351726192849461 -0.003346898818803634 -0.003828445379679192 
0.009251369270542405 -0.005993504516836683 -0.004351726192849461 -0.003346898818803634 -0.003828445379679192 
0.009251369270542405 -0.005993504516836683 -0.004351726192849461 -0.003346898818803634 -0.003828445379679192 
0.009251369270542405 -0.005993504516836683 -0.004351726192849461 -0.003346898818803634 -0.003828445379679192 
0.009251369270542405 -0.005993504516836683 -0.004351726192849461 -0.003346898818803634 -0.003828445379679192 
0.009251369270542405 -0.005993504516836683 -0.004351726192849461 -0.003346898818803634 -0.003828445379679192 
0.03318760122800332 -0.01949417827064155 -0.01961448422200507 -0.02540319659900639 -0.03522979597727979 
0.009251369270542405 -0.005993504516836683 -0.004351726192849461 -0.003346898818803634 -0.003828445379679192 
0.009251369270542405 -0.005993504516836683 -0.004351726192849461 -0.003346898818803634 -0.003828445379679192 
0.009251369270542405 -0.005993504516836683 -0.004351726192849461 -0.003346898818803634 -0.003828445379679192 
0.009251369270542405 -0.005993504516836683 -0.004351726192849461 -0.003346898818803634 -0.003828445379679192 
0.009251369270542405 -0.005993504516836683 -0.004351726192849461 -0.003346898818803634 -0.003828445379679192 
0.009251369270542405 -0.005993504516836683 -0.004351726192849461 -0.003346898818803634 -0.003828445379679192 
0.009251369270542405 -0.005993504516836683 -0.004351726192849461 -0.003346898818803634 -0.003828445379679192 
0.009251369270542405 -0.005993504516836683 -0.004351726192849461 -0.003346898818803634 -0.003828445379679192 
0.009251369270542405 -0.005993504516836683 -0.004351726192849461 -0.003346898818803634 -0.003828445379679192 
0.007271714000205316 -0.006954526785143174 0.001848253906101313 -0.002869043841066047 -0.002788239466104569 
0.01026602476069643 -0.006087771986554040 -0.004563477874286951 -0.002869707605237495 -0.002790001644734408 
0.002683854369280930 -0.002438109060185290 -0.008896530830288013 -0.005619860475392810 0.001985149581521147 
0.01026602476069643 -0.006087771986554040 -0.004563477874286951 -0.002869707605237495 -0.002790001644734408 
0.01026602476069643 -0.006087771986554040 -0.004563477874286951 -0.002869707605237495 -0.002790001644734408 
0.01962609837001575 -0.01194539340326995 -0.009223569271456062 -0.006686800459923522 -0.006839430489142011 
-0.02320945902077949 -0.0004301774766559159 0.009475468618496710 0.008858469927907214 -0.006850152403596715 
0.01026602476069643 -0.006087771986554040 -0.004563477874286951 -0.002869707605237495 -0.002790001644734408 
0.01026602476069643 -0.006087771986554040 -0.004563477874286951 -0.002869707605237495 -0.002790001644734408 
0.01026602476069643 -0.006087771986554040 -0.004563477874286951 -0.002869707605237495 -0.002790001644734408 
0.01026602476069643 -0.006087771986554040 -0.004563477874286951 -0.002869707605237495 -0.002790001644734408 
0.01026602476069643 -0.006087771986554040 -0.004563477874286951 -0.002869707605237495 -0.002790001644734408 
0.02816519061860977 -0.01865403897635291 -0.01410483139099081 -0.01971469870361596 -0.02027688886720816 
0.03044188693296793 -0.01483672418845406 -0.01251193086297998 -0.005776396393011870 -0.005311334149437322 
0.01026602476069643 -0.006087771986554040 -0.004563477874286951 -0.002869707605237495 -0.002790001644734408 
0.01026602476069643 -0.006087771986554040 -0.004563477874286951 -0.002869707605237495 -0.002790001644734408 
0.01026602476069643 -0.006087771986554040 -0.004563477874286951 -0.002869707605237495 -0.002790001644734408 
0.01026602476069643 -0.006087771986554040 -0.004563477874286951 -0.002869707605237495 -0.002790001644734408 
0.01875130228135081 -0.01023529412615061 -0.01028582142590437 -0.009133736315804516 -0.009746469757960992 
0.01026602476069643 -0.006087771986554040 -0.004563477874286951 -0.002869707605237495 -0.002790001644734408 
0.01026602476069643 -0.006087771986554040 -0.004563477874286951 -0.002869707605237495 -0.002790001644734408 
0.01026602476069643 -0.006087771986554040 -0.004563477874286951 -0.002869707605237495 -0.002790001644734408 
0.01026602476069643 -0.006087771986554040 -0.004563477874286951 -0.002869707605237495 -0.002790001644734408 
0.008396987951929042 -0.005436820690221928 -0.003852702123339496 -0.003120917168946015 -0.003916413229910466 
0.008396987951929042 -0.005436820690221928 -0.003852702123339496 -0.003120917168946015 -0.003916413229910466 
0.01368681813176408 -0.01270477092210116 -0.009240670575606347 -0.005366922021002728 0.0008804034967407991 
0.008396987951929042 -0.005436820690221928 -0.003852702123339496 -0.003120917168946015 -0.003916413229910466 
0.009041576732706039 -0.01672695937351383 -0.004372266855920046 -0.004988601042316548 0.008572550831557071 
0.008396987951929042 -0.005436820690221928 -0.003852702123339496 -0.003120917168946015 -0.003916413229910466 
0.008396987951929042 -0.005436820690221928 -0.003852702123339496 -0.003120917168946015 -0.003916413229910466 
0.008396987951929042 -0.005436820690221928 -0.003852702123339496 -0.003120917168946015 -0.003916413229910466 
0.008396987951929042 -0.005436820690221928 -0.003852702123339496 -0.003120917168946015 -0.003916413229910466 
0.008396987951929042 -0.005436820690221928 -0.003852702123339496 -0.003120917168946015 -0.003916413229910466 
0.008396987951929042 -0.005436820690221928 -0.003852702123339496 -0.003120917168946015 -0.003916413229910466 
0.008396987951929042 -0.005436820690221928 -0.003852702123339496 -0.003120917168946015 -0.003916413229910466 
0.008396987951929042 -0.005436820690221928 -0.003852702123339496 -0.003120917168946015 -0.003916413229910466 
0.008396987951929042 -0.005436820690221928 -0.003852702123339496 -0.003120917168946015 -0.003916413229910466 
0.008396987951929042 -0.005436820690221928 -0.003852702123339496 -0.003120917168946015 -0.003916413229910466 
0.005277712752392212 -0.007854222350859270 -0.006430913222608987 0.007196630956210040 -0.004116689776959707 
0.008396987951929042 -0.005436820690221928 -0.003852702123339496 -0.003120917168946015 -0.003916413229910466 
0.008396987951929042 -0.005436820690221928 -0.003852702123339496 -0.003120917168946015 -0.003916413229910466 
0.008396987951929042 -0.005436820690221928 -0.003852702123339496 -0.003120917168946015 -0.003916413229910466 
0.008396987951929042 -0.005436820690221928 -0.003852702123339496 -0.003120917168946015 -0.003916413229910466 
0.008396987951929042 -0.005436820690221928 -0.003852702123339496 -0.003120917168946015 -0.003916413229910466 
0.008396987951929042 -0.005436820690221928 -0.003852702123339496 -0.003120917168946015 -0.003916413229910466 
0.003395430387653494 0.01747721271029738 -0.03729808488422136 -0.01746422208598759 -0.007455094595007659 
0.008396987951929042 -0.005436820690221928 -0.003852702123339496 -0.003120917168946015 -0.003916413229910466 
-3.299664023911455e-06 0.005847946511297560 -0.007287642799616161 -0.004718863734729710 -0.005169785915755967 
0.008396987951929042 -0.005436820690221928 -0.003852702123339496 -0.003120917168946015 -0.003916413229910466 
0.008396987951929042 -0.005436820690221928 -0.003852702123339496 -0.003120917168946015 -0.003916413229910466 
0.008396987951929042 -0.005436820690221928 -0.003852702123339496 -0.003120917168946015 -0.003916413229910466 
0.008396987951929042 -0.005436820690221928 -0.003852702123339496 -0.003120917168946015 -0.003916413229910466 
0.008396987951929042 -0.005436820690221928 -0.003852702123339496 -0.003120917168946015 -0.003916413229910466 
-0.001768052768756249 -0.01762720969386828 0.004509893197876492 0.01247257587220605 -0.005697639619334794 
0.008168901819795927 0.001884449182416407 -0.01262974214992360 -0.008767053088280703 -0.009170337134219275 
-0.003978489687569102 -0.01064444671885125 0.006880875414925128 -0.005284285578021115 0.003185377011230034 
0.008150172330820157 -0.004983292155765301 -0.004259120846536886 -0.003224835633208234 -0.003579749461367667 
0.008150172330820157 -0.004983292155765301 -0.004259120846536886 -0.003224835633208234 -0.003579749461367667 
0.008150172330820157 -0.004983292155765301 -0.004259120846536886 -0.003224835633208234 -0.003579749461367667 
0.008150172330820157 -0.004983292155765301 -0.004259120846536886 -0.003224835633208234 -0.003579749461367667 
0.01033216628815865 0.004330156644184673 -0.02217023744573236 -0.01993696249345489 -0.01265655084802175 
0.008150172330820157 -0.004983292155765301 -0.004259120846536886 -0.003224835633208234 -0.003579749461367667 
0.008150172330820157 -0.004983292155765301 -0.004259120846536886 -0.003224835633208234 -0.003579749461367667 
0.008150172330820157 -0.004983292155765301 -0.004259120846536886 -0.003224835633208234 -0.003579749461367667 
0.008150172330820157 -0.004983292155765301 -0.004259120846536886 -0.003224835633208234 -0.003579749461367667 
0.008150172330820157 -0.004983292155765301 -0.004259120846536886 -0.003224835633208234 -0.003579749461367667 
0.008150172330820157 -0.004983292155765301 -0.004259120846536886 -0.003224835633208234 -0.003579749461367667 
0.008150172330820157 -0.004983292155765301 -0.004259120846536886 -0.003224835633208234 -0.003579749461367667 
0.01562485475417877 -0.008982785246092246 -0.006964706272343639 -0.003349491477285229 -0.003577203923919766 
0.008150172330820157 -0.004983292155765301 -0.004259120846536886 -0.003224835633208234 -0.003579749461367667 
0.008150172330820157 -0.004983292155765301 -0.004259120846536886 -0.003224835633208234 -0.003579749461367667 
0.008150172330820157 -0.004983292155765301 -0.004259120846536886 -0.003224835633208234 -0.003579749461367667 
0.008150172330820157 -0.004983292155765301 -0.004259120846536886 -0.003224835633208234 -0.003579749461367667 
0.01298603066363919 -0.005976188369239954 -0.009114749832750136 -0.01150904386144628 -0.01185516156022535 
0.008150172330820157 -0.004983292155765301 -0.004259120846536886 -0.003224835633208234 -0.003579749461367667 
0.004096304023079959 -0.005627805599429605 -0.005712287917735066 0.004817563783620175 -0.004188242860237918 
-0.003791202649350632 -0.02202680818640400 0.007340893368579712 0.007989882507711819 -0.01195171064976430 
0.007656726526574467 0.001527445392321934 -0.02277204280627193 -0.004670155763743031 -0.02917921485656367 
0.03244331670212881 -0.03153221010510252 -0.01020326411356512 -0.01663960291621454 -0.007916227253205043 
0.02053801068266322 -0.01355748422816121 -0.009533027036445152 -0.007879068333069880 -0.008216335801511248 
0.01022451279845817 -0.006767244595871739 -0.005035137723177086 -0.004036963430641490 -0.004272453552713929 
0.01022451279845817 -0.006767244595871739 -0.005035137723177086 -0.004036963430641490 -0.004272453552713929 
0.001689959699884203 0.006012634165048477 -0.009520912065289709 -0.006937977981260690 -0.007378248925998455 
0.01022451279845817 -0.006767244595871739 -0.005035137723177086 -0.004036963430641490 -0.004272453552713929 
0.01022451279845817 -0.006767244595871739 -0.005035137723177086 -0.004036963430641490 -0.004272453552713929 
0.01022451279845817 -0.006767244595871739 -0.005035137723177086 -0.004036963430641490 -0.004272453552713929 
0.01022451279845817 -0.006767244595871739 -0.005035137723177086 -0.004036963430641490 -0.004272453552713929 
0.01022451279845817 -0.006767244595871739 -0.005035137723177086 -0.004036963430641490 -0.004272453552713929 
0.01022451279845817 -0.006767244595871739 -0.005035137723177086 -0.004036963430641490 -0.004272453552713929 
0.01022451279845817 -0.006767244595871739 -0.005035137723177086 -0.004036963430641490 -0.004272453552713929 
0.01022451279845817 -0.006767244595871739 -0.005035137723177086 -0.004036963430641490 -0.004272453552713929 
0.01958413879679904 -0.01278681415417844 -0.009701056787522790 -0.007258006502865353 -0.008135405098399792 
0.01022451279845817 -0.006767244595871739 -0.005035137723177086 -0.004036963430641490 -0.004272453552713929 
-0.006489749459605496 0.009980648854593585 -0.01545721200948147 -0.01021643263041376 -0.0004759782872257165 
0.01022451279845817 -0.006767244595871739 -0.005035137723177086 -0.004036963430641490 -0.004272453552713929 
0.01022451279845817 -0.006767244595871739 -0.005035137723177086 -0.004036963430641490 -0.004272453552713929 
0.01022451279845817 -0.006767244595871739 -0.005035137723177086 -0.004036963430641490 -0.004272453552713929 
0.01022451279845817 -0.006767244595871739 -0.005035137723177086 -0.004036963430641490 -0.004272453552713929 
0.009467388922695240 -0.006638537040254995 -0.004712460976665642 -0.003520534173796034 -0.003845792333083850 
0.009467388922695240 -0.006638537040254995 -0.004712460976665642 -0.003520534173796034 -0.003845792333083850 
0.009467388922695240 -0.006638537040254995 -0.004712460976665642 -0.003520534173796034 -0.003845792333083850 
0.009467388922695240 -0.006638537040254995 -0.004712460976665642 -0.003520534173796034 -0.003845792333083850 
0.009467388922695240 -0.006638537040254995 -0.004712460976665642 -0.003520534173796034 -0.003845792333083850 
0.009467388922695240 -0.006638537040254995 -0.004712460976665642 -0.003520534173796034 -0.003845792333083850 
0.009467388922695240 -0.006638537040254995 -0.004712460976665642 -0.003520534173796034 -0.003845792333083850 
0.009467388922695240 -0.006638537040254995 -0.004712460976665642 -0.003520534173796034 -0.003845792333083850 
0.009467388922695240 -0.006638537040254995 -0.004712460976665642 -0.003520534173796034 -0.003845792333083850 
0.009467388922695240 -0.006638537040254995 -0.004712460976665642 -0.003520534173796034 -0.003845792333083850 
0.009467388922695240 -0.006638537040254995 -0.004712460976665642 -0.003520534173796034 -0.003845792333083850 
0.01733354670104832 -0.01077944919859709 -0.008612625153207239 -0.005500623213643517 -0.005359474139283584 
0.009467388922695240 -0.006638537040254995 -0.004712460976665642 -0.003520534173796034 -0.003845792333083850 
0.009467388922695240 -0.006638537040254995 -0.004712460976665642 -0.003520534173796034 -0.003845792333083850 
0.009467388922695240 -0.006638537040254995 -0.004712460976665642 -0.003520534173796034 -0.003845792333083850 
0.009467388922695240 -0.006638537040254995 -0.004712460976665642 -0.003520534173796034 -0.003845792333083850 
0.009467388922695240 -0.006638537040254995 -0.004712460976665642 -0.003520534173796034 -0.003845792333083850 
0.009467388922695240 -0.006638537040254995 -0.004712460976665642 -0.003520534173796034 -0.003845792333083850 
0.009467388922695240 -0.006638537040254995 -0.004712460976665642 -0.003520534173796034 -0.003845792333083850 
0.009467388922695240 -0.006638537040254995 -0.004712460976665642 -0.003520534173796034 -0.003845792333083850 
0.009467388922695240 -0.006638537040254995 -0.004712460976665642 -0.003520534173796034 -0.003845792333083850 
0.009467388922695240 -0.006638537040254995 -0.004712460976665642 -0.003520534173796034 -0.003845792333083850 
0.01246195539300014 -0.006055366001235190 -0.004834906519917399 -0.001379808824844628 -0.0008508623252891301 
0.006202922296263945 -0.003216578977872063 -0.001954063432768273 -0.0009100941182615037 -0.0007507521476077523 
0.006202922296263945 -0.003216578977872063 -0.001954063432768273 -0.0009100941182615037 -0.0007507521476077523 
0.006202922296263945 -0.003216578977872063 -0.001954063432768273 -0.0009100941182615037 -0.0007507521476077523 
0.006202922296263945 -0.003216578977872063 -0.001954063432768273 -0.0009100941182615037 -0.0007507521476077523 
0.006202922296263945 -0.003216578977872063 -0.001954063432768273 -0.0009100941182615037 -0.0007507521476077523 
0.006202922296263945 -0.003216578977872063 -0.001954063432768273 -0.0009100941182615037 -0.0007507521476077523 
0.006202922296263945 -0.003216578977872063 -0.001954063432768273 -0.0009100941182615037 -0.0007507521476077523 
0.006202922296263945 -0.003216578977872063 -0.001954063432768273 -0.0009100941182615037 -0.0007507521476077523 
0.006202922296263945 -0.003216578977872063 -0.001954063432768273 -0.0009100941182615037 -0.0007507521476077523 
0.02663787858877447 -0.01342285645274458 -0.01280422826357484 -0.006397596837654501 -0.01042622897880126 
0.006202922296263945 -0.003216578977872063 -0.001954063432768273 -0.0009100941182615037 -0.0007507521476077523 
0.006202922296263945 -0.003216578977872063 -0.001954063432768273 -0.0009100941182615037 -0.0007507521476077523 
0.006202922296263945 -0.003216578977872063 -0.001954063432768273 -0.0009100941182615037 -0.0007507521476077523 
-0.01515863600921064 0.03222451645303158 -0.02089002157125022 -0.002828987544831118 -0.01375844985621120 
0.006202922296263945 -0.003216578977872063 -0.001954063432768273 -0.0009100941182615037 -0.0007507521476077523 
0.006202922296263945 -0.003216578977872063 -0.001954063432768273 -0.0009100941182615037 -0.0007507521476077523 
0.006202922296263945 -0.003216578977872063 -0.001954063432768273 -0.0009100941182615037 -0.0007507521476077523 
0.006202922296263945 -0.003216578977872063 -0.001954063432768273 -0.0009100941182615037 -0.0007507521476077523 
0.006202922296263945 -0.003216578977872063 -0.001954063432768273 -0.0009100941182615037 -0.0007507521476077523 
0.006202922296263945 -0.003216578977872063 -0.001954063432768273 -0.0009100941182615037 -0.0007507521476077523 
0.006202922296263945 -0.003216578977872063 -0.001954063432768273 -0.0009100941182615037 -0.0007507521476077523 
0.001951254645396308 -0.004723570238032688 -0.002858392217163118 -0.0009097091859696347 0.007977351652994444 
0.006202922296263945 -0.003216578977872063 -0.001954063432768273 -0.0009100941182615037 -0.0007507521476077523 
0.006202922296263945 -0.003216578977872063 -0.001954063432768273 -0.0009100941182615037 -0.0007507521476077523 
0.006202922296263945 -0.003216578977872063 -0.001954063432768273 -0.0009100941182615037 -0.0007507521476077523 
0.005883630829229132 -0.003502690905705294 -0.002133995860395111 -0.001404305970191530 0.0002792997974720230 
0.006202922296263945 -0.003216578977872063 -0.001954063432768273 -0.0009100941182615037 -0.0007507521476077523 
0.006202922296263945 -0.003216578977872063 -0.001954063432768273 -0.0009100941182615037 -0.0007507521476077523 
0.006202922296263945 -0.003216578977872063 -0.001954063432768273 -0.0009100941182615037 -0.0007507521476077523 
0.006202922296263945 -0.003216578977872063 -0.001954063432768273 -0.0009100941182615037 -0.0007507521476077523 
-0.0004768357823389931 -0.02140117508724152 0.01914859573174248 0.001666802219883156 -0.01095864837075391 
0.008305228042930442 -0.01193495364346939 0.004687802753039831 -0.004734347039570009 -0.004317543102231319 
0.006202922296263945 -0.003216578977872063 -0.001954063432768273 -0.0009100941182615037 -0.0007507521476077523 
0.006202922296263945 -0.003216578977872063 -0.001954063432768273 -0.0009100941182615037 -0.0007507521476077523 
0.006202922296263945 -0.003216578977872063 -0.001954063432768273 -0.0009100941182615037 -0.0007507521476077523 
-0.01089506825445595 0.006634505311151357 -0.009081733693047380 0.004975090627129267 0.003550164918873390 
0.006202922296263945 -0.003216578977872063 -0.001954063432768273 -0.0009100941182615037 -0.0007507521476077523 
-0.03369075730504185 0.0004931277031098624 -0.01678691328207170 0.01218796077469809 0.01630999160026907 
0.006202922296263945 -0.003216578977872063 -0.001954063432768273 -0.0009100941182615037 -0.0007507521476077523 
0.006202922296263945 -0.003216578977872063 -0.001954063432768273 -0.0009100941182615037 -0.0007507521476077523 
-0.007306748915638845 0.007177913372943945 -0.01552938805908085 0.01184122151383858 -0.003831871638501768 
0.006202922296263945 -0.003216578977872063 -0.001954063432768273 -0.0009100941182615037 -0.0007507521476077523 
0.006202922296263945 -0.003216578977872063 -0.001954063432768273 -0.0009100941182615037 -0.0007507521476077523 
0.006202922296263945 -0.003216578977872063 -0.001954063432768273 -0.0009100941182615037 -0.0007507521476077523 
0.006202922296263945 -0.003216578977872063 -0.001954063432768273 -0.0009100941182615037 -0.0007507521476077523 
0.006202922296263945 -0.003216578977872063 -0.001954063432768273 -0.0009100941182615037 -0.0007507521476077523 
0.006202922296263945 -0.003216578977872063 -0.001954063432768273 -0.0009100941182615037 -0.0007507521476077523 
0.006202922296263945 -0.003216578977872063 -0.001954063432768273 -0.0009100941182615037 -0.0007507521476077523 
0.006202922296263945 -0.003216578977872063 -0.001954063432768273 -0.0009100941182615037 -0.0007507521476077523 
0.005275418523128344 -0.02166427690484722 0.007400553693284545 0.007948486344179600 -0.01824124267937380 
0.006202922296263945 -0.003216578977872063 -0.001954063432768273 -0.0009100941182615037 -0.0007507521476077523 
0.006202922296263945 -0.003216578977872063 -0.001954063432768273 -0.0009100941182615037 -0.0007507521476077523 
0.006202922296263945 -0.003216578977872063 -0.001954063432768273 -0.0009100941182615037 -0.0007507521476077523 
0.006202922296263945 -0.003216578977872063 -0.001954063432768273 -0.0009100941182615037 -0.0007507521476077523 
0.006202922296263945 -0.003216578977872063 -0.001954063432768273 -0.0009100941182615037 -0.0007507521476077523 
0.006202922296263945 -0.003216578977872063 -0.001954063432768273 -0.0009100941182615037 -0.0007507521476077523 
0.006202922296263945 -0.003216578977872063 -0.001954063432768273 -0.0009100941182615037 -0.0007507521476077523 
0.006202922296263945 -0.003216578977872063 -0.001954063432768273 -0.0009100941182615037 -0.0007507521476077523 
0.006202922296263945 -0.003216578977872063 -0.001954063432768273 -0.0009100941182615037 -0.0007507521476077523 
0.006202922296263945 -0.003216578977872063 -0.001954063432768273 -0.0009100941182615037 -0.0007507521476077523 
-0.01046845388254451 0.004997614086245889 -0.006197455609701819 -0.01570413309328206 -0.02133514970805333 
0.0008017538108727431 -0.01321514344460384 0.009303452350827204 -0.006271891266134163 -0.0003010379704293865 
0.003840091472358932 -0.004945390485138331 0.002255796352350101 -0.001389496753794383 -0.0007505059406475166 
0.01574442012696663 -0.008977537949590669 -0.006437703100640278 -0.003156483902610086 -0.004682039221558684 
0.006202922296263945 -0.003216578977872063 -0.001954063432768273 -0.0009100941182615037 -0.0007507521476077523 
-0.01023402666758880 0.002093453420210033 0.005362044051265425 0.001286857228436710 -0.008917282085925113 
0.01246195539300014 -0.006055366001235190 -0.004834906519917399 -0.001379808824844628 -0.0008508623252891301 
0.05388938218664031 -0.02477544207502985 -0.02282767825450984 -0.009207801104879223 -0.01134460968918051 
0.006202922296263945 -0.003216578977872063 -0.001954063432768273 -0.0009100941182615037 -0.0007507521476077523 
0.006202922296263945 -0.003216578977872063 -0.001954063432768273 -0.0009100941182615037 -0.0007507521476077523 
0.01117958762239453 -0.008530063247407897 -0.001313442198040524 -0.001608306936373344 -0.001134478497147197 
0.006202922296263945 -0.003216578977872063 -0.001954063432768273 -0.0009100941182615037 -0.0007507521476077523 
0.009088837672645149 -0.004960333647309964 -0.004404418746833582 -0.002699009774161204 -0.002412928602704083 
0.009088837672645149 -0.004960333647309964 -0.004404418746833582 -0.002699009774161204 -0.002412928602704083 
0.01211162743109487 -0.03067165585795603 0.008006166407509337 -0.01243426826433891 0.0006471767626259115 
-0.01776350138607553 -0.002195304374435969 0.01349930932834297 -0.001507171154578836 -0.008421760386158028 
0.02487208148471650 -0.01349910341365403 -0.01152696594840992 -0.007028716921926074 -0.006623388225666901 
0.009088837672645149 -0.004960333647309964 -0.004404418746833582 -0.002699009774161204 -0.002412928602704083 
0.009088837672645149 -0.004960333647309964 -0.004404418746833582 -0.002699009774161204 -0.002412928602704083 
-0.004646895043282364 0.003802671511250448 0.003910612110546110 -0.01028027826876971 -0.009319313621354103 
0.009088837672645149 -0.004960333647309964 -0.004404418746833582 -0.002699009774161204 -0.002412928602704083 
0.009088837672645149 -0.004960333647309964 -0.004404418746833582 -0.002699009774161204 -0.002412928602704083 
0.009088837672645149 -0.004960333647309964 -0.004404418746833582 -0.002699009774161204 -0.002412928602704083 
0.009088837672645149 -0.004960333647309964 -0.004404418746833582 -0.002699009774161204 -0.002412928602704083 
-0.01184661022027393 0.01813389803211451 -0.01802868522010339 -0.003934257072516681 -0.01527222178775054 
0.009088837672645149 -0.004960333647309964 -0.004404418746833582 -0.002699009774161204 -0.002412928602704083 
-0.03735641467664695 0.02183948962246871 0.001575170527614259 -0.007267618640197491 -0.03292473467760547 
0.009088837672645149 -0.004960333647309964 -0.004404418746833582 -0.002699009774161204 -0.002412928602704083 
0.009088837672645149 -0.004960333647309964 -0.004404418746833582 -0.002699009774161204 -0.002412928602704083 
0.009088837672645149 -0.004960333647309964 -0.004404418746833582 -0.002699009774161204 -0.002412928602704083 
0.009088837672645149 -0.004960333647309964 -0.004404418746833582 -0.002699009774161204 -0.002412928602704083 
0.009088837672645149 -0.004960333647309964 -0.004404418746833582 -0.002699009774161204 -0.002412928602704083 
0.009088837672645149 -0.004960333647309964 -0.004404418746833582 -0.002699009774161204 -0.002412928602704083 
0.009088837672645149 -0.004960333647309964 -0.004404418746833582 -0.002699009774161204 -0.002412928602704083 
0.009088837672645149 -0.004960333647309964 -0.004404418746833582 -0.002699009774161204 -0.002412928602704083 
0.009088837672645149 -0.004960333647309964 -0.004404418746833582 -0.002699009774161204 -0.002412928602704083 
0.009088837672645149 -0.004960333647309964 -0.004404418746833582 -0.002699009774161204 -0.002412928602704083 
0.009088837672645149 -0.004960333647309964 -0.004404418746833582 -0.002699009774161204 -0.002412928602704083 
0.009570773989856195 -0.005364035587731362 -0.004384245236197869 -0.002872611959060164 -0.003184663102490528 
-0.01424204161051481 -0.03694533403492176 0.04784719766422318 -0.006687119723985512 -0.01232870249169154 
0.009570773989856195 -0.005364035587731362 -0.004384245236197869 -0.002872611959060164 -0.003184663102490528 
0.009570773989856195 -0.005364035587731362 -0.004384245236197869 -0.002872611959060164 -0.003184663102490528 
0.03090466173264857 -0.01049875966710751 -0.02088186062949209 -0.01030447114067931 -0.009725601011071922 
0.006125511155212635 -0.007611892912026067 0.001444515950403775 -0.002872523062464761 -0.003184686362770486 
0.01553059919257693 -0.01267464288189820 -0.002605773907965508 -0.005364857725685871 -0.005914412876253447 
0.009570773989856195 -0.005364035587731362 -0.004384245236197869 -0.002872611959060164 -0.003184663102490528 
0.009570762148080567 -0.009740866457485514 0.0004238752960965085 -0.002872762186173300 -0.004040392984235734 
0.009570773989856195 -0.005364035587731362 -0.004384245236197869 -0.002872611959060164 -0.003184663102490528 
0.009570773989856195 -0.005364035587731362 -0.004384245236197869 -0.002872611959060164 -0.003184663102490528 
0.009570773989856195 -0.005364035587731362 -0.004384245236197869 -0.002872611959060164 -0.003184663102490528 
0.009570773989856195 -0.005364035587731362 -0.004384245236197869 -0.002872611959060164 -0.003184663102490528 
0.009570773989856195 -0.005364035587731362 -0.004384245236197869 -0.002872611959060164 -0.003184663102490528 
0.0001313150969533017 -0.006934300269963275 0.0002019795620850627 -0.001241143982199527 -0.009705775320801580 
-0.02182766660372652 0.02426097726410604 -0.02071026581032402 -0.02188374278372402 -0.006432339534866312 
0.01170267920311493 -0.01084271901958319 0.0002087258634122632 -0.007016270393423780 -0.005930044024955476 
-0.008963192813848624 -0.01551528425590014 -0.01139940009360028 0.01003289348388856 -0.007355864187417701 
0.009570773989856195 -0.005364035587731362 -0.004384245236197869 -0.002872611959060164 -0.003184663102490528 
0.009570773989856195 -0.005364035587731362 -0.004384245236197869 -0.002872611959060164 -0.003184663102490528 
0.009570773989856195 -0.005364035587731362 -0.004384245236197869 -0.002872611959060164 -0.003184663102490528 
0.01328815418574863 -0.009708794372105210 -0.01006000249510569 -0.004135477197212367 0.003054857108925233 
0.009570773989856195 -0.005364035587731362 -0.004384245236197869 -0.002872611959060164 -0.003184663102490528 
