solver_type L2R_L2LOSS_SVC
nr_class 3
label 0 1 2
nr_feature 14555
bias 1.000000000000000
w
0.006046374021939391 -0.0004293857364893310 -0.003607155552230575 
0.003164641449331305 -0.0001637110176861862 -0.001686333720725360 
-0.009439644165282198 0.01214498370469501 -0.005600447694753737 
0.003563572609350414 0.004057405433827006 -0.005820286984013582 
0.001595946635340470 -0.0001809239643824506 -0.0007073350199072136 
0.001595946635340470 -0.0001809239643824506 -0.0007073350199072136 
0.001595946635340470 -0.0001809239643824506 -0.0007073350199072136 
0.003164641449331305 -0.0001637110176861862 -0.001686333720725360 
0.001595946635340470 -0.0001809239643824506 -0.0007073350199072136 
0.003164641449331305 -0.0001637110176861862 -0.001686333720725360 
0.03867497194393170 -0.03906639389797522 -0.009035258981877549 
0.003164641449331305 -0.0001637110176861862 -0.001686333720725360 
-0.01274700970114772 -0.01639620159107241 0.02227510315973017 
0.003164641449331305 -0.0001637110176861862 -0.001686333720725360 
-0.01252552663146460 0.02456559590125675 -0.01646870409091876 
0.003164641449331305 -0.0001637110176861862 -0.001686333720725360 
-0.008861378845775201 -0.004124294510766327 0.01265890701309045 
0.01171506681259356 -0.01386441066683017 -0.008457752868010298 
0.006383136127546102 -0.02845946931838478 0.01449802758581342 
0.03626073016484875 -0.07491529210339645 -0.02829959029687456 
0.01384283385377240 0.003548033946738332 -0.03770006125453666 
-0.04681128222952916 0.05744185811810056 -0.01879964609161559 
-0.01296900936805027 0.004434682237912289 0.001581499141418485 
0.04912130089766943 -0.02047880019353150 -0.03469004696758391 
0.001595946635340470 -0.0001809239643824506 -0.0007073350199072136 
-0.05209673173902394 -0.08142914284755008 0.1066408250240060 
0.0003025575141560553 0.003197397802639576 -0.002984283084694736 
-0.0006416377079281263 -0.003672319277480978 0.005516283005480099 
0.009826216625195764 -0.01104512615170250 0.0002530701603355333 
0.002080276549349481 0.005107634704224549 -0.006416245153088523 
0.003835600529623126 0.004872311617511687 -0.007463002323711686 
0.003876981549041572 0.02180539589705819 -0.02790801267551100 
0.003164641449331305 -0.0001637110176861862 -0.001686333720725360 
-0.006540058077537049 0.03987095573257398 -0.06038867644150046 
-0.01693912878706936 0.04031318901740755 -0.02341937390447012 
0.003164641449331305 -0.0001637110176861862 -0.001686333720725360 
0.003164641449331305 -0.0001637110176861862 -0.001686333720725360 
0.003425379000811558 0.01419169899208183 -0.01897748897236309 
0.0007285080271912938 0.01510579691565207 -0.01783660016893262 
0.003164641449331305 -0.0001637110176861862 -0.001686333720725360 
-0.01259922001027087 -0.001015556198024243 0.009443579472998460 
-0.003775033381796482 -0.005364764454546612 0.01145084669181382 
-0.003115888883876945 0.001658838617487622 0.0009874373880349328 
-0.08580804532588030 0.05563362820596324 -0.009330592657556121 
0.009160687836383057 -0.0002113774639305175 -0.01215979501563353 
0.03001720180013870 -0.01552049309141225 -0.01994892419594085 
0.001595946635340470 -0.0001809239643824506 -0.0007073350199072136 
0.008457567762988942 -0.05528134163409257 0.03037001303178898 
0.008343296622773534 0.002321245697812857 -0.009831836655449900 
0.003164641449331305 -0.0001637110176861862 -0.001686333720725360 
-0.08185266074963815 0.1205603917123395 -0.05734582174481925 
0.002903107797080778 -0.003148104648878925 0.002469528573967479 
-0.001618847434996859 0.005502307497885169 -0.003075007543898585 
-0.008342806168712800 0.01659069915986282 -0.009686703890167436 
0.003164641449331305 -0.0001637110176861862 -0.001686333720725360 
0.01008267018719604 0.002234215932748414 -0.009836316139454220 
0.002311257857163283 -0.0001637910070749247 -0.0003766839017501208 
0.01369319616340403 -0.006314797674000747 -0.001420815022563856 
0.001595946635340470 -0.0001809239643824506 -0.0007073350199072136 
0.003844971504259290 -0.003142193010752142 0.002654139986593643 
0.02451699213243288 -0.02056695333055033 -0.01074705151220022 
0.01935985916540292 -0.002053925309439406 -0.01352008031621051 
0.08706704118540158 -0.1012896974111114 -0.01436080154679439 
0.02019220725437398 -0.02229654496286614 0.003723688209346547 
0.04200922608398770 -0.06365937664784187 0.01378914298292075 
-0.005930739186684828 -0.02107821527796577 0.01637135412534625 
0.05881809618195905 -0.02827318966379002 -0.03983901261494588 
0.02831085491872168 -0.01808763126832183 -0.01525818849020619 
-0.01138518263527426 -0.008752700144301177 0.02109775987107251 
0.03752625999813941 -0.01831914024156544 -0.02385787767633324 
0.007622873690659701 -0.01246508352641223 0.002671250114628811 
0.006046374021939391 -0.0004293857364893310 -0.003607155552230575 
0.008813714375039427 -0.001669814855166548 -0.006318615012961333 
0.003164641449331305 -0.0001637110176861862 -0.001686333720725360 
0.003958240713225804 -0.001601291235447228 -0.0009569869787181132 
0.003164641449331305 -0.0001637110176861862 -0.001686333720725360 
-0.0001409469105810254 0.006550800943452054 -0.003798875541652663 
0.01264047192742664 -0.009474006686537244 -0.004141265935088815 
0.005213834916997041 -0.007079531210104003 -0.005008770419953243 
0.009507338647017487 -0.002430419629417629 -0.005210967333660978 
0.1228067971875123 -0.06509047367761846 -0.06695511510248105 
-0.005456539236051492 0.004762372670037623 0.001584514625279482 
0.01038613617952841 -0.004744666654868852 -0.006277491863376209 
0.0007802565867541289 0.004021142542122921 -0.005653155412853903 
-0.01370528738783328 -0.003270182529886351 0.008804904796287545 
0.003164641449331305 -0.0001637110176861862 -0.001686333720725360 
0.003164641449331305 -0.0001637110176861862 -0.001686333720725360 
0.03167966926167941 -0.04242235151717814 0.003005937538998133 
0.003164641449331305 -0.0001637110176861862 -0.001686333720725360 
0.01375038383464486 -0.002120177500767404 -0.01194977748998748 
0.01194263357549095 -0.01652562282630965 -0.01051075600138201 
0.009783204653138422 -0.001868103910786089 -0.007676194663896436 
-0.0003602529978043458 0.009857364848910864 -0.008914207478256510 
0.001198635463793386 0.001702547472788545 -0.001692268902161002 
-0.007256452117511973 0.005563492472094289 -0.006209820922638856 
0.004737494478227666 -0.0009238041470501655 -0.005904748487622186 
0.01804214008959855 -0.01630623871015935 -0.002073010839486490 
0.003164641449331305 -0.0001637110176861862 -0.001686333720725360 
0.03110207164582468 -0.01550158122813158 -0.02459813736997960 
-0.01407934407769140 -0.003626193426990398 0.01717502835124591 
0.01279709535227537 -0.002440132632966476 -0.008749072292481390 
0.004306435940400954 -0.001474949553685154 0.0003978314607513919 
-0.0008160943024412511 -0.02447673428680862 0.008642146209052341 
0.007531690100264697 0.0004146018398727140 -0.01591786903348165 
0.09577234389893328 -0.05885205844913501 -0.04576479489349656 
0.01050802010905146 -0.001074631571438176 -0.01250328034512526 
0.001595946635340470 -0.0001809239643824506 -0.0007073350199072136 
0.03680991368762211 -0.01875208338614926 -0.02262476800054006 
0.06118748463358445 -0.1442507309378781 0.05538169014306298 
0.01144748712895366 -0.006672757671860912 -0.009276669217054258 
0.003164641449331305 -0.0001637110176861862 -0.001686333720725360 
0.04305967884025919 -0.03864901676526687 -0.01903787724052500 
0.01027907714394277 -0.003985631283186817 -0.004688047383050732 
0.003164641449331305 -0.0001637110176861862 -0.001686333720725360 
0.03066940489323868 -0.01229864899877076 -0.01907757928673922 
0.06941759110443428 -0.05476521173099490 -0.01447696072297579 
0.003164641449331305 -0.0001637110176861862 -0.001686333720725360 
0.007658043252665140 -0.001834597542342893 -0.006003902188807416 
0.04995655171155244 -0.02752835417722301 -0.02686262146455213 
-0.01030737019305412 0.01616989550474964 -0.008093144229721794 
0.06867867272453107 -0.02057595212904913 -0.04516545301377749 
0.001264819812034696 -0.003426270475955694 0.001277662865061412 
0.001595946635340470 -0.0001809239643824506 -0.0007073350199072136 
0.01314440392418812 0.001952922522300998 -0.01203728487513741 
-0.006470085130742577 -0.01328111916349447 0.01703098217184934 
-0.0002236132694873610 -0.0008992386747099808 0.0006986854086668777 
-0.01780806825643909 -0.04814239632755213 0.05826117270592284 
0.008235567454016959 -0.001239170213808992 -0.004245390067679978 
0.001467372035803708 0.004351140290872679 -0.003755437850530099 
0.01673627744683219 -0.01019314561539399 -0.006075206628049648 
0.01980578098745193 0.0008179640186900669 -0.01863152664748596 
0.02566798400549295 -0.01138268974726300 -0.01666206512576495 
0.0004153692887823180 0.003503899028847715 -0.005653505715587879 
0.007928491662286040 -0.001856425862706748 -0.005120367038487059 
0.03238893006713226 -0.01858146052711611 -0.01599902820800660 
0.02755482171849179 -0.01864272424164021 -0.01702246141698805 
0.05284886130622136 -0.01971976790388551 -0.05015334011052686 
0.03565534242138788 -0.03423942960179020 -0.02108455000453803 
0.05550538693651903 -0.01229704292432829 -0.05652620527404648 
-0.05226144674822649 -0.03097856060188326 0.04851169188271654 
-0.007250569392878471 0.005811981687975586 0.003102508553630484 
0.001595946635340470 -0.0001809239643824506 -0.0007073350199072136 
0.01108398623085191 -0.009993713244416879 -0.002029212516506102 
0.01108398623085191 -0.009993713244416879 -0.002029212516506102 
0.01108398623085191 -0.009993713244416879 -0.002029212516506102 
0.01067038518606852 -0.006668732622723128 -0.002715383213721696 
0.07129740641732780 -0.05767856761705872 -0.02663828126793779 
0.01108398623085191 -0.009993713244416879 -0.002029212516506102 
0.01108398623085191 -0.009993713244416879 -0.002029212516506102 
0.01108398623085191 -0.009993713244416879 -0.002029212516506102 
0.03500186106879687 -0.03501214354976619 -0.003643019052264649 
-0.08449916490413194 0.05634205879346835 -0.1250918907030459 
0.01486924342924941 -0.008972227602725149 -0.007186446899330143 
0.001977296661410433 0.01007064807875826 -0.07542029938811443 
-0.08967933078621125 0.1573325365619884 -0.1109991364400640 
0.01108398623085191 -0.009993713244416879 -0.002029212516506102 
0.01108398623085191 -0.009993713244416879 -0.002029212516506102 
0.01108398623085191 -0.009993713244416879 -0.002029212516506102 
0.01097189113963258 -0.006624359574437336 -0.006480397210472434 
0.01108398623085191 -0.009993713244416879 -0.002029212516506102 
0.01108398623085191 -0.009993713244416879 -0.002029212516506102 
0.01108398623085191 -0.009993713244416879 -0.002029212516506102 
0.01108398623085191 -0.009993713244416879 -0.002029212516506102 
0.02752977929935909 -0.05049501666129446 -0.005219297330717907 
0.01487296010377838 -0.01166469003356694 -0.004582220428624263 
0.01487296010377838 -0.01166469003356694 -0.004582220428624263 
0.01108398623085191 -0.009993713244416879 -0.002029212516506102 
0.01108398623085191 -0.009993713244416879 -0.002029212516506102 
0.04872261510353608 -0.04231447923788415 -0.01618316918776403 
0.02824004371707149 -0.01692521572116254 -0.009377519093701112 
0.01108398623085191 -0.009993713244416879 -0.002029212516506102 
0.01158952848833304 0.004910265676219276 -0.02151687499344675 
0.01584408576056809 -0.02341640326527024 0.003355934219114378 
0.01108398623085191 -0.009993713244416879 -0.002029212516506102 
0.04285389293671249 -0.03421253214193888 -0.01338928818361255 
0.01108398623085191 -0.009993713244416879 -0.002029212516506102 
0.01108398623085191 -0.009993713244416879 -0.002029212516506102 
0.01108398623085191 -0.009993713244416879 -0.002029212516506102 
0.01108398623085191 -0.009993713244416879 -0.002029212516506102 
0.01108398623085191 -0.009993713244416879 -0.002029212516506102 
0.03565700529849441 -0.03017883903612861 -0.006017401193618864 
0.01108398623085191 -0.009993713244416879 -0.002029212516506102 
0.01108398623085191 -0.009993713244416879 -0.002029212516506102 
0.01108398623085191 -0.009993713244416879 -0.002029212516506102 
0.01108398623085191 -0.009993713244416879 -0.002029212516506102 
-0.01348504786893123 0.03485064770680842 -0.03207090785974844 
0.01487296010377838 -0.01166469003356694 -0.004582220428624263 
0.007150040853428353 0.01190567366651194 -0.02274696740857395 
0.01108398623085191 -0.009993713244416879 -0.002029212516506102 
0.01108398623085191 -0.009993713244416879 -0.002029212516506102 
0.01108398623085191 -0.009993713244416879 -0.002029212516506102 
0.01108398623085191 -0.009993713244416879 -0.002029212516506102 
0.01108398623085191 -0.009993713244416879 -0.002029212516506102 
-0.04014956295467190 0.05391656907677596 -0.02237375715441802 
0.05702125116979839 -0.01726477267752036 -0.04536643963987485 
0.01108398623085191 -0.009993713244416879 -0.002029212516506102 
0.01487296010377838 -0.01166469003356694 -0.004582220428624263 
0.01108398623085191 -0.009993713244416879 -0.002029212516506102 
-0.001799649324776536 0.01329707984181706 -0.01080756702362821 
0.01108398623085191 -0.009993713244416879 -0.002029212516506102 
0.01108398623085191 -0.009993713244416879 -0.002029212516506102 
0.01727697668916882 -0.01316029773143554 -0.003922867094379911 
0.01108398623085191 -0.009993713244416879 -0.002029212516506102 
0.01108398623085191 -0.009993713244416879 -0.002029212516506102 
-0.006424413921219451 -0.01229267770906118 0.01267060304302326 
-0.02656951452041403 -0.002824601851235776 -0.001869650178862830 
0.02558009858071453 -0.02289574566926616 -0.006048957956145291 
0.01108398623085191 -0.009993713244416879 -0.002029212516506102 
0.01108398623085191 -0.009993713244416879 -0.002029212516506102 
0.01108398623085191 -0.009993713244416879 -0.002029212516506102 
0.01108398623085191 -0.009993713244416879 -0.002029212516506102 
-0.006599512554994612 0.06823276393918787 -0.07240393633282083 
0.01108398623085191 -0.009993713244416879 -0.002029212516506102 
0.01108398623085191 -0.009993713244416879 -0.002029212516506102 
0.01776665823532181 -0.01262779011682279 -0.005070361776057347 
0.01781121544182199 -0.01065878452741126 -0.007182703759969058 
0.01776665823532181 -0.01262779011682279 -0.005070361776057347 
0.01776665823532181 -0.01262779011682279 -0.005070361776057347 
0.0006284703246654018 -0.0001397777156956381 -0.005105224161570889 
0.01766211944233206 -0.02171108466029117 0.0002245253476552891 
-0.03157709539995268 -0.005793705777446698 -0.003244652959060195 
-0.01412856192863998 0.02960975842736952 -0.03091469965788607 
0.01542156492761141 -0.02235329812312288 0.005773108059488935 
-0.01038331531607823 0.02245473725503901 -0.02897544306637737 
0.007316879438909726 -0.01901370774330606 -0.004933822374621137 
0.01776665823532181 -0.01262779011682279 -0.005070361776057347 
-0.01631142568830328 -0.004805683035975398 -0.01328213293166755 
0.01776665823532181 -0.01262779011682279 -0.005070361776057347 
0.01776665823532181 -0.01262779011682279 -0.005070361776057347 
-0.006934179198431091 0.01846412562290824 -0.03846755073077471 
0.01186458031973794 -0.02188977429271679 0.007074836300293286 
0.05017467039707641 -0.03677938183482613 -0.01364872563949926 
0.01025291761409142 -0.01734687943399810 0.006837490807296051 
0.01776665823532181 -0.01262779011682279 -0.005070361776057347 
0.01776665823532181 -0.01262779011682279 -0.005070361776057347 
-0.001165861557201579 0.03442753873805644 -0.03777551977563991 
-0.009941053532000315 0.006043101283991307 -0.002379468044033392 
0.02871105070213146 -0.02469166057968908 -0.005980755196376072 
-0.01645109780932957 0.01176050644952083 -0.01550955102668053 
0.02436985238276355 -0.001969600160009337 -0.03473965096005099 
0.01776665823532181 -0.01262779011682279 -0.005070361776057347 
0.01776665823532181 -0.01262779011682279 -0.005070361776057347 
0.01776665823532181 -0.01262779011682279 -0.005070361776057347 
0.02605249661629339 -0.02969249851756534 0.003858760999046978 
0.01776665823532181 -0.01262779011682279 -0.005070361776057347 
0.02586459170023900 -0.009545145074515140 -0.01747578544714424 
0.01297272483358423 -0.01844072877516161 0.004757732525484256 
0.009276746904506862 -0.0003080331957725855 -0.01153625178354795 
0.05332783525215969 -0.02451382598057325 -0.03516162401567374 
0.01776665823532181 -0.01262779011682279 -0.005070361776057347 
0.01776665823532181 -0.01262779011682279 -0.005070361776057347 
0.003091691622757576 -0.02074911156538077 0.01000192498526664 
0.01776665823532181 -0.01262779011682279 -0.005070361776057347 
0.01776665823532181 -0.01262779011682279 -0.005070361776057347 
0.001736670512444623 -0.003251389609220841 -0.001352079188862497 
0.01776665823532181 -0.01262779011682279 -0.005070361776057347 
0.01776665823532181 -0.01262779011682279 -0.005070361776057347 
0.01776665823532181 -0.01262779011682279 -0.005070361776057347 
0.002565389975073719 -0.007457102247922024 -0.001134396645783822 
0.01776665823532181 -0.01262779011682279 -0.005070361776057347 
0.004373882230107690 -0.01352734850880904 2.916157925450904e-05 
0.01776665823532181 -0.01262779011682279 -0.005070361776057347 
0.03751708413077181 -0.002784949815732277 -0.03921342211461546 
0.007214922829324844 -0.004581036976673476 -0.004586394779626245 
0.007214922829324844 -0.004581036976673476 -0.004586394779626245 
9.864533640217898e-05 0.007587607074278227 -0.01432521855644144 
0.007214922829324844 -0.004581036976673476 -0.004586394779626245 
0.007214922829324844 -0.004581036976673476 -0.004586394779626245 
0.007214922829324844 -0.004581036976673476 -0.004586394779626245 
0.007214922829324844 -0.004581036976673476 -0.004586394779626245 
0.007214922829324844 -0.004581036976673476 -0.004586394779626245 
0.007214922829324844 -0.004581036976673476 -0.004586394779626245 
0.009695159797668405 -0.005883348320747487 -0.004590029910491172 
0.007214922829324844 -0.004581036976673476 -0.004586394779626245 
0.003407473557361662 -0.006621385163808657 0.003737447070520272 
0.007221494730197099 -0.004580955637182665 -0.004591158142650848 
0.007214922829324844 -0.004581036976673476 -0.004586394779626245 
0.007214922829324844 -0.004581036976673476 -0.004586394779626245 
0.007214922829324844 -0.004581036976673476 -0.004586394779626245 
0.02370788673243145 -0.06648011681824352 0.03346701588947351 
0.004994957177520723 -0.06261790796432001 0.02946033432615230 
0.007214922829324844 -0.004581036976673476 -0.004586394779626245 
-0.01820471900770921 0.002921299598718120 0.002124420477533056 
0.007214922829324844 -0.004581036976673476 -0.004586394779626245 
0.03802154108950331 -0.007957015851615618 -0.02760211821515507 
0.05899828968498859 -0.02805476421175120 -0.03685964705983667 
-0.008262070649625555 0.05473140893319983 -0.06157702430824202 
-0.001038670283204766 -0.004580932280154681 0.001070638261202631 
0.007214922829324844 -0.004581036976673476 -0.004586394779626245 
0.007214922829324844 -0.004581036976673476 -0.004586394779626245 
0.007214922829324844 -0.004581036976673476 -0.004586394779626245 
0.007214922829324844 -0.004581036976673476 -0.004586394779626245 
0.007214922829324844 -0.004581036976673476 -0.004586394779626245 
0.007214922829324844 -0.004581036976673476 -0.004586394779626245 
0.007214922829324844 -0.004581036976673476 -0.004586394779626245 
-0.003668228680310755 -0.01046544448423460 0.01259506491249315 
0.007214922829324844 -0.004581036976673476 -0.004586394779626245 
0.03556127023195742 -0.01931260514972121 -0.02292408979025175 
0.01760480165685818 -0.01988597709974016 -0.002561949666893456 
0.007214922829324844 -0.004581036976673476 -0.004586394779626245 
0.007214922829324844 -0.004581036976673476 -0.004586394779626245 
0.07353702221675033 -0.04860111191625856 -0.04099820007037762 
0.007221494730197099 -0.004580955637182665 -0.004591158142650848 
0.007214922829324844 -0.004581036976673476 -0.004586394779626245 
0.005008296633551478 0.001669731369134603 -0.009104990026804063 
0.007214922829324844 -0.004581036976673476 -0.004586394779626245 
0.007223408481144882 -0.004580875257245590 -0.004577946967105938 
0.007214922829324844 -0.004581036976673476 -0.004586394779626245 
0.007214922829324844 -0.004581036976673476 -0.004586394779626245 
0.007214922829324844 -0.004581036976673476 -0.004586394779626245 
0.007214922829324844 -0.004581036976673476 -0.004586394779626245 
0.007214922829324844 -0.004581036976673476 -0.004586394779626245 
0.01010322730280518 -0.004846630355985810 -0.006511979974156064 
0.007214922829324844 -0.004581036976673476 -0.004586394779626245 
0.007214922829324844 -0.004581036976673476 -0.004586394779626245 
0.007214922829324844 -0.004581036976673476 -0.004586394779626245 
0.007214922829324844 -0.004581036976673476 -0.004586394779626245 
0.009509318993212870 -0.004672570580402699 -0.006635299882921356 
0.009118691373829504 -0.005348307311946640 -0.004749312940759675 
-0.01306061228444020 0.002482390828697178 0.004319462326945017 
0.007214922829324844 -0.004581036976673476 -0.004586394779626245 
0.007214922829324844 -0.004581036976673476 -0.004586394779626245 
0.007214922829324844 -0.004581036976673476 -0.004586394779626245 
-0.02459431955759343 -0.03324180263369111 0.04142153776785619 
0.007214922829324844 -0.004581036976673476 -0.004586394779626245 
0.007214922829324844 -0.004581036976673476 -0.004586394779626245 
0.007214922829324844 -0.004581036976673476 -0.004586394779626245 
0.007214922829324844 -0.004581036976673476 -0.004586394779626245 
0.004776535561970030 -0.001296634023304899 -0.006034827193457975 
0.007214922829324844 -0.004581036976673476 -0.004586394779626245 
0.007214922829324844 -0.004581036976673476 -0.004586394779626245 
0.007214922829324844 -0.004581036976673476 -0.004586394779626245 
0.01065967972803417 -0.005801126822491553 -0.01059257678146504 
0.2085297775353868 -0.1004199813248487 -0.1181405045370795 
0.05079216325441589 -0.02003455793169413 -0.03574944256066081 
0.007214922829324844 -0.004581036976673476 -0.004586394779626245 
0.007214922829324844 -0.004581036976673476 -0.004586394779626245 
0.007214922829324844 -0.004581036976673476 -0.004586394779626245 
0.008958637829664747 -0.01493899625259047 0.002972446406664389 
0.01608130308612844 -0.007885619361542456 -0.01220800930774408 
0.007214922829324844 -0.004581036976673476 -0.004586394779626245 
0.007214922829324844 -0.004581036976673476 -0.004586394779626245 
0.007214922829324844 -0.004581036976673476 -0.004586394779626245 
0.007214922829324844 -0.004581036976673476 -0.004586394779626245 
0.007214922829324844 -0.004581036976673476 -0.004586394779626245 
-0.003859716890234749 -0.008135249807046746 0.005877372880487435 
0.008432127054631330 -0.01079696539894228 -0.01247659798222955 
0.007214922829324844 -0.004581036976673476 -0.004586394779626245 
0.007214922829324844 -0.004581036976673476 -0.004586394779626245 
0.009520738602246786 -0.0005369268869500312 -0.009618891512829315 
0.005663915289774895 -0.004581069446960408 -0.002885941379810331 
0.005043880190637808 -0.003904327497952697 -0.001790758694376669 
0.007214922829324844 -0.004581036976673476 -0.004586394779626245 
0.007214922829324844 -0.004581036976673476 -0.004586394779626245 
0.007214922829324844 -0.004581036976673476 -0.004586394779626245 
0.01200923501688786 -0.008138046656765952 -0.006127046826551850 
0.007221494730197099 -0.004580955637182665 -0.004591158142650848 
0.007214922829324844 -0.004581036976673476 -0.004586394779626245 
0.007214922829324844 -0.004581036976673476 -0.004586394779626245 
0.01322182004521166 -0.008711613622840630 -0.004910361382406137 
0.01156159587011885 -0.01095681818947637 -0.0004689794668566462 
0.05420632784205709 -0.03017067734157658 -0.02493914370742183 
0.01322182004521166 -0.008711613622840630 -0.004910361382406137 
-0.0009174451576824149 -0.008340688567081795 0.001662829826056125 
0.01322182004521166 -0.008711613622840630 -0.004910361382406137 
0.01322182004521166 -0.008711613622840630 -0.004910361382406137 
0.007110233359765715 -0.01422044421809095 0.006100494315141362 
0.01322182004521166 -0.008711613622840630 -0.004910361382406137 
0.01322182004521166 -0.008711613622840630 -0.004910361382406137 
0.01322182004521166 -0.008711613622840630 -0.004910361382406137 
0.03676624664440798 -0.03749073816546923 -0.008815914554174211 
0.04565597687362544 -0.06084874747623015 0.008194432971221690 
0.01322182004521166 -0.008711613622840630 -0.004910361382406137 
0.01322182004521166 -0.008711613622840630 -0.004910361382406137 
0.01322182004521166 -0.008711613622840630 -0.004910361382406137 
0.01322182004521166 -0.008711613622840630 -0.004910361382406137 
0.01322182004521166 -0.008711613622840630 -0.004910361382406137 
0.02857805241435840 -0.01504401810586883 -0.01648848788921333 
0.05667201623280776 -0.04021958618551498 -0.01889692881527752 
-0.003813557123372472 0.0009023211213644104 0.003864019192524988 
0.01322182004521166 -0.008711613622840630 -0.004910361382406137 
0.005337391654709178 -0.03048085684681554 0.02107093120282417 
0.01641877427286486 -0.01470430951383067 -0.003187309438630866 
-0.03374291617551532 0.02174004756264832 -0.007204273924635692 
-0.004274228935718251 0.007583529782609104 -0.01654410049815609 
0.01502125130329316 -0.009689985336577830 -0.009141714748514900 
0.01322182004521166 -0.008711613622840630 -0.004910361382406137 
0.01322182004521166 -0.008711613622840630 -0.004910361382406137 
0.01258511031351754 -0.002870428118048289 -0.01079587829847169 
0.01322182004521166 -0.008711613622840630 -0.004910361382406137 
0.02869508513001736 -0.01869761116999206 -0.01198610504377909 
0.01322182004521166 -0.008711613622840630 -0.004910361382406137 
-0.009081393676555584 -0.006520577570016881 -0.01186310553404164 
0.01322182004521166 -0.008711613622840630 -0.004910361382406137 
0.01322182004521166 -0.008711613622840630 -0.004910361382406137 
0.02737542521744606 -0.01653353024646929 -0.01132859988227682 
0.02831933938741611 -0.01590008927817544 -0.01161542086369125 
-0.01309428199973324 -0.06634704229831725 0.06376742635234349 
0.01322182004521166 -0.008711613622840630 -0.004910361382406137 
0.01322182004521166 -0.008711613622840630 -0.004910361382406137 
0.01322182004521166 -0.008711613622840630 -0.004910361382406137 
-0.02694302011798565 0.03547786590026916 -0.03537553176165896 
0.01322182004521166 -0.008711613622840630 -0.004910361382406137 
0.006223234854470298 0.009129395544513008 -0.01960189915613798 
0.01322182004521166 -0.008711613622840630 -0.004910361382406137 
0.01322182004521166 -0.008711613622840630 -0.004910361382406137 
0.01322182004521166 -0.008711613622840630 -0.004910361382406137 
0.01322182004521166 -0.008711613622840630 -0.004910361382406137 
0.01322182004521166 -0.008711613622840630 -0.004910361382406137 
0.01322182004521166 -0.008711613622840630 -0.004910361382406137 
0.01322182004521166 -0.008711613622840630 -0.004910361382406137 
0.01322182004521166 -0.008711613622840630 -0.004910361382406137 
0.01322182004521166 -0.008711613622840630 -0.004910361382406137 
0.0002500120648358194 0.01130751471033847 -0.01203710083075882 
-0.01069056390303789 -0.02719923039212120 0.03059800551813215 
0.05025620527127449 -0.03571686541916234 -0.01790559644913317 
0.02958137695369585 -0.01154726150543794 -0.02109626548841498 
0.04481051803121176 -0.01643224317519569 -0.03873677144430854 
0.0005032514793618346 -0.001894937558119442 -0.009598680087414255 
-0.02762931774592462 -0.009868050022537931 0.03422856078044492 
0.01138960189347857 0.007604534475761869 -0.01908230873421462 
0.06979757020241731 -0.04059030228968094 -0.03431443799097001 
0.007111585498683751 -0.003457547788322568 -0.004836620080916091 
0.02161261890864728 -0.007517141408034605 -0.01855911235206149 
0.02457109010941111 -0.01314649076165156 -0.01527981424338325 
0.007111585498683751 -0.003457547788322568 -0.004836620080916091 
0.007660566731505397 -0.001322813367681525 -0.005818395496229269 
0.007111585498683751 -0.003457547788322568 -0.004836620080916091 
-0.02923994291096387 0.03672425819010327 -0.01438936001738266 
0.02785404273614530 -0.04014478405106341 0.002809745558620863 
0.007111585498683751 -0.003457547788322568 -0.004836620080916091 
0.007111585498683751 -0.003457547788322568 -0.004836620080916091 
0.007111585498683751 -0.003457547788322568 -0.004836620080916091 
0.007111585498683751 -0.003457547788322568 -0.004836620080916091 
0.03908238016177507 -0.01943316229532259 -0.02223912752337864 
0.007111585498683751 -0.003457547788322568 -0.004836620080916091 
0.007111585498683751 -0.003457547788322568 -0.004836620080916091 
0.02284255583731238 -0.01983395924775006 -0.01427952049665405 
0.007111585498683751 -0.003457547788322568 -0.004836620080916091 
0.007111585498683751 -0.003457547788322568 -0.004836620080916091 
0.007111585498683751 -0.003457547788322568 -0.004836620080916091 
0.003414153779741421 0.007373434295531509 -0.01951189672725742 
0.007111585498683751 -0.003457547788322568 -0.004836620080916091 
0.08317276949285671 -0.02117736816158342 -0.07536638898091540 
0.007111585498683751 -0.003457547788322568 -0.004836620080916091 
0.007111585498683751 -0.003457547788322568 -0.004836620080916091 
0.007111585498683751 -0.003457547788322568 -0.004836620080916091 
0.007111585498683751 -0.003457547788322568 -0.004836620080916091 
0.007111585498683751 -0.003457547788322568 -0.004836620080916091 
0.007111585498683751 -0.003457547788322568 -0.004836620080916091 
0.007111585498683751 -0.003457547788322568 -0.004836620080916091 
0.007111585498683751 -0.003457547788322568 -0.004836620080916091 
0.007111585498683751 -0.003457547788322568 -0.004836620080916091 
0.007431510692772074 -0.02683539903725556 0.01422751630658915 
0.007111585498683751 -0.003457547788322568 -0.004836620080916091 
0.004087109310524383 -0.003303221384887283 -0.007689087093940766 
0.04668023094463324 -0.02441761129347612 -0.03714886004209440 
0.03514749974769699 0.006791989521863151 -0.05194637666940959 
0.007111585498683751 -0.003457547788322568 -0.004836620080916091 
0.02617716925567088 0.03003309114952250 -0.06605847671530000 
0.007111585498683751 -0.003457547788322568 -0.004836620080916091 
0.007111585498683751 -0.003457547788322568 -0.004836620080916091 
0.02285961143391699 -0.03384238878289100 0.002143180052628328 
0.01311869397781054 -0.004679158345626635 -0.007969725688664902 
0.007111585498683751 -0.003457547788322568 -0.004836620080916091 
0.007111585498683751 -0.003457547788322568 -0.004836620080916091 
-0.01910525443824291 0.04252139187661447 -0.03974394430994243 
-0.02038105441877431 -0.03945803091606743 0.03586802547890262 
0.05129990772102762 -0.03197025650585691 -0.01870611479856211 
0.007111585498683751 -0.003457547788322568 -0.004836620080916091 
0.01667099627860674 -0.01322767950116056 -0.003920578812015591 
0.02234558000638690 -0.02188533325532343 -0.003330302670125568 
0.02371915720085448 -0.01304765732598979 -0.02030982947770985 
0.01667099627860674 -0.01322767950116056 -0.003920578812015591 
0.01667099627860674 -0.01322767950116056 -0.003920578812015591 
0.01822515764720442 -0.01395346151734981 -0.004675589690248738 
0.02134549738088548 -0.01451718290515765 -0.01129875603132254 
0.01667099627860674 -0.01322767950116056 -0.003920578812015591 
0.02896123216534735 -0.01484065598388649 -0.01446721576620872 
0.01667099627860674 -0.01322767950116056 -0.003920578812015591 
0.02466686970283621 -0.02275121662390615 -0.003948965734645901 
0.01667099627860674 -0.01322767950116056 -0.003920578812015591 
0.01667099627860674 -0.01322767950116056 -0.003920578812015591 
0.01375652703643850 -0.007042571849302358 -0.007130261279559770 
0.01667099627860674 -0.01322767950116056 -0.003920578812015591 
0.004384883736309737 -0.002421514945888394 -0.004017799005024133 
0.01667099627860674 -0.01322767950116056 -0.003920578812015591 
0.01732137453578532 -0.05078946735013694 0.01186435144660826 
0.01667099627860674 -0.01322767950116056 -0.003920578812015591 
0.01698474416846639 0.002145132706848634 -0.02388493765549912 
0.01667099627860674 -0.01322767950116056 -0.003920578812015591 
0.01667099627860674 -0.01322767950116056 -0.003920578812015591 
0.01667099627860674 -0.01322767950116056 -0.003920578812015591 
0.01667099627860674 -0.01322767950116056 -0.003920578812015591 
0.02098494889326778 -0.01483217664797004 -0.006375608802873829 
0.03757622553750077 -0.02881145664483514 -0.01699513332742571 
-0.02348662646582283 0.005395461044806775 0.002601735441731784 
0.01667099627860674 -0.01322767950116056 -0.003920578812015591 
0.008572172469908674 -0.008648817870388901 -0.0008822703938944458 
-0.001341052247218470 -0.01286124154839511 0.009819584622999353 
0.02525549097784498 -0.01407505016485164 -0.01604942044341086 
0.03399805391652583 -0.01573300048869229 -0.01818066962791522 
0.02181596228249189 -0.01225270615888287 -0.01060037727430857 
0.01547326508480571 -0.009985997547151423 -0.007075743661372953 
0.01547326508480571 -0.009985997547151423 -0.007075743661372953 
0.01250689145940516 0.003324276984793478 -0.01674370893946996 
0.01547326508480571 -0.009985997547151423 -0.007075743661372953 
0.01279353818054565 -0.01276085745712248 -0.002211829572357812 
0.01547326508480571 -0.009985997547151423 -0.007075743661372953 
0.01373193844534586 -0.01842984656777508 0.002632700171918692 
0.01403448097161210 -0.03074333040649838 0.01380740452421223 
0.01547326508480571 -0.009985997547151423 -0.007075743661372953 
0.03180557750649620 0.009973917861315210 -0.04417101729112530 
0.01547326508480571 -0.009985997547151423 -0.007075743661372953 
0.01547326508480571 -0.009985997547151423 -0.007075743661372953 
0.004886403166625421 -0.03411676861823049 0.02366496457719761 
0.02952993697983581 -0.04197849529008382 0.01360589518714919 
0.01547326508480571 -0.009985997547151423 -0.007075743661372953 
0.01547326508480571 -0.009985997547151423 -0.007075743661372953 
0.01547326508480571 -0.009985997547151423 -0.007075743661372953 
0.01547326508480571 -0.009985997547151423 -0.007075743661372953 
0.01547326508480571 -0.009985997547151423 -0.007075743661372953 
0.01547326508480571 -0.009985997547151423 -0.007075743661372953 
0.07272481541831373 -0.01696880291450915 -0.07611073957910638 
0.01547326508480571 -0.009985997547151423 -0.007075743661372953 
0.01547326508480571 -0.009985997547151423 -0.007075743661372953 
0.01547326508480571 -0.009985997547151423 -0.007075743661372953 
0.006226275380497068 0.001353591489232556 -0.01371990257889852 
0.007548584674682127 0.001351370221663430 -0.01381418506518131 
0.01181116190662621 0.0007434921505027716 -0.01421872836863031 
0.01547326508480571 -0.009985997547151423 -0.007075743661372953 
0.01547326508480571 -0.009985997547151423 -0.007075743661372953 
-0.02174583794272373 -0.01749447163253602 0.02395093141471823 
0.01334361189787951 -0.01312482051803610 -0.002121523623758664 
0.01547326508480571 -0.009985997547151423 -0.007075743661372953 
0.01547326508480571 -0.009985997547151423 -0.007075743661372953 
0.01547326508480571 -0.009985997547151423 -0.007075743661372953 
-0.03287876446419579 -0.03077378752951523 0.04819859558093203 
0.01547326508480571 -0.009985997547151423 -0.007075743661372953 
0.01547326508480571 -0.009985997547151423 -0.007075743661372953 
0.01547326508480571 -0.009985997547151423 -0.007075743661372953 
0.01547326508480571 -0.009985997547151423 -0.007075743661372953 
0.01547326508480571 -0.009985997547151423 -0.007075743661372953 
0.01357596314543507 -0.02492711559023010 0.005425743900506567 
0.01547326508480571 -0.009985997547151423 -0.007075743661372953 
0.01547326508480571 -0.009985997547151423 -0.007075743661372953 
0.002183290734746787 0.001768059204536673 -0.007573742878868432 
0.01547326508480571 -0.009985997547151423 -0.007075743661372953 
0.01547326508480571 -0.009985997547151423 -0.007075743661372953 
0.01547326508480571 -0.009985997547151423 -0.007075743661372953 
0.01547326508480571 -0.009985997547151423 -0.007075743661372953 
0.01547326508480571 -0.009985997547151423 -0.007075743661372953 
0.01547326508480571 -0.009985997547151423 -0.007075743661372953 
0.03452125602770889 -0.01601467482650908 -0.02656032306978153 
0.01547326508480571 -0.009985997547151423 -0.007075743661372953 
0.01459954903416933 -0.01070168351285045 -0.006971570991375488 
0.01547326508480571 -0.009985997547151423 -0.007075743661372953 
0.01547326508480571 -0.009985997547151423 -0.007075743661372953 
0.01547326508480571 -0.009985997547151423 -0.007075743661372953 
0.01547326508480571 -0.009985997547151423 -0.007075743661372953 
0.01547326508480571 -0.009985997547151423 -0.007075743661372953 
0.01547326508480571 -0.009985997547151423 -0.007075743661372953 
0.07392868741645552 -0.08166230894710562 -0.008025384384576346 
0.0006660409234373299 -0.0005619631589286520 -0.0007211726169853846 
0.01015444921435831 -0.008215820958047496 -0.004045018093417445 
-0.01634752139626176 -0.004905007994146162 0.01986127203958586 
0.0006673502770043488 -0.001383877802362639 -0.0007189719283389875 
-0.001312811075587819 0.003238248531866527 -0.004733409958057922 
0.0006660409234373299 -0.0005619631589286520 -0.0007211726169853846 
-0.0002411667185587611 0.0007397241780611845 -0.0007233066882024965 
0.0006660409234373299 -0.0005619631589286520 -0.0007211726169853846 
0.009266523265206477 -0.006759937786593199 -0.0008210856506469187 
0.0006660409234373299 -0.0005619631589286520 -0.0007211726169853846 
0.0006660409234373299 -0.0005619631589286520 -0.0007211726169853846 
0.0006660409234373299 -0.0005619631589286520 -0.0007211726169853846 
-0.002248428318730916 0.005623144492929546 -0.003930855084529564 
0.0006660409234373299 -0.0005619631589286520 -0.0007211726169853846 
0.1142872922167686 -0.05134953688360436 -0.07251571109654756 
0.0006660409234373299 -0.0005619631589286520 -0.0007211726169853846 
0.03643106356339414 -0.09307442322879633 0.03270032545238615 
0.02088105119350027 -0.01249419664316668 -0.008705479710498730 
0.0006660409234373299 -0.0005619631589286520 -0.0007211726169853846 
0.0006660409234373299 -0.0005619631589286520 -0.0007211726169853846 
0.0006660409234373299 -0.0005619631589286520 -0.0007211726169853846 
0.0006660409234373299 -0.0005619631589286520 -0.0007211726169853846 
-0.008200760841270022 0.01939847465624837 -0.02069474818697043 
-0.001461903744314738 -0.002575960386973073 0.003292917493057984 
0.01516125850455057 -0.005221704588428810 -0.01404132355012423 
0.007597206758464078 -0.004294428011583898 -0.006044796281875656 
0.004693306337517806 -0.02815010107952826 0.01415881441914670 
0.0007100848991036176 0.006626547070557565 -0.007293619094491124 
0.0006660409234373299 -0.0005619631589286520 -0.0007211726169853846 
0.0006660409234373299 -0.0005619631589286520 -0.0007211726169853846 
0.004327585311495498 0.009327967073559340 -0.02178622887221665 
0.0006660409234373299 -0.0005619631589286520 -0.0007211726169853846 
-0.01801406979912130 -0.05620477860888907 0.06416810827289880 
0.02246673168524785 -0.01747487656625662 -0.008055527542261869 
0.003832892479896815 -0.001383676991580085 -0.006366930499312959 
0.06314218844038806 -0.02907414368108104 -0.04529572126193434 
0.0006660409234373299 -0.0005619631589286520 -0.0007211726169853846 
0.0006670400885142163 -0.001383438835529417 -0.0007154523892599510 
0.0006660409234373299 -0.0005619631589286520 -0.0007211726169853846 
0.0006660409234373299 -0.0005619631589286520 -0.0007211726169853846 
0.01778585313320855 0.002551195984117946 -0.02153552660396176 
-0.03401221798402685 0.01559577051768650 0.01214297115122926 
0.0006660409234373299 -0.0005619631589286520 -0.0007211726169853846 
0.0006660409234373299 -0.0005619631589286520 -0.0007211726169853846 
0.06110780444586571 -0.02164651091554278 -0.04396445663389492 
0.0006660409234373299 -0.0005619631589286520 -0.0007211726169853846 
0.004194216136195667 -0.002352585718384884 -0.002715947000822570 
0.04715573452605626 -0.03539900357100718 -0.01943271614804977 
-0.0001481254671840185 0.01176193319290373 -0.01441489527993109 
0.0006660409234373299 -0.0005619631589286520 -0.0007211726169853846 
0.0006660409234373299 -0.0005619631589286520 -0.0007211726169853846 
0.02602580844283419 0.006086423269489862 -0.03706662851564935 
0.0006660409234373299 -0.0005619631589286520 -0.0007211726169853846 
-0.01354830774588699 0.02175279985984283 -0.02637732783434778 
-0.003052946639982692 -0.001383952496355257 0.002579687974919925 
0.0006660409234373299 -0.0005619631589286520 -0.0007211726169853846 
0.007528664199506717 0.002289275727994075 -0.01670868759305432 
0.003031270358763740 -0.002776374966639973 -0.0006892370616510015 
0.01026770528557826 -0.008708305907370744 -1.650749489434179e-06 
0.01026770528557826 -0.008708305907370744 -1.650749489434179e-06 
0.01026770528557826 -0.008708305907370744 -1.650749489434179e-06 
0.01026770528557826 -0.008708305907370744 -1.650749489434179e-06 
0.01026770528557826 -0.008708305907370744 -1.650749489434179e-06 
0.004371158907679195 -0.01097715437662103 0.007843151973017506 
0.01170927868317463 0.002438827522224790 -0.03456308318099836 
0.007723861331520794 -0.01329384597046260 0.005634930116184860 
0.01026770528557826 -0.008708305907370744 -1.650749489434179e-06 
-0.004535570816974305 0.004713635329991365 0.0005584156081665580 
0.01289787115387513 -0.03209123745955589 0.01567999327191952 
0.01026770528557826 -0.008708305907370744 -1.650749489434179e-06 
0.01026770528557826 -0.008708305907370744 -1.650749489434179e-06 
0.01026770528557826 -0.008708305907370744 -1.650749489434179e-06 
0.01026770528557826 -0.008708305907370744 -1.650749489434179e-06 
0.01026770528557826 -0.008708305907370744 -1.650749489434179e-06 
0.01026770528557826 -0.008708305907370744 -1.650749489434179e-06 
-0.02102131698043135 0.03935547082631824 -0.02233441275085851 
0.01026770528557826 -0.008708305907370744 -1.650749489434179e-06 
0.01026770528557826 -0.008708305907370744 -1.650749489434179e-06 
0.01026770528557826 -0.008708305907370744 -1.650749489434179e-06 
0.008599837254557725 -0.004813368442729767 -0.002594027570077046 
0.005558647918508151 -0.01374903528903720 0.006952861067318630 
0.01026770528557826 -0.008708305907370744 -1.650749489434179e-06 
0.01503434235547631 -0.01049105665426398 -0.002650362113335467 
0.0009883674254226272 0.002346407111158968 -0.005019809147745421 
0.01005037286386349 -0.005337255099155285 -0.003933017168345796 
0.007354404388273478 -0.001615800500365960 -0.003469362333731625 
0.01026770528557826 -0.008708305907370744 -1.650749489434179e-06 
-0.0008184139071002786 0.009265769790923828 -0.008654534968542078 
0.01435588729560326 -0.02016677320977120 0.007318691791130164 
0.01026770528557826 -0.008708305907370744 -1.650749489434179e-06 
0.01026770528557826 -0.008708305907370744 -1.650749489434179e-06 
0.007233173359157176 -0.005046130317040575 -4.985121840772688e-06 
0.01026770528557826 -0.008708305907370744 -1.650749489434179e-06 
-0.007396914953196322 0.01708009712386475 -0.01389308852694708 
-0.0006630163044477618 0.009094355166750903 -0.008393623589391974 
0.01197864850782623 -0.008639528504258089 -0.002653878958109664 
0.01026770528557826 -0.008708305907370744 -1.650749489434179e-06 
0.05390111731281703 -0.01106374074927363 -0.04883264576773946 
0.004187375926906873 0.007733537654135111 -0.01553256357679215 
0.01026770528557826 -0.008708305907370744 -1.650749489434179e-06 
0.01026770528557826 -0.008708305907370744 -1.650749489434179e-06 
0.01026770528557826 -0.008708305907370744 -1.650749489434179e-06 
0.01026770528557826 -0.008708305907370744 -1.650749489434179e-06 
0.01026770528557826 -0.008708305907370744 -1.650749489434179e-06 
0.01026770528557826 -0.008708305907370744 -1.650749489434179e-06 
0.01026770528557826 -0.008708305907370744 -1.650749489434179e-06 
0.01026770528557826 -0.008708305907370744 -1.650749489434179e-06 
0.01026770528557826 -0.008708305907370744 -1.650749489434179e-06 
0.01026770528557826 -0.008708305907370744 -1.650749489434179e-06 
0.02016431228186123 -0.01591970323470126 -0.003307698821669593 
0.01026770528557826 -0.008708305907370744 -1.650749489434179e-06 
0.01026770528557826 -0.008708305907370744 -1.650749489434179e-06 
0.02161543523105089 -0.01648024926114990 -0.0006777880170294123 
0.01026770528557826 -0.008708305907370744 -1.650749489434179e-06 
0.01026770528557826 -0.008708305907370744 -1.650749489434179e-06 
0.007617440549959532 -0.01853410511199273 0.01448077500279232 
0.01026770528557826 -0.008708305907370744 -1.650749489434179e-06 
0.03173081974067805 -0.02161341823731197 -0.01108513473282402 
0.01026770528557826 -0.008708305907370744 -1.650749489434179e-06 
0.02764300783258572 -0.02218772503331077 -0.005539665741818110 
-0.008485375074761131 -0.001097501973694804 0.006065713862090190 
0.01026770528557826 -0.008708305907370744 -1.650749489434179e-06 
0.004545195661503371 0.001221574324784023 -0.006311276792251999 
-0.01672395445698320 -0.02666856870279004 0.03380623870935776 
0.01026770528557826 -0.008708305907370744 -1.650749489434179e-06 
0.01026770528557826 -0.008708305907370744 -1.650749489434179e-06 
0.01026770528557826 -0.008708305907370744 -1.650749489434179e-06 
0.03014845730912084 -0.02243906294707881 -0.009017973205382439 
0.01026770528557826 -0.008708305907370744 -1.650749489434179e-06 
0.01026770528557826 -0.008708305907370744 -1.650749489434179e-06 
0.006152223884503587 -0.004735210898169115 -0.002345356338186369 
0.01559667700707559 -0.009482068077842683 -0.006632039751935165 
-0.001669001052201770 0.007103737634381251 -0.003924798358843648 
0.01026770528557826 -0.008708305907370744 -1.650749489434179e-06 
0.01026770528557826 -0.008708305907370744 -1.650749489434179e-06 
0.005067151673283862 0.02216848611055115 -0.03541501927561604 
0.01026770528557826 -0.008708305907370744 -1.650749489434179e-06 
0.01026770528557826 -0.008708305907370744 -1.650749489434179e-06 
0.01026770528557826 -0.008708305907370744 -1.650749489434179e-06 
0.01026770528557826 -0.008708305907370744 -1.650749489434179e-06 
0.01394698737206016 -0.008086518936098151 -0.005018617906949315 
0.01394679187486797 -0.009508677113701290 -0.003191459020860132 
0.01394679187486797 -0.009508677113701290 -0.003191459020860132 
0.02024631952733539 -0.02245648358763799 0.002960113552590533 
0.01394679187486797 -0.009508677113701290 -0.003191459020860132 
-0.001219232199870104 -0.008838279829682289 0.004321076796070181 
0.01394679187486797 -0.009508677113701290 -0.003191459020860132 
0.01394679187486797 -0.009508677113701290 -0.003191459020860132 
0.03603970105210063 -0.03945401086142470 -0.01100455537393705 
0.03065407551014602 -0.02197686567993236 -0.01187321988392789 
0.01394679187486797 -0.009508677113701290 -0.003191459020860132 
0.01394679187486797 -0.009508677113701290 -0.003191459020860132 
0.01624118803875600 -0.009600210717430514 -0.005240364124155243 
0.007145203323999572 0.006530910553592196 -0.01293747685928797 
0.03411492247899025 -0.02075181675779569 -0.01628037991804280 
0.007058370212836020 0.0002949013856980913 -0.01056456440176239 
0.01575942085874163 -0.004497601073593631 -0.01412265772051750 
0.01394679187486797 -0.009508677113701290 -0.003191459020860132 
0.01619026526373172 -0.007729230084344237 -0.004093741502224938 
0.01394679187486797 -0.009508677113701290 -0.003191459020860132 
0.01394679187486797 -0.009508677113701290 -0.003191459020860132 
0.01394679187486797 -0.009508677113701290 -0.003191459020860132 
0.01394679187486797 -0.009508677113701290 -0.003191459020860132 
0.01394679187486797 -0.009508677113701290 -0.003191459020860132 
0.01686309977877731 -0.005903795383876452 -0.01035547709116470 
0.01394679187486797 -0.009508677113701290 -0.003191459020860132 
-0.003192621179722430 -0.007431466837821211 0.004397260611963961 
0.04329734915413262 -0.02478208293095592 -0.02060481458756798 
0.01394679187486797 -0.009508677113701290 -0.003191459020860132 
0.01394679187486797 -0.009508677113701290 -0.003191459020860132 
0.01394679187486797 -0.009508677113701290 -0.003191459020860132 
-0.003866286915609789 -0.0007796762885042657 -0.003056558630946034 
0.01394679187486797 -0.009508677113701290 -0.003191459020860132 
0.01394679187486797 -0.009508677113701290 -0.003191459020860132 
-0.003007967037324551 -0.003850305888173459 0.0005264433748792086 
0.01834532757765259 -0.009017354597706152 -0.009291334907679907 
0.02025336089599972 -0.008238040695627329 -0.01669273184474767 
0.01394679187486797 -0.009508677113701290 -0.003191459020860132 
0.01394679187486797 -0.009508677113701290 -0.003191459020860132 
0.01394679187486797 -0.009508677113701290 -0.003191459020860132 
0.01394679187486797 -0.009508677113701290 -0.003191459020860132 
0.01394679187486797 -0.009508677113701290 -0.003191459020860132 
0.01394679187486797 -0.009508677113701290 -0.003191459020860132 
0.01394679187486797 -0.009508677113701290 -0.003191459020860132 
0.1287951708595694 -0.06615402141734725 -0.07713015327616068 
0.001225825287082236 -0.001081056184875048 -0.03228502526430641 
-0.005548403136086881 -0.003433551167486666 0.008472506282960797 
-3.657344709849358e-06 3.385670013393863e-07 9.775031180809867e-06 
-0.01240211222393887 -0.01526932088749860 0.01816051491973844 
-3.657344709849358e-06 3.385670013393863e-07 9.775031180809867e-06 
0.001966731069422694 -0.0002656758924626003 -0.0007061315537313836 
-3.657344709849358e-06 3.385670013393863e-07 9.775031180809867e-06 
-3.657344709849358e-06 3.385670013393863e-07 9.775031180809867e-06 
0.005951655344783498 -0.02089357365994566 -0.003618876540405301 
-0.05808600440806101 0.06735568406988410 -0.02778936503915528 
-3.657344709849358e-06 3.385670013393863e-07 9.775031180809867e-06 
0.01911454118067866 -0.01397469889281391 -0.005087106775474314 
-3.657344709849358e-06 3.385670013393863e-07 9.775031180809867e-06 
0.007972130164530336 -0.01861564212337782 -0.003064135788909194 
0.03154206222889972 -0.05976808349669186 0.01426289120569480 
0.009662631622428395 -0.001039528469289009 -0.01080764632693829 
-0.02032513076042486 -0.01014935265793027 0.02209430135182322 
0.05274433192552137 -0.02690692663627143 -0.02768750599766649 
-3.657344709849358e-06 3.385670013393863e-07 9.775031180809867e-06 
-0.008146998140690974 -0.04191091561620820 0.03253764522257281 
-0.01033616509513339 0.04036257647199969 -0.05052971511241344 
0.02694971313633598 -0.006922046917844201 -0.02529140776877583 
0.04459745425179602 -0.03095842567004595 -0.02834382921557256 
-0.01415898971925411 0.01751902099059399 -0.005696201248324532 
0.01055836793376418 -0.02833286016203183 0.01621286367681690 
0.02011674296597445 -0.009666220158489999 -0.01301534795597273 
-3.657344709849358e-06 3.385670013393863e-07 9.775031180809867e-06 
0.002675804086864663 0.01605976058236002 -0.02269646287842427 
-3.657344709849358e-06 3.385670013393863e-07 9.775031180809867e-06 
-0.0003794771442583500 -0.004841922718875468 0.003610649785158011 
0.01117772817504054 -0.006254096338412092 -0.005242199978596059 
0.07972539246620979 -0.04383955162262501 -0.04720042588925893 
-0.02770426497045506 0.0008740378974841053 0.02202915426974858 
-0.01120907158907210 0.0006116355846860986 0.005117839998033123 
0.004370153070205727 -0.01845972285042184 0.007795229891682996 
2.463420524684943e-06 3.675555404165426e-07 1.041158833185005e-05 
-0.01487230536421219 0.002862015704353898 0.006782298314789644 
0.005018401729450741 8.676661253836342e-05 -0.008329687331308426 
0.0004386625227306898 -0.01004068527973386 0.001273895472439898 
0.006444004963494712 -0.004358564682445800 -0.003813487538543971 
0.01306579562436517 -0.001745242358732782 -0.01440962163754775 
0.03888920252268998 -0.02113877701835073 -0.02101780486389064 
-0.0004957942370381758 0.003179005272556949 -0.01414549911596379 
0.01091733119080765 0.01505996265781764 -0.02980186130091968 
-0.001187462738628584 1.217326220632081e-06 0.001808592857430110 
0.006781128743988793 -0.01528361476518769 0.007118422979400099 
0.006436133272344285 0.001378789065732981 -0.008945146795650524 
0.01579715521953107 -0.006197666196379160 -0.01279050870680078 
0.01474826657185633 -0.005426171447021478 -0.006639259686911231 
0.002469041663582388 -0.001300664116944803 1.180886404031081e-05 
0.009689544520633753 -0.008426295348604180 -0.008638310510954648 
0.002379100728049692 -0.0009407998673497778 -0.0007069966450707935 
0.02894701915694565 -0.008499470171499527 -0.02179459755019667 
0.06863746726748914 -0.03576686440080890 -0.03838507348368630 
-0.005877097139498874 -0.005940567927411535 0.007196988271082972 
0.06852477258381819 -0.02190506289025449 -0.05561700715172948 
-0.001988423094601869 0.01078559599950875 -0.01008427284293727 
-3.657344709849358e-06 3.385670013393863e-07 9.775031180809867e-06 
-3.657344709849358e-06 3.385670013393863e-07 9.775031180809867e-06 
0.01805222486041860 -0.04327566857053944 0.01414625359933408 
0.01074918980148375 -0.005923753882239402 -0.005248526054754395 
0.01074918980148375 -0.005923753882239402 -0.005248526054754395 
0.02547365733613369 -0.01697072237808210 -0.01242045892886125 
0.005716378839042758 -0.02013036311110976 0.007629357963627756 
0.01074918980148375 -0.005923753882239402 -0.005248526054754395 
0.01074918980148375 -0.005923753882239402 -0.005248526054754395 
0.008670476614959672 -0.0009526132293099917 -0.009247774679346737 
0.001633807321917909 0.008168469338257314 -0.01075401184429673 
0.01141660982805574 -0.01468464351016965 0.002669830234241537 
0.01074918980148375 -0.005923753882239402 -0.005248526054754395 
0.01074918980148375 -0.005923753882239402 -0.005248526054754395 
0.01074918980148375 -0.005923753882239402 -0.005248526054754395 
0.01074918980148375 -0.005923753882239402 -0.005248526054754395 
0.01074918980148375 -0.005923753882239402 -0.005248526054754395 
0.008834405929996233 -0.009906845724799827 0.0003533215087149152 
0.01074918980148375 -0.005923753882239402 -0.005248526054754395 
0.01074918980148375 -0.005923753882239402 -0.005248526054754395 
0.01074918980148375 -0.005923753882239402 -0.005248526054754395 
0.01074918980148375 -0.005923753882239402 -0.005248526054754395 
0.01074918980148375 -0.005923753882239402 -0.005248526054754395 
0.01074918980148375 -0.005923753882239402 -0.005248526054754395 
0.01074918980148375 -0.005923753882239402 -0.005248526054754395 
0.01074918980148375 -0.005923753882239402 -0.005248526054754395 
0.01074918980148375 -0.005923753882239402 -0.005248526054754395 
0.01074918980148375 -0.005923753882239402 -0.005248526054754395 
0.01074918980148375 -0.005923753882239402 -0.005248526054754395 
0.01074918980148375 -0.005923753882239402 -0.005248526054754395 
0.004255374759090835 -0.02115569487411741 0.006156911370584972 
0.01074918980148375 -0.005923753882239402 -0.005248526054754395 
0.01074918980148375 -0.005923753882239402 -0.005248526054754395 
0.01074918980148375 -0.005923753882239402 -0.005248526054754395 
0.01074918980148375 -0.005923753882239402 -0.005248526054754395 
0.01074918980148375 -0.005923753882239402 -0.005248526054754395 
0.01074918980148375 -0.005923753882239402 -0.005248526054754395 
0.01727274941560429 -0.002777301636270020 -0.01843989926043894 
0.05748929784417164 -0.03617524851499899 -0.02674963591961468 
0.006981312417374454 -0.01315903243862420 0.003843131647195454 
0.01074918980148375 -0.005923753882239402 -0.005248526054754395 
0.06065566663086400 -0.04389136120694989 -0.01729044058655191 
0.01074918980148375 -0.005923753882239402 -0.005248526054754395 
0.01074918980148375 -0.005923753882239402 -0.005248526054754395 
-0.02566136966032873 0.04280694889747461 -0.02346178316370783 
0.01074918980148375 -0.005923753882239402 -0.005248526054754395 
0.01074918980148375 -0.005923753882239402 -0.005248526054754395 
0.01074918980148375 -0.005923753882239402 -0.005248526054754395 
0.004576089474458238 0.002447487501653921 -0.008171132017911706 
0.01074918980148375 -0.005923753882239402 -0.005248526054754395 
0.01074918980148375 -0.005923753882239402 -0.005248526054754395 
-0.003397416336823174 -0.04199484261950926 0.04321079415857088 
0.01074918980148375 -0.005923753882239402 -0.005248526054754395 
0.01074918980148375 -0.005923753882239402 -0.005248526054754395 
0.01074918980148375 -0.005923753882239402 -0.005248526054754395 
0.01074918980148375 -0.005923753882239402 -0.005248526054754395 
0.01074918980148375 -0.005923753882239402 -0.005248526054754395 
-0.002111065988794350 0.003665456342586265 -0.005105885609915405 
-0.01201141288720792 -0.009188954403336046 0.01385503639496567 
0.006275542689088463 -0.01180964794617884 0.003607965265938790 
0.01074918980148375 -0.005923753882239402 -0.005248526054754395 
0.01074918980148375 -0.005923753882239402 -0.005248526054754395 
0.01074918980148375 -0.005923753882239402 -0.005248526054754395 
0.01074918980148375 -0.005923753882239402 -0.005248526054754395 
0.01074918980148375 -0.005923753882239402 -0.005248526054754395 
0.006352618731026413 -0.009846082980713426 0.001046833462211377 
0.01074918980148375 -0.005923753882239402 -0.005248526054754395 
0.01074918980148375 -0.005923753882239402 -0.005248526054754395 
0.01074918980148375 -0.005923753882239402 -0.005248526054754395 
0.01074918980148375 -0.005923753882239402 -0.005248526054754395 
-0.01695217281132851 0.03741940612312632 -0.03198904644349642 
0.01074918980148375 -0.005923753882239402 -0.005248526054754395 
0.01074918980148375 -0.005923753882239402 -0.005248526054754395 
0.005813245132380990 -0.005923839352011382 -0.0001496940556559806 
0.01074918980148375 -0.005923753882239402 -0.005248526054754395 
0.01074918980148375 -0.005923753882239402 -0.005248526054754395 
-0.04213951965336905 0.03492439267104842 -0.01220597050070938 
-0.006628695680383055 0.01008219682552649 -0.004132655437472371 
0.01074918980148375 -0.005923753882239402 -0.005248526054754395 
0.01074918980148375 -0.005923753882239402 -0.005248526054754395 
0.02295311843195856 -0.03594919167531709 0.008609808252201371 
0.01074918980148375 -0.005923753882239402 -0.005248526054754395 
0.01074918980148375 -0.005923753882239402 -0.005248526054754395 
0.005414093772335297 -0.004640241751133239 -0.001324828209437539 
0.01129442914841409 -0.009220203944927011 -0.005596074849643296 
0.002940118516373858 -0.003337410100735196 -0.001322436902518179 
0.01129442914841409 -0.009220203944927011 -0.005596074849643296 
0.01217368619322417 -0.02089869581888550 0.005960341179574848 
0.002940118516373858 -0.003337410100735196 -0.001322436902518179 
0.002940118516373858 -0.003337410100735196 -0.001322436902518179 
-0.0009809235717850770 0.007663893846727245 -0.007623918895877099 
0.002940118516373858 -0.003337410100735196 -0.001322436902518179 
0.04675410978213167 -0.0001532398871638378 -0.06372298024327216 
0.002940118516373858 -0.003337410100735196 -0.001322436902518179 
0.002940118516373858 -0.003337410100735196 -0.001322436902518179 
0.002940118516373858 -0.003337410100735196 -0.001322436902518179 
0.002940118516373858 -0.003337410100735196 -0.001322436902518179 
0.002940118516373858 -0.003337410100735196 -0.001322436902518179 
0.006813943405190763 -0.01613856633972116 0.006914143226583466 
0.002940118516373858 -0.003337410100735196 -0.001322436902518179 
0.002940118516373858 -0.003337410100735196 -0.001322436902518179 
0.003385495399441761 -0.01998581731970961 0.01113597834020144 
0.002940118516373858 -0.003337410100735196 -0.001322436902518179 
0.002940118516373858 -0.003337410100735196 -0.001322436902518179 
0.002940118516373858 -0.003337410100735196 -0.001322436902518179 
0.002940118516373858 -0.003337410100735196 -0.001322436902518179 
0.02340233708265823 -0.01647338730923330 -0.01263539337908393 
0.002940118516373858 -0.003337410100735196 -0.001322436902518179 
0.002940118516373858 -0.003337410100735196 -0.001322436902518179 
0.002940118516373858 -0.003337410100735196 -0.001322436902518179 
0.002940118516373858 -0.003337410100735196 -0.001322436902518179 
0.002940118516373858 -0.003337410100735196 -0.001322436902518179 
0.002940118516373858 -0.003337410100735196 -0.001322436902518179 
0.002940118516373858 -0.003337410100735196 -0.001322436902518179 
0.002940118516373858 -0.003337410100735196 -0.001322436902518179 
0.007728899591231431 -0.008778378529212963 0.0004563539472626200 
0.01879342701278496 -0.003756794056439874 -0.01792545953523446 
0.002940118516373858 -0.003337410100735196 -0.001322436902518179 
0.002940118516373858 -0.003337410100735196 -0.001322436902518179 
0.002940118516373858 -0.003337410100735196 -0.001322436902518179 
0.002940118516373858 -0.003337410100735196 -0.001322436902518179 
0.006468293729132195 -0.005128032660191428 -0.003317211286355364 
0.0003920165572331736 -0.009940555330476575 0.007299733533730503 
0.002940118516373858 -0.003337410100735196 -0.001322436902518179 
0.002940118516373858 -0.003337410100735196 -0.001322436902518179 
0.002940118516373858 -0.003337410100735196 -0.001322436902518179 
0.002940118516373858 -0.003337410100735196 -0.001322436902518179 
0.002940118516373858 -0.003337410100735196 -0.001322436902518179 
0.0006227489270858079 0.0007548408562317170 -0.001845689438600344 
0.002940118516373858 -0.003337410100735196 -0.001322436902518179 
0.002940118516373858 -0.003337410100735196 -0.001322436902518179 
0.002940118516373858 -0.003337410100735196 -0.001322436902518179 
0.002940118516373858 -0.003337410100735196 -0.001322436902518179 
0.002940118516373858 -0.003337410100735196 -0.001322436902518179 
0.002940118516373858 -0.003337410100735196 -0.001322436902518179 
0.002940118516373858 -0.003337410100735196 -0.001322436902518179 
0.002940118516373858 -0.003337410100735196 -0.001322436902518179 
0.003620978523895214 -0.009692938383513993 0.003158416438860902 
0.006468293729132195 -0.005128032660191428 -0.003317211286355364 
-0.05130951297044677 0.07787173834666473 -0.03264852589926791 
0.002940118516373858 -0.003337410100735196 -0.001322436902518179 
0.002940118516373858 -0.003337410100735196 -0.001322436902518179 
0.002940118516373858 -0.003337410100735196 -0.001322436902518179 
0.0007982755252418037 -0.01212037032884794 0.007533101015358253 
0.002940118516373858 -0.003337410100735196 -0.001322436902518179 
0.002940118516373858 -0.003337410100735196 -0.001322436902518179 
0.002940118516373858 -0.003337410100735196 -0.001322436902518179 
0.002940118516373858 -0.003337410100735196 -0.001322436902518179 
0.002940118516373858 -0.003337410100735196 -0.001322436902518179 
0.006797485503803444 -0.004918086487086537 -0.001881185686263623 
0.002940118516373858 -0.003337410100735196 -0.001322436902518179 
0.002940118516373858 -0.003337410100735196 -0.001322436902518179 
0.002940118516373858 -0.003337410100735196 -0.001322436902518179 
0.002940118516373858 -0.003337410100735196 -0.001322436902518179 
0.002940118516373858 -0.003337410100735196 -0.001322436902518179 
0.009603132423503210 -0.007780224847554989 -0.001320406772284656 
0.007773965677712233 -0.006546989402154227 -0.006464576497833865 
0.002940118516373858 -0.003337410100735196 -0.001322436902518179 
0.002940118516373858 -0.003337410100735196 -0.001322436902518179 
0.002940118516373858 -0.003337410100735196 -0.001322436902518179 
0.002940118516373858 -0.003337410100735196 -0.001322436902518179 
0.002940118516373858 -0.003337410100735196 -0.001322436902518179 
-0.001573060535192917 -0.01834163227632912 0.01526836768466052 
0.002940118516373858 -0.003337410100735196 -0.001322436902518179 
0.002940118516373858 -0.003337410100735196 -0.001322436902518179 
0.002940118516373858 -0.003337410100735196 -0.001322436902518179 
0.002940118516373858 -0.003337410100735196 -0.001322436902518179 
-0.007072429453792497 0.01639167762019810 -0.01032884643305741 
0.002940118516373858 -0.003337410100735196 -0.001322436902518179 
0.01042292499736334 -0.01752579298007328 0.004517307510478326 
0.002940118516373858 -0.003337410100735196 -0.001322436902518179 
0.002940118516373858 -0.003337410100735196 -0.001322436902518179 
0.002940118516373858 -0.003337410100735196 -0.001322436902518179 
0.002940118516373858 -0.003337410100735196 -0.001322436902518179 
0.002940118516373858 -0.003337410100735196 -0.001322436902518179 
0.002940118516373858 -0.003337410100735196 -0.001322436902518179 
0.002940118516373858 -0.003337410100735196 -0.001322436902518179 
0.002940118516373858 -0.003337410100735196 -0.001322436902518179 
0.002940118516373858 -0.003337410100735196 -0.001322436902518179 
0.002940118516373858 -0.003337410100735196 -0.001322436902518179 
0.002940118516373858 -0.003337410100735196 -0.001322436902518179 
0.009046843257220341 -0.008273792519380970 -0.002405175496960006 
0.002940118516373858 -0.003337410100735196 -0.001322436902518179 
0.002940118516373858 -0.003337410100735196 -0.001322436902518179 
0.01129442914841409 -0.009220203944927011 -0.005596074849643296 
0.002940118516373858 -0.003337410100735196 -0.001322436902518179 
0.01200112951950146 0.02574763642819198 -0.04391579760814517 
0.01731548218194816 -0.009721599389822661 -0.008733133737113030 
0.007273366633905075 0.001272269928947195 -0.009685438472515790 
0.0001973765586030523 -0.002382409259651675 -0.002157747685660295 
0.01576804827975838 0.004724257488915964 -0.02175612446355615 
0.004094784691957025 0.0001567374836775423 -0.006346974728151694 
-0.001147851393328685 -0.009426989489533277 0.008228002945541565 
0.01497956955926495 -0.01769457276292087 0.001669223083517863 
0.01244623028878123 -0.008388290731913274 -0.004025138376283991 
-0.0005138887018960761 -0.02200983373712624 0.01708929710528493 
0.01244623028878123 -0.008388290731913274 -0.004025138376283991 
0.01244623028878123 -0.008388290731913274 -0.004025138376283991 
0.004971899705303783 -0.01144186310227380 0.003470738296368631 
0.007612791298673119 0.0002189623280760428 -0.008965716329795764 
0.01244623028878123 -0.008388290731913274 -0.004025138376283991 
0.01244623028878123 -0.008388290731913274 -0.004025138376283991 
-0.002279946695767616 -0.02722060322922905 0.02101777936140652 
0.005568027903375146 -0.006038025879709211 0.0003332310593052707 
0.01244623028878123 -0.008388290731913274 -0.004025138376283991 
0.01244623028878123 -0.008388290731913274 -0.004025138376283991 
0.01244623028878123 -0.008388290731913274 -0.004025138376283991 
0.01277847080405091 -0.02154644267934967 0.006295255892136461 
0.002366315471509694 -0.0005111945864648830 -0.004168493360848753 
0.01244623028878123 -0.008388290731913274 -0.004025138376283991 
0.01244623028878123 -0.008388290731913274 -0.004025138376283991 
0.01244623028878123 -0.008388290731913274 -0.004025138376283991 
0.01244623028878123 -0.008388290731913274 -0.004025138376283991 
0.007459163095205924 -0.01507509951677891 0.009134702243741142 
0.01244623028878123 -0.008388290731913274 -0.004025138376283991 
-0.007653293190571023 0.008663220622298220 -0.007425983460454262 
0.01244623028878123 -0.008388290731913274 -0.004025138376283991 
0.01244623028878123 -0.008388290731913274 -0.004025138376283991 
0.01244623028878123 -0.008388290731913274 -0.004025138376283991 
0.009974552900099245 -0.008388451273218571 -0.001389463452488123 
0.005620826929331792 0.002503371368630446 -0.01332543027513671 
-0.01176447870915648 -0.003745393469737585 0.008816624393692955 
0.01244623028878123 -0.008388290731913274 -0.004025138376283991 
0.02253482955225412 -0.02165266138900833 5.610113173865037e-05 
0.01244623028878123 -0.008388290731913274 -0.004025138376283991 
0.01244623028878123 -0.008388290731913274 -0.004025138376283991 
0.01244623028878123 -0.008388290731913274 -0.004025138376283991 
0.01244623028878123 -0.008388290731913274 -0.004025138376283991 
0.01244623028878123 -0.008388290731913274 -0.004025138376283991 
0.04005280241743855 -0.01686981230442073 -0.02470387700961617 
0.008195550297188006 -0.003112638328364450 -0.005949999594674005 
0.01244623028878123 -0.008388290731913274 -0.004025138376283991 
0.009202252496837097 -0.01250896951650975 0.004265490981466937 
0.01244623028878123 -0.008388290731913274 -0.004025138376283991 
0.03370129193085520 -0.02265167180030797 -0.01146181954525340 
0.01244623028878123 -0.008388290731913274 -0.004025138376283991 
0.003858734588693311 -0.001036159085263379 -0.005615819216102791 
0.01244623028878123 -0.008388290731913274 -0.004025138376283991 
0.02680417276318647 -0.01441472266668886 -0.01656811045947927 
0.01244623028878123 -0.008388290731913274 -0.004025138376283991 
0.01244623028878123 -0.008388290731913274 -0.004025138376283991 
0.01244623028878123 -0.008388290731913274 -0.004025138376283991 
0.01244623028878123 -0.008388290731913274 -0.004025138376283991 
0.008992992018209100 -0.001673401432493127 -0.006083140911196105 
0.01244623028878123 -0.008388290731913274 -0.004025138376283991 
-0.002687752557207136 -0.01558235259668172 0.01540309772749079 
-0.02849070074985297 -0.05423847962921672 0.06938657541981084 
0.01244623028878123 -0.008388290731913274 -0.004025138376283991 
0.01244623028878123 -0.008388290731913274 -0.004025138376283991 
0.04790776594527015 -0.02260206472490306 -0.03050058151860431 
0.009756057409732602 -0.005562326094614250 -0.005457541043089818 
0.01792406787095472 -0.01778474272440006 -0.001284137059650572 
-0.02828536067348636 -0.03421283424770247 0.05443132591830177 
0.01792177861007063 -0.01778474281048603 -0.0008709810539608174 
0.02164424586767941 -0.01357751217386195 -0.01075317519398792 
0.02044751574373874 -0.01357754785608802 -0.007765521417037540 
0.009756057409732602 -0.005562326094614250 -0.005457541043089818 
0.008737717798010991 -0.009634943787650497 -0.001190940318020177 
0.01649203656940940 -0.006963436618729882 -0.01095086962930990 
0.009756057409732602 -0.005562326094614250 -0.005457541043089818 
0.009756057409732602 -0.005562326094614250 -0.005457541043089818 
0.009756057409732602 -0.005562326094614250 -0.005457541043089818 
-0.08673775029149323 0.05542337141975336 0.008441152981471871 
0.03026997534604552 -0.02197958200003280 -0.007963561214557244 
0.01527175840187544 -0.003615786146356841 -0.01295386459412899 
0.008106066338609021 -0.009254661548722029 -0.0004016533382546399 
0.009756057409732602 -0.005562326094614250 -0.005457541043089818 
0.009756057409732602 -0.005562326094614250 -0.005457541043089818 
0.009756057409732602 -0.005562326094614250 -0.005457541043089818 
0.007232609536948573 -0.009769520962926291 0.001023843314297151 
0.009756057409732602 -0.005562326094614250 -0.005457541043089818 
0.009756057409732602 -0.005562326094614250 -0.005457541043089818 
0.01053842404918015 -0.003703524073903830 -0.004955449913367735 
0.009756057409732602 -0.005562326094614250 -0.005457541043089818 
0.009756057409732602 -0.005562326094614250 -0.005457541043089818 
0.007076330505472536 -0.008337186004585310 -0.0005936269540746769 
0.01519366056210761 0.003003309324214213 -0.01695479508558411 
0.009756057409732602 -0.005562326094614250 -0.005457541043089818 
0.009756057409732602 -0.005562326094614250 -0.005457541043089818 
0.007076330505472536 -0.008337186004585310 -0.0005936269540746769 
0.005806593542717483 -0.02063341434204069 0.01062677501710624 
0.009756057409732602 -0.005562326094614250 -0.005457541043089818 
0.009756057409732602 -0.005562326094614250 -0.005457541043089818 
0.009756057409732602 -0.005562326094614250 -0.005457541043089818 
0.009756057409732602 -0.005562326094614250 -0.005457541043089818 
0.009756057409732602 -0.005562326094614250 -0.005457541043089818 
0.008088189378712063 -0.001667388629973273 -0.008049917863677430 
0.009756057409732602 -0.005562326094614250 -0.005457541043089818 
-0.003324752204568363 0.0004104741165246353 0.002679100394873474 
0.009756057409732602 -0.005562326094614250 -0.005457541043089818 
0.01681621712970553 -0.008429507181597106 -0.008770819473631173 
0.009756057409732602 -0.005562326094614250 -0.005457541043089818 
0.009756057409732602 -0.005562326094614250 -0.005457541043089818 
0.009756057409732602 -0.005562326094614250 -0.005457541043089818 
0.008887904997202205 -0.008400216786761712 -0.001920308694720106 
0.009756057409732602 -0.005562326094614250 -0.005457541043089818 
0.009756057409732602 -0.005562326094614250 -0.005457541043089818 
0.009756057409732602 -0.005562326094614250 -0.005457541043089818 
0.008088189378712063 -0.001667388629973273 -0.008049917863677430 
0.009756057409732602 -0.005562326094614250 -0.005457541043089818 
0.009756057409732602 -0.005562326094614250 -0.005457541043089818 
0.009756057409732602 -0.005562326094614250 -0.005457541043089818 
0.009756057409732602 -0.005562326094614250 -0.005457541043089818 
0.009756057409732602 -0.005562326094614250 -0.005457541043089818 
0.009756057409732602 -0.005562326094614250 -0.005457541043089818 
0.009756057409732602 -0.005562326094614250 -0.005457541043089818 
0.009756057409732602 -0.005562326094614250 -0.005457541043089818 
0.009756057409732602 -0.005562326094614250 -0.005457541043089818 
0.009756057409732602 -0.005562326094614250 -0.005457541043089818 
0.009756057409732602 -0.005562326094614250 -0.005457541043089818 
0.009756057409732602 -0.005562326094614250 -0.005457541043089818 
0.009756057409732602 -0.005562326094614250 -0.005457541043089818 
0.009756057409732602 -0.005562326094614250 -0.005457541043089818 
0.009756057409732602 -0.005562326094614250 -0.005457541043089818 
0.009756057409732602 -0.005562326094614250 -0.005457541043089818 
0.009756057409732602 -0.005562326094614250 -0.005457541043089818 
0.01557280247024797 -0.005181804527929065 -0.01155818536007344 
0.009756057409732602 -0.005562326094614250 -0.005457541043089818 
0.009756057409732602 -0.005562326094614250 -0.005457541043089818 
0.009756057409732602 -0.005562326094614250 -0.005457541043089818 
0.009756057409732602 -0.005562326094614250 -0.005457541043089818 
-0.002966531677951820 -0.02616428225737826 0.02541712054466555 
0.02238477725208527 0.003459611617527870 -0.02598212433659076 
0.009756057409732602 -0.005562326094614250 -0.005457541043089818 
0.009756057409732602 -0.005562326094614250 -0.005457541043089818 
0.009756057409732602 -0.005562326094614250 -0.005457541043089818 
0.01328423262249094 -0.007352948654070482 -0.007452315426927004 
0.009756057409732602 -0.005562326094614250 -0.005457541043089818 
0.01828391157565128 -0.01995627419404175 0.0003609116197577264 
0.01172267550503735 -0.007164113077564116 -0.005909477112463807 
0.009756057409732602 -0.005562326094614250 -0.005457541043089818 
0.009756057409732602 -0.005562326094614250 -0.005457541043089818 
0.005763844581927799 -0.02211213378264695 0.01285892880909313 
0.009756057409732602 -0.005562326094614250 -0.005457541043089818 
0.008737717798010991 -0.009634943787650497 -0.001190940318020177 
-0.01180786852454483 0.01116591304101926 -0.006078814537608677 
0.009756057409732602 -0.005562326094614250 -0.005457541043089818 
0.01297157939544528 -0.007720070492803114 -0.006161355190342568 
0.008644862102534151 0.002052352668791663 -0.01146939511100523 
0.01968987823455939 -0.01288635589440895 -0.006607985021392014 
0.0002250879002989126 -0.0007386657640870783 -0.003177447469282676 
0.003589002287139821 -0.01501939943518097 0.007335885362479928 
0.001948315469788527 0.008724754590991288 -0.01664760778850050 
-0.006254590352301672 -0.01298900868895603 0.01283121337925402 
0.009756057409732602 -0.005562326094614250 -0.005457541043089818 
0.006168406467283731 -0.01311749302439920 0.005335593583286152 
0.009756057409732602 -0.005562326094614250 -0.005457541043089818 
0.009756057409732602 -0.005562326094614250 -0.005457541043089818 
0.009376040226401600 -0.006818409594644010 -0.005221060994459839 
0.01386812745386500 -0.02581400041914910 -5.773191201987131e-05 
0.02143022869455319 -0.01331976592223074 -0.01127937334600538 
0.01143549556678119 -0.008040195426518390 -0.005944894491277271 
0.009376040226401600 -0.006818409594644010 -0.005221060994459839 
0.04117077488259120 -0.02484194596042823 -0.02310135717130177 
0.009376040226401600 -0.006818409594644010 -0.005221060994459839 
0.01143549556678119 -0.008040195426518390 -0.005944894491277271 
0.009376040226401600 -0.006818409594644010 -0.005221060994459839 
0.03054037831106794 -0.03660321667973309 -0.002445014628181528 
0.009376040226401600 -0.006818409594644010 -0.005221060994459839 
0.009376040226401600 -0.006818409594644010 -0.005221060994459839 
0.009376040226401600 -0.006818409594644010 -0.005221060994459839 
0.02814079275277387 -0.003923931918831791 -0.03164670176371441 
0.009376040226401600 -0.006818409594644010 -0.005221060994459839 
0.01768959841079161 -0.007724179088608130 -0.01121213190163188 
0.01603905413353095 -0.01126122434146380 -0.005219030864226315 
0.009376040226401600 -0.006818409594644010 -0.005221060994459839 
-0.01429914028147318 -0.006090511547290355 0.009848712044308526 
0.01318402383146961 -0.007258264970840160 -0.007425161418781755 
0.009376040226401600 -0.006818409594644010 -0.005221060994459839 
0.009376040226401600 -0.006818409594644010 -0.005221060994459839 
0.009376040226401600 -0.006818409594644010 -0.005221060994459839 
0.009376040226401600 -0.006818409594644010 -0.005221060994459839 
0.002199465707633312 -0.003081187637889755 -0.0008334194243043783 
0.009376040226401600 -0.006818409594644010 -0.005221060994459839 
0.009376040226401600 -0.006818409594644010 -0.005221060994459839 
0.009376040226401600 -0.006818409594644010 -0.005221060994459839 
0.009376040226401600 -0.006818409594644010 -0.005221060994459839 
0.009376040226401600 -0.006818409594644010 -0.005221060994459839 
0.009376040226401600 -0.006818409594644010 -0.005221060994459839 
0.009376040226401600 -0.006818409594644010 -0.005221060994459839 
0.009376040226401600 -0.006818409594644010 -0.005221060994459839 
0.008315042245145112 -0.01110393464198453 0.0001381244022296175 
0.009376040226401600 -0.006818409594644010 -0.005221060994459839 
0.009376040226401600 -0.006818409594644010 -0.005221060994459839 
0.01143549556678119 -0.008040195426518390 -0.005944894491277271 
0.02125743105738909 -0.02389327805478857 -0.002626589884009486 
0.01299826769925202 0.002078819306855610 -0.02353715727513135 
0.009376040226401600 -0.006818409594644010 -0.005221060994459839 
0.001662481895038786 -0.02357341177694319 0.01315139314655896 
0.009376040226401600 -0.006818409594644010 -0.005221060994459839 
0.009376040226401600 -0.006818409594644010 -0.005221060994459839 
0.009376040226401600 -0.006818409594644010 -0.005221060994459839 
0.02673739861719864 -0.01419149053153501 -0.01520513310271260 
0.009376040226401600 -0.006818409594644010 -0.005221060994459839 
0.009376040226401600 -0.006818409594644010 -0.005221060994459839 
0.009376040226401600 -0.006818409594644010 -0.005221060994459839 
0.009376040226401600 -0.006818409594644010 -0.005221060994459839 
0.01143549556678119 -0.008040195426518390 -0.005944894491277271 
0.01143549556678119 -0.008040195426518390 -0.005944894491277271 
0.008354310632040230 -0.005882793844191816 -0.004273637947125117 
0.008354310632040230 -0.005882793844191816 -0.004273637947125117 
0.008354310632040230 -0.005882793844191816 -0.004273637947125117 
0.008354310632040230 -0.005882793844191816 -0.004273637947125117 
0.01031717969262057 -0.001755794196142406 -0.01095011931767694 
0.008354310632040230 -0.005882793844191816 -0.004273637947125117 
0.008354310632040230 -0.005882793844191816 -0.004273637947125117 
0.008354310632040230 -0.005882793844191816 -0.004273637947125117 
0.008354310632040230 -0.005882793844191816 -0.004273637947125117 
0.008354310632040230 -0.005882793844191816 -0.004273637947125117 
0.008354310632040230 -0.005882793844191816 -0.004273637947125117 
0.008354310632040230 -0.005882793844191816 -0.004273637947125117 
0.008354310632040230 -0.005882793844191816 -0.004273637947125117 
0.008354310632040230 -0.005882793844191816 -0.004273637947125117 
0.008354310632040230 -0.005882793844191816 -0.004273637947125117 
0.001826036414539255 -0.005511933796593586 0.001769677959792494 
0.008354310632040230 -0.005882793844191816 -0.004273637947125117 
0.008354310632040230 -0.005882793844191816 -0.004273637947125117 
0.008354310632040230 -0.005882793844191816 -0.004273637947125117 
0.008354310632040230 -0.005882793844191816 -0.004273637947125117 
0.003365330457048848 0.001220137801012446 -0.004919659986957401 
0.008354310632040230 -0.005882793844191816 -0.004273637947125117 
0.008354310632040230 -0.005882793844191816 -0.004273637947125117 
0.01672890523202539 -0.009726425840024753 -0.009216317769807839 
0.008354310632040230 -0.005882793844191816 -0.004273637947125117 
0.01246057078817275 -0.007992506834030823 -0.006968838623469774 
0.008354310632040230 -0.005882793844191816 -0.004273637947125117 
0.008354310632040230 -0.005882793844191816 -0.004273637947125117 
0.01390905166015209 -0.02375633182050228 0.008960034935594169 
0.008354310632040230 -0.005882793844191816 -0.004273637947125117 
0.008354310632040230 -0.005882793844191816 -0.004273637947125117 
0.008354310632040230 -0.005882793844191816 -0.004273637947125117 
0.008354310632040230 -0.005882793844191816 -0.004273637947125117 
0.008354310632040230 -0.005882793844191816 -0.004273637947125117 
0.008354310632040230 -0.005882793844191816 -0.004273637947125117 
0.008354310632040230 -0.005882793844191816 -0.004273637947125117 
0.02465095225309510 -0.02011561519456240 -0.008557969952858617 
0.008354310632040230 -0.005882793844191816 -0.004273637947125117 
0.008354310632040230 -0.005882793844191816 -0.004273637947125117 
0.008354310632040230 -0.005882793844191816 -0.004273637947125117 
0.008354310632040230 -0.005882793844191816 -0.004273637947125117 
0.008354310632040230 -0.005882793844191816 -0.004273637947125117 
0.01163738921410118 -0.03959871816185061 0.02203799124362546 
0.008354310632040230 -0.005882793844191816 -0.004273637947125117 
0.008354310632040230 -0.005882793844191816 -0.004273637947125117 
0.008354310632040230 -0.005882793844191816 -0.004273637947125117 
0.008354310632040230 -0.005882793844191816 -0.004273637947125117 
0.008354310632040230 -0.005882793844191816 -0.004273637947125117 
0.008354310632040230 -0.005882793844191816 -0.004273637947125117 
0.008354310632040230 -0.005882793844191816 -0.004273637947125117 
0.008354310632040230 -0.005882793844191816 -0.004273637947125117 
0.008354310632040230 -0.005882793844191816 -0.004273637947125117 
0.008354310632040230 -0.005882793844191816 -0.004273637947125117 
0.01272579995173401 -0.009081772621731389 -0.006480385729371779 
0.02548601973965959 -0.01807205232905725 -0.01081901629276097 
0.008354310632040230 -0.005882793844191816 -0.004273637947125117 
0.008354310632040230 -0.005882793844191816 -0.004273637947125117 
0.008354310632040230 -0.005882793844191816 -0.004273637947125117 
0.008354310632040230 -0.005882793844191816 -0.004273637947125117 
0.008354310632040230 -0.005882793844191816 -0.004273637947125117 
0.008354310632040230 -0.005882793844191816 -0.004273637947125117 
0.008354310632040230 -0.005882793844191816 -0.004273637947125117 
0.008354310632040230 -0.005882793844191816 -0.004273637947125117 
0.008354310632040230 -0.005882793844191816 -0.004273637947125117 
0.008354310632040230 -0.005882793844191816 -0.004273637947125117 
0.008354310632040230 -0.005882793844191816 -0.004273637947125117 
0.008354310632040230 -0.005882793844191816 -0.004273637947125117 
0.008354310632040230 -0.005882793844191816 -0.004273637947125117 
0.008354310632040230 -0.005882793844191816 -0.004273637947125117 
0.008354310632040230 -0.005882793844191816 -0.004273637947125117 
0.004419098001755567 -0.01218543970590812 0.003798771713792723 
0.008354310632040230 -0.005882793844191816 -0.004273637947125117 
0.007313252453421489 -0.01337889043471485 0.004472345634172629 
0.008354310632040230 -0.005882793844191816 -0.004273637947125117 
0.008354310632040230 -0.005882793844191816 -0.004273637947125117 
0.008354310632040230 -0.005882793844191816 -0.004273637947125117 
0.01221167761946982 -0.007463470230543158 -0.004832386730870561 
0.008354310632040230 -0.005882793844191816 -0.004273637947125117 
-0.04027646802583582 -0.01604497211610602 0.04623433966705606 
0.008354310632040230 -0.005882793844191816 -0.004273637947125117 
0.008354310632040230 -0.005882793844191816 -0.004273637947125117 
0.008354310632040230 -0.005882793844191816 -0.004273637947125117 
0.008354310632040230 -0.005882793844191816 -0.004273637947125117 
0.005179564517082443 -0.0003160938363340898 -0.007757332809892651 
0.008354310632040230 -0.005882793844191816 -0.004273637947125117 
0.008354310632040230 -0.005882793844191816 -0.004273637947125117 
0.01124622377643322 -0.007345431594551851 -0.01360118523612275 
0.007028264929141728 -0.006509273278408946 -0.004049419248743663 
0.009456296137744364 -0.008702501760287775 -0.005574521882323795 
0.03101355523998677 -0.03003316061463346 -0.007891715449715795 
0.009456296137744364 -0.008702501760287775 -0.005574521882323795 
0.007889338439771909 -0.01535523034765584 0.002872171000492111 
0.01674982918729225 -0.01945078924604608 -0.01034740551580399 
-0.007725691498739557 0.007275528537449501 -0.003062820694111647 
0.007028264929141728 -0.006509273278408946 -0.004049419248743663 
0.007028264929141728 -0.006509273278408946 -0.004049419248743663 
0.01508636466026850 -0.01324995778955454 -0.009851101622735660 
0.007028264929141728 -0.006509273278408946 -0.004049419248743663 
0.009456296137744364 -0.008702501760287775 -0.005574521882323795 
0.007028264929141728 -0.006509273278408946 -0.004049419248743663 
0.01408184586690563 -0.01136182665355630 -0.005342853869671912 
0.005784787914078476 -0.04257940995081516 0.02336628823986769 
0.007028264929141728 -0.006509273278408946 -0.004049419248743663 
0.007028264929141728 -0.006509273278408946 -0.004049419248743663 
0.007028264929141728 -0.006509273278408946 -0.004049419248743663 
0.007028264929141728 -0.006509273278408946 -0.004049419248743663 
0.007028264929141728 -0.006509273278408946 -0.004049419248743663 
0.01196239316013713 -0.01351156849310961 -0.002988173442574898 
-0.003607288472998320 0.02616206909039279 -0.02919143925492854 
0.007246320777232013 -0.01710480298626571 0.003055768359424639 
0.009854254419445232 -0.007337144465154964 -0.005037047687899561 
0.01113452508527425 -0.008618986268247954 -0.006744619925088319 
0.004891652418584355 0.03104273051364724 -0.04877776864762999 
0.007028264929141728 -0.006509273278408946 -0.004049419248743663 
0.01427831625336230 -0.01377418258622286 -0.005001547757611704 
-0.001609859792726592 0.008392880876603193 -0.01131558067245935 
0.02617925180687649 -0.01767803390355163 -0.01352936882581310 
0.007028264929141728 -0.006509273278408946 -0.004049419248743663 
0.02492597643208594 -0.01852423493510792 -0.009731537432386245 
0.007028264929141728 -0.006509273278408946 -0.004049419248743663 
0.01408842464911466 -0.009376454365391803 -0.007362697679285019 
0.007028264929141728 -0.006509273278408946 -0.004049419248743663 
0.007028264929141728 -0.006509273278408946 -0.004049419248743663 
0.007028264929141728 -0.006509273278408946 -0.004049419248743663 
0.005094936676029211 0.01240798468444291 -0.02468527325172371 
0.007028264929141728 -0.006509273278408946 -0.004049419248743663 
0.007028264929141728 -0.006509273278408946 -0.004049419248743663 
0.01194912610066732 -0.008079691735916064 -0.005346773842237594 
0.007028264929141728 -0.006509273278408946 -0.004049419248743663 
0.007028264929141728 -0.006509273278408946 -0.004049419248743663 
0.007028264929141728 -0.006509273278408946 -0.004049419248743663 
0.007028264929141728 -0.006509273278408946 -0.004049419248743663 
0.007028264929141728 -0.006509273278408946 -0.004049419248743663 
0.007028264929141728 -0.006509273278408946 -0.004049419248743663 
0.007028264929141728 -0.006509273278408946 -0.004049419248743663 
-0.008082801027530867 0.003755801857540365 -0.001938539132998731 
-0.007319618519968385 0.01013276363560623 -0.005958228255367835 
-0.01153849657328004 0.009416252345346461 -0.007932902191730403 
-0.0003520821826081981 0.005035482230033552 -0.007317282983372734 
-0.0002597920575233416 -0.001138921076677009 -0.0004550127223066133 
0.03648408551076387 -0.03096659301733750 -0.01704440626490439 
-0.002285901490264816 0.002975603319138394 -0.004507997330708561 
9.199227905477996e-06 4.480764409606727e-08 -0.002735789070304699 
0.003539513638347679 -0.0001200331636350589 -0.004630768355655126 
0.01122420057797521 -0.01008327345579975 -0.005841163753334284 
-0.0002564678458380679 -0.03411784036496936 0.02387640292318397 
-0.005417566792489535 0.01450429311245247 -0.01567775988341195 
0.01925644892386859 -0.02661634734534152 0.002356794663182297 
0.01179671446820071 -0.002981010060149782 -0.01343434785256618 
-0.005208970064230830 -0.03292982052313653 0.03025984046192460 
9.199227905477996e-06 4.480764409606727e-08 -0.002735789070304699 
-0.005607366618198222 -0.01656428631487965 0.01631786234583455 
0.001873339864862073 -0.001334998292852739 -0.004685499604825397 
0.01177536259252963 -0.001253916422454945 -0.01467174197821061 
9.199227905477996e-06 4.480764409606727e-08 -0.002735789070304699 
0.02557994056148520 -0.02547394958250761 -0.008014437361520091 
0.03415140642013643 -0.03513461767581908 -0.008431188017780780 
0.007706594837106782 -0.003617394034857910 -0.004464597630476766 
6.049497179899107e-06 2.272175594942771e-08 -0.001652187457012540 
0.003370343993855475 -0.0002656186316626080 -0.005854266203376959 
0.003310273097832338 -0.003539033718261139 -0.001134827518966245 
6.049497179899107e-06 2.272175594942771e-08 -0.001652187457012540 
-0.004801924817991275 0.006419105420055671 -0.005862499940348294 
0.01803669430608546 -0.01037630215946439 -0.01327438203075909 
9.199227905477996e-06 4.480764409606727e-08 -0.002735789070304699 
0.009738459559746547 0.001733592082176294 -0.01048254706834035 
0.007053580937763898 -0.004852553375147352 -0.001293434620928249 
0.001084586192809033 0.004091480181863318 -0.004764663049944637 
0.007053580937763898 -0.004852553375147352 -0.001293434620928249 
0.007053580937763898 -0.004852553375147352 -0.001293434620928249 
0.02836951411677527 -0.006908277860288990 -0.02575127468499513 
0.007053580937763898 -0.004852553375147352 -0.001293434620928249 
-0.005295764162398276 0.007997456558089783 -0.008510378695918622 
0.007053580937763898 -0.004852553375147352 -0.001293434620928249 
0.007053580937763898 -0.004852553375147352 -0.001293434620928249 
0.003138949666733355 -0.007387701477814822 0.005266237403763113 
0.007053580937763898 -0.004852553375147352 -0.001293434620928249 
0.003609690607091741 -0.006195337776171604 0.002062563781410122 
0.007053580937763898 -0.004852553375147352 -0.001293434620928249 
0.007053580937763898 -0.004852553375147352 -0.001293434620928249 
0.008640212157082272 -0.002993315687166892 -0.007896212499181769 
0.007053580937763898 -0.004852553375147352 -0.001293434620928249 
0.007053580937763898 -0.004852553375147352 -0.001293434620928249 
0.007053580937763898 -0.004852553375147352 -0.001293434620928249 
0.007053580937763898 -0.004852553375147352 -0.001293434620928249 
0.007053580937763898 -0.004852553375147352 -0.001293434620928249 
0.007053580937763898 -0.004852553375147352 -0.001293434620928249 
0.007053580937763898 -0.004852553375147352 -0.001293434620928249 
0.007053580937763898 -0.004852553375147352 -0.001293434620928249 
0.007053580937763898 -0.004852553375147352 -0.001293434620928249 
0.007053580937763898 -0.004852553375147352 -0.001293434620928249 
-0.008576308618391513 0.02270995553794364 -0.01561294420444240 
0.007053580937763898 -0.004852553375147352 -0.001293434620928249 
0.007053580937763898 -0.004852553375147352 -0.001293434620928249 
0.007053580937763898 -0.004852553375147352 -0.001293434620928249 
0.007053580937763898 -0.004852553375147352 -0.001293434620928249 
0.007053580937763898 -0.004852553375147352 -0.001293434620928249 
0.007053580937763898 -0.004852553375147352 -0.001293434620928249 
0.007053580937763898 -0.004852553375147352 -0.001293434620928249 
0.007053580937763898 -0.004852553375147352 -0.001293434620928249 
0.007053580937763898 -0.004852553375147352 -0.001293434620928249 
0.007053580937763898 -0.004852553375147352 -0.001293434620928249 
0.007059701702998432 -0.004852524386608275 -0.001292798063777209 
0.007053580937763898 -0.004852553375147352 -0.001293434620928249 
0.007053580937763898 -0.004852553375147352 -0.001293434620928249 
-0.008519498149540627 0.005635408408536158 -0.003279631125107579 
0.007053580937763898 -0.004852553375147352 -0.001293434620928249 
0.007053580937763898 -0.004852553375147352 -0.001293434620928249 
0.004140280040459113 0.002239952031857433 -0.004761146205170441 
0.007053580937763898 -0.004852553375147352 -0.001293434620928249 
0.008607742306361575 -0.005578335391336604 -0.002048445499161397 
0.01814855939326918 -0.01032682260838130 -0.005681543480171075 
0.007053580937763898 -0.004852553375147352 -0.001293434620928249 
0.007053580937763898 -0.004852553375147352 -0.001293434620928249 
0.007053580937763898 -0.004852553375147352 -0.001293434620928249 
0.007053580937763898 -0.004852553375147352 -0.001293434620928249 
0.007053580937763898 -0.004852553375147352 -0.001293434620928249 
0.007053580937763898 -0.004852553375147352 -0.001293434620928249 
0.007053580937763898 -0.004852553375147352 -0.001293434620928249 
0.004263257336626240 -0.03572051400112797 0.03035831236432467 
0.0003382608829378617 0.005695417161636829 -0.005933409002229987 
0.007053580937763898 -0.004852553375147352 -0.001293434620928249 
0.006338327293299145 0.0003218965551556914 -0.004624480001376830 
0.007053580937763898 -0.004852553375147352 -0.001293434620928249 
0.007053580937763898 -0.004852553375147352 -0.001293434620928249 
-0.01006579263935044 -0.009632577327061966 0.02271593147118730 
0.004923927750837697 -0.007991376346032030 0.003660785416686039 
0.007053580937763898 -0.004852553375147352 -0.001293434620928249 
0.007053580937763898 -0.004852553375147352 -0.001293434620928249 
0.007053580937763898 -0.004852553375147352 -0.001293434620928249 
0.007053580937763898 -0.004852553375147352 -0.001293434620928249 
0.007050844600086075 -0.004851617123637827 -0.0009501801727280950 
0.007053580937763898 -0.004852553375147352 -0.001293434620928249 
0.02538583243031365 -0.01796018897874515 -0.01153347624359485 
-0.01412110693344415 -0.05795418780062717 0.06465371084189978 
0.007053580937763898 -0.004852553375147352 -0.001293434620928249 
0.01005692550792404 -0.003317911573691002 -0.006675311438388652 
0.03767239979643017 -0.02767114440854810 -0.01325171669185502 
0.007053580937763898 -0.004852553375147352 -0.001293434620928249 
-0.0008020338416856944 0.008083959876956174 -0.009615630064834119 
0.007053580937763898 -0.004852553375147352 -0.001293434620928249 
0.007053580937763898 -0.004852553375147352 -0.001293434620928249 
0.007053580937763898 -0.004852553375147352 -0.001293434620928249 
0.007053580937763898 -0.004852553375147352 -0.001293434620928249 
0.01259821269472699 -0.009224868474782180 -0.005389347989658921 
0.007053580937763898 -0.004852553375147352 -0.001293434620928249 
-0.001522009940454039 -0.007132926513699490 0.006566279483030614 
0.009099117243855787 0.003319182789438568 -0.01609085620347577 
0.002936632261356619 -0.008762302922379618 0.008009487429745474 
0.007053580937763898 -0.004852553375147352 -0.001293434620928249 
0.007053580937763898 -0.004852553375147352 -0.001293434620928249 
0.007053580937763898 -0.004852553375147352 -0.001293434620928249 
0.007053580937763898 -0.004852553375147352 -0.001293434620928249 
0.004582140291518948 -0.001759467035321163 -0.003055806803983617 
0.004582140291518948 -0.001759467035321163 -0.003055806803983617 
0.02720364541137860 -0.01624689858173393 -0.01547983203944988 
0.004582140291518948 -0.001759467035321163 -0.003055806803983617 
0.004582140291518948 -0.001759467035321163 -0.003055806803983617 
0.01909846803247040 -0.01046387955790029 -0.01171709421966253 
0.001888070996220683 0.002912713706460270 -0.005876656703450355 
-0.004420972145070257 0.01107426097226206 -0.004352210885083340 
0.004582140291518948 -0.001759467035321163 -0.003055806803983617 
0.004582140291518948 -0.001759467035321163 -0.003055806803983617 
0.009620130484375747 -0.01524721780999685 0.001229749069181355 
0.004582140291518948 -0.001759467035321163 -0.003055806803983617 
0.003310407934687299 -0.001757461274320031 -0.003970062744520346 
0.004582140291518948 -0.001759467035321163 -0.003055806803983617 
0.004582140291518948 -0.001759467035321163 -0.003055806803983617 
0.004582140291518948 -0.001759467035321163 -0.003055806803983617 
0.004582140291518948 -0.001759467035321163 -0.003055806803983617 
0.004582140291518948 -0.001759467035321163 -0.003055806803983617 
0.004582140291518948 -0.001759467035321163 -0.003055806803983617 
0.004582140291518948 -0.001759467035321163 -0.003055806803983617 
0.0005725907443678880 0.001188987254575643 -0.001638384859095775 
0.004582140291518948 -0.001759467035321163 -0.003055806803983617 
0.005230733380263769 -0.001759400576019520 -0.005420097328850160 
0.001581863522498364 0.01332197158911451 -0.01703708536408921 
0.004582140291518948 -0.001759467035321163 -0.003055806803983617 
0.004582140291518948 -0.001759467035321163 -0.003055806803983617 
0.004582140291518948 -0.001759467035321163 -0.003055806803983617 
0.004582140291518948 -0.001759467035321163 -0.003055806803983617 
0.004582140291518948 -0.001759467035321163 -0.003055806803983617 
0.002394217145965874 -0.001961183423669805 0.0005041671826325264 
0.004582140291518948 -0.001759467035321163 -0.003055806803983617 
0.004582140291518948 -0.001759467035321163 -0.003055806803983617 
0.004582140291518948 -0.001759467035321163 -0.003055806803983617 
0.005233978294050984 -0.003363353026486703 -0.005123082769806266 
0.005230733380263769 -0.001759400576019520 -0.005420097328850160 
-0.0008804082588558959 -0.005184590872897293 0.004995107777896108 
0.004582140291518948 -0.001759467035321163 -0.003055806803983617 
0.004582140291518948 -0.001759467035321163 -0.003055806803983617 
0.004582140291518948 -0.001759467035321163 -0.003055806803983617 
0.006716555302699058 -0.01622741542993495 0.003945004669898382 
0.004582140291518948 -0.001759467035321163 -0.003055806803983617 
0.004582140291518948 -0.001759467035321163 -0.003055806803983617 
0.03384736385319813 -0.02297862824229629 -0.01413934414348426 
0.006697208503633892 0.002735735407082458 -0.01093507375955880 
0.001128902020946814 0.004955422264098985 -0.005113809338895732 
0.01622169234711902 -0.007933158046517120 -0.008744458233102015 
0.001562737227273385 -0.005818916533168864 0.004524359597738388 
0.02548368892792586 -0.009985934941631091 -0.01620993524598702 
0.004582140291518948 -0.001759467035321163 -0.003055806803983617 
0.004582140291518948 -0.001759467035321163 -0.003055806803983617 
0.004582140291518948 -0.001759467035321163 -0.003055806803983617 
0.004582140291518948 -0.001759467035321163 -0.003055806803983617 
-0.01026548988202549 -0.002953762475732808 -0.005369023805515069 
0.006032540630279863 -0.01503693529974456 0.003525355244591084 
0.004582140291518948 -0.001759467035321163 -0.003055806803983617 
0.004582140291518948 -0.001759467035321163 -0.003055806803983617 
0.004582140291518948 -0.001759467035321163 -0.003055806803983617 
0.004582140291518948 -0.001759467035321163 -0.003055806803983617 
0.004582140291518948 -0.001759467035321163 -0.003055806803983617 
0.004582140291518948 -0.001759467035321163 -0.003055806803983617 
0.004582140291518948 -0.001759467035321163 -0.003055806803983617 
0.004582140291518948 -0.001759467035321163 -0.003055806803983617 
0.004582140291518948 -0.001759467035321163 -0.003055806803983617 
0.004582140291518948 -0.001759467035321163 -0.003055806803983617 
0.004582140291518948 -0.001759467035321163 -0.003055806803983617 
0.004582140291518948 -0.001759467035321163 -0.003055806803983617 
0.004582140291518948 -0.001759467035321163 -0.003055806803983617 
0.004582140291518948 -0.001759467035321163 -0.003055806803983617 
0.008764684816245354 0.01235822666023530 -0.02409399771795160 
0.004582140291518948 -0.001759467035321163 -0.003055806803983617 
0.004582140291518948 -0.001759467035321163 -0.003055806803983617 
0.01906684842897905 -0.01270178187337599 -0.005319414530408071 
0.004582140291518948 -0.001759467035321163 -0.003055806803983617 
0.004582140291518948 -0.001759467035321163 -0.003055806803983617 
-0.006190098413280768 -0.01182336261058451 0.01614587610661701 
