solver_type L2R_L2LOSS_SVC
nr_class 3
label 0 1 2
nr_feature 14555
bias 1.000000000000000
w
0.005596525116108580 -0.0001706201785109090 -0.003304315196369553 
0.002867191753112930 -9.255023418167896e-07 -0.001792843755839892 
-0.01031611440092505 0.01241033021492182 -0.005852848265694368 
0.002672008121159204 0.005115954191201345 -0.005744979392724660 
0.0007226361696801361 -8.969840347586949e-07 -0.0001552206384426963 
0.0007226361696801361 -8.969840347586949e-07 -0.0001552206384426963 
0.0007226361696801361 -8.969840347586949e-07 -0.0001552206384426963 
0.002867191753112930 -9.255023418167896e-07 -0.001792843755839892 
0.0007226361696801361 -8.969840347586949e-07 -0.0001552206384426963 
0.002867191753112930 -9.255023418167896e-07 -0.001792843755839892 
0.04588379935538526 -0.04708151503969624 -0.009084090165183210 
0.002867191753112930 -9.255023418167896e-07 -0.001792843755839892 
-0.01308548480640853 -0.02158665633474676 0.03070281210964775 
0.002867191753112930 -9.255023418167896e-07 -0.001792843755839892 
-0.01539703348875663 0.03078211726032807 -0.01991784661798582 
0.002867191753112930 -9.255023418167896e-07 -0.001792843755839892 
-0.01017940466249618 -0.006867304883129723 0.01749831094825367 
0.01638131905814799 -0.01571060078027856 -0.01100600173706937 
0.003658777686016205 -0.03296161440991543 0.01726226592073259 
0.04820643076527346 -0.08133258916174678 -0.02685299756164530 
0.01806358087187841 0.003642844718043280 -0.03806902859309290 
-0.05241637455947058 0.06622884822416279 -0.01823929210678800 
-0.01596364850673444 0.002879007928136080 0.005024311260925895 
0.05562988638968925 -0.02366059434633145 -0.03949389870785814 
0.0007226361696801361 -8.969840347586949e-07 -0.0001552206384426963 
-0.05621926154265296 -0.09018692274068570 0.1135609191650043 
-0.0007669510505331744 0.003990212288554408 -0.002871079025652719 
-0.001119201610872177 -0.005661713045712898 0.008841713682656390 
0.005838103030064670 -0.008576125352730111 0.004583788349389579 
0.001918132364646732 0.006751287879241630 -0.007792688012965695 
0.005042521737629801 0.004853558151594163 -0.007619610070667218 
0.006096146735352559 0.02467501259024252 -0.03020263377830471 
0.002867191753112930 -9.255023418167896e-07 -0.001792843755839892 
-0.0005718869968199198 0.04510766782230417 -0.06464119784378625 
-0.01861457774692711 0.04398187477596682 -0.02572504887839821 
0.002867191753112930 -9.255023418167896e-07 -0.001792843755839892 
0.002867191753112930 -9.255023418167896e-07 -0.001792843755839892 
0.003595826720504465 0.01455910539547789 -0.01945084275605708 
0.002171972813094621 0.01554421196212239 -0.02007473430802622 
0.002867191753112930 -9.255023418167896e-07 -0.001792843755839892 
-0.01422750482526145 0.0004863143363690317 0.01102613092658520 
-0.005217883447443708 -0.005789729253842584 0.01383731998834158 
-0.003177720788122394 0.001821593914559317 0.0006069776068840595 
-0.08383681262262851 0.06145132950295620 -0.01031606498283593 
0.009270219577952626 4.298542810790965e-06 -0.01441578864451623 
0.03766790944097731 -0.01944993825756363 -0.02165950776815053 
0.0007226361696801361 -8.969840347586949e-07 -0.0001552206384426963 
0.009782605476416947 -0.05721405330876454 0.03220829933895866 
0.007250654043956756 0.0007836025567603965 -0.009232530628171950 
0.002867191753112930 -9.255023418167896e-07 -0.001792843755839892 
-0.08735609318460341 0.1337074287004580 -0.05665663192600887 
0.002867099924702695 -0.003111656443659070 0.001672755577002943 
-0.003747471559202895 0.005846934413874945 -0.002132584091573657 
-0.009600898002419759 0.01795002583334100 -0.009309752253617756 
0.002867191753112930 -9.255023418167896e-07 -0.001792843755839892 
0.01099584721447775 0.002501489304480195 -0.01110727568762270 
0.002598802737907103 -1.315497334756564e-06 -0.001587736811887340 
0.01513269821631055 -0.005911079332832490 -0.001820897826652965 
0.0007226361696801361 -8.969840347586949e-07 -0.0001552206384426963 
0.003413056356307534 -0.002897159907552950 0.004294061467893704 
0.02496561644777180 -0.02176516347436548 -0.009563302921701756 
0.02262621088497329 -0.002167110602929786 -0.01628369448783440 
0.09765919755375337 -0.1090405798211228 -0.01407534609358476 
0.02013024976740297 -0.02454460630395311 0.008349419340488162 
0.05179494351452220 -0.07872573535178329 0.02208989870946467 
-0.01236607745243410 -0.02656684957123411 0.02473957466457900 
0.06843496513626339 -0.03057367148188528 -0.04728183725328655 
0.02728414510072111 -0.01872061334712708 -0.01637616646774814 
-0.01585612150634174 -0.01025149179435932 0.02641579155539440 
0.04488182258815154 -0.02076631112470695 -0.02766454430461281 
0.007528072690448718 -0.01442359403974155 0.006158555634560537 
0.005596525116108580 -0.0001706201785109090 -0.003304315196369553 
0.008957298204704030 -0.0009047527479574488 -0.007012142674037813 
0.002867191753112930 -9.255023418167896e-07 -0.001792843755839892 
0.002835762453374247 -0.001392503341588648 -0.0005746835846285117 
0.002867191753112930 -9.255023418167896e-07 -0.001792843755839892 
-0.0005417518441983542 0.008025006577545436 -0.004812588642571457 
0.01254344163571415 -0.01111144567361936 -0.004236828871187562 
0.004495736574883127 -0.009068637676667976 -0.003875531524367752 
0.01029619162923032 -0.002211063801339460 -0.005762378431411345 
0.1351389496944052 -0.07004204472586809 -0.07379206280864985 
-0.006260470704520002 0.005001251718588915 0.001896241145743977 
0.01089852909701090 -0.005087917923213013 -0.006493453999744234 
0.002722187555728554 0.002820401475837064 -0.005828940219637552 
-0.01889314108161241 -0.006060089238592477 0.01538258565867958 
0.002867191753112930 -9.255023418167896e-07 -0.001792843755839892 
0.002867191753112930 -9.255023418167896e-07 -0.001792843755839892 
0.03854967396610046 -0.05077760890348185 0.004307816151369695 
0.002867191753112930 -9.255023418167896e-07 -0.001792843755839892 
0.01194862963112326 -0.001676572433707330 -0.01257781534145871 
0.01318917775191341 -0.01513387251526715 -0.006792757862860711 
0.01095972019622839 -0.0009728908124008102 -0.008488477305762286 
-0.0009957984391850785 0.01281321507383302 -0.01118721154630249 
0.0009577987597112745 0.001375108226091461 -0.001793451031304981 
-0.01115429214669379 0.01230658440987872 -0.007888215756351671 
-0.0002811936935229178 -0.0004701909137580832 -0.005088204885087460 
0.02075129452647524 -0.01911863871458603 -0.0006852724671352504 
0.002867191753112930 -9.255023418167896e-07 -0.001792843755839892 
0.03209646936973470 -0.01390448477136171 -0.02404381225532480 
-0.01964862510276246 -0.006921218060433559 0.02556798708140140 
0.01370327537889824 -0.002022896876140537 -0.01076887934318635 
0.003877625745354650 -0.001410988394660899 0.0006059346741291210 
-0.004751484188471622 -0.02185950475766507 0.01036366207581763 
0.003676164222131472 0.004177462050474499 -0.01829603003007525 
0.1016464909529150 -0.06295372257016638 -0.04953914201258138 
0.01061495522920310 0.0001912947105117715 -0.01439702827611671 
0.0007226361696801361 -8.969840347586949e-07 -0.0001552206384426963 
0.04077852719465009 -0.01674041705244813 -0.02852862013361674 
0.07067352527234558 -0.1535712261584114 0.05871562814665589 
0.01236583218866350 -0.008156066804670235 -0.008961608558525893 
0.002867191753112930 -9.255023418167896e-07 -0.001792843755839892 
0.07338143183116279 -0.06080560357691581 -0.03228436746926262 
0.01137390828503985 -0.004704880561008664 -0.004653391350897086 
0.002867191753112930 -9.255023418167896e-07 -0.001792843755839892 
0.02661235873071137 -0.009100049006903126 -0.01871281957828619 
0.07688540725610961 -0.06327005805051500 -0.01386508562438002 
0.002867191753112930 -9.255023418167896e-07 -0.001792843755839892 
0.006583285938260596 -0.001531408505391259 -0.006318441600300254 
0.05754184754254513 -0.03020166759770866 -0.02955389831718679 
-0.01305011093415659 0.01939817825456973 -0.008430563810082142 
0.07421151785495032 -0.02092588985353458 -0.05008053764062156 
1.282854607894757e-05 -0.004453607367902829 0.002641177403889144 
0.0007226361696801361 -8.969840347586949e-07 -0.0001552206384426963 
0.01366469450540551 0.001686893591737808 -0.01258686577954470 
-0.009181131861804361 -0.01242248651506702 0.01940090440035792 
-0.001268749611763226 -0.0003481668282383710 -6.837762218487944e-05 
-0.02314970924091157 -0.05523553895003516 0.06963904604740351 
0.007910261966118490 -0.0006098842714494717 -0.004321046934969074 
0.0005786670714783353 0.004977809532102705 -0.002955817364126025 
0.02064035699980605 -0.01169058140650844 -0.008008650409887286 
0.01950758809571381 0.002769018196555303 -0.01884170250408303 
0.02753519734960477 -0.01241694830428517 -0.01699090173065159 
-0.0003144769541932250 0.004719524022959183 -0.005950040845679591 
0.009372587264193880 -0.001863645259560623 -0.006194006676949645 
0.03579167864208548 -0.02066817652309903 -0.01904530252382009 
0.03024720853565344 -0.02141642533228038 -0.01747292317370827 
0.05702831742900619 -0.01884530818337130 -0.05566015242736828 
0.03974388604078093 -0.04076731935823765 -0.01872759680410586 
0.06777454669436540 -0.01866225531253067 -0.06557996405648302 
-0.05788777832295822 -0.02787658908935052 0.05469891505221522 
-0.008447370516523875 0.005379903893857110 0.006173948046718112 
0.0007226361696801361 -8.969840347586949e-07 -0.0001552206384426963 
0.01390317774429269 -0.01265256559799117 -0.002100151709070190 
0.01390317774429269 -0.01265256559799117 -0.002100151709070190 
0.01390317774429269 -0.01265256559799117 -0.002100151709070190 
0.01341955892028062 -0.009046411426656102 -0.002669816695280746 
0.08144040777921259 -0.06215963611891000 -0.03278046634397296 
0.01390317774429269 -0.01265256559799117 -0.002100151709070190 
0.01390317774429269 -0.01265256559799117 -0.002100151709070190 
0.01390317774429269 -0.01265256559799117 -0.002100151709070190 
0.04149584664021093 -0.04136082495117982 -0.002080963957170102 
-0.09399954809686638 0.06628876349260668 -0.1178440756225585 
0.01750891677079115 -0.01133208234339236 -0.007756863500440506 
0.01250273071564821 0.01042311617532917 -0.07618783206887031 
-0.09954876133164750 0.1879958285373785 -0.1259138768993671 
0.01390317774429269 -0.01265256559799117 -0.002100151709070190 
0.01390317774429269 -0.01265256559799117 -0.002100151709070190 
0.01390317774429269 -0.01265256559799117 -0.002100151709070190 
0.01368083732134257 -0.007888887238785220 -0.007709209397163828 
0.01390317774429269 -0.01265256559799117 -0.002100151709070190 
0.01390317774429269 -0.01265256559799117 -0.002100151709070190 
0.01390317774429269 -0.01265256559799117 -0.002100151709070190 
0.01390317774429269 -0.01265256559799117 -0.002100151709070190 
0.03870490820302341 -0.06854776259387797 0.01057685966363568 
0.01750888279615579 -0.01418363085021757 -0.004614165738699107 
0.01750888279615579 -0.01418363085021757 -0.004614165738699107 
0.01390317774429269 -0.01265256559799117 -0.002100151709070190 
0.01390317774429269 -0.01265256559799117 -0.002100151709070190 
0.06152298658717926 -0.05615304055313116 -0.01104797110777064 
0.03758069566438676 -0.02281537427185298 -0.01075158775167632 
0.01390317774429269 -0.01265256559799117 -0.002100151709070190 
0.01370626271653303 0.008539709429612042 -0.02761304086852445 
0.02258300366023125 -0.02833475493043887 0.003166375300125639 
0.01390317774429269 -0.01265256559799117 -0.002100151709070190 
0.05439117786064794 -0.04287883738369706 -0.01594461453220207 
0.01390317774429269 -0.01265256559799117 -0.002100151709070190 
0.01390317774429269 -0.01265256559799117 -0.002100151709070190 
0.01390317774429269 -0.01265256559799117 -0.002100151709070190 
0.01390317774429269 -0.01265256559799117 -0.002100151709070190 
0.01390317774429269 -0.01265256559799117 -0.002100151709070190 
0.04212838088310473 -0.03892352541361853 -0.002380972675577501 
0.01390317774429269 -0.01265256559799117 -0.002100151709070190 
0.01390317774429269 -0.01265256559799117 -0.002100151709070190 
0.01390317774429269 -0.01265256559799117 -0.002100151709070190 
0.01390317774429269 -0.01265256559799117 -0.002100151709070190 
-0.01100092527451831 0.04063015234448385 -0.03478798500276570 
0.01750888279615579 -0.01418363085021757 -0.004614165738699107 
0.01205775606117318 0.01334362327893144 -0.02831439288422781 
0.01390317774429269 -0.01265256559799117 -0.002100151709070190 
0.01390317774429269 -0.01265256559799117 -0.002100151709070190 
0.01390317774429269 -0.01265256559799117 -0.002100151709070190 
0.01390317774429269 -0.01265256559799117 -0.002100151709070190 
0.01390317774429269 -0.01265256559799117 -0.002100151709070190 
-0.04353595335780161 0.05652836227836137 -0.01976500765554409 
0.06207647660366565 -0.02029658190258761 -0.04714950379978256 
0.01390317774429269 -0.01265256559799117 -0.002100151709070190 
0.01750888279615579 -0.01418363085021757 -0.004614165738699107 
0.01390317774429269 -0.01265256559799117 -0.002100151709070190 
-0.0008236523601412405 0.01586396719354937 -0.01361592073567353 
0.01390317774429269 -0.01265256559799117 -0.002100151709070190 
0.01390317774429269 -0.01265256559799117 -0.002100151709070190 
0.02067798105976384 -0.01597386443266982 -0.004405625057552194 
0.01390317774429269 -0.01265256559799117 -0.002100151709070190 
0.01390317774429269 -0.01265256559799117 -0.002100151709070190 
-0.005559531324377759 -0.01445023626956063 0.01381362176617282 
-0.02796325166793742 -0.01282203692196882 0.01133016116797873 
0.02904486336649926 -0.02994962687028414 -0.001586941649019414 
0.01390317774429269 -0.01265256559799117 -0.002100151709070190 
0.01390317774429269 -0.01265256559799117 -0.002100151709070190 
0.01390317774429269 -0.01265256559799117 -0.002100151709070190 
0.01390317774429269 -0.01265256559799117 -0.002100151709070190 
-0.005956506853887008 0.09070520692599635 -0.09349764748652660 
0.01390317774429269 -0.01265256559799117 -0.002100151709070190 
0.01390317774429269 -0.01265256559799117 -0.002100151709070190 
0.02466660266869144 -0.01648102255636335 -0.007478083871838273 
0.02413716339668754 -0.01421485693114227 -0.009569014761281143 
0.02466660266869144 -0.01648102255636335 -0.007478083871838273 
0.02466660266869144 -0.01648102255636335 -0.007478083871838273 
0.004578105574581666 0.0003415476997328529 -0.008056463394617148 
0.02381053706934789 -0.03122115163531467 0.004361632429707606 
-0.02965931268706226 -0.003998420880454068 -6.773417528930339e-05 
-0.01347542339437743 0.03410619265903474 -0.03319887359840405 
0.02149758102136272 -0.02904922733750549 0.007875037853621546 
-0.01612708634925139 0.03156755362719248 -0.03498853852248435 
0.01516414385224872 -0.02117505199444282 -0.006246368542556163 
0.02466660266869144 -0.01648102255636335 -0.007478083871838273 
-0.01404640893204920 -0.01794488627072806 -0.0002206438083173776 
0.02466660266869144 -0.01648102255636335 -0.007478083871838273 
0.02466660266869144 -0.01648102255636335 -0.007478083871838273 
-0.002114346360283984 0.01084599058896732 -0.03129835620245429 
0.01622901686977444 -0.03132951121485767 0.01204815518822792 
0.06682964120920637 -0.04799937552653704 -0.01786910598791120 
0.01405212404823074 -0.02615823527646159 0.01212951205202374 
0.02466660266869144 -0.01648102255636335 -0.007478083871838273 
0.02466660266869144 -0.01648102255636335 -0.007478083871838273 
0.004325053875739299 0.04074074892899623 -0.04755220863433755 
-0.01111235823272136 0.008741251347621833 -0.003477786885825454 
0.04093434445573271 -0.03303975266619757 -0.008462099013373640 
-0.01845375839688388 0.01476409614675152 -0.01568183599737074 
0.03295103145756938 0.001371967503533751 -0.04697237330204949 
0.02466660266869144 -0.01648102255636335 -0.007478083871838273 
0.02466660266869144 -0.01648102255636335 -0.007478083871838273 
0.02466660266869144 -0.01648102255636335 -0.007478083871838273 
0.03325693976920041 -0.03886477801986418 0.006757399791332741 
0.02466660266869144 -0.01648102255636335 -0.007478083871838273 
0.03667444658889350 -0.01141753116971265 -0.02527009501215586 
0.01814208113122780 -0.02416769159580876 0.006019125483079650 
0.01323694242982870 0.0009596720701146918 -0.01623317746793017 
0.06773617341621738 -0.02765440917588333 -0.04527011534485574 
0.02466660266869144 -0.01648102255636335 -0.007478083871838273 
0.02466660266869144 -0.01648102255636335 -0.007478083871838273 
0.006504858804494211 -0.03487841692707398 0.02253746964123467 
0.02466660266869144 -0.01648102255636335 -0.007478083871838273 
0.02466660266869144 -0.01648102255636335 -0.007478083871838273 
0.003828555438473877 -0.007061656562522002 0.0007197461010355267 
0.02466660266869144 -0.01648102255636335 -0.007478083871838273 
0.02466660266869144 -0.01648102255636335 -0.007478083871838273 
0.02466660266869144 -0.01648102255636335 -0.007478083871838273 
0.003630476393348898 -0.009102864007322587 0.0002080028840071333 
0.02466660266869144 -0.01648102255636335 -0.007478083871838273 
0.008128663455040736 -0.02274706434296217 0.006296849455687694 
0.02466660266869144 -0.01648102255636335 -0.007478083871838273 
0.03446341827343822 0.005463494943123601 -0.04424427990237705 
0.008032339172873515 -0.005087578410958435 -0.004700231863358148 
0.008032339172873515 -0.005087578410958435 -0.004700231863358148 
-0.0004715437769885125 0.01154229298303362 -0.01789327471963196 
0.008032339172873515 -0.005087578410958435 -0.004700231863358148 
0.008032339172873515 -0.005087578410958435 -0.004700231863358148 
0.008032339172873515 -0.005087578410958435 -0.004700231863358148 
0.008032339172873515 -0.005087578410958435 -0.004700231863358148 
0.008032339172873515 -0.005087578410958435 -0.004700231863358148 
0.008032339172873515 -0.005087578410958435 -0.004700231863358148 
0.01082927601548279 -0.006493046480993780 -0.004700307680786389 
0.008032339172873515 -0.005087578410958435 -0.004700231863358148 
0.003110413263480380 -0.006940767296146537 0.004840140318493698 
0.008031337343897970 -0.005086992420871196 -0.004700610243904341 
0.008032339172873515 -0.005087578410958435 -0.004700231863358148 
0.008032339172873515 -0.005087578410958435 -0.004700231863358148 
0.008032339172873515 -0.005087578410958435 -0.004700231863358148 
0.02812924991234465 -0.07496954583677377 0.04013275269530044 
0.008600609327455431 -0.06671361915233649 0.03212417336491166 
0.008032339172873515 -0.005087578410958435 -0.004700231863358148 
-0.02166329691872873 0.004304628759326554 0.008102986960750305 
0.008032339172873515 -0.005087578410958435 -0.004700231863358148 
0.04420403315339692 -0.007736045820537985 -0.03288283254643062 
0.07209143100836943 -0.03431070538654764 -0.04499313924179615 
-0.007940370040573092 0.05801574616483035 -0.06693582089700995 
-0.003001289257690984 -0.005086696643732149 0.002084917513668774 
0.008032339172873515 -0.005087578410958435 -0.004700231863358148 
0.008032339172873515 -0.005087578410958435 -0.004700231863358148 
0.008032339172873515 -0.005087578410958435 -0.004700231863358148 
0.008032339172873515 -0.005087578410958435 -0.004700231863358148 
0.008032339172873515 -0.005087578410958435 -0.004700231863358148 
0.008032339172873515 -0.005087578410958435 -0.004700231863358148 
0.008032339172873515 -0.005087578410958435 -0.004700231863358148 
-0.006613672594764714 -0.01119969141714688 0.01623772273436166 
0.008032339172873515 -0.005087578410958435 -0.004700231863358148 
0.04115540237206117 -0.02010566361403975 -0.02522095014845009 
0.01821611234493405 -0.02273223556973591 -0.0004271317548510137 
0.008032339172873515 -0.005087578410958435 -0.004700231863358148 
0.008032339172873515 -0.005087578410958435 -0.004700231863358148 
0.08638884434710274 -0.05599270940894653 -0.04459485056912897 
0.008031337343897970 -0.005086992420871196 -0.004700610243904341 
0.008032339172873515 -0.005087578410958435 -0.004700231863358148 
0.006347773718818363 0.001962385087170028 -0.009951303321867534 
0.008032339172873515 -0.005087578410958435 -0.004700231863358148 
0.008030678420022100 -0.005086478513535594 -0.004700793255700116 
0.008032339172873515 -0.005087578410958435 -0.004700231863358148 
0.008032339172873515 -0.005087578410958435 -0.004700231863358148 
0.008032339172873515 -0.005087578410958435 -0.004700231863358148 
0.008032339172873515 -0.005087578410958435 -0.004700231863358148 
0.008032339172873515 -0.005087578410958435 -0.004700231863358148 
0.01076067070689362 -0.005256687097040288 -0.006212081684434002 
0.008032339172873515 -0.005087578410958435 -0.004700231863358148 
0.008032339172873515 -0.005087578410958435 -0.004700231863358148 
0.008032339172873515 -0.005087578410958435 -0.004700231863358148 
0.008032339172873515 -0.005087578410958435 -0.004700231863358148 
0.01024214146251135 -0.005087036180820227 -0.006975129482262229 
0.009939390309006087 -0.005722051980591160 -0.004727451691614740 
-0.01213542620715450 0.007384493992830817 0.001325309055377607 
0.008032339172873515 -0.005087578410958435 -0.004700231863358148 
0.008032339172873515 -0.005087578410958435 -0.004700231863358148 
0.008032339172873515 -0.005087578410958435 -0.004700231863358148 
-0.02465064059865405 -0.03504072451922095 0.04252160012660541 
0.008032339172873515 -0.005087578410958435 -0.004700231863358148 
0.008032339172873515 -0.005087578410958435 -0.004700231863358148 
0.008032339172873515 -0.005087578410958435 -0.004700231863358148 
0.008032339172873515 -0.005087578410958435 -0.004700231863358148 
0.005910623456569598 -0.001940646576189528 -0.006063951388417655 
0.008032339172873515 -0.005087578410958435 -0.004700231863358148 
0.008032339172873515 -0.005087578410958435 -0.004700231863358148 
0.008032339172873515 -0.005087578410958435 -0.004700231863358148 
0.01080177273163907 -0.006292553390074968 -0.009389353314414853 
0.2322780374586908 -0.1103329452901485 -0.1283951339363436 
0.05212793162997740 -0.01851878492341375 -0.03768933297077827 
0.008032339172873515 -0.005087578410958435 -0.004700231863358148 
0.008032339172873515 -0.005087578410958435 -0.004700231863358148 
0.008032339172873515 -0.005087578410958435 -0.004700231863358148 
0.01052562478471436 -0.01725834207176795 0.004474153123272320 
0.01761427502817036 -0.006998505057798895 -0.01225298273894466 
0.008032339172873515 -0.005087578410958435 -0.004700231863358148 
0.008032339172873515 -0.005087578410958435 -0.004700231863358148 
0.008032339172873515 -0.005087578410958435 -0.004700231863358148 
0.008032339172873515 -0.005087578410958435 -0.004700231863358148 
0.008032339172873515 -0.005087578410958435 -0.004700231863358148 
-0.006407562749241388 -0.007204907411384963 0.009668993844972846 
0.009777926461447945 -0.01501119425957077 -0.008853364013938679 
0.008032339172873515 -0.005087578410958435 -0.004700231863358148 
0.008032339172873515 -0.005087578410958435 -0.004700231863358148 
0.01060350424654634 0.0004020920899657545 -0.01092906103098265 
0.006424060348034982 -0.005087696635841741 -0.003465527592666484 
0.006588523219141326 -0.002540928224185478 -0.002747794680016914 
0.008032339172873515 -0.005087578410958435 -0.004700231863358148 
0.008032339172873515 -0.005087578410958435 -0.004700231863358148 
0.008032339172873515 -0.005087578410958435 -0.004700231863358148 
0.01355253526952795 -0.009173713969192235 -0.006092649159362738 
0.008031337343897970 -0.005086992420871196 -0.004700610243904341 
0.008032339172873515 -0.005087578410958435 -0.004700231863358148 
0.008032339172873515 -0.005087578410958435 -0.004700231863358148 
0.01722206998738765 -0.01134961660731892 -0.006011506677636932 
0.01548146797696945 -0.01344170699371999 -0.001334989313703382 
0.06636850964360519 -0.03630387529045270 -0.02768929874144469 
0.01722206998738765 -0.01134961660731892 -0.006011506677636932 
0.004299313617908523 -0.01070932564751436 0.003530144055721970 
0.01722206998738765 -0.01134961660731892 -0.006011506677636932 
0.01722206998738765 -0.01134961660731892 -0.006011506677636932 
0.009593586489846071 -0.01790102622766243 0.007861438761774064 
0.01722206998738765 -0.01134961660731892 -0.006011506677636932 
0.01722206998738765 -0.01134961660731892 -0.006011506677636932 
0.01722206998738765 -0.01134961660731892 -0.006011506677636932 
0.04512718786123162 -0.04341255408204534 -0.01295965176429335 
0.05339053107143598 -0.07204565072136970 0.01261548324235871 
0.01722206998738765 -0.01134961660731892 -0.006011506677636932 
0.01722206998738765 -0.01134961660731892 -0.006011506677636932 
0.01722206998738765 -0.01134961660731892 -0.006011506677636932 
0.01722206998738765 -0.01134961660731892 -0.006011506677636932 
0.01722206998738765 -0.01134961660731892 -0.006011506677636932 
0.03525508690848757 -0.01846567553924933 -0.01944110189178062 
0.06828949743876270 -0.04689682852040174 -0.02302477014846743 
-0.003677600299916952 0.001101526539691599 0.004713497972326281 
0.01722206998738765 -0.01134961660731892 -0.006011506677636932 
0.005740405997347751 -0.03997447904748861 0.03004749197820778 
0.02080010579226004 -0.01788766142802479 -0.003351271180575348 
-0.04150405411527398 0.02594294684007014 -0.004280751949758797 
-0.0004038554113221768 0.008874309791634859 -0.02011298350173428 
0.01730294457697147 -0.01100614947201137 -0.01097577426349441 
0.01722206998738765 -0.01134961660731892 -0.006011506677636932 
0.01722206998738765 -0.01134961660731892 -0.006011506677636932 
0.01577518520615957 -0.003149936133693948 -0.01325521678546043 
0.01722206998738765 -0.01134961660731892 -0.006011506677636932 
0.03536248009064679 -0.02197927361194480 -0.01492242516542866 
0.01722206998738765 -0.01134961660731892 -0.006011506677636932 
-0.005510567539527776 -0.008355023261060020 -0.007107337670847408 
0.01722206998738765 -0.01134961660731892 -0.006011506677636932 
0.01722206998738765 -0.01134961660731892 -0.006011506677636932 
0.03437780167322051 -0.01995286365534026 -0.01419619451360917 
0.03787143768520290 -0.02026943495921794 -0.01583883307861909 
-0.009709404009109164 -0.07674909611370835 0.06929048236553367 
0.01722206998738765 -0.01134961660731892 -0.006011506677636932 
0.01722206998738765 -0.01134961660731892 -0.006011506677636932 
0.01722206998738765 -0.01134961660731892 -0.006011506677636932 
-0.02926800645969026 0.04112421755942316 -0.03878629768087590 
0.01722206998738765 -0.01134961660731892 -0.006011506677636932 
0.008037263528630944 0.01436530632017584 -0.02647009485876526 
0.01722206998738765 -0.01134961660731892 -0.006011506677636932 
0.01722206998738765 -0.01134961660731892 -0.006011506677636932 
0.01722206998738765 -0.01134961660731892 -0.006011506677636932 
0.01722206998738765 -0.01134961660731892 -0.006011506677636932 
0.01722206998738765 -0.01134961660731892 -0.006011506677636932 
0.01722206998738765 -0.01134961660731892 -0.006011506677636932 
0.01722206998738765 -0.01134961660731892 -0.006011506677636932 
0.01722206998738765 -0.01134961660731892 -0.006011506677636932 
0.01722206998738765 -0.01134961660731892 -0.006011506677636932 
-0.0002901946839831303 0.01336111868705451 -0.01309893424641608 
-0.01323266656760387 -0.03582500660368401 0.04183873297487249 
0.06106916746256220 -0.04414546436178978 -0.01965859077124828 
0.03131163836761879 -0.01358973158485917 -0.02342670607652106 
0.04920950700142673 -0.01955139438618903 -0.04314850151879369 
-0.001849928457214705 0.0007002181940213489 -0.008368782905822346 
-0.03535920073960441 -0.008372293370067688 0.03879777007847558 
0.01327651433706353 0.01208338920618036 -0.02404615232282874 
0.08278241315815996 -0.04848331782310883 -0.03892376333173275 
0.008848800360182773 -0.004111918735658483 -0.005300404688353111 
0.02652537457589473 -0.007078386085776204 -0.02160813085743056 
0.02918762406068315 -0.01507819057227716 -0.01790565333940069 
0.008848800360182773 -0.004111918735658483 -0.005300404688353111 
0.009396320976792674 -0.001770782722161400 -0.005951413133607804 
0.008848800360182773 -0.004111918735658483 -0.005300404688353111 
-0.03134698218362794 0.04260938205282046 -0.01657354234414711 
0.03120021090654870 -0.04764679335082665 0.008689792481166686 
0.008848800360182773 -0.004111918735658483 -0.005300404688353111 
0.008848800360182773 -0.004111918735658483 -0.005300404688353111 
0.008848800360182773 -0.004111918735658483 -0.005300404688353111 
0.008848800360182773 -0.004111918735658483 -0.005300404688353111 
0.04273250139376628 -0.02400031457733632 -0.02277931560161561 
0.008848800360182773 -0.004111918735658483 -0.005300404688353111 
0.008848800360182773 -0.004111918735658483 -0.005300404688353111 
0.02848778914757889 -0.02256968638079982 -0.02066619416932081 
0.008848800360182773 -0.004111918735658483 -0.005300404688353111 
0.008848800360182773 -0.004111918735658483 -0.005300404688353111 
0.008848800360182773 -0.004111918735658483 -0.005300404688353111 
0.0005883428073529067 0.009987270045972400 -0.02201611051418377 
0.008848800360182773 -0.004111918735658483 -0.005300404688353111 
0.09340734892441087 -0.02361576638066883 -0.08392350779461334 
0.008848800360182773 -0.004111918735658483 -0.005300404688353111 
0.008848800360182773 -0.004111918735658483 -0.005300404688353111 
0.008848800360182773 -0.004111918735658483 -0.005300404688353111 
0.008848800360182773 -0.004111918735658483 -0.005300404688353111 
0.008848800360182773 -0.004111918735658483 -0.005300404688353111 
0.008848800360182773 -0.004111918735658483 -0.005300404688353111 
0.008848800360182773 -0.004111918735658483 -0.005300404688353111 
0.008848800360182773 -0.004111918735658483 -0.005300404688353111 
0.008848800360182773 -0.004111918735658483 -0.005300404688353111 
0.01207336396260595 -0.02989043655317780 0.01693733831023683 
0.008848800360182773 -0.004111918735658483 -0.005300404688353111 
0.003985378328770671 -0.001140414990316705 -0.009568982329307270 
0.05165066913211228 -0.02623932553268522 -0.04100535207306093 
0.03996394330232780 0.007968669387468515 -0.05660711125666097 
0.008848800360182773 -0.004111918735658483 -0.005300404688353111 
0.02813137309364085 0.03819752455908734 -0.07455279374407381 
0.008848800360182773 -0.004111918735658483 -0.005300404688353111 
0.008848800360182773 -0.004111918735658483 -0.005300404688353111 
0.02597630612739784 -0.04022542464102398 0.005217289919271005 
0.01263725611694348 -0.004841281177856495 -0.007741858719926931 
0.008848800360182773 -0.004111918735658483 -0.005300404688353111 
0.008848800360182773 -0.004111918735658483 -0.005300404688353111 
-0.01608757030031862 0.04904196092788767 -0.04762475118665537 
-0.02007498499254867 -0.03605753391638894 0.03518983570078747 
0.06151564744647927 -0.03799621904285280 -0.02009565789854638 
0.008848800360182773 -0.004111918735658483 -0.005300404688353111 
0.02322962023099999 -0.01782022115752603 -0.005499873091013249 
0.03042263634102843 -0.02763666537755041 -0.005113486304731286 
0.02854382185307432 -0.01888471441959261 -0.02004582820988816 
0.02322962023099999 -0.01782022115752603 -0.005499873091013249 
0.02322962023099999 -0.01782022115752603 -0.005499873091013249 
0.02480020210977063 -0.01835856527988567 -0.006351503506619219 
0.02803090597390903 -0.01776077429395113 -0.01481571096203409 
0.02322962023099999 -0.01782022115752603 -0.005499873091013249 
0.04091834399199729 -0.02031320487738722 -0.02030686445039271 
0.02322962023099999 -0.01782022115752603 -0.005499873091013249 
0.03293682730312898 -0.03153410032862776 -0.001117510382746685 
0.02322962023099999 -0.01782022115752603 -0.005499873091013249 
0.02322962023099999 -0.01782022115752603 -0.005499873091013249 
0.01979339904719579 -0.009592175584142083 -0.009997557674874267 
0.02322962023099999 -0.01782022115752603 -0.005499873091013249 
0.008923559062042969 -0.004839786185620539 -0.005175424345769692 
0.02322962023099999 -0.01782022115752603 -0.005499873091013249 
0.02308320469347969 -0.06887642831497079 0.02462257108771485 
0.02322962023099999 -0.01782022115752603 -0.005499873091013249 
0.02339712656376137 0.005111644687966491 -0.03190123986498828 
0.02322962023099999 -0.01782022115752603 -0.005499873091013249 
0.02322962023099999 -0.01782022115752603 -0.005499873091013249 
0.02322962023099999 -0.01782022115752603 -0.005499873091013249 
0.02322962023099999 -0.01782022115752603 -0.005499873091013249 
0.02801531825520652 -0.01929064258024049 -0.008497476430419192 
0.04378776364639176 -0.03450977721807541 -0.01721393749661013 
-0.02697503537207116 0.007317214754146718 0.002734436493582887 
0.02322962023099999 -0.01782022115752603 -0.005499873091013249 
0.01472669706393674 -0.01320988956492522 -0.001569759234230384 
-0.002001296390381189 -0.01913418384150827 0.01735856544263608 
0.03263319690430093 -0.01685133975269067 -0.02034053514771211 
0.04589156524778643 -0.02062201169141692 -0.02377979256153390 
0.02556940997937653 -0.01283979530362353 -0.01288045316336318 
0.01814041010325914 -0.01062965700462589 -0.008910918487791731 
0.01814041010325914 -0.01062965700462589 -0.008910918487791731 
0.01492576549027090 0.007169356254458736 -0.02221536852857482 
0.01814041010325914 -0.01062965700462589 -0.008910918487791731 
0.01511159599187063 -0.01360456065193171 -0.003530945829734386 
0.01814041010325914 -0.01062965700462589 -0.008910918487791731 
0.01447470909648749 -0.02354637863236220 0.007307003165501745 
0.01479338359398257 -0.03925767121816065 0.02216460748575578 
0.01814041010325914 -0.01062965700462589 -0.008910918487791731 
0.03951404603966714 0.01416685560732284 -0.05413104443296878 
0.01814041010325914 -0.01062965700462589 -0.008910918487791731 
0.01814041010325914 -0.01062965700462589 -0.008910918487791731 
0.004313152882625269 -0.03540406882807456 0.02733027222230163 
0.04049521566155991 -0.05350625293977544 0.01658436336275727 
0.01814041010325914 -0.01062965700462589 -0.008910918487791731 
0.01814041010325914 -0.01062965700462589 -0.008910918487791731 
0.01814041010325914 -0.01062965700462589 -0.008910918487791731 
0.01814041010325914 -0.01062965700462589 -0.008910918487791731 
0.01814041010325914 -0.01062965700462589 -0.008910918487791731 
0.01814041010325914 -0.01062965700462589 -0.008910918487791731 
0.08496733905860619 -0.02394541269244499 -0.07799566937907990 
0.01814041010325914 -0.01062965700462589 -0.008910918487791731 
0.01814041010325914 -0.01062965700462589 -0.008910918487791731 
0.01814041010325914 -0.01062965700462589 -0.008910918487791731 
0.006003947693409739 0.007724664322038328 -0.01764418207471667 
0.008661804621012605 0.003819276308004463 -0.01719505811319505 
0.01359186061786411 0.003008199390527882 -0.01814511904359726 
0.01814041010325914 -0.01062965700462589 -0.008910918487791731 
0.01814041010325914 -0.01062965700462589 -0.008910918487791731 
-0.02948565450970361 -0.03330446248832592 0.04667462278476710 
0.01564781605642340 -0.01417687180072522 -0.003146452379617946 
0.01814041010325914 -0.01062965700462589 -0.008910918487791731 
0.01814041010325914 -0.01062965700462589 -0.008910918487791731 
0.01814041010325914 -0.01062965700462589 -0.008910918487791731 
-0.03973578611519678 -0.04400441665075549 0.07080171570801803 
0.01814041010325914 -0.01062965700462589 -0.008910918487791731 
0.01814041010325914 -0.01062965700462589 -0.008910918487791731 
0.01814041010325914 -0.01062965700462589 -0.008910918487791731 
0.01814041010325914 -0.01062965700462589 -0.008910918487791731 
0.01814041010325914 -0.01062965700462589 -0.008910918487791731 
0.01414092800343789 -0.02857097293297029 0.008160461889528122 
0.01814041010325914 -0.01062965700462589 -0.008910918487791731 
0.01814041010325914 -0.01062965700462589 -0.008910918487791731 
0.002166919820407531 0.003567708814431505 -0.009089639722188800 
0.01814041010325914 -0.01062965700462589 -0.008910918487791731 
0.01814041010325914 -0.01062965700462589 -0.008910918487791731 
0.01814041010325914 -0.01062965700462589 -0.008910918487791731 
0.01814041010325914 -0.01062965700462589 -0.008910918487791731 
0.01814041010325914 -0.01062965700462589 -0.008910918487791731 
0.01814041010325914 -0.01062965700462589 -0.008910918487791731 
0.03857952804243586 -0.01826211413348414 -0.02730618952828302 
0.01814041010325914 -0.01062965700462589 -0.008910918487791731 
0.01525102591521691 -0.01049511711262705 -0.007501817173349511 
0.01814041010325914 -0.01062965700462589 -0.008910918487791731 
0.01814041010325914 -0.01062965700462589 -0.008910918487791731 
0.01814041010325914 -0.01062965700462589 -0.008910918487791731 
0.01814041010325914 -0.01062965700462589 -0.008910918487791731 
0.01814041010325914 -0.01062965700462589 -0.008910918487791731 
0.01814041010325914 -0.01062965700462589 -0.008910918487791731 
0.07128084853828043 -0.08809987229161002 0.001692169129286308 
1.821381568328374e-06 -0.0001859723932008545 6.585629803713120e-07 
0.01096899153614776 -0.009320162353108325 -0.003410629035786942 
-0.01560478748219489 -0.002525452070279024 0.02087220228878729 
1.227724538782412e-06 -0.0009817263079638680 1.035214333732572e-06 
-0.001458389144483829 0.002950244479052289 -0.004429291995167558 
1.821381568328374e-06 -0.0001859723932008545 6.585629803713120e-07 
-0.0006381785667066047 0.0003597106382004521 -3.510843296017535e-07 
1.821381568328374e-06 -0.0001859723932008545 6.585629803713120e-07 
0.008449399109927942 -0.008901639531322635 0.003371520873548408 
1.821381568328374e-06 -0.0001859723932008545 6.585629803713120e-07 
1.821381568328374e-06 -0.0001859723932008545 6.585629803713120e-07 
1.821381568328374e-06 -0.0001859723932008545 6.585629803713120e-07 
-0.003434399802235876 0.008042073180183093 -0.004497026020880645 
1.821381568328374e-06 -0.0001859723932008545 6.585629803713120e-07 
0.1269897238396574 -0.05417224677371105 -0.07939362200385253 
1.821381568328374e-06 -0.0001859723932008545 6.585629803713120e-07 
0.04109060699584927 -0.1040574286143920 0.03573387241608841 
0.02281005726323089 -0.01415892906509282 -0.006258047958346077 
1.821381568328374e-06 -0.0001859723932008545 6.585629803713120e-07 
1.821381568328374e-06 -0.0001859723932008545 6.585629803713120e-07 
1.821381568328374e-06 -0.0001859723932008545 6.585629803713120e-07 
1.821381568328374e-06 -0.0001859723932008545 6.585629803713120e-07 
-0.009393956867728943 0.02480738486542818 -0.02436524556686774 
-0.001840712163302885 -0.002110669924745945 0.004082253943511035 
0.01338876932763966 -0.004109254647409594 -0.01532841394853702 
0.007855258639586840 -0.005613805288292150 -0.006865312490384912 
0.003878254152187024 -0.03421070290412548 0.02193461247597140 
-0.0006820965883304170 0.007831643875446341 -0.006073612215923383 
1.821381568328374e-06 -0.0001859723932008545 6.585629803713120e-07 
1.821381568328374e-06 -0.0001859723932008545 6.585629803713120e-07 
0.005330090962716957 0.01544193754167007 -0.02840820769744450 
1.821381568328374e-06 -0.0001859723932008545 6.585629803713120e-07 
-0.01516415916177046 -0.06680405890017843 0.07035099476598303 
0.02432552891869749 -0.01782513640570937 -0.007411154340410548 
0.003217919916110720 -0.0009803852288748150 -0.007400694603029611 
0.07305234843706303 -0.03475674408482850 -0.04946724364640555 
1.821381568328374e-06 -0.0001859723932008545 6.585629803713120e-07 
6.967411050424414e-07 -0.0009775178371564382 1.538483869342070e-06 
1.821381568328374e-06 -0.0001859723932008545 6.585629803713120e-07 
1.821381568328374e-06 -0.0001859723932008545 6.585629803713120e-07 
0.02029260726715909 0.006609000278205247 -0.02793399500261245 
-0.04467505963386727 0.02324550536396848 0.01594405939147111 
1.821381568328374e-06 -0.0001859723932008545 6.585629803713120e-07 
1.821381568328374e-06 -0.0001859723932008545 6.585629803713120e-07 
0.06627143848115913 -0.02306094408279785 -0.04484368072352449 
1.821381568328374e-06 -0.0001859723932008545 6.585629803713120e-07 
0.003581812484873036 -0.001584210493269717 -0.002292449310957574 
0.04951833115953372 -0.04127916142032509 -0.01920211662345933 
-0.0002861977587397121 0.01719048936395253 -0.01800977154751658 
1.821381568328374e-06 -0.0001859723932008545 6.585629803713120e-07 
1.821381568328374e-06 -0.0001859723932008545 6.585629803713120e-07 
0.01805001138336605 0.01022314107120340 -0.03812016677831723 
1.821381568328374e-06 -0.0001859723932008545 6.585629803713120e-07 
-0.01193693648631422 0.02865311569045635 -0.03360247672787207 
-0.004687944507546854 -0.0009820666147761805 0.003754845499302272 
1.821381568328374e-06 -0.0001859723932008545 6.585629803713120e-07 
0.008005644663245746 0.003336268555070381 -0.01693976898645372 
0.004004432717776126 -0.002947802118221821 -0.001365172674152999 
0.01235845538194924 -0.01048694560966593 -0.0001582427661044472 
0.01235845538194924 -0.01048694560966593 -0.0001582427661044472 
0.01235845538194924 -0.01048694560966593 -0.0001582427661044472 
0.01235845538194924 -0.01048694560966593 -0.0001582427661044472 
0.01235845538194924 -0.01048694560966593 -0.0001582427661044472 
0.005408296308259958 -0.01180234742364679 0.009077622037059006 
0.01156994363517108 0.001239671748272838 -0.03112597160629047 
0.008519012010012890 -0.01559733555525800 0.007330838157887130 
0.01235845538194924 -0.01048694560966593 -0.0001582427661044472 
-0.005879111447801203 0.006565099880110279 0.0006775647276703266 
0.01748265992010861 -0.03797680817828329 0.01733570840015336 
0.01235845538194924 -0.01048694560966593 -0.0001582427661044472 
0.01235845538194924 -0.01048694560966593 -0.0001582427661044472 
0.01235845538194924 -0.01048694560966593 -0.0001582427661044472 
0.01235845538194924 -0.01048694560966593 -0.0001582427661044472 
0.01235845538194924 -0.01048694560966593 -0.0001582427661044472 
0.01235845538194924 -0.01048694560966593 -0.0001582427661044472 
-0.02567624489129033 0.05336955274973849 -0.03113561243904883 
0.01235845538194924 -0.01048694560966593 -0.0001582427661044472 
0.01235845538194924 -0.01048694560966593 -0.0001582427661044472 
0.01235845538194924 -0.01048694560966593 -0.0001582427661044472 
0.01083806822495452 -0.006254165004416768 -0.003111584384828270 
0.006381770008133039 -0.01693346672100334 0.009183554068546883 
0.01235845538194924 -0.01048694560966593 -0.0001582427661044472 
0.01864231715155445 -0.01265507752536233 -0.003634602855134656 
0.0001980354569714914 0.006623846506257098 -0.008425245911275670 
0.01235775657733977 -0.006458194699069257 -0.005312935744042312 
0.009159620534451183 -0.001866796441096735 -0.004743305871218588 
0.01235845538194924 -0.01048694560966593 -0.0001582427661044472 
-0.001115411849467753 0.01213547185793677 -0.01113933004055970 
0.01583974244360626 -0.02309828706202144 0.009950385170243605 
0.01235845538194924 -0.01048694560966593 -0.0001582427661044472 
0.01235845538194924 -0.01048694560966593 -0.0001582427661044472 
0.008439614607183432 -0.006172464431548459 -0.0001585451705392220 
0.01235845538194924 -0.01048694560966593 -0.0001582427661044472 
-0.007959614214558776 0.01983209660200896 -0.01686087720681961 
-0.0009680476104181842 0.01202158475170428 -0.01086979436542748 
0.01483268070177491 -0.01112553238900175 -0.003635294931969443 
0.01235845538194924 -0.01048694560966593 -0.0001582427661044472 
0.06790448975006216 -0.01359919350961224 -0.05648411255114109 
0.007472582272500928 0.007337050349861269 -0.01487528801410590 
0.01235845538194924 -0.01048694560966593 -0.0001582427661044472 
0.01235845538194924 -0.01048694560966593 -0.0001582427661044472 
0.01235845538194924 -0.01048694560966593 -0.0001582427661044472 
0.01235845538194924 -0.01048694560966593 -0.0001582427661044472 
0.01235845538194924 -0.01048694560966593 -0.0001582427661044472 
0.01235845538194924 -0.01048694560966593 -0.0001582427661044472 
0.01235845538194924 -0.01048694560966593 -0.0001582427661044472 
0.01235845538194924 -0.01048694560966593 -0.0001582427661044472 
0.01235845538194924 -0.01048694560966593 -0.0001582427661044472 
0.01235845538194924 -0.01048694560966593 -0.0001582427661044472 
0.02408008883873125 -0.01884858341921033 -0.003828303933732410 
0.01235845538194924 -0.01048694560966593 -0.0001582427661044472 
0.01235845538194924 -0.01048694560966593 -0.0001582427661044472 
0.02484983103005589 -0.01882897818056569 -0.001094483293653795 
0.01235845538194924 -0.01048694560966593 -0.0001582427661044472 
0.01235845538194924 -0.01048694560966593 -0.0001582427661044472 
0.008223597063521179 -0.02226453415138208 0.01821709051716470 
0.01235845538194924 -0.01048694560966593 -0.0001582427661044472 
0.04053986789630783 -0.02729515473855627 -0.01396064862628337 
0.01235845538194924 -0.01048694560966593 -0.0001582427661044472 
0.03626500825858622 -0.02844435193693131 -0.007280522922429555 
-0.007852362459051122 -0.004226712209462449 0.008467194416024242 
0.01235845538194924 -0.01048694560966593 -0.0001582427661044472 
0.006035684622279870 0.001742546510915193 -0.006862109010875152 
-0.01896130310695815 -0.03472677013035252 0.04534241131769558 
0.01235845538194924 -0.01048694560966593 -0.0001582427661044472 
0.01235845538194924 -0.01048694560966593 -0.0001582427661044472 
0.01235845538194924 -0.01048694560966593 -0.0001582427661044472 
0.03835487021585751 -0.02800810850283136 -0.01008321444606078 
0.01235845538194924 -0.01048694560966593 -0.0001582427661044472 
0.01235845538194924 -0.01048694560966593 -0.0001582427661044472 
0.007025833331325742 -0.004763206291322817 -0.003924102532518617 
0.01916652952928714 -0.01082974817102452 -0.008524622618091810 
-0.0007144656905230982 0.007829157214413277 -0.004237257841608310 
0.01235845538194924 -0.01048694560966593 -0.0001582427661044472 
0.01235845538194924 -0.01048694560966593 -0.0001582427661044472 
0.005285459310299025 0.03453061089617534 -0.04699138902640518 
0.01235845538194924 -0.01048694560966593 -0.0001582427661044472 
0.01235845538194924 -0.01048694560966593 -0.0001582427661044472 
0.01235845538194924 -0.01048694560966593 -0.0001582427661044472 
0.01235845538194924 -0.01048694560966593 -0.0001582427661044472 
0.01748647986165657 -0.01025960915050820 -0.006109350143733206 
0.01748635058885310 -0.01143283475798260 -0.004237727967045631 
0.01748635058885310 -0.01143283475798260 -0.004237727967045631 
0.02446664939191243 -0.02534903553699016 0.002729956708825147 
0.01748635058885310 -0.01143283475798260 -0.004237727967045631 
-8.547158982830905e-05 -0.008721460932885254 0.003788617141214265 
0.01748635058885310 -0.01143283475798260 -0.004237727967045631 
0.01748635058885310 -0.01143283475798260 -0.004237727967045631 
0.04707728256095902 -0.05889030193750150 0.0004509785601779060 
0.04125082964259866 -0.02831714540445149 -0.01589564810717184 
0.01748635058885310 -0.01143283475798260 -0.004237727967045631 
0.01748635058885310 -0.01143283475798260 -0.004237727967045631 
0.01969615287849094 -0.01143229252784439 -0.006512625585949713 
0.01002886248088131 0.008083028923190707 -0.01615948739071809 
0.04412951807636474 -0.02532921656357115 -0.02102135293676703 
0.006680576821275339 0.005022539424978858 -0.01609883747727981 
0.01765402105261991 1.249502215182394e-05 -0.02071086093587709 
0.01748635058885310 -0.01143283475798260 -0.004237727967045631 
0.01963902976237994 -0.01058187451995404 -0.002901395125005958 
0.01748635058885310 -0.01143283475798260 -0.004237727967045631 
0.01748635058885310 -0.01143283475798260 -0.004237727967045631 
0.01748635058885310 -0.01143283475798260 -0.004237727967045631 
0.01748635058885310 -0.01143283475798260 -0.004237727967045631 
0.01748635058885310 -0.01143283475798260 -0.004237727967045631 
0.02208673279928982 -0.006485929071683209 -0.01393949520198188 
0.01748635058885310 -0.01143283475798260 -0.004237727967045631 
-0.005328139800997308 -0.009033695877952358 0.007526874204708577 
0.05483946663930286 -0.02980500414038808 -0.02645771569521255 
0.01748635058885310 -0.01143283475798260 -0.004237727967045631 
0.01748635058885310 -0.01143283475798260 -0.004237727967045631 
0.01748635058885310 -0.01143283475798260 -0.004237727967045631 
-0.002526641368646368 0.001589704271953114 -0.005036662549900112 
0.01748635058885310 -0.01143283475798260 -0.004237727967045631 
0.01748635058885310 -0.01143283475798260 -0.004237727967045631 
-0.004016569743021666 -0.002651775555318754 0.001988706408173497 
0.02279478632026558 -0.01119049613134627 -0.01164052188908043 
0.02677094559155038 -0.009047754928056612 -0.02185112601135342 
0.01748635058885310 -0.01143283475798260 -0.004237727967045631 
0.01748635058885310 -0.01143283475798260 -0.004237727967045631 
0.01748635058885310 -0.01143283475798260 -0.004237727967045631 
0.01748635058885310 -0.01143283475798260 -0.004237727967045631 
0.01748635058885310 -0.01143283475798260 -0.004237727967045631 
0.01748635058885310 -0.01143283475798260 -0.004237727967045631 
0.01748635058885310 -0.01143283475798260 -0.004237727967045631 
0.1450848694305957 -0.07308589189196134 -0.08366515805223830 
0.006107410959067706 0.001983755020554457 -0.03209771598385615 
-0.006422980628615761 -0.003848073087351204 0.01010592775581548 
-1.397838436656055e-06 2.447457263883699e-06 1.358009006058809e-06 
-0.01666562027753167 -0.01886936653988430 0.02637216136805050 
-1.397838436656055e-06 2.447457263883699e-06 1.358009006058809e-06 
0.002471618155637852 -0.0001707992484221752 -0.0002419208118020384 
-1.397838436656055e-06 2.447457263883699e-06 1.358009006058809e-06 
-1.397838436656055e-06 2.447457263883699e-06 1.358009006058809e-06 
0.007106760624285618 -0.02859284241538604 0.001267182123398201 
-0.06590043595574252 0.08083841266355812 -0.03259345539552067 
-1.397838436656055e-06 2.447457263883699e-06 1.358009006058809e-06 
0.02189693303697789 -0.01599256912514401 -0.004184946954640318 
-1.397838436656055e-06 2.447457263883699e-06 1.358009006058809e-06 
0.008166480815437761 -0.01971501265276816 -0.004140516152713592 
0.03329127156241636 -0.06803506232317856 0.02536650228279315 
0.01187312005635744 0.001466122924637294 -0.01296487411276517 
-0.02368272908287732 -0.01023796385830964 0.02663991067705256 
0.05575886783267089 -0.03026971711747037 -0.02911456448944619 
-1.397838436656055e-06 2.447457263883699e-06 1.358009006058809e-06 
-0.01262783442841893 -0.04475031078402008 0.03652582048380981 
-0.007987906413696400 0.04220213142804991 -0.05461736121716233 
0.03350220936055881 -0.008863348066241520 -0.03028804881958008 
0.05344702363469848 -0.03337684080917733 -0.03161994269549728 
-0.01663220227778357 0.02042058465292996 -0.005589816583986835 
0.01281633812893085 -0.03217726605955926 0.02043717896689119 
0.02335860925874215 -0.01007731579308108 -0.01635270635431196 
-1.397838436656055e-06 2.447457263883699e-06 1.358009006058809e-06 
-0.0005850948201911010 0.01866389038681502 -0.02027236463838034 
-1.397838436656055e-06 2.447457263883699e-06 1.358009006058809e-06 
-0.001830396188243010 -0.006255891344269281 0.005668260460235993 
0.01337769375878298 -0.007114050731314884 -0.006636432001257991 
0.09175715407524260 -0.04924056704195719 -0.05267095916021457 
-0.02957791927228093 0.002742292493669429 0.02635766295576644 
-0.01135408153221489 -0.001858153547648599 0.008360341779968949 
0.006553242461453508 -0.01997762099283839 0.01097561211207176 
-1.531124167631400e-06 2.682113694803592e-06 1.051477301353921e-06 
-0.01596529859523432 0.005254655385972079 0.005127881949890997 
0.003389640804601044 -4.791472466714043e-05 -0.007563620370671664 
0.004476551837834155 -0.005397500079160275 -0.002684670583981095 
0.008159351624685958 -0.005562473782736690 -0.005357557517744156 
0.01414658131530549 -0.001579832253577556 -0.01819913407759385 
0.04537635074795508 -0.02295097106173822 -0.02115080477303966 
-0.002962450999529938 0.005814861627919161 -0.01266970936089385 
0.01248560189600706 0.01834227797042782 -0.03445055705612234 
-0.0007388098822141741 2.084039097393740e-06 0.001266097862742582 
0.009143474532924650 -0.01779916486662211 0.007088711507341665 
0.007189138719040356 0.001226986976091222 -0.01043765721913492 
0.01684073242587229 -0.006178208430416477 -0.01452438946948668 
0.01672226699878171 -0.005725363914031405 -0.007474247590552123 
0.002796355630977597 -0.001407550531392465 1.776160946756985e-06 
0.007835425355447140 -0.01028246166558947 -0.006363087120420607 
0.002801239225310992 -0.001125933827374123 -0.0004283664862152446 
0.03259254025410034 -0.008147988259353374 -0.02592119477922364 
0.08094047857202201 -0.04031597727633565 -0.04544478222994547 
-0.006045846594234820 -0.007653547611439933 0.007985413999477733 
0.07602286864924603 -0.02650544246240692 -0.06173262030898226 
0.001474603186386323 0.01067340363551934 -0.01170457896156219 
-1.397838436656055e-06 2.447457263883699e-06 1.358009006058809e-06 
-1.397838436656055e-06 2.447457263883699e-06 1.358009006058809e-06 
0.02227490191781193 -0.05334738569648331 0.02154501367512419 
0.01348728819499404 -0.007000350390288220 -0.006638882000323624 
0.01348728819499404 -0.007000350390288220 -0.006638882000323624 
0.03341337531832595 -0.02112057030490694 -0.01589261027069663 
0.009320316242090938 -0.02670440410806426 0.01086983442806489 
0.01348728819499404 -0.007000350390288220 -0.006638882000323624 
0.01348728819499404 -0.007000350390288220 -0.006638882000323624 
0.01130522174360086 -0.0003792101203664626 -0.01224135946093931 
0.002922602890896845 0.009848396455676058 -0.01327029233925359 
0.01432992416888613 -0.01863178045829610 0.004659555409640036 
0.01348728819499404 -0.007000350390288220 -0.006638882000323624 
0.01348728819499404 -0.007000350390288220 -0.006638882000323624 
0.01348728819499404 -0.007000350390288220 -0.006638882000323624 
0.01348728819499404 -0.007000350390288220 -0.006638882000323624 
0.01348728819499404 -0.007000350390288220 -0.006638882000323624 
0.01134906014062838 -0.01179485254000403 5.527833822963744e-05 
0.01348728819499404 -0.007000350390288220 -0.006638882000323624 
0.01348728819499404 -0.007000350390288220 -0.006638882000323624 
0.01348728819499404 -0.007000350390288220 -0.006638882000323624 
0.01348728819499404 -0.007000350390288220 -0.006638882000323624 
0.01348728819499404 -0.007000350390288220 -0.006638882000323624 
0.01348728819499404 -0.007000350390288220 -0.006638882000323624 
0.01348728819499404 -0.007000350390288220 -0.006638882000323624 
0.01348728819499404 -0.007000350390288220 -0.006638882000323624 
0.01348728819499404 -0.007000350390288220 -0.006638882000323624 
0.01348728819499404 -0.007000350390288220 -0.006638882000323624 
0.01348728819499404 -0.007000350390288220 -0.006638882000323624 
0.01348728819499404 -0.007000350390288220 -0.006638882000323624 
0.005978514417169720 -0.02533802678284846 0.01146112184966256 
0.01348728819499404 -0.007000350390288220 -0.006638882000323624 
0.01348728819499404 -0.007000350390288220 -0.006638882000323624 
0.01348728819499404 -0.007000350390288220 -0.006638882000323624 
0.01348728819499404 -0.007000350390288220 -0.006638882000323624 
0.01348728819499404 -0.007000350390288220 -0.006638882000323624 
0.01348728819499404 -0.007000350390288220 -0.006638882000323624 
0.01714918661840623 0.002628908108711755 -0.02196227824560823 
0.06369527510147756 -0.04308929016656237 -0.02761834860906570 
0.009113242588331264 -0.01749520034430478 0.006277229978862571 
0.01348728819499404 -0.007000350390288220 -0.006638882000323624 
0.07182044974140882 -0.04930425220915157 -0.02199145158655975 
0.01348728819499404 -0.007000350390288220 -0.006638882000323624 
0.01348728819499404 -0.007000350390288220 -0.006638882000323624 
-0.02725443068289677 0.04456905838268283 -0.02340504689746706 
0.01348728819499404 -0.007000350390288220 -0.006638882000323624 
0.01348728819499404 -0.007000350390288220 -0.006638882000323624 
0.01348728819499404 -0.007000350390288220 -0.006638882000323624 
0.005906561407671703 0.003169956575103270 -0.009937761604516030 
0.01348728819499404 -0.007000350390288220 -0.006638882000323624 
0.01348728819499404 -0.007000350390288220 -0.006638882000323624 
-0.002360676857414899 -0.05001120468244354 0.05134845972986363 
0.01348728819499404 -0.007000350390288220 -0.006638882000323624 
0.01348728819499404 -0.007000350390288220 -0.006638882000323624 
0.01348728819499404 -0.007000350390288220 -0.006638882000323624 
0.01348728819499404 -0.007000350390288220 -0.006638882000323624 
0.01348728819499404 -0.007000350390288220 -0.006638882000323624 
-0.002684843107402697 0.006086195094695673 -0.007114093173192384 
-0.01484404421759095 -0.01774598625154096 0.02594124205517162 
0.007830323786993719 -0.01504385076821162 0.005328796670923441 
0.01348728819499404 -0.007000350390288220 -0.006638882000323624 
0.01348728819499404 -0.007000350390288220 -0.006638882000323624 
0.01348728819499404 -0.007000350390288220 -0.006638882000323624 
0.01348728819499404 -0.007000350390288220 -0.006638882000323624 
0.01348728819499404 -0.007000350390288220 -0.006638882000323624 
0.007914359194683303 -0.01227302436081913 0.001768538600623220 
0.01348728819499404 -0.007000350390288220 -0.006638882000323624 
0.01348728819499404 -0.007000350390288220 -0.006638882000323624 
0.01348728819499404 -0.007000350390288220 -0.006638882000323624 
0.01348728819499404 -0.007000350390288220 -0.006638882000323624 
-0.01886219171094416 0.04426244858525836 -0.03611195159941171 
0.01348728819499404 -0.007000350390288220 -0.006638882000323624 
0.01348728819499404 -0.007000350390288220 -0.006638882000323624 
0.006590415819328331 -0.007000766677455410 0.0001453020264025294 
0.01348728819499404 -0.007000350390288220 -0.006638882000323624 
0.01348728819499404 -0.007000350390288220 -0.006638882000323624 
-0.04695682652416348 0.04286712841684544 -0.01540943305009173 
-0.006300079105491918 0.01242044014965741 -0.006282128758270119 
0.01348728819499404 -0.007000350390288220 -0.006638882000323624 
0.01348728819499404 -0.007000350390288220 -0.006638882000323624 
0.02606259327796681 -0.04038948538201075 0.008074288801344243 
0.01348728819499404 -0.007000350390288220 -0.006638882000323624 
0.01348728819499404 -0.007000350390288220 -0.006638882000323624 
0.005718580662760968 -0.005010227718757530 -0.001098144927370962 
0.01314194122915936 -0.01044150576054607 -0.006091530092728688 
0.002920111007742408 -0.003599965187827515 -0.001097944220953306 
0.01314194122915936 -0.01044150576054607 -0.006091530092728688 
0.01438514627771710 -0.02519979681954849 0.008699159072707813 
0.002920111007742408 -0.003599965187827515 -0.001097944220953306 
0.002920111007742408 -0.003599965187827515 -0.001097944220953306 
-0.001027556212761756 0.008639355881490979 -0.007970869939271517 
0.002920111007742408 -0.003599965187827515 -0.001097944220953306 
0.05514264258335398 0.008294474019062387 -0.07746659951069006 
0.002920111007742408 -0.003599965187827515 -0.001097944220953306 
0.002920111007742408 -0.003599965187827515 -0.001097944220953306 
0.002920111007742408 -0.003599965187827515 -0.001097944220953306 
0.002920111007742408 -0.003599965187827515 -0.001097944220953306 
0.002920111007742408 -0.003599965187827515 -0.001097944220953306 
0.006973297360978740 -0.02046812667154293 0.01095432205625027 
0.002920111007742408 -0.003599965187827515 -0.001097944220953306 
0.002920111007742408 -0.003599965187827515 -0.001097944220953306 
0.002242503706721817 -0.02569678117837226 0.01712842823419515 
0.002920111007742408 -0.003599965187827515 -0.001097944220953306 
0.002920111007742408 -0.003599965187827515 -0.001097944220953306 
0.002920111007742408 -0.003599965187827515 -0.001097944220953306 
0.002920111007742408 -0.003599965187827515 -0.001097944220953306 
0.02637123081562788 -0.01791125871277656 -0.01363152522214172 
0.002920111007742408 -0.003599965187827515 -0.001097944220953306 
0.002920111007742408 -0.003599965187827515 -0.001097944220953306 
0.002920111007742408 -0.003599965187827515 -0.001097944220953306 
0.002920111007742408 -0.003599965187827515 -0.001097944220953306 
0.002920111007742408 -0.003599965187827515 -0.001097944220953306 
0.002920111007742408 -0.003599965187827515 -0.001097944220953306 
0.002920111007742408 -0.003599965187827515 -0.001097944220953306 
0.002920111007742408 -0.003599965187827515 -0.001097944220953306 
0.006957872753240132 -0.009413422084809409 0.002144937404287626 
0.02013150217828870 -0.003136678150052035 -0.01962493012391391 
0.002920111007742408 -0.003599965187827515 -0.001097944220953306 
0.002920111007742408 -0.003599965187827515 -0.001097944220953306 
0.002920111007742408 -0.003599965187827515 -0.001097944220953306 
0.002920111007742408 -0.003599965187827515 -0.001097944220953306 
0.006500102111047116 -0.004998203287896378 -0.003391052094891251 
0.0001215420499919326 -0.01274771790520266 0.01071920618691680 
0.002920111007742408 -0.003599965187827515 -0.001097944220953306 
0.002920111007742408 -0.003599965187827515 -0.001097944220953306 
0.002920111007742408 -0.003599965187827515 -0.001097944220953306 
0.002920111007742408 -0.003599965187827515 -0.001097944220953306 
0.002920111007742408 -0.003599965187827515 -0.001097944220953306 
0.0005294410475977563 0.0006406625531402819 -0.001640389378907269 
0.002920111007742408 -0.003599965187827515 -0.001097944220953306 
0.002920111007742408 -0.003599965187827515 -0.001097944220953306 
0.002920111007742408 -0.003599965187827515 -0.001097944220953306 
0.002920111007742408 -0.003599965187827515 -0.001097944220953306 
0.002920111007742408 -0.003599965187827515 -0.001097944220953306 
0.002920111007742408 -0.003599965187827515 -0.001097944220953306 
0.002920111007742408 -0.003599965187827515 -0.001097944220953306 
0.002920111007742408 -0.003599965187827515 -0.001097944220953306 
0.003119771082343775 -0.01133259642579857 0.005096079483948650 
0.006500102111047116 -0.004998203287896378 -0.003391052094891251 
-0.05483593229997986 0.08655364447306856 -0.03371632006723539 
0.002920111007742408 -0.003599965187827515 -0.001097944220953306 
0.002920111007742408 -0.003599965187827515 -0.001097944220953306 
0.002920111007742408 -0.003599965187827515 -0.001097944220953306 
-0.0006611357296268709 -0.01850313166391982 0.01500834884117454 
0.002920111007742408 -0.003599965187827515 -0.001097944220953306 
0.002920111007742408 -0.003599965187827515 -0.001097944220953306 
0.002920111007742408 -0.003599965187827515 -0.001097944220953306 
0.002920111007742408 -0.003599965187827515 -0.001097944220953306 
0.002920111007742408 -0.003599965187827515 -0.001097944220953306 
0.006833260394311045 -0.005064537665851040 -0.001687011211248469 
0.002920111007742408 -0.003599965187827515 -0.001097944220953306 
0.002920111007742408 -0.003599965187827515 -0.001097944220953306 
0.002920111007742408 -0.003599965187827515 -0.001097944220953306 
0.002920111007742408 -0.003599965187827515 -0.001097944220953306 
0.002920111007742408 -0.003599965187827515 -0.001097944220953306 
0.01019476074116327 -0.008276940838767215 -0.001198666259443790 
0.01059159925335805 -0.009032650501755210 -0.008779557159523882 
0.002920111007742408 -0.003599965187827515 -0.001097944220953306 
0.002920111007742408 -0.003599965187827515 -0.001097944220953306 
0.002920111007742408 -0.003599965187827515 -0.001097944220953306 
0.002920111007742408 -0.003599965187827515 -0.001097944220953306 
0.002920111007742408 -0.003599965187827515 -0.001097944220953306 
-0.001160578873930244 -0.02223001643807736 0.01928775019375115 
0.002920111007742408 -0.003599965187827515 -0.001097944220953306 
0.002920111007742408 -0.003599965187827515 -0.001097944220953306 
0.002920111007742408 -0.003599965187827515 -0.001097944220953306 
0.002920111007742408 -0.003599965187827515 -0.001097944220953306 
-0.009591252763705095 0.02205549721509493 -0.01311419390055738 
0.002920111007742408 -0.003599965187827515 -0.001097944220953306 
0.01189220448197730 -0.02192075527524835 0.007620694460797759 
0.002920111007742408 -0.003599965187827515 -0.001097944220953306 
0.002920111007742408 -0.003599965187827515 -0.001097944220953306 
0.002920111007742408 -0.003599965187827515 -0.001097944220953306 
0.002920111007742408 -0.003599965187827515 -0.001097944220953306 
0.002920111007742408 -0.003599965187827515 -0.001097944220953306 
0.002920111007742408 -0.003599965187827515 -0.001097944220953306 
0.002920111007742408 -0.003599965187827515 -0.001097944220953306 
0.002920111007742408 -0.003599965187827515 -0.001097944220953306 
0.002920111007742408 -0.003599965187827515 -0.001097944220953306 
0.002920111007742408 -0.003599965187827515 -0.001097944220953306 
0.002920111007742408 -0.003599965187827515 -0.001097944220953306 
0.009988584954036050 -0.009228150388708887 -0.002348083350662110 
0.002920111007742408 -0.003599965187827515 -0.001097944220953306 
0.002920111007742408 -0.003599965187827515 -0.001097944220953306 
0.01314194122915936 -0.01044150576054607 -0.006091530092728688 
0.002920111007742408 -0.003599965187827515 -0.001097944220953306 
0.01882651539712598 0.02707868995551109 -0.05041572977629839 
0.02054464215108902 -0.01052530572604440 -0.01117542765551235 
0.006884559309249581 0.004215588845707189 -0.01184490568764895 
-0.0003452908096516288 -0.002554525746511784 -0.001527121371559399 
0.01945283462700079 0.008102378146580780 -0.02773905294094719 
0.003941414534606423 0.001039999505344196 -0.006871731275992482 
-0.001451092887012847 -0.01068463908271435 0.01005107856812304 
0.01963062815721560 -0.02225850594801421 0.003182509382834277 
0.01566059855149541 -0.01020891258885674 -0.005288692262371587 
-0.0002365007899583425 -0.02914947442656117 0.02390507593421952 
0.01566059855149541 -0.01020891258885674 -0.005288692262371587 
0.01566059855149541 -0.01020891258885674 -0.005288692262371587 
0.004094265386570657 -0.01154980356170122 0.006661178442837687 
0.01053795812220552 0.0006202836364143020 -0.01177794599215879 
0.01566059855149541 -0.01020891258885674 -0.005288692262371587 
0.01566059855149541 -0.01020891258885674 -0.005288692262371587 
4.318555204633318e-05 -0.02936965327322493 0.02384320644810615 
0.01002661531982662 -0.006088130184707092 -0.002533857000165266 
0.01566059855149541 -0.01020891258885674 -0.005288692262371587 
0.01566059855149541 -0.01020891258885674 -0.005288692262371587 
0.01566059855149541 -0.01020891258885674 -0.005288692262371587 
0.01585367694517785 -0.02836411433849623 0.01075970552480329 
0.005747499094876545 -0.003272240722514416 -0.004195743423435625 
0.01566059855149541 -0.01020891258885674 -0.005288692262371587 
0.01566059855149541 -0.01020891258885674 -0.005288692262371587 
0.01566059855149541 -0.01020891258885674 -0.005288692262371587 
0.01566059855149541 -0.01020891258885674 -0.005288692262371587 
0.01009525494786756 -0.01935696397524283 0.01254156015004317 
0.01566059855149541 -0.01020891258885674 -0.005288692262371587 
-0.01038458072810642 0.004488716339042198 -0.002415079273792796 
0.01566059855149541 -0.01020891258885674 -0.005288692262371587 
0.01566059855149541 -0.01020891258885674 -0.005288692262371587 
0.01566059855149541 -0.01020891258885674 -0.005288692262371587 
0.01313208591801494 -0.01020967876479878 -0.003597100961645033 
0.009811277456677068 0.002546770333142994 -0.01668769354935290 
-0.01429229358005929 -0.006523003449531299 0.01516371076951307 
0.01566059855149541 -0.01020891258885674 -0.005288692262371587 
0.02603025014394613 -0.02520547100493327 0.0001666450022452525 
0.01566059855149541 -0.01020891258885674 -0.005288692262371587 
0.01566059855149541 -0.01020891258885674 -0.005288692262371587 
0.01566059855149541 -0.01020891258885674 -0.005288692262371587 
0.01566059855149541 -0.01020891258885674 -0.005288692262371587 
0.01566059855149541 -0.01020891258885674 -0.005288692262371587 
0.05128988970966940 -0.02247407951316479 -0.02769831760772389 
0.01083217187656606 -0.004377242725739099 -0.007156982368116877 
0.01566059855149541 -0.01020891258885674 -0.005288692262371587 
0.01219661768607368 -0.01516658436468930 0.005044581239557906 
0.01566059855149541 -0.01020891258885674 -0.005288692262371587 
0.04198952699502903 -0.02724001818897009 -0.01443667137181368 
0.01566059855149541 -0.01020891258885674 -0.005288692262371587 
0.006456074154054785 -0.001001911533550038 -0.006809834792857402 
0.01566059855149541 -0.01020891258885674 -0.005288692262371587 
0.02951826589774681 -0.01633921290183748 -0.01842210365064982 
0.01566059855149541 -0.01020891258885674 -0.005288692262371587 
0.01566059855149541 -0.01020891258885674 -0.005288692262371587 
0.01566059855149541 -0.01020891258885674 -0.005288692262371587 
0.01566059855149541 -0.01020891258885674 -0.005288692262371587 
0.01148304969285209 -0.002302288481066330 -0.007661155779581962 
0.01566059855149541 -0.01020891258885674 -0.005288692262371587 
-0.003172467014326193 -0.02132909888920015 0.02191114017302262 
-0.03003747736114219 -0.07085378615546920 0.08995768598711947 
0.01566059855149541 -0.01020891258885674 -0.005288692262371587 
0.01566059855149541 -0.01020891258885674 -0.005288692262371587 
0.05345496001987066 -0.02478516202703642 -0.03378121684513510 
0.01178742014614177 -0.006057163776090265 -0.006878222051811936 
0.02181049495295620 -0.02126451943872886 -0.001285929370768663 
-0.03366097239084075 -0.04384230114865206 0.06918137142894401 
0.02181799342392473 -0.02126438386521495 -0.001302397852342438 
0.02591495722514771 -0.01591161197961282 -0.01346091495157504 
0.02474345435691701 -0.01591189684577431 -0.009448271879607464 
0.01178742014614177 -0.006057163776090265 -0.006878222051811936 
0.01104023535574576 -0.01100312363771370 -0.001926453456962303 
0.01865932472629168 -0.007251198569201181 -0.01205026940798773 
0.01178742014614177 -0.006057163776090265 -0.006878222051811936 
0.01178742014614177 -0.006057163776090265 -0.006878222051811936 
0.01178742014614177 -0.006057163776090265 -0.006878222051811936 
-0.08995320300745296 0.06981374840100680 0.001639521661239406 
0.03643314101077687 -0.02587092228710843 -0.007712837271054068 
0.01899399760956689 -0.002491110770529324 -0.01718253530322580 
0.01028765102078207 -0.01060298330425594 -0.0009921217823853606 
0.01178742014614177 -0.006057163776090265 -0.006878222051811936 
0.01178742014614177 -0.006057163776090265 -0.006878222051811936 
0.01178742014614177 -0.006057163776090265 -0.006878222051811936 
0.008854460742180960 -0.01140978636904482 0.001284120457026866 
0.01178742014614177 -0.006057163776090265 -0.006878222051811936 
0.01178742014614177 -0.006057163776090265 -0.006878222051811936 
0.01327328490658403 -0.003857213531216782 -0.006017818210644870 
0.01178742014614177 -0.006057163776090265 -0.006878222051811936 
0.01178742014614177 -0.006057163776090265 -0.006878222051811936 
0.008758606034753258 -0.009032067423396082 -0.001498249393754591 
0.02133917368578761 0.0003984198956734418 -0.02116384564347131 
0.01178742014614177 -0.006057163776090265 -0.006878222051811936 
0.01178742014614177 -0.006057163776090265 -0.006878222051811936 
0.008758606034753258 -0.009032067423396082 -0.001498249393754591 
0.007513766882096131 -0.02497529764601341 0.01365758369600739 
0.01178742014614177 -0.006057163776090265 -0.006878222051811936 
0.01178742014614177 -0.006057163776090265 -0.006878222051811936 
0.01178742014614177 -0.006057163776090265 -0.006878222051811936 
0.01178742014614177 -0.006057163776090265 -0.006878222051811936 
0.01178742014614177 -0.006057163776090265 -0.006878222051811936 
0.01026703298914705 -0.001824383170841109 -0.009831563670535759 
0.01178742014614177 -0.006057163776090265 -0.006878222051811936 
-0.006364412920583156 0.003098330561898762 0.002865256311615884 
0.01178742014614177 -0.006057163776090265 -0.006878222051811936 
0.02012638772318820 -0.008884024173441868 -0.01126583153425055 
0.01178742014614177 -0.006057163776090265 -0.006878222051811936 
0.01178742014614177 -0.006057163776090265 -0.006878222051811936 
0.01178742014614177 -0.006057163776090265 -0.006878222051811936 
0.009942750024412451 -0.009204502315403831 -0.001576956038579209 
0.01178742014614177 -0.006057163776090265 -0.006878222051811936 
0.01178742014614177 -0.006057163776090265 -0.006878222051811936 
0.01178742014614177 -0.006057163776090265 -0.006878222051811936 
0.01026703298914705 -0.001824383170841109 -0.009831563670535759 
0.01178742014614177 -0.006057163776090265 -0.006878222051811936 
0.01178742014614177 -0.006057163776090265 -0.006878222051811936 
0.01178742014614177 -0.006057163776090265 -0.006878222051811936 
0.01178742014614177 -0.006057163776090265 -0.006878222051811936 
0.01178742014614177 -0.006057163776090265 -0.006878222051811936 
0.01178742014614177 -0.006057163776090265 -0.006878222051811936 
0.01178742014614177 -0.006057163776090265 -0.006878222051811936 
0.01178742014614177 -0.006057163776090265 -0.006878222051811936 
0.01178742014614177 -0.006057163776090265 -0.006878222051811936 
0.01178742014614177 -0.006057163776090265 -0.006878222051811936 
0.01178742014614177 -0.006057163776090265 -0.006878222051811936 
0.01178742014614177 -0.006057163776090265 -0.006878222051811936 
0.01178742014614177 -0.006057163776090265 -0.006878222051811936 
0.01178742014614177 -0.006057163776090265 -0.006878222051811936 
0.01178742014614177 -0.006057163776090265 -0.006878222051811936 
0.01178742014614177 -0.006057163776090265 -0.006878222051811936 
0.01178742014614177 -0.006057163776090265 -0.006878222051811936 
0.01964680156809585 -0.005807681879292219 -0.01421427637021235 
0.01178742014614177 -0.006057163776090265 -0.006878222051811936 
0.01178742014614177 -0.006057163776090265 -0.006878222051811936 
0.01178742014614177 -0.006057163776090265 -0.006878222051811936 
0.01178742014614177 -0.006057163776090265 -0.006878222051811936 
-0.004070381986408333 -0.03347839930559381 0.03405558357448679 
0.02670280552538353 0.004396545712003393 -0.02973736508740856 
0.01178742014614177 -0.006057163776090265 -0.006878222051811936 
0.01178742014614177 -0.006057163776090265 -0.006878222051811936 
0.01178742014614177 -0.006057163776090265 -0.006878222051811936 
0.01536741124944648 -0.007455401876159128 -0.009171329925749882 
0.01178742014614177 -0.006057163776090265 -0.006878222051811936 
0.02262228100570380 -0.02483447648975203 0.001602781187369196 
0.01374714617458483 -0.007914625686806070 -0.006884802279289886 
0.01178742014614177 -0.006057163776090265 -0.006878222051811936 
0.01178742014614177 -0.006057163776090265 -0.006878222051811936 
0.006073038035202759 -0.02949064026776314 0.01932971671567750 
0.01178742014614177 -0.006057163776090265 -0.006878222051811936 
0.01104023535574576 -0.01100312363771370 -0.001926453456962303 
-0.01186172777300242 0.01451684294126595 -0.008081705072664490 
0.01178742014614177 -0.006057163776090265 -0.006878222051811936 
0.01542862507778433 -0.008540841126723002 -0.007396935049718383 
0.01076017513616970 0.003527878761496867 -0.01511688673135402 
0.02509640075003837 -0.01688474461401132 -0.007482266382392315 
-0.0001266415405491768 0.0004640371330239229 -0.003654834234616469 
0.004320302095714087 -0.01820734453692291 0.009710989207445897 
0.002279817333330875 0.01455976723392439 -0.02335420945215281 
-0.006035246828599502 -0.02465211368333353 0.02356041444951020 
0.01178742014614177 -0.006057163776090265 -0.006878222051811936 
0.007804393422694548 -0.01530803822168482 0.006133658480968350 
0.01178742014614177 -0.006057163776090265 -0.006878222051811936 
0.01178742014614177 -0.006057163776090265 -0.006878222051811936 
0.01202082220147009 -0.008257022501211951 -0.006614500957071503 
0.01654338969867753 -0.03212101644186906 0.002785739075633891 
0.02528752995240369 -0.01508132134876485 -0.01262103666635373 
0.01330387271529662 -0.008987265155584748 -0.006744270221864857 
0.01202082220147009 -0.008257022501211951 -0.006614500957071503 
0.05053745444921693 -0.02881461875875592 -0.02769976233698135 
0.01202082220147009 -0.008257022501211951 -0.006614500957071503 
0.01330387271529662 -0.008987265155584748 -0.006744270221864857 
0.01202082220147009 -0.008257022501211951 -0.006614500957071503 
0.03828146000438341 -0.04259116114736180 -0.001814654945689993 
0.01202082220147009 -0.008257022501211951 -0.006614500957071503 
0.01202082220147009 -0.008257022501211951 -0.006614500957071503 
0.01202082220147009 -0.008257022501211951 -0.006614500957071503 
0.03303326482123366 -0.003488829477646203 -0.03684740012565262 
0.01202082220147009 -0.008257022501211951 -0.006614500957071503 
0.01985674053262090 -0.007679761201673288 -0.01319260228159184 
0.01929547193489095 -0.01293399815215165 -0.006715222995561986 
0.01202082220147009 -0.008257022501211951 -0.006614500957071503 
-0.01652710477547175 -0.004570585358624564 0.01332250628799890 
0.01624875160603560 -0.008076414265299230 -0.009623195513601527 
0.01202082220147009 -0.008257022501211951 -0.006614500957071503 
0.01202082220147009 -0.008257022501211951 -0.006614500957071503 
0.01202082220147009 -0.008257022501211951 -0.006614500957071503 
0.01202082220147009 -0.008257022501211951 -0.006614500957071503 
0.002978483638347543 -0.004059502528194459 -0.0004443620624743255 
0.01202082220147009 -0.008257022501211951 -0.006614500957071503 
0.01202082220147009 -0.008257022501211951 -0.006614500957071503 
0.01202082220147009 -0.008257022501211951 -0.006614500957071503 
0.01202082220147009 -0.008257022501211951 -0.006614500957071503 
0.01202082220147009 -0.008257022501211951 -0.006614500957071503 
0.01202082220147009 -0.008257022501211951 -0.006614500957071503 
0.01202082220147009 -0.008257022501211951 -0.006614500957071503 
0.01202082220147009 -0.008257022501211951 -0.006614500957071503 
0.01126155050384777 -0.01388233835648579 -6.653213121470760e-05 
0.01202082220147009 -0.008257022501211951 -0.006614500957071503 
0.01202082220147009 -0.008257022501211951 -0.006614500957071503 
0.01330387271529662 -0.008987265155584748 -0.006744270221864857 
0.02562636859730194 -0.02675284321340355 -0.005921370152318211 
0.01869480752083040 0.0007350051406521689 -0.02699496383736264 
0.01202082220147009 -0.008257022501211951 -0.006614500957071503 
0.003479777925412886 -0.03263533410644859 0.01970277140328496 
0.01202082220147009 -0.008257022501211951 -0.006614500957071503 
0.01202082220147009 -0.008257022501211951 -0.006614500957071503 
0.01202082220147009 -0.008257022501211951 -0.006614500957071503 
0.03033004334828294 -0.01547816277336459 -0.01787182700533964 
0.01202082220147009 -0.008257022501211951 -0.006614500957071503 
0.01202082220147009 -0.008257022501211951 -0.006614500957071503 
0.01202082220147009 -0.008257022501211951 -0.006614500957071503 
0.01202082220147009 -0.008257022501211951 -0.006614500957071503 
0.01330387271529662 -0.008987265155584748 -0.006744270221864857 
0.01330387271529662 -0.008987265155584748 -0.006744270221864857 
0.01022183022141695 -0.006841540572718558 -0.004993585871775382 
0.01022183022141695 -0.006841540572718558 -0.004993585871775382 
0.01022183022141695 -0.006841540572718558 -0.004993585871775382 
0.01022183022141695 -0.006841540572718558 -0.004993585871775382 
0.01195358740360445 -0.001148814737121514 -0.01281720876560536 
0.01022183022141695 -0.006841540572718558 -0.004993585871775382 
0.01022183022141695 -0.006841540572718558 -0.004993585871775382 
0.01022183022141695 -0.006841540572718558 -0.004993585871775382 
0.01022183022141695 -0.006841540572718558 -0.004993585871775382 
0.01022183022141695 -0.006841540572718558 -0.004993585871775382 
0.01022183022141695 -0.006841540572718558 -0.004993585871775382 
0.01022183022141695 -0.006841540572718558 -0.004993585871775382 
0.01022183022141695 -0.006841540572718558 -0.004993585871775382 
0.01022183022141695 -0.006841540572718558 -0.004993585871775382 
0.01022183022141695 -0.006841540572718558 -0.004993585871775382 
-0.0003244002457284193 -0.004432064432250944 0.003584307598998986 
0.01022183022141695 -0.006841540572718558 -0.004993585871775382 
0.01022183022141695 -0.006841540572718558 -0.004993585871775382 
0.01022183022141695 -0.006841540572718558 -0.004993585871775382 
0.01022183022141695 -0.006841540572718558 -0.004993585871775382 
0.003870771028728196 0.001742568884091489 -0.005646642105468797 
0.01022183022141695 -0.006841540572718558 -0.004993585871775382 
0.01022183022141695 -0.006841540572718558 -0.004993585871775382 
0.02009552808508625 -0.01112390082511836 -0.01070971403279493 
0.01022183022141695 -0.006841540572718558 -0.004993585871775382 
0.01499357172224481 -0.008883971841453757 -0.008356615472558063 
0.01022183022141695 -0.006841540572718558 -0.004993585871775382 
0.01022183022141695 -0.006841540572718558 -0.004993585871775382 
0.01566857146322332 -0.02694349157559998 0.01137559122652074 
0.01022183022141695 -0.006841540572718558 -0.004993585871775382 
0.01022183022141695 -0.006841540572718558 -0.004993585871775382 
0.01022183022141695 -0.006841540572718558 -0.004993585871775382 
0.01022183022141695 -0.006841540572718558 -0.004993585871775382 
0.01022183022141695 -0.006841540572718558 -0.004993585871775382 
0.01022183022141695 -0.006841540572718558 -0.004993585871775382 
0.01022183022141695 -0.006841540572718558 -0.004993585871775382 
0.03256942023451306 -0.02643815535379857 -0.009927130207115530 
0.01022183022141695 -0.006841540572718558 -0.004993585871775382 
0.01022183022141695 -0.006841540572718558 -0.004993585871775382 
0.01022183022141695 -0.006841540572718558 -0.004993585871775382 
0.01022183022141695 -0.006841540572718558 -0.004993585871775382 
0.01022183022141695 -0.006841540572718558 -0.004993585871775382 
0.01224576954804509 -0.05133438028969155 0.03235950572441635 
0.01022183022141695 -0.006841540572718558 -0.004993585871775382 
0.01022183022141695 -0.006841540572718558 -0.004993585871775382 
0.01022183022141695 -0.006841540572718558 -0.004993585871775382 
0.01022183022141695 -0.006841540572718558 -0.004993585871775382 
0.01022183022141695 -0.006841540572718558 -0.004993585871775382 
0.01022183022141695 -0.006841540572718558 -0.004993585871775382 
0.01022183022141695 -0.006841540572718558 -0.004993585871775382 
0.01022183022141695 -0.006841540572718558 -0.004993585871775382 
0.01022183022141695 -0.006841540572718558 -0.004993585871775382 
0.01022183022141695 -0.006841540572718558 -0.004993585871775382 
0.01557491480426189 -0.01017023970839521 -0.007970747542386063 
0.02674248887112687 -0.01998291640197371 -0.01114665172518474 
0.01022183022141695 -0.006841540572718558 -0.004993585871775382 
0.01022183022141695 -0.006841540572718558 -0.004993585871775382 
0.01022183022141695 -0.006841540572718558 -0.004993585871775382 
0.01022183022141695 -0.006841540572718558 -0.004993585871775382 
0.01022183022141695 -0.006841540572718558 -0.004993585871775382 
0.01022183022141695 -0.006841540572718558 -0.004993585871775382 
0.01022183022141695 -0.006841540572718558 -0.004993585871775382 
0.01022183022141695 -0.006841540572718558 -0.004993585871775382 
0.01022183022141695 -0.006841540572718558 -0.004993585871775382 
0.01022183022141695 -0.006841540572718558 -0.004993585871775382 
0.01022183022141695 -0.006841540572718558 -0.004993585871775382 
0.01022183022141695 -0.006841540572718558 -0.004993585871775382 
0.01022183022141695 -0.006841540572718558 -0.004993585871775382 
0.01022183022141695 -0.006841540572718558 -0.004993585871775382 
0.01022183022141695 -0.006841540572718558 -0.004993585871775382 
0.005575884024245870 -0.01544229278068211 0.006042422418629613 
0.01022183022141695 -0.006841540572718558 -0.004993585871775382 
0.009737428773588740 -0.01776103429008242 0.006984895541511985 
0.01022183022141695 -0.006841540572718558 -0.004993585871775382 
0.01022183022141695 -0.006841540572718558 -0.004993585871775382 
0.01022183022141695 -0.006841540572718558 -0.004993585871775382 
0.01413497960798559 -0.008306113050742083 -0.005582652862070546 
0.01022183022141695 -0.006841540572718558 -0.004993585871775382 
-0.04475185426597893 -0.01775889377130428 0.05087399253145029 
0.01022183022141695 -0.006841540572718558 -0.004993585871775382 
0.01022183022141695 -0.006841540572718558 -0.004993585871775382 
0.01022183022141695 -0.006841540572718558 -0.004993585871775382 
0.01022183022141695 -0.006841540572718558 -0.004993585871775382 
0.007083502933131361 -0.0007521013715819164 -0.008834645508354302 
0.01022183022141695 -0.006841540572718558 -0.004993585871775382 
0.01022183022141695 -0.006841540572718558 -0.004993585871775382 
0.01394786767393940 -0.007501614096457239 -0.01499622184657588 
0.008830834011434240 -0.008156480933210935 -0.004412941262181579 
0.01169436856271903 -0.01060210507315099 -0.005776576805681636 
0.03828654915326439 -0.03361758003420733 -0.009182898302256260 
0.01169436856271903 -0.01060210507315099 -0.005776576805681636 
0.01117403808027320 -0.01633068140302265 0.002663339977724675 
0.02464080945847839 -0.02235349984547346 -0.01410659705113250 
-0.003127929144174765 0.009033672514362722 -0.004144851532145252 
0.008830834011434240 -0.008156480933210935 -0.004412941262181579 
0.008830834011434240 -0.008156480933210935 -0.004412941262181579 
0.01942808606273973 -0.01494222428160594 -0.01062105631295784 
0.008830834011434240 -0.008156480933210935 -0.004412941262181579 
0.01169436856271903 -0.01060210507315099 -0.005776576805681636 
0.008830834011434240 -0.008156480933210935 -0.004412941262181579 
0.01698065434246740 -0.01360968522440731 -0.005884716724560059 
0.004913203567394034 -0.05104606176806440 0.03354611226145547 
0.008830834011434240 -0.008156480933210935 -0.004412941262181579 
0.008830834011434240 -0.008156480933210935 -0.004412941262181579 
0.008830834011434240 -0.008156480933210935 -0.004412941262181579 
0.008830834011434240 -0.008156480933210935 -0.004412941262181579 
0.008830834011434240 -0.008156480933210935 -0.004412941262181579 
0.01175434417237803 -0.01494311023109462 -0.0006837509507825853 
-0.004487267649239631 0.02895233246324895 -0.03358110806650355 
0.008393979298929388 -0.02074194324974412 0.004568752969352084 
0.01171644135953109 -0.008761403841654000 -0.005509117741176883 
0.01360257551226210 -0.01019891220194613 -0.007775970862964259 
0.005743451845472749 0.03150937021813862 -0.05314915914408516 
0.008830834011434240 -0.008156480933210935 -0.004412941262181579 
0.01553171498573418 -0.01579393272205801 -0.003553144910132140 
-0.001569438134279699 0.01108009416510407 -0.01328146466030041 
0.03261069530583925 -0.02092188497403694 -0.01550678782809266 
0.008830834011434240 -0.008156480933210935 -0.004412941262181579 
0.03327152176794646 -0.02467605377082571 -0.01205841828583366 
0.008830834011434240 -0.008156480933210935 -0.004412941262181579 
0.01716980158848068 -0.01098334133056254 -0.008800550744620191 
0.008830834011434240 -0.008156480933210935 -0.004412941262181579 
0.008830834011434240 -0.008156480933210935 -0.004412941262181579 
0.008830834011434240 -0.008156480933210935 -0.004412941262181579 
0.006674345871139443 0.01308334701688507 -0.02716441160972769 
0.008830834011434240 -0.008156480933210935 -0.004412941262181579 
0.008830834011434240 -0.008156480933210935 -0.004412941262181579 
0.01400829188622450 -0.009008272102815384 -0.005721092614472189 
0.008830834011434240 -0.008156480933210935 -0.004412941262181579 
0.008830834011434240 -0.008156480933210935 -0.004412941262181579 
0.008830834011434240 -0.008156480933210935 -0.004412941262181579 
0.008830834011434240 -0.008156480933210935 -0.004412941262181579 
0.008830834011434240 -0.008156480933210935 -0.004412941262181579 
0.008830834011434240 -0.008156480933210935 -0.004412941262181579 
0.008830834011434240 -0.008156480933210935 -0.004412941262181579 
-0.009774131793833020 0.003299802948576492 0.0004573599598632095 
-0.007028487733224531 0.01356912064971458 -0.007782032753835021 
-0.01168072166690132 0.01128938570907059 -0.01220303976299077 
-0.0005656723985783285 0.006382345080270890 -0.008077992122901619 
-0.0006589114159345612 -0.001025238250428792 0.0003265752094538295 
0.03464825181411533 -0.03358328146543826 -0.01985222199303768 
-0.002546690742937285 0.003152103341692411 -0.003644616621659070 
-1.368555692233810e-06 5.396305938786308e-07 -0.001994408057845033 
0.003678916332844781 5.235914631207899e-07 -0.004016218325746864 
0.01362549385287292 -0.01038299815243458 -0.008798012492375674 
0.0001614631122475200 -0.03561373809303779 0.02377180066166422 
-0.007369422885808105 0.02082555248084200 -0.01951076795808579 
0.02037711954218964 -0.03219423756477192 0.006499256705696158 
0.01280823620952354 -0.002597341452910180 -0.01502369447938695 
-0.007308417454894660 -0.03862403517755276 0.04015724869266799 
-1.368555692233810e-06 5.396305938786308e-07 -0.001994408057845033 
-0.004988948088290385 -0.02345079986296706 0.02567788746776660 
0.001802567018996702 -0.001467769306506462 -0.003591329344345780 
0.01416058032338545 -0.001124467083309087 -0.01775549622448172 
-1.368555692233810e-06 5.396305938786308e-07 -0.001994408057845033 
0.02898138350237220 -0.02988179568314659 -0.006350956336451435 
0.03503944976287734 -0.03769378275514076 -0.007563589976772540 
0.01055268817914569 -0.004391129652654689 -0.005129740477297765 
-9.062182615735226e-07 3.184709198526267e-07 -0.0009307209838134725 
0.002728579365539974 -0.0001690340547686382 -0.004952159233797561 
0.005274208971143624 -0.004939327887658083 -0.0004184406243547651 
-9.062182615735226e-07 3.184709198526267e-07 -0.0009307209838134725 
-0.006313310774437016 0.008708653785813576 -0.006528512732448205 
0.02323530075330973 -0.01320717278283875 -0.01525807631624146 
-1.368555692233810e-06 5.396305938786308e-07 -0.001994408057845033 
0.01174510724137047 0.001658863251448672 -0.01117400611183495 
0.008149820331033161 -0.005453204291196374 -0.001471775462378481 
0.001141349033755566 0.004696490013733392 -0.006057530644327409 
0.008149820331033161 -0.005453204291196374 -0.001471775462378481 
0.008149820331033161 -0.005453204291196374 -0.001471775462378481 
0.03259175504446645 -0.008348998505246485 -0.02984748466409634 
0.008149820331033161 -0.005453204291196374 -0.001471775462378481 
-0.007499417764214061 0.01135589730683142 -0.008221729639186931 
0.008149820331033161 -0.005453204291196374 -0.001471775462378481 
0.008149820331033161 -0.005453204291196374 -0.001471775462378481 
0.002879055775722771 -0.007879330376243760 0.006488864723036215 
0.008149820331033161 -0.005453204291196374 -0.001471775462378481 
0.004164117882329506 -0.006246189069766595 0.002386048866345791 
0.008149820331033161 -0.005453204291196374 -0.001471775462378481 
0.008149820331033161 -0.005453204291196374 -0.001471775462378481 
0.009046880678001710 -0.004555299155310500 -0.008962010854883328 
0.008149820331033161 -0.005453204291196374 -0.001471775462378481 
0.008149820331033161 -0.005453204291196374 -0.001471775462378481 
0.008149820331033161 -0.005453204291196374 -0.001471775462378481 
0.008149820331033161 -0.005453204291196374 -0.001471775462378481 
0.008149820331033161 -0.005453204291196374 -0.001471775462378481 
0.008149820331033161 -0.005453204291196374 -0.001471775462378481 
0.008149820331033161 -0.005453204291196374 -0.001471775462378481 
0.008149820331033161 -0.005453204291196374 -0.001471775462378481 
0.008149820331033161 -0.005453204291196374 -0.001471775462378481 
0.008149820331033161 -0.005453204291196374 -0.001471775462378481 
-0.01001871456621431 0.02939061443857736 -0.02017294935609130 
0.008149820331033161 -0.005453204291196374 -0.001471775462378481 
0.008149820331033161 -0.005453204291196374 -0.001471775462378481 
0.008149820331033161 -0.005453204291196374 -0.001471775462378481 
0.008149820331033161 -0.005453204291196374 -0.001471775462378481 
0.008149820331033161 -0.005453204291196374 -0.001471775462378481 
0.008149820331033161 -0.005453204291196374 -0.001471775462378481 
0.008149820331033161 -0.005453204291196374 -0.001471775462378481 
0.008149820331033161 -0.005453204291196374 -0.001471775462378481 
0.008149820331033161 -0.005453204291196374 -0.001471775462378481 
0.008149820331033161 -0.005453204291196374 -0.001471775462378481 
0.008149687045302187 -0.005452969634765453 -0.001472081994083186 
0.008149820331033161 -0.005453204291196374 -0.001471775462378481 
0.008149820331033161 -0.005453204291196374 -0.001471775462378481 
-0.01075558596814220 0.007345973748183463 -0.002550784507403529 
0.008149820331033161 -0.005453204291196374 -0.001471775462378481 
0.008149820331033161 -0.005453204291196374 -0.001471775462378481 
0.004950985483535108 0.003166944877372816 -0.006056838567492623 
0.008149820331033161 -0.005453204291196374 -0.001471775462378481 
0.009720402209803797 -0.005991548413556013 -0.002323405877984451 
0.02102790734207695 -0.01178492707399011 -0.007298357673231186 
0.008149820331033161 -0.005453204291196374 -0.001471775462378481 
0.008149820331033161 -0.005453204291196374 -0.001471775462378481 
0.008149820331033161 -0.005453204291196374 -0.001471775462378481 
0.008149820331033161 -0.005453204291196374 -0.001471775462378481 
0.008149820331033161 -0.005453204291196374 -0.001471775462378481 
0.008149820331033161 -0.005453204291196374 -0.001471775462378481 
0.008149820331033161 -0.005453204291196374 -0.001471775462378481 
0.001503377709785728 -0.04839265817974765 0.04578401955373228 
0.0001263467440983395 0.007565441931138765 -0.007096105751418209 
0.008149820331033161 -0.005453204291196374 -0.001471775462378481 
0.006840592345528535 0.001195767801311044 -0.005488983658431475 
0.008149820331033161 -0.005453204291196374 -0.001471775462378481 
0.008149820331033161 -0.005453204291196374 -0.001471775462378481 
-0.01139721909670535 -0.009081195522382788 0.02356260044842845 
0.005657226284197420 -0.009000419087295703 0.004292690645795304 
0.008149820331033161 -0.005453204291196374 -0.001471775462378481 
0.008149820331033161 -0.005453204291196374 -0.001471775462378481 
0.008149820331033161 -0.005453204291196374 -0.001471775462378481 
0.008149820331033161 -0.005453204291196374 -0.001471775462378481 
0.008149871672573122 -0.005453728333977496 -0.001470809513943328 
0.008149820331033161 -0.005453204291196374 -0.001471775462378481 
0.03156899425558332 -0.02168835987160856 -0.01390497587185843 
-0.01604873713186574 -0.06747938466647146 0.07363785734434539 
0.008149820331033161 -0.005453204291196374 -0.001471775462378481 
0.01202935446108373 -0.003630910720144572 -0.007443402702433395 
0.04416629916613291 -0.03316148114669484 -0.01590469238796983 
0.008149820331033161 -0.005453204291196374 -0.001471775462378481 
-0.001750252591566191 0.01312672748836781 -0.01354806039991638 
0.008149820331033161 -0.005453204291196374 -0.001471775462378481 
0.008149820331033161 -0.005453204291196374 -0.001471775462378481 
0.008149820331033161 -0.005453204291196374 -0.001471775462378481 
0.008149820331033161 -0.005453204291196374 -0.001471775462378481 
0.01475207321491345 -0.008457437804099358 -0.006352408294722588 
0.008149820331033161 -0.005453204291196374 -0.001471775462378481 
-0.001910908864533755 -0.01110986447290635 0.01071883757014240 
0.007840691939547366 0.01025607842644613 -0.02193534094932741 
0.001740230672053519 -0.01297351148331153 0.01382724855920420 
0.008149820331033161 -0.005453204291196374 -0.001471775462378481 
0.008149820331033161 -0.005453204291196374 -0.001471775462378481 
0.008149820331033161 -0.005453204291196374 -0.001471775462378481 
0.008149820331033161 -0.005453204291196374 -0.001471775462378481 
0.005965868420344182 -0.001934987142876743 -0.003931598923574549 
0.005965868420344182 -0.001934987142876743 -0.003931598923574549 
0.03435349805982977 -0.01910763451535899 -0.01948589552587998 
0.005965868420344182 -0.001934987142876743 -0.003931598923574549 
0.005965868420344182 -0.001934987142876743 -0.003931598923574549 
0.01860146929163182 -0.009001704572824270 -0.01260724129067927 
0.001261686861981294 0.004100468402959906 -0.006529353890123411 
-0.003655823565906402 0.01310442754799797 -0.005292642284420301 
0.005965868420344182 -0.001934987142876743 -0.003931598923574549 
0.005965868420344182 -0.001934987142876743 -0.003931598923574549 
0.01250700688980162 -0.01670018792399765 -0.0007406055054208327 
0.005965868420344182 -0.001934987142876743 -0.003931598923574549 
0.002987726449300107 -0.001932266099386014 -0.005284524725157246 
0.005965868420344182 -0.001934987142876743 -0.003931598923574549 
0.005965868420344182 -0.001934987142876743 -0.003931598923574549 
0.005965868420344182 -0.001934987142876743 -0.003931598923574549 
0.005965868420344182 -0.001934987142876743 -0.003931598923574549 
0.005965868420344182 -0.001934987142876743 -0.003931598923574549 
0.005965868420344182 -0.001934987142876743 -0.003931598923574549 
0.005965868420344182 -0.001934987142876743 -0.003931598923574549 
0.001670681679855252 0.0003836830310444640 -0.0007098596358644366 
0.005965868420344182 -0.001934987142876743 -0.003931598923574549 
0.005965850454843577 -0.001934531910127649 -0.006620519637909774 
0.002293276799325841 0.01694925999705536 -0.02173438528841954 
0.005965868420344182 -0.001934987142876743 -0.003931598923574549 
0.005965868420344182 -0.001934987142876743 -0.003931598923574549 
0.005965868420344182 -0.001934987142876743 -0.003931598923574549 
0.005965868420344182 -0.001934987142876743 -0.003931598923574549 
0.005965868420344182 -0.001934987142876743 -0.003931598923574549 
0.002929989562959983 -0.001514796411512133 0.0001605003652301315 
0.005965868420344182 -0.001934987142876743 -0.003931598923574549 
0.005965868420344182 -0.001934987142876743 -0.003931598923574549 
0.005965868420344182 -0.001934987142876743 -0.003931598923574549 
0.005967109279770251 -0.003624025927636998 -0.006619844222637104 
0.005965850454843577 -0.001934531910127649 -0.006620519637909774 
0.0001716093262540164 -0.006083861466533152 0.005353927324867342 
0.005965868420344182 -0.001934987142876743 -0.003931598923574549 
0.005965868420344182 -0.001934987142876743 -0.003931598923574549 
0.005965868420344182 -0.001934987142876743 -0.003931598923574549 
0.005923054553851052 -0.02013383140040221 0.009405045317100520 
0.005965868420344182 -0.001934987142876743 -0.003931598923574549 
0.005965868420344182 -0.001934987142876743 -0.003931598923574549 
0.04163383821139841 -0.02720659520720450 -0.01801382980553156 
0.006890339336257823 0.003879080893843160 -0.01310032455427039 
0.001788319561700855 0.005971636964913666 -0.006304062440784923 
0.01993031692284666 -0.008760313402102888 -0.01098915809084123 
0.002102594431562914 -0.006877247922990978 0.005542113873515896 
0.02788865198517834 -0.009839830944035434 -0.01787122642214170 
0.005965868420344182 -0.001934987142876743 -0.003931598923574549 
0.005965868420344182 -0.001934987142876743 -0.003931598923574549 
0.005965868420344182 -0.001934987142876743 -0.003931598923574549 
0.005965868420344182 -0.001934987142876743 -0.003931598923574549 
-0.01061555066390157 -0.002061462390051316 -0.008949773748428345 
0.007088508791037412 -0.01822539155605300 0.006634903527443638 
0.005965868420344182 -0.001934987142876743 -0.003931598923574549 
0.005965868420344182 -0.001934987142876743 -0.003931598923574549 
0.005965868420344182 -0.001934987142876743 -0.003931598923574549 
0.005965868420344182 -0.001934987142876743 -0.003931598923574549 
0.005965868420344182 -0.001934987142876743 -0.003931598923574549 
0.005965868420344182 -0.001934987142876743 -0.003931598923574549 
0.005965868420344182 -0.001934987142876743 -0.003931598923574549 
0.005965868420344182 -0.001934987142876743 -0.003931598923574549 
0.005965868420344182 -0.001934987142876743 -0.003931598923574549 
0.005965868420344182 -0.001934987142876743 -0.003931598923574549 
0.005965868420344182 -0.001934987142876743 -0.003931598923574549 
0.005965868420344182 -0.001934987142876743 -0.003931598923574549 
0.005965868420344182 -0.001934987142876743 -0.003931598923574549 
0.005965868420344182 -0.001934987142876743 -0.003931598923574549 
0.01010108920325999 0.01618760161744470 -0.02862175117583094 
0.005965868420344182 -0.001934987142876743 -0.003931598923574549 
0.005965868420344182 -0.001934987142876743 -0.003931598923574549 
0.02204465726609290 -0.01382986903046670 -0.005822002201048980 
0.005965868420344182 -0.001934987142876743 -0.003931598923574549 
0.005965868420344182 -0.001934987142876743 -0.003931598923574549 
-0.006575489050293284 -0.01491690610150646 0.02050119089207099 
0.005965868420344182 -0.001934987142876743 -0.003931598923574549 
0.005965868420344182 -0.001934987142876743 -0.003931598923574549 
0.005965868420344182 -0.001934987142876743 -0.003931598923574549 
0.005965868420344182 -0.001934987142876743 -0.003931598923574549 
0.005965868420344182 -0.001934987142876743 -0.003931598923574549 
0.01430483599739062 -0.004761847540228347 -0.008319208406013162 
0.005965868420344182 -0.001934987142876743 -0.003931598923574549 
-0.008154826787987830 -0.006784988448472133 0.01015081624886148 
0.005965868420344182 -0.001934987142876743 -0.003931598923574549 
