solver_type L2R_L2LOSS_SVC
nr_class 3
label 0 1 2
nr_feature 20846
bias 1.000000000000000
w
0.0005181119857997218 -0.0005196011274263935 -2.395630642761265e-07 
-0.005255110181979985 0.005713566986216357 -0.0002264001216961177 
0.0005181119857997218 -0.0005196011274263935 -2.395630642761265e-07 
0.002511366976556284 -0.001058131589870472 -0.0005231816973278466 
0.0005181119857997218 -0.0005196011274263935 -2.395630642761265e-07 
0.01107843288885477 -0.004057390423602095 -0.02295828954210212 
0.002281634356935344 -0.0005196808288154114 -0.002232012728992416 
0.0005181119857997218 -0.0005196011274263935 -2.395630642761265e-07 
0.0005181119857997218 -0.0005196011274263935 -2.395630642761265e-07 
0.0005181119857997218 -0.0005196011274263935 -2.395630642761265e-07 
0.002702996847369420 -0.001000917715649696 -0.003355589585139100 
0.0005181119857997218 -0.0005196011274263935 -2.395630642761265e-07 
-0.05024015108220813 0.05386200292947523 -0.01726335523517929 
0.0005181119857997218 -0.0005196011274263935 -2.395630642761265e-07 
0.0005181119857997218 -0.0005196011274263935 -2.395630642761265e-07 
0.0005181119857997218 -0.0005196011274263935 -2.395630642761265e-07 
0.01875058551025866 -0.01350145114133425 -0.008815172024237457 
0.008746038628626529 -0.004253832438985766 -0.003669127496008889 
0.1768742843953289 -0.1167027758332509 -0.1151831430525320 
0.001053428599010758 -0.001300637911859194 3.545016838267848e-06 
0.01859090421321893 0.0009973636029624040 -0.04739625973771578 
0.1687848642659872 -0.1352601361860757 -0.1939055222453974 
0.008546451497072114 -0.006881872834819576 -0.006459896788338120 
-0.01207785860849785 0.01145688925016085 -0.006885547912371281 
-0.01577903543808054 0.004155382617472811 0.004514979481571989 
0.0005181119857997218 -0.0005196011274263935 -2.395630642761265e-07 
0.08325361247628835 -0.06299545584216713 -0.08199020400785967 
-0.006423449756529556 -0.006487731305395863 0.01060180825105389 
0.0005181119857997218 -0.0005196011274263935 -2.395630642761265e-07 
0.0005181119857997218 -0.0005196011274263935 -2.395630642761265e-07 
-0.001133407640302855 -0.004178284840541239 0.005525810437630756 
-0.006866773644599677 0.001376044822792068 0.006581727821034000 
0.0005181119857997218 -0.0005196011274263935 -2.395630642761265e-07 
0.0005181119857997218 -0.0005196011274263935 -2.395630642761265e-07 
0.0005181119857997218 -0.0005196011274263935 -2.395630642761265e-07 
-0.04293469626346406 0.01853908006712978 0.009166193305144267 
0.01840216741854056 -0.01604552144853989 -0.04440973822640097 
0.04027665355291250 -0.02908949994727955 -0.05406813123207672 
0.0005181119857997218 -0.0005196011274263935 -2.395630642761265e-07 
0.05211734993468342 -0.04129555782035311 -0.02579210952134534 
0.0005181119857997218 -0.0005196011274263935 -2.395630642761265e-07 
0.002600662275011414 3.835925772902782e-06 -0.01006585588632634 
0.0005181119857997218 -0.0005196011274263935 -2.395630642761265e-07 
0.0005181119857997218 -0.0005196011274263935 -2.395630642761265e-07 
0.0005181119857997218 -0.0005196011274263935 -2.395630642761265e-07 
0.03481945759727739 -0.02325164029489247 -0.03385990199584540 
0.0005181119857997218 -0.0005196011274263935 -2.395630642761265e-07 
0.0005181119857997218 -0.0005196011274263935 -2.395630642761265e-07 
0.0005181119857997218 -0.0005196011274263935 -2.395630642761265e-07 
0.0005181119857997218 -0.0005196011274263935 -2.395630642761265e-07 
0.004323239912944970 -0.003943567078060755 -0.0007479734003176204 
0.0005181119857997218 -0.0005196011274263935 -2.395630642761265e-07 
0.0005181119857997218 -0.0005196011274263935 -2.395630642761265e-07 
0.0005181119857997218 -0.0005196011274263935 -2.395630642761265e-07 
0.0005181119857997218 -0.0005196011274263935 -2.395630642761265e-07 
0.0005181119857997218 -0.0005196011274263935 -2.395630642761265e-07 
0.0005181119857997218 -0.0005196011274263935 -2.395630642761265e-07 
0.003121788716706411 0.0004260549648806711 -0.006769692525444722 
-0.003303134922823569 -0.0002758459500982793 -0.008151915804702647 
0.0005181119857997218 -0.0005196011274263935 -2.395630642761265e-07 
0.0005181119857997218 -0.0005196011274263935 -2.395630642761265e-07 
0.0005181119857997218 -0.0005196011274263935 -2.395630642761265e-07 
0.0005181119857997218 -0.0005196011274263935 -2.395630642761265e-07 
0.03617969448169713 -0.03127341416944562 -0.01158280044439845 
0.0005181119857997218 -0.0005196011274263935 -2.395630642761265e-07 
0.0005181119857997218 -0.0005196011274263935 -2.395630642761265e-07 
0.02389286050666130 -0.01556409088379138 -0.01656667316055312 
0.0005181119857997218 -0.0005196011274263935 -2.395630642761265e-07 
0.01253644971967401 -0.01336352159422944 -0.01079172356557713 
0.0005050900412834307 -0.0005161772726188303 1.499301936683742e-06 
-7.137989594465627e-05 -0.001544368190180938 0.002246804525814303 
0.01061617332645153 -0.008413715803431428 -0.02623936286566171 
0.0005587430900126031 -0.0005197572349594358 -1.424690767975841e-06 
0.0005181119857997218 -0.0005196011274263935 -2.395630642761265e-07 
0.008220598659365436 -0.007593865756627286 -0.001276657668086639 
-0.02405763286562229 0.008483349115332710 0.01624870302562597 
-0.01570644867670189 0.007211538237555207 0.007383059530180705 
0.0005181119857997218 -0.0005196011274263935 -2.395630642761265e-07 
0.0005181119857997218 -0.0005196011274263935 -2.395630642761265e-07 
0.0005181119857997218 -0.0005196011274263935 -2.395630642761265e-07 
0.0005181119857997218 -0.0005196011274263935 -2.395630642761265e-07 
0.01002645325972440 -0.008506410725643001 -0.004962610028380108 
0.0005181119857997218 -0.0005196011274263935 -2.395630642761265e-07 
0.005674007296669487 -0.004495233356245448 -0.002461775228031156 
-0.01207490339752258 -0.002298750486024079 0.01047759180506129 
0.009391347320367505 -0.007606067844181389 -0.006269955835492437 
0.005412180839242444 -0.003455357348902902 -0.004081489767430885 
0.0005181119857997218 -0.0005196011274263935 -2.395630642761265e-07 
0.0005181119857997218 -0.0005196011274263935 -2.395630642761265e-07 
0.0005181119857997218 -0.0005196011274263935 -2.395630642761265e-07 
0.006666932124072544 -0.004985674275171747 -0.002217573352188285 
0.0005181119857997218 -0.0005196011274263935 -2.395630642761265e-07 
0.02745676337372072 -0.02556491488732305 -0.01301627470567274 
0.0005181119857997218 -0.0005196011274263935 -2.395630642761265e-07 
0.0005181119857997218 -0.0005196011274263935 -2.395630642761265e-07 
0.0005181119857997218 -0.0005196011274263935 -2.395630642761265e-07 
0.0005181119857997218 -0.0005196011274263935 -2.395630642761265e-07 
-0.001942982228031186 0.003857034100780014 -0.0009006857384755320 
0.0005181119857997218 -0.0005196011274263935 -2.395630642761265e-07 
0.0005181119857997218 -0.0005196011274263935 -2.395630642761265e-07 
0.0005181119857997218 -0.0005196011274263935 -2.395630642761265e-07 
0.009835866479306014 -0.005988719349954189 -0.005056669320339545 
0.0005181119857997218 -0.0005196011274263935 -2.395630642761265e-07 
0.0005181119857997218 -0.0005196011274263935 -2.395630642761265e-07 
0.0005181119857997218 -0.0005196011274263935 -2.395630642761265e-07 
-0.001491212925178894 -0.0007861227670908965 -0.001595331010028692 
0.0005181119857997218 -0.0005196011274263935 -2.395630642761265e-07 
0.0005181119857997218 -0.0005196011274263935 -2.395630642761265e-07 
0.0005181119857997218 -0.0005196011274263935 -2.395630642761265e-07 
0.0005181119857997218 -0.0005196011274263935 -2.395630642761265e-07 
0.0005181119857997218 -0.0005196011274263935 -2.395630642761265e-07 
-0.03874499715141915 0.03194640602424687 0.002966420759299811 
0.0005181119857997218 -0.0005196011274263935 -2.395630642761265e-07 
0.001864270288000468 -0.001653268480103522 -0.0004757236559981530 
0.0005181119857997218 -0.0005196011274263935 -2.395630642761265e-07 
0.02139298571212522 -0.01720645943493582 -0.01918926101447841 
0.003142601633593020 -0.002852312140632207 -0.001394934197503629 
0.0005181119857997218 -0.0005196011274263935 -2.395630642761265e-07 
0.0005181119857997218 -0.0005196011274263935 -2.395630642761265e-07 
0.0005181119857997218 -0.0005196011274263935 -2.395630642761265e-07 
0.004648498664601018 -0.003637080601827370 -0.001350231692477728 
0.02967373815768739 -0.01920462369059164 -0.02552882344084697 
0.0005181119857997218 -0.0005196011274263935 -2.395630642761265e-07 
0.0005181119857997218 -0.0005196011274263935 -2.395630642761265e-07 
0.0005181119857997218 -0.0005196011274263935 -2.395630642761265e-07 
0.0005181119857997218 -0.0005196011274263935 -2.395630642761265e-07 
0.0005181119857997218 -0.0005196011274263935 -2.395630642761265e-07 
0.0005181119857997218 -0.0005196011274263935 -2.395630642761265e-07 
0.02260095579998143 -0.01525334778059546 -0.01551502405217206 
-0.007464552097132866 0.004174586501029457 -0.001666532226622448 
0.0005181119857997218 -0.0005196011274263935 -2.395630642761265e-07 
0.0005181119857997218 -0.0005196011274263935 -2.395630642761265e-07 
0.0005181119857997218 -0.0005196011274263935 -2.395630642761265e-07 
-0.003071544541877696 0.005533853524156846 -0.006479451321825440 
0.008508933150101290 -0.005831976706944962 -0.006081427924080855 
0.008508933150101290 -0.005831976706944962 -0.006081427924080855 
0.02099530944802927 -0.01574159543618665 -0.01105529749839351 
0.004160033942313031 -0.002814560104243853 -0.003068993741317702 
0.008508933150101290 -0.005831976706944962 -0.006081427924080855 
0.006446367211451970 0.004696678130188191 -0.03204307658348580 
0.0006807338181119650 6.979020157702869e-05 -0.008304594595352018 
0.01860014927363760 -0.01112475408360136 -0.01219176540556499 
0.008508933150101290 -0.005831976706944962 -0.006081427924080855 
0.008508933150101290 -0.005831976706944962 -0.006081427924080855 
0.01548808989541303 -0.01088010481553361 -0.01052333761516118 
0.008508933150101290 -0.005831976706944962 -0.006081427924080855 
0.005138082409538762 -0.001589969182176336 -0.007983332199805848 
0.01920735716818107 -0.01357587696991386 -0.01270162221412243 
-0.01429365247506902 0.005508118144377972 0.002168268521555977 
0.008824474655480110 -0.005829818558858129 -0.006077547996760363 
0.008508933150101290 -0.005831976706944962 -0.006081427924080855 
0.01080050342708912 0.004929802948223745 -0.04801903481421210 
0.007379646125994670 -0.02146183141452302 -0.02417621932165980 
-0.04189491379047392 0.006857947980947970 0.008180188300091876 
0.009799190287707146 -0.006571440203966237 -0.007196926586012177 
0.07935018790995765 -0.05596478269234460 -0.05525382671818676 
0.0004132580240294027 -0.0002313662255631357 -0.007700489269478098 
0.01027483181448940 -0.02108888616208112 0.003999480216701196 
0.005619320732232458 -0.009904663853527736 -0.001073731012994182 
0.01435541601395492 0.005087399308124832 -0.03337501363369757 
0.01417334683911109 -0.01810576341075989 -0.001727828287343093 
0.01487316451379265 -0.004597365715290426 -0.02318330256990062 
0.005213744026033102 -0.006637156095745968 -0.001979680012125077 
-0.001766196827924354 -0.002224166979180528 -0.004613676539694430 
0.009935869922094439 -0.005831421501590267 -0.008628339726769345 
0.04838717279811645 -0.07172142772654651 -0.004709801648544873 
0.009257309101109073 -0.006519698120459049 -0.006080828652905925 
0.0008939954215682684 -0.007050855138935002 0.001740739734034300 
0.008508933150101290 -0.005831976706944962 -0.006081427924080855 
0.008508933150101290 -0.005831976706944962 -0.006081427924080855 
0.008508933150101290 -0.005831976706944962 -0.006081427924080855 
0.008540918585296322 -0.006704119235799390 -0.006081535161471151 
0.006085850795282096 -0.01159043729148722 0.002635023301970386 
0.007804099585132300 -0.008763295473831041 -0.002410531123152200 
0.006913466324726040 -0.007572932083232188 -0.003761175062277012 
0.004310587806020534 -0.0003060848758899538 -0.01173094709659485 
-0.006133309285305027 0.007833505681120973 -0.003268011000649209 
0.006991059743210015 -0.001476508400188155 -0.004204143722503633 
0.004439778859916718 4.437424033233234e-06 -0.003709879582494176 
0.002926019646437011 0.01123348070739889 -0.01760293867748933 
-0.004370910253357921 -0.002508230946527371 0.007609471911063323 
0.004439778859916718 4.437424033233234e-06 -0.003709879582494176 
0.004439778859916718 4.437424033233234e-06 -0.003709879582494176 
0.01053176651912726 6.909532212900471e-06 -0.009573664324876276 
-0.02159522030394506 0.02034198863663115 -0.003708161071598176 
0.01053176651912726 6.909532212900471e-06 -0.009573664324876276 
0.004439778859916718 4.437424033233234e-06 -0.003709879582494176 
0.01053176651912726 6.909532212900471e-06 -0.009573664324876276 
-0.01879544440410472 0.01086275385736387 -0.0006495558715926766 
-0.0008302034774406766 -0.001024813014126316 0.002239951308690680 
0.03333902400235101 -0.01791797537622555 -0.02070962940134441 
-0.0008302034774406766 -0.001024813014126316 0.002239951308690680 
0.005561993065553585 0.002206404368463936 -0.007991353355683291 
0.01053176651912726 6.909532212900471e-06 -0.009573664324876276 
0.01486227022437089 -0.003278829782148213 -0.01558176851454814 
0.01059051180046854 0.002664661979248196 -0.02032066030775364 
-0.01182538815497390 0.02093589534695623 -0.01616721386197420 
0.04096157175309073 -0.02071369607429975 -0.04329779950914159 
0.03026598205569688 -0.004936313184571306 -0.02432231019097093 
0.007917031701828715 -0.01369256157754585 0.003660257482836175 
0.007645885885611069 -0.006812215735187788 -0.004545602054975207 
-0.03755825195547050 -0.02299572714992858 0.05321004385293638 
0.04331887907542134 -0.02342111400096871 -0.02955916644539085 
-0.005429456821843841 0.003865141944581031 0.002239520544774726 
-0.02894235331691228 0.02567458139023532 -0.001462193043249019 
-0.01273242754146266 0.009048585396468566 0.001735124539021813 
0.003742598618927667 -0.001439220967723839 -0.001138607909421332 
-0.04340645381304951 0.05813350344332803 -0.02431807600659826 
-0.009546545162247129 0.01182488919919383 -0.006155312808917013 
0.01053176651912726 6.909532212900471e-06 -0.009573664324876276 
0.002740174461217363 -0.003298606376733839 0.0007688436628975953 
-0.0008302034774406766 -0.001024813014126316 0.002239951308690680 
0.004493117000400030 -0.0008140722203199372 -0.003063830785815843 
-0.0002011719088957501 0.0009399832190126437 -0.004452358689114909 
0.002925482702768139 0.01006031658557608 -0.01251783422058566 
-0.0008302034774406766 -0.001024813014126316 0.002239951308690680 
-0.001379032591682956 0.006078753054551949 -0.003709977394245664 
-0.0008302034774406766 -0.001024813014126316 0.002239951308690680 
0.006137862061069793 -0.005884933759315032 -0.002482020149253362 
0.004840950315094268 0.001819351470148787 -0.009750384260783899 
-0.0008302034774406766 -0.001024813014126316 0.002239951308690680 
0.001815295905185923 -0.05412525675745072 0.02353720258347921 
0.002358621840998637 -0.003623992387585974 0.0008934134987106429 
0.004439778859916718 4.437424033233234e-06 -0.003709879582494176 
0.03909296275183238 -0.06362649199942012 -0.004091956702871484 
-0.0008302034774406766 -0.001024813014126316 0.002239951308690680 
-0.0008227815603872586 -0.001024560737642185 0.002245599471790562 
0.03189069820517105 -0.01564789242601371 -0.02715184214989879 
0.01328432989497746 -0.01161264531993510 -0.002552633972560882 
-0.0008302034774406766 -0.001024813014126316 0.002239951308690680 
-0.003240810708162466 -0.002527825278564741 0.004543514205915555 
-0.0008302034774406766 -0.001024813014126316 0.002239951308690680 
-0.008546962479233543 -0.004338582877597847 0.01346568605637144 
-0.003344773043536815 -0.003993836008706700 0.008864383947531532 
0.0004239665308031696 -0.002247447030697262 0.001113308253001060 
0.01121437425162114 -0.01021692049884854 -0.003197068298565981 
-0.01074848465826869 0.007957783647967627 0.004192947489101871 
0.001781123881863952 -0.01254362406415321 0.008493839590523260 
0.02163251577800170 -0.01338203667916281 -0.01470369414526128 
0.01580488511025951 -0.01231694236365422 -0.006813618400859255 
0.01088544333045711 -0.006344961992436654 -0.002418116828178333 
-0.003069372117734191 -0.004197997816751895 0.008219745280407375 
-0.03798877418902650 -0.02780477281631174 0.05725111500243991 
0.0004767888186510062 0.002710756692630391 -0.004354902710934788 
0.01302970926193725 -0.0006555266476553176 -0.01071397726156407 
0.001667739265369309 -0.001687249193994534 0.001099638372002891 
-0.0008302034774406766 -0.001024813014126316 0.002239951308690680 
-0.0007282520575803131 0.004388226998151930 -0.002582947251793153 
-0.0008302034774406766 -0.001024813014126316 0.002239951308690680 
-0.06656149147854278 -0.005177802746634419 0.06561963891269407 
-0.01359092822193354 -0.0004440422258614174 0.01469879520691664 
-0.0008302034774406766 -0.001024813014126316 0.002239951308690680 
0.04290696992393103 -0.02428127355985990 -0.02786521658692868 
-0.004135371852812997 0.005029570067301067 -0.0004422916636896564 
-0.003983677012719062 0.003236363206244354 -0.001798573188474990 
-0.002546645391125943 -0.005717333608745333 0.008441010445975413 
0.006307233313269478 -0.01361129240725407 0.0002179499360125398 
-0.009738110928591021 0.01481528559689147 -0.006521023623466739 
-0.0008302034774406766 -0.001024813014126316 0.002239951308690680 
0.005211945754234988 -0.002894507739311144 -0.006500511429157922 
-0.0008302034774406766 -0.001024813014126316 0.002239951308690680 
-0.0001341328412319742 -0.008761686270241192 0.01023622326311289 
0.04796497433415589 -0.03704680848334339 -0.03243334636773999 
0.006563904545581312 -0.006072465223413992 -0.001183543116310032 
-0.006868852996167907 -0.001845794766659154 0.008749784847751114 
-0.0008302034774406766 -0.001024813014126316 0.002239951308690680 
-0.04491064909660224 0.008117509925203922 0.03269722915840075 
0.003193644460746968 -0.002120084034890654 -0.0004955592240431742 
0.006617071940925405 -0.002619354801515495 -0.002445787272838260 
-0.004537157354021146 0.001294557704244890 0.001505256771480996 
-0.0008302034774406766 -0.001024813014126316 0.002239951308690680 
0.008053155270222864 -0.01594304107644822 0.007202020625353536 
0.004439778859916718 4.437424033233234e-06 -0.003709879582494176 
-0.0008227815603872586 -0.001024560737642185 0.002245599471790562 
-0.01120934343167611 0.01317760421823809 -0.002507567710886217 
-0.0008398329136947919 -0.001025181315483275 0.002238574674705430 
0.04230527217843656 -0.03270777732437442 -0.01920728760828390 
0.004026747684687419 -0.004819340423216720 -0.0003443691924711612 
0.02133067296114762 -0.02081713871787256 -0.006734459025739558 
-0.05294460626673539 0.02819305528851103 0.02425922014973468 
0.004439778859916718 4.437424033233234e-06 -0.003709879582494176 
0.03908374107218398 -0.03464373872960454 -0.02434583377612455 
-0.02521111374094650 0.02605551790811823 -0.003343996335691083 
0.004193231686813926 -0.03686040951801366 -0.0002647164508985305 
0.009121871405508991 0.006600542966368052 -0.01741481677625943 
-0.0008302034774406766 -0.001024813014126316 0.002239951308690680 
0.006370959022504754 -0.01455529807362249 0.0008849341987996666 
0.0005093791980984837 -0.001577798642929381 0.001527839929943025 
-0.0008302034774406766 -0.001024813014126316 0.002239951308690680 
-0.0002037736713050227 -0.01197472734513969 0.01046312649455174 
-0.003602326176700229 0.01274897642505719 -0.01465152159176667 
0.006489074123977384 -0.004714188530808097 -0.008182305958103835 
-0.0008302034774406766 -0.001024813014126316 0.002239951308690680 
-0.007741909038250670 0.001814266445540898 0.004651455265198562 
-0.03206686865273294 0.03724944509210814 -0.01228068822209692 
0.003263052773453602 -0.004105042822079113 -0.0007037984931327566 
0.02060885215351139 0.002475902845286377 -0.02340116186596971 
-0.003191994003881122 -0.001828353992902329 0.006187185477240019 
0.004439778859916718 4.437424033233234e-06 -0.003709879582494176 
0.0001687318794717380 -0.002389611783904598 0.001953345878139702 
-0.04505743536114035 0.03519678651799049 0.001908178764233247 
-0.0008302034774406766 -0.001024813014126316 0.002239951308690680 
-0.003908631026174512 0.01241944109702434 -0.01277613438014618 
0.004439778859916718 4.437424033233234e-06 -0.003709879582494176 
0.001101895721095824 -0.001523469558070046 0.001298810364522658 
-0.003542351954939397 -0.004582541937824694 0.008678400380938620 
0.004602577473176567 -0.003110669012897640 -0.002923143900800923 
0.003350031623895486 -0.004772601377159106 0.002692902296731885 
0.004566502158715693 -0.005390917748338036 -3.624627382169161e-05 
0.0001705346578546988 -0.008106955264652660 0.005724756551957012 
-0.0008302034774406766 -0.001024813014126316 0.002239951308690680 
0.01035190414467206 -0.005990839986312387 -0.004356763444854478 
-0.005061646393381524 -0.02066589041654836 0.01944541112755810 
0.02459690666609458 -0.01844909036904759 -0.01429855848757947 
0.02101885954321336 -0.01866019404315276 -0.009960228490465376 
0.01713172343958090 -0.01445385632757463 -0.006873921470348501 
0.07562124337775879 -0.03728555790271757 -0.06091360913648444 
0.004439778859916718 4.437424033233234e-06 -0.003709879582494176 
0.006091987659210542 2.472108179667196e-06 -0.005863784742382100 
0.006091987659210542 2.472108179667196e-06 -0.005863784742382100 
0.006091987659210542 2.472108179667196e-06 -0.005863784742382100 
0.006091987659210542 2.472108179667196e-06 -0.005863784742382100 
0.006091987659210542 2.472108179667196e-06 -0.005863784742382100 
-0.006920960384434349 -0.007513340260142876 0.01063984631878166 
-0.005269982337357394 -0.001029250438159549 0.005949830891184857 
0.006091987659210542 2.472108179667196e-06 -0.005863784742382100 
0.006091987659210542 2.472108179667196e-06 -0.005863784742382100 
-0.005269982337357394 -0.001029250438159549 0.005949830891184857 
-0.005269982337357394 -0.001029250438159549 0.005949830891184857 
0.0005871851033345516 -0.0003544321407007600 5.461577999683479e-06 
0.0005871851033345516 -0.0003544321407007600 5.461577999683479e-06 
0.008844080739732056 -0.01287689408456095 -0.001032917449874025 
0.001732466613346225 -0.0004881825768186436 -0.0001019110566793286 
0.0005871851033345516 -0.0003544321407007600 5.461577999683479e-06 
-0.003538819450067627 -0.003927111786198658 0.0003193478764904608 
0.004236892327425719 0.0006572909908544338 -0.006937505831083182 
0.009196821217622500 -0.007579173627412198 -0.005843393694936022 
0.003682474300532678 -0.002855485014134064 -0.002234663583339062 
0.0005871851033345516 -0.0003544321407007600 5.461577999683479e-06 
0.001387457845214065 0.0007825766923540934 -0.003352953427565700 
-0.0006649434215784694 0.009780199501758784 -0.008902161316507163 
0.02741803674969692 -0.02583179404832115 -0.003664200715813065 
0.01584123983181104 -0.008115655786941869 -0.008746793164292896 
0.0005871851033345516 -0.0003544321407007600 5.461577999683479e-06 
0.0005871851033345516 -0.0003544321407007600 5.461577999683479e-06 
0.03141532706770487 -0.02943432535609273 -0.02825210722073576 
0.008385801760490207 -0.006048494116629399 -0.006638907237755402 
0.0005871851033345516 -0.0003544321407007600 5.461577999683479e-06 
0.02102998232169649 -0.02146052855803429 -0.004675433677685643 
0.001732466613346225 -0.0004881825768186436 -0.0001019110566793286 
-0.01022389414849595 -0.0008946838873852773 0.008622384392417266 
0.001732466613346225 -0.0004881825768186436 -0.0001019110566793286 
0.0005871851033345516 -0.0003544321407007600 5.461577999683479e-06 
0.0005871851033345516 -0.0003544321407007600 5.461577999683479e-06 
0.002986636621590071 -0.001710816593389589 -0.001228554112368949 
0.0005871851033345516 -0.0003544321407007600 5.461577999683479e-06 
0.0005871851033345516 -0.0003544321407007600 5.461577999683479e-06 
0.009526725476792997 -0.003831453683060336 -0.009142583382518532 
0.001732466613346225 -0.0004881825768186436 -0.0001019110566793286 
0.0005871851033345516 -0.0003544321407007600 5.461577999683479e-06 
-0.006055329187457338 0.01678450465939527 -0.02242464361922184 
0.0005880017817358803 -0.0003543866797252099 4.986874522428997e-06 
0.03717122466328682 -0.02746544926554982 -0.02212956474261011 
0.002536726848158129 -0.001807974449010085 -0.001092967806883755 
-0.008356021682273418 -0.01113353108450440 0.009756433802597476 
0.002350001845582784 0.0003291434067327847 -0.008881015902618320 
0.0005871851033345516 -0.0003544321407007600 5.461577999683479e-06 
0.0005871851033345516 -0.0003544321407007600 5.461577999683479e-06 
-0.01178756878009371 0.01299979162410936 -0.001384590551747727 
0.0005871851033345516 -0.0003544321407007600 5.461577999683479e-06 
-0.02899564234651917 0.009939136680649729 0.01159170522291617 
0.001732466613346225 -0.0004881825768186436 -0.0001019110566793286 
-0.02212235858119542 0.01815401665689187 0.005191398126551925 
0.001732466613346225 -0.0004881825768186436 -0.0001019110566793286 
0.0005871851033345516 -0.0003544321407007600 5.461577999683479e-06 
0.0005871851033345516 -0.0003544321407007600 5.461577999683479e-06 
0.0005871851033345516 -0.0003544321407007600 5.461577999683479e-06 
0.0005871851033345516 -0.0003544321407007600 5.461577999683479e-06 
0.001732466613346225 -0.0004881825768186436 -0.0001019110566793286 
0.003550279728652397 5.425648388159108e-05 -0.006144878018817499 
0.01989454190113709 -0.01189764210788256 -0.01234712814827093 
-0.001556124219586969 -0.002348374076362026 0.004493116410361882 
0.0005871851033345516 -0.0003544321407007600 5.461577999683479e-06 
0.001450075894904619 -0.001019466316827829 5.196999997856469e-06 
0.0005871851033345516 -0.0003544321407007600 5.461577999683479e-06 
-0.005972773247805289 0.002839189957099202 -0.003516230823099533 
-0.02197247493591314 0.02049861621465888 -0.001918687492782376 
0.0005871851033345516 -0.0003544321407007600 5.461577999683479e-06 
0.003627314759888931 -0.002720877145082468 -0.001733043337203297 
0.0005871851033345516 -0.0003544321407007600 5.461577999683479e-06 
0.0005871851033345516 -0.0003544321407007600 5.461577999683479e-06 
0.0005871851033345516 -0.0003544321407007600 5.461577999683479e-06 
0.005999511859651660 -0.01103199773237452 0.002985320927000386 
0.003994304898567234 -0.0009957752098498963 -0.002135194010103814 
0.004059910621106594 -0.005706773114813874 -0.006074877770090384 
0.003758407241204379 -0.002016892510608890 -0.0007274379849645719 
0.006287661489946283 -0.003938771615581253 -0.001000726404854534 
0.001732466613346225 -0.0004881825768186436 -0.0001019110566793286 
0.0005871851033345516 -0.0003544321407007600 5.461577999683479e-06 
0.01834432682348698 -0.01085216956089064 -0.01238315824105316 
0.03357518217944811 -0.02517482514280058 -0.01556955732613147 
0.03625137596706412 -0.01298761042546502 -0.04683344722613148 
0.001732466613346225 -0.0004881825768186436 -0.0001019110566793286 
0.0005871851033345516 -0.0003544321407007600 5.461577999683479e-06 
-0.009713727609274764 0.01081796749305394 -0.0002371524187212955 
-0.01127474129504216 -0.0002168524603037428 0.008622453839357743 
0.01773780988335439 -0.01761428986941790 -0.01713218853288079 
-0.009062600233797067 0.0001179751973277380 0.006265692633681544 
-0.01099187884191346 0.005090098516759907 0.008005630923342002 
0.001732466613346225 -0.0004881825768186436 -0.0001019110566793286 
0.004169507698733658 -0.001584098869859249 -0.002103112585004533 
0.0005871851033345516 -0.0003544321407007600 5.461577999683479e-06 
0.001145281510011674 -0.0001337504361178837 -0.0001073726346790121 
0.001145281510011674 -0.0001337504361178837 -0.0001073726346790121 
0.001145281510011674 -0.0001337504361178837 -0.0001073726346790121 
0.001145281510011674 -0.0001337504361178837 -0.0001073726346790121 
0.001145281510011674 -0.0001337504361178837 -0.0001073726346790121 
0.002364839617208183 -0.001318111107929253 -0.0001077055868434782 
0.01247981301823585 -0.005261220542131319 -0.01558412009938352 
-0.0007917825241081719 -0.01424510957575543 0.01378287445835753 
-0.005299581663440283 0.007214377802846028 -0.0005647471400388235 
0.001145281510011674 -0.0001337504361178837 -0.0001073726346790121 
0.001145281510011674 -0.0001337504361178837 -0.0001073726346790121 
0.002631565473383310 0.0006002479842257604 -0.008061719151540499 
-0.006306718020121841 0.01405429591670753 -0.005900843599972476 
0.001145281510011674 -0.0001337504361178837 -0.0001073726346790121 
0.001145281510011674 -0.0001337504361178837 -0.0001073726346790121 
0.001145281510011674 -0.0001337504361178837 -0.0001073726346790121 
-0.005203548738228787 -0.01294680173303186 0.01513918656893483 
0.008383211563844965 -0.007346111659460627 -0.002190239459640234 
0.01608680260962836 -0.01653195912800661 -0.004971018276639577 
0.006520244603748670 -0.004528038972814817 -0.001963845412695659 
0.001145281510011674 -0.0001337504361178837 -0.0001073726346790121 
0.001145281510011674 -0.0001337504361178837 -0.0001073726346790121 
0.001145281510011674 -0.0001337504361178837 -0.0001073726346790121 
0.001145281510011674 -0.0001337504361178837 -0.0001073726346790121 
0.001145281510011674 -0.0001337504361178837 -0.0001073726346790121 
0.001145281510011674 -0.0001337504361178837 -0.0001073726346790121 
0.001145281510011674 -0.0001337504361178837 -0.0001073726346790121 
0.009869269831173871 -0.006632481493478335 -0.002688072633387577 
0.01795709436023108 -0.01580251921987174 -0.005864072514606135 
-0.01943941843377714 0.005828277689679889 0.01572684532510681 
0.001145281510011674 -0.0001337504361178837 -0.0001073726346790121 
-0.0004976680125510183 -0.003433433620072811 0.004253517109977807 
0.007339358012103101 -0.004924281739227317 -0.002281091916379483 
0.001145281510011674 -0.0001337504361178837 -0.0001073726346790121 
0.001145281510011674 -0.0001337504361178837 -0.0001073726346790121 
0.01207928843008129 -0.009430304391981508 -0.002400502726862177 
0.001145281510011674 -0.0001337504361178837 -0.0001073726346790121 
0.001145281510011674 -0.0001337504361178837 -0.0001073726346790121 
0.001757651917654955 -0.0001333917519496540 -0.0007776961947547124 
0.001693620067739001 -0.0009182110753582474 -0.0001053269197774280 
0.001145281510011674 -0.0001337504361178837 -0.0001073726346790121 
0.001145281510011674 -0.0001337504361178837 -0.0001073726346790121 
-0.007642041170672105 0.008626953692938328 -0.0001072336383550181 
-0.003615505923143730 -0.001215699380488841 0.006005045409942659 
0.001145281510011674 -0.0001337504361178837 -0.0001073726346790121 
0.001145281510011674 -0.0001337504361178837 -0.0001073726346790121 
0.002486744218145482 -0.001710426435420338 -0.0001086278042078543 
0.008816560587311460 -0.006621722902094792 -0.005596077965697361 
0.001145281510011674 -0.0001337504361178837 -0.0001073726346790121 
0.003752625797851593 -0.002454422587313792 -0.0001656593078344736 
0.001145281510011674 -0.0001337504361178837 -0.0001073726346790121 
0.001174996456819387 -0.0008223582257073283 -0.0004407005632520888 
0.001174996456819387 -0.0008223582257073283 -0.0004407005632520888 
0.0004415380015643775 -0.002935313478390223 0.003503916477510553 
0.001174996456819387 -0.0008223582257073283 -0.0004407005632520888 
0.002505465453790536 -4.478863370923197e-05 -0.002917151400943972 
0.03403788893903240 -0.02612819935813705 -0.02035087152016749 
0.001174996456819387 -0.0008223582257073283 -0.0004407005632520888 
0.007296085248718644 -0.02922771038138441 0.01475409759198640 
0.001174996456819387 -0.0008223582257073283 -0.0004407005632520888 
0.01770143290097217 -0.01722991720504301 -0.007548137799649578 
0.0004845175220334935 -0.004605676341765294 0.001592410363680520 
-0.0009898320879604210 0.002519836862349886 -0.002321017699649278 
-0.01276099609879410 0.02169073664956583 -0.009924366824979430 
0.001174996456819387 -0.0008223582257073283 -0.0004407005632520888 
0.001174996456819387 -0.0008223582257073283 -0.0004407005632520888 
0.002206841713599106 -0.001768650082426966 -0.0004413036767421045 
0.001174996456819387 -0.0008223582257073283 -0.0004407005632520888 
0.001174996456819387 -0.0008223582257073283 -0.0004407005632520888 
0.001174996456819387 -0.0008223582257073283 -0.0004407005632520888 
0.002703300027803360 -0.002082745388669959 -0.0008994563786943250 
0.01465913432434992 0.006713009612992916 -0.04011078444820163 
0.002703300027803360 -0.002082745388669959 -0.0008994563786943250 
0.001174996456819387 -0.0008223582257073283 -0.0004407005632520888 
0.001977988087090175 0.0001913974185329249 -0.007211099710398452 
0.002703300027803360 -0.002082745388669959 -0.0008994563786943250 
0.001174996456819387 -0.0008223582257073283 -0.0004407005632520888 
0.001174996456819387 -0.0008223582257073283 -0.0004407005632520888 
0.002703300027803360 -0.002082745388669959 -0.0008994563786943250 
0.001174996456819387 -0.0008223582257073283 -0.0004407005632520888 
0.001174996456819387 -0.0008223582257073283 -0.0004407005632520888 
0.04235978138581688 -0.03672940140917187 -0.02153391513185067 
0.002309070286570501 -0.001235675448967492 -0.001646353531814853 
0.01105224030940393 -0.008253755980115476 -0.006893675222025284 
-0.003512540213055806 -0.01447550729915578 0.01480766335897839 
0.01330966553568273 -0.008276578028870626 -0.01246040243720386 
0.001174996456819387 -0.0008223582257073283 -0.0004407005632520888 
0.004509639810879974 -0.002481833357109494 -0.003926700846588541 
0.002703300027803360 -0.002082745388669959 -0.0008994563786943250 
0.002703300027803360 -0.002082745388669959 -0.0008994563786943250 
0.002703300027803360 -0.002082745388669959 -0.0008994563786943250 
0.002703300027803360 -0.002082745388669959 -0.0008994563786943250 
0.004051910470960660 -0.001875827405969974 -0.003604373776731293 
-0.01724385002062922 0.01746276944193989 -0.0001726083281862904 
0.002703300027803360 -0.002082745388669959 -0.0008994563786943250 
0.002703300027803360 -0.002082745388669959 -0.0008994563786943250 
-0.01087578292828657 0.009203583796961734 -0.03671397513666953 
0.009416188865003105 -0.004429797102088676 -0.005939851069916144 
0.01351158078255784 -0.01021451424302615 -0.008196159096791358 
0.002703300027803360 -0.002082745388669959 -0.0008994563786943250 
0.001673321293727247 0.001801976449705429 -0.003835076881675319 
0.001174996456819387 -0.0008223582257073283 -0.0004407005632520888 
0.002703300027803360 -0.002082745388669959 -0.0008994563786943250 
0.001174996456819387 -0.0008223582257073283 -0.0004407005632520888 
0.001174996456819387 -0.0008223582257073283 -0.0004407005632520888 
0.03751443138148507 -0.03504924707778508 -0.03074950204729880 
0.001174996456819387 -0.0008223582257073283 -0.0004407005632520888 
-0.009182517624849479 0.005257441197606620 0.0007851234088715324 
0.001174996456819387 -0.0008223582257073283 -0.0004407005632520888 
0.002703300027803360 -0.002082745388669959 -0.0008994563786943250 
0.001174996456819387 -0.0008223582257073283 -0.0004407005632520888 
0.001174996456819387 -0.0008223582257073283 -0.0004407005632520888 
0.002703300027803360 -0.002082745388669959 -0.0008994563786943250 
0.001174996456819387 -0.0008223582257073283 -0.0004407005632520888 
0.004458288296466304 -0.003393410645057734 -0.002190078107196466 
0.002703300027803360 -0.002082745388669959 -0.0008994563786943250 
0.001174996456819387 -0.0008223582257073283 -0.0004407005632520888 
0.001695057975824637 0.007528099526676828 -0.01662062716370951 
0.001174996456819387 -0.0008223582257073283 -0.0004407005632520888 
0.02635055544316045 -0.02097557622837733 -0.01132239219446476 
0.001174996456819387 -0.0008223582257073283 -0.0004407005632520888 
0.001174996456819387 -0.0008223582257073283 -0.0004407005632520888 
0.001174996456819387 -0.0008223582257073283 -0.0004407005632520888 
0.001174996456819387 -0.0008223582257073283 -0.0004407005632520888 
0.001174996456819387 -0.0008223582257073283 -0.0004407005632520888 
0.001174996456819387 -0.0008223582257073283 -0.0004407005632520888 
0.001528303570983973 -0.001260387162962630 -0.0004587558154422363 
0.001528303570983973 -0.001260387162962630 -0.0004587558154422363 
0.001528303570983973 -0.001260387162962630 -0.0004587558154422363 
0.001528303570983973 -0.001260387162962630 -0.0004587558154422363 
0.001528303570983973 -0.001260387162962630 -0.0004587558154422363 
0.001528303570983973 -0.001260387162962630 -0.0004587558154422363 
0.001528303570983973 -0.001260387162962630 -0.0004587558154422363 
0.001528303570983973 -0.001260387162962630 -0.0004587558154422363 
0.001528303570983973 -0.001260387162962630 -0.0004587558154422363 
0.004738017203767824 -0.003704686881127244 -0.002444753958874397 
0.001528303570983973 -0.001260387162962630 -0.0004587558154422363 
0.001528303570983973 -0.001260387162962630 -0.0004587558154422363 
0.001528303570983973 -0.001260387162962630 -0.0004587558154422363 
0.001528303570983973 -0.001260387162962630 -0.0004587558154422363 
-0.005679019931823982 0.006402931739734220 -0.002458720192652629 
0.001528303570983973 -0.001260387162962630 -0.0004587558154422363 
-0.006036777823197203 0.004749669832052944 -0.003195549937836733 
0.001528303570983973 -0.001260387162962630 -0.0004587558154422363 
0.001528303570983973 -0.001260387162962630 -0.0004587558154422363 
-0.02932840433215688 0.03088916859989648 -0.004005679442036121 
0.001528303570983973 -0.001260387162962630 -0.0004587558154422363 
0.001528303570983973 -0.001260387162962630 -0.0004587558154422363 
0.001528303570983973 -0.001260387162962630 -0.0004587558154422363 
0.001528303570983973 -0.001260387162962630 -0.0004587558154422363 
0.001528303570983973 -0.001260387162962630 -0.0004587558154422363 
0.001528303570983973 -0.001260387162962630 -0.0004587558154422363 
-0.0002913470791764722 -0.007646231979993901 0.003185823755350311 
0.001528303570983973 -0.001260387162962630 -0.0004587558154422363 
0.001528303570983973 -0.001260387162962630 -0.0004587558154422363 
0.002009325994411690 -0.0007567849082579142 -0.001337609849780984 
0.001528303570983973 -0.001260387162962630 -0.0004587558154422363 
0.001528303570983973 -0.001260387162962630 -0.0004587558154422363 
0.001282057607586735 0.003727331571555382 -0.006923656708598589 
0.02978054618057008 -0.01530795136825838 -0.04101804427662142 
0.001528303570983973 -0.001260387162962630 -0.0004587558154422363 
0.001528303570983973 -0.001260387162962630 -0.0004587558154422363 
0.001528303570983973 -0.001260387162962630 -0.0004587558154422363 
0.001528303570983973 -0.001260387162962630 -0.0004587558154422363 
0.001528303570983973 -0.001260387162962630 -0.0004587558154422363 
0.001528303570983973 -0.001260387162962630 -0.0004587558154422363 
-0.002765402876793373 -0.004084045939569229 0.005642088747064832 
0.002730290321010172 -0.002418268960430412 -0.001217212143142683 
0.002730290321010172 -0.002418268960430412 -0.001217212143142683 
0.004623437352191467 6.660999130282195e-05 -0.01098262734383960 
0.0001435837914617806 -2.846819285241888e-05 -0.001216896965796525 
0.002730290321010172 -0.002418268960430412 -0.001217212143142683 
0.002730290321010172 -0.002418268960430412 -0.001217212143142683 
0.002730290321010172 -0.002418268960430412 -0.001217212143142683 
0.01274037283093539 -0.009011545466956043 -0.007528513040618919 
0.002730290321010172 -0.002418268960430412 -0.001217212143142683 
0.01081970714865456 -0.01085339931847680 -0.006444390902998856 
0.004354276075742013 -0.004412965706063377 -0.001547685668610572 
0.002730290321010172 -0.002418268960430412 -0.001217212143142683 
0.004354276075742013 -0.004412965706063377 -0.001547685668610572 
0.002730290321010172 -0.002418268960430412 -0.001217212143142683 
0.008342214300899695 -0.006732088914907412 -0.005235605590635483 
0.002730290321010172 -0.002418268960430412 -0.001217212143142683 
0.004354276075742013 -0.004412965706063377 -0.001547685668610572 
0.002730290321010172 -0.002418268960430412 -0.001217212143142683 
0.002730290321010172 -0.002418268960430412 -0.001217212143142683 
0.005359998565452818 -0.005041601037985107 -0.003847442501727019 
0.002730290321010172 -0.002418268960430412 -0.001217212143142683 
-0.01040587747264861 0.003627718688719254 0.007848702799938610 
0.003431755027896806 0.004589912220638355 -0.02047559731318551 
0.01171604943312547 -0.008880849867310794 -0.007446366760503866 
0.007777569343584393 -0.009266186523272995 -0.006299157164543744 
-0.01155162788048855 0.01811609617012671 -0.01209888459679240 
0.01407131738120005 -0.01155528249912355 -0.004894846103779513 
-0.005889548351390380 0.01830297353824788 -0.02120688840299870 
0.01408191232115675 -0.01098710777642126 -0.005670477663123477 
-0.01294655427716972 0.01786258590669154 -0.005943836236530076 
0.01135873036700327 -0.008424709765637210 -0.004523989553093649 
0.004354276075742013 -0.004412965706063377 -0.001547685668610572 
0.004354276075742013 -0.004412965706063377 -0.001547685668610572 
0.002730290321010172 -0.002418268960430412 -0.001217212143142683 
0.002730290321010172 -0.002418268960430412 -0.001217212143142683 
0.01032390504430093 -0.008737629594078582 -0.004771190518067291 
0.002730290321010172 -0.002418268960430412 -0.001217212143142683 
0.002730290321010172 -0.002418268960430412 -0.001217212143142683 
0.002730290321010172 -0.002418268960430412 -0.001217212143142683 
0.004354276075742013 -0.004412965706063377 -0.001547685668610572 
0.004354276075742013 -0.004412965706063377 -0.001547685668610572 
-0.006930347505904102 0.005132346051888437 -0.0006612951038722850 
0.01433130992616925 -0.01328673754279240 -0.002423680464163214 
-0.002372295139283824 0.003327129465651792 -0.01245513334224998 
-0.01603579768807184 0.01039706782131285 0.003367291270553326 
-0.01810096160510028 -0.01288421251010623 0.02538015533100684 
0.005695738783875822 -0.005989641705365831 -0.001548940838139414 
0.002730290321010172 -0.002418268960430412 -0.001217212143142683 
0.002730290321010172 -0.002418268960430412 -0.001217212143142683 
0.01130134084734333 -0.008181440832363140 -0.006080553209698600 
0.002730290321010172 -0.002418268960430412 -0.001217212143142683 
0.002730290321010172 -0.002418268960430412 -0.001217212143142683 
0.004354276075742013 -0.004412965706063377 -0.001547685668610572 
0.02074603946670421 -0.01616590634652023 -0.01158573364932342 
0.002730290321010172 -0.002418268960430412 -0.001217212143142683 
0.007603782556311126 -0.006161767512536643 -0.004038429522036492 
0.002730290321010172 -0.002418268960430412 -0.001217212143142683 
0.002730290321010172 -0.002418268960430412 -0.001217212143142683 
0.01598415657462517 0.0006952252514489117 -0.02572187335674171 
-0.002252669410386478 0.008314703494821794 -0.007956711661767838 
0.007601084636306504 -0.005439726299431047 -0.004327965999981700 
-0.01647974538513444 0.004262241229380882 0.007417682954655553 
0.002730290321010172 -0.002418268960430412 -0.001217212143142683 
-0.02066552677898379 0.008221459220409687 0.002981434869885176 
0.004354276075742013 -0.004412965706063377 -0.001547685668610572 
0.002730290321010172 -0.002418268960430412 -0.001217212143142683 
0.002730290321010172 -0.002418268960430412 -0.001217212143142683 
0.002730290321010172 -0.002418268960430412 -0.001217212143142683 
0.004394907179954894 -0.004413121813596419 -0.001548870796314272 
0.001475707258778686 0.003278257745332759 -0.007435941295770282 
0.002730290321010172 -0.002418268960430412 -0.001217212143142683 
0.002730290321010172 -0.002418268960430412 -0.001217212143142683 
-0.003022132844719303 0.003381636886931292 -0.004080736598693714 
0.004354276075742013 -0.004412965706063377 -0.001547685668610572 
0.002730290321010172 -0.002418268960430412 -0.001217212143142683 
0.004354276075742013 -0.004412965706063377 -0.001547685668610572 
0.004354276075742013 -0.004412965706063377 -0.001547685668610572 
0.006535077233691677 -0.005494178694670442 -0.003330371357876782 
0.002730290321010172 -0.002418268960430412 -0.001217212143142683 
0.004354276075742013 -0.004412965706063377 -0.001547685668610572 
0.01425797789851380 -0.01205674838096610 -0.007166574991556689 
0.001623985754731841 -0.001994696745632965 -0.0003304735254678894 
-0.02408568676244062 0.02634282103314307 -0.003947604675856447 
0.001623985754731841 -0.001994696745632965 -0.0003304735254678894 
0.001623985754731841 -0.001994696745632965 -0.0003304735254678894 
0.001623985754731841 -0.001994696745632965 -0.0003304735254678894 
-0.005870706565760357 0.007993263395895020 -0.005992779766250208 
0.001623985754731841 -0.001994696745632965 -0.0003304735254678894 
0.02973685029891826 -0.01792900404060139 -0.04039235521866430 
0.001623985754731841 -0.001994696745632965 -0.0003304735254678894 
0.001623985754731841 -0.001994696745632965 -0.0003304735254678894 
0.001623985754731841 -0.001994696745632965 -0.0003304735254678894 
0.001623985754731841 -0.001994696745632965 -0.0003304735254678894 
0.001623985754731841 -0.001994696745632965 -0.0003304735254678894 
0.001623985754731841 -0.001994696745632965 -0.0003304735254678894 
0.001623985754731841 -0.001994696745632965 -0.0003304735254678894 
0.001623985754731841 -0.001994696745632965 -0.0003304735254678894 
0.001623985754731841 -0.001994696745632965 -0.0003304735254678894 
0.01514338463276355 -0.009237555544373463 -0.01577071594950747 
0.08173373578904874 -0.05463936226011073 -0.05886036721219961 
0.001623985754731841 -0.001994696745632965 -0.0003304735254678894 
0.001623985754731841 -0.001994696745632965 -0.0003304735254678894 
0.001623985754731841 -0.001994696745632965 -0.0003304735254678894 
0.001623985754731841 -0.001994696745632965 -0.0003304735254678894 
0.001623985754731841 -0.001994696745632965 -0.0003304735254678894 
0.001623985754731841 -0.001994696745632965 -0.0003304735254678894 
0.001623985754731841 -0.001994696745632965 -0.0003304735254678894 
0.001623985754731841 -0.001994696745632965 -0.0003304735254678894 
-0.003160572322719456 0.003800716305116441 -0.001423538566537483 
0.001623985754731841 -0.001994696745632965 -0.0003304735254678894 
0.001623985754731841 -0.001994696745632965 -0.0003304735254678894 
0.001623985754731841 -0.001994696745632965 -0.0003304735254678894 
0.001623985754731841 -0.001994696745632965 -0.0003304735254678894 
0.001623985754731841 -0.001994696745632965 -0.0003304735254678894 
0.001623985754731841 -0.001994696745632965 -0.0003304735254678894 
0.001623985754731841 -0.001994696745632965 -0.0003304735254678894 
0.001623985754731841 -0.001994696745632965 -0.0003304735254678894 
0.001623985754731841 -0.001994696745632965 -0.0003304735254678894 
0.001623985754731841 -0.001994696745632965 -0.0003304735254678894 
0.001623985754731841 -0.001994696745632965 -0.0003304735254678894 
0.001623985754731841 -0.001994696745632965 -0.0003304735254678894 
0.001623985754731841 -0.001994696745632965 -0.0003304735254678894 
0.001623985754731841 -0.001994696745632965 -0.0003304735254678894 
0.001623985754731841 -0.001994696745632965 -0.0003304735254678894 
0.001623985754731841 -0.001994696745632965 -0.0003304735254678894 
0.001623985754731841 -0.001994696745632965 -0.0003304735254678894 
0.004219840583104290 -0.003232523612086720 -0.002130994807089374 
0.004219840583104290 -0.003232523612086720 -0.002130994807089374 
0.004219840583104290 -0.003232523612086720 -0.002130994807089374 
0.0001795523527025277 -0.001215508244057229 -4.891316780838687e-05 
0.004219840583104290 -0.003232523612086720 -0.002130994807089374 
0.004219840583104290 -0.003232523612086720 -0.002130994807089374 
0.004623579739603512 -0.005657387059975277 -0.001602755324244658 
0.02535628090909416 -0.01739284739126448 -0.01557460632448812 
0.01046464019402327 -0.006459794366289575 -0.006891453489873052 
0.005398245983412478 -0.004505551541149529 -0.003716347574997723 
0.003465829228261303 0.008979992924934756 -0.02988203135537569 
6.122039015434686e-05 -0.007866788737059840 0.006135708902744905 
-0.01602049784840247 0.02097473440637703 -0.01083895126763382 
0.004219840583104290 -0.003232523612086720 -0.002130994807089374 
-0.01589260535477290 0.01024811519936805 -0.004604293014617538 
0.004219840583104290 -0.003232523612086720 -0.002130994807089374 
0.0009246514590361024 -0.004037703000887725 0.001970753104866404 
-0.05272592688576563 0.03666999258252911 0.007878992406214000 
-0.01066493434443672 0.003846899011115071 0.003277637201528703 
0.009860523544995782 -0.008044199891322108 -0.005843236738095172 
-0.0003701098372273939 0.002526777184660537 -0.005193749173269919 
0.004219840583104290 -0.003232523612086720 -0.002130994807089374 
0.002150933678358703 -0.0008522127295324050 -0.002397770297736119 
0.004219840583104290 -0.003232523612086720 -0.002130994807089374 
0.004219840583104290 -0.003232523612086720 -0.002130994807089374 
-0.003470190233955672 0.008159571837080312 -0.02396959825260478 
0.004219840583104290 -0.003232523612086720 -0.002130994807089374 
0.006964341484916128 -0.005202797521529602 -0.003739096620029546 
0.004219840583104290 -0.003232523612086720 -0.002130994807089374 
0.01045256606700523 -0.005465874514940705 -0.006645359530637277 
0.004219840583104290 -0.003232523612086720 -0.002130994807089374 
0.0004411175110993340 -0.007122177230398540 0.005369673583715090 
0.004219840583104290 -0.003232523612086720 -0.002130994807089374 
0.009213393974083307 -0.006919263738241329 -0.004067056064625414 
-0.001609992359297214 -0.004669119441487873 0.001549687783452249 
0.001903822285066646 -0.001545255719355868 -0.0008261111026608637 
0.01436406762943545 -0.008818948333481371 -0.009925622005412272 
0.001903822285066646 -0.001545255719355868 -0.0008261111026608637 
0.02376170000143680 -0.01267269877099468 -0.02237575291462998 
0.004517679984883940 -0.003423990621212576 -0.002280557748205007 
0.006590278205904532 -0.005480052668723999 -0.001563466794159667 
0.01026580349781894 -0.008591972322497407 -0.004182476094529586 
0.001903822285066646 -0.001545255719355868 -0.0008261111026608637 
-0.008494806634025630 0.006041550300174414 0.0001980408886048201 
0.0009246514590361024 -0.004037703000887725 0.001970753104866404 
-0.001230791864862325 -0.007693495923351195 0.008066630812447066 
0.004235788926296825 -0.003228975887089441 -0.002132723651097976 
0.005249692668561855 -0.0003780850578696046 -0.005209170866170998 
-0.002781787632837885 0.003468534784278161 -0.006956004180772055 
0.006616229613398951 -0.004941251738812054 -0.004231099774417115 
-0.01305543313130631 0.01344089999635452 -0.008668768836032350 
0.006455713656855023 -0.007775673917644368 -0.001987144792772772 
0.008197760778095921 -0.004197338984579569 -0.005702563758275813 
0.004219840583104290 -0.003232523612086720 -0.002130994807089374 
0.004219840583104290 -0.003232523612086720 -0.002130994807089374 
-0.006464861625205831 0.004108173001962462 -9.840286965064659e-05 
0.004219840583104290 -0.003232523612086720 -0.002130994807089374 
0.009769735841165026 -0.001169907463429452 -0.01152506782365148 
-0.002224194687103484 -0.009409164679530830 0.008078768257258687 
0.01388064897832185 -0.009590696298237746 -0.007464509547901243 
0.004219840583104290 -0.003232523612086720 -0.002130994807089374 
0.007729220561721936 -0.004081871077893123 -0.003627121922263627 
0.009291913393974963 -0.01341682668286294 0.0005940024051242540 
-0.02647946453319880 -0.01334548519621900 0.02506644614276887 
0.01099612718372531 -0.006914772902730740 -0.007207420696315195 
0.007332604563398457 -0.006971758485805332 -0.007176060287703821 
0.008313096833998569 -0.006312753420039516 -0.005074744608912812 
0.004219840583104290 -0.003232523612086720 -0.002130994807089374 
0.004219840583104290 -0.003232523612086720 -0.002130994807089374 
0.004219840583104290 -0.003232523612086720 -0.002130994807089374 
0.005827536720208028 -0.002636959090330510 -0.005691190135303482 
0.004219840583104290 -0.003232523612086720 -0.002130994807089374 
0.004219840583104290 -0.003232523612086720 -0.002130994807089374 
0.002316018298037645 -0.001687267892730852 -0.001304883704428511 
-0.01504345712454471 0.002671205623551179 0.01153822291382172 
-0.007229649540080398 0.01657106045522188 -0.01807533066097111 
0.0004376450849597656 -0.0007234288069006260 -5.797662149682154e-07 
0.003871282650068550 -0.003980833899562205 -1.503129755830988e-07 
0.0004376450849597656 -0.0007234288069006260 -5.797662149682154e-07 
0.0004376450849597656 -0.0007234288069006260 -5.797662149682154e-07 
0.0004376450849597656 -0.0007234288069006260 -5.797662149682154e-07 
0.02101269876275780 -0.02679939768997211 0.003609812182610389 
-0.002736762308802693 0.01072233439269836 -0.01395683896123483 
0.01882656823512628 -0.01560363600903942 -0.005340111562147927 
0.0004376450849597656 -0.0007234288069006260 -5.797662149682154e-07 
0.002301698179738551 -0.009067696193920208 0.002982508001847417 
0.0004376450849597656 -0.0007234288069006260 -5.797662149682154e-07 
0.0004376450849597656 -0.0007234288069006260 -5.797662149682154e-07 
0.0004376450849597656 -0.0007234288069006260 -5.797662149682154e-07 
-0.01318228975929718 0.01272425021178504 -0.001229288047068068 
0.0004376450849597656 -0.0007234288069006260 -5.797662149682154e-07 
0.005353256619605774 -0.006982183132483709 -0.004428555962746186 
0.001368286245025570 -0.0002455287138820360 -0.001643067349992766 
0.0004376450849597656 -0.0007234288069006260 -5.797662149682154e-07 
0.006835379403363807 0.0009112153144341077 -0.01509104874461358 
0.008518828441472424 -0.004685748590868595 -0.002695025095142468 
0.03486611484056800 -0.02688408539716724 -0.02637335167702184 
0.0004376450849597656 -0.0007234288069006260 -5.797662149682154e-07 
0.0004376450849597656 -0.0007234288069006260 -5.797662149682154e-07 
0.001599846940506077 -0.002120241061485575 -2.514761708982193e-06 
0.001249467077984760 -0.001580440404512309 -1.329634005282474e-06 
0.001185852234408375 -0.001379044496344501 -4.385218922584292e-07 
0.0004376450849597656 -0.0007234288069006260 -5.797662149682154e-07 
0.01399489392348076 -0.01170513225454749 -0.01303518390873383 
0.008205782864105194 -0.007702160264732976 -0.001424723038269423 
0.06406518787251860 -0.04932296107347505 -0.04070209295903700 
0.0004488859921383370 -0.0007234182040918501 -3.940753408792377e-07 
0.0004376450849597656 -0.0007234288069006260 -5.797662149682154e-07 
0.0004376450849597656 -0.0007234288069006260 -5.797662149682154e-07 
0.01205803093569544 -0.01424366103780792 -0.001544056350280438 
0.0004376450849597656 -0.0007234288069006260 -5.797662149682154e-07 
0.0004376450849597656 -0.0007234288069006260 -5.797662149682154e-07 
0.009144723352435680 -0.007883288421052768 -0.003587181623201914 
0.0004376450849597656 -0.0007234288069006260 -5.797662149682154e-07 
0.0004376450849597656 -0.0007234288069006260 -5.797662149682154e-07 
0.0004376450849597656 -0.0007234288069006260 -5.797662149682154e-07 
0.009839182907133492 -0.008708574653414394 -0.0005037421516481972 
0.0004376450849597656 -0.0007234288069006260 -5.797662149682154e-07 
0.0004376450849597656 -0.0007234288069006260 -5.797662149682154e-07 
0.0004376450849597656 -0.0007234288069006260 -5.797662149682154e-07 
-0.005017740138240381 0.005472359262067506 -0.002392430808473004 
0.0004376450849597656 -0.0007234288069006260 -5.797662149682154e-07 
0.0004376450849597656 -0.0007234288069006260 -5.797662149682154e-07 
-0.002737222065459088 0.002865289599470809 -0.002703789162960098 
0.0004376450849597656 -0.0007234288069006260 -5.797662149682154e-07 
0.002577394139848401 -0.002408725246110681 -1.290190441413450e-06 
0.002577394139848401 -0.002408725246110681 -1.290190441413450e-06 
0.002577394139848401 -0.002408725246110681 -1.290190441413450e-06 
-0.005028054540189742 0.0003716743504038520 -0.0008746536922590038 
-0.01261411569246813 0.01520361922919707 -0.008038824080266087 
0.002577394139848401 -0.002408725246110681 -1.290190441413450e-06 
0.002577394139848401 -0.002408725246110681 -1.290190441413450e-06 
0.002577394139848401 -0.002408725246110681 -1.290190441413450e-06 
0.01350357870471906 -0.009842256511518105 -0.01089026966248849 
-0.004277312486452915 0.005059264932620830 -0.001607470990121037 
0.0007997286438335980 0.002168326061645395 -0.004172844990623138 
0.002577394139848401 -0.002408725246110681 -1.290190441413450e-06 
0.002577394139848401 -0.002408725246110681 -1.290190441413450e-06 
0.03518492914475054 -0.03437129090551525 -0.01649339029352537 
0.01027410098618074 -0.007280531571504291 -0.008100796113062830 
0.002577394139848401 -0.002408725246110681 -1.290190441413450e-06 
0.002577394139848401 -0.002408725246110681 -1.290190441413450e-06 
0.002577394139848401 -0.002408725246110681 -1.290190441413450e-06 
0.008943476800279591 -0.008691746109463072 -0.002804894532159191 
0.002577394139848401 -0.002408725246110681 -1.290190441413450e-06 
0.002212659025297113 -0.0006554380211066022 -0.002282543460248629 
0.007685543741266142 -0.006638385670780718 -0.001705083479166775 
0.002577394139848401 -0.002408725246110681 -1.290190441413450e-06 
0.002577394139848401 -0.002408725246110681 -1.290190441413450e-06 
0.002577394139848401 -0.002408725246110681 -1.290190441413450e-06 
0.002577394139848401 -0.002408725246110681 -1.290190441413450e-06 
-0.01353891917596799 0.002608849957859377 0.006078732073575872 
0.01168962037878295 -0.01107288359862800 -0.001133616449045376 
0.002577394139848401 -0.002408725246110681 -1.290190441413450e-06 
0.002577394139848401 -0.002408725246110681 -1.290190441413450e-06 
-0.02150736378693506 0.02506653742146538 -0.01103730337052250 
0.002577394139848401 -0.002408725246110681 -1.290190441413450e-06 
0.01528401015018472 -0.01093313349251419 -0.009209724368196368 
0.002577394139848401 -0.002408725246110681 -1.290190441413450e-06 
0.01699284913918208 -0.01718537761409494 -0.005951696080812468 
0.002607344287839919 -0.002320672151195908 -5.828667315546158e-05 
0.002607344287839919 -0.002320672151195908 -5.828667315546158e-05 
-0.001826643140405203 0.002034671709759392 -5.680187319122977e-05 
0.002607344287839919 -0.002320672151195908 -5.828667315546158e-05 
0.002226361785482103 -0.0003856657745331053 -0.003460865882368676 
-0.0009855876062086425 0.002000281904792228 -0.001304564176474051 
0.002607344287839919 -0.002320672151195908 -5.828667315546158e-05 
0.002607344287839919 -0.002320672151195908 -5.828667315546158e-05 
0.004781894825467402 -0.004323228405652443 -0.0006265139699827203 
0.003369481163721605 -0.003685320646582709 -5.959520788441235e-05 
0.002607344287839919 -0.002320672151195908 -5.828667315546158e-05 
0.02437747899565447 -0.02072232099698982 -0.006458270469563733 
0.002607344287839919 -0.002320672151195908 -5.828667315546158e-05 
0.002607344287839919 -0.002320672151195908 -5.828667315546158e-05 
0.002607344287839919 -0.002320672151195908 -5.828667315546158e-05 
-0.02222106033061508 0.02482390284538461 -0.0003211385119889429 
0.003100756621479274 -0.008105424030199706 0.005639872846566003 
-0.0003187016405370547 0.01403921419471853 -0.02752740607411961 
0.002607344287839919 -0.002320672151195908 -5.828667315546158e-05 
0.002607344287839919 -0.002320672151195908 -5.828667315546158e-05 
0.005817747992424848 -0.005072758625789747 -0.0009030053482842095 
0.002178507618757776 0.002428676628944988 -0.007257131566127379 
0.009612325147042642 -0.006021501957995566 -0.005283854202647588 
0.009382887891683140 -0.006198741592196414 -0.005705077407217625 
0.004781894825467402 -0.004323228405652443 -0.0006265139699827203 
0.002607344287839919 -0.002320672151195908 -5.828667315546158e-05 
0.002607344287839919 -0.002320672151195908 -5.828667315546158e-05 
0.002607344287839919 -0.002320672151195908 -5.828667315546158e-05 
0.003137751170179348 -0.003172975222285583 -5.814376117024841e-05 
0.002607344287839919 -0.002320672151195908 -5.828667315546158e-05 
0.008159871909732068 -0.007374583528039560 -0.002140936573972255 
-0.006995220281136969 0.007254179171910947 -5.785416823087050e-05 
0.01878836969090688 -0.01344430757847827 -0.01055650962335650 
0.002174550537627483 -0.002002556254456535 -0.0005682272968272588 
0.006629993309086952 -0.005845197729369063 -0.0005713256670662945 
0.01401052342097020 -0.009194724139022182 -0.01428530530373331 
0.004455353815703878 -0.003606354411962301 -0.0005671788441027034 
0.002174550537627483 -0.002002556254456535 -0.0005682272968272588 
0.002174550537627483 -0.002002556254456535 -0.0005682272968272588 
0.002174550537627483 -0.002002556254456535 -0.0005682272968272588 
-0.009766451743038562 0.01029695337530305 -0.001590948088951097 
0.006549822493070673 -0.005775885363856237 -0.003213375278067305 
0.01327074395971963 -0.01198993066087918 -0.004718972913509208 
0.002345065422450446 -0.002661927302925964 -0.0005697226097565894 
-0.01341487324463575 0.01630418708315356 -0.002551784636222870 
-0.001975547811975930 0.003370675009441616 -0.0009530224975702764 
0.002174550537627483 -0.002002556254456535 -0.0005682272968272588 
0.003820732599503647 -0.001495873025507671 -0.002809761263794568 
0.002174550537627483 -0.002002556254456535 -0.0005682272968272588 
0.005042259561127799 -0.004485100526853890 -0.001364326579724297 
0.007133555838230893 -0.005765711054193812 -0.004355492918456218 
0.002328895006120945 -0.0004572920878312971 -0.003954814649276367 
0.002174550537627483 -0.002002556254456535 -0.0005682272968272588 
0.002174550537627483 -0.002002556254456535 -0.0005682272968272588 
-0.001232452730838795 0.003184221657540127 -0.002684022678548545 
-0.006283458585878131 0.004107218042477974 0.001258420791655129 
0.002174550537627483 -0.002002556254456535 -0.0005682272968272588 
0.002174550537627483 -0.002002556254456535 -0.0005682272968272588 
0.002174550537627483 -0.002002556254456535 -0.0005682272968272588 
0.002174550537627483 -0.002002556254456535 -0.0005682272968272588 
-0.005663846170553052 0.008687930495066299 -0.004537810182369290 
0.002174550537627483 -0.002002556254456535 -0.0005682272968272588 
0.002218107197531637 0.0005266521898942598 -0.004502241927885287 
0.006664182162604546 -0.004246676622870552 -0.003515080128227757 
-0.0002559763210179796 0.002893976074771798 -0.004626721629220156 
0.006465916637695401 -0.004659513290997929 -0.004447643401090978 
0.006465916637695401 -0.004659513290997929 -0.004447643401090978 
-0.001737046827571067 0.0006288939549172382 -0.003295555580669862 
0.009501914439514293 -0.006737449708713944 -0.006520731117070871 
0.006465916637695401 -0.004659513290997929 -0.004447643401090978 
0.03993641395694363 -0.03168726481902724 -0.02213113227695795 
0.009015268634475170 -5.660084457697268e-06 -0.01683522081841610 
-0.005944271560625463 0.01182508632889763 -0.01685757623361219 
0.006094235604182294 0.001531817173952623 -0.01277343637573195 
-0.01623056311740873 -0.01836030505725683 0.03176764569037129 
-0.06212366110630703 0.07338789215505982 -0.02590823714843859 
0.009425186233574523 -0.006028658914517496 -0.005809143668729433 
0.007063919458396743 -0.02018817116196043 0.007245986134323540 
-0.01456799720932904 -0.01148221534238712 0.02114196113003775 
0.01641162706157084 -0.004836322759443036 -0.03223962853167255 
0.006465916637695401 -0.004659513290997929 -0.004447643401090978 
-0.001606025063519010 3.140794441394329e-05 -0.002023953417552974 
-0.006064670832356955 -0.002427362544545002 0.002062193814376737 
-0.002449055275238189 -0.001464455194150265 -0.001029623695426193 
-0.0005385228766058855 -0.008259211678544508 0.002157027019950847 
-0.001472530069438324 -0.0004297011360930725 -0.002687559925599011 
0.01169736455734884 -0.006771926133648252 -0.009116553393661663 
0.006465916637695401 -0.004659513290997929 -0.004447643401090978 
0.02510246581253491 -0.01257594291088084 -0.01843252259283370 
0.01129659516981430 -0.007969989197935580 -0.008290972018652039 
-0.007748572685248004 0.007376523089473988 -0.005170076915844035 
0.006465916637695401 -0.004659513290997929 -0.004447643401090978 
0.002922820446734273 -0.006923980097173602 0.0002199131724164601 
0.005953344272955480 -5.039941061399376e-05 -0.01759801658179270 
0.006465916637695401 -0.004659513290997929 -0.004447643401090978 
0.006962929996078808 -0.01217012860251226 -0.0001492047403617673 
0.006465916637695401 -0.004659513290997929 -0.004447643401090978 
0.002765846794827123 -0.001812829508188511 -0.002568433873790581 
0.002765846794827123 -0.001812829508188511 -0.002568433873790581 
0.002754870861925379 0.002622691402257000 -0.006518656850033389 
0.0002098619349051399 -0.0008615946297053092 -3.661026185025290e-06 
0.0002098619349051399 -0.0008615946297053092 -3.661026185025290e-06 
0.0002098619349051399 -0.0008615946297053092 -3.661026185025290e-06 
0.0002098619349051399 -0.0008615946297053092 -3.661026185025290e-06 
0.0002098619349051399 -0.0008615946297053092 -3.661026185025290e-06 
0.001956631198570226 -0.002232794970372154 -0.001812363958417875 
0.001956631198570226 -0.002232794970372154 -0.001812363958417875 
0.0002098619349051399 -0.0008615946297053092 -3.661026185025290e-06 
0.0002098619349051399 -0.0008615946297053092 -3.661026185025290e-06 
0.001956631198570226 -0.002232794970372154 -0.001812363958417875 
-0.002482936032823899 0.005193147135890304 -0.003356227558641063 
-0.002414514767656765 -0.004427150714997230 0.006322654503214402 
0.001956631198570226 -0.002232794970372154 -0.001812363958417875 
0.0002098619349051399 -0.0008615946297053092 -3.661026185025290e-06 
0.004274373912429259 -0.002359498033705274 -0.006191634212152563 
0.0002098619349051399 -0.0008615946297053092 -3.661026185025290e-06 
-0.04172191619484133 0.04350072856193527 -0.01713778148204236 
0.001956631198570226 -0.002232794970372154 -0.001812363958417875 
0.0002098619349051399 -0.0008615946297053092 -3.661026185025290e-06 
0.0002098619349051399 -0.0008615946297053092 -3.661026185025290e-06 
0.005171007220648480 -0.004746402123468719 -0.001466000001374795 
0.0002098619349051399 -0.0008615946297053092 -3.661026185025290e-06 
-0.009393834455919084 0.008926530306918881 -0.003517629639337279 
0.0002098619349051399 -0.0008615946297053092 -3.661026185025290e-06 
0.0002098619349051399 -0.0008615946297053092 -3.661026185025290e-06 
0.001956631198570226 -0.002232794970372154 -0.001812363958417875 
0.0002098619349051399 -0.0008615946297053092 -3.661026185025290e-06 
0.0002098619349051399 -0.0008615946297053092 -3.661026185025290e-06 
-0.01758092320157513 0.02912753239575208 -0.02122778354773398 
0.0002098619349051399 -0.0008615946297053092 -3.661026185025290e-06 
-0.003559844750647749 -0.007854690625689888 0.01028640130456111 
0.006408161461934117 -0.005185385819879316 -0.004089608462707487 
0.0002098619349051399 -0.0008615946297053092 -3.661026185025290e-06 
0.0002098619349051399 -0.0008615946297053092 -3.661026185025290e-06 
0.02083380093202574 -0.01369723831586876 -0.01505378918635699 
0.005472706861714281 -0.005178622462798813 -0.001451215066181371 
0.001956631198570226 -0.002232794970372154 -0.001812363958417875 
0.0002098619349051399 -0.0008615946297053092 -3.661026185025290e-06 
0.001354801673472365 0.003808868023417195 -0.007732837738610335 
0.0002098619349051399 -0.0008615946297053092 -3.661026185025290e-06 
-0.007581680720480584 0.009791665527610380 -0.005602578976690598 
0.01505578963844826 -0.003059356952947220 -0.01593883005404006 
0.0002098619349051399 -0.0008615946297053092 -3.661026185025290e-06 
0.005001770265577789 -0.003853935358090927 -0.004081307139411071 
0.0002098619349051399 -0.0008615946297053092 -3.661026185025290e-06 
0.005101734488574713 -0.003482363272808440 -0.002953545166933719 
0.009546080465710751 -0.001773761809705749 -0.01107258917517212 
0.0009399373914869956 -0.009440341767661377 0.007517890333115297 
0.002954362836716977 -0.002831868539148192 -0.001611762839125197 
0.0002088315854593478 -0.0008613467175905162 -4.164079924837442e-06 
-0.0003339569984572236 0.001551338804775456 -0.003632633951219437 
0.0002098619349051399 -0.0008615946297053092 -3.661026185025290e-06 
0.0002098619349051399 -0.0008615946297053092 -3.661026185025290e-06 
0.0002098619349051399 -0.0008615946297053092 -3.661026185025290e-06 
0.001678509139949895 -0.001076570385240004 -0.001135262809397418 
0.001956631198570226 -0.002232794970372154 -0.001812363958417875 
-0.002842841676063019 0.005662338033739162 -0.004518809146919857 
0.0005077013366847890 -0.001053061638831166 -0.0001532239673006578 
0.0002098619349051399 -0.0008615946297053092 -3.661026185025290e-06 
0.0002098619349051399 -0.0008615946297053092 -3.661026185025290e-06 
0.0002098619349051399 -0.0008615946297053092 -3.661026185025290e-06 
0.0002098619349051399 -0.0008615946297053092 -3.661026185025290e-06 
0.003686028058877802 -0.003838903396053289 -0.002445436218135626 
-0.01282026601142380 0.01765109366722364 -0.01105861423011523 
0.05135516045468092 -0.02726190962505041 -0.03279929164907379 
0.0002098619349051399 -0.0008615946297053092 -3.661026185025290e-06 
0.01233415388946487 -0.007597243489310632 -0.009620592421650990 
0.0002098619349051399 -0.0008615946297053092 -3.661026185025290e-06 
0.0002098619349051399 -0.0008615946297053092 -3.661026185025290e-06 
0.0002098619349051399 -0.0008615946297053092 -3.661026185025290e-06 
0.004078756063463032 -0.002568381295944349 -0.003557068635685050 
0.0002098619349051399 -0.0008615946297053092 -3.661026185025290e-06 
0.0002098619349051399 -0.0008615946297053092 -3.661026185025290e-06 
0.0002098619349051399 -0.0008615946297053092 -3.661026185025290e-06 
0.0002098619349051399 -0.0008615946297053092 -3.661026185025290e-06 
0.01362471941273721 -0.008522692434846043 -0.01190089161022695 
0.0002098619349051399 -0.0008615946297053092 -3.661026185025290e-06 
0.04174865230008421 -0.02581382800469451 -0.02842967547414415 
0.0002098619349051399 -0.0008615946297053092 -3.661026185025290e-06 
0.0002098619349051399 -0.0008615946297053092 -3.661026185025290e-06 
0.01234592286731345 -0.01502449775070361 -0.001925405557759915 
-0.02263360056929698 0.02607949443200872 -0.005026897544343896 
0.0002098619349051399 -0.0008615946297053092 -3.661026185025290e-06 
0.003600523885250169 -0.01343009195783684 0.006033478980051051 
0.0002098619349051399 -0.0008615946297053092 -3.661026185025290e-06 
0.0002098619349051399 -0.0008615946297053092 -3.661026185025290e-06 
0.0002098619349051399 -0.0008615946297053092 -3.661026185025290e-06 
0.0002098619349051399 -0.0008615946297053092 -3.661026185025290e-06 
0.004434055561824980 -0.003945488090258930 -0.002176543721645005 
0.0002098619349051399 -0.0008615946297053092 -3.661026185025290e-06 
0.0002098619349051399 -0.0008615946297053092 -3.661026185025290e-06 
0.001746769263665086 -0.001371200340666844 -0.001808702932232849 
0.001746769263665086 -0.001371200340666844 -0.001808702932232849 
0.001746769263665086 -0.001371200340666844 -0.001808702932232849 
0.001746769263665086 -0.001371200340666844 -0.001808702932232849 
0.001746769263665086 -0.001371200340666844 -0.001808702932232849 
0.001746769263665086 -0.001371200340666844 -0.001808702932232849 
0.001746769263665086 -0.001371200340666844 -0.001808702932232849 
0.001746769263665086 -0.001371200340666844 -0.001808702932232849 
0.001746769263665086 -0.001371200340666844 -0.001808702932232849 
0.001746769263665086 -0.001371200340666844 -0.001808702932232849 
0.001746769263665086 -0.001371200340666844 -0.001808702932232849 
0.001746769263665086 -0.001371200340666844 -0.001808702932232849 
0.001746769263665086 -0.001371200340666844 -0.001808702932232849 
0.001746769263665086 -0.001371200340666844 -0.001808702932232849 
0.001746769263665086 -0.001371200340666844 -0.001808702932232849 
0.001746769263665086 -0.001371200340666844 -0.001808702932232849 
0.001746769263665086 -0.001371200340666844 -0.001808702932232849 
0.001746769263665086 -0.001371200340666844 -0.001808702932232849 
0.001746769263665086 -0.001371200340666844 -0.001808702932232849 
0.001746769263665086 -0.001371200340666844 -0.001808702932232849 
0.001746769263665086 -0.001371200340666844 -0.001808702932232849 
0.001746769263665086 -0.001371200340666844 -0.001808702932232849 
0.001746769263665086 -0.001371200340666844 -0.001808702932232849 
0.001746769263665086 -0.001371200340666844 -0.001808702932232849 
0.001746769263665086 -0.001371200340666844 -0.001808702932232849 
0.001746769263665086 -0.001371200340666844 -0.001808702932232849 
0.001746769263665086 -0.001371200340666844 -0.001808702932232849 
0.001746769263665086 -0.001371200340666844 -0.001808702932232849 
0.001746769263665086 -0.001371200340666844 -0.001808702932232849 
0.001746769263665086 -0.001371200340666844 -0.001808702932232849 
0.001746769263665086 -0.001371200340666844 -0.001808702932232849 
0.001864809274705198 -0.001369939858030484 -0.001810098185411976 
0.001745695238258510 -0.001370977703296250 -0.001808777396709290 
0.02120452111074642 -0.02887459753216013 0.005824943690772387 
0.001746769263665086 -0.001371200340666844 -0.001808702932232849 
0.001746769263665086 -0.001371200340666844 -0.001808702932232849 
0.001746769263665086 -0.001371200340666844 -0.001808702932232849 
0.01930801127600864 -0.01696012532060277 -0.01197323774394285 
0.001746769263665086 -0.001371200340666844 -0.001808702932232849 
0.001746769263665086 -0.001371200340666844 -0.001808702932232849 
0.001746769263665086 -0.001371200340666844 -0.001808702932232849 
0.002968607929475042 -0.002520044620285544 -0.002096991067662105 
-0.002297624539334404 0.002703878888491165 -0.001807930224157566 
0.001746769263665086 -0.001371200340666844 -0.001808702932232849 
0.01163807295625415 -0.004819833044593566 -0.01154706827032189 
0.001746769263665086 -0.001371200340666844 -0.001808702932232849 
0.001746769263665086 -0.001371200340666844 -0.001808702932232849 
0.001746769263665086 -0.001371200340666844 -0.001808702932232849 
0.005065526635178444 -0.004148094211401212 -0.004627370308910378 
0.001746769263665086 -0.001371200340666844 -0.001808702932232849 
0.001746769263665086 -0.001371200340666844 -0.001808702932232849 
0.001746769263665086 -0.001371200340666844 -0.001808702932232849 
0.001746769263665086 -0.001371200340666844 -0.001808702932232849 
0.001746769263665086 -0.001371200340666844 -0.001808702932232849 
0.01428699225818636 -0.009039088260701239 -0.01445981983555434 
0.001746769263665086 -0.001371200340666844 -0.001808702932232849 
0.001746769263665086 -0.001371200340666844 -0.001808702932232849 
0.003663590094633670 -0.002654425953667877 -0.002590904178066638 
0.001746769263665086 -0.001371200340666844 -0.001808702932232849 
0.001746769263665086 -0.001371200340666844 -0.001808702932232849 
0.001746769263665086 -0.001371200340666844 -0.001808702932232849 
0.001746769263665086 -0.001371200340666844 -0.001808702932232849 
0.002049641346699317 -0.001369320394033423 -0.002127280559002926 
0.001746769263665086 -0.001371200340666844 -0.001808702932232849 
0.001746769263665086 -0.001371200340666844 -0.001808702932232849 
0.001746769263665086 -0.001371200340666844 -0.001808702932232849 
0.003412566550912690 -0.002722715855596719 -0.001393256973167343 
0.001869387500113613 -0.001176556098019933 -0.001393577073281063 
0.001869387500113613 -0.001176556098019933 -0.001393577073281063 
0.001869387500113613 -0.001176556098019933 -0.001393577073281063 
0.003412566550912690 -0.002722715855596719 -0.001393256973167343 
0.006294589853780272 -0.005059022547899425 -0.001394962918562180 
0.006259901078867544 -0.005657275020069635 -0.001540605012889879 
0.001869387500113613 -0.001176556098019933 -0.001393577073281063 
0.001869387500113613 -0.001176556098019933 -0.001393577073281063 
0.02518287156987167 -0.02062708845359743 -0.01183622993055328 
0.001869387500113613 -0.001176556098019933 -0.001393577073281063 
0.001869387500113613 -0.001176556098019933 -0.001393577073281063 
0.005589460518669031 -0.004723517849775019 -0.003294062439884608 
0.03261364886725787 -0.03155329261985045 -0.01566073570821377 
0.001869387500113613 -0.001176556098019933 -0.001393577073281063 
0.003731415872847170 -0.001840045842055047 -0.001756801705862612 
0.001869387500113613 -0.001176556098019933 -0.001393577073281063 
0.001869387500113613 -0.001176556098019933 -0.001393577073281063 
0.001869387500113613 -0.001176556098019933 -0.001393577073281063 
0.001869387500113613 -0.001176556098019933 -0.001393577073281063 
0.001869387500113613 -0.001176556098019933 -0.001393577073281063 
0.001869387500113613 -0.001176556098019933 -0.001393577073281063 
0.002156893343628274 0.0006949702150547197 -0.005765544869796792 
0.001869387500113613 -0.001176556098019933 -0.001393577073281063 
0.001869387500113613 -0.001176556098019933 -0.001393577073281063 
0.001869387500113613 -0.001176556098019933 -0.001393577073281063 
0.001869387500113613 -0.001176556098019933 -0.001393577073281063 
0.001869387500113613 -0.001176556098019933 -0.001393577073281063 
0.01967884608480634 -0.004746996795636974 -0.02339568038423164 
0.001869387500113613 -0.001176556098019933 -0.001393577073281063 
-0.002251149322339997 0.002402191340979839 -0.003894894150886795 
0.001863788955173289 -0.001176541119736671 -0.001466576196262985 
0.001869387500113613 -0.001176556098019933 -0.001393577073281063 
0.003412566550912690 -0.002722715855596719 -0.001393256973167343 
0.002146791647000028 -0.001750199466048920 -0.001394928967235102 
-0.008591016083789732 0.004125512936292800 0.003759926208652860 
-0.004199966590087417 -0.008775152079825117 0.009776397505501343 
0.007673830050833197 -0.003379283819968268 -0.005113007242477046 
0.001869387500113613 -0.001176556098019933 -0.001393577073281063 
-0.005675783762154486 -0.001839407446836798 0.007897423503592236 
0.001869387500113613 -0.001176556098019933 -0.001393577073281063 
0.001869387500113613 -0.001176556098019933 -0.001393577073281063 
0.001869387500113613 -0.001176556098019933 -0.001393577073281063 
0.007952292049115510 -0.005566285488364857 -0.004811423122440295 
0.004191137242653885 -0.003475412270276093 -0.003120485193751038 
0.005980937992231706 -0.004660388823652798 -0.001625101571593177 
0.001869387500113613 -0.001176556098019933 -0.001393577073281063 
0.001869387500113613 -0.001176556098019933 -0.001393577073281063 
0.001869387500113613 -0.001176556098019933 -0.001393577073281063 
0.001869387500113613 -0.001176556098019933 -0.001393577073281063 
0.001342171091423209 0.003064750095156014 -0.008025531363046325 
0.001869387500113613 -0.001176556098019933 -0.001393577073281063 
0.001869387500113613 -0.001176556098019933 -0.001393577073281063 
0.001869387500113613 -0.001176556098019933 -0.001393577073281063 
0.001869387500113613 -0.001176556098019933 -0.001393577073281063 
0.003587810321298676 -0.005241770251625005 -0.0004041268811544967 
0.001869387500113613 -0.001176556098019933 -0.001393577073281063 
-0.001825017485812720 0.003334335626683798 -0.003400422600863944 
0.04434945912429596 -0.03422517332151448 -0.02396801132228690 
0.02642649504793813 -0.01677795361222901 -0.01487023318744710 
-0.001417074043613088 0.003877434912354714 -0.007828510608650984 
0.001869387500113613 -0.001176556098019933 -0.001393577073281063 
0.005193903135661053 -0.004031314583784553 -0.001858529684351054 
0.005322001720912122 -0.0005313488349483664 -0.005958680319457546 
0.003412566550912690 -0.002722715855596719 -0.001393256973167343 
0.01064552641482000 -0.007057358266701005 -0.004141509743471238 
0.001869387500113613 -0.001176556098019933 -0.001393577073281063 
0.003305037417232844 -0.002302167261198013 -0.002076511865824587 
-0.006793600854707409 0.007727846971592214 -0.001730282864901632 
0.001543179050799077 -0.001546159757576786 3.201001137197881e-07 
0.0006083410574033413 -0.003924457169326955 0.003621184272700764 
0.005039732189258271 -0.004721558639689735 -0.0007974857085143674 
0.03215463407809648 -0.02690498821773620 -0.02276871044701877 
0.008303012700760165 -0.01397965182070658 -0.002375848196068786 
0.001543179050799077 -0.001546159757576786 3.201001137197881e-07 
0.001543179050799077 -0.001546159757576786 3.201001137197881e-07 
0.001543179050799077 -0.001546159757576786 3.201001137197881e-07 
0.001543179050799077 -0.001546159757576786 3.201001137197881e-07 
0.001543179050799077 -0.001546159757576786 3.201001137197881e-07 
0.001543179050799077 -0.001546159757576786 3.201001137197881e-07 
0.001583810155011958 -0.001546315865109829 -8.650275899799284e-07 
0.001543179050799077 -0.001546159757576786 3.201001137197881e-07 
0.002835238362279593 -0.002676864786377533 -0.001234685854597269 
0.001543179050799077 -0.001546159757576786 3.201001137197881e-07 
0.001543179050799077 -0.001546159757576786 3.201001137197881e-07 
0.001543179050799077 -0.001546159757576786 3.201001137197881e-07 
0.001543179050799077 -0.001546159757576786 3.201001137197881e-07 
0.008403461704700486 -0.007337237735642087 -0.002756668027851436 
0.001543179050799077 -0.001546159757576786 3.201001137197881e-07 
0.001543179050799077 -0.001546159757576786 3.201001137197881e-07 
0.001543179050799077 -0.001546159757576786 3.201001137197881e-07 
0.002663022768627575 0.01210640664189171 -0.02810860383648546 
0.007982234483727367 0.01887215299134986 -0.04861175802700300 
0.01011769385922773 -0.008004491718089231 -0.004464703968211099 
0.001543179050799077 -0.001546159757576786 3.201001137197881e-07 
0.001543179050799077 -0.001546159757576786 3.201001137197881e-07 
1.685788014118365e-05 0.001394157040437802 -0.001537811852294160 
0.001543179050799077 -0.001546159757576786 3.201001137197881e-07 
0.001543179050799077 -0.001546159757576786 3.201001137197881e-07 
0.001575164485994108 -0.002418302286431214 2.128627234240858e-07 
0.001543179050799077 -0.001546159757576786 3.201001137197881e-07 
0.001543179050799077 -0.001546159757576786 3.201001137197881e-07 
-0.001980869498841111 0.003916494966461983 -0.002496907315115760 
0.001543179050799077 -0.001546159757576786 3.201001137197881e-07 
-0.0007209691973092324 0.003402857745592114 -0.002646625449834527 
0.003973056277420358 -0.001359477294968607 -0.003614025109594404 
0.001543179050799077 -0.001546159757576786 3.201001137197881e-07 
0.001543179050799077 -0.001546159757576786 3.201001137197881e-07 
0.001543179050799077 -0.001546159757576786 3.201001137197881e-07 
0.001543179050799077 -0.001546159757576786 3.201001137197881e-07 
0.001543179050799077 -0.001546159757576786 3.201001137197881e-07 
0.002406069842369144 -0.002211193933703856 5.552211189277918e-08 
0.001543179050799077 -0.001546159757576786 3.201001137197881e-07 
-0.04136064992012419 0.04202179769616044 -0.003114207546215236 
0.001543179050799077 -0.001546159757576786 3.201001137197881e-07 
0.001543179050799077 -0.001546159757576786 3.201001137197881e-07 
0.009486401755308610 -0.01007718341945618 -0.001318023306040581 
0.001543179050799077 -0.001546159757576786 3.201001137197881e-07 
0.003412936812101168 -0.008200665689501197 0.005435830717464348 
-0.002168490142237853 -0.005232305988646944 0.006890114015136303 
0.001543179050799077 -0.001546159757576786 3.201001137197881e-07 
0.001543179050799077 -0.001546159757576786 3.201001137197881e-07 
0.001543179050799077 -0.001546159757576786 3.201001137197881e-07 
0.001543179050799077 -0.001546159757576786 3.201001137197881e-07 
0.001543179050799077 -0.001546159757576786 3.201001137197881e-07 
0.001543179050799077 -0.001546159757576786 3.201001137197881e-07 
0.001543179050799077 -0.001546159757576786 3.201001137197881e-07 
0.005176781355684834 -0.004355359940368181 -0.001302517157858690 
0.002960911707331945 -0.002184722181396274 -0.001172404466434555 
-0.006873468808830415 0.002493450903189635 -0.01115445476412282 
0.002960911707331945 -0.002184722181396274 -0.001172404466434555 
0.004799225144122939 -0.003293465733201420 -0.002406762287707223 
0.002960911707331945 -0.002184722181396274 -0.001172404466434555 
0.004704356585366573 -0.003694532533029816 -0.001932210831960908 
0.002960911707331945 -0.002184722181396274 -0.001172404466434555 
0.002960911707331945 -0.002184722181396274 -0.001172404466434555 
0.002960911707331945 -0.002184722181396274 -0.001172404466434555 
-0.002859145764791743 0.005832015536661984 -0.006090670866313333 
0.002960911707331945 -0.002184722181396274 -0.001172404466434555 
0.002960911707331945 -0.002184722181396274 -0.001172404466434555 
0.002960911707331945 -0.002184722181396274 -0.001172404466434555 
0.002960911707331945 -0.002184722181396274 -0.001172404466434555 
0.006023526450722187 -0.004544849583512322 -0.003167811212002870 
0.004346852078697232 -0.003212126965847337 -0.001302147517119149 
0.003255892148460540 -8.942574216794940e-05 -0.003975414443998159 
0.002960911707331945 -0.002184722181396274 -0.001172404466434555 
0.002960911707331945 -0.002184722181396274 -0.001172404466434555 
0.002960911707331945 -0.002184722181396274 -0.001172404466434555 
-0.009532609612240624 0.01134758555161238 -0.001303346493112955 
0.006464358830139724 -0.0009649238410036446 -0.008764890810746965 
0.01222314947103511 -0.009058164142850909 -0.006850206429382236 
0.002960911707331945 -0.002184722181396274 -0.001172404466434555 
0.003490882213552136 -0.003037126135878553 -0.001171952456550002 
-0.004490973479542923 -0.005574597071135990 0.008993683065220420 
-0.003992148720444880 0.005931382246976737 -0.001302091903920325 
0.002960911707331945 -0.002184722181396274 -0.001172404466434555 
0.002960911707331945 -0.002184722181396274 -0.001172404466434555 
0.002960911707331945 -0.002184722181396274 -0.001172404466434555 
0.004962688007715799 -0.003173287761249418 -0.002790690478958135 
0.002960911707331945 -0.002184722181396274 -0.001172404466434555 
0.01915616588984614 -0.01566132894236509 -0.01003190824929507 
0.002960911707331945 -0.002184722181396274 -0.001172404466434555 
0.002960911707331945 -0.002184722181396274 -0.001172404466434555 
0.004346852078697232 -0.003212126965847337 -0.001302147517119149 
0.002960911707331945 -0.002184722181396274 -0.001172404466434555 
-0.02826495346424669 0.02112943629749089 0.002323635678467574 
-0.01870647095270471 0.02164030209293392 -0.001752957447253195 
0.004573295435324848 -0.003497684180300435 -0.001173292750212651 
0.002960911707331945 -0.002184722181396274 -0.001172404466434555 
0.002960911707331945 -0.002184722181396274 -0.001172404466434555 
0.002960911707331945 -0.002184722181396274 -0.001172404466434555 
0.002960911707331945 -0.002184722181396274 -0.001172404466434555 
-0.004416529384609632 0.005684548537099021 -0.001509014187312273 
0.002960911707331945 -0.002184722181396274 -0.001172404466434555 
0.002960911707331945 -0.002184722181396274 -0.001172404466434555 
0.002960911707331945 -0.002184722181396274 -0.001172404466434555 
0.01667687458762889 -0.01314045573464732 -0.006691395304546478 
0.003345317890841349 -0.002184913506647093 -0.001236898928008784 
0.002960911707331945 -0.002184722181396274 -0.001172404466434555 
0.002960911707331945 -0.002184722181396274 -0.001172404466434555 
-0.0008319591164095753 0.002360883515332195 -0.001798029206471286 
-0.003992481753078349 -0.01181508894376876 0.01167460955896680 
0.002960911707331945 -0.002184722181396274 -0.001172404466434555 
0.002960911707331945 -0.002184722181396274 -0.001172404466434555 
0.007198109235554695 -0.005562191371461141 -0.004093390926374234 
0.002960911707331945 -0.002184722181396274 -0.001172404466434555 
0.002960911707331945 -0.002184722181396274 -0.001172404466434555 
0.001488946914073088 -0.001027559593734174 -0.0001298391947735788 
0.001385940371365286 -0.001027404784451063 -0.0001297430506845945 
0.001385940371365286 -0.001027404784451063 -0.0001297430506845945 
0.005083578671853206 -0.004653182031369263 -0.0009262119743211731 
0.001385940371365286 -0.001027404784451063 -0.0001297430506845945 
0.001385940371365286 -0.001027404784451063 -0.0001297430506845945 
0.001385940371365286 -0.001027404784451063 -0.0001297430506845945 
0.001385940371365286 -0.001027404784451063 -0.0001297430506845945 
0.001385940371365286 -0.001027404784451063 -0.0001297430506845945 
0.001385940371365286 -0.001027404784451063 -0.0001297430506845945 
0.001385940371365286 -0.001027404784451063 -0.0001297430506845945 
-0.005730951341273540 0.001589964978496365 0.003035928309273477 
0.007449891602950845 -0.005451466183100115 -0.001843730475167146 
0.001385940371365286 -0.001027404784451063 -0.0001297430506845945 
0.004234449890438347 -0.0007643656671842008 -0.006013607003080755 
0.02287195267718258 -0.01768265485742281 -0.01466733926758680 
0.02735037476137037 -0.02740519694947504 -0.01651157821900638 
0.01340900542322562 -0.01024443693768141 -0.004743719282265099 
0.001385940371365286 -0.001027404784451063 -0.0001297430506845945 
-0.01877858859972820 0.02177499042266195 -0.004413571498852184 
0.001385940371365286 -0.001027404784451063 -0.0001297430506845945 
0.001385940371365286 -0.001027404784451063 -0.0001297430506845945 
0.001385940371365286 -0.001027404784451063 -0.0001297430506845945 
-0.0009349267116916585 0.002003442418286081 -0.001674408625976300 
0.02587991455763030 -0.01578269541445908 -0.01817800042282523 
0.001385940371365286 -0.001027404784451063 -0.0001297430506845945 
0.001385940371365286 -0.001027404784451063 -0.0001297430506845945 
0.001385940371365286 -0.001027404784451063 -0.0001297430506845945 
0.001385940371365286 -0.001027404784451063 -0.0001297430506845945 
0.001385940371365286 -0.001027404784451063 -0.0001297430506845945 
0.001385940371365286 -0.001027404784451063 -0.0001297430506845945 
0.001385940371365286 -0.001027404784451063 -0.0001297430506845945 
0.001385940371365286 -0.001027404784451063 -0.0001297430506845945 
0.001385940371365286 -0.001027404784451063 -0.0001297430506845945 
0.001385940371365286 -0.001027404784451063 -0.0001297430506845945 
0.001385940371365286 -0.001027404784451063 -0.0001297430506845945 
0.001385940371365286 -0.001027404784451063 -0.0001297430506845945 
0.001385940371365286 -0.001027404784451063 -0.0001297430506845945 
0.0007483759510077825 -0.0006877214135140867 5.992711749303418e-07 
-0.001881511812789521 0.008861964214021520 -0.01146299110821765 
0.007957113347683922 -0.005978504738302786 -0.005887762992504901 
0.03848752207677062 -0.02230410235675421 -0.04250641683560179 
0.0007483759510077825 -0.0006877214135140867 5.992711749303418e-07 
-0.03170009111085102 0.01054283735605053 0.01596851131504331 
0.0007483759510077825 -0.0006877214135140867 5.992711749303418e-07 
0.0007483759510077825 -0.0006877214135140867 5.992711749303418e-07 
0.0007483759510077825 -0.0006877214135140867 5.992711749303418e-07 
0.0007483759510077825 -0.0006877214135140867 5.992711749303418e-07 
0.003348314787133496 -0.003579750143393309 -1.287362106485253e-06 
0.003595883395527421 -0.002658150132240080 -0.001607598685854226 
0.0007483759510077825 -0.0006877214135140867 5.992711749303418e-07 
0.005426121180317609 -0.005069791793932550 -1.404531899493108e-07 
0.0007483759510077825 -0.0006877214135140867 5.992711749303418e-07 
0.01425695990540501 -0.01032052645556290 -0.008174269495989135 
0.0007483759510077825 -0.0006877214135140867 5.992711749303418e-07 
0.001738684746112969 0.0006728811272545632 -0.004264705646663412 
-0.0001907171414067520 0.003353941707095310 -0.006243903319701032 
0.0007483759510077825 -0.0006877214135140867 5.992711749303418e-07 
0.0007483759510077825 -0.0006877214135140867 5.992711749303418e-07 
0.0007483759510077825 -0.0006877214135140867 5.992711749303418e-07 
0.0007483759510077825 -0.0006877214135140867 5.992711749303418e-07 
0.0007483759510077825 -0.0006877214135140867 5.992711749303418e-07 
-0.0006017596643388478 0.002171928114171651 -0.002014368140612580 
0.0007483759510077825 -0.0006877214135140867 5.992711749303418e-07 
0.0007483759510077825 -0.0006877214135140867 5.992711749303418e-07 
0.0007483759510077825 -0.0006877214135140867 5.992711749303418e-07 
0.02445946991967284 -0.01664513956749853 -0.01513498546833064 
0.0007483759510077825 -0.0006877214135140867 5.992711749303418e-07 
0.0007483759510077825 -0.0006877214135140867 5.992711749303418e-07 
0.0007483759510077825 -0.0006877214135140867 5.992711749303418e-07 
0.0007483759510077825 -0.0006877214135140867 5.992711749303418e-07 
0.0007483759510077825 -0.0006877214135140867 5.992711749303418e-07 
0.008078487787538027 -0.009407609575682464 -0.001894074456529214 
0.01134702827595423 -0.009631185877462760 -0.004595015112705981 
0.0007483759510077825 -0.0006877214135140867 5.992711749303418e-07 
0.0007483759510077825 -0.0006877214135140867 5.992711749303418e-07 
0.0007483759510077825 -0.0006877214135140867 5.992711749303418e-07 
0.0007483759510077825 -0.0006877214135140867 5.992711749303418e-07 
-0.009733832542085503 0.01016320087030800 -0.0002549775467111264 
0.004784545708232868 -0.004350062112504865 3.910967144329539e-06 
0.0007483759510077825 -0.0006877214135140867 5.992711749303418e-07 
0.0007483759510077825 -0.0006877214135140867 5.992711749303418e-07 
0.0007483759510077825 -0.0006877214135140867 5.992711749303418e-07 
0.0007483759510077825 -0.0006877214135140867 5.992711749303418e-07 
0.0007483759510077825 -0.0006877214135140867 5.992711749303418e-07 
0.003464017181869434 -0.002928227617363768 -0.0006704958363036284 
0.0007483759510077825 -0.0006877214135140867 5.992711749303418e-07 
0.006586470028974258 -0.004883965214307892 -0.002056518704453119 
0.0007483759510077825 -0.0006877214135140867 5.992711749303418e-07 
0.0007483759510077825 -0.0006877214135140867 5.992711749303418e-07 
0.0007483759510077825 -0.0006877214135140867 5.992711749303418e-07 
0.004113613637599148 -0.004078678781709154 -0.0005424463320220165 
0.0007483759510077825 -0.0006877214135140867 5.992711749303418e-07 
0.0007483759510077825 -0.0006877214135140867 5.992711749303418e-07 
0.0007483759510077825 -0.0006877214135140867 5.992711749303418e-07 
0.002696028775434291 5.871857045372561e-05 -0.007632695133816037 
0.0007483759510077825 -0.0006877214135140867 5.992711749303418e-07 
0.0007483759510077825 -0.0006877214135140867 5.992711749303418e-07 
-0.01436521809654108 0.01633802958968884 -0.003672956727076676 
0.002216379536998349 -0.001657074599153541 3.980643482322415e-07 
0.0007483759510077825 -0.0006877214135140867 5.992711749303418e-07 
0.01122736024098868 -0.01800735985589111 0.004589716818265015 
0.0007483759510077825 -0.0006877214135140867 5.992711749303418e-07 
0.0007483759510077825 -0.0006877214135140867 5.992711749303418e-07 
0.002626067539693485 -0.002042374239994963 -0.0007351460370979802 
0.0007483759510077825 -0.0006877214135140867 5.992711749303418e-07 
0.0007483759510077825 -0.0006877214135140867 5.992711749303418e-07 
0.0007483759510077825 -0.0006877214135140867 5.992711749303418e-07 
0.0008353451896390137 -0.01232379210234170 0.005621894477463054 
0.008374377853763684 -0.006087854869018807 -0.003626751237002666 
0.0007483759510077825 -0.0006877214135140867 5.992711749303418e-07 
0.0007483759510077825 -0.0006877214135140867 5.992711749303418e-07 
0.004452488195280663 -0.002533101251880361 -0.001138481189576719 
0.0007483759510077825 -0.0006877214135140867 5.992711749303418e-07 
-0.003735653870826410 0.004962967836029466 -0.0004557984909479716 
0.0007483759510077825 -0.0006877214135140867 5.992711749303418e-07 
0.02670235500449269 -0.01714436703623441 -0.02012765404825885 
0.001691238493255490 -0.0005731030358649353 -0.001907082515757065 
0.01553672061494845 -0.01001704394411841 -0.01156754492317154 
0.001834623680821291 -0.01076800887918880 0.004553000641057871 
0.006955058848504731 -0.004489979839355032 -0.005898812376175874 
0.001691238493255490 -0.0005731030358649353 -0.001907082515757065 
0.001691238493255490 -0.0005731030358649353 -0.001907082515757065 
0.001691238493255490 -0.0005731030358649353 -0.001907082515757065 
0.001691238493255490 -0.0005731030358649353 -0.001907082515757065 
0.001691238493255490 -0.0005731030358649353 -0.001907082515757065 
0.02254788351169869 -0.01270127170362117 -0.01487364327936836 
0.001691238493255490 -0.0005731030358649353 -0.001907082515757065 
-0.01473139065281076 0.02380603050252780 -0.01070234511289156 
0.001691238493255490 -0.0005731030358649353 -0.001907082515757065 
0.004125949196095902 0.002323534642419393 -0.01239329891183857 
0.001928036974286220 -0.0005732533102564178 -0.002192379411579091 
0.001691238493255490 -0.0005731030358649353 -0.001907082515757065 
0.001691238493255490 -0.0005731030358649353 -0.001907082515757065 
-0.003227633277874083 0.007921471966767605 -0.007710245148714485 
0.001691238493255490 -0.0005731030358649353 -0.001907082515757065 
0.001691238493255490 -0.0005731030358649353 -0.001907082515757065 
-0.01865684839407965 -0.01166740021265231 0.02681054855089539 
-0.04316050602004062 -0.008079506819167949 0.04060563820845434 
0.004908645236748882 -0.002313953669321823 -0.003127047194847828 
0.001691238493255490 -0.0005731030358649353 -0.001907082515757065 
0.001691238493255490 -0.0005731030358649353 -0.001907082515757065 
0.02196711562037746 -0.008351758479311340 -0.01820662900110670 
0.004908645236748882 -0.002313953669321823 -0.003127047194847828 
-0.02171528594463274 -0.01650747796544796 0.03243650240490749 
-0.004683356711556036 0.006934770005021352 -0.003214620591455656 
0.001691238493255490 -0.0005731030358649353 -0.001907082515757065 
0.004695929095753186 -0.002473043369573884 -0.005573053209499691 
0.001691238493255490 -0.0005731030358649353 -0.001907082515757065 
0.001691238493255490 -0.0005731030358649353 -0.001907082515757065 
0.001691238493255490 -0.0005731030358649353 -0.001907082515757065 
0.009557189646900546 -0.009068212059517272 -0.003755511199835392 
0.005052319057172100 -0.006116127626614006 -0.005123746786105090 
0.001691238493255490 -0.0005731030358649353 -0.001907082515757065 
0.01654455314156716 -0.007344183558599731 -0.01110505241489956 
0.006256569659491589 -0.003251726558822598 -0.005751167859263918 
0.005018668069853327 -0.002206822761898173 -0.004778690221715812 
0.003500574869637127 -0.001662145794677243 -0.003629745633109695 
0.004651280433971299 -0.003176980603880137 -0.001900931160586933 
0.01511453786215097 -0.01627009882771694 -0.004558101689985911 
0.009564904586105770 -0.003817560521161955 -0.01510443196338013 
0.001691238493255490 -0.0005731030358649353 -0.001907082515757065 
0.01491675296761010 -0.004645091964923448 -0.02302849874693131 
0.0004282401265958791 -0.001041418165411483 -0.0002898951083917054 
0.0004282401265958791 -0.001041418165411483 -0.0002898951083917054 
0.0009340583171588014 -0.001430285259486336 -0.0002898095614809374 
0.0004857681745313739 -0.001041204445650733 -0.0002895509895797941 
0.0004282401265958791 -0.001041418165411483 -0.0002898951083917054 
0.0004282401265958791 -0.001041418165411483 -0.0002898951083917054 
0.0004282401265958791 -0.001041418165411483 -0.0002898951083917054 
0.004652433753515719 -0.004125311625965102 -0.002462777803851685 
0.03261347561638366 -0.04265361393365321 -0.005681588168808750 
0.0004282401265958791 -0.001041418165411483 -0.0002898951083917054 
0.02481467939505652 -0.01915299262581594 -0.01688810608818208 
0.01926181308135239 -0.008143096150396305 -0.01976159404886529 
0.0007598144143457324 -0.004044060601965194 -0.01170543715045310 
0.01653055417182461 -0.004491878613132334 -0.01768738146728457 
-0.007615446843818561 0.01671989917394014 -0.01326012109465024 
-0.004075764656471257 -0.006714939595255124 0.005409788841161669 
0.008230848545376448 -0.01130493187456525 -0.0006025521260947193 
0.02186210457767657 -0.01307805238376585 -0.01492386466582989 
0.008065088672916275 -0.001198277196602808 -0.01018157450009214 
0.001118286722922131 -0.005817173397714037 0.004468614313706520 
0.0004282401265958791 -0.001041418165411483 -0.0002898951083917054 
0.0004282401265958791 -0.001041418165411483 -0.0002898951083917054 
0.01502806193568416 -0.009476509854577111 -0.01078325751859370 
-0.008886816061592272 -0.005043731540992587 0.01241428071769563 
0.001809336376381637 -0.001089042758812308 -0.001722663117352630 
0.005058397184774050 -0.002209693423490487 -0.008224496591969393 
0.002902378282672751 -0.001937872879754688 -0.002006240369493858 
0.001809336376381637 -0.001089042758812308 -0.001722663117352630 
0.001809336376381637 -0.001089042758812308 -0.001722663117352630 
0.001809336376381637 -0.001089042758812308 -0.001722663117352630 
0.001809336376381637 -0.001089042758812308 -0.001722663117352630 
0.004660402427364064 -0.003343069084251295 -0.004101740002690609 
0.001809336376381637 -0.001089042758812308 -0.001722663117352630 
0.001809336376381637 -0.001089042758812308 -0.001722663117352630 
0.001809336376381637 -0.001089042758812308 -0.001722663117352630 
