solver_type L2R_L2LOSS_SVC
nr_class 3
label 0 1 2
nr_feature 20675
bias 1.000000000000000
w
0.004771714022784015 -0.001103395558793579 -0.002769874845798549 
-0.002263693603034647 0.006379023961955744 -0.003119761703085130 
2.337089159716114e-07 -0.0003716793893438368 3.275834650173227e-06 
-0.003441505642091099 0.008647373819585705 -0.005908638268895147 
2.337089159716114e-07 -0.0003716793893438368 3.275834650173227e-06 
0.02219113636267452 -0.0009684083906372540 -0.02931707244072907 
0.003081263236882067 0.01069437693717387 -0.01548321750263677 
0.1373650126501568 -0.1101954322068082 -0.1581111954003222 
2.337089159716114e-07 -0.0003716793893438368 3.275834650173227e-06 
2.337089159716114e-07 -0.0003716793893438368 3.275834650173227e-06 
2.337089159716114e-07 -0.0003716793893438368 3.275834650173227e-06 
2.337089159716114e-07 -0.0003716793893438368 3.275834650173227e-06 
1.298835629951424e-06 -0.0003691298362109970 -0.002082012817859324 
0.009731801320220279 -0.007740422407513328 -0.004378657348063561 
-0.09999727423512190 0.1565070256692653 -0.06718957144138486 
2.337089159716114e-07 -0.0003716793893438368 3.275834650173227e-06 
2.337089159716114e-07 -0.0003716793893438368 3.275834650173227e-06 
0.07824137250982391 -0.008320202231825691 -0.08619300329108771 
2.337089159716114e-07 -0.0003716793893438368 3.275834650173227e-06 
-0.04164653947619294 0.01277948282075124 0.02325587378006824 
2.337089159716114e-07 -0.0003716793893438368 3.275834650173227e-06 
0.3320355234221194 -0.1849702816762950 -0.2166027724862383 
2.337089159716114e-07 -0.0003716793893438368 3.275834650173227e-06 
0.06303330249480774 -0.05290266603513164 -0.01542026863967062 
0.02020110766665396 0.02212614786689102 -0.05436706405031162 
0.02667696401560223 -0.01826433980857823 -0.01489267414284861 
0.01101832870778706 -0.007726317990659462 -0.01006358611286279 
2.337089159716114e-07 -0.0003716793893438368 3.275834650173227e-06 
0.006194888048574940 -0.002874441546996799 -0.004982520252239812 
2.337089159716114e-07 -0.0003716793893438368 3.275834650173227e-06 
2.337089159716114e-07 -0.0003716793893438368 3.275834650173227e-06 
2.337089159716114e-07 -0.0003716793893438368 3.275834650173227e-06 
0.06094749355392820 -0.02608456839444288 -0.06146597816185475 
0.004059447916932343 0.004326017869293752 -0.008074291532982558 
0.03182399644522607 -0.04036770112497008 -0.01153660609182971 
2.337089159716114e-07 -0.0003716793893438368 3.275834650173227e-06 
2.337089159716114e-07 -0.0003716793893438368 3.275834650173227e-06 
0.03082660757257557 -0.02372915023735530 -0.01099194485041644 
0.02702471113420767 -0.02588952675411405 -0.001360188858522303 
2.337089159716114e-07 -0.0003716793893438368 3.275834650173227e-06 
-0.006634964932663171 0.006916400772254468 -0.0004837575994640732 
2.337089159716114e-07 -0.0003716793893438368 3.275834650173227e-06 
2.337089159716114e-07 -0.0003716793893438368 3.275834650173227e-06 
-0.01119610849738309 -7.579899254433922e-05 0.009521825256027319 
0.09679347697432329 -0.05726891711089511 -0.05213568911704875 
0.05086692043093114 -0.03573100756481866 -0.02410288634235359 
-0.007863799357886897 0.005240718955367488 -0.0006311127824280868 
-0.005226461895537771 -0.01020785836076187 0.01375577621576467 
-0.009720971080824077 0.008949855197486204 -0.02964250930721863 
2.337089159716114e-07 -0.0003716793893438368 3.275834650173227e-06 
0.05657844097069428 -0.01946069158707221 -0.04825111428410686 
0.08504335725743693 -0.03678116368979093 -0.08738883561226136 
2.337089159716114e-07 -0.0003716793893438368 3.275834650173227e-06 
2.337089159716114e-07 -0.0003716793893438368 3.275834650173227e-06 
2.337089159716114e-07 -0.0003716793893438368 3.275834650173227e-06 
2.337089159716114e-07 -0.0003716793893438368 3.275834650173227e-06 
2.337089159716114e-07 -0.0003716793893438368 3.275834650173227e-06 
2.337089159716114e-07 -0.0003716793893438368 3.275834650173227e-06 
2.337089159716114e-07 -0.0003716793893438368 3.275834650173227e-06 
0.002426383265691319 -0.001120747627590645 -0.001652140715261012 
0.004511427621639570 -0.0007515253479593492 -0.01142350952511113 
2.337089159716114e-07 -0.0003716793893438368 3.275834650173227e-06 
2.337089159716114e-07 -0.0003716793893438368 3.275834650173227e-06 
2.337089159716114e-07 -0.0003716793893438368 3.275834650173227e-06 
2.337089159716114e-07 -0.0003716793893438368 3.275834650173227e-06 
2.337089159716114e-07 -0.0003716793893438368 3.275834650173227e-06 
-0.06528238705561946 0.05203247099142861 0.009921291648896652 
-0.004619098892876823 -0.005157099453901684 0.002791873317524463 
2.337089159716114e-07 -0.0003716793893438368 3.275834650173227e-06 
2.337089159716114e-07 -0.0003716793893438368 3.275834650173227e-06 
0.03591124067669566 -0.03029525286503454 -0.01473075748900692 
2.337089159716114e-07 -0.0003716793893438368 3.275834650173227e-06 
0.002690747547946077 -0.002319030225359045 -0.001074774925002988 
2.337089159716114e-07 -0.0003716793893438368 3.275834650173227e-06 
2.337089159716114e-07 -0.0003716793893438368 3.275834650173227e-06 
2.337089159716114e-07 -0.0003716793893438368 3.275834650173227e-06 
0.01362571128941811 -0.01576413504620368 -0.006088726266909796 
2.337089159716114e-07 -0.0003716793893438368 3.275834650173227e-06 
-0.01203554860524753 -0.006021008181099454 0.01501759087673925 
2.337089159716114e-07 -0.0003716793893438368 3.275834650173227e-06 
0.008062643222678129 -0.005950017837889711 -0.001781360765438745 
2.337089159716114e-07 -0.0003716793893438368 3.275834650173227e-06 
-0.0004318394474470080 -0.009650233312372209 0.007981133070482335 
2.337089159716114e-07 -0.0003716793893438368 3.275834650173227e-06 
-0.005247887232980098 0.004843165305637458 -0.0007148816974751909 
-0.009237731573366870 -0.007336460613939506 0.01471596856101619 
2.337089159716114e-07 -0.0003716793893438368 3.275834650173227e-06 
2.337089159716114e-07 -0.0003716793893438368 3.275834650173227e-06 
2.337089159716114e-07 -0.0003716793893438368 3.275834650173227e-06 
-0.001146006599868892 0.004989934542027883 -0.003706422167153842 
0.02730994898656802 -0.01963707330044402 -0.01309232921837230 
2.337089159716114e-07 -0.0003716793893438368 3.275834650173227e-06 
0.005349057143554209 -0.001888475728277836 -0.004274462909860608 
2.337089159716114e-07 -0.0003716793893438368 3.275834650173227e-06 
0.01307055524194212 -0.004225731292783775 -0.008485001595339355 
2.337089159716114e-07 -0.0003716793893438368 3.275834650173227e-06 
2.337089159716114e-07 -0.0003716793893438368 3.275834650173227e-06 
-0.04656987857345320 0.04436419685436795 0.004469867696947331 
2.337089159716114e-07 -0.0003716793893438368 3.275834650173227e-06 
2.337089159716114e-07 -0.0003716793893438368 3.275834650173227e-06 
0.04880313647868353 -0.03838026129971540 -0.01901439283904217 
2.337089159716114e-07 -0.0003716793893438368 3.275834650173227e-06 
2.337089159716114e-07 -0.0003716793893438368 3.275834650173227e-06 
2.337089159716114e-07 -0.0003716793893438368 3.275834650173227e-06 
2.337089159716114e-07 -0.0003716793893438368 3.275834650173227e-06 
0.01242894268037317 -0.01013843763903397 -0.004850080362371835 
0.002607021384812446 0.002376781752844203 -0.003523116914168496 
2.337089159716114e-07 -0.0003716793893438368 3.275834650173227e-06 
2.337089159716114e-07 -0.0003716793893438368 3.275834650173227e-06 
2.337089159716114e-07 -0.0003716793893438368 3.275834650173227e-06 
0.006904565617742520 -0.001117521101515272 -0.005629865720114818 
0.01865500067356351 -0.01311404564569444 -0.004437386119144302 
2.337089159716114e-07 -0.0003716793893438368 3.275834650173227e-06 
0.02097200842143881 -0.01590061405497290 -0.008783707937782959 
2.337089159716114e-07 -0.0003716793893438368 3.275834650173227e-06 
2.337089159716114e-07 -0.0003716793893438368 3.275834650173227e-06 
2.337089159716114e-07 -0.0003716793893438368 3.275834650173227e-06 
0.08581101316752715 -0.06037583351625337 -0.04868888483537288 
2.337089159716114e-07 -0.0003716793893438368 3.275834650173227e-06 
2.337089159716114e-07 -0.0003716793893438368 3.275834650173227e-06 
2.337089159716114e-07 -0.0003716793893438368 3.275834650173227e-06 
2.337089159716114e-07 -0.0003716793893438368 3.275834650173227e-06 
2.337089159716114e-07 -0.0003716793893438368 3.275834650173227e-06 
2.337089159716114e-07 -0.0003716793893438368 3.275834650173227e-06 
0.009853961523456694 -0.007804524620945707 -0.002346421104983415 
2.337089159716114e-07 -0.0003716793893438368 3.275834650173227e-06 
2.337089159716114e-07 -0.0003716793893438368 3.275834650173227e-06 
2.337089159716114e-07 -0.0003716793893438368 3.275834650173227e-06 
0.02008530956536540 -0.01537530792282172 -0.003763687871596263 
2.337089159716114e-07 -0.0003716793893438368 3.275834650173227e-06 
2.337089159716114e-07 -0.0003716793893438368 3.275834650173227e-06 
2.337089159716114e-07 -0.0003716793893438368 3.275834650173227e-06 
2.337089159716114e-07 -0.0003716793893438368 3.275834650173227e-06 
0.002945781448454338 -0.001095321849831336 -0.001551177123497375 
2.337089159716114e-07 -0.0003716793893438368 3.275834650173227e-06 
2.337089159716114e-07 -0.0003716793893438368 3.275834650173227e-06 
2.337089159716114e-07 -0.0003716793893438368 3.275834650173227e-06 
2.337089159716114e-07 -0.0003716793893438368 3.275834650173227e-06 
2.337089159716114e-07 -0.0003716793893438368 3.275834650173227e-06 
2.337089159716114e-07 -0.0003716793893438368 3.275834650173227e-06 
-0.01284201745056834 0.01255037585895189 0.002557823128529981 
-0.003437959459392999 0.003153118597037668 1.147424239327849e-05 
2.337089159716114e-07 -0.0003716793893438368 3.275834650173227e-06 
2.337089159716114e-07 -0.0003716793893438368 3.275834650173227e-06 
2.337089159716114e-07 -0.0003716793893438368 3.275834650173227e-06 
-0.02932451016129507 0.02562832218956247 0.004558522637431874 
2.337089159716114e-07 -0.0003716793893438368 3.275834650173227e-06 
2.337089159716114e-07 -0.0003716793893438368 3.275834650173227e-06 
2.337089159716114e-07 -0.0003716793893438368 3.275834650173227e-06 
-0.06820021777264403 0.07205947995349020 -0.04070670361999780 
2.337089159716114e-07 -0.0003716793893438368 3.275834650173227e-06 
0.008992809290521118 -0.02258799362928229 0.01419096853284658 
0.01402725314869428 -0.01029311738477814 -0.006618884485035697 
0.01402725314869428 -0.01029311738477814 -0.006618884485035697 
0.02369908652616565 -0.01561636586529527 -0.008606101936248370 
0.02689340689001011 -0.01345346366395728 -0.02469416737468263 
-0.007137273347769224 0.01104468649417525 -0.005176053968310620 
0.01402725314869428 -0.01029311738477814 -0.006618884485035697 
0.04575165089954882 -0.005323209891101097 -0.05367716058173744 
0.006555188477002497 0.01234220240052956 -0.02448349137249722 
0.03386130620936662 -0.01939799766107928 -0.01893726239145226 
0.01402725314869428 -0.01029311738477814 -0.006618884485035697 
0.005849328351249136 -0.001284758306512594 -0.007447935355789743 
0.02461270244914070 -0.01140732178386634 -0.02551974521579702 
0.01402725314869428 -0.01029311738477814 -0.006618884485035697 
0.01769380720506652 -0.007453897246312335 -0.01243702853619362 
0.02990820715569731 -0.02383390834316717 -0.01229996901753990 
-0.01520831410316111 -0.0009799411294316386 0.01220295498204341 
0.01998627083118658 -0.02155472576090689 0.002078309415037348 
0.02249268121476937 -0.01102521242449911 -0.01688342367025751 
-0.03323310832049239 0.04203891960408302 -0.03077142816211684 
-0.04323417599740250 0.01568981287011207 -0.01386076149183686 
-0.003368075820447178 0.02880602159027269 -0.05050954719052062 
0.1459565226838745 -0.1078924132761056 -0.07189489271522596 
0.01541904938099105 -0.002441786006933869 -0.01313350701663174 
0.02660768596178915 -0.02506563163047400 -0.005659956429547983 
0.01383588332927542 -0.01312061066380786 -0.005630024277454983 
-0.002516012542086726 -0.001480868869476253 -0.01001441388395201 
0.02486364765932504 -0.02555899571678428 -0.006488830322792250 
0.02275368831340969 -0.01131650552113611 -0.02682017531597408 
0.01241789303276817 -0.01335057504125235 -0.001376578656726801 
-0.01920558910418234 0.009332605364688856 0.006182715715321170 
0.03256284202953279 -0.02257834281708776 -0.01156399138375626 
0.04104344681799470 -0.02730462008364331 -0.03342170290903544 
0.01202811693872692 -0.01546150287503093 -0.0008072451290906318 
-0.009291342671386054 -0.008140462243857330 0.005205076962577988 
0.01402725314869428 -0.01029311738477814 -0.006618884485035697 
0.01402725314869428 -0.01029311738477814 -0.006618884485035697 
0.008604537448008985 -0.006529439183801960 -0.003781958973919297 
0.008944602480331900 -0.005818775101267867 -0.005293382514756991 
0.01740574299540610 -0.01480697522179194 0.001125736386514067 
0.02939490843302618 -0.01346963420127256 -0.01469697856954897 
-0.003599762515898838 -0.01651298723759165 0.01116332675176768 
0.009277705383209360 -0.001646802501668889 -0.009561582495986182 
0.01608175053105079 1.366283875418782e-08 -0.01717333091207073 
-0.002292279569493228 0.01486337749435096 -0.01391254860266102 
-0.008989159189951130 -0.006881381512356582 0.01630137187872871 
0.004785538570754909 -2.039052027037335e-07 -0.004163294865180371 
0.004785538570754909 -2.039052027037335e-07 -0.004163294865180371 
0.004785538570754909 -2.039052027037335e-07 -0.004163294865180371 
0.01608225240097346 -0.0007350279704027068 -0.01710620251463773 
0.004785538570754909 -2.039052027037335e-07 -0.004163294865180371 
0.01608175053105079 1.366283875418782e-08 -0.01717333091207073 
-0.009348981328696845 0.01604617063598726 -0.01753351695435931 
-0.004376521815263659 -0.01043437657244156 0.01587417641438382 
0.03297387619513909 -0.006486583300545278 -0.04053999196952577 
-0.004375886540575460 -0.003835538864800122 0.009076690221770973 
0.02769957109409139 -0.005838437811720576 -0.02633549619365928 
0.01608175053105079 1.366283875418782e-08 -0.01717333091207073 
0.02377382415873732 -0.002319058169144659 -0.02597685778069611 
0.04169043306385618 -0.007100141281196576 -0.04721383704023530 
-0.006345873918015502 0.04480878312766255 -0.04210254041250715 
0.06944615026436882 -0.02860271667985367 -0.04489017674574248 
0.03176791507399676 -0.02333944490974557 -0.007295889087782535 
0.01700509559317058 -0.008448682531860199 -0.01342393391326349 
0.03311461169249878 -1.485811967357029e-07 -0.03339430263012990 
0.05984470894258338 -0.02246262322478882 -0.05687230133413101 
-0.009098011962228555 -0.0009105511934798739 0.009103943854459126 
-0.06924819618309704 0.06749250387915343 -0.006793603568273993 
-0.04054237874879008 0.007251413250196871 0.02684916849865687 
-0.006698360196416920 -0.01034753409843909 0.01909423250861160 
-0.05575224652376320 0.06596184741651558 -0.02631947996979447 
-0.002047461303057808 0.01549702924905630 -0.01336615637663614 
0.01608175053105079 1.366283875418782e-08 -0.01717333091207073 
0.02070039877924440 0.004370301341824205 -0.02468194958762607 
0.02395318658116840 -0.003835483540794154 -0.02015431754317856 
0.009279537817399736 -0.0008075379490228619 -0.009551130230906646 
0.0009884821443265626 -0.002064792418702083 -0.009715958063343898 
0.01885773705480329 0.008302997349729144 -0.02945614890190113 
-0.004375886540575460 -0.003835538864800122 0.009076690221770973 
0.004295078997362076 -0.01823259150420635 0.01131823726846752 
-0.001954396539996376 -0.004306309417424440 0.008399070593346786 
0.01019103294619245 -0.002037610128066346 -0.003111966400770924 
-0.02765674643594749 -0.03247212958002611 0.05445019049091989 
0.02565333119093514 -0.007219896245450164 -0.02087494632314164 
0.01265697462087254 -0.003835701108835612 -0.007144281496288200 
-0.02544824392065875 -0.03537646826341335 0.03791775826894808 
-0.009024912839933903 0.008331072145390849 -0.004035858746929370 
-0.004375886540575460 -0.003835538864800122 0.009076690221770973 
-0.01856524127742395 -0.06452333783769311 0.06302432467658527 
0.001539479320804917 -0.005022746439304795 0.006830382157892385 
0.0001664932561883190 -0.005234275152948472 0.003452233724466248 
0.0002424532132890609 -0.02077876721962491 0.01762333611865325 
-0.004375886540575460 -0.003835538864800122 0.009076690221770973 
0.0005978936237272778 0.004044645465137131 0.0005114923430639565 
-0.003380723167412030 -0.003835761902401866 0.008866632885245340 
-0.01778811683849419 0.006512731352476853 0.01451926085093829 
0.004785538570754909 -2.039052027037335e-07 -0.004163294865180371 
0.001193663934255582 0.001340638845812367 -0.0008325709568962211 
0.004688646420815237 0.01731921745854294 -0.02848918307978579 
-0.04741270184600604 0.03657294167625639 0.01323405968432733 
-0.002378258368301272 -0.007680769043372246 0.002989459068439772 
0.02007350990015038 -0.01322826970383962 -0.01330424870705581 
-0.05082164647909560 -0.05563863539223637 0.09033137985985618 
0.002957783046966100 0.0003191111113670667 -0.006805997489166542 
-0.01066379453172356 -0.01294812151074989 0.02351785284318281 
-0.07992698626370841 -0.05600841932547743 0.1129118021307376 
-0.03855329946081013 0.05061307534745427 -0.008883959430787120 
0.01449893241503429 0.004555581878208844 -0.02038553329434515 
0.0002724275179650671 -0.007302357829347016 0.006844115168007649 
-0.004375886540575460 -0.003835538864800122 0.009076690221770973 
-0.009867924097862435 0.01374522998180929 -0.002426000373092641 
-0.01524542723016432 -0.004152991647549762 0.02114117325075719 
-0.0001924536793080403 0.001365530423310602 -5.274635029031364e-05 
-0.09275956998478131 -0.01539532536994640 0.09856288935113842 
-0.03326064764656940 0.02308921358922824 0.01530666848308754 
-0.0006819387883684137 -0.003835917735071352 0.001585301716997885 
0.08816554595237208 -0.05014216355619030 -0.04138436542778921 
-0.01491514069810713 0.01558609474575235 0.003838297563014550 
-0.006583662408127831 0.002176101714421123 0.002852079821132128 
-0.001364706293623413 -0.002798782886995083 0.009774741390459531 
0.01619096510245103 -0.02191828016308401 -0.001148274167381146 
-0.01309955673657315 0.01152273914492038 -0.001089051815795204 
-0.004375886540575460 -0.003835538864800122 0.009076690221770973 
0.006908675910683495 -0.007914874067845861 -0.002116301755258441 
-0.004375886540575460 -0.003835538864800122 0.009076690221770973 
-0.005955729503846312 0.009040492971042563 -0.009542993884012842 
0.06466289226088966 -0.06936384482263534 -0.01607668990382372 
0.01158491597702698 -0.02133572272751897 0.006088539045674073 
-0.01733532545692415 -0.01024134156704033 0.02310532251185081 
-0.004375149448790174 -0.003835871853098269 0.009089098530147456 
-0.006075085269126982 -0.01739968527695168 0.02071532000476345 
0.001374828673313277 0.01232725128637511 -0.009988887237191003 
-0.001481141882382248 0.003067515419017809 -0.004449404787707346 
-0.004375886540575460 -0.003835538864800122 0.009076690221770973 
0.03116453541098261 -0.04294454414012879 0.006416572017061420 
-0.01562234859814146 0.02962000094880727 -0.008939764980172571 
-0.01036682073006249 0.007834458745584048 0.004472141408584428 
-0.004378453299379527 -0.003836246383217785 0.009055687964960260 
0.08221052144762503 -0.03626582968110380 -0.05590831129211363 
0.02495069849482427 0.004080528933503224 -0.03091935194170942 
0.02131023001847486 -0.04693007868059424 0.02001767739739247 
-0.05704759858487450 0.04355658427440896 0.01345194133902641 
0.004785538570754909 -2.039052027037335e-07 -0.004163294865180371 
-0.02777510968138752 0.01938728928197417 0.005181223675548782 
-0.03061785840210731 -0.03635661534564423 0.04966008228251331 
0.01221355233964617 0.01112739874334529 -0.02668413038286192 
-0.004375886540575460 -0.003835538864800122 0.009076690221770973 
0.003046818518089007 -0.02634144216590163 0.01119287041342923 
-0.003338701769863843 -0.005492781626410089 0.009068437050692643 
-0.004375886540575460 -0.003835538864800122 0.009076690221770973 
-0.02277733426678203 -0.02501703909366109 0.04223003697749248 
-0.003511186899302786 0.003792953435825459 0.009565171326970658 
-0.004375886540575460 -0.003835538864800122 0.009076690221770973 
-0.01126739788765536 -0.01031725325476162 0.02023659927198604 
-0.05951895685790874 0.07407199216765815 -0.02325559672314574 
-0.01282825984946862 -0.02259358601538899 0.03338087998081880 
0.03964913355170456 -0.009906236907984630 -0.03532569520388847 
0.006774070774836716 -0.01447646836417398 0.01079422970999584 
-0.01567209850087133 -0.003835756432841580 0.02208672626866133 
0.005158453915224961 -0.01059486301299770 0.005947516835653526 
-0.07573808097959155 0.06542740679967214 0.007215762850594436 
0.02395378344805644 -0.003835838845172500 -0.02016274401033145 
-0.008902735221257613 0.01787569497186617 -0.01473547472306893 
-0.0001679767572133835 -0.004505192741079985 0.005062319570532452 
-0.01414993207201523 -0.002732603221832647 0.01622489467709989 
-0.006510899380971011 -0.008415471163712197 0.01388551079906953 
-0.02329978941475940 -0.01433785255991159 0.03694064448997639 
0.01213529319793388 -0.01329522122792093 0.002314225271628246 
-0.002621188964920626 -0.004713468573094182 0.009393001060625544 
-0.002033103027621288 -0.005233836610992295 0.008963377422436223 
0.02800590095262896 -0.01725369534560969 -0.01398031059003724 
-0.01471310407519634 -0.03423778876074016 0.04620072468296716 
0.06556879922968382 -0.04749361016026184 -0.02179989706533889 
0.03542523265411744 -0.01834020411094547 -0.03205177522363008 
0.02722183315505603 -0.01760717652445634 -0.02064579952342935 
0.1396932938719420 -0.06843846055818206 -0.09915572662178822 
-0.007353343443688497 0.01073428617916570 0.002237014348897270 
-0.01567209850087133 -0.003835756432841580 0.02208672626866133 
0.004088631504727274 -0.001166008191426931 -0.001369057306188774 
0.002735054602205350 -4.842142407390891e-07 -0.001375087314769363 
0.002735054602205350 -4.842142407390891e-07 -0.001375087314769363 
0.002735054602205350 -4.842142407390891e-07 -0.001375087314769363 
0.002735054602205350 -4.842142407390891e-07 -0.001375087314769363 
0.003027611894689809 -6.180307269552750e-07 -0.001372849195780446 
-0.007128568253629075 0.002074528733594380 -0.0005929620320369896 
0.02854937811555134 -0.009733223979019462 -0.01891500640300240 
0.002735054602205350 -4.842142407390891e-07 -0.001375087314769363 
-0.004275581848695411 -0.01493234132306769 0.02141306728244405 
-0.008674364537494010 0.006128309707266863 0.006216824980810488 
-0.03655163801215427 -0.02032256693339952 0.04131442755677871 
0.002735054602205350 -4.842142407390891e-07 -0.001375087314769363 
0.03426995339802690 -0.02405643901443840 -0.008641092271810778 
0.01673478777073310 -0.005708181258714921 -0.01201708085857666 
0.002735054602205350 -4.842142407390891e-07 -0.001375087314769363 
0.004155713858518246 0.02762878723634260 -0.02321956511397100 
0.06413263131907058 -0.03778909100961420 -0.04660848899346650 
0.002735054602205350 -4.842142407390891e-07 -0.001375087314769363 
0.002735054602205350 -4.842142407390891e-07 -0.001375087314769363 
0.03906753182043988 -0.01221829585281209 -0.01994084208574630 
0.006720349989914840 -0.002058477112395971 -0.003816124773021006 
-0.003991565850215702 0.008520311993626394 -0.006986803005534645 
0.006720349989914840 -0.002058477112395971 -0.003816124773021006 
0.002735054602205350 -4.842142407390891e-07 -0.001375087314769363 
0.01603519187373249 -0.01181720442840754 -0.003477641420992575 
0.007609198117126364 -0.0004177015369483758 -0.007657014193923382 
0.01297788192263889 -0.01614301537501754 0.005951982648899574 
0.002735054602205350 -4.842142407390891e-07 -0.001375087314769363 
-0.008694451348090817 -0.03463497089077645 0.02406570546496398 
0.02665213185531316 -0.01804976647938745 -0.005482466259998569 
0.005485367428370503 -0.002484275578506374 -0.003291613025418299 
0.1112296375666598 -0.06278420956561022 -0.07231175004966045 
-0.09227711895356100 -0.02426259123217138 0.1071346070588453 
0.004077976336323828 0.004827590814377862 -0.01558004173543411 
0.002735054602205350 -4.842142407390891e-07 -0.001375087314769363 
-0.003173324301088511 0.02520048680893065 -0.01859833792895994 
0.002735054602205350 -4.842142407390891e-07 -0.001375087314769363 
0.002735054602205350 -4.842142407390891e-07 -0.001375087314769363 
-0.04257941888927122 0.004246422591805452 0.02661493004633990 
0.002735054602205350 -4.842142407390891e-07 -0.001375087314769363 
0.002735054602205350 -4.842142407390891e-07 -0.001375087314769363 
0.002735054602205350 -4.842142407390891e-07 -0.001375087314769363 
0.002735054602205350 -4.842142407390891e-07 -0.001375087314769363 
0.002735054602205350 -4.842142407390891e-07 -0.001375087314769363 
0.002735054602205350 -4.842142407390891e-07 -0.001375087314769363 
0.002735054602205350 -4.842142407390891e-07 -0.001375087314769363 
0.0009443901808020944 -0.009452195704475792 0.007580366891241866 
0.03173499227426633 -0.02152763874751469 -0.01103230116385909 
-0.03141988367868843 0.004433890219421557 0.03226889484255559 
-0.004621465776755636 0.008748947860236335 -0.002458302808287073 
0.002735054602205350 -4.842142407390891e-07 -0.001375087314769363 
0.003497359182643090 -0.007165733937167402 0.004054788289780821 
-0.06840271040661536 0.04415872257915842 0.002656802121512997 
0.01341131175023476 -0.004544476601118855 -0.007893750034262051 
0.002735054602205350 -4.842142407390891e-07 -0.001375087314769363 
0.002735054602205350 -4.842142407390891e-07 -0.001375087314769363 
0.005784692152950863 0.001567814228008303 -0.01150997716227836 
0.01180290640702134 -0.003577618703832997 -0.008044266881246206 
0.002735054602205350 -4.842142407390891e-07 -0.001375087314769363 
0.006502586554978512 -0.004645224438783323 -0.002473530503840661 
0.002735054602205350 -4.842142407390891e-07 -0.001375087314769363 
0.007912912787765698 -1.411160147750556e-07 -0.007694259478355641 
0.008600469039042860 -0.004467580204631279 -0.003342934956057470 
0.002735054602205350 -4.842142407390891e-07 -0.001375087314769363 
0.002735054602205350 -4.842142407390891e-07 -0.001375087314769363 
0.006345430294816590 -0.01669805487557226 0.008778740853860406 
0.01509902515161148 -0.01321176919062058 -0.004519139611198348 
-0.009463323307411734 0.01058711342984053 -0.001371754954311015 
-0.0002191709307695477 -0.0008088915642012133 0.002381294251750325 
0.006999124785343241 -0.001899233720089195 -0.004134995699611874 
0.006720349989914840 -0.002058477112395971 -0.003816124773021006 
0.002735054602205350 -4.842142407390891e-07 -0.001375087314769363 
0.002735054602205350 -4.842142407390891e-07 -0.001375087314769363 
0.006656819238144067 -0.003328456456187284 -0.001381700900183594 
0.01462172722013368 -0.007820702961929262 -0.007374654604735107 
0.02693067323284559 -0.01749191857645772 -0.01819122017282124 
0.08904845494154455 -0.02448649854095584 -0.08345259229825149 
0.002735054602205350 -4.842142407390891e-07 -0.001375087314769363 
0.002735054602205350 -4.842142407390891e-07 -0.001375087314769363 
-0.01512684597570872 0.01704493176717224 -0.001372278596480812 
-0.03790085529731978 0.02837031902315160 0.01602512913190300 
-0.005429166819223702 -0.06215635485013219 0.05609040179050220 
0.008251772078077759 -0.001695833930136190 -0.005053696036129319 
0.002735054602205350 -4.842142407390891e-07 -0.001375087314769363 
0.002001727061200337 0.008027773441567828 -0.009326890811967577 
0.008351150366920888 -0.002060618947128743 -0.004975844677668616 
0.002735054602205350 -4.842142407390891e-07 -0.001375087314769363 
0.003431767605037576 -0.003167934183989661 5.096952119425619e-06 
0.003431767605037576 -0.003167934183989661 5.096952119425619e-06 
0.003431767605037576 -0.003167934183989661 5.096952119425619e-06 
-0.002169294158105162 0.006250701094420003 -0.003396304898503426 
0.03100002579874613 -0.03265799198085414 -0.002788384226854346 
0.003431767605037576 -0.003167934183989661 5.096952119425619e-06 
0.003431767605037576 -0.003167934183989661 5.096952119425619e-06 
0.003431767605037576 -0.003167934183989661 5.096952119425619e-06 
0.01825183958740364 -0.02307810563319016 -0.003339962491664458 
0.008206004313178318 -0.007615556381978763 -0.002742950529070165 
0.003431767605037576 -0.003167934183989661 5.096952119425619e-06 
0.003431767605037576 -0.003167934183989661 5.096952119425619e-06 
0.003431767605037576 -0.003167934183989661 5.096952119425619e-06 
0.009554344827495887 -0.005648116246042377 -0.004025209706502616 
0.003431767605037576 -0.003167934183989661 5.096952119425619e-06 
0.003431767605037576 -0.003167934183989661 5.096952119425619e-06 
0.003431767605037576 -0.003167934183989661 5.096952119425619e-06 
0.003431767605037576 -0.003167934183989661 5.096952119425619e-06 
0.006005862228954977 -0.009189369017595827 4.480979697486891e-05 
0.006005862228954977 -0.009189369017595827 4.480979697486891e-05 
0.003431767605037576 -0.003167934183989661 5.096952119425619e-06 
0.003431767605037576 -0.003167934183989661 5.096952119425619e-06 
0.05301575317884955 -0.04026849342325042 -0.02527271967035032 
-0.02023215357504191 0.01956165369339308 -0.001072854973604775 
0.003431767605037576 -0.003167934183989661 5.096952119425619e-06 
-0.01434911775035892 -0.02163573699863845 0.03105128411726865 
-0.01831714901917753 0.02162277524035344 -0.003955741540553733 
0.003431767605037576 -0.003167934183989661 5.096952119425619e-06 
0.01077903981248099 -0.005674992141467785 -0.005866232488082076 
0.003431767605037576 -0.003167934183989661 5.096952119425619e-06 
0.003431767605037576 -0.003167934183989661 5.096952119425619e-06 
0.003431767605037576 -0.003167934183989661 5.096952119425619e-06 
0.003431767605037576 -0.003167934183989661 5.096952119425619e-06 
0.003431767605037576 -0.003167934183989661 5.096952119425619e-06 
-0.04737884515628477 0.06221640819041028 -0.01621762339267401 
0.003431767605037576 -0.003167934183989661 5.096952119425619e-06 
0.003431767605037576 -0.003167934183989661 5.096952119425619e-06 
0.003431767605037576 -0.003167934183989661 5.096952119425619e-06 
0.003431767605037576 -0.003167934183989661 5.096952119425619e-06 
0.006005862228954977 -0.009189369017595827 4.480979697486891e-05 
0.001553115531796979 0.004319947381511202 -0.01043583828456191 
0.003431767605037576 -0.003167934183989661 5.096952119425619e-06 
0.003431767605037576 -0.003167934183989661 5.096952119425619e-06 
0.003431767605037576 -0.003167934183989661 5.096952119425619e-06 
0.003431767605037576 -0.003167934183989661 5.096952119425619e-06 
0.003431767605037576 -0.003167934183989661 5.096952119425619e-06 
0.01965232523544764 -0.01849503799168083 -0.01483901258722595 
-0.01983673685529782 0.02735494655561437 -0.01303305813932824 
0.003431767605037576 -0.003167934183989661 5.096952119425619e-06 
0.006005862228954977 -0.009189369017595827 4.480979697486891e-05 
0.003431767605037576 -0.003167934183989661 5.096952119425619e-06 
0.003670059649327600 -0.0003574912198881867 -0.002323181543830388 
0.003431767605037576 -0.003167934183989661 5.096952119425619e-06 
0.003431767605037576 -0.003167934183989661 5.096952119425619e-06 
0.003431033751530799 -0.003167740940358134 1.081092951882351e-05 
0.003431767605037576 -0.003167934183989661 5.096952119425619e-06 
0.003431767605037576 -0.003167934183989661 5.096952119425619e-06 
0.02214464795039077 -0.01011866496067948 -0.01284599511481941 
0.05451655297173799 -0.02915009391423590 -0.04470559066439891 
0.02597375744925224 -0.01989881698841700 -0.007478291338279330 
0.003431767605037576 -0.003167934183989661 5.096952119425619e-06 
0.003431767605037576 -0.003167934183989661 5.096952119425619e-06 
0.003431767605037576 -0.003167934183989661 5.096952119425619e-06 
0.003431767605037576 -0.003167934183989661 5.096952119425619e-06 
0.03908625630668208 -0.005954725056282048 -0.04597818945656240 
0.003431767605037576 -0.003167934183989661 5.096952119425619e-06 
0.003431767605037576 -0.003167934183989661 5.096952119425619e-06 
0.02099136013404024 -0.01941055194354560 -0.008125205558783157 
0.0003251891318667585 -0.002447917743149957 -1.338034129222921e-05 
-0.02831815641291037 0.03632839821006442 -0.008220566331748206 
0.0003251891318667585 -0.002447917743149957 -1.338034129222921e-05 
0.0003251891318667585 -0.002447917743149957 -1.338034129222921e-05 
0.0003251891318667585 -0.002447917743149957 -1.338034129222921e-05 
-0.004929877792718705 0.02210635770040197 -0.01837417798339698 
0.0003251891318667585 -0.002447917743149957 -1.338034129222921e-05 
0.03860103864831926 -0.007303851961365395 -0.05849689831934531 
0.0003251891318667585 -0.002447917743149957 -1.338034129222921e-05 
0.0003251891318667585 -0.002447917743149957 -1.338034129222921e-05 
0.03074674596862555 -0.01016150341551536 -0.02743703779469861 
0.0003251891318667585 -0.002447917743149957 -1.338034129222921e-05 
0.0003251891318667585 -0.002447917743149957 -1.338034129222921e-05 
0.0003251891318667585 -0.002447917743149957 -1.338034129222921e-05 
0.0003251891318667585 -0.002447917743149957 -1.338034129222921e-05 
0.0003251891318667585 -0.002447917743149957 -1.338034129222921e-05 
0.0003251891318667585 -0.002447917743149957 -1.338034129222921e-05 
-0.004796975865586843 0.004124495236826236 -0.008175451631899812 
0.0003251891318667585 -0.002447917743149957 -1.338034129222921e-05 
-0.001216996776808581 0.004949585974314529 -0.005359659320267964 
0.0003251891318667585 -0.002447917743149957 -1.338034129222921e-05 
0.0003251891318667585 -0.002447917743149957 -1.338034129222921e-05 
0.007824791466900510 -0.01777335333645628 0.0005881984605683906 
0.0003251891318667585 -0.002447917743149957 -1.338034129222921e-05 
0.04280082744374845 -0.01058359903268468 -0.03593429049290949 
-0.002728645521504280 0.006147337461713843 -0.007371657782426667 
0.1236737758161545 -0.08052685183478221 -0.07991742149354410 
-0.0007410930311850728 0.001955042502578865 -0.01138285654354076 
0.0003274129526995870 0.02286077859220314 -0.03882877782810811 
0.0003251891318667585 -0.002447917743149957 -1.338034129222921e-05 
0.003888819567866133 0.01878615366290199 -0.04281266310265527 
0.02355428702773040 -0.02571846359332258 -0.002855509293722749 
0.0003251891318667585 -0.002447917743149957 -1.338034129222921e-05 
0.01666213268286893 -0.02115647941555215 -6.730484564795443e-05 
0.0003251891318667585 -0.002447917743149957 -1.338034129222921e-05 
0.0003251891318667585 -0.002447917743149957 -1.338034129222921e-05 
0.0003251891318667585 -0.002447917743149957 -1.338034129222921e-05 
0.0003251891318667585 -0.002447917743149957 -1.338034129222921e-05 
0.0003251891318667585 -0.002447917743149957 -1.338034129222921e-05 
0.0003251891318667585 -0.002447917743149957 -1.338034129222921e-05 
0.0003251891318667585 -0.002447917743149957 -1.338034129222921e-05 
0.002055956071189117 -0.007331654965427865 -1.903788156966561e-05 
0.0003251891318667585 -0.002447917743149957 -1.338034129222921e-05 
-0.01571136534662987 -0.002457603851231057 0.01354476479618192 
0.01503287429866985 -0.01133415210130306 -0.004583764481713665 
0.002250852815404981 0.01235223316888965 -0.02041347320715270 
-0.01932119419916227 -0.01153034140000013 0.02528922476091059 
0.004246953767805476 -0.005775889985096501 -1.999392670646020e-05 
0.0003251891318667585 -0.002447917743149957 -1.338034129222921e-05 
-0.004041826577677131 0.003088558099692369 -0.0009227517931677493 
0.02037863263739068 -0.01135416623983663 -0.01542611318363788 
0.0003251891318667585 -0.002447917743149957 -1.338034129222921e-05 
0.0003251891318667585 -0.002447917743149957 -1.338034129222921e-05 
0.0003251891318667585 -0.002447917743149957 -1.338034129222921e-05 
0.0003251891318667585 -0.002447917743149957 -1.338034129222921e-05 
0.0003251891318667585 -0.002447917743149957 -1.338034129222921e-05 
0.0003251891318667585 -0.002447917743149957 -1.338034129222921e-05 
0.02505084201473678 -0.01548750243958142 -0.02284187280023045 
-0.01201438762187617 0.03549332564041589 -0.02359730730131752 
-0.02024846170325404 0.009956933593365585 0.001675372938819270 
0.0003251891318667585 -0.002447917743149957 -1.338034129222921e-05 
-0.009310338408333566 0.003443118493706248 0.001547128504778055 
0.0003251891318667585 -0.002447917743149957 -1.338034129222921e-05 
0.0003251891318667585 -0.002447917743149957 -1.338034129222921e-05 
0.0003251891318667585 -0.002447917743149957 -1.338034129222921e-05 
0.0003251891318667585 -0.002447917743149957 -1.338034129222921e-05 
0.01027459110748039 -0.01379327902609169 -0.001274043493878928 
-0.008407000048203444 0.01096770145884270 -0.01020904271736075 
0.001605130330666237 0.002492009226042086 -0.009427338856826067 
0.0003251891318667585 -0.002447917743149957 -1.338034129222921e-05 
0.0003251891318667585 -0.002447917743149957 -1.338034129222921e-05 
0.0003251891318667585 -0.002447917743149957 -1.338034129222921e-05 
-0.008237772762426300 0.007861425606478213 -0.002017856175290768 
0.0003251891318667585 -0.002447917743149957 -1.338034129222921e-05 
0.0003251891318667585 -0.002447917743149957 -1.338034129222921e-05 
0.0003251891318667585 -0.002447917743149957 -1.338034129222921e-05 
0.009047031954931730 -0.01713068422730392 -3.934955897900054e-05 
0.0003251891318667585 -0.002447917743149957 -1.338034129222921e-05 
0.0003251891318667585 -0.002447917743149957 -1.338034129222921e-05 
0.0003251891318667585 -0.002447917743149957 -1.338034129222921e-05 
0.0003251891318667585 -0.002447917743149957 -1.338034129222921e-05 
0.009575928408358528 -0.007454901328518442 -0.001951061854687865 
0.002037881829487707 0.003771171204112858 -0.004233571600124575 
0.009575928408358528 -0.007454901328518442 -0.001951061854687865 
-0.01360562787782983 -0.006648126323344686 0.01928797795432664 
0.01412093595411583 -0.006873343367119172 -0.007153819971435306 
0.009575928408358528 -0.007454901328518442 -0.001951061854687865 
0.003972260110745017 0.004316817542425339 -0.009818316633877363 
0.009105420201762497 -0.02535822512862808 0.009987110225475902 
0.02296245891306869 -0.01174921969058763 -0.01342973083811259 
0.01403294318894813 -0.01053712316655560 -0.006636186445764489 
0.003101144112010137 0.01529814964526703 -0.02134778085323977 
0.009507156639583502 -0.01496409956685386 0.007498355458052571 
-0.01179687877128799 0.02840664331741743 -0.01482005094098049 
0.01268431853245634 -0.01052579902787657 -0.001949107474448903 
-0.03564705582014285 0.05203527770262961 -0.03155324927229290 
0.009575928408358528 -0.007454901328518442 -0.001951061854687865 
0.01273804860630047 -0.01124407515444239 0.0005180932931723092 
-0.04425965995368727 0.03345755922464333 0.001118142558438436 
-0.01763622977497262 0.01814970673736725 -0.002278363566447893 
0.02144769971771879 -0.01413510491198907 -0.009902493763100290 
0.007705143580784012 -0.004171810958931243 -0.005072421701190859 
0.009575928408358528 -0.007454901328518442 -0.001951061854687865 
-0.01104576607749529 0.02914090423823984 -0.01408901402738833 
0.006022839519548637 -0.004287258225456677 -0.001185062194492355 
0.009575928408358528 -0.007454901328518442 -0.001951061854687865 
-0.007256843485839706 0.004734109590513256 0.002218143261807336 
0.01581594063534794 -0.01115921891163998 -0.005179203408359132 
0.009575928408358528 -0.007454901328518442 -0.001951061854687865 
0.01808878906891854 -0.008268316744586291 -0.01272208762321166 
0.009575012547013399 -0.008939867037491953 0.0006731547828093244 
0.0007164246886878157 0.0009790795576753628 -0.0008593504779188222 
0.01278606889178567 -0.002134075340290392 -0.01099486302080164 
0.009196818323551341 -0.01224684580289426 0.0006772704789661904 
0.003463548693685078 0.007972196400791864 -0.01071630892272211 
0.006022839519548637 -0.004287258225456677 -0.001185062194492355 
-0.01073196772232357 -0.03501820071517126 0.03497618552762104 
0.01020143977977469 -0.008096140483373333 -0.002889849249901061 
-0.03064225365458037 0.01563455691650003 0.01645435365338313 
0.02174574654535190 0.005026918741714789 -0.02779961030857259 
-0.02957483269867106 0.005938649821030554 0.02187688823824026 
-0.01229002380452589 0.01416182596325222 -0.002686229259006815 
0.01171993897708139 -0.009452804471168004 -0.0002075392268702340 
-0.01273873264542702 0.001075995563668804 0.01170828399050766 
0.001707998104515631 0.01074458216507391 -0.01191837650549124 
0.02448636274700631 -0.006937966731034493 -0.01506588350911109 
-0.008337916141026238 0.01480097156870556 -0.01462011199275423 
-0.02224007934627627 0.03598605989233896 -0.01347318058849402 
0.02419758176810251 -0.01055820411288709 -0.01426426586905913 
0.004196417744594951 0.01329111731859370 -0.01948621309581335 
0.009575928408358528 -0.007454901328518442 -0.001951061854687865 
0.006022839519548637 -0.004287258225456677 -0.001185062194492355 
-0.006060908208299146 0.002116004849373903 0.006490772384917367 
0.009575928408358528 -0.007454901328518442 -0.001951061854687865 
0.03214791961020906 0.003924202487489557 -0.03446388997626858 
0.009325625011832601 -0.01761503390813835 0.006903364349627936 
-0.009509349742898255 -0.02375586459530094 0.02483797385591248 
0.01630663858842254 -0.007455781700954279 -0.009694177299223950 
0.005448041896330111 -0.01331704557041245 0.007785725614788290 
0.01862042885762100 -0.02531769797622919 0.004497488682798185 
-0.01176101865404784 -0.05288252826923238 0.04983644914830275 
0.002393362574282170 0.01059624480927465 -0.01735641898918450 
-0.009623624854688312 -0.004648335719752796 0.005328349129973307 
0.01211357267367151 -0.006147119596044710 -0.007057717629692238 
0.006022839519548637 -0.004287258225456677 -0.001185062194492355 
0.005884656989464638 -0.006084452345787561 0.0005884401822480150 
0.006022839519548637 -0.004287258225456677 -0.001185062194492355 
-0.05754613970681356 -0.02674204556113673 0.07403497734205360 
-0.06066787258686981 0.07661667098422670 -0.03646439319785587 
0.006022839519548637 -0.004287258225456677 -0.001185062194492355 
0.006022839519548637 -0.004287258225456677 -0.001185062194492355 
0.006708037811933148 -0.006678656875412144 1.964335370387464e-05 
0.007907216333520945 -0.008499662715377571 4.255457880686621e-06 
0.006708037811933148 -0.006678656875412144 1.964335370387464e-05 
0.006708037811933148 -0.006678656875412144 1.964335370387464e-05 
0.003187695421953519 0.001037946901813267 -0.008300453620111677 
-0.02384527733921414 0.03653040495822157 -0.01727441068004764 
0.02579754111738173 -0.01988433034726020 -0.004650734157767518 
0.04112380996453091 -0.03114225060497510 -0.01657854949137576 
0.006708037811933148 -0.006678656875412144 1.964335370387464e-05 
0.006708037811933148 -0.006678656875412144 1.964335370387464e-05 
0.006708037811933148 -0.006678656875412144 1.964335370387464e-05 
0.006231997842456709 -0.004036794680232918 -0.006465854421152075 
0.001032992917321059 0.0005501918377712119 -0.002762569984116611 
0.007393359418076771 -0.0006516343521756750 -0.006408213558148944 
0.006708037811933148 -0.006678656875412144 1.964335370387464e-05 
0.006708037811933148 -0.006678656875412144 1.964335370387464e-05 
0.02029453465409439 -0.001056178311166090 -0.02288171587356472 
0.01050589872066675 -0.005580989802996142 -0.004556838118014661 
0.02657081836798500 -0.05361474288395442 0.01208308906323995 
0.03773134296051085 -0.02529984024991389 -0.01916115634125350 
0.006708037811933148 -0.006678656875412144 1.964335370387464e-05 
0.006708037811933148 -0.006678656875412144 1.964335370387464e-05 
0.006708037811933148 -0.006678656875412144 1.964335370387464e-05 
0.01151718545157465 -0.01252587497476158 -0.0001380665763434248 
0.006708037811933148 -0.006678656875412144 1.964335370387464e-05 
-0.01944280533886159 0.01307511995682979 0.008083290415393608 
0.01214285312662299 -0.009659675877048354 -0.002915843300777210 
0.01800307337095175 -0.01552118910701551 -0.003912318954107395 
0.006708037811933148 -0.006678656875412144 1.964335370387464e-05 
0.006708037811933148 -0.006678656875412144 1.964335370387464e-05 
0.006708037811933148 -0.006678656875412144 1.964335370387464e-05 
0.006708037811933148 -0.006678656875412144 1.964335370387464e-05 
0.006708037811933148 -0.006678656875412144 1.964335370387464e-05 
0.006708037811933148 -0.006678656875412144 1.964335370387464e-05 
0.006708037811933148 -0.006678656875412144 1.964335370387464e-05 
-0.03624250539185476 0.03759119820313574 -0.006802364873851052 
0.006708037811933148 -0.006678656875412144 1.964335370387464e-05 
0.03210750126809783 -0.02917839130724827 -0.007645413242288407 
0.006708037811933148 -0.006678656875412144 1.964335370387464e-05 
0.03748075991580484 -0.03623907235942325 -0.007612906962779641 
0.02904416827621022 -0.02434077333280551 -0.01081120159269257 
0.006508668596487068 -0.004126720302433638 -0.002312683109826659 
0.008794283675478158 -0.007211205453342300 -0.002205806627093031 
-0.03563927458989286 -0.003284256270099793 0.03276393545938865 
0.006508668596487068 -0.004126720302433638 -0.002312683109826659 
0.006508668596487068 -0.004126720302433638 -0.002312683109826659 
0.006508668596487068 -0.004126720302433638 -0.002312683109826659 
0.006508668596487068 -0.004126720302433638 -0.002312683109826659 
-0.01146681775826792 0.01231802252834670 -0.003216323166328393 
0.02692094592408099 -0.01816694424954630 -0.01078740464447473 
0.006508668596487068 -0.004126720302433638 -0.002312683109826659 
-0.02508822277826206 0.03538021985433965 -0.008990938415615393 
0.006508668596487068 -0.004126720302433638 -0.002312683109826659 
0.004061421213649889 0.001552528272591827 -0.004035134366810332 
0.006508668596487068 -0.004126720302433638 -0.002312683109826659 
0.01085824792081762 -0.005652846703749975 -0.007281597462304661 
0.007064404608057094 -0.005116601164827050 -0.002318658354461023 
0.006508668596487068 -0.004126720302433638 -0.002312683109826659 
0.007444122129033027 -0.004059161634001918 -0.004442308973594479 
0.002479513378286460 -0.01705799279672457 0.01391254235971131 
0.006508668596487068 -0.004126720302433638 -0.002312683109826659 
0.006508668596487068 -0.004126720302433638 -0.002312683109826659 
0.006508668596487068 -0.004126720302433638 -0.002312683109826659 
0.003092165369786206 0.003056039508094211 -0.005130755255448670 
0.002454277824179103 0.002578793090730800 -0.003854369019522232 
-0.05700996179433292 -0.01551984444065451 0.06146064190250308 
0.006508668596487068 -0.004126720302433638 -0.002312683109826659 
0.006508668596487068 -0.004126720302433638 -0.002312683109826659 
0.006508668596487068 -0.004126720302433638 -0.002312683109826659 
0.006508668596487068 -0.004126720302433638 -0.002312683109826659 
0.006508668596487068 -0.004126720302433638 -0.002312683109826659 
-0.01209499491580751 0.01694188132725755 -0.006384695758138705 
0.006508668596487068 -0.004126720302433638 -0.002312683109826659 
0.01473235219975695 -0.002637042387148060 -0.01383035382891730 
0.008038646299131627 0.0007997313323773323 -0.009951826893245983 
0.003529284869124628 -0.002016703652413598 -0.001723096555562213 
0.003529284869124628 -0.002016703652413598 -0.001723096555562213 
0.002364318250436936 0.0003113703477558245 -0.002019137346825325 
0.01535937793945201 -0.009321980617101800 -0.004760661771670768 
0.009433728186867989 -0.007262956329640476 -0.002738468910261894 
0.01410146428824644 -0.01482567704143327 0.006779261673408237 
0.01549731699447663 -0.01095017943957364 -0.005826882788460021 
0.009429604927567817 -0.007263377843122819 -0.003650800322485342 
0.04587821514814382 -0.09283349674566610 0.01973923539207782 
-0.01346992888640899 0.006162990097855320 -0.01710993687454152 
0.0005068150501876051 0.02142761763724705 -0.03947592413954719 
-0.01658506409372477 0.04702200706384990 -0.04091512214569085 
-0.01417579340701711 -0.02819383170751920 0.04451452630458706 
0.01506482359423940 -0.009670729036888799 -0.004814342586497803 
0.006953992960563515 -0.02082308229634922 0.01103494566113468 
-0.007639847074931047 -0.007801359334692016 0.01718479675863424 
0.03665113135233646 0.004866522723871732 -0.05784164624158446 
0.009433728186867989 -0.007262956329640476 -0.002738468910261894 
0.02830780588320173 -0.01062114686452896 -0.02657643281683339 
0.006373980040627243 0.007841962960934370 -0.01743291479347449 
-0.01311176446982731 0.03992022281649935 -0.03193316631631184 
0.01079602280783055 -1.573229502804785e-05 -0.008880187874609778 
0.0003589329406278851 0.01375354204263166 -0.01554074213016888 
0.02689644902809368 -0.01114451291727137 -0.01893303074651212 
0.009433728186867989 -0.007262956329640476 -0.002738468910261894 
0.03586941537000588 -0.01545106842189279 -0.01932519867095074 
0.01087519262671170 -0.004715554441354810 -0.007154418730836259 
0.002626640134601105 -0.005140241860888063 -0.006978521941429375 
0.005995054493935155 0.002822829164535993 -0.01093747696372158 
0.02478169217647577 -0.02038876862047168 -0.008807461043203799 
-0.05636863659240358 -0.002891743305263000 0.03653828617641140 
0.009433728186867989 -0.007262956329640476 -0.002738468910261894 
0.003011186477439825 -0.01292414905706201 0.007407348529384959 
0.009433728186867989 -0.007262956329640476 -0.002738468910261894 
0.02998346589584048 0.0005009117413749804 -0.03367211253109784 
0.0004184487506556424 -0.0003827282661784006 -0.001046546957491433 
0.0004184487506556424 -0.0003827282661784006 -0.001046546957491433 
0.01329661572625453 -0.006083916428707985 -0.01157952406071009 
0.0004184487506556424 -0.0003827282661784006 -0.001046546957491433 
0.0004184487506556424 -0.0003827282661784006 -0.001046546957491433 
0.0004184487506556424 -0.0003827282661784006 -0.001046546957491433 
0.0004184487506556424 -0.0003827282661784006 -0.001046546957491433 
0.0004184487506556424 -0.0003827282661784006 -0.001046546957491433 
0.0004184487506556424 -0.0003827282661784006 -0.001046546957491433 
-0.0005535409092720705 -0.003426211439585522 0.005329003152349294 
0.0004184487506556424 -0.0003827282661784006 -0.001046546957491433 
-0.005321193279486713 -0.005903636704427172 0.01310611221723295 
0.0006406146657152927 -0.0003830442879353448 -0.001627374918790308 
0.0004184487506556424 -0.0003827282661784006 -0.001046546957491433 
0.0004184487506556424 -0.0003827282661784006 -0.001046546957491433 
0.0004184487506556424 -0.0003827282661784006 -0.001046546957491433 
-0.06921622996949514 0.05892049785484510 0.001743333109662975 
0.0004184487506556424 -0.0003827282661784006 -0.001046546957491433 
0.0004184487506556424 -0.0003827282661784006 -0.001046546957491433 
-0.009057615899988275 -0.001599277154137160 0.009234612612228410 
0.007897033930014140 -0.004065257813443619 -0.007174246855263390 
-0.01908009037500199 0.02362979542745239 -0.0003506922041239855 
0.0004184487506556424 -0.0003827282661784006 -0.001046546957491433 
0.0004184487506556424 -0.0003827282661784006 -0.001046546957491433 
0.0004184487506556424 -0.0003827282661784006 -0.001046546957491433 
0.0004184487506556424 -0.0003827282661784006 -0.001046546957491433 
0.0004184487506556424 -0.0003827282661784006 -0.001046546957491433 
0.0004184487506556424 -0.0003827282661784006 -0.001046546957491433 
0.0004184487506556424 -0.0003827282661784006 -0.001046546957491433 
-0.01214519258035764 0.02916555377560862 -0.02951621927595350 
0.0004184487506556424 -0.0003827282661784006 -0.001046546957491433 
-0.02170782346073043 0.01067692369087869 0.009893188749457023 
0.01302573588527579 -0.01431041556487063 -0.002762153709688109 
0.0004184487506556424 -0.0003827282661784006 -0.001046546957491433 
0.0004184487506556424 -0.0003827282661784006 -0.001046546957491433 
0.04507105211211911 -0.01091428519896349 -0.03876422391095506 
0.0006406146657152927 -0.0003830442879353448 -0.001627374918790308 
0.0004184487506556424 -0.0003827282661784006 -0.001046546957491433 
-0.008191458730720157 0.01660048720688225 -0.005475939001629978 
0.0004184487506556424 -0.0003827282661784006 -0.001046546957491433 
-0.008086983541338235 0.007615573214906163 -0.0001169797522700173 
0.0004184487506556424 -0.0003827282661784006 -0.001046546957491433 
0.0004184487506556424 -0.0003827282661784006 -0.001046546957491433 
0.0004184487506556424 -0.0003827282661784006 -0.001046546957491433 
0.0004184487506556424 -0.0003827282661784006 -0.001046546957491433 
0.0004184487506556424 -0.0003827282661784006 -0.001046546957491433 
0.0006387822315249169 -0.001222308840581372 -0.001637827183869844 
0.0004184487506556424 -0.0003827282661784006 -0.001046546957491433 
0.0004184487506556424 -0.0003827282661784006 -0.001046546957491433 
0.0004184487506556424 -0.0003827282661784006 -0.001046546957491433 
0.0004184487506556424 -0.0003827282661784006 -0.001046546957491433 
0.0004178954975604581 -0.0005274127431685356 -0.001050835934698818 
0.0004179088599797586 -0.0003825138629125270 -0.001041472748897274 
0.04792478264803857 -0.04574662754919846 -0.002465201665255069 
0.0004184487506556424 -0.0003827282661784006 -0.001046546957491433 
0.0004184487506556424 -0.0003827282661784006 -0.001046546957491433 
0.0004184487506556424 -0.0003827282661784006 -0.001046546957491433 
0.01805321722541514 -0.02320278745085414 -0.003152395817213430 
0.0004184487506556424 -0.0003827282661784006 -0.001046546957491433 
0.0004184487506556424 -0.0003827282661784006 -0.001046546957491433 
0.0004184487506556424 -0.0003827282661784006 -0.001046546957491433 
0.0004184487506556424 -0.0003827282661784006 -0.001046546957491433 
0.004505532582574358 -0.002106627386694196 -0.003403995299213303 
-0.003019744417653329 0.003142069720203105 -0.001038348549748328 
0.0004184487506556424 -0.0003827282661784006 -0.001046546957491433 
0.0004184487506556424 -0.0003827282661784006 -0.001046546957491433 
-0.001061171339691398 0.01387060869540092 -0.01482031193294154 
0.07442285417564763 -0.03963660026225720 -0.03756205730851744 
0.0003705300428756465 0.03569017483998838 -0.04542124558043082 
0.0004184487506556424 -0.0003827282661784006 -0.001046546957491433 
0.0004184487506556424 -0.0003827282661784006 -0.001046546957491433 
0.0004184487506556424 -0.0003827282661784006 -0.001046546957491433 
0.006053843211712907 -0.001779304898655761 -0.007199084838988590 
-0.02090922849823352 -0.005779877828665738 0.03818527378460256 
0.0004184487506556424 -0.0003827282661784006 -0.001046546957491433 
0.0004184487506556424 -0.0003827282661784006 -0.001046546957491433 
0.0004184487506556424 -0.0003827282661784006 -0.001046546957491433 
0.0004184487506556424 -0.0003827282661784006 -0.001046546957491433 
0.0004184487506556424 -0.0003827282661784006 -0.001046546957491433 
0.03262940464749014 -0.01959989912547639 -0.02396230137595446 
0.0004184487506556424 -0.0003827282661784006 -0.001046546957491433 
0.0004184487506556424 -0.0003827282661784006 -0.001046546957491433 
0.003644983017282755 -0.003249107087860567 -0.001037962560661918 
0.0004183722806808115 -0.0003827201688471886 -0.001051904965286794 
0.007086293631380860 -0.01105066801853678 0.005041122598404902 
0.0004184487506556424 -0.0003827282661784006 -0.001046546957491433 
0.0004184487506556424 -0.0003827282661784006 -0.001046546957491433 
0.0004184487506556424 -0.0003827282661784006 -0.001046546957491433 
0.0004147151566246424 -0.0003837934867942645 -0.001041262375582557 
0.0006406146657152927 -0.0003830442879353448 -0.001627374918790308 
0.0004184487506556424 -0.0003827282661784006 -0.001046546957491433 
0.0004184487506556424 -0.0003827282661784006 -0.001046546957491433 
0.005470150425749568 -0.003047812197363678 -0.001804195329492023 
0.005470150425749568 -0.003047812197363678 -0.001804195329492023 
0.002621943866501446 -0.006464814737811561 0.004008741878108396 
0.005470150425749568 -0.003047812197363678 -0.001804195329492023 
0.005470150425749568 -0.003047812197363678 -0.001804195329492023 
0.01538439072128614 -0.007629302856310542 -0.007397292324509112 
0.01198525921477710 -0.008153170654888298 -0.002499621942679175 
0.07546350564700845 -0.02987195022823596 -0.05381023507541299 
0.02171885971820404 -0.03338656167592247 0.007510812175805271 
0.007950298257381413 -0.004532011669053888 -0.004062167888816691 
0.005470304580221287 -0.003047228752236428 -0.001789080397613188 
0.005470150425749568 -0.003047812197363678 -0.001804195329492023 
0.005470150425749568 -0.003047812197363678 -0.001804195329492023 
0.005470149752621096 -0.003048334827312088 -0.001808985425060184 
0.005470150425749568 -0.003047812197363678 -0.001804195329492023 
0.005469904775654575 -0.003048367152795556 -0.001811291463631840 
0.005470150425749568 -0.003047812197363678 -0.001804195329492023 
0.01060783821631063 -0.006220214912444017 -0.003333691334295959 
0.005470150425749568 -0.003047812197363678 -0.001804195329492023 
0.006789338886079970 -0.004531841780207095 -0.002725635244298538 
0.005470150425749568 -0.003047812197363678 -0.001804195329492023 
0.005470150425749568 -0.003047812197363678 -0.001804195329492023 
0.005470150425749568 -0.003047812197363678 -0.001804195329492023 
0.005470150425749568 -0.003047812197363678 -0.001804195329492023 
0.009374553246246370 -0.005059573700386811 -0.005514530430057514 
0.009734220608887460 -0.004946561703212132 -0.004564103714334535 
0.005470150425749568 -0.003047812197363678 -0.001804195329492023 
0.005470150425749568 -0.003047812197363678 -0.001804195329492023 
0.02131050019484242 -0.009797517457446435 -0.01261357847765532 
0.005470150425749568 -0.003047812197363678 -0.001804195329492023 
0.005470149752621096 -0.003048334827312088 -0.001808985425060184 
-0.002820213799363434 0.007658835361831466 -0.005866773358933139 
-0.02635986662176710 0.05754564491881841 -0.03257165395290428 
0.001736815095396361 0.02778484951359580 -0.06003693460306475 
0.005528504592794122 -0.001530113374501277 -0.003115721300615884 
-0.004806473053249302 -0.007895702831120250 0.01157223130783210 
0.005470149752621096 -0.003048334827312088 -0.001808985425060184 
0.005470150425749568 -0.003047812197363678 -0.001804195329492023 
0.003435785794052688 -0.001438328602798518 -0.001775754351824552 
0.005470150425749568 -0.003047812197363678 -0.001804195329492023 
0.005470150425749568 -0.003047812197363678 -0.001804195329492023 
0.005470590587493177 -0.004442005950022279 -0.001800948958800649 
0.003611199356746690 0.001607032268306463 -0.004410562439928136 
0.01654983929467277 -0.003705908632892210 -0.01105739492353096 
0.005470150425749568 -0.003047812197363678 -0.001804195329492023 
0.001300529473979465 0.002469747382080051 -0.002759030404839671 
0.005470150425749568 -0.003047812197363678 -0.001804195329492023 
0.0007319258447162665 -0.01804250755478022 0.01609050578884204 
-0.002777684535642816 0.01164205124658315 -0.007859347902617490 
0.006235353789301364 0.0002904940328244933 -0.006028042542259728 
0.005470150425749568 -0.003047812197363678 -0.001804195329492023 
0.005470150425749568 -0.003047812197363678 -0.001804195329492023 
0.005470150425749568 -0.003047812197363678 -0.001804195329492023 
0.009047826425150717 -0.006015994939192197 -0.002347067745401109 
0.005470150425749568 -0.003047812197363678 -0.001804195329492023 
0.008208581344305752 -0.005347207887246189 -0.001803934692571749 
0.005470150425749568 -0.003047812197363678 -0.001804195329492023 
-0.03611788319502091 0.03864999572065664 -0.008977207923726258 
0.005470150425749568 -0.003047812197363678 -0.001804195329492023 
0.01077283775442226 -0.005035804075643706 -0.004526711793969191 
0.01987580580171025 -0.01768382464488172 -0.003631995568602421 
-0.006546097433207191 -0.008988270535880333 0.01579989874292116 
0.005470150425749568 -0.003047812197363678 -0.001804195329492023 
0.01554091352682465 0.003403427627647929 -0.01881807517157372 
0.01209247986637532 -0.009503246537405391 -0.0001126474983735202 
0.06774084863214369 -0.03294450821292024 -0.04115688322996208 
0.05112121018270538 -0.04594929028908269 -0.01571980361052834 
-0.01627120737584783 0.006330018340849253 0.007956191800085704 
0.005470150425749568 -0.003047812197363678 -0.001804195329492023 
0.005470150425749568 -0.003047812197363678 -0.001804195329492023 
0.005470150425749568 -0.003047812197363678 -0.001804195329492023 
0.005470150425749568 -0.003047812197363678 -0.001804195329492023 
0.005470150425749568 -0.003047812197363678 -0.001804195329492023 
0.005470150425749568 -0.003047812197363678 -0.001804195329492023 
0.003676983483071852 -0.0004286255673338513 -0.002123944785254506 
0.005470150425749568 -0.003047812197363678 -0.001804195329492023 
0.005470150425749568 -0.003047812197363678 -0.001804195329492023 
-0.01211573253346071 0.01431137113332605 -0.001762205170257299 
0.006711168297549935 -0.004663200675579033 -0.001785919832143376 
-0.03127389178920532 0.002429217041600304 0.03432473574499012 
0.005949050735760277 -0.003959596770976726 -0.001786637941201690 
0.005949050735760277 -0.003959596770976726 -0.001786637941201690 
0.005949050735760277 -0.003959596770976726 -0.001786637941201690 
0.01246056404726713 -0.009562777936766955 -0.003285055585859691 
0.005949050735760277 -0.003959596770976726 -0.001786637941201690 
0.005949050735760277 -0.003959596770976726 -0.001786637941201690 
0.005949050735760277 -0.003959596770976726 -0.001786637941201690 
-0.02355663397260742 0.009155132796793544 0.008551078708935428 
-0.04489267368079552 0.01725403153898449 0.02008563729118510 
0.005949050735760277 -0.003959596770976726 -0.001786637941201690 
0.005949050735760277 -0.003959596770976726 -0.001786637941201690 
0.005949050735760277 -0.003959596770976726 -0.001786637941201690 
0.005949050735760277 -0.003959596770976726 -0.001786637941201690 
0.005949050735760277 -0.003959596770976726 -0.001786637941201690 
0.01267145403009747 0.01476225828828507 -0.02149030293667674 
-0.001249389639604310 0.0001775817702744360 0.002550835442547515 
0.01359481665184349 -0.007123743986878400 -0.005515944859971070 
0.005949050735760277 -0.003959596770976726 -0.001786637941201690 
0.01726292658574891 -0.008050359574257157 -0.009755142219493472 
0.007652604342650677 -0.005365789912532290 -0.002999748413849741 
0.06355569690974666 -0.04652758960228669 -0.03267891899377810 
0.01935176037739736 -0.01635860609580693 -0.008628622555250074 
-0.006260863419788628 0.008663893485995196 -0.001763085224174714 
0.005949050735760277 -0.003959596770976726 -0.001786637941201690 
-0.02457991174117560 0.03076253084956770 -0.005734482322509483 
0.005949050735760277 -0.003959596770976726 -0.001786637941201690 
0.005652940388558925 -0.001567556119701470 -0.004268287248011459 
0.005949050735760277 -0.003959596770976726 -0.001786637941201690 
0.005949050735760277 -0.003959596770976726 -0.001786637941201690 
0.005949050735760277 -0.003959596770976726 -0.001786637941201690 
0.003583411904901541 0.0008375977284997604 -0.004278422712872375 
-0.02412450415902527 0.03060245990385424 -0.003598856943613800 
0.005949050735760277 -0.003959596770976726 -0.001786637941201690 
0.005949050735760277 -0.003959596770976726 -0.001786637941201690 
0.005949050735760277 -0.003959596770976726 -0.001786637941201690 
0.005949050735760277 -0.003959596770976726 -0.001786637941201690 
0.01969007857023107 -0.01486846913647873 -0.008684902611242804 
0.005949050735760277 -0.003959596770976726 -0.001786637941201690 
0.005949050735760277 -0.003959596770976726 -0.001786637941201690 
0.005949050735760277 -0.003959596770976726 -0.001786637941201690 
0.005949050735760277 -0.003959596770976726 -0.001786637941201690 
0.005949050735760277 -0.003959596770976726 -0.001786637941201690 
0.005949050735760277 -0.003959596770976726 -0.001786637941201690 
0.005949050735760277 -0.003959596770976726 -0.001786637941201690 
0.005949050735760277 -0.003959596770976726 -0.001786637941201690 
0.005949050735760277 -0.003959596770976726 -0.001786637941201690 
0.01348660185569810 -0.009142342364031669 -0.007373542065412618 
0.01348660185569810 -0.009142342364031669 -0.007373542065412618 
0.01348660185569810 -0.009142342364031669 -0.007373542065412618 
0.01348660185569810 -0.009142342364031669 -0.007373542065412618 
0.01348660185569810 -0.009142342364031669 -0.007373542065412618 
0.01348660185569810 -0.009142342364031669 -0.007373542065412618 
0.01348660185569810 -0.009142342364031669 -0.007373542065412618 
0.01348660185569810 -0.009142342364031669 -0.007373542065412618 
0.01348660185569810 -0.009142342364031669 -0.007373542065412618 
0.01398123334436768 -0.01090958600624964 -0.007351045236923818 
0.01348660185569810 -0.009142342364031669 -0.007373542065412618 
0.03077745960354745 -0.02445450918582907 -0.01086190197335925 
0.01348660185569810 -0.009142342364031669 -0.007373542065412618 
0.01936977583313820 -0.003455008210201535 -0.02101951182126374 
0.001394787632839310 0.006318200321657783 -0.01159073975240537 
0.02923957350895301 -0.01310864214875822 -0.02049800426685531 
-0.006990316373213394 0.002289139008526614 0.002088776331950769 
0.009608539426523220 -0.003292265799469099 -0.004797301390797385 
0.02795019158376140 -0.03206363855754990 -0.002913527671049348 
-0.009964244076532550 -0.006854236209022571 0.01752654173115354 
0.03198044432629004 -0.01867867469080903 -0.01891285745981367 
0.0005667315978558200 -1.192555195837747e-06 -0.001208246012188707 
0.009571249320302770 -0.005242144747916495 -0.009885598052069197 
0.004547042321089496 -0.001440574657827214 -0.005424156134660281 
0.0005667315978558200 -1.192555195837747e-06 -0.001208246012188707 
-0.02409110086320795 0.02343489887091314 -0.003301619527257987 
0.0005667315978558200 -1.192555195837747e-06 -0.001208246012188707 
-0.009999163417016704 -0.01051933652635763 0.004601565425684283 
-0.002871461570453151 0.003523605431185667 -0.001200047604445602 
0.0005667315978558200 -1.192555195837747e-06 -0.001208246012188707 
0.0005667315978558200 -1.192555195837747e-06 -0.001208246012188707 
0.0005667315978558200 -1.192555195837747e-06 -0.001208246012188707 
-0.01450918589659601 0.006927056698736569 0.005948515001656764 
0.0005667315978558200 -1.192555195837747e-06 -0.001208246012188707 
0.0005667315978558200 -1.192555195837747e-06 -0.001208246012188707 
-0.003962657983848360 0.01235895394540517 -0.005986100573324912 
0.0005667315978558200 -1.192555195837747e-06 -0.001208246012188707 
0.0005667315978558200 -1.192555195837747e-06 -0.001208246012188707 
0.0005667315978558200 -1.192555195837747e-06 -0.001208246012188707 
0.0005667315978558200 -1.192555195837747e-06 -0.001208246012188707 
0.05022169056857377 -0.01723981165364012 -0.03593608642378511 
0.0005667315978558200 -1.192555195837747e-06 -0.001208246012188707 
0.0005667315978558200 -1.192555195837747e-06 -0.001208246012188707 
0.0005667315978558200 -1.192555195837747e-06 -0.001208246012188707 
0.0005667315978558200 -1.192555195837747e-06 -0.001208246012188707 
0.0005667315978558200 -1.192555195837747e-06 -0.001208246012188707 
0.0005667315978558200 -1.192555195837747e-06 -0.001208246012188707 
0.0005667315978558200 -1.192555195837747e-06 -0.001208246012188707 
0.0005667315978558200 -1.192555195837747e-06 -0.001208246012188707 
0.0005667315978558200 -1.192555195837747e-06 -0.001208246012188707 
0.0005667315978558200 -1.192555195837747e-06 -0.001208246012188707 
-0.002610658668438451 -0.001312877964147574 0.005333153863881760 
0.03218417159579393 -0.01738294540531334 -0.01440670666786555 
-0.01350314359246416 -0.02109714982166404 0.03250222459327603 
0.0005667315978558200 -1.192555195837747e-06 -0.001208246012188707 
-0.01272050405737333 -0.0001389585567255881 0.01650721543128690 
0.0005667315978558200 -1.192555195837747e-06 -0.001208246012188707 
0.0005667315978558200 -1.192555195837747e-06 -0.001208246012188707 
0.001191340945228615 0.0002937079428044915 -0.002278944073240594 
0.0005667315978558200 -1.192555195837747e-06 -0.001208246012188707 
0.0005667315978558200 -1.192555195837747e-06 -0.001208246012188707 
0.02145944174836799 -0.02223857770740505 -0.01325849914544828 
0.0005667315978558200 -1.192555195837747e-06 -0.001208246012188707 
0.01890897995231273 0.008264932940256603 -0.03585355696438308 
-7.054219389617778e-07 -7.845522241631203e-07 -1.285133236704763e-05 
-7.054219389617778e-07 -7.845522241631203e-07 -1.285133236704763e-05 
-5.935349539604654e-07 -0.0007950912493640610 -2.031469136732698e-05 
0.002903809774963882 -2.791647705265569e-07 -0.001259488479112552 
-7.054219389617778e-07 -7.845522241631203e-07 -1.285133236704763e-05 
-7.054219389617778e-07 -7.845522241631203e-07 -1.285133236704763e-05 
-7.054219389617778e-07 -7.845522241631203e-07 -1.285133236704763e-05 
0.01340600662365027 -0.006486023282859237 -0.007169326895466720 
0.08408821716145823 -0.08436803373265880 -0.01601593837414187 
-3.012358266663031e-07 -4.015586578788364e-07 -6.554661710420377e-06 
0.03320206310772035 -0.02272025322013141 -0.01648391894215312 
0.03373318766507510 -0.01994767822243348 -0.01829075230229554 
0.004141238637845723 -0.03289453897000419 0.01694304166295218 
-0.01970491129344934 0.01512655327579993 -0.006117122471009878 
-0.001585015844296445 0.02403756904917273 -0.02677957570298035 
0.02585878437636913 -0.006366465063701784 -0.02360108073197994 
0.04172420863874843 -0.03735683004024916 -0.005667772643507274 
0.03307360463093825 -0.02591818112389600 -0.01669216999327660 
-0.005761398994762595 0.01740959783714542 -0.01399135168747392 
0.01448407760589787 -0.008289184377893655 -0.009754257791310223 
-7.054219389617778e-07 -7.845522241631203e-07 -1.285133236704763e-05 
-7.054219389617778e-07 -7.845522241631203e-07 -1.285133236704763e-05 
0.006851976990563586 -0.007142183943282450 -0.0006426320887881524 
0.009818573076858487 -0.002555451200241817 -0.005663788820091154 
-0.02738133579792370 0.03062499454368859 0.001062391778390395 
0.005673234758698321 -0.004533418277457825 -0.0006411189322128758 
0.005673234758698321 -0.004533418277457825 -0.0006411189322128758 
-0.001234996241262292 0.003284689237720121 -0.001590062117329167 
0.005673234758698321 -0.004533418277457825 -0.0006411189322128758 
0.005673234758698321 -0.004533418277457825 -0.0006411189322128758 
0.005673234758698321 -0.004533418277457825 -0.0006411189322128758 
0.005673234758698321 -0.004533418277457825 -0.0006411189322128758 
-0.02712690510518390 0.02074690309502345 0.01126077940811306 
0.005673234758698321 -0.004533418277457825 -0.0006411189322128758 
0.005673234758698321 -0.004533418277457825 -0.0006411189322128758 
0.005673234758698321 -0.004533418277457825 -0.0006411189322128758 
0.006805978450717299 -0.007255908253468428 -0.0006147453534421378 
0.005673234758698321 -0.004533418277457825 -0.0006411189322128758 
0.01107037598178885 -0.006826626427963846 -0.002772695422525958 
-0.006535820919425941 -0.0001717568958068333 0.008843129049277303 
-0.0003652312698502835 0.004390151406112984 -0.004772248087022617 
0.005673234758698321 -0.004533418277457825 -0.0006411189322128758 
0.005673234758698321 -0.004533418277457825 -0.0006411189322128758 
0.009794679359725613 -0.006982048485743261 -0.004136376096605451 
0.005673234758698321 -0.004533418277457825 -0.0006411189322128758 
-0.005253508745497288 0.01202718873142782 -0.005577321989719893 
0.005673234758698321 -0.004533418277457825 -0.0006411189322128758 
0.005673234758698321 -0.004533418277457825 -0.0006411189322128758 
0.005673234758698321 -0.004533418277457825 -0.0006411189322128758 
0.005673234758698321 -0.004533418277457825 -0.0006411189322128758 
0.005673234758698321 -0.004533418277457825 -0.0006411189322128758 
0.05025627871743700 -0.01114355234843822 -0.05600633083625307 
0.01352638914351266 -0.002491746002194387 -0.01401144940198799 
-0.02055052774640510 -0.002340864142714439 0.02268697882648521 
0.006805978450717299 -0.007255908253468428 -0.0006147453534421378 
0.005686970195254579 -0.002992288731906232 -0.002813085506906426 
0.02088035616114663 -0.01499879525043620 -0.009774847399707522 
0.005673234758698321 -0.004533418277457825 -0.0006411189322128758 
0.005673234758698321 -0.004533418277457825 -0.0006411189322128758 
0.005673234758698321 -0.004533418277457825 -0.0006411189322128758 
0.005673234758698321 -0.004533418277457825 -0.0006411189322128758 
0.005673234758698321 -0.004533418277457825 -0.0006411189322128758 
0.007111241849524124 -0.005699626768102716 -0.0006221321857050449 
0.005673234758698321 -0.004533418277457825 -0.0006411189322128758 
0.002623212714885945 -0.001043713227546410 -0.0006284675104450244 
0.005673234758698321 -0.004533418277457825 -0.0006411189322128758 
0.01320649318086178 -0.007756197941227466 -0.002336930401967885 
0.005673234758698321 -0.004533418277457825 -0.0006411189322128758 
0.02784426095181766 -0.02089092078233019 -0.008028683403628528 
0.005673234758698321 -0.004533418277457825 -0.0006411189322128758 
0.005673234758698321 -0.004533418277457825 -0.0006411189322128758 
0.005673234758698321 -0.004533418277457825 -0.0006411189322128758 
0.005673234758698321 -0.004533418277457825 -0.0006411189322128758 
0.005673234758698321 -0.004533418277457825 -0.0006411189322128758 
0.009457805692009054 -0.008646386027286975 -0.003441263431241605 
0.001903366327120151 0.03753131798103125 -0.04303980554336900 
0.005673234758698321 -0.004533418277457825 -0.0006411189322128758 
0.005673234758698321 -0.004533418277457825 -0.0006411189322128758 
0.005673234758698321 -0.004533418277457825 -0.0006411189322128758 
0.005673234758698321 -0.004533418277457825 -0.0006411189322128758 
0.01194030784987420 -0.003956540176006629 -0.01386707349116762 
0.006059629492830104 -0.002161686866284440 -0.002416974908075041 
-0.09306877415990040 0.03714537479934434 0.05880097061785075 
0.005673234758698321 -0.004533418277457825 -0.0006411189322128758 
0.005673234758698321 -0.004533418277457825 -0.0006411189322128758 
0.005673234758698321 -0.004533418277457825 -0.0006411189322128758 
0.008647047164127359 -0.01183873236709832 2.366775006634436e-05 
0.003461227040533676 -0.005824095656869904 -0.0005598516367678614 
0.003461517368151380 -0.005825772093742824 -1.713534163218541e-05 
0.005792110260563723 -0.006149030528490885 -0.003287972791875583 
-0.01135813786656144 0.007532147794841534 -0.001579373033409600 
-0.08600437200713125 0.1087162945377407 -0.03842612343180061 
-0.004924562376365222 0.003036008351392675 -0.005492358267102513 
-0.03174999289261338 0.02756336192016723 -0.0001986685631361891 
-0.005084196878081158 0.03237066470476441 -0.03736861521905242 
-0.01049229071049405 -0.01449403593466881 0.01654549396728260 
0.003461517368151380 -0.005825772093742824 -1.713534163218541e-05 
0.003461517368151380 -0.005825772093742824 -1.713534163218541e-05 
0.009338630263146146 -0.008571922465451458 -0.007209114540640021 
-0.03095558892456798 0.01902583998103619 0.008119333056589953 
-0.006762818318380474 0.01287518660925920 -0.01002261904862169 
0.003461517368151380 -0.005825772093742824 -1.713534163218541e-05 
0.05797003174272399 -0.04105251770424495 -0.03340071915302859 
-0.01900581849546426 0.02496886954844198 -0.008475861117892667 
0.008233797529630542 -0.009097797847386723 -0.003973508072907452 
-0.01450465304374286 0.02439131086939922 -0.01411323003979687 
0.009450897706194450 -0.01169655863336170 -0.002027743903472885 
0.003461955470307830 -0.008365138987948035 -2.447526451472248e-05 
0.01624980394471232 0.02246391391070153 -0.04361666717724808 
0.01497617584695607 -0.01563840111810114 -0.001394008677773713 
-0.02237419720439372 0.03189023961356004 -0.01951990430653686 
0.02656062188307674 -0.01460774474309835 -0.02414777552445983 
0.01304766712228984 -0.01597967861718722 -0.006224950480720125 
0.006726459204001568 -0.006379091445719888 -0.005944619750612994 
0.003036427362992107 -0.002254953327441234 -0.005172683441097925 
0.02640796043508684 -0.01900871387128120 -0.01228795017376751 
0.003461517368151380 -0.005825772093742824 -1.713534163218541e-05 
0.003461517368151380 -0.005825772093742824 -1.713534163218541e-05 
0.003461955470307830 -0.008365138987948035 -2.447526451472248e-05 
0.003461517368151380 -0.005825772093742824 -1.713534163218541e-05 
0.001363069703832311 -0.001934961365546088 4.049144852319173e-05 
0.001363069703832311 -0.001934961365546088 4.049144852319173e-05 
-0.009413589929502131 0.008370996631436383 0.004281863921432238 
0.001363069703832311 -0.001934961365546088 4.049144852319173e-05 
0.008432210249398709 -0.006971800929785639 -0.001082902577739733 
0.002864340627941621 -0.001935563446322532 -0.003240373432425680 
-0.006482451853648601 0.01558081794111143 -0.02133511002196978 
0.03808299814309430 -0.03674335198286378 -0.005910696312841657 
0.001363069703832311 -0.001934961365546088 4.049144852319173e-05 
0.002158228606805673 -0.002600838823208635 -0.0003342826342852702 
0.001363069703832311 -0.001934961365546088 4.049144852319173e-05 
-0.004046950485534473 0.005325314504652980 -0.0009068708908797954 
0.001363069703832311 -0.001934961365546088 4.049144852319173e-05 
0.001363069703832311 -0.001934961365546088 4.049144852319173e-05 
-0.008217300887003938 0.009406453421709326 -0.001103150340363805 
0.004126094720481655 -0.004098668847204130 -0.0001521433037558379 
0.001363069703832311 -0.001934961365546088 4.049144852319173e-05 
0.001363069703832311 -0.001934961365546088 4.049144852319173e-05 
0.001363069703832311 -0.001934961365546088 4.049144852319173e-05 
0.006094334513270212 -0.005708726073196800 0.0006910364817648379 
0.001363069703832311 -0.001934961365546088 4.049144852319173e-05 
0.01515647619215886 -0.006937883064743610 -0.01056156493813736 
0.001363069703832311 -0.001934961365546088 4.049144852319173e-05 
0.008990180308773944 -0.006661817430745569 -0.005044528631937073 
0.001363069703832311 -0.001934961365546088 4.049144852319173e-05 
0.001363069703832311 -0.001934961365546088 4.049144852319173e-05 
0.001363069703832311 -0.001934961365546088 4.049144852319173e-05 
0.01645198447676113 -0.01626323984091698 -0.0005789163902461610 
0.001363069703832311 -0.001934961365546088 4.049144852319173e-05 
0.002474058184182370 -0.002481801759246673 4.991700185822317e-05 
0.03763800594612753 -0.01213922514456384 -0.02541818000327938 
0.002125187265621968 -0.002638565270148394 4.120955758150555e-05 
0.001363069703832311 -0.001934961365546088 4.049144852319173e-05 
0.001363069703832311 -0.001934961365546088 4.049144852319173e-05 
0.001363069703832311 -0.001934961365546088 4.049144852319173e-05 
0.003041249196939917 -0.001934378911741602 -0.001413256426608487 
0.001363069703832311 -0.001934961365546088 4.049144852319173e-05 
-0.007983634517366044 0.008640973471478592 -0.0001724945626322020 
-0.01061435884709245 -0.009136743095284514 0.02002959040896449 
0.001362888665693400 -0.001935268578376737 4.654949048032537e-05 
-0.002449069901769723 0.002258347588967635 5.242476123272917e-05 
-0.004789770502502393 0.01644029062822282 -0.01613707633532507 
0.001363069703832311 -0.001934961365546088 4.049144852319173e-05 
-0.01478615847491582 0.02277625400456325 -0.004779022610186552 
0.001363069703832311 -0.001934961365546088 4.049144852319173e-05 
0.001363069703832311 -0.001934961365546088 4.049144852319173e-05 
0.001362219940079651 -8.779757868729445e-05 -0.001585513470120378 
0.001363069703832311 -0.001934961365546088 4.049144852319173e-05 
-0.001902220342084231 0.004673190849900667 -0.006460439395034933 
0.001363069703832311 -0.001934961365546088 4.049144852319173e-05 
0.02687859892730971 -0.01664943501582369 -0.01787738294650439 
0.01451219920569907 -0.01507488511999016 -0.002574275387149790 
0.001363069703832311 -0.001934961365546088 4.049144852319173e-05 
0.001363069703832311 -0.001934961365546088 4.049144852319173e-05 
0.001363069703832311 -0.001934961365546088 4.049144852319173e-05 
-0.009751293672333338 0.01091011531624135 -0.004640501949201658 
0.004740447061669505 -0.004448129668903634 -0.0004103567115964129 
0.01026622681714725 0.0004501637743693596 -0.01814142222572839 
0.03112920547563711 -0.02761460958211426 0.002620109638149762 
0.001363069703832311 -0.001934961365546088 4.049144852319173e-05 
-0.01325736599300178 0.01375609837985122 -0.002215611889997894 
0.004411674824840933 -0.003091367742921557 -0.001604703002400048 
0.003737473912811944 -0.002632515492402689 -0.0004694122788259645 
0.001363069703832311 -0.001934961365546088 4.049144852319173e-05 
0.003532457533595105 -0.003945208139643224 6.091867048901335e-05 
-0.009202155801737541 0.01100367707682252 -0.004784067781019286 
0.001363069703832311 -0.001934961365546088 4.049144852319173e-05 
0.001363069703832311 -0.001934961365546088 4.049144852319173e-05 
0.001363069703832311 -0.001934961365546088 4.049144852319173e-05 
0.009804013448047665 -0.01504659749472275 -0.002150142909675701 
0.005691284185700211 -0.001936596870742400 -0.002572536802067217 
0.001363069703832311 -0.001934961365546088 4.049144852319173e-05 
0.02633032599197399 -0.02068919231509772 -0.006548788754283667 
0.001363069703832311 -0.001934961365546088 4.049144852319173e-05 
0.001363069703832311 -0.001934961365546088 4.049144852319173e-05 
0.001363069703832311 -0.001934961365546088 4.049144852319173e-05 
0.03333373845139261 -0.006747268678350968 -0.03629208796485742 
-0.007399523658054181 0.02628852599500163 -0.01441993191229425 
0.003291708508336351 -0.002609035329722113 9.959967812074282e-06 
0.003291708508336351 -0.002609035329722113 9.959967812074282e-06 
0.01652238569610463 -0.01672080766197854 -0.006277612086656717 
0.007189816591981244 -0.006057463183159056 -0.0004496844732174976 
0.006869439432086742 -0.005577832145549186 -0.0005357513629588713 
0.003291708508336351 -0.002609035329722113 9.959967812074282e-06 
0.003291708508336351 -0.002609035329722113 9.959967812074282e-06 
-0.04797368764851503 -0.09606217968920906 0.1065655696942635 
0.003291708508336351 -0.002609035329722113 9.959967812074282e-06 
0.003291708508336351 -0.002609035329722113 9.959967812074282e-06 
0.04251517828717295 -0.02574914146410388 -0.01726918174639517 
0.003291708508336351 -0.002609035329722113 9.959967812074282e-06 
0.03626541599900162 -0.01611287590687569 -0.02548757326277540 
0.01476961906469825 -0.004773338642936473 -0.01241507106389394 
0.01818939308695767 -0.01568681558789779 -0.005953373344844758 
0.01394604920351343 -0.01016445345922218 -0.005345926195126316 
0.003291708508336351 -0.002609035329722113 9.959967812074282e-06 
0.01857315148779158 -0.009761521029272245 -0.008010092722024210 
0.003291708508336351 -0.002609035329722113 9.959967812074282e-06 
-0.0009544874504075027 -0.002493052173190393 0.007848382403407244 
0.007555778691474242 -0.004507784835570568 -0.002749948417030438 
0.003291708508336351 -0.002609035329722113 9.959967812074282e-06 
0.003291708508336351 -0.002609035329722113 9.959967812074282e-06 
0.003291708508336351 -0.002609035329722113 9.959967812074282e-06 
0.003291708508336351 -0.002609035329722113 9.959967812074282e-06 
0.003291708508336351 -0.002609035329722113 9.959967812074282e-06 
-0.009292032562498570 0.01179637929830753 -0.001901529106136298 
0.01902676394736720 -0.01099611861060431 -0.009789031712228972 
0.007202061952747462 -0.005725780264381017 -0.0005562602927317216 
0.003291708508336351 -0.002609035329722113 9.959967812074282e-06 
0.003291708508336351 -0.002609035329722113 9.959967812074282e-06 
0.003291708508336351 -0.002609035329722113 9.959967812074282e-06 
0.006654903585041205 -0.003265473269071134 -0.001601257056189869 
0.003291708508336351 -0.002609035329722113 9.959967812074282e-06 
-0.05176083092873242 0.05121225215315219 -0.002270722599359216 
0.003291708508336351 -0.002609035329722113 9.959967812074282e-06 
0.003291708508336351 -0.002609035329722113 9.959967812074282e-06 
0.007555778691474242 -0.004507784835570568 -0.002749948417030438 
0.003291708508336351 -0.002609035329722113 9.959967812074282e-06 
0.003291708508336351 -0.002609035329722113 9.959967812074282e-06 
0.003291708508336351 -0.002609035329722113 9.959967812074282e-06 
0.02638467640518531 -0.01922889170767360 -0.01318211613172095 
0.003291708508336351 -0.002609035329722113 9.959967812074282e-06 
0.01305635119672773 -0.007004655113823315 -0.005418791044604452 
0.003291708508336351 -0.002609035329722113 9.959967812074282e-06 
0.003291708508336351 -0.002609035329722113 9.959967812074282e-06 
0.002188412546153898 -0.002289944448098845 -3.015910583115191e-07 
0.01112075764883899 -0.007706077228227497 -0.004072841936648230 
0.002188412546153898 -0.002289944448098845 -3.015910583115191e-07 
0.002188412546153898 -0.002289944448098845 -3.015910583115191e-07 
0.002189102865488984 -0.002290252958938698 1.405885632237191e-05 
0.004084880656438832 -0.004208510840706692 -0.002058939116377156 
0.002188412546153898 -0.002289944448098845 -3.015910583115191e-07 
0.006384483637540664 0.001139429633306730 -0.01088058590891035 
0.002188412546153898 -0.002289944448098845 -3.015910583115191e-07 
0.002188412546153898 -0.002289944448098845 -3.015910583115191e-07 
0.002188412546153898 -0.002289944448098845 -3.015910583115191e-07 
0.003253083047857897 -0.002290797342761282 4.999438438371267e-05 
0.002188412546153898 -0.002289944448098845 -3.015910583115191e-07 
0.002188412546153898 -0.002289944448098845 -3.015910583115191e-07 
0.02111066556006071 0.003878442297752035 -0.04402783430310824 
0.002188412546153898 -0.002289944448098845 -3.015910583115191e-07 
0.002188412546153898 -0.002289944448098845 -3.015910583115191e-07 
0.002188412546153898 -0.002289944448098845 -3.015910583115191e-07 
0.002188412546153898 -0.002289944448098845 -3.015910583115191e-07 
0.002188412546153898 -0.002289944448098845 -3.015910583115191e-07 
0.004926843464710082 -0.004589340137981357 -4.095413803838361e-08 
0.005670847846871879 0.02663032219355658 -0.03640721787049262 
0.002188412546153898 -0.002289944448098845 -3.015910583115191e-07 
0.009443507209996519 -0.005859754192573019 -0.003112959218912251 
0.005879172036684817 -0.01698647928455488 0.002881106359348062 
0.02904581667956051 -0.01329884029685565 -0.01461241326042550 
0.02737652056547383 -0.01180970647915050 -0.01627183766077950 
0.0004474297503393869 0.003016330471426974 -0.003728742537244563 
0.009793682717136008 -0.006251210733074383 -0.003511143632301667 
0.01005424214956449 -0.001867836521778509 -0.01087051169464677 
0.009793682717136008 -0.006251210733074383 -0.003511143632301667 
0.01574230957438508 -0.009561662417371220 -0.004784717185486610 
0.03856762029244342 -0.02894026882198426 -0.01340143998311498 
0.009793682717136008 -0.006251210733074383 -0.003511143632301667 
0.009793682717136008 -0.006251210733074383 -0.003511143632301667 
0.009793682717136008 -0.006251210733074383 -0.003511143632301667 
0.009793682717136008 -0.006251210733074383 -0.003511143632301667 
0.009793682717136008 -0.006251210733074383 -0.003511143632301667 
0.01639825570191353 -0.01143450910260698 -0.003718823060114612 
0.009793682717136008 -0.006251210733074383 -0.003511143632301667 
-0.001075857972452855 -0.006568663515824024 0.008553339396684545 
0.006355489548827037 -0.002726412746692879 -0.003502945224558562 
0.009793318772990929 -0.006247243895639663 -0.003074861020879607 
0.009793682717136008 -0.006251210733074383 -0.003511143632301667 
0.009793682717136008 -0.006251210733074383 -0.003511143632301667 
0.01043324503082435 -0.005090757739745298 -0.009623150954296278 
0.006739297278617308 -0.005090378869474069 -0.002131762449523188 
0.006739297278617308 -0.005090378869474069 -0.002131762449523188 
-0.007249154951021992 0.01422112048303277 -0.005701502661412408 
0.006739297278617308 -0.005090378869474069 -0.002131762449523188 
0.01031697327801845 -0.008058561611302589 -0.002674634865432274 
0.006739297278617308 -0.005090378869474069 -0.002131762449523188 
-0.004618712529267366 -0.0007857714594471007 0.005906601259201957 
0.01977702150188677 -0.01218522468422194 -0.009110708265996583 
0.006739297278617308 -0.005090378869474069 -0.002131762449523188 
0.006739297278617308 -0.005090378869474069 -0.002131762449523188 
0.006739297278617308 -0.005090378869474069 -0.002131762449523188 
0.006039397558369858 -0.02591360143835962 0.01549824793653306 
0.006739297278617308 -0.005090378869474069 -0.002131762449523188 
0.006739297278617308 -0.005090378869474069 -0.002131762449523188 
0.006739297278617308 -0.005090378869474069 -0.002131762449523188 
0.006739297278617308 -0.005090378869474069 -0.002131762449523188 
0.006739297278617308 -0.005090378869474069 -0.002131762449523188 
0.006739297278617308 -0.005090378869474069 -0.002131762449523188 
0.006739297278617308 -0.005090378869474069 -0.002131762449523188 
0.006739297278617308 -0.005090378869474069 -0.002131762449523188 
0.006739297278617308 -0.005090378869474069 -0.002131762449523188 
-0.06113959056009675 0.02777826349709748 0.02795546416191803 
0.02695616515958194 -0.01767445365974686 -0.01170500133782276 
0.01753827613605950 -0.009308159877547907 -0.009388780001593720 
0.006739297278617308 -0.005090378869474069 -0.002131762449523188 
0.006739297278617308 -0.005090378869474069 -0.002131762449523188 
0.03198745327399449 -0.04442578157709985 -0.001416970202171359 
0.005603219841895784 -0.002977299272852747 -0.002737680390781302 
0.006739297278617308 -0.005090378869474069 -0.002131762449523188 
0.006739297278617308 -0.005090378869474069 -0.002131762449523188 
0.006739297278617308 -0.005090378869474069 -0.002131762449523188 
0.006739297278617308 -0.005090378869474069 -0.002131762449523188 
0.006739297278617308 -0.005090378869474069 -0.002131762449523188 
0.006739297278617308 -0.005090378869474069 -0.002131762449523188 
0.006739297278617308 -0.005090378869474069 -0.002131762449523188 
0.006739297278617308 -0.005090378869474069 -0.002131762449523188 
0.04136772735151037 -0.03262961196256709 -0.01061322481511824 
0.006739297278617308 -0.005090378869474069 -0.002131762449523188 
0.006739297278617308 -0.005090378869474069 -0.002131762449523188 
0.01522750207258754 -0.009656924181040784 -0.007186881293831719 
0.006739297278617308 -0.005090378869474069 -0.002131762449523188 
0.006739297278617308 -0.005090378869474069 -0.002131762449523188 
0.006739297278617308 -0.005090378869474069 -0.002131762449523188 
0.006739297278617308 -0.005090378869474069 -0.002131762449523188 
0.006739297278617308 -0.005090378869474069 -0.002131762449523188 
0.006739297278617308 -0.005090378869474069 -0.002131762449523188 
0.008602216478761570 -0.004518162802656190 -0.01159786883900062 
0.006739297278617308 -0.005090378869474069 -0.002131762449523188 
0.006739297278617308 -0.005090378869474069 -0.002131762449523188 
0.006739297278617308 -0.005090378869474069 -0.002131762449523188 
0.006739297278617308 -0.005090378869474069 -0.002131762449523188 
0.006739297278617308 -0.005090378869474069 -0.002131762449523188 
0.006739297278617308 -0.005090378869474069 -0.002131762449523188 
-0.01164233875762953 -0.007231631746468343 0.01909340861846563 
-0.008615895780980920 0.01564617640370156 -0.01658350461434029 
0.02172667921099744 -0.006987866229218999 -0.01626531660752167 
-7.432436872995749e-08 -7.750694084000939e-07 -9.234015286954724e-06 
-7.432436872995749e-08 -7.750694084000939e-07 -9.234015286954724e-06 
-0.05564885603755169 0.01060461725206359 0.03929052271945511 
2.570251086056983e-08 7.289686067443251e-07 -1.123881951184604e-05 
-0.03480216381940070 0.06867860377572360 -0.03919670325016950 
-0.07314416305795444 0.02383420559767211 0.03581171048036302 
-7.432436872995749e-08 -7.750694084000939e-07 -9.234015286954724e-06 
-7.432436872995749e-08 -7.750694084000939e-07 -9.234015286954724e-06 
0.003490550960724402 0.006265088925317705 -0.008885885991504637 
0.01765629176438695 -0.006913911619906418 -0.01673250856521648 
-7.432436872995749e-08 -7.750694084000939e-07 -9.234015286954724e-06 
-0.03095474667735646 0.01675208371297368 0.01040557931880423 
0.002395225435774156 -0.009136791852458092 0.007704050843838213 
0.003651632615766602 0.01776199434325606 -0.01391412305355684 
-0.03626698997669908 0.002153671632888307 0.02926193244511038 
0.06912652412922468 -0.04156062974424050 -0.04212772520206416 
-0.003803408865773074 0.007767284062740729 -0.003721058483213319 
0.04081443165259436 -0.009515693187498990 -0.03536265158466773 
-7.432436872995749e-08 -7.750694084000939e-07 -9.234015286954724e-06 
-0.001609953898690930 -0.003058513220462794 0.005229401470585702 
-5.937827648205986e-07 -1.055563988585491e-06 -1.290435772319353e-05 
0.0006782362264755423 -0.0002473504689936059 -1.639664127031177e-05 
0.004087083831918715 -0.001723899120515795 -0.002357448341721869 
0.01950890148778760 0.003372662457767150 -0.02576161477309534 
0.01760948097875099 -0.008901156800176890 -0.008513295251825000 
0.004087083831918715 -0.001723899120515795 -0.002357448341721869 
0.004087083831918715 -0.001723899120515795 -0.002357448341721869 
0.004086089854302421 -0.001723763031767668 -0.002354566562578174 
0.004087083831918715 -0.001723899120515795 -0.002357448341721869 
0.004087083831918715 -0.001723899120515795 -0.002357448341721869 
0.004087083831918715 -0.001723899120515795 -0.002357448341721869 
-0.03844143908173212 -0.02257532280798941 0.05656991322892385 
-0.006739504677624571 0.01395321729190487 -0.008781762166887525 
0.004087083831918715 -0.001723899120515795 -0.002357448341721869 
0.004087083831918715 -0.001723899120515795 -0.002357448341721869 
0.004087083831918715 -0.001723899120515795 -0.002357448341721869 
0.004087083831918715 -0.001723899120515795 -0.002357448341721869 
0.004087083831918715 -0.001723899120515795 -0.002357448341721869 
0.004087083831918715 -0.001723899120515795 -0.002357448341721869 
0.004087083831918715 -0.001723899120515795 -0.002357448341721869 
0.004087083831918715 -0.001723899120515795 -0.002357448341721869 
0.004087083831918715 -0.001723899120515795 -0.002357448341721869 
0.004087083831918715 -0.001723899120515795 -0.002357448341721869 
0.004087083831918715 -0.001723899120515795 -0.002357448341721869 
0.004087083831918715 -0.001723899120515795 -0.002357448341721869 
0.005406645055008387 -0.001723310460077770 -0.003798928385536432 
0.02084649730494387 -0.01662958311616886 -0.005817565207072116 
0.004087083831918715 -0.001723899120515795 -0.002357448341721869 
0.01335835476508227 -0.0001790824004506295 -0.01227888375724393 
0.005406645055008387 -0.001723310460077770 -0.003798928385536432 
0.004087083831918715 -0.001723899120515795 -0.002357448341721869 
0.004087083831918715 -0.001723899120515795 -0.002357448341721869 
0.01187177130936025 -0.006680203583470634 -0.007951431908412424 
0.004087083831918715 -0.001723899120515795 -0.002357448341721869 
0.004087083831918715 -0.001723899120515795 -0.002357448341721869 
0.004087083831918715 -0.001723899120515795 -0.002357448341721869 
0.004087083831918715 -0.001723899120515795 -0.002357448341721869 
-0.003650274417421949 0.01560719772179613 -0.01328779267085630 
0.004087083831918715 -0.001723899120515795 -0.002357448341721869 
0.004087083831918715 -0.001723899120515795 -0.002357448341721869 
0.004087083831918715 -0.001723899120515795 -0.002357448341721869 
0.004087083831918715 -0.001723899120515795 -0.002357448341721869 
0.004087083831918715 -0.001723899120515795 -0.002357448341721869 
-0.003102769561607502 0.005993972430227615 -0.002416569341240908 
0.005369352273708290 -0.002014411057438140 -0.002659794402808200 
-0.03407160418808868 -0.01588249069094906 0.04697306832217586 
0.004087083831918715 -0.001723899120515795 -0.002357448341721869 
0.004087083831918715 -0.001723899120515795 -0.002357448341721869 
0.009272051786950536 -0.002601415837561289 -0.006741805033347766 
0.004087083831918715 -0.001723899120515795 -0.002357448341721869 
0.001515745602274010 0.0005816296845510103 -0.002372057987318182 
0.004087083831918715 -0.001723899120515795 -0.002357448341721869 
0.004087083831918715 -0.001723899120515795 -0.002357448341721869 
0.004087083831918715 -0.001723899120515795 -0.002357448341721869 
0.004087083831918715 -0.001723899120515795 -0.002357448341721869 
0.01266190493319421 -0.01417243129403489 -0.002321808180101110 
0.004087083831918715 -0.001723899120515795 -0.002357448341721869 
0.004087083831918715 -0.001723899120515795 -0.002357448341721869 
0.004440908285097898 -0.001724149177591187 -0.003826359217590059 
0.002877480890195533 0.02012117162889810 -0.01863893869680373 
0.004087083831918715 -0.001723899120515795 -0.002357448341721869 
0.004087083831918715 -0.001723899120515795 -0.002357448341721869 
0.004087083831918715 -0.001723899120515795 -0.002357448341721869 
0.004087083831918715 -0.001723899120515795 -0.002357448341721869 
0.01302043037152212 -0.007558902483335813 -0.004967535679115119 
0.002676062168880512 -0.002080229357892401 -0.0006178512539676528 
0.002676062168880512 -0.002080229357892401 -0.0006178512539676528 
0.04677418146177578 -0.02720257359771171 -0.03595187735270807 
0.005809871468193545 -0.004070377041672785 -0.002232622890550870 
0.002676062168880512 -0.002080229357892401 -0.0006178512539676528 
0.002676062168880512 -0.002080229357892401 -0.0006178512539676528 
0.005280614563271527 -0.003260041259126998 -0.002091387923406066 
0.002676062168880512 -0.002080229357892401 -0.0006178512539676528 
0.002676062168880512 -0.002080229357892401 -0.0006178512539676528 
0.002676204180487709 -0.003499666658178651 -0.0006185827162024011 
0.002676062168880512 -0.002080229357892401 -0.0006178512539676528 
0.04154454893180308 -0.02963937322068276 -0.01614491482892946 
0.01850521308689102 -0.02789115504443459 0.005679890934133428 
0.02334823190783381 -0.01257489060676788 -0.009082031611174077 
0.004205520097332244 -0.003579663475984274 -0.0006150923925360144 
0.01584560561049555 -0.01212618466635867 -0.002942601408534020 
0.007783196096733390 -0.006547846217812793 -0.001157964808445101 
0.005280614563271527 -0.003260041259126998 -0.002091387923406066 
0.03394955345318480 -0.03097497396191022 -0.007416962761085010 
-0.04381451221864464 0.02946448467724033 0.01753342807566514 
0.002676062168880512 -0.002080229357892401 -0.0006178512539676528 
-0.003959136472698631 0.005207850803705904 -0.001104884688081899 
0.01031218650442927 0.009342674888578540 -0.01816598913203454 
0.002676062168880512 -0.002080229357892401 -0.0006178512539676528 
0.002676062168880512 -0.002080229357892401 -0.0006178512539676528 
0.002676062168880512 -0.002080229357892401 -0.0006178512539676528 
0.005616587353483817 0.007115387871461897 -0.01324396033622885 
0.002676062168880512 -0.002080229357892401 -0.0006178512539676528 
-0.01190617907172640 0.01683819704483395 -0.005434213414165688 
0.002676062168880512 -0.002080229357892401 -0.0006178512539676528 
0.002676062168880512 -0.002080229357892401 -0.0006178512539676528 
-0.04413376976598660 0.05279687148188480 -0.008464872162168954 
-0.02353071250972470 0.03066222511507337 -0.006530006676649952 
0.002676062168880512 -0.002080229357892401 -0.0006178512539676528 
0.01897575908921034 -0.01392031033075177 -0.005979987885317205 
0.002676062168880512 -0.002080229357892401 -0.0006178512539676528 
0.002675514072704965 -0.002080375014299808 -0.0006223332863810209 
-0.01000877630565532 0.003868888644368362 0.005029642584616217 
0.002676062168880512 -0.002080229357892401 -0.0006178512539676528 
0.002676062168880512 -0.002080229357892401 -0.0006178512539676528 
0.002676062168880512 -0.002080229357892401 -0.0006178512539676528 
-0.02527833651323006 0.02843608580437331 -0.001955339403810027 
0.002676062168880512 -0.002080229357892401 -0.0006178512539676528 
0.002676062168880512 -0.002080229357892401 -0.0006178512539676528 
0.002676062168880512 -0.002080229357892401 -0.0006178512539676528 
0.002676062168880512 -0.002080229357892401 -0.0006178512539676528 
0.009546284600135067 -0.003987747778670988 -0.005716720780513934 
0.002676062168880512 -0.002080229357892401 -0.0006178512539676528 
0.002676062168880512 -0.002080229357892401 -0.0006178512539676528 
0.002676062168880512 -0.002080229357892401 -0.0006178512539676528 
0.002676062168880512 -0.002080229357892401 -0.0006178512539676528 
0.002676062168880512 -0.002080229357892401 -0.0006178512539676528 
0.01123840748174953 -0.005470914378295440 -0.005453056105713154 
0.002676062168880512 -0.002080229357892401 -0.0006178512539676528 
0.002676062168880512 -0.002080229357892401 -0.0006178512539676528 
-0.07176386948877903 -0.01238440040469850 0.08431781592056148 
-0.003043557246178826 0.001384217970199500 -0.001108931143423821 
0.002676062168880512 -0.002080229357892401 -0.0006178512539676528 
0.007157194515990902 -0.003253026709920858 -0.002613757499858031 
0.002676062168880512 -0.002080229357892401 -0.0006178512539676528 
0.002676062168880512 -0.002080229357892401 -0.0006178512539676528 
0.002676062168880512 -0.002080229357892401 -0.0006178512539676528 
0.01457314746223104 -0.01286647388725889 -0.003172704963714609 
