solver_type L2R_L2LOSS_SVC
nr_class 3
label 0 1 2
nr_feature 16789
bias 1.000000000000000
w
5.924881884714515e-07 -0.0003328900253448685 2.854321327150537e-08 
-0.006138409675551219 0.006512339108859004 -0.0005245172087589085 
5.924881884714515e-07 -0.0003328900253448685 2.854321327150537e-08 
0.003468722588694110 -0.0009414060904983437 -0.001475814370193198 
5.924881884714515e-07 -0.0003328900253448685 2.854321327150537e-08 
0.01452662001511855 -0.006438649660852035 -0.02459483744091727 
0.001441983276907869 -0.0003329342793315845 -0.002414682490684200 
0.1515300727399094 -0.1218100080676576 -0.1909031834305854 
5.924881884714515e-07 -0.0003328900253448685 2.854321327150537e-08 
5.924881884714515e-07 -0.0003328900253448685 2.854321327150537e-08 
5.924881884714515e-07 -0.0003328900253448685 2.854321327150537e-08 
5.924881884714515e-07 -0.0003328900253448685 2.854321327150537e-08 
-0.001147411790095451 0.001527307092483159 -0.0001881700939553315 
0.007947691447998456 -0.006605688970084167 -0.003987747577551722 
-0.06450148399188387 0.06850047093346831 -0.01387299824827779 
5.924881884714515e-07 -0.0003328900253448685 2.854321327150537e-08 
5.924881884714515e-07 -0.0003328900253448685 2.854321327150537e-08 
0.04625004246589746 -0.005188770066446786 -0.06430538629286034 
5.924881884714515e-07 -0.0003328900253448685 2.854321327150537e-08 
-0.01303711967534297 0.01304736670404274 -0.0007985588165576306 
5.924881884714515e-07 -0.0003328900253448685 2.854321327150537e-08 
0.1862483970196036 -0.1142515003706201 -0.1200942766909515 
5.924881884714515e-07 -0.0003328900253448685 2.854321327150537e-08 
0.04690188750839303 -0.04740939158970549 -0.005367234324036128 
-0.002915861035163110 0.02208669594781724 -0.03349966108809927 
0.01681376370585503 -0.01307415103827773 -0.01056532510366108 
1.475711157418192e-05 -0.004982820303956429 -0.008338378528873076 
5.924881884714515e-07 -0.0003328900253448685 2.854321327150537e-08 
0.006113209649298342 -0.003628182007714516 -0.004661736398790261 
5.924881884714515e-07 -0.0003328900253448685 2.854321327150537e-08 
5.924881884714515e-07 -0.0003328900253448685 2.854321327150537e-08 
5.924881884714515e-07 -0.0003328900253448685 2.854321327150537e-08 
0.03131841490457618 -0.02257800983808772 -0.04443379805421627 
0.01369609699378661 -0.01370925120261997 -0.002570280534275390 
0.05277498961414123 -0.04795600979655260 -0.03474833315123715 
5.924881884714515e-07 -0.0003328900253448685 2.854321327150537e-08 
5.924881884714515e-07 -0.0003328900253448685 2.854321327150537e-08 
0.02367339192814716 -0.02116595144916596 -0.008431028576942178 
0.01851868557941475 -0.02263439164579505 0.001516071627887508 
5.924881884714515e-07 -0.0003328900253448685 2.854321327150537e-08 
-0.006162622678033439 0.006638924298199003 -0.0005804428426019994 
5.924881884714515e-07 -0.0003328900253448685 2.854321327150537e-08 
5.924881884714515e-07 -0.0003328900253448685 2.854321327150537e-08 
-0.02017434667358280 0.007273849385598109 0.01208268697075829 
0.07810713223851713 -0.05753496997486843 -0.03586738034797407 
0.04101750457674513 -0.02680294422452661 -0.02511575164731942 
0.0001816750611750927 0.001805268612600873 -0.008254480775902706 
-0.005243305133958289 -0.007926091277809160 0.008872138148920463 
-0.002208598245440767 -0.004751691724999592 -0.03028311796195169 
5.924881884714515e-07 -0.0003328900253448685 2.854321327150537e-08 
0.03907124004623507 -0.02769503828870432 -0.03026898160359896 
0.06431774041024457 -0.04740037851582326 -0.07115839843757397 
5.924881884714515e-07 -0.0003328900253448685 2.854321327150537e-08 
5.924881884714515e-07 -0.0003328900253448685 2.854321327150537e-08 
5.924881884714515e-07 -0.0003328900253448685 2.854321327150537e-08 
5.924881884714515e-07 -0.0003328900253448685 2.854321327150537e-08 
5.924881884714515e-07 -0.0003328900253448685 2.854321327150537e-08 
5.924881884714515e-07 -0.0003328900253448685 2.854321327150537e-08 
5.924881884714515e-07 -0.0003328900253448685 2.854321327150537e-08 
0.001364781810188610 -0.001123578924841800 -0.0006219709376019183 
0.002369253134677901 0.0005150754264402206 -0.007296373623620651 
5.924881884714515e-07 -0.0003328900253448685 2.854321327150537e-08 
5.924881884714515e-07 -0.0003328900253448685 2.854321327150537e-08 
5.924881884714515e-07 -0.0003328900253448685 2.854321327150537e-08 
5.924881884714515e-07 -0.0003328900253448685 2.854321327150537e-08 
5.924881884714515e-07 -0.0003328900253448685 2.854321327150537e-08 
-0.04974636882854245 0.04262240611864275 0.0006577517390392543 
-0.01514587216305101 0.003315666829933192 0.004085991132372466 
5.924881884714515e-07 -0.0003328900253448685 2.854321327150537e-08 
5.924881884714515e-07 -0.0003328900253448685 2.854321327150537e-08 
0.02210818856306867 -0.005159020116032195 -0.03003745139600445 
5.924881884714515e-07 -0.0003328900253448685 2.854321327150537e-08 
0.003125884226512832 -0.002973064529303175 -0.002126681362279096 
5.924881884714515e-07 -0.0003328900253448685 2.854321327150537e-08 
5.924881884714515e-07 -0.0003328900253448685 2.854321327150537e-08 
5.924881884714515e-07 -0.0003328900253448685 2.854321327150537e-08 
0.02620937999535897 -0.01815440620277144 -0.01920132227636038 
5.924881884714515e-07 -0.0003328900253448685 2.854321327150537e-08 
-0.01656058075323031 0.0006015802171952773 0.01213459385967637 
5.924881884714515e-07 -0.0003328900253448685 2.854321327150537e-08 
0.005550799539475283 -0.004678095405588656 -0.0009330510162442369 
5.924881884714515e-07 -0.0003328900253448685 2.854321327150537e-08 
-0.0001238327574169979 -0.01437184296803268 0.01001796605953674 
5.924881884714515e-07 -0.0003328900253448685 2.854321327150537e-08 
-0.005591682710189396 0.005648803595535147 -0.0005841947364632393 
0.008474820560019431 -0.003249565827639810 -0.005373913973946607 
5.924881884714515e-07 -0.0003328900253448685 2.854321327150537e-08 
5.924881884714515e-07 -0.0003328900253448685 2.854321327150537e-08 
5.924881884714515e-07 -0.0003328900253448685 2.854321327150537e-08 
-0.001972910094991215 0.003828501516510404 -0.002312327824314123 
0.02815539416306299 -0.01803370877900397 -0.02206562342337163 
5.924881884714515e-07 -0.0003328900253448685 2.854321327150537e-08 
0.003861764334070099 -0.003182840598611932 -0.002912543118408839 
5.924881884714515e-07 -0.0003328900253448685 2.854321327150537e-08 
0.008641474405990637 -0.005245018756254741 -0.006828906049012408 
5.924881884714515e-07 -0.0003328900253448685 2.854321327150537e-08 
5.924881884714515e-07 -0.0003328900253448685 2.854321327150537e-08 
-0.02827306064947746 0.03354538644261235 -0.004364069728538634 
5.924881884714515e-07 -0.0003328900253448685 2.854321327150537e-08 
5.924881884714515e-07 -0.0003328900253448685 2.854321327150537e-08 
0.03250498560730181 -0.03310129876292939 -0.01248319269196017 
5.924881884714515e-07 -0.0003328900253448685 2.854321327150537e-08 
5.924881884714515e-07 -0.0003328900253448685 2.854321327150537e-08 
5.924881884714515e-07 -0.0003328900253448685 2.854321327150537e-08 
5.924881884714515e-07 -0.0003328900253448685 2.854321327150537e-08 
0.009715012504087931 -0.008626933148295253 -0.004312071942607985 
0.0006757709575149693 0.001914006077483299 -0.001603892200195384 
5.924881884714515e-07 -0.0003328900253448685 2.854321327150537e-08 
5.924881884714515e-07 -0.0003328900253448685 2.854321327150537e-08 
5.924881884714515e-07 -0.0003328900253448685 2.854321327150537e-08 
0.002584980002022140 -0.0008506809000128775 -0.002860872922471738 
0.01388930520259458 -0.01032851387934019 -0.003610683866123870 
5.924881884714515e-07 -0.0003328900253448685 2.854321327150537e-08 
0.01508634377823632 -0.01256407903471813 -0.006975100990316415 
5.924881884714515e-07 -0.0003328900253448685 2.854321327150537e-08 
5.924881884714515e-07 -0.0003328900253448685 2.854321327150537e-08 
5.924881884714515e-07 -0.0003328900253448685 2.854321327150537e-08 
0.06223926292689506 -0.05379971685628333 -0.03626944503531408 
5.924881884714515e-07 -0.0003328900253448685 2.854321327150537e-08 
5.924881884714515e-07 -0.0003328900253448685 2.854321327150537e-08 
5.924881884714515e-07 -0.0003328900253448685 2.854321327150537e-08 
5.924881884714515e-07 -0.0003328900253448685 2.854321327150537e-08 
5.924881884714515e-07 -0.0003328900253448685 2.854321327150537e-08 
5.924881884714515e-07 -0.0003328900253448685 2.854321327150537e-08 
0.007492686026251467 -0.007653926961124083 -0.0005763996109478031 
5.924881884714515e-07 -0.0003328900253448685 2.854321327150537e-08 
5.924881884714515e-07 -0.0003328900253448685 2.854321327150537e-08 
5.924881884714515e-07 -0.0003328900253448685 2.854321327150537e-08 
0.01634254174693546 -0.01707071842867907 0.0001087361871802192 
5.924881884714515e-07 -0.0003328900253448685 2.854321327150537e-08 
5.924881884714515e-07 -0.0003328900253448685 2.854321327150537e-08 
5.924881884714515e-07 -0.0003328900253448685 2.854321327150537e-08 
5.924881884714515e-07 -0.0003328900253448685 2.854321327150537e-08 
0.001307491934840802 -0.001404948170575928 -0.0005284614478124152 
5.924881884714515e-07 -0.0003328900253448685 2.854321327150537e-08 
5.924881884714515e-07 -0.0003328900253448685 2.854321327150537e-08 
5.924881884714515e-07 -0.0003328900253448685 2.854321327150537e-08 
5.924881884714515e-07 -0.0003328900253448685 2.854321327150537e-08 
5.924881884714515e-07 -0.0003328900253448685 2.854321327150537e-08 
5.924881884714515e-07 -0.0003328900253448685 2.854321327150537e-08 
-0.01908117501638159 0.01260869574287899 0.004062537754922294 
-0.003871957608090833 0.003666472418844493 1.584127708746145e-07 
5.924881884714515e-07 -0.0003328900253448685 2.854321327150537e-08 
5.924881884714515e-07 -0.0003328900253448685 2.854321327150537e-08 
5.924881884714515e-07 -0.0003328900253448685 2.854321327150537e-08 
-0.02141520895173113 0.01472528425098973 0.005246390780771151 
5.924881884714515e-07 -0.0003328900253448685 2.854321327150537e-08 
5.924881884714515e-07 -0.0003328900253448685 2.854321327150537e-08 
5.924881884714515e-07 -0.0003328900253448685 2.854321327150537e-08 
-0.05716029132793186 0.04735852954450208 -0.02976012101763388 
5.924881884714515e-07 -0.0003328900253448685 2.854321327150537e-08 
0.006581919096547984 -0.01652361381814387 0.008435138389935060 
0.008582741756552298 -0.006059197853850249 -0.005543197515855261 
0.008582741756552298 -0.006059197853850249 -0.005543197515855261 
0.02005866503017417 -0.01460599667511319 -0.009074187140522846 
0.01844971246944646 -0.01135573407833514 -0.01832177187046529 
-0.004435182771383484 0.007553711552604598 -0.006017416941831904 
0.008582741756552298 -0.006059197853850249 -0.005543197515855261 
0.006737382280719885 0.005078072597408499 -0.03319228195190937 
0.003147101071985423 0.0009112614130183433 -0.01167391016500069 
0.01981399379475355 -0.01108402912100699 -0.01300445163385990 
0.008582741756552298 -0.006059197853850249 -0.005543197515855261 
0.008582741756552298 -0.006059197853850249 -0.005543197515855261 
0.01550737286373952 -0.01106408001398167 -0.009975980188357715 
0.008582741756552298 -0.006059197853850249 -0.005543197515855261 
0.005523700504610199 -0.002201636100596069 -0.007624831528996691 
0.01917269045760628 -0.01356827753608847 -0.01221930008653968 
-0.01906940156040812 0.009234976574377267 0.003930743266440283 
0.008934906078662630 -0.006054831644343717 -0.005543132928704078 
0.008582741756552298 -0.006059197853850249 -0.005543197515855261 
0.01177565859527330 0.01211801610013068 -0.04930422214847220 
0.01020514313170284 -0.03116651973457868 -0.01671867965772315 
-0.04031706029997655 0.01540057264186501 -0.003533217536092082 
0.08294843952389165 -0.05974180657699502 -0.05280119360755136 
0.002254212335529608 0.0001456951743013831 -0.009941436122428409 
0.01116451871164069 -0.02331382142029537 0.006868260995057086 
0.008709648163370913 -0.01304760675816639 -0.001162253546420524 
0.01374818936006659 0.01087739879119492 -0.03737639193653058 
0.02144924148850816 -0.02264348804976949 -0.002740967003861365 
0.01331670556442962 -0.001424999739353670 -0.02194865169362857 
0.005228218077635649 -0.006869075533990953 -0.001304777916009131 
-0.008100995497787209 0.001596761617532588 -0.001864650001723267 
0.01244277644256024 -0.007841823660800456 -0.009557444244042477 
0.05050860573200169 -0.08225552678032635 0.007106066630505477 
0.008582741756552298 -0.006059197853850249 -0.005543197515855261 
-0.005535499901229538 -0.005779938845713903 0.006007926291985634 
0.008582741756552298 -0.006059197853850249 -0.005543197515855261 
0.008582741756552298 -0.006059197853850249 -0.005543197515855261 
0.008582741756552298 -0.006059197853850249 -0.005543197515855261 
0.009106819701611571 -0.007856902139762761 -0.005543181154952708 
0.004115205875888112 -0.01324914895599213 0.004613591812369610 
0.01474861840401887 -0.01408840281634290 -0.005198263005709224 
0.006625129886145774 -0.007583898069919726 -0.002996558868226246 
0.009417853993423504 -0.001761123226971546 -0.006545266174846339 
0.01380877934043875 9.057614273662187e-06 -0.01324376500116495 
0.006400280769299997 0.01257060749931563 -0.02176320744439864 
-0.006432825047987013 -0.003336315016423277 0.01026524441980926 
0.01380877934043875 9.057614273662187e-06 -0.01324376500116495 
0.01380877934043875 9.057614273662187e-06 -0.01324376500116495 
0.01380877934043875 9.057614273662187e-06 -0.01324376500116495 
0.01380877934043875 9.057614273662187e-06 -0.01324376500116495 
0.01380877934043875 9.057614273662187e-06 -0.01324376500116495 
0.01380877934043875 9.057614273662187e-06 -0.01324376500116495 
-0.01650877924780830 0.008009821099220087 -0.001194644683170757 
-0.002041899700971767 -0.001566134175178070 0.003566745593490653 
0.04024704682805851 -0.02152432198704192 -0.02407349847433842 
-0.002041899700971767 -0.001566134175178070 0.003566745593490653 
0.01473775770329987 -0.002354913401347437 -0.01560130912831156 
0.01380877934043875 9.057614273662187e-06 -0.01324376500116495 
0.01918034284006268 -0.004280328084476704 -0.01801573045465475 
0.01440616746574028 0.001803969972813904 -0.02543008849814960 
-0.01381645650887187 0.02568366055656886 -0.01965230764203050 
0.03485006459236442 -0.004852483197809743 -0.02998115439544712 
0.008138068089982721 -0.01438186025725135 0.004962304169763218 
0.01052592293267242 -0.009701900757376628 -0.005860840817438568 
0.01380877934043875 9.057614273662187e-06 -0.01324376500116495 
0.05013772448083481 -0.02626478319626541 -0.03494772682989625 
-0.007590187323992573 0.004648877512887638 0.003544627894701508 
-0.04343126819787996 0.04001475871997221 -0.005051097317366225 
-0.01512390432315342 0.01213441409114089 0.001334845094895066 
-0.002812304936558932 -0.002434176887067214 0.006361246739876833 
-0.05211162751482663 0.06928795731916493 -0.02780167468976523 
-0.01068482941475060 0.01358391811860415 -0.007604669372374168 
0.01380877934043875 9.057614273662187e-06 -0.01324376500116495 
0.008608325299407443 -0.004310801652350143 -0.004086946908847837 
-0.002041899700971767 -0.001566134175178070 0.003566745593490653 
0.006872194047432639 -0.0009605210163149862 -0.005595718532847362 
-0.001900455224395384 0.001731411443097012 -0.003386133766171350 
0.003651411508550147 0.01369681586606352 -0.01730756063948213 
-0.002041899700971767 -0.001566134175178070 0.003566745593490653 
-0.0007532509579833167 -0.01324201342990304 0.009883240367190843 
-0.002041899700971767 -0.001566134175178070 0.003566745593490653 
0.004782181875010331 -0.006023093765194215 -0.0005210391395863235 
-0.03997920843753580 -0.02859015453837245 0.06028652429048269 
0.002269915555952949 0.003111312492950639 -0.009196636886648669 
-0.002041899700971767 -0.001566134175178070 0.003566745593490653 
-0.01668605051845648 -0.05825801255095259 0.04908523023696285 
0.0005919340586869961 -0.004013811605756907 0.003556201427803148 
-0.002041899700971767 -0.001566134175178070 0.003566745593490653 
0.03834367840944208 -0.06897906772432008 0.006803143357347435 
-0.002041899700971767 -0.001566134175178070 0.003566745593490653 
-0.002041426796012762 -0.001565892554995711 0.003566685512470496 
0.0006277631696050961 -0.01154159043738259 0.01048823630077632 
-0.002041899700971767 -0.001566134175178070 0.003566745593490653 
-0.002128148647031815 -0.003445988775845522 0.004910297808517147 
-0.002041899700971767 -0.001566134175178070 0.003566745593490653 
-0.009628615851805154 -0.005431108415563871 0.01533778120886260 
0.01380877934043875 9.057614273662187e-06 -0.01324376500116495 
0.002183069199620137 -0.003362687412106889 8.745927132273501e-05 
0.01225512690375197 -0.01212133475557726 -0.001680409396788780 
-0.01050312691547570 0.006998011186303117 0.006074657344486930 
0.005013519390431751 -0.01511329372922499 0.006494020550756467 
0.02016514414465616 -0.01332325023067083 -0.01302562066740069 
0.01781271160059981 -0.01567542835287708 -0.004716360887628817 
0.008827210508960761 -0.006043501068500098 -0.001201530322355404 
-0.004080596549007973 -0.005426199155586257 0.01014974937986631 
-0.04107068494870551 -0.03345479457001427 0.06442626927835018 
-0.0002650301375401230 0.002470412456579557 -0.004011677525680801 
0.01635443928642962 -0.0007915445963828970 -0.01419331264316392 
0.0005037602450190974 -0.002366736385834629 0.002617197951491676 
-0.002041899700971767 -0.001566134175178070 0.003566745593490653 
-0.001901237116367621 0.004775652029123200 -0.001892826530044829 
-0.01167540922456586 -0.002456153366016812 0.01437144296757226 
0.003164411085205206 -0.003820805299962214 0.0009607419692496916 
-0.06516793427693189 -0.008097866210274186 0.06639680099821124 
-0.01294149775887298 -0.003286295564138342 0.01474183413061543 
-0.002041899700971767 -0.001566134175178070 0.003566745593490653 
0.04130327841599898 -0.02291889467552773 -0.02591835101717577 
-0.005462901102456314 0.005461382710596347 0.0002760061235226075 
-0.006258785296197114 0.004467207389240484 -0.0009296118235230807 
-0.003893772534404523 -0.006292419147537362 0.01028850916035977 
0.009924229183640599 -0.01734126990893131 -0.001178636274796285 
-0.01349397166089761 0.01416908603169560 -0.002476478581603190 
-0.002041899700971767 -0.001566134175178070 0.003566745593490653 
0.01315563039257365 -0.01253701058156323 -0.006095615351573581 
-0.002041899700971767 -0.001566134175178070 0.003566745593490653 
0.0007476474328336724 -0.01347220745065510 0.01159708839592643 
0.05294426238118295 -0.03899261046337701 -0.03546931922263223 
0.005318253034259695 -0.007064038578708156 0.0007539401253345414 
-0.008978484993977878 -0.002535712805766718 0.01121479206180824 
-0.002041899700971767 -0.001566134175178070 0.003566745593490653 
-0.04572970743677576 0.009108141879916588 0.03374459671275967 
0.006171502614429864 -0.003424277097967609 -0.001457828371603754 
-0.002629610346745210 -0.0008520696644059489 0.001080310237578218 
-0.002041899700971767 -0.001566134175178070 0.003566745593490653 
0.01527187741221738 -0.02276458957075898 0.005467081181827149 
0.0004762202780681918 -0.001653419899703352 0.001448669494482645 
-0.01424795165896284 0.01570525021257121 -0.002442396856173081 
-0.002040563503716265 -0.001567098522748631 0.003566745779720546 
0.03437038285028895 -0.02629412084397930 -0.01497058835399188 
5.245921270127561e-05 -0.002264249672524196 0.001217767327945299 
0.02445462092322492 -0.02411391293155678 -0.006471056345718970 
-0.05891502451514721 0.03324517419979161 0.02647797773609670 
0.01380877934043875 9.057614273662187e-06 -0.01324376500116495 
-0.02869406033197015 0.02865129416628925 -0.002980564278215311 
-0.01051281379370044 -0.03657190161864430 0.01920105471180518 
0.01332753076572107 0.007942630276708858 -0.02432180014245270 
-0.002041899700971767 -0.001566134175178070 0.003566745593490653 
0.01602132119423736 -0.02221197368429078 -0.006481102441519834 
-0.0005577847261675952 -0.002110044254191191 0.002723187261173586 
-0.002041899700971767 -0.001566134175178070 0.003566745593490653 
-0.0007378305913485439 -0.01343495586518107 0.01222898105261324 
0.006576496298460940 -0.003654682769909351 -0.008581853932356795 
-0.002041899700971767 -0.001566134175178070 0.003566745593490653 
-0.009717794522342815 0.001524558060654815 0.006560910140319718 
-0.02992361451444239 0.03968784831527507 -0.01756052296763190 
0.003848240017671006 -0.005996370933448241 -0.0004133428855137455 
0.02414580229344576 0.003245033623994652 -0.02647626611597415 
-0.004240749514005411 -0.002373365709084884 0.007457144628148506 
-0.002041899700971767 -0.001566134175178070 0.003566745593490653 
0.0004858474128648465 -0.004436490640381617 0.002897990942746909 
-0.05516449021951712 0.04514816917502158 0.003871079585643268 
-0.002041899700971767 -0.001566134175178070 0.003566745593490653 
-0.004338410459118191 0.01432414549496896 -0.01561671488801852 
0.0001458303808894474 -0.002104855075335426 0.002339368437388949 
-0.005541304389390578 -0.004625539252504564 0.009862374244344859 
0.004140593665562976 -0.003311605047571209 -0.002455723546643828 
0.003274242312742222 -0.005822713119121825 0.003450417649274387 
0.005834225615116997 -0.006096062033107323 -0.0007375395669012636 
-0.005228663852099305 -0.006262351778027442 0.01089896435878968 
-0.002041899700971767 -0.001566134175178070 0.003566745593490653 
0.01474573963976067 -0.006417378911924037 -0.007820484104312044 
-0.008681765371085198 -0.02229109158212273 0.02689408216352651 
0.02312759452332386 -0.01637361937072490 -0.01225160781948701 
0.01910334587932187 -0.02093605322996941 -0.006549855162057145 
0.01400055073354759 -0.01410272408767362 -0.002098320524413946 
0.08173505791259707 -0.03870209283582477 -0.06455451814629630 
-0.01201654157086812 0.01091216373908760 0.002765528689275521 
-0.002041899700971767 -0.001566134175178070 0.003566745593490653 
0.002934248839658889 -0.001625170494804987 -0.0001163672416203190 
0.001675435596727880 -0.0003135435939363356 1.738512607546648e-07 
0.001675435596727880 -0.0003135435939363356 1.738512607546648e-07 
0.001675435596727880 -0.0003135435939363356 1.738512607546648e-07 
0.001675435596727880 -0.0003135435939363356 1.738512607546648e-07 
0.001700823538883506 -0.0005363556118383836 1.982762969462941e-07 
0.006834422697101363 -0.01327475462626228 -0.004614059341349813 
0.02111463628817485 -0.01132322641333540 -0.01681271405719658 
0.001675435596727880 -0.0003135435939363356 1.738512607546648e-07 
0.002461628138437590 -0.01149224658044124 0.008342579559185000 
-0.005727468161661880 0.008313403721460371 -0.0006837068566175426 
0.001442313332090210 -0.005919696564498419 -0.01169936768331916 
0.001675435596727880 -0.0003135435939363356 1.738512607546648e-07 
0.02856755713837602 -0.02393090199923402 -0.004217291173014452 
0.01552760339898252 -0.007578945278761422 -0.008980576554188262 
0.001675435596727880 -0.0003135435939363356 1.738512607546648e-07 
-0.007830002098845348 0.01734880840377135 -0.007147737804399163 
0.02137593981582625 -0.02065579427298172 -0.02582898774023042 
0.001675435596727880 -0.0003135435939363356 1.738512607546648e-07 
0.001675435596727880 -0.0003135435939363356 1.738512607546648e-07 
0.02894061814065721 -0.02327709733847859 -0.008935186344515190 
0.001675435596727880 -0.0003135435939363356 1.738512607546648e-07 
-0.009989158782303650 -0.001036261194803857 0.006923954733448126 
0.001675435596727880 -0.0003135435939363356 1.738512607546648e-07 
0.001675435596727880 -0.0003135435939363356 1.738512607546648e-07 
-0.006342110775582338 -0.01538541217430940 0.01869008531494077 
0.003382757423238829 -0.002022569486157514 -0.001361096452919313 
0.01347836567941611 -0.01106513523233465 -0.003175085654413314 
0.001675435596727880 -0.0003135435939363356 1.738512607546648e-07 
0.002842252676000415 -0.001431793675339172 -0.009216652306999945 
0.01818321976288002 -0.01894649761688385 -0.002319450171130278 
0.003932070758062032 -0.001974450916025999 2.899651877134260e-07 
0.05458057182367106 -0.04066475234377061 -0.02868314131320076 
-0.01372512858897580 -0.008390507813515335 0.01430311347111438 
0.003960768920499749 0.0002481741878235198 -0.01123326046222703 
0.001675435596727880 -0.0003135435939363356 1.738512607546648e-07 
-0.006949121615639744 0.01853074590331574 -0.007624522445716356 
0.001675435596727880 -0.0003135435939363356 1.738512607546648e-07 
0.001675435596727880 -0.0003135435939363356 1.738512607546648e-07 
-0.03198597735771785 0.008402237942346121 0.01580468409608663 
0.001675435596727880 -0.0003135435939363356 1.738512607546648e-07 
0.001675435596727880 -0.0003135435939363356 1.738512607546648e-07 
0.001675435596727880 -0.0003135435939363356 1.738512607546648e-07 
0.001675435596727880 -0.0003135435939363356 1.738512607546648e-07 
0.001675435596727880 -0.0003135435939363356 1.738512607546648e-07 
0.001675435596727880 -0.0003135435939363356 1.738512607546648e-07 
0.001675435596727880 -0.0003135435939363356 1.738512607546648e-07 
0.008401017742358808 -0.006002348925080846 -0.002014163379607174 
0.02840431771927235 -0.02278704694567016 -0.01071959667742885 
-0.02743387217822299 0.001818611276233480 0.02889628968210724 
-0.001898301397289444 -0.002624416918245009 0.005374797154798080 
0.001675435596727880 -0.0003135435939363356 1.738512607546648e-07 
0.001618888940687050 -0.005445870566135365 0.004663959316099199 
-0.05587025086838319 0.02464954745263450 0.009503875749071190 
0.006267577144083935 -0.003620897869054420 -0.002242989088421287 
0.001675435596727880 -0.0003135435939363356 1.738512607546648e-07 
0.001675435596727880 -0.0003135435939363356 1.738512607546648e-07 
-0.02068920426415892 0.01922486831116468 -0.001973138238154008 
0.01173643452391576 -0.008749529379625422 -0.002469992130062645 
0.001675435596727880 -0.0003135435939363356 1.738512607546648e-07 
0.007415434087151858 -0.006298785167189873 -0.002774984985578188 
0.001675435596727880 -0.0003135435939363356 1.738512607546648e-07 
0.005614934368513375 -0.001723128020089142 -0.004424146826353107 
0.007998093679644424 -0.004522806770541504 -0.003303217326499693 
0.001675435596727880 -0.0003135435939363356 1.738512607546648e-07 
0.001675435596727880 -0.0003135435939363356 1.738512607546648e-07 
0.008225089967341191 -0.01430848226591077 0.004288723855592880 
0.009763787155461250 -0.006581962326581550 -0.003276582614671213 
-0.008452879238464429 0.009896760877786024 2.070966579009044e-07 
-0.002720218884747557 -0.001626521251502349 0.006324406649953646 
0.005780585897761128 -0.003702382578036530 -0.001603875904564366 
0.001675435596727880 -0.0003135435939363356 1.738512607546648e-07 
0.001675435596727880 -0.0003135435939363356 1.738512607546648e-07 
0.001675435596727880 -0.0003135435939363356 1.738512607546648e-07 
0.004547573955661130 -0.003512372334988542 1.268390801428323e-07 
0.01187511943333981 -0.008999426319628200 -0.005966483747313530 
0.02228987646800158 -0.01303605794628937 -0.01794392429127689 
0.04984093625696763 -0.01923679260231567 -0.05633972332612196 
0.001675435596727880 -0.0003135435939363356 1.738512607546648e-07 
0.001675435596727880 -0.0003135435939363356 1.738512607546648e-07 
-0.01330023635032246 0.01420249774540434 1.924874645917386e-07 
-0.03214283330472050 0.01248993025968157 0.01988969255046132 
0.02101019900083833 -0.02196694986431409 -0.01081795993243502 
-0.009687625177053029 0.004158991937675986 0.003913989679183324 
0.001675435596727880 -0.0003135435939363356 1.738512607546648e-07 
0.001675435596727880 -0.0003135435939363356 1.738512607546648e-07 
0.006312787975894854 -0.002096333541384957 -0.003745087332316200 
0.001675435596727880 -0.0003135435939363356 1.738512607546648e-07 
0.002825136964579093 -0.002451810321867675 -0.0007676932210185682 
0.002825136964579093 -0.002451810321867675 -0.0007676932210185682 
0.002825136964579093 -0.002451810321867675 -0.0007676932210185682 
0.004744370564135484 -0.001989115478315296 -0.002971185549541011 
0.04001772432646587 -0.03021822689377735 -0.02020748663308724 
0.002825136964579093 -0.002451810321867675 -0.0007676932210185682 
0.002825136964579093 -0.002451810321867675 -0.0007676932210185682 
0.002825136964579093 -0.002451810321867675 -0.0007676932210185682 
0.02209054030457843 -0.02035732289793992 -0.008331532464163556 
-0.001370300376422746 0.002598065175526054 -0.001945951319424372 
0.002825136964579093 -0.002451810321867675 -0.0007676932210185682 
0.002825136964579093 -0.002451810321867675 -0.0007676932210185682 
0.002825136964579093 -0.002451810321867675 -0.0007676932210185682 
0.007115299337586708 -0.005938493609620441 -0.003269565566599667 
0.002825136964579093 -0.002451810321867675 -0.0007676932210185682 
0.002825136964579093 -0.002451810321867675 -0.0007676932210185682 
0.002825136964579093 -0.002451810321867675 -0.0007676932210185682 
0.002825136964579093 -0.002451810321867675 -0.0007676932210185682 
0.002825136964579093 -0.002451810321867675 -0.0007676932210185682 
0.002825136964579093 -0.002451810321867675 -0.0007676932210185682 
0.002825136964579093 -0.002451810321867675 -0.0007676932210185682 
0.002825136964579093 -0.002451810321867675 -0.0007676932210185682 
0.04614732999581322 -0.03969925821088111 -0.01891406023254736 
-0.01429027365203417 0.01729186700795982 -0.002679344944595581 
0.002825136964579093 -0.002451810321867675 -0.0007676932210185682 
-0.005248442994113354 -0.01541767805284883 0.01706695868350755 
-0.007632209694351098 0.006721990063169235 -0.002666937278260648 
0.002825136964579093 -0.002451810321867675 -0.0007676932210185682 
0.008178407385716532 -0.004910637177076884 -0.005811266220763720 
0.002825136964579093 -0.002451810321867675 -0.0007676932210185682 
0.002825136964579093 -0.002451810321867675 -0.0007676932210185682 
0.002825136964579093 -0.002451810321867675 -0.0007676932210185682 
0.002825136964579093 -0.002451810321867675 -0.0007676932210185682 
0.002825136964579093 -0.002451810321867675 -0.0007676932210185682 
-0.04439271484430474 0.04791185403105371 -0.003802037318596278 
0.002825136964579093 -0.002451810321867675 -0.0007676932210185682 
0.002825136964579093 -0.002451810321867675 -0.0007676932210185682 
0.002825136964579093 -0.002451810321867675 -0.0007676932210185682 
0.002825136964579093 -0.002451810321867675 -0.0007676932210185682 
0.002825136964579093 -0.002451810321867675 -0.0007676932210185682 
0.006196057943814787 -0.001026154432917561 -0.006143568938890899 
0.002825136964579093 -0.002451810321867675 -0.0007676932210185682 
0.002825136964579093 -0.002451810321867675 -0.0007676932210185682 
0.002825136964579093 -0.002451810321867675 -0.0007676932210185682 
0.002825136964579093 -0.002451810321867675 -0.0007676932210185682 
0.002825136964579093 -0.002451810321867675 -0.0007676932210185682 
0.005869488306693916 -0.01258656407809690 0.0007335480721013773 
-0.01228935590471991 0.008283060135214742 -0.0003640565865678892 
0.002825136964579093 -0.002451810321867675 -0.0007676932210185682 
0.002825136964579093 -0.002451810321867675 -0.0007676932210185682 
0.002825136964579093 -0.002451810321867675 -0.0007676932210185682 
0.003401067470874167 0.0001060577937415956 -0.002989237372406837 
0.002825136964579093 -0.002451810321867675 -0.0007676932210185682 
0.002825136964579093 -0.002451810321867675 -0.0007676932210185682 
0.002824283795326277 -0.002451488091634512 -0.0007676558810396570 
0.002825136964579093 -0.002451810321867675 -0.0007676932210185682 
0.002825136964579093 -0.002451810321867675 -0.0007676932210185682 
0.01168338523094029 -0.003968968180349981 -0.01100348717546251 
0.03849496489746677 -0.02727802224470768 -0.03556413322738250 
0.02049657384136197 -0.02208579009907872 -0.003804948678918859 
0.002825136964579093 -0.002451810321867675 -0.0007676932210185682 
0.002825136964579093 -0.002451810321867675 -0.0007676932210185682 
0.002825136964579093 -0.002451810321867675 -0.0007676932210185682 
0.002825136964579093 -0.002451810321867675 -0.0007676932210185682 
0.02770824318403973 -0.009074289843814750 -0.03054764514187093 
0.002825136964579093 -0.002451810321867675 -0.0007676932210185682 
0.002825136964579093 -0.002451810321867675 -0.0007676932210185682 
0.01259163940810933 -0.01249417956895441 -0.003426156568686058 
0.002666703920029978 -0.003558825806368194 -0.0002391888590768104 
-0.02703089900712109 0.03329346127912702 -0.008002369370247538 
0.002666703920029978 -0.003558825806368194 -0.0002391888590768104 
0.002666703920029978 -0.003558825806368194 -0.0002391888590768104 
0.002666703920029978 -0.003558825806368194 -0.0002391888590768104 
-0.004059988831559475 0.008966698965031014 -0.009220478172038730 
0.002666703920029978 -0.003558825806368194 -0.0002391888590768104 
0.03488117322784636 -0.01483641029174573 -0.05222738195629242 
0.002666703920029978 -0.003558825806368194 -0.0002391888590768104 
0.002666703920029978 -0.003558825806368194 -0.0002391888590768104 
0.01373112637836079 -0.01209521319864788 -0.007654091446764964 
0.002666703920029978 -0.003558825806368194 -0.0002391888590768104 
0.002666703920029978 -0.003558825806368194 -0.0002391888590768104 
0.002666703920029978 -0.003558825806368194 -0.0002391888590768104 
0.002666703920029978 -0.003558825806368194 -0.0002391888590768104 
0.002666703920029978 -0.003558825806368194 -0.0002391888590768104 
0.002666703920029978 -0.003558825806368194 -0.0002391888590768104 
0.008005754668596116 -0.006887585911308705 -0.004799789785426325 
0.002666703920029978 -0.003558825806368194 -0.0002391888590768104 
0.002666703920029978 -0.003558825806368194 -0.0002391888590768104 
0.002666703920029978 -0.003558825806368194 -0.0002391888590768104 
0.002666703920029978 -0.003558825806368194 -0.0002391888590768104 
0.009595024774992610 -0.007540974774964448 -0.005442450614046655 
0.002666703920029978 -0.003558825806368194 -0.0002391888590768104 
0.02208713201464391 -0.01489170304990408 -0.01562384089382688 
-0.01084089962222405 0.01587987580858587 -0.01447071666967043 
0.08852997374044373 -0.05924184035178177 -0.05777366981436922 
0.005952321402674179 -0.008122479312018831 -0.004265877042597008 
-0.008696627375777819 0.01961687298697426 -0.01802821839750793 
0.002666703920029978 -0.003558825806368194 -0.0002391888590768104 
-0.009761578803727388 0.02675060899183036 -0.02426953924766978 
0.01476731477197335 -0.01145217577670469 -0.004883385150874478 
0.002666703920029978 -0.003558825806368194 -0.0002391888590768104 
0.01230317239417096 -0.009085437071365774 -0.003883206666795940 
0.002666703920029978 -0.003558825806368194 -0.0002391888590768104 
0.002666703920029978 -0.003558825806368194 -0.0002391888590768104 
0.002666703920029978 -0.003558825806368194 -0.0002391888590768104 
0.002666703920029978 -0.003558825806368194 -0.0002391888590768104 
0.002666703920029978 -0.003558825806368194 -0.0002391888590768104 
0.002666703920029978 -0.003558825806368194 -0.0002391888590768104 
0.002666703920029978 -0.003558825806368194 -0.0002391888590768104 
0.002666703920029978 -0.003558825806368194 -0.0002391888590768104 
0.002666703920029978 -0.003558825806368194 -0.0002391888590768104 
-0.01021049907882566 0.007911839345423397 -0.0002091589630859779 
0.007079884001554634 -0.008368072908457305 0.001272754037653375 
0.004605869230336588 0.0007650889285562103 -0.01701146049593243 
-0.02303030379016873 -0.01649419552242022 0.03449996643814451 
0.005538842278963229 -0.006757654547420401 -0.0002392358712574222 
0.002666703920029978 -0.003558825806368194 -0.0002391888590768104 
-0.002298205621289531 0.002775983233530179 -0.001608675262371781 
0.01349965704276447 -0.007949374601289750 -0.007765509692444085 
0.002666703920029978 -0.003558825806368194 -0.0002391888590768104 
0.002666703920029978 -0.003558825806368194 -0.0002391888590768104 
0.002666703920029978 -0.003558825806368194 -0.0002391888590768104 
0.002666703920029978 -0.003558825806368194 -0.0002391888590768104 
0.002666703920029978 -0.003558825806368194 -0.0002391888590768104 
0.002666703920029978 -0.003558825806368194 -0.0002391888590768104 
0.02312535386113143 -0.002178649449399094 -0.03045900472185693 
-0.005651848570990529 0.01282365816266010 -0.008626163123234570 
-0.009590002538535189 -0.001512381816813465 0.003913191360247575 
0.002666703920029978 -0.003558825806368194 -0.0002391888590768104 
-0.02364977573000386 0.01076612029597242 0.002156674493580960 
0.002666703920029978 -0.003558825806368194 -0.0002391888590768104 
0.002666703920029978 -0.003558825806368194 -0.0002391888590768104 
0.002666703920029978 -0.003558825806368194 -0.0002391888590768104 
0.002666703920029978 -0.003558825806368194 -0.0002391888590768104 
0.004833647021323518 -0.004694539841014564 -0.001120576907096843 
-0.01351900364624416 0.01037754757071636 -0.003820665794475051 
-0.003090167676709518 0.008012076202670863 -0.006191594815570803 
0.002666703920029978 -0.003558825806368194 -0.0002391888590768104 
0.002666703920029978 -0.003558825806368194 -0.0002391888590768104 
0.002666703920029978 -0.003558825806368194 -0.0002391888590768104 
-0.006468072227726266 0.006256170090044129 -0.001854648579190840 
0.002666703920029978 -0.003558825806368194 -0.0002391888590768104 
0.002666703920029978 -0.003558825806368194 -0.0002391888590768104 
0.002666703920029978 -0.003558825806368194 -0.0002391888590768104 
0.002666703920029978 -0.003558825806368194 -0.0002391888590768104 
0.002666703920029978 -0.003558825806368194 -0.0002391888590768104 
0.002666703920029978 -0.003558825806368194 -0.0002391888590768104 
0.002666703920029978 -0.003558825806368194 -0.0002391888590768104 
0.002666703920029978 -0.003558825806368194 -0.0002391888590768104 
0.004472919555974410 -0.003634733812218711 -0.001863124857027023 
0.004472919555974410 -0.003634733812218711 -0.001863124857027023 
0.004472919555974410 -0.003634733812218711 -0.001863124857027023 
0.001121984238337682 -0.002165584007330129 0.0001713272111984710 
0.004472919555974410 -0.003634733812218711 -0.001863124857027023 
0.004472919555974410 -0.003634733812218711 -0.001863124857027023 
0.004469888420706261 -0.005879113937009725 -0.001002171907128610 
0.03044728120047175 -0.02041297348787290 -0.01906740316567285 
0.009074352363352828 -0.005537512814991692 -0.006226307549226332 
0.004472919555974410 -0.003634733812218711 -0.001863124857027023 
0.002542456700058325 0.01439450729669314 -0.03456096410876735 
0.001297735717804959 -0.009816888795839458 0.005711379702855983 
-0.01985313872692054 0.02570786918351108 -0.01230104684635056 
0.004472919555974410 -0.003634733812218711 -0.001863124857027023 
-0.01890811230284524 0.01191269433827042 -0.004215017144406634 
0.004472919555974410 -0.003634733812218711 -0.001863124857027023 
0.001118395877057761 -0.004444611492359416 0.002375294742819107 
-0.05744136622290475 0.03956302070590589 0.01035949461308597 
-0.01367012271193166 0.007850445066529559 0.001698546334071271 
0.01296441697138274 -0.01093935874060623 -0.006798321643058234 
-0.001416978854037255 0.003745739713715181 -0.005767984517848860 
0.004472919555974410 -0.003634733812218711 -0.001863124857027023 
0.003426138600702941 6.682562147887822e-05 -0.003642419501508922 
0.004472919555974410 -0.003634733812218711 -0.001863124857027023 
0.004472919555974410 -0.003634733812218711 -0.001863124857027023 
0.004472919555974410 -0.003634733812218711 -0.001863124857027023 
0.008679020341174550 -0.006674717628609657 -0.004066208104367313 
0.004472919555974410 -0.003634733812218711 -0.001863124857027023 
0.01399883739261969 -0.007739529269007894 -0.008262882235688230 
0.004472919555974410 -0.003634733812218711 -0.001863124857027023 
-0.001472745288069516 -0.007978663151924607 0.008691614658641147 
0.004472919555974410 -0.003634733812218711 -0.001863124857027023 
0.01059088629745743 -0.008352573561409160 -0.003590887641380183 
-0.0007550782958715984 -0.005647602977078251 0.001932715934915433 
0.004472919555974410 -0.003634733812218711 -0.001863124857027023 
0.02846696055541400 -0.01388125749669941 -0.02572530586140857 
0.004473181710393701 -0.003632035847476337 -0.001863181521322690 
0.009840081035512049 -0.005388736570159530 -0.003904329600858329 
0.02072120515545652 -0.01514694534764453 -0.008292190582027391 
-0.01300103015227695 0.0004890875093376422 0.01175971084137029 
-0.008786072650651266 0.006817467798140217 -0.0001665417226488309 
0.001118395877057761 -0.004444611492359416 0.002375294742819107 
-0.001615465568134026 -0.009230356625390278 0.01051629648324618 
0.004473289742456201 -0.003635913513989943 -0.001863248324102581 
0.008030735145902456 -0.001611114551260827 -0.006215449276448426 
-0.001072660973347802 0.005402369312443126 -0.01147040292702465 
-0.01652780638489735 0.02154661983447243 -0.01335779192560752 
0.006245742613915822 -0.009969054912404606 -0.0006786114645706995 
0.01007394824279892 -0.004641332201457880 -0.007035472271190170 
0.004472919555974410 -0.003634733812218711 -0.001863124857027023 
0.004472919555974410 -0.003634733812218711 -0.001863124857027023 
-0.005851875900265558 0.004659175765462542 -0.001224560872047800 
0.004472919555974410 -0.003634733812218711 -0.001863124857027023 
0.01052553570175604 0.003420437057459929 -0.01362144255696605 
-0.009129096643114457 -0.004662518497922912 0.01143900697398860 
0.01208088344842218 -0.008778507221281137 -0.008271654715231617 
0.004472919555974410 -0.003634733812218711 -0.001863124857027023 
0.007018579501965275 -0.004435336022875270 -0.002812672499026000 
0.01227059377907908 -0.01712319296400660 0.0008428373115122819 
-0.02089922563764307 -0.01896697351009408 0.02687467663075943 
0.01045736303994121 -0.007327054517249799 -0.006249190151402609 
0.004170815968607067 -0.006852888818281745 -0.003605036888797331 
0.01036305927461718 -0.008064970570488883 -0.005843213336031421 
0.004472919555974410 -0.003634733812218711 -0.001863124857027023 
0.004472919555974410 -0.003634733812218711 -0.001863124857027023 
0.004472919555974410 -0.003634733812218711 -0.001863124857027023 
0.007635177659751208 -0.004109105049067523 -0.005829378395235960 
-0.01754605002757801 0.03001424270274939 -0.02596108089906620 
0.004472919555974410 -0.003634733812218711 -0.001863124857027023 
0.004472919555974410 -0.003634733812218711 -0.001863124857027023 
0.005358632826144126 -0.004859177950744593 1.147617366759139e-07 
0.006694379274930309 -0.006226160506696957 2.491195304205658e-08 
0.005358632826144126 -0.004859177950744593 1.147617366759139e-07 
0.005358632826144126 -0.004859177950744593 1.147617366759139e-07 
-0.002223465288904384 0.0004797446221086084 -0.003060928434219943 
-0.01917764490444387 0.02377943959209849 -0.009802626089987559 
0.02176387806758900 -0.01808086552790020 -0.003582305017336522 
0.03438414442853571 -0.02892320063838646 -0.01721213201182126 
0.005358632826144126 -0.004859177950744593 1.147617366759139e-07 
0.005358632826144126 -0.004859177950744593 1.147617366759139e-07 
0.005358632826144126 -0.004859177950744593 1.147617366759139e-07 
0.003652226190744056 -0.002029319807808436 -0.005099190233933923 
0.0005421487706610531 0.0009675979678419339 -0.002680342389506246 
0.002228012850889369 0.001068764719858961 -0.004002098520954329 
0.005358632826144126 -0.004859177950744593 1.147617366759139e-07 
0.005358632826144126 -0.004859177950744593 1.147617366759139e-07 
0.007713043460259303 0.004058588157056431 -0.01601288538162765 
0.004726212016798426 -0.0004804848148658202 -0.002792304317181170 
0.03351020726713588 -0.04073849876958431 -0.01047334427434152 
0.02482291324040071 -0.01880666286074619 -0.01537791519557481 
0.005358632826144126 -0.004859177950744593 1.147617366759139e-07 
0.005358632826144126 -0.004859177950744593 1.147617366759139e-07 
0.005358632826144126 -0.004859177950744593 1.147617366759139e-07 
0.01084757759576167 -0.01150140830162071 -0.0007934805704042321 
0.005358632826144126 -0.004859177950744593 1.147617366759139e-07 
-0.01669739457469771 0.009182894357578520 0.007568125995456746 
0.006843533374968926 -0.004622159934774489 -0.002546156822108725 
0.01343096518745476 -0.01168503588598528 -0.003080465959175093 
0.005358632826144126 -0.004859177950744593 1.147617366759139e-07 
0.005358632826144126 -0.004859177950744593 1.147617366759139e-07 
0.005358632826144126 -0.004859177950744593 1.147617366759139e-07 
0.005358632826144126 -0.004859177950744593 1.147617366759139e-07 
0.005358632826144126 -0.004859177950744593 1.147617366759139e-07 
0.005358632826144126 -0.004859177950744593 1.147617366759139e-07 
0.005358632826144126 -0.004859177950744593 1.147617366759139e-07 
-0.02215782462252794 0.03032756363421569 -0.01537690841771633 
0.005358632826144126 -0.004859177950744593 1.147617366759139e-07 
0.02684317323351505 -0.02080739038078721 -0.01105810661809462 
0.005358632826144126 -0.004859177950744593 1.147617366759139e-07 
0.02329647353067486 -0.03133518124563767 -0.002647351503415584 
0.02859579827433545 -0.02021665629086067 -0.01300582302774374 
0.004008730656143010 -0.003814215095317894 -0.0007361589371134818 
0.008637384490863455 -0.007817812294940496 -0.0007360698729021200 
0.0001427636221059593 0.005320887022846578 -0.009651203527976198 
0.004008730656143010 -0.003814215095317894 -0.0007361589371134818 
0.004008730656143010 -0.003814215095317894 -0.0007361589371134818 
0.004008730656143010 -0.003814215095317894 -0.0007361589371134818 
0.004008730656143010 -0.003814215095317894 -0.0007361589371134818 
-0.009126668743291462 0.009618023064445848 -0.001904788290878070 
0.01060026867657792 -0.009515272283324790 -0.004150638057778234 
0.004008730656143010 -0.003814215095317894 -0.0007361589371134818 
-0.01570386336282175 0.01927112142124042 -0.003374194881549440 
0.004008730656143010 -0.003814215095317894 -0.0007361589371134818 
0.001092708933300361 0.001103895667797003 -0.001817474962277204 
0.004008730656143010 -0.003814215095317894 -0.0007361589371134818 
0.009992160585502530 -0.006045818889055256 -0.006594655530430868 
0.003497703364837903 -0.004892764095304214 0.0006572294251700320 
0.004008730656143010 -0.003814215095317894 -0.0007361589371134818 
0.006581545269173885 -0.005691420628211001 -0.003238708207951714 
0.004838051097848804 -0.01040988929160944 0.004986811744896040 
0.004008730656143010 -0.003814215095317894 -0.0007361589371134818 
0.004008730656143010 -0.003814215095317894 -0.0007361589371134818 
0.004008730656143010 -0.003814215095317894 -0.0007361589371134818 
-0.0008741752294658109 0.003632439326662117 -0.003374599795816163 
-0.0007558219052279916 0.002916584266560692 -0.001568490443349360 
-0.005424440859449115 0.004057876405554471 0.0008912547854659024 
0.004008730656143010 -0.003814215095317894 -0.0007361589371134818 
0.004008730656143010 -0.003814215095317894 -0.0007361589371134818 
0.004008730656143010 -0.003814215095317894 -0.0007361589371134818 
0.004008730656143010 -0.003814215095317894 -0.0007361589371134818 
0.004008730656143010 -0.003814215095317894 -0.0007361589371134818 
-0.007328383060020056 0.01161955268002062 -0.004063736651912312 
0.004008730656143010 -0.003814215095317894 -0.0007361589371134818 
0.006228408056286787 -0.001663445987033909 -0.006262797963391942 
0.001898647029493819 -0.0005949437479968009 -0.001928995336480252 
0.005997436967216135 -0.004200545705348903 -0.004432816163926813 
0.005997436967216135 -0.004200545705348903 -0.004432816163926813 
4.443940640818252e-05 0.003435594571850950 -0.005354421856491650 
0.005997436967216135 -0.004200545705348903 -0.004432816163926813 
0.005997436967216135 -0.004200545705348903 -0.004432816163926813 
-0.003146056164831434 0.002755662519176171 -0.003851762984737551 
0.005997436967216135 -0.004200545705348903 -0.004432816163926813 
0.005997436967216135 -0.004200545705348903 -0.004432816163926813 
0.03531919029662990 -0.03129951616920752 -0.01739892940714844 
0.008509365507351164 -0.005846613803985034 -0.01163374349152848 
-0.004336933871028861 0.01180172799147638 -0.02142397656517855 
0.004658416630575660 0.005250600188981892 -0.01539885667501494 
-0.01738342442934580 -0.02146124283655939 0.03643049299183754 
0.01247395125285238 -0.007770353557415317 -0.007420002668326660 
0.007182325147961166 -0.02368688741000153 0.01055943796230617 
-0.01460395362118052 -0.01342870201943835 0.02266624258137598 
0.01789519788091989 -0.004414507663832223 -0.03637425154540068 
0.005997436967216135 -0.004200545705348903 -0.004432816163926813 
-0.001732478152310314 -0.0001697707667440778 -0.001896197373196163 
-0.005509124838979535 -0.003204972363451568 0.001579883266206737 
-0.002981563257604084 0.0005964413199780422 -0.002598194185157517 
0.003578539942375010 -0.007028007748301359 -0.001680496404363805 
-0.002901388320817261 0.0006106995672892302 -0.002608482946065596 
0.01140830751399589 -0.006637013161271871 -0.008956931279499274 
0.005997436967216135 -0.004200545705348903 -0.004432816163926813 
0.02740826949357824 -0.01298899502737704 -0.01916338390929685 
0.01051197038470124 -0.007150525277397932 -0.008095750545139490 
-0.001313377825597166 0.001694259921542747 -0.007149650165800880 
0.005997436967216135 -0.004200545705348903 -0.004432816163926813 
0.007158566910357005 -0.01051060797422625 -0.002866881577417101 
-0.0009573445549485999 0.005682234940521524 -0.01515214027501044 
0.005997436967216135 -0.004200545705348903 -0.004432816163926813 
0.01344884873630633 -0.01638133310609477 -0.002158484560718798 
0.005997436967216135 -0.004200545705348903 -0.004432816163926813 
0.02461903176310766 -0.01188032211625875 -0.02074756555466457 
0.001673770795316526 -0.001565921456817346 -0.001789368784743211 
0.001673770795316526 -0.001565921456817346 -0.001789368784743211 
0.006930783633649539 -0.005087710227535995 -0.005991607886382289 
0.001673770795316526 -0.001565921456817346 -0.001789368784743211 
0.001673770795316526 -0.001565921456817346 -0.001789368784743211 
0.001673770795316526 -0.001565921456817346 -0.001789368784743211 
0.001673770795316526 -0.001565921456817346 -0.001789368784743211 
0.001673770795316526 -0.001565921456817346 -0.001789368784743211 
0.001673770795316526 -0.001565921456817346 -0.001789368784743211 
0.001673770795316526 -0.001565921456817346 -0.001789368784743211 
0.001673770795316526 -0.001565921456817346 -0.001789368784743211 
-0.004094104563243893 -0.002742710080077269 0.006881445278082920 
0.001673770795316526 -0.001565921456817346 -0.001789368784743211 
0.001673770795316526 -0.001565921456817346 -0.001789368784743211 
0.001673770795316526 -0.001565921456817346 -0.001789368784743211 
0.001673770795316526 -0.001565921456817346 -0.001789368784743211 
-0.04444219166367602 0.04851960801950050 -0.02189383907916722 
0.001673770795316526 -0.001565921456817346 -0.001789368784743211 
0.001673770795316526 -0.001565921456817346 -0.001789368784743211 
0.002236915453995435 -0.009847775662207254 0.004801774123444994 
0.006482815574400331 -0.005875959100836208 -0.001594479842745667 
-0.01296693883574629 0.01396228398719703 -0.002410194127085747 
0.001673770795316526 -0.001565921456817346 -0.001789368784743211 
0.001673770795316526 -0.001565921456817346 -0.001789368784743211 
0.001673770795316526 -0.001565921456817346 -0.001789368784743211 
0.001673770795316526 -0.001565921456817346 -0.001789368784743211 
0.001673770795316526 -0.001565921456817346 -0.001789368784743211 
0.001673770795316526 -0.001565921456817346 -0.001789368784743211 
0.001673770795316526 -0.001565921456817346 -0.001789368784743211 
-0.02333150128908270 0.03709844389410489 -0.02308216097387944 
0.001673770795316526 -0.001565921456817346 -0.001789368784743211 
-0.0005630463416669413 -0.01189923864793627 0.01169603631487588 
0.007458497596355796 -0.005843727768099589 -0.004899103382345221 
0.001673770795316526 -0.001565921456817346 -0.001789368784743211 
0.001673770795316526 -0.001565921456817346 -0.001789368784743211 
0.02621174892256567 -0.01887037979901666 -0.01481133086614605 
0.001673770795316526 -0.001565921456817346 -0.001789368784743211 
0.001673770795316526 -0.001565921456817346 -0.001789368784743211 
0.001152871437568900 0.006595225529974933 -0.009497182230779522 
0.001673770795316526 -0.001565921456817346 -0.001789368784743211 
-0.009608949991144719 0.01265078201193799 -0.005924743245615300 
0.001673770795316526 -0.001565921456817346 -0.001789368784743211 
0.001673770795316526 -0.001565921456817346 -0.001789368784743211 
0.001673770795316526 -0.001565921456817346 -0.001789368784743211 
0.001673770795316526 -0.001565921456817346 -0.001789368784743211 
0.001673770795316526 -0.001565921456817346 -0.001789368784743211 
0.004219430741307389 -0.002366523667473906 -0.002738916426742189 
0.001673770795316526 -0.001565921456817346 -0.001789368784743211 
0.001673770795316526 -0.001565921456817346 -0.001789368784743211 
0.001673770795316526 -0.001565921456817346 -0.001789368784743211 
0.001673770795316526 -0.001565921456817346 -0.001789368784743211 
0.001902477667731654 -0.001564176898835246 -0.001787086685978661 
0.001665614836258199 -0.001565501530525438 -0.001789337766146200 
0.03557546442083437 -0.04184750822335727 0.005366263864105631 
0.001673770795316526 -0.001565921456817346 -0.001789368784743211 
0.001673770795316526 -0.001565921456817346 -0.001789368784743211 
0.001673770795316526 -0.001565921456817346 -0.001789368784743211 
0.02411716910659274 -0.02050782957506633 -0.01394958208591223 
0.001673770795316526 -0.001565921456817346 -0.001789368784743211 
0.001673770795316526 -0.001565921456817346 -0.001789368784743211 
0.001673770795316526 -0.001565921456817346 -0.001789368784743211 
0.001673770795316526 -0.001565921456817346 -0.001789368784743211 
0.004171598524462643 -0.003948711876378870 -0.002395012737568068 
-0.002198779300962780 0.002433440987372015 -0.001789238915185608 
0.001673770795316526 -0.001565921456817346 -0.001789368784743211 
0.001673770795316526 -0.001565921456817346 -0.001789368784743211 
-0.01124109875334052 0.01885173690213462 -0.01404516458192157 
0.05443634414785951 -0.02822901423087394 -0.03291527691445422 
0.007598404708941979 -0.001553549048867100 -0.008627664134413320 
0.001673770795316526 -0.001565921456817346 -0.001789368784743211 
0.001673770795316526 -0.001565921456817346 -0.001789368784743211 
0.001673770795316526 -0.001565921456817346 -0.001789368784743211 
0.006508111122436516 -0.005698194097406698 -0.005567407324880994 
-0.003257622074460027 0.001050296077347259 -2.515457360470262e-05 
0.001673770795316526 -0.001565921456817346 -0.001789368784743211 
0.001673770795316526 -0.001565921456817346 -0.001789368784743211 
0.001673770795316526 -0.001565921456817346 -0.001789368784743211 
0.001673770795316526 -0.001565921456817346 -0.001789368784743211 
0.001673770795316526 -0.001565921456817346 -0.001789368784743211 
0.04187772542487202 -0.02445371684758763 -0.02799556218424868 
0.001673770795316526 -0.001565921456817346 -0.001789368784743211 
0.001673770795316526 -0.001565921456817346 -0.001789368784743211 
0.004922869353597370 -0.004210285243467966 -0.001789219949190007 
0.001673770795316526 -0.001565921456817346 -0.001789368784743211 
0.001651102616734673 -0.01269773168724847 0.01065393597450406 
0.001673770795316526 -0.001565921456817346 -0.001789368784743211 
0.001673770795316526 -0.001565921456817346 -0.001789368784743211 
0.001673770795316526 -0.001565921456817346 -0.001789368784743211 
0.001940074353832155 -0.001567138628136962 -0.002294188686836954 
0.001673770795316526 -0.001565921456817346 -0.001789368784743211 
0.001673770795316526 -0.001565921456817346 -0.001789368784743211 
0.001673770795316526 -0.001565921456817346 -0.001789368784743211 
0.002949786561450390 -0.002681107676996156 -0.0004144559877124433 
0.002949786561450390 -0.002681107676996156 -0.0004144559877124433 
0.0008262384039232481 -0.004191167404272756 0.003303904872120724 
0.002949786561450390 -0.002681107676996156 -0.0004144559877124433 
0.002949786561450390 -0.002681107676996156 -0.0004144559877124433 
0.006200249697461060 -0.006093320775122113 -0.0004144671430039833 
0.007969785906221464 -0.007734549914843639 -0.0007618916814188533 
0.03392548549892953 -0.02794442481033481 -0.01784108557013444 
0.02236984379516545 -0.02919632184818376 -0.002363050951224257 
0.006922299864138128 -0.005342086479218312 -0.003717802082148263 
0.003400333702108710 -0.002839671810324298 -0.0004143447860958185 
0.002949786561450390 -0.002681107676996156 -0.0004144559877124433 
0.002949786561450390 -0.002681107676996156 -0.0004144559877124433 
0.002949786561450390 -0.002681107676996156 -0.0004144559877124433 
0.002949786561450390 -0.002681107676996156 -0.0004144559877124433 
0.002949786561450390 -0.002681107676996156 -0.0004144559877124433 
0.002949786561450390 -0.002681107676996156 -0.0004144559877124433 
0.005116729662743930 -0.003816821711642526 -0.001295844035732476 
0.002949786561450390 -0.002681107676996156 -0.0004144559877124433 
0.005523558972980064 -0.005141919578978270 -0.002965788665350747 
0.002949786561450390 -0.002681107676996156 -0.0004144559877124433 
0.002949786561450390 -0.002681107676996156 -0.0004144559877124433 
0.002949786561450390 -0.002681107676996156 -0.0004144559877124433 
0.002949786561450390 -0.002681107676996156 -0.0004144559877124433 
0.005929550348720457 -0.004785019294116572 -0.004462944019958867 
0.007054936862483638 -0.006069946661096350 -0.002018505743537564 
0.002949786561450390 -0.002681107676996156 -0.0004144559877124433 
0.002949786561450390 -0.002681107676996156 -0.0004144559877124433 
0.01458590120127762 -0.008532704186178902 -0.005656280440646182 
0.002949786561450390 -0.002681107676996156 -0.0004144559877124433 
0.002949786561450390 -0.002681107676996156 -0.0004144559877124433 
-0.002785150380794827 0.005592742455679995 -0.006144886298663451 
-0.01633749295705664 0.03401719542032339 -0.02586478724947063 
0.008352601246562593 0.01879384351890654 -0.04807665948505303 
0.003420173181516402 -0.002841105214409957 -0.0007960978413400780 
0.007116114797094002 -0.003047456009833027 -0.004139926979034148 
0.002949786561450390 -0.002681107676996156 -0.0004144559877124433 
0.002949786561450390 -0.002681107676996156 -0.0004144559877124433 
0.0004713049882784027 0.0002370507822242805 -0.0009049805771160893 
0.002949786561450390 -0.002681107676996156 -0.0004144559877124433 
0.002949786561450390 -0.002681107676996156 -0.0004144559877124433 
0.003473864506509662 -0.004478811962908669 -0.0004144396268098907 
0.002949786561450390 -0.002681107676996156 -0.0004144559877124433 
0.008499993612737202 -0.007026313057239943 -0.001347535547169952 
0.002949786561450390 -0.002681107676996156 -0.0004144559877124433 
-0.001944570920237658 0.002922537364383049 -0.001282843457686690 
0.002949786561450390 -0.002681107676996156 -0.0004144559877124433 
0.01232039840563531 -0.01047584311664057 -0.001829360004014843 
0.001496770414010954 0.001214341145253491 -0.003647911203698695 
0.002946625430768854 0.0004630841745259979 -0.004019488126728821 
0.002949786561450390 -0.002681107676996156 -0.0004144559877124433 
0.002949786561450390 -0.002681107676996156 -0.0004144559877124433 
0.002949786561450390 -0.002681107676996156 -0.0004144559877124433 
0.005334246976701641 -0.004792235132595887 -0.0007889831156278901 
0.002949786561450390 -0.002681107676996156 -0.0004144559877124433 
0.004766661657682615 -0.004136059019997244 -0.0004144533090175104 
0.002949786561450390 -0.002681107676996156 -0.0004144559877124433 
-0.04204396338686970 0.04424084826696612 -0.007118184997628427 
0.002949786561450390 -0.002681107676996156 -0.0004144559877124433 
0.005860913462389019 -0.004594679966430282 -0.001058607660527257 
0.01474993726580748 -0.01458823067901941 -0.002074154566119808 
0.002387202420963495 -0.005362468546539930 0.001569315155556326 
0.002949786561450390 -0.002681107676996156 -0.0004144559877124433 
0.005440383451079907 -0.01104482082049758 0.006633982872120759 
0.001889279329271866 -0.008568509759623057 0.005518623765161947 
0.05477705804731329 -0.04173393762364847 -0.02416712319341620 
0.03356411376587234 -0.02221411666073354 -0.01643871822525185 
-0.006402619726484619 0.008818776741495754 -0.006108639786540185 
0.002949786561450390 -0.002681107676996156 -0.0004144559877124433 
0.002949786561450390 -0.002681107676996156 -0.0004144559877124433 
0.002949786561450390 -0.002681107676996156 -0.0004144559877124433 
0.002949786561450390 -0.002681107676996156 -0.0004144559877124433 
0.002949786561450390 -0.002681107676996156 -0.0004144559877124433 
0.002949786561450390 -0.002681107676996156 -0.0004144559877124433 
0.006911187091498833 -0.005631216678212810 -0.001583053041228912 
0.002949786561450390 -0.002681107676996156 -0.0004144559877124433 
0.002949786561450390 -0.002681107676996156 -0.0004144559877124433 
-0.01156098497757410 0.01439861934598602 -0.0009611191413308982 
0.005017748692413233 -0.004596331763975643 -0.0008617787244436084 
-0.01936381689865291 -0.01346516823765043 0.03247777612035775 
0.003615954044458822 -0.002726444109684642 -0.0008617938410229198 
0.003615954044458822 -0.002726444109684642 -0.0008617938410229198 
0.003615954044458822 -0.002726444109684642 -0.0008617938410229198 
0.005017748692413233 -0.004596331763975643 -0.0008617787244436084 
0.003615954044458822 -0.002726444109684642 -0.0008617938410229198 
0.003615954044458822 -0.002726444109684642 -0.0008617938410229198 
0.003615954044458822 -0.002726444109684642 -0.0008617938410229198 
0.01868267786778129 -0.003797270125970548 -0.02007002418058740 
-0.02420203077679422 0.02139631353441516 -0.004289670397138097 
0.003615954044458822 -0.002726444109684642 -0.0008617938410229198 
0.003615954044458822 -0.002726444109684642 -0.0008617938410229198 
0.003615954044458822 -0.002726444109684642 -0.0008617938410229198 
0.003615954044458822 -0.002726444109684642 -0.0008617938410229198 
0.003615954044458822 -0.002726444109684642 -0.0008617938410229198 
0.001153611076348462 0.002408173999436740 -0.005108510873512274 
-0.006229047583583448 3.144975175648121e-05 0.004514019451236248 
0.009873557079601742 -0.006379338100748983 -0.002195067775647710 
0.003615954044458822 -0.002726444109684642 -0.0008617938410229198 
0.01084841478973214 -0.004783119807579810 -0.008355251978565481 
0.008264685016977417 -0.005962783082792446 -0.003680156735767679 
0.04520683817578203 -0.03976768594496000 -0.02225842685032638 
0.01047577456911842 -0.007792467873795307 -0.003692793666258940 
-0.006012697354553289 0.008183607657920313 -0.0009390014425417521 
0.003615954044458822 -0.002726444109684642 -0.0008617938410229198 
-0.02390118609479552 0.02802354021684240 -0.005194326260526396 
0.003615954044458822 -0.002726444109684642 -0.0008617938410229198 
0.003918570248111704 -0.001472807024444885 -0.003398299349239797 
0.003615954044458822 -0.002726444109684642 -0.0008617938410229198 
0.003615954044458822 -0.002726444109684642 -0.0008617938410229198 
0.003615954044458822 -0.002726444109684642 -0.0008617938410229198 
0.0005503505163040250 0.001575261159165342 -0.002662609267889656 
-0.01985933145150896 0.02613413202364651 -0.002957448231436325 
0.003615954044458822 -0.002726444109684642 -0.0008617938410229198 
0.003615954044458822 -0.002726444109684642 -0.0008617938410229198 
0.003615954044458822 -0.002726444109684642 -0.0008617938410229198 
0.003615954044458822 -0.002726444109684642 -0.0008617938410229198 
0.01372662500136929 -0.01136819529301314 -0.005972371876115553 
0.003615954044458822 -0.002726444109684642 -0.0008617938410229198 
0.003615954044458822 -0.002726444109684642 -0.0008617938410229198 
0.003615954044458822 -0.002726444109684642 -0.0008617938410229198 
0.003615954044458822 -0.002726444109684642 -0.0008617938410229198 
0.003615954044458822 -0.002726444109684642 -0.0008617938410229198 
0.003615954044458822 -0.002726444109684642 -0.0008617938410229198 
0.003615954044458822 -0.002726444109684642 -0.0008617938410229198 
0.003615954044458822 -0.002726444109684642 -0.0008617938410229198 
0.003615954044458822 -0.002726444109684642 -0.0008617938410229198 
0.006965554843388690 -0.005527639530309125 -0.003965637148822615 
0.006965554843388690 -0.005527639530309125 -0.003965637148822615 
0.006965554843388690 -0.005527639530309125 -0.003965637148822615 
0.006965554843388690 -0.005527639530309125 -0.003965637148822615 
0.006965554843388690 -0.005527639530309125 -0.003965637148822615 
0.006965554843388690 -0.005527639530309125 -0.003965637148822615 
0.006965554843388690 -0.005527639530309125 -0.003965637148822615 
0.006965554843388690 -0.005527639530309125 -0.003965637148822615 
0.006965554843388690 -0.005527639530309125 -0.003965637148822615 
0.01176706870374767 -0.01055032193741877 -0.003965662225146510 
0.006965554843388690 -0.005527639530309125 -0.003965637148822615 
0.02027308728550663 -0.01748089894672295 -0.005956559278157456 
0.006965554843388690 -0.005527639530309125 -0.003965637148822615 
0.007152423673907722 0.006002170520433497 -0.01994983966349811 
-0.003643150896925268 0.007070850718593901 -0.007381148059533923 
0.02320707886233351 -0.01400398909541005 -0.01653459416766352 
0.001624943420870322 -0.01214384904644249 0.006767913606280925 
0.005540653742887470 -0.003522388153480572 -0.005427456415498905 
0.02237907299356826 -0.01145956508550905 -0.01228957623427839 
-0.01049788947005956 -0.006400709043066289 0.01650247200109721 
0.01351603619191206 -0.008012539790631617 -0.009268373181911914 
0.002929721427809013 -0.001482822338398055 -0.002818331203887786 
0.01211171802918156 -0.005833665662341596 -0.01314454961290572 
0.007518766216683921 -0.004260591548445108 -0.006248797918755184 
0.002929721427809013 -0.001482822338398055 -0.002818331203887786 
-0.01373493566783008 0.02631301715731568 -0.01233829825486521 
0.002929721427809013 -0.001482822338398055 -0.002818331203887786 
0.005736333543731063 0.001457412717910972 -0.01323640996477892 
-0.0009428286684702920 0.002516540105791307 -0.002818201334330183 
0.002929721427809013 -0.001482822338398055 -0.002818331203887786 
0.002929721427809013 -0.001482822338398055 -0.002818331203887786 
0.002929721427809013 -0.001482822338398055 -0.002818331203887786 
-0.004098486707618410 0.009647491195775638 -0.008563081791857398 
0.002929721427809013 -0.001482822338398055 -0.002818331203887786 
0.002929721427809013 -0.001482822338398055 -0.002818331203887786 
-0.01562937778259249 -0.01371368525009645 0.02427593959709650 
0.002929721427809013 -0.001482822338398055 -0.002818331203887786 
0.002929721427809013 -0.001482822338398055 -0.002818331203887786 
0.002929721427809013 -0.001482822338398055 -0.002818331203887786 
0.002929721427809013 -0.001482822338398055 -0.002818331203887786 
0.02823156390070732 -0.01324703635619962 -0.02031600266149776 
0.002929721427809013 -0.001482822338398055 -0.002818331203887786 
0.002929721427809013 -0.001482822338398055 -0.002818331203887786 
0.002929721427809013 -0.001482822338398055 -0.002818331203887786 
0.002929721427809013 -0.001482822338398055 -0.002818331203887786 
0.002929721427809013 -0.001482822338398055 -0.002818331203887786 
0.002929721427809013 -0.001482822338398055 -0.002818331203887786 
0.002929721427809013 -0.001482822338398055 -0.002818331203887786 
0.002929721427809013 -0.001482822338398055 -0.002818331203887786 
0.002929721427809013 -0.001482822338398055 -0.002818331203887786 
0.002929721427809013 -0.001482822338398055 -0.002818331203887786 
0.01776913873728892 -0.006776663712704743 -0.01485694333443498 
0.01387045297175494 -0.01149884646474074 -0.007024588950582976 
-0.02480099725515094 -0.02134495976330752 0.04056677358373197 
0.002929721427809013 -0.001482822338398055 -0.002818331203887786 
-0.007891410951961554 -0.01238644573877726 0.01678763864734195 
0.002929721427809013 -0.001482822338398055 -0.002818331203887786 
0.002929721427809013 -0.001482822338398055 -0.002818331203887786 
0.002929721427809013 -0.001482822338398055 -0.002818331203887786 
0.002929721427809013 -0.001482822338398055 -0.002818331203887786 
0.002929721427809013 -0.001482822338398055 -0.002818331203887786 
0.01992006134713818 -0.02085938288929641 -0.005176076966857290 
0.002929721427809013 -0.001482822338398055 -0.002818331203887786 
0.01541937598353764 -0.003399022743649474 -0.02374910916751068 
9.635720508059116e-06 -0.0009822492378063175 3.715508728635501e-08 
9.635720508059116e-06 -0.0009822492378063175 3.715508728635501e-08 
0.0009363569555201417 -0.001786827312771195 1.307275318021727e-07 
0.0008043356412009339 -0.001043614208765963 6.030287713165119e-08 
9.635720508059116e-06 -0.0009822492378063175 3.715508728635501e-08 
9.635720508059116e-06 -0.0009822492378063175 3.715508728635501e-08 
9.635720508059116e-06 -0.0009822492378063175 3.715508728635501e-08 
0.004601777267864114 -0.004289603512924402 -0.002243125784594755 
0.03952812827647917 -0.04718007769556603 -0.005021644073125055 
9.635720508059116e-06 -0.0009822492378063175 3.715508728635501e-08 
0.02680021208154741 -0.02157833904607116 -0.01573776331278604 
0.01627019790350450 -0.005244185459932770 -0.01936788577592231 
0.003693533850302932 -0.003341443422061940 -0.01868248420963702 
0.01629533697625709 -0.003132402300561596 -0.01888963533444885 
-0.007936932239837343 0.01811301218486905 -0.01527649403888851 
0.0006513524596704418 -0.007544583297624640 0.0004882632653527435 
0.01571635140094903 -0.01799872918513064 -0.002265135013787408 
0.02599672695552294 -0.01557568624046628 -0.01690308651080109 
0.01239834958116640 -0.002839384711566341 -0.01346205997306164 
0.002544370647210011 -0.006615413622672444 0.004675513619297877 
9.635720508059116e-06 -0.0009822492378063175 3.715508728635501e-08 
9.635720508059116e-06 -0.0009822492378063175 3.715508728635501e-08 
0.005061579520599153 -0.004810050871685811 -1.163092900215897e-07 
0.003556679918497031 -0.0003787386987802885 -0.004326015671545663 
-0.01814397257062695 0.02467034641312878 -0.002917254623605578 
0.003765824292056521 -0.003522399542624947 -1.090672285048304e-07 
0.003765824292056521 -0.003522399542624947 -1.090672285048304e-07 
-0.003735763102704258 0.004369784324994543 -0.0006696792012838602 
0.003765824292056521 -0.003522399542624947 -1.090672285048304e-07 
0.003765824292056521 -0.003522399542624947 -1.090672285048304e-07 
0.003765824292056521 -0.003522399542624947 -1.090672285048304e-07 
0.003765824292056521 -0.003522399542624947 -1.090672285048304e-07 
-0.02150437885866526 0.01538842154597827 0.006426929372176392 
0.003765824292056521 -0.003522399542624947 -1.090672285048304e-07 
0.003765824292056521 -0.003522399542624947 -1.090672285048304e-07 
0.003765824292056521 -0.003522399542624947 -1.090672285048304e-07 
0.003765824292056521 -0.003522399542624947 -1.090672285048304e-07 
0.003765824292056521 -0.003522399542624947 -1.090672285048304e-07 
0.004289902237115792 -0.005320103828537460 -9.270632595221744e-08 
-0.007304453340407400 -0.0003182155973759475 0.008567744001204717 
-0.002676401953390068 0.004721832821846934 -0.003518496622376102 
0.003765824292056521 -0.003522399542624947 -1.090672285048304e-07 
0.003765824292056521 -0.003522399542624947 -1.090672285048304e-07 
0.004685774927119450 -0.002401924245838407 -0.001773734731734583 
0.003765824292056521 -0.003522399542624947 -1.090672285048304e-07 
-0.009008125076575610 0.01284248225258611 -0.002825875360825250 
0.003765824292056521 -0.003522399542624947 -1.090672285048304e-07 
0.003765824292056521 -0.003522399542624947 -1.090672285048304e-07 
0.003765824292056521 -0.003522399542624947 -1.090672285048304e-07 
0.003765824292056521 -0.003522399542624947 -1.090672285048304e-07 
0.003765824292056521 -0.003522399542624947 -1.090672285048304e-07 
0.02721909518978917 -0.007081202026983414 -0.04105255204127230 
0.01470620855848688 -0.01225424558942818 -0.008307284404854651 
-0.01367825289751461 -0.009010381839205103 0.02243879647326653 
0.003765824292056521 -0.003522399542624947 -1.090672285048304e-07 
0.003765822829806491 -0.003522846505194602 -1.126227007112199e-07 
0.01622329289368040 -0.01438245309291463 -0.005208585733995487 
0.003765824292056521 -0.003522399542624947 -1.090672285048304e-07 
0.003765824292056521 -0.003522399542624947 -1.090672285048304e-07 
0.003765824292056521 -0.003522399542624947 -1.090672285048304e-07 
0.003765824292056521 -0.003522399542624947 -1.090672285048304e-07 
0.003765824292056521 -0.003522399542624947 -1.090672285048304e-07 
0.005970468312339037 -0.005121780698965523 -0.0001166419432319149 
0.003765824292056521 -0.003522399542624947 -1.090672285048304e-07 
0.0007758545109568753 -0.001019837227293904 1.921013674095428e-07 
0.003765824292056521 -0.003522399542624947 -1.090672285048304e-07 
0.01071649830683190 -0.007993937486675883 -0.0009839729775072317 
0.003765824292056521 -0.003522399542624947 -1.090672285048304e-07 
0.02429309124843729 -0.02058775058810120 -0.006470131358786892 
0.003765824292056521 -0.003522399542624947 -1.090672285048304e-07 
0.003765824292056521 -0.003522399542624947 -1.090672285048304e-07 
0.003765824292056521 -0.003522399542624947 -1.090672285048304e-07 
0.003765824292056521 -0.003522399542624947 -1.090672285048304e-07 
0.003765824292056521 -0.003522399542624947 -1.090672285048304e-07 
0.008633888703578650 -0.009022388672032266 -0.001013495342365181 
-0.001659558642348186 0.002562984740154848 -0.001973914257009089 
0.003765824292056521 -0.003522399542624947 -1.090672285048304e-07 
0.003765824292056521 -0.003522399542624947 -1.090672285048304e-07 
0.003765824292056521 -0.003522399542624947 -1.090672285048304e-07 
0.003765824292056521 -0.003522399542624947 -1.090672285048304e-07 
0.005449978073111931 -0.003055359354458505 -0.008070976641206542 
0.008200941408183369 -0.007346052832109245 -0.0005842701008213698 
-0.02737704228722535 0.01925193573614800 0.005776597212301634 
0.003765824292056521 -0.003522399542624947 -1.090672285048304e-07 
0.003765824292056521 -0.003522399542624947 -1.090672285048304e-07 
0.003765824292056521 -0.003522399542624947 -1.090672285048304e-07 
0.009033832009104473 -0.008023551198153744 -0.002122624017842128 
0.005316787976102240 -0.004243828929470217 -0.002122638812885001 
0.005316787976102240 -0.004243828929470217 -0.002122638812885001 
0.009334514479669787 -0.005893942252504229 -0.004011198745256682 
-0.002696320872386818 0.007369212125066081 -0.005173577998756700 
-0.08506879280471068 0.09370306153207995 -0.02457680502037676 
0.004168783697818318 -0.002383631811642189 -0.002310837450053604 
-0.01900490245699338 0.01668833597321819 -0.0006264098022482628 
-0.01617205906940361 0.03134483300245158 -0.02480832163709285 
-0.005791123433554079 -0.008232694672776661 0.009184229578620692 
0.005316787976102240 -0.004243828929470217 -0.002122638812885001 
0.005316787976102240 -0.004243828929470217 -0.002122638812885001 
0.01147602559590767 -0.009954581565448099 -0.005806077782440873 
-0.02293130422549385 0.008413458335785764 0.01253587617187083 
0.005857374590154865 -0.0001697160115862010 -0.006534610817359828 
0.005316787976102240 -0.004243828929470217 -0.002122638812885001 
0.04290260745330388 -0.04344458450749705 -0.01399595654529603 
-0.003265375843442956 -0.006955331222398590 0.005404105078850393 
0.005316787976102240 -0.004243828929470217 -0.002122638812885001 
-0.0007128406214405984 0.008337386853201756 -0.01433272785212334 
0.009745607396164428 -0.006243351950497714 -0.004030649831073169 
0.005316787976102240 -0.004243828929470217 -0.002122638812885001 
-0.004078108026633738 0.009103097267494004 -0.007780749964971057 
0.01073001327647435 -0.009729134459198040 -0.002121525584875137 
-0.009843329434833908 0.01925159111249237 -0.01886974386863843 
0.006728906121162021 -0.004463178239795454 -0.004529966529620837 
0.01080451217944980 -0.008611107266641894 -0.004693914074103034 
0.01111579947718494 -0.008852739947473046 -0.005894033976709542 
0.01047646277843195 -0.007384972185919937 -0.004863491226596353 
0.01529438389373586 -0.02299185140890627 0.0003353346773849452 
0.005316787976102240 -0.004243828929470217 -0.002122638812885001 
0.005316787976102240 -0.004243828929470217 -0.002122638812885001 
0.005316787976102240 -0.004243828929470217 -0.002122638812885001 
0.005316787976102240 -0.004243828929470217 -0.002122638812885001 
0.001826317146188142 -0.001941622336578646 3.283410857205207e-07 
0.001826317146188142 -0.001941622336578646 3.283410857205207e-07 
-0.01802648956514093 0.008120739077139462 0.01001994360787943 
0.001826317146188142 -0.001941622336578646 3.283410857205207e-07 
0.007887844428052399 -0.006281893418098167 -0.001203427381523007 
0.001826315683938112 -0.001942069299148301 3.247856135141304e-07 
-0.02210079644421724 0.02198789166453696 -0.01094389495432727 
0.02974535823744439 -0.02169428409939763 -0.01816299791807736 
0.001826317146188142 -0.001941622336578646 3.283410857205207e-07 
0.004177479166195830 -0.002763848114376080 -0.002224331534964230 
0.001826317146188142 -0.001941622336578646 3.283410857205207e-07 
-0.004252335738024792 0.005608608189376820 -0.0007079782706165532 
0.001826317146188142 -0.001941622336578646 3.283410857205207e-07 
0.001826317146188142 -0.001941622336578646 3.283410857205207e-07 
-0.008681864282446059 0.01065450559531699 -0.001413336626756071 
0.004426944501573953 -0.003842762732052185 -0.0007051528636282141 
0.001826317146188142 -0.001941622336578646 3.283410857205207e-07 
0.001826317146188142 -0.001941622336578646 3.283410857205207e-07 
0.001826317146188142 -0.001941622336578646 3.283410857205207e-07 
0.006365080757511105 -0.006549943477532601 0.0007754749413507643 
0.001826317146188142 -0.001941622336578646 3.283410857205207e-07 
0.01190213275663052 -0.007697261003505204 -0.003488842725660110 
0.001826317146188142 -0.001941622336578646 3.283410857205207e-07 
0.006929134756418909 -0.006245826890004021 -0.003132911829881469 
0.001826317146188142 -0.001941622336578646 3.283410857205207e-07 
0.001826317146188142 -0.001941622336578646 3.283410857205207e-07 
0.001826317146188142 -0.001941622336578646 3.283410857205207e-07 
0.01419750978027895 -0.01473304775431860 -0.0005557616466554905 
0.001826317146188142 -0.001941622336578646 3.283410857205207e-07 
0.002598257644662131 -0.002471289495509072 4.218495519053171e-07 
0.03069034237374225 -0.01968049485091730 -0.01652070065218229 
0.003228111794142554 -0.003811509990869647 3.434576650319588e-07 
0.001826317146188142 -0.001941622336578646 3.283410857205207e-07 
0.001826317146188142 -0.001941622336578646 3.283410857205207e-07 
0.001826317146188142 -0.001941622336578646 3.283410857205207e-07 
0.002743828244575316 -0.002721557562344541 -0.0001614273502360543 
0.001826317146188142 -0.001941622336578646 3.283410857205207e-07 
-0.006760039053706757 0.007085339780456621 3.816954735041329e-07 
-0.01050502410090126 -0.008913539107441550 0.01850096653850296 
0.001826309036986379 -0.001942250635335053 3.729369164512186e-07 
-0.002565447282865915 0.002430827633043397 6.143931023234499e-07 
-0.007802334252823968 0.008968429431026310 -7.687926043311174e-05 
0.001826317146188142 -0.001941622336578646 3.283410857205207e-07 
0.001826317146188142 -0.001941622336578646 3.283410857205207e-07 
0.001826317146188142 -0.001941622336578646 3.283410857205207e-07 
0.001826317146188142 -0.001941622336578646 3.283410857205207e-07 
0.001826317146188142 -0.001941622336578646 3.283410857205207e-07 
0.001826317146188142 -0.001941622336578646 3.283410857205207e-07 
0.004147777006114259 -0.004193737270539959 -0.0003718993700243016 
0.001826317146188142 -0.001941622336578646 3.283410857205207e-07 
0.01653319565584684 -0.01165544630130587 -0.009900263218312527 
0.008597485725007405 -0.006552509230717336 -0.003662489926199997 
0.001826317146188142 -0.001941622336578646 3.283410857205207e-07 
0.001826317146188142 -0.001941622336578646 3.283410857205207e-07 
0.001826317146188142 -0.001941622336578646 3.283410857205207e-07 
-0.01234678769972250 0.01026395089967211 0.001759994027350848 
0.006106488293209048 -0.004986282213599995 -0.001272384015369864 
0.02062073325053062 -0.01249913464950836 -0.01713965883438943 
0.02056495331941729 -0.02659896961852623 0.01037253077378139 
0.001826317146188142 -0.001941622336578646 3.283410857205207e-07 
-0.01258064857590423 0.01284657021455541 -0.001089447349641818 
0.004643987133795676 -0.003025129508255490 -0.001652946470247403 
0.004749113218365105 -0.003807470784807812 -6.775928545685510e-05 
0.001826317146188142 -0.001941622336578646 3.283410857205207e-07 
0.004676001479748212 -0.003929216600673679 4.956500605869209e-07 
-0.006096832310882819 0.007032876138595377 -0.001274562527881512 
0.001826317146188142 -0.001941622336578646 3.283410857205207e-07 
0.001826317146188142 -0.001941622336578646 3.283410857205207e-07 
0.001826317146188142 -0.001941622336578646 3.283410857205207e-07 
0.01665222740672488 -0.01156064109053888 -0.01040011201804741 
0.003088513837269449 -0.001940765439527815 -0.001662324213151264 
0.001826317146188142 -0.001941622336578646 3.283410857205207e-07 
0.02561978949252024 -0.02138407882141734 -0.005969794738452327 
0.001826317146188142 -0.001941622336578646 3.283410857205207e-07 
0.001826317146188142 -0.001941622336578646 3.283410857205207e-07 
0.001826317146188142 -0.001941622336578646 3.283410857205207e-07 
0.02202436819335875 -0.01106555109178995 -0.02506690846011829 
0.01149777142264904 -0.009395057783453736 -0.002956316089022168 
0.002608744087230598 -0.002889644075599837 -2.510053079608508e-08 
0.002608744087230598 -0.002889644075599837 -2.510053079608508e-08 
0.008605420838181143 -0.01278647284058429 -0.003789736569472517 
0.006114317715638458 -0.005621616268537443 -0.0005360631562434883 
0.005144335359140482 -0.005227160815711847 -0.0003745671593584247 
0.002608744087230598 -0.002889644075599837 -2.510053079608508e-08 
0.002608744087230598 -0.002889644075599837 -2.510053079608508e-08 
0.01635618923860463 -0.04967166706526517 0.01486701681595976 
0.002608744087230598 -0.002889644075599837 -2.510053079608508e-08 
0.002608744087230598 -0.002889644075599837 -2.510053079608508e-08 
0.03388456547390722 -0.01232549716543651 -0.02849512293850341 
0.002608744087230598 -0.002889644075599837 -2.510053079608508e-08 
0.02356868622586853 -0.01549608035020919 -0.01599500028038876 
0.01031170436798711 -0.01090585655105290 -0.003092069047429083 
0.004994936963554891 -0.003630920470806353 -0.001956713063824829 
0.01034203676234155 -0.009081185594562599 -0.004249233516377676 
0.002608744087230598 -0.002889644075599837 -2.510053079608508e-08 
0.01455699903043837 -0.01189119235332106 -0.005861458175529200 
0.002608744087230598 -0.002889644075599837 -2.510053079608508e-08 
-0.007591206867452979 0.003704995781504909 0.003778192046988827 
0.006713894388263846 -0.006278483059700030 -0.001604074856355917 
0.002608744087230598 -0.002889644075599837 -2.510053079608508e-08 
0.002608744087230598 -0.002889644075599837 -2.510053079608508e-08 
0.002608744087230598 -0.002889644075599837 -2.510053079608508e-08 
0.002608744087230598 -0.002889644075599837 -2.510053079608508e-08 
0.002608744087230598 -0.002889644075599837 -2.510053079608508e-08 
-0.01287510826626233 0.007167637993740893 0.002122351885322599 
0.01318460613252567 -0.009704304602359388 -0.006487668543350144 
0.006125934425207092 -0.005711097723490194 -0.0007108629392296766 
0.002608744087230598 -0.002889644075599837 -2.510053079608508e-08 
0.002608744087230598 -0.002889644075599837 -2.510053079608508e-08 
0.002608744087230598 -0.002889644075599837 -2.510053079608508e-08 
0.005818963259693349 -0.005063549572532651 -0.001192440810989135 
0.002608744087230598 -0.002889644075599837 -2.510053079608508e-08 
-0.04419727443981462 0.03645477118884608 0.003237570662613670 
0.002608744087230598 -0.002889644075599837 -2.510053079608508e-08 
0.002608744087230598 -0.002889644075599837 -2.510053079608508e-08 
0.006713894388263846 -0.006278483059700030 -0.001604074856355917 
0.002608744087230598 -0.002889644075599837 -2.510053079608508e-08 
0.002608744087230598 -0.002889644075599837 -2.510053079608508e-08 
0.002608744087230598 -0.002889644075599837 -2.510053079608508e-08 
0.01765023372581591 -0.01433687905429613 -0.008178612653075684 
0.002608744087230598 -0.002889644075599837 -2.510053079608508e-08 
0.009982058485348921 -0.006990130779839190 -0.003159740292611036 
0.002608744087230598 -0.002889644075599837 -2.510053079608508e-08 
0.002608744087230598 -0.002889644075599837 -2.510053079608508e-08 
0.001989143105286667 -0.001752765439328299 -0.0003384388934008585 
0.008521233268117689 -0.006910315397612708 -0.003059062648549619 
0.001989143105286667 -0.001752765439328299 -0.0003384388934008585 
0.001989143105286667 -0.001752765439328299 -0.0003384388934008585 
0.003860368505095302 -0.002225894320026431 -0.001624572996519744 
0.005197983338378188 -0.003173980628051475 -0.004264784089130465 
0.001989143105286667 -0.001752765439328299 -0.0003384388934008585 
0.009315432853132590 -0.003293756527578301 -0.006688329429709638 
0.001989143105286667 -0.001752765439328299 -0.0003384388934008585 
0.001989143105286667 -0.001752765439328299 -0.0003384388934008585 
0.001989143105286667 -0.001752765439328299 -0.0003384388934008585 
0.003696774056644628 -0.002052733048378865 -0.001265368873090027 
0.001989143105286667 -0.001752765439328299 -0.0003384388934008585 
0.001989143105286667 -0.001752765439328299 -0.0003384388934008585 
0.005471245381738919 0.002398596091980846 -0.03065756087845465 
0.001989143105286667 -0.001752765439328299 -0.0003384388934008585 
0.001989143105286667 -0.001752765439328299 -0.0003384388934008585 
0.001989143105286667 -0.001752765439328299 -0.0003384388934008585 
0.001989143105286667 -0.001752765439328299 -0.0003384388934008585 
0.001989143105286667 -0.001752765439328299 -0.0003384388934008585 
0.003806018201518892 -0.003207716782329387 -0.0003384362147059256 
0.01150949899998632 -0.007410877429471515 -0.007384792137048864 
0.001989143105286667 -0.001752765439328299 -0.0003384388934008585 
0.007735545347747581 -0.006678444173890315 -0.001473279518812463 
0.003811894634683045 -0.01708885181491201 0.005243676787977179 
0.001989143105286667 -0.001752765439328299 -0.0003384388934008585 
0.01818290150171458 -0.01363244293930528 -0.007199416817142813 
-0.003825074172412720 0.002984676021780628 -0.001101221309614782 
0.005255555445748293 -0.003518363911178214 -0.001990885897719407 
0.01571522452605271 -0.01412185896665370 -0.004215141443137108 
0.005255555445748293 -0.003518363911178214 -0.001990885897719407 
0.01173319972880033 -0.009205888582674914 -0.002708550823947773 
0.03180650041136134 -0.02656634609458087 -0.01111778307784681 
0.005255555445748293 -0.003518363911178214 -0.001990885897719407 
0.005255555445748293 -0.003518363911178214 -0.001990885897719407 
0.005255555445748293 -0.003518363911178214 -0.001990885897719407 
0.005255555445748293 -0.003518363911178214 -0.001990885897719407 
0.005255555445748293 -0.003518363911178214 -0.001990885897719407 
0.01073244901834373 -0.008986929039105937 -0.002696141476830991 
0.005255555445748293 -0.003518363911178214 -0.001990885897719407 
-0.004377954077845802 -0.004408383102016956 0.008813811476362200 
0.001383005349468988 0.0004809985330111476 -0.001990756028161804 
0.005255555445748293 -0.003518363911178214 -0.001990885897719407 
0.005255555445748293 -0.003518363911178214 -0.001990885897719407 
0.005255555445748293 -0.003518363911178214 -0.001990885897719407 
0.006441618367392571 -0.005591592048964115 -0.002011959756244697 
0.006441618367392571 -0.005591592048964115 -0.002011959756244697 
0.006441618367392571 -0.005591592048964115 -0.002011959756244697 
-0.005143572608093616 0.009655367646734359 -0.004790107928186934 
0.006441618367392571 -0.005591592048964115 -0.002011959756244697 
0.008826078782643824 -0.007702719504563847 -0.002386486884160144 
0.006441618367392571 -0.005591592048964115 -0.002011959756244697 
0.004851898218162001 -0.001696873779531789 -0.004784826391071374 
0.01620201485066955 -0.01285702709490027 -0.005899814377902142 
0.006441618367392571 -0.005591592048964115 -0.002011959756244697 
0.006441618367392571 -0.005591592048964115 -0.002011959756244697 
0.006441618367392571 -0.005591592048964115 -0.002011959756244697 
-0.01603482394454306 -0.01927130520810640 0.02600013662198924 
0.006441618367392571 -0.005591592048964115 -0.002011959756244697 
0.006441618367392571 -0.005591592048964115 -0.002011959756244697 
0.006441618367392571 -0.005591592048964115 -0.002011959756244697 
0.006441618367392571 -0.005591592048964115 -0.002011959756244697 
0.006441618367392571 -0.005591592048964115 -0.002011959756244697 
0.006441618367392571 -0.005591592048964115 -0.002011959756244697 
0.006441618367392571 -0.005591592048964115 -0.002011959756244697 
0.006441618367392571 -0.005591592048964115 -0.002011959756244697 
0.006441618367392571 -0.005591592048964115 -0.002011959756244697 
-0.02444197228967196 0.03514679131816408 -0.01590273677024006 
0.02283329050800854 -0.01833902715913926 -0.009676395128249984 
0.01289555163877124 -0.01003902353653189 -0.005976340888389497 
0.006441618367392571 -0.005591592048964115 -0.002011959756244697 
0.006441618367392571 -0.005591592048964115 -0.002011959756244697 
0.02241018895056736 -0.03644376031335907 -0.0006504386765708795 
0.003741401205630649 -0.002751662258677806 -0.002231787092585978 
0.006441618367392571 -0.005591592048964115 -0.002011959756244697 
0.006441618367392571 -0.005591592048964115 -0.002011959756244697 
0.006441618367392571 -0.005591592048964115 -0.002011959756244697 
0.006441618367392571 -0.005591592048964115 -0.002011959756244697 
0.006441618367392571 -0.005591592048964115 -0.002011959756244697 
0.006441618367392571 -0.005591592048964115 -0.002011959756244697 
0.006441618367392571 -0.005591592048964115 -0.002011959756244697 
0.006441618367392571 -0.005591592048964115 -0.002011959756244697 
0.03305843659595706 -0.03216353404286053 -0.005900253851313323 
0.006441618367392571 -0.005591592048964115 -0.002011959756244697 
0.006441618367392571 -0.005591592048964115 -0.002011959756244697 
0.01027765566412859 -0.008174686424436247 -0.004557335402377287 
0.006441618367392571 -0.005591592048964115 -0.002011959756244697 
0.006441618367392571 -0.005591592048964115 -0.002011959756244697 
0.006441618367392571 -0.005591592048964115 -0.002011959756244697 
0.006441618367392571 -0.005591592048964115 -0.002011959756244697 
0.006441618367392571 -0.005591592048964115 -0.002011959756244697 
0.006441618367392571 -0.005591592048964115 -0.002011959756244697 
0.02635581914848573 -0.01359756759260496 -0.01508389421148272 
0.006441618367392571 -0.005591592048964115 -0.002011959756244697 
0.006441618367392571 -0.005591592048964115 -0.002011959756244697 
0.006441618367392571 -0.005591592048964115 -0.002011959756244697 
0.006441618367392571 -0.005591592048964115 -0.002011959756244697 
0.006441618367392571 -0.005591592048964115 -0.002011959756244697 
0.006441618367392571 -0.005591592048964115 -0.002011959756244697 
-0.005572360265586073 -0.007152105080077076 0.01182863921560108 
-0.003317888231523271 0.007375697647790374 -0.007226582711434377 
0.01502002476693062 -0.007696414685957181 -0.01105521394325042 
0.0009533630297530903 -0.0006081988371655109 -6.075716740126477e-05 
0.0009533630297530903 -0.0006081988371655109 -6.075716740126477e-05 
-0.01721461984228378 0.003661641125421405 0.005294018446056177 
0.0009533549205513271 -0.0006088271359219182 -6.071257157053407e-05 
-0.03239501076245241 0.04302292578226883 -0.02045756171747920 
-0.06293012471401356 0.02287839925975877 0.02322563342471161 
0.0009533630297530903 -0.0006081988371655109 -6.075716740126477e-05 
0.0009533630297530903 -0.0006081988371655109 -6.075716740126477e-05 
0.006948001666294846 -0.004956445639030807 -0.003907075577869835 
0.01358556461625905 -0.005106695434506673 -0.01295817862261087 
0.0009533630297530903 -0.0006081988371655109 -6.075716740126477e-05 
-0.06509576977115826 0.02086027679925935 0.03132021750031337 
0.006520589449978091 -0.02850225053555009 0.01613432858157333 
-0.005458192718536407 0.01515221117086267 -0.01047555924570810 
-0.02552150181350745 5.912435471575954e-05 0.01916763912447378 
0.03331255114570763 -0.02406103038734691 -0.02098276994581106 
0.0009533630297530903 -0.0006081988371655109 -6.075716740126477e-05 
0.01155748546737648 -0.001411680663334872 -0.01561425123795753 
0.0009533630297530903 -0.0006081988371655109 -6.075716740126477e-05 
-0.002401160649163559 -0.001418076517306215 0.004177662432444865 
0.0009533630297530903 -0.0006081988371655109 -6.075716740126477e-05 
0.0009533630297530903 -0.0006081988371655109 -6.075716740126477e-05 
0.002497827729146117 -0.002382790419561524 -0.0006056439528248569 
0.01369737009132504 -0.006317823619680725 -0.01160552524356265 
0.01561640401757217 -0.01315397483851247 -0.004831351454903730 
0.002497827729146117 -0.002382790419561524 -0.0006056439528248569 
0.002497827729146117 -0.002382790419561524 -0.0006056439528248569 
0.002497827729146117 -0.002382790419561524 -0.0006056439528248569 
0.002497827729146117 -0.002382790419561524 -0.0006056439528248569 
0.002497827729146117 -0.002382790419561524 -0.0006056439528248569 
0.002497827729146117 -0.002382790419561524 -0.0006056439528248569 
-0.002770737479547890 -0.005689522364773406 0.008194638723278344 
0.002497827729146117 -0.002382790419561524 -0.0006056439528248569 
0.002497827729146117 -0.002382790419561524 -0.0006056439528248569 
0.002497827729146117 -0.002382790419561524 -0.0006056439528248569 
0.002497827729146117 -0.002382790419561524 -0.0006056439528248569 
0.002497827729146117 -0.002382790419561524 -0.0006056439528248569 
0.002497827729146117 -0.002382790419561524 -0.0006056439528248569 
0.002497827729146117 -0.002382790419561524 -0.0006056439528248569 
0.002497827729146117 -0.002382790419561524 -0.0006056439528248569 
0.002497827729146117 -0.002382790419561524 -0.0006056439528248569 
0.002497827729146117 -0.002382790419561524 -0.0006056439528248569 
0.002497827729146117 -0.002382790419561524 -0.0006056439528248569 
0.002497827729146117 -0.002382790419561524 -0.0006056439528248569 
0.002497827729146117 -0.002382790419561524 -0.0006056439528248569 
0.002497827729146117 -0.002382790419561524 -0.0006056439528248569 
0.01448175724012591 -0.01550205654169339 -0.001806911004318903 
0.002497827729146117 -0.002382790419561524 -0.0006056439528248569 
0.009629991407721961 -0.003541631794591806 -0.007998668339789670 
0.002497827729146117 -0.002382790419561524 -0.0006056439528248569 
0.002497827729146117 -0.002382790419561524 -0.0006056439528248569 
0.002497827729146117 -0.002382790419561524 -0.0006056439528248569 
0.008491497415408328 -0.007304624928387521 -0.004935196786031210 
0.002497827729146117 -0.002382790419561524 -0.0006056439528248569 
0.002497827729146117 -0.002382790419561524 -0.0006056439528248569 
0.002497827729146117 -0.002382790419561524 -0.0006056439528248569 
0.002497827729146117 -0.002382790419561524 -0.0006056439528248569 
0.0005237671552490011 0.004725318979497381 -0.006679686084162573 
0.002497827729146117 -0.002382790419561524 -0.0006056439528248569 
0.002497827729146117 -0.002382790419561524 -0.0006056439528248569 
0.002497827729146117 -0.002382790419561524 -0.0006056439528248569 
0.002497827729146117 -0.002382790419561524 -0.0006056439528248569 
0.002497827729146117 -0.002382790419561524 -0.0006056439528248569 
-0.005287944217062906 0.005828604530544171 -0.0009869009034752965 
0.003877291248634725 -0.003285773773745336 -0.0008814581629597805 
-0.01819543995750312 -0.005273041322899207 0.02019706115058268 
0.002497827729146117 -0.002382790419561524 -0.0006056439528248569 
0.002497827729146117 -0.002382790419561524 -0.0006056439528248569 
0.004951941398376050 -0.003854772289635863 -0.002250644855640897 
0.002497827729146117 -0.002382790419561524 -0.0006056439528248569 
-0.001697609611855722 0.002667085077832205 -0.001783902051230661 
0.002497827729146117 -0.002382790419561524 -0.0006056439528248569 
0.002497827729146117 -0.002382790419561524 -0.0006056439528248569 
0.002497827729146117 -0.002382790419561524 -0.0006056439528248569 
0.002497827729146117 -0.002382790419561524 -0.0006056439528248569 
0.01025286026913650 -0.005927918674754133 -0.008123445307480203 
0.002497827729146117 -0.002382790419561524 -0.0006056439528248569 
0.002497827729146117 -0.002382790419561524 -0.0006056439528248569 
0.002497827729146117 -0.002382790419561524 -0.0006056439528248569 
-0.009040857205761275 0.02013675102223345 -0.01255204820803054 
0.002497827729146117 -0.002382790419561524 -0.0006056439528248569 
0.002497827729146117 -0.002382790419561524 -0.0006056439528248569 
0.002497827729146117 -0.002382790419561524 -0.0006056439528248569 
0.002497827729146117 -0.002382790419561524 -0.0006056439528248569 
0.008040878164602382 -0.006441832809514475 -0.002034983761750322 
0.001691547267292135 -0.001532520179335734 -0.0002201133883578842 
0.001691547267292135 -0.001532520179335734 -0.0002201133883578842 
0.03492058960505526 -0.02285729359875805 -0.03285850660719377 
0.003739242132866195 -0.003102805010374652 -0.001299288874569563 
0.001691547267292135 -0.001532520179335734 -0.0002201133883578842 
0.001691547267292135 -0.001532520179335734 -0.0002201133883578842 
0.003670768159402143 -0.002864064779328599 -0.001020392424439177 
0.001691547267292135 -0.001532520179335734 -0.0002201133883578842 
0.001691547267292135 -0.001532520179335734 -0.0002201133883578842 
0.001690319982668148 -0.001531383499217923 -0.0002198981166348526 
0.001691547267292135 -0.001532520179335734 -0.0002201133883578842 
0.02478991487885387 -0.02107376358907343 -0.01091672704310756 
0.008049702351268950 -0.01346367304086235 0.0009199033369694488 
0.01489087979799449 -0.01154646351964566 -0.003438537092799089 
0.003082056398089692 -0.002957975689041431 -0.0003116566027238293 
0.01101672386462776 -0.009414308524884950 -0.001619263290096784 
0.005466516813340944 -0.005069103144641163 -0.0006861837306392762 
0.003670768159402143 -0.002864064779328599 -0.001020392424439177 
0.02660498572552620 -0.02731887105206905 -0.004784106564539514 
-0.02661947411639376 0.02209613162795395 0.006936700624043368 
0.001691547267292135 -0.001532520179335734 -0.0002201133883578842 
-0.004471667898929776 0.005439294144208138 -0.0008005847741731550 
0.004461931047585343 0.004353722503436818 -0.01198374125505785 
0.001691547267292135 -0.001532520179335734 -0.0002201133883578842 
0.001691547267292135 -0.001532520179335734 -0.0002201133883578842 
0.001691547267292135 -0.001532520179335734 -0.0002201133883578842 
0.01806106345528896 -0.01206591804605977 -0.009197527216909526 
0.001691547267292135 -0.001532520179335734 -0.0002201133883578842 
-0.01252110674742978 0.01370911605023270 -0.004111506743520319 
0.001691547267292135 -0.001532520179335734 -0.0002201133883578842 
0.001691547267292135 -0.001532520179335734 -0.0002201133883578842 
-0.03224715575218852 0.04118600687233191 -0.01696032433899559 
-0.01887074134103390 0.02100596942534966 -0.002223292356326067 
0.001691547267292135 -0.001532520179335734 -0.0002201133883578842 
0.01090855457543942 -0.008915775250850272 -0.002622013957515909 
0.001691547267292135 -0.001532520179335734 -0.0002201133883578842 
0.001691547267292135 -0.001532520179335734 -0.0002201133883578842 
-0.003432166971728342 0.005817202485857200 -0.005704835249924271 
0.001691547267292135 -0.001532520179335734 -0.0002201133883578842 
0.001691547267292135 -0.001532520179335734 -0.0002201133883578842 
0.001691547267292135 -0.001532520179335734 -0.0002201133883578842 
-0.02019707945382451 0.02490464081698516 -0.003051114352024477 
0.001691547267292135 -0.001532520179335734 -0.0002201133883578842 
0.001691547267292135 -0.001532520179335734 -0.0002201133883578842 
0.001691547267292135 -0.001532520179335734 -0.0002201133883578842 
0.001691547267292135 -0.001532520179335734 -0.0002201133883578842 
0.005583541637951277 -0.003969846229943771 -0.002449460419424852 
0.001691547267292135 -0.001532520179335734 -0.0002201133883578842 
0.001691547267292135 -0.001532520179335734 -0.0002201133883578842 
0.001691547267292135 -0.001532520179335734 -0.0002201133883578842 
0.001691547267292135 -0.001532520179335734 -0.0002201133883578842 
0.001691547267292135 -0.001532520179335734 -0.0002201133883578842 
0.008425832083542974 -0.006049161926431423 -0.003137826647629508 
0.001691547267292135 -0.001532520179335734 -0.0002201133883578842 
0.001691547267292135 -0.001532520179335734 -0.0002201133883578842 
-0.01749439388393135 0.006334632548781962 0.008186405941797604 
0.001690389385848184 -0.002426636388963092 0.0009358480296648240 
0.001691547267292135 -0.001532520179335734 -0.0002201133883578842 
