solver_type L2R_L2LOSS_SVC
nr_class 3
label 0 1 2
nr_feature 7165
bias 1.000000000000000
w
-7.216231149033550e-05 -0.0002826631361405060 -3.518401223599525e-05 
-0.0002282840747734627 4.661228808171650e-06 -3.516428553741441e-05 
-0.01847909119851358 0.01471720006240538 -0.001742658469349242 
-0.003060264032675577 -0.003200587510794686 0.006010567291378314 
0.01116724883514521 -1.163621517224021e-07 -0.01191392715647862 
0.01116724883514521 -1.163621517224021e-07 -0.01191392715647862 
-0.0002251958608806222 -0.001877986755438629 0.001530354975386601 
0.01116724883514521 -1.163621517224021e-07 -0.01191392715647862 
-0.0002282840747734627 4.661228808171650e-06 -3.516428553741441e-05 
-0.01999205290251651 0.03307669186209599 -0.02245354059987995 
-0.006550698358256842 -0.006626699371969173 0.01428029852495192 
0.006226097573122653 0.005283311857195944 -0.03266851014205079 
-0.005479460764044018 -0.002019882850123087 0.007569676697197786 
0.008142492972071674 -0.005147430078752621 -0.009015845843098783 
-0.0002282840747734627 4.661228808171650e-06 -3.516428553741441e-05 
-0.0002276161273601679 4.215799934593638e-06 -0.001092870386652839 
0.02823700379762116 -0.01296566587384610 -0.02150327626800317 
0.01116724883514521 -1.163621517224021e-07 -0.01191392715647862 
0.01116724883514521 -1.163621517224021e-07 -0.01191392715647862 
0.0006183732107797977 0.01605199292072840 -0.02653183552527967 
0.2937280111738738 -0.1768882708134140 -0.2019782938088963 
0.03441351258147891 -0.05277606673530574 -0.003355326906971458 
0.07378642233884990 -0.04364545257749827 -0.04323611077324065 
0.01392221917481837 -0.01766473516527344 0.001162161898622706 
0.009311416279795006 -0.006652288751379429 -0.008657604570718926 
-0.02473048077943027 -0.02051085205728761 0.04152649651460304 
0.05450297801084571 -0.02125129260719647 -0.05427226106281467 
-0.003151181798979128 -0.004081452203016615 0.006490116782221623 
-0.005479460764044018 -0.002019882850123087 0.007569676697197786 
-0.003003166277086378 -0.01899308750894203 0.007075424722618443 
-0.01182233791860063 -0.008468654117130759 0.02008181862486316 
-0.02360797951891928 0.02886782050952500 -0.01715240991481357 
-0.0006908265144174627 0.009961769785139303 -0.009639108027141815 
-0.0002282840747734627 4.661228808171650e-06 -3.516428553741441e-05 
-0.04575596631376765 0.03220763693739398 -0.02991138961927468 
0.01189289421572665 -0.004504005535678227 -0.01450016283945849 
0.005916072145874657 -0.002024660441082981 -0.004309086173743417 
-0.0002282840747734627 4.661228808171650e-06 -3.516428553741441e-05 
0.009853459195020597 -0.01381423287180657 -0.007360531066839004 
0.01801286450019657 -0.008653263849878114 -0.01401917505937991 
-0.005479460764044018 -0.002019882850123087 0.007569676697197786 
-0.006767993087634943 -0.005161479779688711 0.009451151609064892 
-0.0002222932814055869 -0.003311330047360183 0.004617054847270523 
0.002101369812971813 0.001274457489840375 -0.001355679519387007 
-0.007718971566598687 -0.009451344906371456 -0.07454519705134492 
0.02110986454480966 -0.01733594950079077 -0.009971063015454786 
-0.0002282840747734627 4.661228808171650e-06 -3.516428553741441e-05 
-0.007194128858591635 -0.0003340387050747503 0.006160378028980187 
0.0004871347932902191 -0.03824467540284379 0.001238433326951024 
-0.005883793117448619 0.006189016083771406 -0.003310448468499961 
-0.005479460764044018 -0.002019882850123087 0.007569676697197786 
-0.02781268589131037 -0.05849559449207571 0.04358673051072388 
-0.0002727864919196331 -0.004287189205765516 0.005772898033203961 
0.0001707760720479449 -0.002915177513146511 0.002871092132788144 
0.003715852941835988 -0.009915072631236739 0.001993172826743971 
-0.005479460764044018 -0.002019882850123087 0.007569676697197786 
-0.005373827551708658 0.007787527335479744 0.0008867037358611287 
-0.003126759522921560 -0.002041864608612070 0.006501313092057606 
-0.02029289577005885 0.008480721709078189 0.01553085960731231 
0.008049438595377174 -0.0007036409123917642 -0.008791674514986003 
0.0009809430204074660 0.0005488665329848652 -0.0006697025635191359 
0.007547434778181159 0.01461939294541073 -0.03059997800948940 
-0.03110064574854344 0.02454506690939509 0.006893006462633306 
0.01330939081563569 0.004379322637840190 -0.04755668961734822 
-0.009706407541812400 -0.0004685577450370161 0.008706714016852244 
-0.005479460764044018 -0.002019882850123087 0.007569676697197786 
0.01075832467781296 -0.007371370632309760 -0.008138828026460735 
-0.03907175993131528 -0.04997711265394832 0.05828980103428851 
0.002354488189948911 0.003472781098664322 -0.006933680855904607 
-0.008950318080332418 -0.01041626833432501 0.01474899003419595 
-0.05513775636557385 -0.04992065989158200 0.07139914631178243 
0.01282582739774040 -1.072447461850044e-06 -0.01309198294728024 
0.01116724883514521 -1.163621517224021e-07 -0.01191392715647862 
-0.002811966103921662 0.005207551192197224 -0.003027576873544039 
-0.0003439761496174468 -0.005970269521424119 0.004184814161170734 
-0.005479460764044018 -0.002019882850123087 0.007569676697197786 
-0.01160788062499181 0.009244900115577976 -0.0007366405113503202 
-0.005479460764044018 -0.002019882850123087 0.007569676697197786 
-0.005884170448908124 0.005307598420334287 -0.001300470421486736 
-0.07579591843602412 -0.01364550576601051 0.07709061983290168 
-0.03181790355790791 0.01209877289426163 0.01409437827673265 
-0.001115959486128237 -0.002021753884530398 0.002438931090835819 
0.08486334214827881 -0.04345589759770599 -0.04693578406075494 
-0.009379498286359860 0.008956247075973546 0.004589371178889481 
-0.005601275774844827 -0.0001148329481730937 0.006247604100232220 
-0.002786339031271593 0.0004737082202383997 0.005602807725881041 
-0.005478577734008287 -0.002020177919045903 0.007569603982396822 
-0.01203857222089962 0.005664489330735442 0.004761350993884277 
-0.005479460764044018 -0.002019882850123087 0.007569676697197786 
-0.01223858783459736 0.003214309362282217 0.002910152456547994 
-0.005479460764044018 -0.002019882850123087 0.007569676697197786 
-0.01316590649270427 0.01573939542029256 -0.005144212707451723 
0.05720342527987480 -0.06582583111179340 -0.01146278975524788 
0.008189582173554488 -0.01446112407306493 0.002949445436554885 
-0.008448210549769112 -0.007220841710624701 0.01160796028404963 
-0.004436178617361599 -0.002017734433083787 0.007126897960446826 
0.003712449273334949 -0.02957242915588442 0.01062013371080636 
-0.009446070825420998 0.02347512615036424 -0.01230388239617662 
-0.001951696214587713 -0.001657987750333297 -0.007458185825307980 
-0.005479460764044018 -0.002019882850123087 0.007569676697197786 
0.02355890795387356 -0.03403073690960817 0.0003199033290421902 
0.005916072145874657 -0.002024660441082981 -0.004309086173743417 
-0.02065134044581312 0.02829676150089992 -0.008945041326403520 
0.01223014936210549 -0.0006027081177570130 -0.01233876463408249 
-0.002232346373315597 -0.003235830858197819 0.005607940170332151 
-0.004604005046967549 -0.002694291516183351 0.007523566983300980 
0.05249990293071463 -0.01694035837189043 -0.05224006474083687 
0.007686769664415879 -0.0003401534907505304 -0.01622109210512776 
0.01741328041859688 -0.03310705598598230 0.006218721630360988 
-0.02359698334024919 0.005566306259443690 0.01201670156573387 
0.02918760282113254 -0.06803788966790876 -0.005362155365029662 
0.05092788004747698 -0.04735022177550791 -0.02471100654847323 
-0.01257404147659352 0.003619882381726347 0.001481166814357116 
0.01225408936567156 -0.06972043551828133 0.01563962475914347 
0.001651559084045516 -0.0005971589188400852 -0.001931448886139142 
-0.005479460764044018 -0.002019882850123087 0.007569676697197786 
-0.004136452188842364 -0.003475188394280903 0.007569567631099146 
-0.005479460764044018 -0.002019882850123087 0.007569676697197786 
-0.005521109752457232 -0.02151702935410561 0.01761736614166522 
-0.002247593155092128 -0.007082906700689338 0.007692670836705654 
-0.005479460764044018 -0.002019882850123087 0.007569676697197786 
-0.008517830691593937 -0.005809614425025679 0.01326188677771406 
-0.05000591793220179 0.05386730531482639 -0.01107917059952019 
-0.01031911280367107 -0.01801276360452940 0.02297171868557189 
0.02200542796138302 -0.01075057253373366 -0.01221219266484497 
0.01116724883514521 -1.163621517224021e-07 -0.01191392715647862 
0.002997421843572833 -0.01144828458834155 0.007105158609494010 
0.01116724883514521 -1.163621517224021e-07 -0.01191392715647862 
0.003326235831404731 -0.005811240371720797 0.002709353294778280 
-0.01712478559468740 0.01277230230630442 -0.008016872188990354 
0.007481244672282925 -0.002025214315015463 -0.004842160041927381 
0.005380439514520896 -0.007912234687973490 -0.009438182596580906 
0.01116810078410697 -4.610782280920080e-07 -0.01191403244312042 
0.01116724883514521 -1.163621517224021e-07 -0.01191392715647862 
-0.001832436256662314 -0.002169059101992857 0.004656894401319163 
-0.01292604584413996 -0.001726678107170626 0.01503523140403388 
-0.007721673176428671 -0.007357192947733374 0.01310144382147306 
-0.01551835180293253 -0.008109876938012293 0.01685525571638936 
0.0002401586124818043 -0.008609289358927200 0.008378668571136842 
-0.002567932836078770 -0.005091796874428845 0.004884959577314149 
-0.002650193334140115 -0.003433006602102998 0.005662365865927375 
0.01093430683490574 -0.01461834553220743 0.0002244829188365365 
-0.01769453286047522 -0.02260018248955393 0.03204479501015654 
0.05888038181345393 -0.04480225973999490 -0.02363332895882771 
0.04042839482498673 -0.01854037516395877 -0.03908764918449198 
0.02573913587738761 -0.01396544681707235 -0.02745509235797750 
0.1532172983530694 -0.09230975786556422 -0.1053396422446401 
-0.005479460764044018 -0.002019882850123087 0.007569676697197786 
0.01116724883514521 -1.163621517224021e-07 -0.01191392715647862 
0.01228822728404404 -0.009890131454998449 -0.01821503201856001 
0.02353461718524477 -0.02237816013353549 -0.01194781116314211 
0.1180363633850603 -0.07254817406535265 -0.08644192146310839 
-0.009850304174501147 0.01886612026208748 -0.01361732281362671 
0.0004529841581845485 -0.001909695906108019 -9.865889226408790e-08 
0.003919429509465200 -0.005843006874429940 -0.001974415112613035 
0.0004529841581845485 -0.001909695906108019 -9.865889226408790e-08 
0.002464637319202081 -0.001910144881206851 -0.001907473390281514 
0.004182745565998379 -0.001910128373260020 -0.003429354684071434 
0.01607530897018685 -0.01263563632112517 -0.01085024965067286 
-0.07217867353292526 0.1226429670676947 -0.08178391314827413 
0.03558830231392413 -0.004306775335665643 -0.04281379100693534 
0.07979585486877087 -0.07159181529499102 -0.03582533242210020 
-0.003331845502599239 -0.002042769313384030 0.004439896687133908 
-0.002006697995751361 0.01443059384513428 -0.01528587339148897 
-0.0008808366471607608 0.03257409647663361 -0.04206651350475898 
0.01057853825906368 -0.01696068424766510 -0.007952894435059020 
0.002332009871369965 -0.002609756325434314 -0.001896181738373472 
0.002332009871369965 -0.002609756325434314 -0.001896181738373472 
0.03719445710092192 -0.0008331297124976643 -0.08934665104194923 
-0.008362705936694569 0.006141495396620868 -0.008790200501802256 
0.04098382448387065 -0.01781144904333291 -0.03561832141254924 
0.04902507994633545 -0.02305780124823555 -0.03118594089237763 
-0.006402700789528205 0.001975847819352259 0.003488870847238606 
-0.003834229034562561 0.006543038328350368 -0.002682388486192937 
-0.01705479263941905 -0.01861052708840606 0.02915450968727699 
-0.01087210173488212 0.01016427402437185 -0.004729726593388840 
-0.02601023485394719 0.02460578858688623 -0.01304310175650810 
0.02341898740009649 -0.01779357729558562 -0.02102903393014546 
0.0007111798760576517 -0.001486371832198157 0.002281376827993704 
-0.0006893625837277815 -0.01650699956531576 0.003487104113727293 
0.01327377353451719 -0.01263025057480635 -0.01310697295405384 
-0.002094161156053688 0.002120464007871047 -0.001346513703601474 
-0.003706516107431451 0.007390221858026820 -0.01425622502379396 
-0.03269654932213143 0.005636425384266092 0.01451299964968060 
0.01173175661553245 -0.008969328008770185 -0.008451912551971676 
0.0006241999594760328 0.01756751304659086 -0.02160476957181100 
0.01190844589824938 0.008865570666585455 -0.03195803120820613 
0.02267862342985287 -0.01685278375561405 -0.01146042314383149 
0.06642808534399686 -0.02819442514311769 -0.05832082499846536 
0.001210248664179843 -0.01756165726624377 0.005991473195977151 
-0.01443398484669166 0.01180234803307962 -0.002775257269637059 
0.02210261783231687 -0.01731796133343587 -0.009963495022372934 
0.004047401891708475 -0.003915260866550216 -0.003922873325573547 
0.05297490554443857 -0.03425806985516727 -0.03581744424456405 
0.001116955905967971 -0.001910901645676015 -0.001641650974095682 
-0.001250716078633903 -0.004551977853798205 0.003406209252608547 
0.005443643207302165 -0.003112499624595489 -0.01108858255389030 
0.004001594163891529 -0.001129381520631200 -0.001866686903389448 
0.004001594163891529 -0.001129381520631200 -0.001866686903389448 
0.004001594163891529 -0.001129381520631200 -0.001866686903389448 
0.004000804990671673 -0.001123655685171325 -0.001866219644676179 
0.01290274102744194 -0.02841340049765576 0.004618756727050624 
0.01186211551855706 0.0004168511099545809 -0.01744819465788345 
0.004001594163891529 -0.001129381520631200 -0.001866686903389448 
0.005480175697120899 -0.001124657162164701 -0.003849756103389641 
0.05539511105502955 -0.09258353762748410 -0.003771258965014297 
0.06672690776447988 -0.03827045595930168 -0.04639519257035982 
-0.009306360730087553 0.004868303017829973 -0.002371773463415152 
0.008647195728946050 -0.004401940686925004 -0.004279404715833505 
0.03061789591639872 -0.005951244593414741 -0.02384161583593529 
0.007608911708828689 -0.002934345710893120 -0.005134772072878940 
0.005847540712089737 -0.001130521323391174 -0.002812721139308675 
0.002319328367894745 0.002962477312295517 -0.007172221385657060 
-0.01734760337391882 -0.01203352660136226 0.01753063816399769 
0.003952303202536000 0.005340529150113902 -0.01217353514759369 
0.007561268564503475 -0.002905348212702071 -0.003917596219377351 
0.004001594163891529 -0.001129381520631200 -0.001866686903389448 
-0.003382722698558107 -0.009299426157988245 0.007609732963561516 
0.003092124356075447 -0.003750584943806831 -0.0006430940286088396 
-0.01108778090378169 -0.01128196248340254 0.01315113147886059 
-0.02501226536686563 -0.03364820698250171 0.04267304518162662 
0.004001594163891529 -0.001129381520631200 -0.001866686903389448 
0.02212898481330296 -0.01177002862812508 -0.01205276652798968 
0.004001594163891529 -0.001129381520631200 -0.001866686903389448 
-0.005983507190605086 0.008921760986961137 -0.004052546345493929 
-0.01238782805992237 -0.01041254677006471 0.01581753988187391 
-0.004999326631204420 -0.04117015962905823 0.02639974465982271 
0.02013254739200605 -0.002295262023348403 -0.02992068393357479 
0.01689273086454991 0.006289000232775192 -0.03569954538349262 
0.001576251243117814 0.003746384360712999 -0.005428649468024705 
0.005830121156277352 -0.003588458897833945 -0.001866612876034524 
0.004001594163891529 -0.001129381520631200 -0.001866686903389448 
-0.006328102471357974 -0.005175258457102188 0.009640381895148290 
-0.01787079733220787 -0.009937288040445719 0.02758180617652579 
0.01252452535009693 -0.01528141923440919 -0.0005514398951639247 
0.01127805982886620 -0.005400867625817934 -0.03497613523595475 
0.006294297643032262 -0.004484162460689834 -0.001881596187888643 
-0.01218511967315985 -0.007875787235024715 0.01647025703482770 
-0.0001669997672385269 0.0008374362265248726 -0.01424113249394536 
-2.163604048041499e-05 -0.005099775909928495 0.005792767967054073 
0.02483013197260748 -0.0003626949288937529 -0.03159619887017871 
0.02466328003633780 -0.01091981457674842 -0.01513627796721872 
0.02257197714170318 -0.02165242917043888 -0.008602044259029523 
0.002506702217289465 -0.001864411705776815 0.001560675091937225 
-0.05037002907826629 0.03842946555467180 -0.001543809181547010 
-0.01145882184087916 0.006651096778704996 0.001897722798939540 
-0.03394961905247653 0.01472674891086553 0.007476673168705661 
0.0001452075694716585 0.003453972543124201 -0.004127423064906674 
0.01341587180839683 -0.02192091565046442 0.007937211714887728 
0.004825780650036110 0.001750814954536438 -0.004763070616702296 
0.0009366939404146593 0.004667493783347319 -0.003720866100045843 
-0.02447021762387125 -0.003412936867899319 0.01530233912168017 
0.01089179964713007 -0.001897964087918811 -0.009019125903811920 
0.02584900328821416 -0.01089821751341971 -0.02019463396458393 
-0.008383562470064287 0.007475390648118420 -0.006686110274270326 
-0.01103475911235998 0.006000335884975478 0.006861500770348384 
-0.006976936506887599 0.005335863811602138 0.002331985961102165 
-0.005288207413525681 0.005509503619436904 -0.002285010250522413 
0.006527903797905848 -0.02424658966314047 0.01292199529974638 
0.04015992348332041 -0.03249285997126419 -0.02356649382199409 
0.003149498337751131 0.0009132874787412407 -0.007237660227466111 
0.004001594163891529 -0.001129381520631200 -0.001866686903389448 
0.004001594163891529 -0.001129381520631200 -0.001866686903389448 
0.004001594163891529 -0.001129381520631200 -0.001866686903389448 
0.003648335973013676 0.003202349536312885 -0.009022830831658394 
0.003594406719707384 -0.0003149658059567301 -0.003922902027811781 
0.003594406719707384 -0.0003149658059567301 -0.003922902027811781 
0.003594406719707384 -0.0003149658059567301 -0.003922902027811781 
0.003594406719707384 -0.0003149658059567301 -0.003922902027811781 
-0.01384474166715889 -0.009553047217257655 -0.001188037572355588 
-0.02749153679364349 0.05345698931174744 -0.04323220677600417 
-0.009021171284075655 0.01655259954821770 -0.02067399920377503 
0.001628419005720384 -0.006120409085656328 0.0003697018830033477 
-0.005891217452553846 -0.01519064804174361 0.01221536188951010 
0.007603166863696012 -0.003017746579177902 -0.004990363202996413 
0.01771448848003038 -0.01127898308366871 -0.008016399252298677 
0.03303429178828669 -0.007356181345688033 -0.03349737400867127 
0.01022184344811256 -0.001965431036333808 -0.01335166919305593 
-0.001837488101434214 -0.004028439169290064 -0.003890804660783509 
-0.006349281684496363 -0.006579685123743316 0.007382951409982749 
-0.01941342386427793 -0.006263908466359321 0.02242741025311883 
-0.06229085552652749 -0.03541553708148836 0.07318587941305996 
0.003594406719707384 -0.0003149658059567301 -0.003922902027811781 
-0.02989497416421610 0.002430936046970039 0.01238434807708420 
0.002301654929073765 -0.01145644742144278 -0.006933533771612921 
0.003594406719707384 -0.0003149658059567301 -0.003922902027811781 
0.006118025489860761 -0.003119213352842631 -0.003923083355545707 
0.003594406719707384 -0.0003149658059567301 -0.003922902027811781 
0.007026014298652181 -0.001807456498351361 -0.01555259448402265 
-0.003590190238786880 -0.008878700358795991 -0.006764190594034588 
-0.001397031520508150 0.007689850381567205 -0.007527965168411414 
-0.006799255109818824 0.01167334471580690 -0.006697679970312233 
0.001040269212551369 -0.003120866859418737 0.002227317337969608 
0.01451858050106261 0.001151928727729973 -0.01793186884588537 
-0.008814460713439751 0.01130584871940049 -0.003178148277660245 
0.003942901127706806 -0.007807039379549840 0.001620375617126522 
-0.01253550316647544 -0.01179063611969938 0.02145903150501425 
0.003381238879690228 -0.004261259107980837 -0.005342928001245627 
0.005149794195049609 -0.005742805166962434 -0.003997921829787549 
0.02107728621166180 -0.006827613334735990 -0.02138910705705768 
0.003594614112518186 -0.0003164049101281262 -0.003922972505992794 
0.02828177938224153 -0.01943956131300371 -0.02137971356795625 
0.005606059880724916 -0.0003154147810555619 -0.005830276759201032 
0.005857481687792698 -0.001208346101679651 -0.005481991706932673 
0.02874073228392012 -0.02490098854245178 -0.01071782053063060 
-0.002161649583453323 -0.008101435185464618 0.003141182607310180 
0.007822179420047340 -0.004621219377650790 -0.006756581594292706 
-0.01481177362085120 -0.01022831506865349 0.02247041614770771 
-0.001677018595211009 0.0004349738917806365 -0.01450436756188439 
0.04452898193357541 -0.02611639018788661 -0.03448440898591689 
0.001873601394793111 0.005307500792727174 -0.01356071567829713 
0.003594406719707384 -0.0003149658059567301 -0.003922902027811781 
0.001933741507185466 -0.002639332870941401 -2.717141559074909e-07 
9.870348625313197e-07 -1.349863766310547e-08 -9.310898783198000e-09 
0.006383452622728902 -0.01998247456909714 0.003245963643839264 
9.870348625313197e-07 -1.349863766310547e-08 -9.310898783198000e-09 
0.0001571087981456577 -0.0002873378635863408 -2.903759736405981e-08 
9.870348625313197e-07 -1.349863766310547e-08 -9.310898783198000e-09 
9.870348625313197e-07 -1.349863766310547e-08 -9.310898783198000e-09 
0.01714482980199403 0.01122671753578722 -0.04104155607058653 
-0.004584214589664149 -0.04229919712409792 0.01032993553320463 
9.870348625313197e-07 -1.349863766310547e-08 -9.310898783198000e-09 
9.870348625313197e-07 -1.349863766310547e-08 -9.310898783198000e-09 
0.01087294934083017 -0.01084388770323623 -0.003153349871871448 
0.02439657483518466 -0.01410499102716385 -0.01918039382788401 
-0.01302308401938834 -0.02527862235917143 0.03112890391266794 
0.006667169085448481 -0.006132471124622585 -0.007904350729216126 
-0.006941333344397201 0.007010855234722107 -0.004052922919876118 
0.02618267875046218 -0.003760440096175184 -0.04370939588268388 
-0.01046583759531991 -0.002922322525305704 0.008700484442027567 
9.870348625313197e-07 -1.349863766310547e-08 -9.310898783198000e-09 
0.005294993696647176 -0.002532430312396525 -0.005018409666247595 
-0.004774181950225396 0.001232999225751563 4.249283100264465e-05 
0.02157264144061038 -0.002165170117765299 -0.02838118539758107 
9.870348625313197e-07 -1.349863766310547e-08 -9.310898783198000e-09 
0.002496923544240023 -0.001290984848232809 -0.003098056473479530 
0.01201323708284347 -0.008652151586302054 -0.002714973255848252 
-0.005733591787663650 0.01131141902545860 -0.004613361839407821 
-0.003853783871828949 0.008513533668932750 -0.002454040998962495 
0.02321314284585999 -0.004572784913845046 -0.02321025966933379 
-0.005673779173687455 -0.01296747202124476 0.009539111227770210 
-0.005925410565211161 0.001037696630260798 -0.003511500851045626 
1.870064898263561e-06 -3.085675604792732e-07 -8.202569974663875e-08 
-0.0009565178258637297 0.02493191049401563 -0.03635888591528749 
1.978616426750396e-07 5.712336822212024e-06 4.579478144859533e-07 
0.01078927865038338 0.004044562953514542 -0.01953920891583038 
0.01045438399296012 -0.002593074081600931 -0.01004038102940068 
0.0008685387245826084 -0.0001100420025859655 -0.002442993038745219 
-0.005318887546213401 -0.005122515193572407 0.01092995972774950 
0.0004461172644709604 0.003715684502716309 -0.004048736114652547 
0.008699392464145164 -0.01118663383583577 -0.01008728417973905 
0.003046494352542034 -0.006485329947650016 0.0001266826192689586 
-0.04682976907322321 0.01301285186939048 -0.002886909163669316 
0.01520486275647578 -0.01328736077932260 -0.01099339456946699 
-0.01011804073861975 0.01994026416905417 -0.02492333803991767 
-0.01147240500451990 -0.007479193234185617 0.01792225295039050 
-0.004788264595537438 -0.0007622737965734087 0.006140573854372331 
-0.003820023570760275 0.008619126125071314 -0.007042423775156128 
-0.03239244158050210 -0.009042854463684377 0.03334789522315514 
-0.002422785207962652 0.008234081437435162 0.0009037893119226490 
-0.004771541059207036 0.002454211758866968 0.002251116391841555 
-0.008010371585821758 0.008145976599386767 -0.003401440287003940 
-0.002931508707630747 0.001192318362973935 0.003105454202060275 
-0.01637296328014194 0.01166137833532066 0.001997729892041599 
0.004520319252154388 -0.01269636589925893 0.008716857811994137 
0.03364319751782386 -0.01396535925582248 -0.03221680580580136 
-0.004480503953608285 0.01398120298326797 -0.01455997214264108 
-0.01418520500510546 0.01284973550153703 -0.004262361279818661 
-0.01263445911705918 -0.01245149094940050 0.02884777779915025 
9.870348625313197e-07 -1.349863766310547e-08 -9.310898783198000e-09 
9.870348625313197e-07 -1.349863766310547e-08 -9.310898783198000e-09 
0.01305476083618464 -0.005509256697325912 -0.01594243980891237 
0.01079171574190002 -0.007608994812950858 -0.002935402804348648 
5.610794763133002e-07 -9.009710314555072e-08 5.016453964644980e-08 
5.610794763133002e-07 -9.009710314555072e-08 5.016453964644980e-08 
-0.002352042461706816 0.01138790512102265 -0.01500748686530452 
0.001484093299678532 -0.007966293156272480 0.006990389504863532 
-0.002467016722323248 0.005200614695602937 -0.003604991403612038 
0.03013149182049770 -0.01716459646642509 -0.03111229979274831 
-0.03381453834446261 0.03688809292779599 -0.01185304594523887 
-0.001561734006154154 0.009103245313892352 -0.02606883107324188 
0.01042154746880701 -0.003462259970424716 -0.01011125844039360 
0.001226821162875815 -1.352576275202972e-06 -0.002718332039026690 
0.005321225405351255 -0.004830546159124910 -0.003519302461419226 
5.610794763133002e-07 -9.009710314555072e-08 5.016453964644980e-08 
0.02376785688057906 0.0004377676140626893 -0.02617334679771852 
5.610794763133002e-07 -9.009710314555072e-08 5.016453964644980e-08 
-0.001353060966882644 0.005977458894342208 -0.01118792423541824 
-0.001053461931874907 -0.006450978267671534 0.007965438032353426 
0.02617805778008464 -0.008352656357026363 -0.02930548728809984 
-0.01608901010999324 -0.02157127192848042 0.02749043312022600 
0.01566076120935147 -0.01752426862732415 -0.01073723754439957 
-0.001085073994405676 0.007579229237805655 -0.008274549358049494 
0.02413734624387304 -0.008561430177968645 -0.02236057547005474 
-0.008102986115305041 0.007364555609278452 -0.002151980330157716 
0.01266080921980765 -0.03786060698083629 0.008372797979401810 
-0.03104159496911764 0.01394228066118109 0.01153397088414358 
-0.02284239719483823 0.02074737265007875 0.0002207437634091376 
0.0004770103102993031 0.0009645543926524174 -0.002051070436754251 
-0.05746926129342254 0.004912287629969884 0.03515217751511252 
-0.02363612332723196 0.05483781548051264 -0.05009277928953525 
-0.05113018358701209 -0.08882799344495271 0.08765628720176888 
-0.003864520289418734 -0.004834068216810863 5.949493933817468e-05 
5.610794763133002e-07 -9.009710314555072e-08 5.016453964644980e-08 
0.01053724015201218 0.01178411686478388 -0.02213631997748023 
5.610794763133002e-07 -9.009710314555072e-08 5.016453964644980e-08 
-0.007975863223116013 -0.004395816714863724 0.01101229663247626 
0.005311273482933760 -0.003438554413438716 -0.006205810959295311 
0.0008728700039275955 -0.0006726525063694782 4.600031992836342e-08 
0.001848447611901839 -0.001959671189367153 -0.0007844370639075565 
-0.02528209472191815 0.006387287022396456 0.01489130999266333 
0.009343182304619770 -0.005532127445834719 -0.01178565859166017 
0.004731555440020143 -2.959721276850206e-05 -0.007968168425247281 
-0.001660625328176444 -0.002506431736843313 0.007680802219627500 
0.0008728700039275955 -0.0006726525063694782 4.600031992836342e-08 
0.05984182035712510 -0.02726740471335329 -0.05895920511232818 
0.005983407993223105 -0.003048664989072583 -0.003226857235582568 
0.003492715024511538 -0.003047857112996366 -0.0007717580547884454 
-0.01227045666344688 0.03229558565775004 -0.03867906533590006 
0.02340159595488409 -0.007576661992177204 -0.04352688277265148 
0.0008728700039275955 -0.0006726525063694782 4.600031992836342e-08 
0.01595999802950596 -0.02390500133095969 0.002550426058013660 
0.003782230337502618 -0.002499007872976072 -0.003264106305400471 
0.01424462492225241 -0.01470733224615310 -0.005559889326463550 
0.001682494250022404 0.005082349182141734 -0.008257858800230519 
0.0008728700039275955 -0.0006726525063694782 4.600031992836342e-08 
-0.001094254298015235 -0.004379880470274264 0.006059464820883227 
0.02770685334040361 -0.01887558181417794 -0.01321720549862340 
-0.005755030703373281 0.01325853446824804 -0.008377910692259183 
0.0008728700039275955 -0.0006726525063694782 4.600031992836342e-08 
0.01477457168457288 -0.007502945093594336 -0.005734917173007967 
-0.0007098999734713335 -0.01306872519940069 0.009167748809066477 
0.01003946069345587 -0.01899879947325296 -0.001311627523264308 
-0.009440606985935315 0.02078145628233013 -0.008742840226594663 
0.0008728700039275955 -0.0006726525063694782 4.600031992836342e-08 
-0.006033641627103925 0.005958507294610053 -0.006945799190350857 
-0.002267064942263514 -0.001697262329377209 -0.004425488079754460 
0.0008728700039275955 -0.0006726525063694782 4.600031992836342e-08 
0.002334830943875802 0.03455020633264382 -0.04574763217871635 
-0.01811791329978855 -0.0004444701774444969 0.01379229336106710 
0.01658245127458192 -0.01126881304505525 -0.005207385659536108 
-0.002166138383511302 -0.001124223661300439 0.003582769298776814 
0.01082849535552760 -0.01312863355531498 -0.003685953312702895 
-0.001866933788503731 0.004817561821968252 -0.002992346860988115 
-0.006376321274973901 -0.009078841762214932 0.01668901534400155 
-0.001634044516782854 -0.002739420261199476 0.004155214683389425 
0.007513237615848815 0.002263359226100568 -0.02071441457804838 
-0.007027357639017785 -0.01143914678354297 0.01405057832015249 
0.006089689394261455 0.0002257034865854387 -0.003666045191579416 
-0.01674823077526418 0.006475817205630762 0.003861536863376429 
0.04106383355299219 -0.01884333726802178 -0.04016143344109280 
0.001961806360146076 -0.001479436699595238 -0.001161584324418894 
0.004638377698627938 -0.002270456105959066 -0.004820862748779180 
0.01529888480618524 -0.005981119164939659 -0.008131334398467150 
0.01259525315566861 -0.003402518831661366 -0.01082098156746362 
0.0008728700039275955 -0.0006726525063694782 4.600031992836342e-08 
0.0008728700039275955 -0.0006726525063694782 4.600031992836342e-08 
0.0001052193604838864 -0.0004677500797068756 -1.827128911109362e-07 
0.009125585440150616 -0.004819876590957708 -0.006377113992642572 
0.003690861342902584 -0.002059425030542872 -0.001288785793771126 
0.0005615332746129054 -0.0007039724084022682 9.817678954314555e-07 
0.0001052193604838864 -0.0004677500797068756 -1.827128911109362e-07 
-0.01424402766109166 0.02946951861396836 -0.03949623416417133 
-0.004521170255866693 0.008234894637198233 -0.006459634825288468 
0.0001052193604838864 -0.0004677500797068756 -1.827128911109362e-07 
-0.006407749646828016 -0.002792704693076116 0.008465153787942424 
0.01440060195667841 -0.009471866662880272 -0.009691357083538387 
-0.0007047708751596903 -0.0006421396671960326 -0.002796625957797038 
0.0007429643740882058 -0.0007359243940170197 -3.521047830635661e-07 
-0.003305365619382806 -0.01144072639729499 0.01457677087254033 
0.01776995853467826 0.0006329201657843450 -0.02901243018813127 
0.01375150775103211 -0.0005935106859153033 -0.02756406985731231 
0.001591451941690652 -0.002906964833032286 -0.002488552421746084 
0.0001052193604838864 -0.0004677500797068756 -1.827128911109362e-07 
-0.04233119912436435 -0.01187193247813119 0.02077641286901867 
0.004672839742829829 -0.01903590855137922 0.002332829254324640 
-0.01339981090302709 -0.0002491306584084690 0.002284737985112713 
0.0001052193604838864 -0.0004677500797068756 -1.827128911109362e-07 
-0.003514213237171836 -0.0007070588454876017 0.003058350540642316 
-0.01660269142696076 -0.06618695006518652 0.05085910553388123 
-0.001324203123644798 -0.01214584742753201 0.005449307019080255 
0.0001058873078971812 -0.0004681955085804536 -0.001057888814006535 
0.04093338823919952 -0.04294428495059777 -0.02316827104499230 
0.001047998921680065 -0.01663004101196760 -0.005605321146637829 
0.01276415705830018 -0.006148429344509931 -0.01991407284840566 
0.01578942106336378 0.002278764577650665 -0.02455256733469993 
0.002810948882300464 -0.002397450727274349 -0.001692278295182992 
0.0001052193604838864 -0.0004677500797068756 -1.827128911109362e-07 
0.004296709339574809 -0.002887323694651927 -0.002750796623348731 
0.003002848576284615 -0.002586762406337640 -0.0009858174842126810 
0.005428702360449964 -0.001597825805685513 -0.007755913633089952 
0.04299878659532318 -0.03410167571607999 -0.03555228391476711 
-0.003428042417463609 0.01572677436689132 -0.01386018917757749 
-0.01197488564257307 0.006751593225296288 -0.008885526228857210 
-0.001352026325082003 0.006433329896216740 -0.004309013421946417 
0.0002785575852509332 0.01039442924792060 -0.01972480433023294 
-0.007003691905021225 0.02247066326660475 -0.02633310239134728 
0.003002848576284615 -0.002586762406337640 -0.0009858174842126810 
-0.02011167075905538 0.04704677351760159 -0.03163429614748135 
0.003002848576284615 -0.002586762406337640 -0.0009858174842126810 
-0.001944139793096223 0.003896568139474583 -0.003236160229486576 
-0.007209488526655086 -0.002552083305042422 0.009094371314001868 
-0.01195360357338041 -0.005914313750746495 0.01286046969966630 
-0.04929275842173917 -0.01539996116562224 0.04752786920861309 
-0.03638965629520322 0.003887034161420500 0.02387289020903063 
0.003002848576284615 -0.002586762406337640 -0.0009858174842126810 
0.01087492884367938 -0.009546939433355354 -0.003086985399214978 
0.003002848576284615 -0.002586762406337640 -0.0009858174842126810 
0.001608623196835197 -0.003668517061387865 0.004226007883895475 
-0.0006201056637761945 -0.005385116875173942 0.006254699375546371 
-0.004722121404182181 0.009544178177091401 -0.008168669770610724 
-0.01535312344422374 0.02207447105768138 -0.008796047475260499 
0.003002848576284615 -0.002586762406337640 -0.0009858174842126810 
0.003002848576284615 -0.002586762406337640 -0.0009858174842126810 
-0.002595892862138818 0.006280811405315041 -0.001930440307201069 
-0.01750438679356635 0.02439835976649197 -0.005471256188215094 
0.003889086709621451 -0.002916678828810880 -0.001042204516656453 
0.005475687176813436 0.001025131095800872 -0.007150628893544155 
0.002200751035103631 -0.007815726909332714 0.0002524383526876367 
0.009100954145889729 -0.009896928921606471 0.002180420308671157 
-0.007038789505128635 0.009565812541792097 -0.0008623529044295003 
0.003002848576284615 -0.002586762406337640 -0.0009858174842126810 
0.01359218992124914 -0.009576917878140577 -0.007726135023754101 
0.02734612084946069 -0.01509335124580862 -0.03244114405720107 
0.003002848576284615 -0.002586762406337640 -0.0009858174842126810 
0.003002848576284615 -0.002586762406337640 -0.0009858174842126810 
0.001468095071081114 -0.001987815765863336 -0.0007012528783612557 
0.004214584794456362 -0.005523996583321048 -0.003905070273505370 
0.007309838218170419 -0.007150203918385552 -0.005250161404701297 
0.01588286850066594 -0.004425688204052058 -0.01399766274347024 
0.001468095071081114 -0.001987815765863336 -0.0007012528783612557 
0.007253266734863316 -0.005350907385077265 -0.004698498166941561 
0.001468095071081114 -0.001987815765863336 -0.0007012528783612557 
0.003548246298704409 -0.002956939328958326 -0.001092953159440500 
0.03508337213318970 -0.02121561256501699 -0.02421447049435092 
0.005805238257735270 0.003535786934162718 -0.01152556379402255 
0.002066233306912290 -0.006595917485704803 0.003351037684405078 
0.02719951427528682 0.001317988502258032 -0.02724008325990097 
0.002737239661665367 -0.0001987673824026551 -0.005186947542130249 
-0.0004367632068709013 -0.001949334562282102 -0.002404173436270651 
0.001468095071081114 -0.001987815765863336 -0.0007012528783612557 
0.01537104960537913 0.002235323962543604 -0.02014740871838863 
0.001468095071081114 -0.001987815765863336 -0.0007012528783612557 
-0.004816230078912775 -0.005250917401923297 0.008427377528195052 
0.001468095071081114 -0.001987815765863336 -0.0007012528783612557 
-0.005495610998251599 -0.02631116813190573 0.02992277383949088 
-0.008168300118237716 0.002648977916185514 0.004582197392664981 
-0.0004743059007343617 -0.003980494448177613 0.003318704593275118 
0.01138143004253070 -0.01496603150667513 0.006094712718762051 
0.001468095071081114 -0.001987815765863336 -0.0007012528783612557 
0.006324188991492411 0.002424842329246996 -0.02101943090622227 
0.0005915777877942342 0.006413923770672701 -0.006630807691721619 
-0.005660999305066214 -0.01689357935774053 0.01964049692883201 
-0.01097034354397788 -0.005475863612179143 0.01187128526799372 
0.02519034218250619 -0.01618331612268609 -0.01502090445625237 
0.001553821456626879 0.02595492154617954 -0.03808127354776728 
0.008062556412487204 -0.006246241587707539 -0.003564613006147647 
0.003486606900016170 -0.004336176265855126 -0.01616258580970284 
-0.006517874660394880 0.01164838866079680 -0.01210026500468692 
-0.004449336452031208 0.01430348221484419 -0.01660927738871657 
-0.01767754673049267 -0.01655535285767227 0.02403365311861447 
0.008340620277293447 -0.005588933446939429 -0.005964595808195550 
0.001468095071081114 -0.001987815765863336 -0.0007012528783612557 
0.003559674400611947 -0.001775966692070871 -0.002050909315987903 
0.01463228997212752 -0.005562902340485518 -0.01058457388478769 
0.003559674400611947 -0.001775966692070871 -0.002050909315987903 
0.003559674400611947 -0.001775966692070871 -0.002050909315987903 
0.01848099532237665 -0.01284199376614324 -0.01007194474846361 
0.003559674400611947 -0.001775966692070871 -0.002050909315987903 
0.003559674400611947 -0.001775966692070871 -0.002050909315987903 
0.003559674400611947 -0.001775966692070871 -0.002050909315987903 
-6.535317938134113e-05 -0.006712408067206253 -0.005881533768505145 
0.02430963673208079 -0.01689928860496206 -0.01369165530319015 
0.007004800355559969 -0.01122825316227954 0.004977823897419439 
0.005846712940482720 -0.003194168313250661 -0.002080030466370066 
0.005039045107061173 -0.001776968169064248 -0.004034445774701365 
-0.01296531327865002 0.009641168341525033 -0.0009505815080063358 
0.001930230791520200 0.004732705648182164 -0.007243253992562139 
0.02846071514367373 -0.005397833778951653 -0.03608543164601628 
0.01887535438009024 -0.01284294561896477 -0.01035241757900569 
0.003559674400611947 -0.001775966692070871 -0.002050909315987903 
-0.01018898140312658 -0.0002246644238015711 0.0007837807492934041 
0.003135371796339346 -0.01227172658828106 -0.005997204760862946 
0.003103662768006968 -0.006504572513723169 -0.004705879539924922 
0.005963614538932798 -0.003265167162004418 -0.009224411008422018 
0.003559674400611947 -0.001775966692070871 -0.002050909315987903 
0.02517295942317600 -0.01375750602527655 -0.01530861578403304 
0.003559674400611947 -0.001775966692070871 -0.002050909315987903 
0.003559674400611947 -0.001775966692070871 -0.002050909315987903 
0.008557239929910884 -0.006607821892355036 -0.003531665931147479 
-0.002944281964833656 0.002516104773494476 -0.005034538166152552 
0.002930380257827524 -0.004650776050840150 -1.501526931344397e-05 
0.002930380257827524 -0.004650776050840150 -1.501526931344397e-05 
-0.01974016417127806 0.01338016639700576 -0.001678179845230704 
0.006337849778439152 -0.005227755216749687 -0.002170590940051542 
0.002930380257827524 -0.004650776050840150 -1.501526931344397e-05 
0.002930380257827524 -0.004650776050840150 -1.501526931344397e-05 
0.002291352697194188 -0.003087916900905842 -1.474625905305220e-05 
0.01508656845261323 -0.01221218007360142 -0.009990153609165725 
0.008290433427469180 -0.01093925844638207 0.003033651080805562 
0.002930380257827524 -0.004650776050840150 -1.501526931344397e-05 
-0.0008169393962120449 0.003076422477770109 -0.003728906806827354 
0.002930380257827524 -0.004650776050840150 -1.501526931344397e-05 
0.002930380257827524 -0.004650776050840150 -1.501526931344397e-05 
-3.606383940268786e-05 0.01668874474633551 -0.02650938628892300 
0.004372229168468250 -0.004651371130419439 -0.001645354430871409 
0.006778422545000083 -0.0005192558892812479 -0.009913214970353842 
-0.02247729017138676 0.007650951098057637 0.01457751339820027 
-0.01524288466876267 0.01790000197236613 -0.0009676021680274511 
0.002291352697194188 -0.003087916900905842 -1.474625905305220e-05 
0.002930380257827524 -0.004650776050840150 -1.501526931344397e-05 
0.002930380257827524 -0.004650776050840150 -1.501526931344397e-05 
0.004867530622839268 -0.009425535337021484 -0.0007667625398143205 
-0.01468657810732458 -0.01041155494264504 0.01651112558907097 
0.01689716960587066 -0.01133695831114508 -0.02715934698464454 
0.01683773022201452 -0.01526085414541976 -0.01071855770552844 
-0.02214702234821155 0.01032085095064297 0.006441724093109814 
0.03059192661184126 -0.02625932609391103 -0.01170085808607971 
0.02036779040903869 -0.01834828518801449 -0.008361600309730417 
0.002930380257827524 -0.004650776050840150 -1.501526931344397e-05 
0.002930380257827524 -0.004650776050840150 -1.501526931344397e-05 
0.005007159571151009 -0.01009510877398969 -0.001409931879744034 
0.003187279293592929 -0.002948057034970764 -0.003234419160736580 
0.003187279293592929 -0.002948057034970764 -0.003234419160736580 
0.003187279293592929 -0.002948057034970764 -0.003234419160736580 
-0.006155523862086515 0.007091176912143162 -0.009276972377185201 
0.003187279293592929 -0.002948057034970764 -0.003234419160736580 
-0.002755963359676275 -0.01398145769820324 0.008134060148234739 
0.003187279293592929 -0.002948057034970764 -0.003234419160736580 
0.003187279293592929 -0.002948057034970764 -0.003234419160736580 
0.003187279293592929 -0.002948057034970764 -0.003234419160736580 
-0.0003290998650026344 0.005012985603086620 -0.008550376221547250 
0.01579903439342526 -0.01201397911154505 -0.009277892724326447 
-0.009906579995645912 0.003048846564914234 0.004132347054541866 
-0.007047585993760539 -0.002202245089263706 0.007610872467872346 
-0.01387135079096892 -0.01480154325066638 0.02298518816425629 
0.008162937265122287 -0.007731826904992893 -0.0008791510648042670 
0.003187279293592929 -0.002948057034970764 -0.003234419160736580 
0.003187798039783051 -0.002948468420081905 -0.003234480876883002 
-0.009593618997905335 0.01617687541316544 -0.01057410201253276 
0.006917040701406759 -0.002948489502122765 -0.006663675185915751 
0.003187279293592929 -0.002948057034970764 -0.003234419160736580 
0.009057321933037270 -0.006838631308384881 -0.008399846160543041 
-0.01198350867559912 0.0007476732038338313 0.006431851539716203 
0.01600765333402673 -0.01979320693646610 -0.003514411792272140 
0.0003232649885070751 -0.0006019674289060048 -0.001534933923345425 
-0.001254036920746987 -0.02372256649677572 0.01651620067621352 
-0.008744877513090154 0.01477711988829033 -0.009645252410440048 
0.006387016746804844 -0.003526044670957189 -0.003772525179406768 
0.01616603740677132 -0.003455273351079501 -0.01692721307875209 
0.003581832063425381 -0.003132943720003369 -0.003461977693427299 
0.0003232649885070751 -0.0006019674289060048 -0.001534933923345425 
0.0007604376918944659 -0.01151776790754190 0.009981373133448825 
-0.01224963820944761 0.01165910764529918 -0.003502244972305694 
-0.002084863896099308 -0.002973536476415364 0.003779065597941090 
0.002897971892809205 0.007595338877539070 -0.008704559554090984 
0.007930163351863088 -0.002917233267537874 -0.01141201513724672 
0.003562742249122991 0.005176481736410012 -0.01194202497792439 
0.0006950189367728422 0.005236782973614572 -0.006399866177195549 
0.01452893791604860 -0.01392257827267466 -0.01392090504157560 
-0.01912297414603121 0.01267828281250809 0.001605977231008402 
0.01059327993633334 -0.01868298460658508 -0.005350087004938320 
-0.001780534730848209 -0.006006900927565939 0.007302594366325195 
-0.0003559578076699022 -0.001736613168371845 -0.006781492386525854 
0.004548321331457991 -0.004887597448724211 -0.001604175631671533 
0.0003232649885070751 -0.0006019674289060048 -0.001534933923345425 
0.01353294912762417 -0.008381850219489046 -0.01212989226897037 
0.0003232649885070751 -0.0006019674289060048 -0.001534933923345425 
-0.04671319935306881 -0.02402865389849034 0.06173394826224943 
-0.01281349880687207 0.01031879953805663 -0.001763066296289568 
0.001034725015992004 -0.004348717652718132 0.003087332413441052 
0.001737440639785138 -0.001234332850810420 -0.001767284343431637 
0.0003232649885070751 -0.0006019674289060048 -0.001534933923345425 
-0.01454117055969285 0.01507518261916410 -0.006637965675717765 
0.003255211858482514 -0.001833584389944941 -0.001012608196390253 
0.001478581533229370 4.724358466498622e-06 -0.001983069200000193 
-0.001075917868350837 0.008353710101199526 -0.009560105160377653 
-7.891732198562761e-07 5.725835459875127e-06 4.672587132691449e-07 
0.006933511809110423 -0.01252576870384830 -0.0005873715810936796 
-0.01182769599784240 0.009258386402471392 0.001489607327087963 
0.001051620631988697 0.006338569108058412 -0.01129785616937085 
-7.891732198562761e-07 5.725835459875127e-06 4.672587132691449e-07 
0.005540815373566937 -0.001356548614172755 -0.007477566556803248 
-0.003722172229611475 0.007687641142671541 -0.007586576177575640 
0.001029009411971755 -0.001025128699136182 -0.001243082898611181 
-7.891732198562761e-07 5.725835459875127e-06 4.672587132691449e-07 
-0.009858648252114533 0.006500356622849149 -0.002726070498254405 
0.002291602930937383 0.0007874122252287084 -0.005900506729009734 
-7.891732198562761e-07 5.725835459875127e-06 4.672587132691449e-07 
0.01354008532709564 -0.008918795511748925 -0.009484071115111941 
0.001718981517732636 0.002100000549509729 -0.007774779192943497 
0.001081306849138455 -0.001705331874352415 4.805803718505627e-07 
0.0001252302772574091 0.003704992894430893 -0.002255668205242567 
-0.005069096873894920 0.009559523419725673 -0.002804631135927967 
0.001137685012728988 -0.002298391597141168 0.0002952265079258149 
0.004676656782673026 -0.005172692925032253 -0.0004763939851240161 
-0.002160924339920298 -0.0007896144746458219 0.0004215572514335030 
-0.001608738137834172 -0.0003970392292917696 0.003307981874679892 
-0.004112042719565830 -0.003100516788138057 0.004586959012447896 
-7.891732198562761e-07 5.725835459875127e-06 4.672587132691449e-07 
0.0008159874682413011 0.006363379507101221 -0.005811324398432857 
-0.01264132434037524 0.0005064761578297300 0.003681558542853696 
0.0007320104198289144 -0.003239475279829245 0.002928657735922833 
-0.002030414225141887 -0.003727829561811638 -0.005103149916315626 
0.02567282445105004 -0.02576390283374732 -0.005066402817632445 
0.0008021954378788324 5.227213207489867e-06 -0.0001175840971685451 
-0.0007551370668718259 0.0007377211237526043 -0.0004812094784747313 
0.01170688820903656 -0.006006672646140015 -0.01160380864716112 
-7.891732198562761e-07 5.725835459875127e-06 4.672587132691449e-07 
5.500171815644643e-05 -0.0002140902301245784 -1.326446539747176e-07 
0.001117902245116724 -0.0008166819857298690 -0.0004249701222578501 
5.500171815644643e-05 -0.0002140902301245784 -1.326446539747176e-07 
-0.02577364643687439 -0.01272950720158921 0.02545831143076959 
-0.002370436534886390 -0.006113289827761280 0.005538606519077715 
5.500171815644643e-05 -0.0002140902301245784 -1.326446539747176e-07 
0.005834957387752211 -0.002723481860703435 -0.0004253442254483882 
0.009871805782100425 -0.0003214277374811783 -0.01202564991073402 
-0.002059345765375056 0.007861779477856082 -0.002464899057606947 
-0.03759679751827223 -0.01263710987814774 0.03438325343073823 
-0.0001323918605790372 -0.001176070364094751 0.003427255824709605 
-0.02024593876166752 -0.009140319851784366 0.01790556670061438 
-0.005211914816843825 0.002491373536740161 0.003740510331945460 
-0.003744676428601891 -0.0009890465410029232 0.005255817022198978 
0.01218470504112882 -0.009862795024405170 -0.005454235352332349 
-0.002024273227146007 0.003996785013132538 -0.001667716345346694 
5.500171815644643e-05 -0.0002140902301245784 -1.326446539747176e-07 
-0.003423764298438410 -0.007192453080656702 0.01202433336072708 
-0.01134002294637697 -0.009578086105190340 0.01830377618474538 
-0.008931834514078477 0.01474417786145041 -0.008624021976271740 
0.004277195873308789 -0.0004374956128573520 -0.003737534027773495 
0.009148390741259728 -0.004334375696223127 -0.008366771016392403 
-0.01455546011299196 0.02297596202591463 -0.007840991352427776 
5.500171815644643e-05 -0.0002140902301245784 -1.326446539747176e-07 
-0.007674096766562700 0.01017704343488451 0.0008728515512421660 
-0.007674096766562700 0.01017704343488451 0.0008728515512421660 
0.01758245392321620 -0.007470252574394413 -0.01261707798938923 
-0.004004597817171276 0.005286386560828454 -0.003055911541041090 
0.008555644096648676 -0.006306365357577276 -0.004425705291329054 
-0.002353156249160541 -0.01042295554707161 0.01017304468975703 
0.008315055248959674 -0.006030060574310828 -0.002694844288037873 
0.01359339826184887 0.01042146840835325 -0.02173159934640198 
5.500171815644643e-05 -0.0002140902301245784 -1.326446539747176e-07 
5.500171815644643e-05 -0.0002140902301245784 -1.326446539747176e-07 
0.007511588953390387 -0.001353040728806296 -0.006203570918540193 
5.500171815644643e-05 -0.0002140902301245784 -1.326446539747176e-07 
-0.005291451471533743 0.009177486716929875 -0.003438299191777468 
5.500171815644643e-05 -0.0002140902301245784 -1.326446539747176e-07 
5.500171815644643e-05 -0.0002140902301245784 -1.326446539747176e-07 
0.003259204456876536 0.008400729167839523 -0.03363414605990042 
0.005152563769392064 -0.003519970286382821 -0.004892747310480309 
0.002860181065743875 -0.002367532519638335 -0.001770673950011630 
0.004979362851143445 -0.003663062306352355 -0.003384842809328471 
0.01492132092176470 -0.01106602707407237 -0.008021035432475704 
0.0008119948544363444 -0.02335014943911796 0.002880346763090368 
0.006830122201693104 0.002590551844143000 -0.01711067193708694 
-0.005313736963002229 0.01934207901752044 -0.02267834754581410 
0.005309405406192724 0.004550272663125235 -0.01435761034044185 
0.009367703101070494 -0.005736711995823876 -0.005447870674636806 
0.01302587112830237 -0.006084281266248715 -0.009047177365650350 
0.004979362851143445 -0.003663062306352355 -0.003384842809328471 
0.004979362851143445 -0.003663062306352355 -0.003384842809328471 
0.004039114653900967 -0.003466653787408828 -0.002239820108563914 
0.006994722208439845 -0.006169057058248985 -0.002769386089823203 
0.004039114653900967 -0.003466653787408828 -0.002239820108563914 
0.003093755992586308 8.215889890126985e-05 -0.01200464722188570 
0.004257182347559525 -0.003466748849227329 -0.002238490966757969 
0.004039114653900967 -0.003466653787408828 -0.002239820108563914 
0.004039114653900967 -0.003466653787408828 -0.002239820108563914 
-0.002267829135837189 -0.004631024053801790 0.003501256783946636 
0.006832203987507612 -0.01419193913053168 0.002492276853914744 
-0.02011896342817447 0.007956759854282463 0.006130893516833555 
0.008783886929164883 -0.007075574703998755 -0.004010406376049078 
-0.01379982562586911 0.009631289408827790 -0.002578181146979569 
0.01160983410598071 -0.01084227438956142 -0.003793696135023767 
0.006407823942072542 -0.003018050397013296 -0.006690599680255816 
0.004039114653900967 -0.003466653787408828 -0.002239820108563914 
-0.001947017820216915 -0.01070841872585190 0.01080293444049177 
0.01427424964285239 -0.0006797958269315053 -0.01991681311950173 
0.01112188180216533 -0.01089495240596909 -0.004770828271709316 
-0.002083297633857203 -0.006394309853411355 0.0009308993729583695 
-0.002556910226995987 0.005907443992837881 -0.006609497007713894 
0.004039114653900967 -0.003466653787408828 -0.002239820108563914 
0.006710434092758615 -0.002883407197281690 -0.004946322525406827 
0.006710434092758615 -0.002883407197281690 -0.004946322525406827 
0.006710434092758615 -0.002883407197281690 -0.004946322525406827 
0.005556906710214512 -0.0004483541854921218 -0.008174163546891596 
0.006710434092758615 -0.002883407197281690 -0.004946322525406827 
0.006712827956512952 -0.003051066635727775 -0.005397706039707312 
0.006710434092758615 -0.002883407197281690 -0.004946322525406827 
0.006710434092758615 -0.002883407197281690 -0.004946322525406827 
0.003016551978004286 -0.006092529942613818 0.0007750718620852614 
0.006710434092758615 -0.002883407197281690 -0.004946322525406827 
0.006710434092758615 -0.002883407197281690 -0.004946322525406827 
0.006710434092758615 -0.002883407197281690 -0.004946322525406827 
0.006710434092758615 -0.002883407197281690 -0.004946322525406827 
0.006710434092758615 -0.002883407197281690 -0.004946322525406827 
0.006710434092758615 -0.002883407197281690 -0.004946322525406827 
0.006710434092758615 -0.002883407197281690 -0.004946322525406827 
-0.02773337770905070 -0.002498668463266772 0.03219846259749187 
0.006710434092758615 -0.002883407197281690 -0.004946322525406827 
0.008238092128923428 -0.002883551197008694 -0.005381043594630676 
-0.01305386343678780 0.002264808296248251 0.01349288814018189 
-0.02543987467603513 0.005261637637524425 0.01003119947483422 
0.006710434092758615 -0.002883407197281690 -0.004946322525406827 
-0.01124882002586171 -0.01012295702677832 0.01087801635389374 
-0.05874236555365831 -0.05557419643396806 0.07261072357035508 
0.01143431868070267 -0.004801481830233964 -0.006841971070157204 
0.02072705644718414 -0.005993517273957534 -0.01581492069229602 
0.003325765037532084 0.009227344687498178 -0.01247604663222096 
0.01148031219118382 -0.008272828886181893 -0.005785826633340607 
0.006710434092758615 -0.002883407197281690 -0.004946322525406827 
0.006710434092758615 -0.002883407197281690 -0.004946322525406827 
0.006353060373565390 -0.001452084208821997 -0.005542868422206943 
0.0002180676936585569 -9.506181850089551e-08 1.329141805943995e-06 
-0.002276631099968924 -0.006423515198567619 0.007158922060976239 
0.0002193366507258207 -1.043345433070137e-06 -0.0007186001750353033 
0.0002180676936585569 -9.506181850089551e-08 1.329141805943995e-06 
0.0002180676936585569 -9.506181850089551e-08 1.329141805943995e-06 
0.0002180676936585569 -9.506181850089551e-08 1.329141805943995e-06 
-0.03303181689123666 0.01565573124923305 0.005801167246335971 
0.0002180676936585569 -9.506181850089551e-08 1.329141805943995e-06 
-0.002764429282569792 0.007913386036022686 -0.003332400620174280 
-0.002761853296304924 0.002307100687054081 0.001328908344354796 
-0.0006136634093720896 -0.002166997772247514 0.001688765895667145 
-0.003445923201754531 -0.009520702665472200 0.004422241960466129 
-0.005299942197009674 -0.005664400640783694 0.007681383418532582 
0.009776469495311782 -0.007461468603963763 -0.005444680468931444 
-0.002079454114614921 0.003390493436397328 -0.001351197729798434 
0.004285322739572934 0.006405569290309743 -0.01317247804410906 
0.0002180676936585569 -9.506181850089551e-08 1.329141805943995e-06 
0.0002180676936585569 -9.506181850089551e-08 1.329141805943995e-06 
0.0003741894569416833 -0.0002874194267671786 1.309415107363180e-06 
-0.01865406623081305 0.003081137308409218 0.01264796465722946 
0.0002180676936585569 -9.506181850089551e-08 1.329141805943995e-06 
0.0006575910699938677 0.003044855079445188 -0.0001613665986304213 
0.001883416445348985 -0.0001939475762263448 -0.001063551741545187 
0.0002180676936585569 -9.506181850089551e-08 1.329141805943995e-06 
0.01516764285215358 -0.007663584616449903 -0.01418444921778651 
-0.001812595570704842 0.007100329108980449 -0.003343724388347694 
0.0002180676936585569 -9.506181850089551e-08 1.329141805943995e-06 
0.0002180676936585569 -9.506181850089551e-08 1.329141805943995e-06 
0.0002180676936585569 -9.506181850089551e-08 1.329141805943995e-06 
-0.01233385087967656 0.03544788113008821 -0.01857532643361581 
0.01294879018022256 -0.008912227312068253 -0.004916221129406189 
-0.01177556162837317 0.001970056131569428 0.009091776306245938 
-0.02913846115989138 0.01497281014486429 0.01108757493180736 
0.0002180676936585569 -9.506181850089551e-08 1.329141805943995e-06 
-0.001251391692682043 0.001398674017922137 -0.004785625301658965 
-0.005795754726163398 -0.007486857781073715 0.008866923945381789 
-0.01337231340737734 0.008106772238322983 0.007015582166350488 
-0.01382763560850651 0.009002344776893894 0.01267651798862519 
0.0002180676936585569 -9.506181850089551e-08 1.329141805943995e-06 
0.0002180676936585569 -9.506181850089551e-08 1.329141805943995e-06 
0.003420328497525043 0.004332906627744286 -0.004583939695247743 
-0.005328566877710450 0.002822682921676548 0.003411024377508435 
-0.009706819869333399 0.01086148129560967 0.002391994382361406 
0.01240084447264037 -0.006596983810911282 -0.001073061612910960 
0.01136043737294881 0.007329843939608558 -0.02360498036528663 
0.0003741894569416833 -0.0002874194267671786 1.309415107363180e-06 
-0.005887292878343182 0.01322630831427506 -0.01045264841897568 
0.003625587366032416 -0.0005774061773934942 -0.002154249796644129 
-0.01067349326286099 0.01523199376093314 -0.01359131172897945 
0.0002180676936585569 -9.506181850089551e-08 1.329141805943995e-06 
-0.004935822069030081 -0.006152427465273838 0.007745392348945058 
0.006882378519641650 -0.001520881143952836 -0.002858032765596925 
-0.004450653717093606 -0.01735567467529043 0.01427374963068510 
0.004893666659717998 -0.0001678914562721916 -0.002816885927486831 
0.006877190748200130 0.01251777359811994 -0.01534418723662818 
0.005263330541450935 0.006319417187353509 -0.008424320362005104 
0.002641620425121128 -0.0001490967934423861 -0.001896003346094243 
0.009007402020234428 0.005093399689883895 -0.01654722676653645 
0.008653535294819402 -0.004526855605126148 -0.006709436644471090 
0.008919198426314948 0.007718513461992458 -0.01950899211461977 
-0.007281613504189487 0.004246607012133896 0.005234243268959006 
-0.006373709841663706 0.008842509725795618 0.0001777518211200982 
-0.003573164780231844 -0.01298355205133736 0.01735177926677677 
0.005386352669699390 -0.002748978645405890 -0.001850888996609599 
-0.008565606968775813 0.009288451313319560 -0.002982424831623850 
-0.02118478469301431 -0.01156989172506754 0.02848533184331616 
0.003501966004900459 0.0006768197286853239 -0.003563780394674811 
0.002880820472078239 0.004698005069125960 -0.007013152214238962 
0.01039516890501936 -0.01150877372040044 -0.002872668094554980 
-0.007764067559278449 0.01889645742523341 -0.01570265738753952 
0.003258257663720920 -0.0007035248382393989 -0.001895928368406094 
0.01038299527960724 0.006478239516546044 -0.02056863262965120 
0.01102303785940605 -0.003868714830690420 -0.004485455297380725 
-0.01042853384952200 0.005039545427744429 -0.001520038494836092 
-0.03285531565506181 -0.01577695197683533 0.04234444388574848 
-0.008254472040392930 0.02810796105784368 -0.01819565295664585 
-0.0008930121832230240 0.01162504050024484 -0.007366009038599589 
0.001252667127627328 0.002942829185792960 -0.004317385211201157 
0.004660212390531753 0.003731787137478437 -0.006939343322859721 
0.008208283010763187 -0.0005874176532016745 -0.004922256541580123 
0.01688322669327193 -0.007725920896514691 -0.007553718364785036 
0.004500944001663094 -0.007211587211407150 0.003408416028276517 
-0.04064245293585064 -0.02808488644615328 0.06549329663660760 
0.001576041330939178 -0.002694895548325541 -0.0009911478781149574 
0.002641620425121128 -0.0001490967934423861 -0.001896003346094243 
0.002641620425121128 -0.0001490967934423861 -0.001896003346094243 
0.002641620425121128 -0.0001490967934423861 -0.001896003346094243 
0.008515544923702774 -0.004133739472982195 -0.005327649553861662 
0.002310736408783493 -0.0002433971198215879 -0.002095896984956164 
0.002310736408783493 -0.0002433971198215879 -0.002095896984956164 
-0.01062245198744482 -0.01323664870041074 0.01624829557627435 
-0.008155685925975284 0.01921714991366814 -0.02086259851916868 
0.006774477736590697 -0.002618433635371445 -0.003937096631660155 
0.002310736408783493 -0.0002433971198215879 -0.002095896984956164 
0.002310736408783493 -0.0002433971198215879 -0.002095896984956164 
0.002313824622676334 -0.002126045104068388 -0.0005303777240321485 
0.002310736408783493 -0.0002433971198215879 -0.002095896984956164 
0.002356618441039055 -0.001036687006492972 -0.002096136302607597 
0.01069452475563823 -0.003424131237281605 -0.01180121436916547 
0.003520428405308750 0.003322794137678495 -0.009113694507573903 
0.008282158590606210 -0.001923664939420398 -0.004314874845870134 
-0.005181017215021579 0.0009465481937318443 0.001899595678275965 
-0.04144276040729512 0.04494587506561664 -0.004001400789370420 
-0.02224517375471040 0.004918444569965281 0.01152813940503748 
0.01855345827049073 -0.01722408024624454 -0.01238874091434408 
-0.005340377201456797 0.006844720676861079 -0.002853493964157277 
0.002310736408783493 -0.0002433971198215879 -0.002095896984956164 
0.002310736408783493 -0.0002433971198215879 -0.002095896984956164 
-0.002568208906223849 0.003025232388460385 -0.003636271382721214 
-0.001920671822343879 -0.002371306087981142 0.003029924419746854 
0.007501390069527284 -0.004346791419790407 -0.003384669076919462 
0.003920696840263469 -0.003038226630398629 -0.001942141713160563 
0.002310736408783493 -0.0002433971198215879 -0.002095896984956164 
0.002310736408783493 -0.0002433971198215879 -0.002095896984956164 
-0.0007661378004069188 0.01351965182213226 -0.01109902370728598 
-0.0007661378004069188 0.01351965182213226 -0.01109902370728598 
0.002310736408783493 -0.0002433971198215879 -0.002095896984956164 
0.005019783567016932 0.001486410954571477 -0.006458092152728567 
-0.005190459266517054 0.01072573616235973 -0.007118986328741410 
-0.002940440280487063 -0.002267941198752846 0.005508943997779037 
-0.002940440280487063 -0.002267941198752846 0.005508943997779037 
0.002310736408783493 -0.0002433971198215879 -0.002095896984956164 
0.002310736408783493 -0.0002433971198215879 -0.002095896984956164 
-0.004074694519472767 -0.005389190135759713 0.004501538442901540 
0.002310736408783493 -0.0002433971198215879 -0.002095896984956164 
-0.001613974908762963 0.001197458525481680 -0.0006739372166301337 
0.02643737244385723 -0.01129176672349017 -0.01871772326625290 
-0.03377793491507406 -0.007531142781883625 0.03658825464151479 
0.002506144798479379 -0.0002438893588685163 -0.002096022165986086 
0.01404627413505134 -0.02550699428053718 -0.003412523498926285 
0.002310736408783493 -0.0002433971198215879 -0.002095896984956164 
0.002310736408783493 -0.0002433971198215879 -0.002095896984956164 
0.001005994989824099 -4.284299740582815e-07 -0.001016121079388023 
5.909075635231311e-07 -3.489715466741847e-07 6.578703963574774e-07 
0.002491693530658544 -1.795191150276518e-06 -0.003487086370081697 
5.909075635231311e-07 -3.489715466741847e-07 6.578703963574774e-07 
5.909075635231311e-07 -3.489715466741847e-07 6.578703963574774e-07 
-0.0008067808201288618 -0.004900442782156600 0.006549919526479184 
-0.001198103631514931 -0.004001507660494618 0.004155825959749135 
-0.02461581444989805 0.01266304320547190 0.003551110584762421 
5.494366316812857e-07 -4.724031672056148e-07 9.217643948335630e-07 
-0.003286506703813301 -0.003440187274270166 0.008815962065384918 
0.002586406431851407 -0.001223006259396606 -0.001728829262905503 
-0.003138941482024647 -0.001601502131332174 0.004802756709489812 
-0.01068434866340544 -0.009091522617731372 0.01947409397548110 
-0.01860247456019058 -0.01417029145914596 0.03024038418807248 
-0.02380709989163944 0.01146899888317036 0.01512019587211090 
5.909075635231311e-07 -3.489715466741847e-07 6.578703963574774e-07 
-0.001239660599175919 0.003046296163071444 -0.01110536630682790 
0.003407472487597671 -0.002952233449555790 -0.002160219840721996 
-0.0001916781539926045 0.003699913890457315 -0.001744164426864101 
-0.001070646686649300 -0.004607165493392761 0.006711279698150489 
-0.008344691962855382 0.005771080132648538 -0.0005790800582988313 
0.003110632381063503 -0.001503090319505564 -0.002008624819705455 
-0.005995932786534467 -0.009130928674935970 0.01468324608669130 
0.002367608130385953 -0.0007322047982596066 -0.005542687311569769 
-0.006066340376653785 0.01086679471479194 -0.006763687323703209 
5.909075635231311e-07 -3.489715466741847e-07 6.578703963574774e-07 
-0.005909721247155466 0.008510824408217788 -0.001519670782336114 
-0.007625370558287582 -0.003601975115981536 0.006756972079198422 
0.004618174080879968 -0.008688079568389786 0.002051503986324383 
-0.01510490790427158 -0.002477619263039381 0.01484372636525120 
5.909075635231311e-07 -3.489715466741847e-07 6.578703963574774e-07 
0.0005834582411759217 -0.008214651395966570 0.006227942589168170 
0.002692814336922784 -0.001312033645235757 -0.0008733693949428047 
5.909075635231311e-07 -3.489715466741847e-07 6.578703963574774e-07 
5.909075635231311e-07 -3.489715466741847e-07 6.578703963574774e-07 
-0.001853303373847385 -0.007244043856947638 0.004234562688283167 
-0.01089672650826046 0.004024520901797397 0.004888769975843548 
-0.01131178318749488 0.009128283255307842 0.005296834813148632 
-0.01601146202058437 0.01131484849329772 0.003561405712289697 
5.909075635231311e-07 -3.489715466741847e-07 6.578703963574774e-07 
0.0007980903059929415 0.006332930215725953 -0.007901926323371123 
-0.02620723113677515 0.01888149083555986 0.002974726073862990 
-0.01077669424616183 -0.0005966076518238138 0.007971033947372950 
0.007599162599941552 -0.003717942833672384 -0.004650345459210406 
-0.002131824825625886 0.01435863881568415 -0.01293515940217993 
0.001328430451528365 -0.001810864743537628 0.0002875792883012258 
-0.02032256412453077 0.003122374785673330 0.004818362344474352 
-0.01384171729087849 -0.01108066108206617 0.01845939712235439 
0.002495804925693573 -0.003231506833002711 -0.0008128137132172617 
-0.01405427406751356 0.005034762910004429 -0.001159168240449585 
0.0003055614900166896 -0.002078892681639363 -0.002544012329180457 
0.006542728059244343 -0.002072122439764063 -0.007883173865041460 
0.001245105713731553 -0.0006114121698019979 -0.001161720976559981 
-0.0002150620755967938 -0.002933974246370474 0.004246337844823013 
-0.01640361899442898 -0.002833696218506330 0.01920578248540777 
-0.001650507684157849 -0.002005893360343779 0.003654564176525022 
0.001245105713731553 -0.0006114121698019979 -0.001161720976559981 
0.001245105713731553 -0.0006114121698019979 -0.001161720976559981 
-0.007311829680740191 0.001120277202095478 0.003818323733346835 
-0.001891792736568581 0.005879899035525829 -0.003055090095741051 
-0.001668385439906266 0.02033468395889973 -0.03665644254042300 
0.001245105713731553 -0.0006114121698019979 -0.001161720976559981 
-0.004768647978203956 -0.002123038453216213 0.001579644399639702 
0.001245105713731553 -0.0006114121698019979 -0.001161720976559981 
0.005837658653761009 -0.003258581213140377 -0.005528098050498342 
0.006557907790669256 -0.004722670528383883 -0.005194155978203191 
0.005343802383230564 0.01171137040525279 -0.02155127521999511 
0.01038535380208062 -0.002516061479775826 -0.009602895448401464 
0.001580538769615156 0.01098796426981696 -0.01574069832779869 
-0.002815940248320934 0.006435705076514178 -0.01047337501477728 
0.008592600998944828 -0.004814798541903411 -0.006386964864596010 
0.01630711387226510 -0.01625959797292468 -0.007850124056646916 
0.006557866319737414 -0.004722793960004415 -0.005193892084204715 
0.006557866319737414 -0.004722793960004415 -0.005193892084204715 
0.006557907790669256 -0.004722670528383883 -0.005194155978203191 
0.008859095703998537 -0.005229287137888220 -0.005675961310182123 
0.001804128644714344 -0.006978224827479600 0.001998958507312735 
0.006110982685881682 -0.01204455643327141 -0.0006921768762797472 
0.01348028456612581 0.006393753138725297 -0.02667648264323437 
0.006557907790669256 -0.004722670528383883 -0.005194155978203191 
0.006557907790669256 -0.004722670528383883 -0.005194155978203191 
0.01094663071352756 -0.005855511414117530 -0.007945079428263066 
-0.01010753692117856 -0.004384222249305670 0.006145040388101108 
0.004036806189680177 -0.0007207980115706710 -0.007454201398337055 
0.006557907790669256 -0.004722670528383883 -0.005194155978203191 
0.0001561217632831263 -0.0002873243649486777 -1.972669858086308e-08 
0.0001561217632831263 -0.0002873243649486777 -1.972669858086308e-08 
0.0001561217632831263 -0.0002873243649486777 -1.972669858086308e-08 
0.0001561217632831263 -0.0002873243649486777 -1.972669858086308e-08 
0.0005419997565325410 -0.004341572400156485 0.002940377829961630 
0.0001561217632831263 -0.0002873243649486777 -1.972669858086308e-08 
0.0001569946141149504 -0.0002879194445279668 5.134308654712024e-08 
0.0001561217632831263 -0.0002873243649486777 -1.972669858086308e-08 
0.0001561217632831263 -0.0002873243649486777 -1.972669858086308e-08 
-0.01034647096225928 0.01433162402200953 -0.005608878044797925 
-0.002250863609079854 -0.002659110418461873 0.005313724017878117 
0.004636286004337232 0.005347616343178918 -0.008107613682917550 
0.0001581557641554921 -0.0002887152634383205 1.421762879040638e-07 
0.005286831666386604 -0.005573352607886245 -0.0008499742630079050 
-0.008307378402196267 0.01144698352744759 -0.002871708055850561 
-0.004380201560353026 0.01327170154679463 -0.008304557743529797 
0.0001561217632831263 -0.0002873243649486777 -1.972669858086308e-08 
0.005306869008940045 -0.002230533082501752 -0.003115796024139589 
0.03594971413938387 -0.01862774331311350 -0.03657758244613545 
-0.001923880129492755 0.003924362277628210 -0.001667533902450814 
0.001640203199788837 0.02713838632891523 -0.03530710398148287 
0.01184792967507732 -0.01349402353085924 0.0003098807175087882 
0.0001561217632831263 -0.0002873243649486777 -1.972669858086308e-08 
0.0003270211290952147 0.0009432347533831579 -0.006816507851423635 
0.006786316906894772 -0.004672332391651830 -0.004250290849336807 
-0.03683442437300642 0.009316391459308697 0.01952722429029230 
0.006054620592577055 -0.003986746354022685 -0.002318302156712016 
0.0001561217632831263 -0.0002873243649486777 -1.972669858086308e-08 
0.0001561217632831263 -0.0002873243649486777 -1.972669858086308e-08 
0.0001561217632831263 -0.0002873243649486777 -1.972669858086308e-08 
0.002443842622677544 -0.001706038793281868 -0.0002549894198642335 
0.0001561217632831263 -0.0002873243649486777 -1.972669858086308e-08 
-0.002439437098801865 0.002873975239516685 0.002111913191934388 
0.0005504808209967202 -0.0002882762177701994 -0.0002804925572406648 
0.008609574358126952 -0.0007591879921874281 -0.009238709799027758 
0.0001561217632831263 -0.0002873243649486777 -1.972669858086308e-08 
0.03250911586761947 -0.02553789375704402 -0.02001859984797387 
0.002822395618615454 -0.01051861500818036 0.005190786728621811 
0.0001561217632831263 -0.0002873243649486777 -1.972669858086308e-08 
-0.002571436155834052 -0.005116115990765837 0.007604639928302695 
-0.005095054925987430 -0.002311868443879936 0.007604821256036620 
0.003219449723772557 0.006899116617241680 -0.01084710510154151 
0.0001569033361256100 -0.0002882584866439302 -7.137309290954999e-08 
0.0001561217632831263 -0.0002873243649486777 -1.972669858086308e-08 
3.456573763336517e-07 -9.917368412824073e-05 9.406107490696531e-08 
3.456573763336517e-07 -9.917368412824073e-05 9.406107490696531e-08 
3.456573763336517e-07 -9.917368412824073e-05 9.406107490696531e-08 
3.456573763336517e-07 -9.917368412824073e-05 9.406107490696531e-08 
-0.001772141586794516 0.003315577796156046 -0.002004199445743730 
3.456573763336517e-07 -9.917368412824073e-05 9.406107490696531e-08 
3.456573763336517e-07 -9.917368412824073e-05 9.406107490696531e-08 
3.456573763336517e-07 -9.917368412824073e-05 9.406107490696531e-08 
0.01215681337538930 -0.007068356459555972 -0.005662522377749005 
3.456573763336517e-07 -9.917368412824073e-05 9.406107490696531e-08 
-0.003579975442677846 0.001473238868794632 -0.001006458646790601 
3.456573763336517e-07 -9.917368412824073e-05 9.406107490696531e-08 
-0.0003419383016306425 -0.002018154408802449 0.002376582671407548 
3.456573763336517e-07 -9.917368412824073e-05 9.406107490696531e-08 
-0.004163962640388389 -0.009846526440473005 0.009778138799044468 
0.006087104133728736 -0.004090140510456937 -0.001479390905947930 
-0.001426205835926312 0.002925211578905779 -0.004180203280935377 
3.456573763336517e-07 -9.917368412824073e-05 9.406107490696531e-08 
0.02514326559551036 -0.01404651169937361 -0.02198427774304865 
0.006607267116654154 -0.004090069944774831 -0.002790716272082113 
0.008062882194600872 -0.0004899412964968930 -0.01297289202444119 
-0.03163164403517356 -0.01051417297430955 0.03054515994470927 
3.456573763336517e-07 -9.917368412824073e-05 9.406107490696531e-08 
-0.003139186732211836 -0.001700326843913740 0.004802192900168361 
0.0004013180841962036 -0.0009326094492257334 1.439947575761750e-06 
-0.01926087394106622 0.01395885763834292 0.001533342954235788 
3.456573763336517e-07 -9.917368412824073e-05 9.406107490696531e-08 
0.005211190544507483 0.001009928099866158 -0.01308723375921951 
0.002287384197247107 -0.001517375305308030 -2.902708930725551e-05 
0.001963018664310895 -0.0006058950250957091 -0.002977919120366303 
-0.007633655322228167 -0.001439783853310717 0.0001948133991695901 
0.01417208801343206 -0.006124693317569460 -0.01175484968832482 
-3.409303295860826e-06 -0.0005864411301537429 6.210867227005468e-07 
0.006121028946799913 -0.006610977257394970 -0.001092497787707687 
4.602175034783016e-07 -4.383364230703730e-07 -2.938108769227642e-08 
4.602175034783016e-07 -4.383364230703730e-07 -2.938108769227642e-08 
0.005121366762515335 -0.001797802252216149 -0.004931470001401928 
4.602175034783016e-07 -4.383364230703730e-07 -2.938108769227642e-08 
4.602175034783016e-07 -4.383364230703730e-07 -2.938108769227642e-08 
0.01916036403395628 -0.005621183628215714 -0.03359278444308723 
0.003364556430101459 -0.001064511011855873 -0.001957547951621300 
4.602175034783016e-07 -4.383364230703730e-07 -2.938108769227642e-08 
4.602175034783016e-07 -4.383364230703730e-07 -2.938108769227642e-08 
-0.002921979653732332 0.006272584313612060 -0.004096127555360929 
-0.005959402585853887 0.01282190347905801 -0.01205833944713817 
4.602175034783016e-07 -4.383364230703730e-07 -2.938108769227642e-08 
0.0004795000251975131 -7.972374004552462e-07 -0.0005477538304925652 
-0.004077526354619153 0.008831013689130000 -0.003385554778149906 
4.602175034783016e-07 -4.383364230703730e-07 -2.938108769227642e-08 
0.005556586999181879 -0.002626985265811160 -0.004169370293117938 
4.602175034783016e-07 -4.383364230703730e-07 -2.938108769227642e-08 
0.003676643697448460 0.005574289525768586 -0.007214830984553711 
-0.006266303474345840 -0.007294074182147518 0.01499758943932620 
0.0009963202616419108 -0.002237932876193222 0.001819469429049949 
-0.01330884203035753 0.009129255407432197 0.006494877646967432 
4.602175034783016e-07 -4.383364230703730e-07 -2.938108769227642e-08 
-0.001250503493772256 -0.003166251049842334 0.003026762986274122 
0.001933215959656792 -0.003948958997041149 0.003227593957000581 
-0.01306539915422987 0.003699013757249011 0.007600364474375854 
4.602175034783016e-07 -4.383364230703730e-07 -2.938108769227642e-08 
7.402904776420921e-07 -1.076679950456015e-06 -6.412633234214643e-08 
0.01267359745998648 -0.01532442444426209 0.003557342645844767 
0.01621737785768195 -0.008308423880540714 -0.01670330009139177 
0.005556126781678402 -0.002626546929388090 -0.004169340912030246 
0.005556126781678402 -0.002626546929388090 -0.004169340912030246 
0.005556126781678402 -0.002626546929388090 -0.004169340912030246 
0.005556126781678402 -0.002626546929388090 -0.004169340912030246 
0.005556126781678402 -0.002626546929388090 -0.004169340912030246 
0.005556126781678402 -0.002626546929388090 -0.004169340912030246 
0.005556126781678402 -0.002626546929388090 -0.004169340912030246 
0.007138317475558598 -0.002110652563804675 -0.008130388037956852 
0.005556126781678402 -0.002626546929388090 -0.004169340912030246 
0.005557668071194577 -0.002843000263971714 -0.004169343410413349 
0.005556126781678402 -0.002626546929388090 -0.004169340912030246 
0.008625333714262402 -0.002628407325119639 -0.007475994504694486 
0.002927287288132755 0.003555250312802659 -0.007490347592825573 
0.005556126781678402 -0.002626546929388090 -0.004169340912030246 
0.005556126781678402 -0.002626546929388090 -0.004169340912030246 
0.001629812351768047 0.003162375764502424 -0.005696954502745523 
0.002672402664978420 0.01256367023239238 -0.01455514777003710 
-0.03377620432436192 -0.04935250727474218 0.04653207509841956 
-0.0003898787613426141 0.006581799968729435 -0.005004617762279598 
0.0001165339240043938 -0.008592364131682982 0.008524479203121308 
0.005556126781678402 -0.002626546929388090 -0.004169340912030246 
0.004341439381024356 -0.006845887776328227 0.002114346372584045 
0.005039952713163998 -0.0007205451746165748 -0.005210940678453727 
0.008577778640710385 -0.006612663295759967 0.0005731477653351954 
0.005556126781678402 -0.002626546929388090 -0.004169340912030246 
0.007691311513020255 -0.009182716515802233 -0.002202210488935585 
0.004363501277915781 -1.871034407311003e-06 -0.005130745606361968 
0.004363501277915781 -1.871034407311003e-06 -0.005130745606361968 
0.004363501277915781 -1.871034407311003e-06 -0.005130745606361968 
-0.001511160944745399 0.007165009789927315 -0.01015026850320108 
0.004363501277915781 -1.871034407311003e-06 -0.005130745606361968 
0.004363501277915781 -1.871034407311003e-06 -0.005130745606361968 
0.002323847795052380 -9.773626616505410e-07 -0.002344102416647728 
0.004363501277915781 -1.871034407311003e-06 -0.005130745606361968 
0.004365069603264681 -0.0002686265590673366 -0.005130820082521445 
0.004363501277915781 -1.871034407311003e-06 -0.005130745606361968 
0.004363501277915781 -1.871034407311003e-06 -0.005130745606361968 
0.002323847795052380 -9.773626616505410e-07 -0.002344102416647728 
0.004363501277915781 -1.871034407311003e-06 -0.005130745606361968 
0.01516182404570938 -0.006465545644454751 -0.01203924152715180 
0.004363501277915781 -1.871034407311003e-06 -0.005130745606361968 
0.004363501277915781 -1.871034407311003e-06 -0.005130745606361968 
0.004363501277915781 -1.871034407311003e-06 -0.005130745606361968 
0.0005326196920463547 0.002376774763942610 -0.003128491746771543 
0.005891159314080596 -2.015034134314577e-06 -0.005565466675585816 
0.004363501277915781 -1.871034407311003e-06 -0.005130745606361968 
-0.01089490617607402 -0.007821588324527059 0.008180010108494241 
0.004363501277915781 -1.871034407311003e-06 -0.005130745606361968 
0.007593120957730665 -0.001189785689954922 -0.007026919642328984 
0.004363501277915781 -1.871034407311003e-06 -0.005130745606361968 
0.002323847795052380 -9.773626616505410e-07 -0.002344102416647728 
0.005430454688493189 -0.004579077675183629 -0.003344931291269422 
0.01375288494932894 -0.006903535596723376 -0.01025501524905156 
-0.01125312404406748 -0.01699557157350299 0.01925166326922548 
-0.002705043473944313 -0.008045354320398500 0.006617375030523248 
0.0005853878144108840 -9.936752978180991e-07 -0.0006129815190845454 
0.01223699106894974 -0.007463757443976955 -0.004576827945408553 
0.002192245449081834 -0.001568381786430244 -0.002429843917070932 
0.006093923998309029 -0.004746874932428241 -0.003159441387475532 
0.0005853878144108840 -9.936752978180991e-07 -0.0006129815190845454 
0.0005858293420349935 -1.700815595127787e-06 -0.0006129597869543787 
0.0005853878144108840 -9.936752978180991e-07 -0.0006129815190845454 
-0.006063604140794963 0.01241918233706817 -0.005934204073011320 
-0.002551510635889250 0.006490317530030008 -0.002506350638265615 
0.004810498551565786 -0.002952598552892108 -0.002027299270929062 
0.0005853878144108840 -9.936752978180991e-07 -0.0006129815190845454 
-0.004492635221991666 0.007797510177650651 -0.004935553215198356 
-0.001824024831068336 -0.002452417068256687 0.004701257719938363 
0.003559700509685588 -0.001591668441755264 -0.001267159800318222 
-0.002000849369921523 -0.002890478590448287 0.004851589240889896 
0.0005853878144108840 -9.936752978180991e-07 -0.0006129815190845454 
-0.004119981004526138 -0.005597678334237357 0.01295417861796498 
0.006025969276469604 -0.002179117371451207 -0.003883536132288239 
0.005937697236039116 -0.004256915566651188 -0.003731620317707331 
0.005624355936088733 -0.001164794176688799 -0.005038274431005984 
0.0005862875585932288 -1.720674456549165e-06 -0.0006131497935918419 
-0.001387174404755423 -0.002076376520701606 0.003286448568923767 
0.004323767925771922 -0.002096214713058073 -0.003900708736371169 
0.0005853878144108840 -9.936752978180991e-07 -0.0006129815190845454 
0.0005853878144108840 -9.936752978180991e-07 -0.0006129815190845454 
0.009590135150911245 -0.006655615448009660 -0.007423440714946614 
0.001378058878484332 -0.001658135168836663 -0.0006130871825197288 
-0.01583370179203057 0.01910000218795941 -0.008924792946532152 
-0.01888247977518343 0.01688047992341412 0.003757211172663216 
-0.008263345412632725 -0.003724157883792064 0.01039926911307178 
0.005143699792839834 -0.002897369235703247 -0.001805971733211290 
0.0005853878144108840 -9.936752978180991e-07 -0.0006129815190845454 
0.0005853878144108840 -9.936752978180991e-07 -0.0006129815190845454 
-0.004247826328814395 0.007955982243167504 -0.004320069735432507 
0.0005853878144108840 -9.936752978180991e-07 -0.0006129815190845454 
-0.002582197858504857 -0.004123558516562981 0.003798648551616369 
-0.001886144849792484 0.006698778778102346 -0.009872417453377838 
0.004647774606728752 -0.004783275780061311 -0.001970002948082614 
-0.0003607008551889544 0.007003976298587826 -0.01028916731971433 
-0.01683394874106587 0.009238032225502750 0.007173355514736990 
0.0005853878144108840 -9.936752978180991e-07 -0.0006129815190845454 
0.0005853878144108840 -9.936752978180991e-07 -0.0006129815190845454 
-5.194189885779382e-06 0.005357140720237612 -0.007194206943964655 
-0.0007216806616367664 -0.0007325385668278265 0.002804875346147472 
0.0003943590577135938 -9.518528215216639e-07 -0.0002804728305420839 
-0.001164963847648132 0.009141564351045580 -0.01270511065660347 
0.0003943590577135938 -9.518528215216639e-07 -0.0002804728305420839 
0.002457656149529248 -0.001078245499358105 -0.001427702935604683 
-0.01462268606650524 0.01399442988355813 0.001942961192828182 
0.01805847055419235 -0.01247424978476867 -0.01370162278166955 
0.003239563589848564 -0.001318139750575740 -0.0002799442347363472 
0.0003943590577135938 -9.518528215216639e-07 -0.0002804728305420839 
0.0003943590577135938 -9.518528215216639e-07 -0.0002804728305420839 
-0.004558519434693637 0.007890625277685812 0.0003777841289489229 
-0.004817984297012024 0.002966709811591482 0.004373298345650254 
0.0003943590577135938 -9.518528215216639e-07 -0.0002804728305420839 
-0.002465085642862866 0.004830432353236111 -0.003548123075855023 
-0.01100224648105508 4.286770403067200e-06 0.01159784805212447 
-0.004336637828722915 0.008755739799729864 -0.003718258982990336 
0.0003943590577135938 -9.518528215216639e-07 -0.0002804728305420839 
-0.009488839108512448 0.008097163469356248 -0.002906486221278215 
0.0008511310609588748 0.006703358164664772 -0.006357862969178948 
-0.001062549603135840 -0.004455899076307599 0.005469344331062530 
-0.005671872712491614 0.01163548193900323 -0.004272926904147250 
0.0004861368648710190 -0.005418152902260870 0.004451544562740409 
0.0003943590577135938 -9.518528215216639e-07 -0.0002804728305420839 
0.01195530576256422 -0.009439413376199494 -0.009836167796554480 
0.004119540049939288 -0.001046601075626213 -0.001946619510810930 
0.0009879700939231977 -7.965281554044816e-07 -0.001141980061790035 
8.830300357322410e-07 -2.950689228161688e-07 -7.271480096344202e-08 
8.830300357322410e-07 -2.950689228161688e-07 -7.271480096344202e-08 
0.004998505401188767 0.005152882473290195 -0.01439093570509254 
8.830300357322410e-07 -2.950689228161688e-07 -7.271480096344202e-08 
8.830300357322410e-07 -2.950689228161688e-07 -7.271480096344202e-08 
0.002222036535146272 -0.0008049684386268439 -0.001770477654552201 
-0.004681150028272301 -0.005546871248018603 0.008800603028217837 
-0.003064017193441137 0.005796580235055702 -0.001854251911457359 
8.830300357322410e-07 -2.950689228161688e-07 -7.271480096344202e-08 
0.0003863308245540043 -0.008183969391224288 0.004553037475832416 
-0.004972087999775259 -0.004344580803147953 0.005583662753970787 
-0.02352997422812433 0.006419410998630379 0.009430880642719085 
-0.01046772890573540 0.003298021554659707 0.006486233708112588 
0.001999829510319395 -0.001355278050879749 -0.001178328148862853 
-0.01751978401867957 -0.01391627068318280 0.02691536388026160 
0.01556868335415162 -0.004025351717148475 -0.01514162652117627 
-0.002784009167292798 0.006252991530486437 -0.002264905566501621 
0.004606509632107245 -0.008614860667791782 -0.001971996525957647 
8.830300357322410e-07 -2.950689228161688e-07 -7.271480096344202e-08 
-0.004251731310554555 0.008341193839858572 -0.004688780447881227 
8.830300357322410e-07 -2.950689228161688e-07 -7.271480096344202e-08 
0.002035053659834809 -7.873079697445569e-07 -0.002371499983226654 
-0.007107351219351684 -0.002271799016609003 0.009761386182146892 
-0.003541184218280865 -0.007479531812935894 0.01201137156476376 
-0.03736229081236192 0.03215891686355334 -0.006261727679232938 
-0.001406163559698402 -0.005107021988355822 0.007807079203136768 
0.001527658036164815 -1.439997270035675e-07 -0.0004347210692238486 
-0.002428350305071320 0.003688660726221185 -0.001978142587744997 
-0.002428350305071320 0.003688660726221185 -0.001978142587744997 
-0.007031950235079584 -0.005763194601725382 0.01282698620037567 
-0.003482717120497124 0.005245381944650577 -0.001924019415638791 
0.001527658036164815 -1.439997270035675e-07 -0.0004347210692238486 
0.009952738333392087 -0.007673712057586067 -0.0009627167936305269 
0.001527658036164815 -1.439997270035675e-07 -0.0004347210692238486 
0.0004116183168144548 -0.0007317307137333083 0.002650627107465707 
0.001527658036164815 -1.439997270035675e-07 -0.0004347210692238486 
0.001527658036164815 -1.439997270035675e-07 -0.0004347210692238486 
0.001527658036164815 -1.439997270035675e-07 -0.0004347210692238486 
-0.02676773664976577 -0.02169787373064824 0.03752292913159994 
0.001527658036164815 -1.439997270035675e-07 -0.0004347210692238486 
0.001527658036164815 -1.439997270035675e-07 -0.0004347210692238486 
-0.006704662899834014 0.01200820579027464 -0.008008664410081037 
-0.01728218788105577 0.03656863336351351 -0.01952265400883817 
0.001527658036164815 -1.439997270035675e-07 -0.0004347210692238486 
-0.001241175352494143 0.003132616515598144 -0.003849305081963244 
0.001527658036164815 -1.439997270035675e-07 -0.0004347210692238486 
0.001527658036164815 -1.439997270035675e-07 -0.0004347210692238486 
-0.001611874353423355 -0.001601297159512503 0.004367377769869606 
0.001527658036164815 -1.439997270035675e-07 -0.0004347210692238486 
0.001608153473602091 -0.007415744623880803 0.009546026903708940 
0.001725719593039710 0.0005491698072193093 -0.001979098739981015 
0.001527658036164815 -1.439997270035675e-07 -0.0004347210692238486 
-0.01097749268542668 0.01475010733693835 -0.004204006662637374 
0.001527658036164815 -1.439997270035675e-07 -0.0004347210692238486 
0.001527658036164815 -1.439997270035675e-07 -0.0004347210692238486 
0.001527658036164815 -1.439997270035675e-07 -0.0004347210692238486 
0.0007004752370879830 0.008994095115777452 -0.008661947464207858 
0.001527658036164815 -1.439997270035675e-07 -0.0004347210692238486 
0.001527658036164815 -1.439997270035675e-07 -0.0004347210692238486 
0.001527658036164815 -1.439997270035675e-07 -0.0004347210692238486 
0.002287038539870773 -0.001418201621179790 -2.912115038216247e-05 
0.01220614232967571 -0.005335107454175810 -0.004664645000227666 
0.0005674572518501566 0.003460576768354087 -0.001658423081932572 
0.004794950983345608 -0.003343980005726350 -0.001674881854359220 
0.002287038539870773 -0.001418201621179790 -2.912115038216247e-05 
0.002287038539870773 -0.001418201621179790 -2.912115038216247e-05 
0.002842275627038994 -0.001223569926209711 -0.003099643210425409 
0.002287765487344201 -0.001419013020499562 -2.919067532264805e-05 
-0.03147932287088357 0.01594353299382600 0.01341514173993979 
0.01375785521581026 -0.008874055849484523 -0.008658738178165160 
0.002287038539870773 -0.001418201621179790 -2.912115038216247e-05 
0.002287038539870773 -0.001418201621179790 -2.912115038216247e-05 
0.001837975812949951 0.001226679747218382 -0.003496350513295954 
0.002287038539870773 -0.001418201621179790 -2.912115038216247e-05 
0.01199813992346633 -0.008792597414833387 -0.004170978070880409 
0.007320123491909140 -0.006607666435789047 -0.001582778560939961 
-0.01658766467894943 -0.002180582092856988 0.01472532208927730 
0.02005774842132378 -0.01284824613237385 -0.008626701228864480 
0.01631075079188903 -0.009953472905670230 -0.006090031288975093 
0.004395026704622480 0.003580442606753357 -0.002038593719992418 
0.005417324573485433 -0.004903614034700001 -0.0007541667456037005 
0.01207037311805665 -0.006370989867696506 -0.01767839416036083 
0.0002173383281859767 -0.005132756772380997 0.001299927659534100 
0.002287038539870773 -0.001418201621179790 -2.912115038216247e-05 
0.0006152197532727232 -0.004294626626228014 0.005025181693778778 
-0.003059414649819416 0.007973375325874665 -0.003467287697505656 
0.01217430397623189 -0.009594022161505036 -0.006078330140166053 
0.002287038539870773 -0.001418201621179790 -2.912115038216247e-05 
0.01469671340652062 -0.004514537779648484 -0.01193967147089882 
0.003090023150969462 -0.001418700243432175 -0.0001471725062639767 
0.002287038539870773 -0.001418201621179790 -2.912115038216247e-05 
0.002287038539870773 -0.001418201621179790 -2.912115038216247e-05 
0.0007769121446473636 0.006870142716555792 -0.008539777137482897 
0.002648754320999615 -0.008912094071004864 0.007719837763315905 
-0.007322456872961406 0.01411042461508964 -0.005601570769013467 
0.01400315122466717 -0.01375488743771542 -0.002506057596617312 
-0.01378489245704890 0.008563119734775186 -0.005474284526767845 
0.002287038539870773 -0.001418201621179790 -2.912115038216247e-05 
0.001076110524490839 -0.003268137153546095 0.003523835171239585 
-0.0002338213928557097 0.002583807047701470 -0.002288963670334151 
0.002586264496787991 -0.005864783095424478 0.001714385590332405 
0.002287765487344201 -0.001419013020499562 -2.919067532264805e-05 
0.002287038539870773 -0.001418201621179790 -2.912115038216247e-05 
2.393863754337222e-06 -0.0001676594384460849 -0.0004513835143004854 
2.393863754337222e-06 -0.0001676594384460849 -0.0004513835143004854 
0.003011258628930137 -0.003196628388290291 -0.002056342109515468 
-0.0009447497123059978 0.0004921763376578972 -0.003599763628036617 
0.006660241537397841 -0.004872201156303019 -0.005476397421343301 
0.005642571803336017 -0.004699417964912632 -0.003517857938032872 
0.003011258628930137 -0.003196628388290291 -0.002056342109515468 
0.003011258628930137 -0.003196628388290291 -0.002056342109515468 
-0.009785065859455508 0.006157471784510959 -0.0001712657037889184 
0.003011258628930137 -0.003196628388290291 -0.002056342109515468 
0.003011258628930137 -0.003196628388290291 -0.002056342109515468 
0.003011258628930137 -0.003196628388290291 -0.002056342109515468 
0.003011258628930137 -0.003196628388290291 -0.002056342109515468 
0.003011258628930137 -0.003196628388290291 -0.002056342109515468 
0.003011258628930137 -0.003196628388290291 -0.002056342109515468 
0.003011258628930137 -0.003196628388290291 -0.002056342109515468 
0.003011258628930137 -0.003196628388290291 -0.002056342109515468 
0.003011258628930137 -0.003196628388290291 -0.002056342109515468 
0.003011258628930137 -0.003196628388290291 -0.002056342109515468 
-0.03195522154894535 -0.01331524792480280 0.03391457014402973 
0.01111670401534509 -0.006376485624185770 -0.007732772634958132 
0.003011258628930137 -0.003196628388290291 -0.002056342109515468 
0.003011258628930137 -0.003196628388290291 -0.002056342109515468 
0.003011258628930137 -0.003196628388290291 -0.002056342109515468 
0.008477661217524380 -0.008630035156786101 -0.002055845149789991 
7.335722382512261e-07 -1.688233037802879e-07 9.852212109830927e-08 
0.001919769349967844 -0.001198316954844305 -0.0008521012825502866 
0.001307498367866581 -0.0002269499488245573 2.647403690710783e-08 
-0.006283591577755638 -0.003263270459363741 0.009128728928677405 
7.335722382512261e-07 -1.688233037802879e-07 9.852212109830927e-08 
7.335722382512261e-07 -1.688233037802879e-07 9.852212109830927e-08 
0.004865127657777768 -0.0004388712339186808 -0.002391300329868075 
0.0006700988338838699 -0.01094936555781387 0.002758215503752399 
7.335722382512261e-07 -1.688233037802879e-07 9.852212109830927e-08 
-0.002949060020909115 -0.01015863514280348 0.01435529927711998 
7.335722382512261e-07 -1.688233037802879e-07 9.852212109830927e-08 
-0.003368099267571564 0.002930830616824661 0.003436812174785076 
-0.002014886428900368 0.007935586697807310 -0.003997430653403570 
-0.005472398361371728 0.003425740337421925 0.003459853147500518 
0.005535197991674626 -0.003827126465310444 -0.001502403960941777 
-0.005436040571014925 0.007311340204488640 -0.002964828751520830 
7.335722382512261e-07 -1.688233037802879e-07 9.852212109830927e-08 
-0.004520075542110708 0.007160172113088658 -0.001437653742563283 
7.335722382512261e-07 -1.688233037802879e-07 9.852212109830927e-08 
7.335722382512261e-07 -1.688233037802879e-07 9.852212109830927e-08 
7.335722382512261e-07 -1.688233037802879e-07 9.852212109830927e-08 
7.335722382512261e-07 -1.688233037802879e-07 9.852212109830927e-08 
7.335722382512261e-07 -1.688233037802879e-07 9.852212109830927e-08 
7.335722382512261e-07 -1.688233037802879e-07 9.852212109830927e-08 
7.335722382512261e-07 -1.688233037802879e-07 9.852212109830927e-08 
-0.02125081383208179 0.02048007112654981 0.002887694332865265 
0.007200419759116385 0.003374816110978483 -0.009787760463475764 
0.004619569810774496 -0.002009755224057052 -0.002177485073407413 
1.979910008380605e-06 -9.887335641613570e-07 -9.155533801882413e-08 
0.002567517884005073 -0.0007537373348787101 -0.001419283297848665 
0.004047296567580893 -0.005708241779737917 0.001664440032423507 
0.002567517884005073 -0.0007537373348787101 -0.001419283297848665 
0.002567517884005073 -0.0007537373348787101 -0.001419283297848665 
0.002567517884005073 -0.0007537373348787101 -0.001419283297848665 
0.002567517884005073 -0.0007537373348787101 -0.001419283297848665 
0.002567517884005073 -0.0007537373348787101 -0.001419283297848665 
0.002567517884005073 -0.0007537373348787101 -0.001419283297848665 
0.002567517884005073 -0.0007537373348787101 -0.001419283297848665 
0.002567517884005073 -0.0007537373348787101 -0.001419283297848665 
0.002567517884005073 -0.0007537373348787101 -0.001419283297848665 
-0.01533873299830337 0.001016843171170007 0.005878413576171373 
0.002567517884005073 -0.0007537373348787101 -0.001419283297848665 
0.003452141806701532 -0.0009677915912721163 -0.001860282293616449 
-0.003204996301219788 0.002620483148085212 0.002499697289722738 
-0.005152466968335718 0.004852589432377033 0.0009154218719453700 
-0.002868132034004775 0.005429676322746125 -0.002305518199672397 
0.002567517884005073 -0.0007537373348787101 -0.001419283297848665 
0.002567517884005073 -0.0007537373348787101 -0.001419283297848665 
0.002567517884005073 -0.0007537373348787101 -0.001419283297848665 
0.002567517884005073 -0.0007537373348787101 -0.001419283297848665 
0.002976853043829090 -0.0007544643340374412 -0.001991863466456637 
0.002567517884005073 -0.0007537373348787101 -0.001419283297848665 
0.002567517884005073 -0.0007537373348787101 -0.001419283297848665 
-0.05364824921990154 -0.03123216578098001 0.05773478953640361 
0.01139177228424848 -0.004947932256733379 -0.003546501666549978 
0.003422281169219581 -0.0007549792689259940 -0.002360387568433761 
0.001936555054564182 -0.001066159350127038 -0.0005513890522793889 
0.0004004891299246163 -0.0008331059431671890 9.842872096548383e-07 
0.002704342440264122 -0.003779686235752290 -0.0005464030031909766 
-0.01084688788283803 0.01351021172506125 -0.002215973215332262 
0.0004004891299246163 -0.0008331059431671890 9.842872096548383e-07 
0.0004004891299246163 -0.0008331059431671890 9.842872096548383e-07 
-0.0001829290775630220 -0.006150293478027718 0.005315255268249711 
0.0004004891299246163 -0.0008331059431671890 9.842872096548383e-07 
-0.005152038664433004 0.008706619988390561 -0.005250811746817672 
0.0004004891299246163 -0.0008331059431671890 9.842872096548383e-07 
-0.04785713023498528 0.02844688053467837 0.01587288497417516 
0.0003967756401842637 -0.001320249957572160 1.247418858972311e-06 
0.002225302632570087 -0.003779327334774905 1.321446213896354e-06 
0.0008761468901817570 -0.001320668458115507 -0.0005463131461498116 
0.0005989857335133424 -0.002716246166460918 0.001566378367103750 
-0.006264049309073280 -0.004111210911408757 0.01038108494925131 
0.002554316315664120 -0.003207277156773416 -0.0004756956288937047 
0.003486781158730679 -0.001755163318775989 -0.0008145105306909872 
0.0004004891299246163 -0.0008331059431671890 9.842872096548383e-07 
0.005705331814061763 -0.004860503016949950 -0.001728809354856052 
0.0004004891299246163 -0.0008331059431671890 9.842872096548383e-07 
-0.005669652795981536 -0.001653508307144179 0.007119057342896478 
0.0004004891299246163 -0.0008331059431671890 9.842872096548383e-07 
0.0004010723022357256 -0.0008333265413596751 8.909974044892682e-07 
-0.004636363016051932 -0.0006723076927663635 0.008872463839218896 
0.0004004891299246163 -0.0008331059431671890 9.842872096548383e-07 
0.0004004891299246163 -0.0008331059431671890 9.842872096548383e-07 
0.003986131112343314 -0.002424780894003185 -0.001287618793670360 
-0.01310471960169407 0.002430669575273898 0.007400435142414248 
0.003518039170616952 -0.002951793252921608 -0.003842350064740350 
-0.003871871573232229 0.009496004281664798 -0.007463709477233105 
0.002875363503454896 -0.003780903323241098 -0.001088949457910472 
0.0004004891299246163 -0.0008331059431671890 9.842872096548383e-07 
-0.002221695071820997 0.005291305917301353 -0.003824986138470942 
-0.001354076520509945 -0.002889910318056733 0.003413164633896588 
1.028255267263289e-07 -6.029042565460787e-07 6.569925069984370e-08 
0.002733617214152152 0.0007764228155997590 -0.004785052328656376 
0.008077660809853338 -0.005460290807747925 -0.006856856858739713 
0.001965336745272489 0.002025887811242611 -0.005339650104592432 
0.002974411043516404 -0.004248025291862100 -0.003869877048785666 
-0.001381053126785249 0.001374603319554843 -3.760886225070290e-07 
0.003458165579861879 -0.002865212371230635 0.0008672708603666911 
-0.0003696065133056738 -0.001700913812431252 0.004108808722041489 
-0.0001364873897144112 -0.0003135032011021798 0.001637293282384406 
-0.01309592547723091 0.004805786721755558 0.004221563847030108 
-0.003464518017816198 0.001181166796108860 0.003343501819567754 
-0.004569344949660319 -0.003854264686782442 0.008575001592498105 
-0.01006302232936933 0.001635790275912256 0.01082723890810377 
1.188267809769601e-07 -8.475937990594441e-07 5.314133407566268e-08 
0.008160193228873364 -0.002793575674350654 -0.008943865486090417 
0.0006262584388070734 -0.005056200894626071 0.003410903915794190 
-0.0004139071037517445 0.008014388360266226 -0.009718100117067130 
-0.02491514950674054 0.03379418955491198 -0.01450861917570222 
0.007100432894309831 0.0008997307775770767 -0.01095856312629747 
0.008330249383001398 -0.003054968255382590 -0.005662606132421004 
0.006994421344819287 -0.002088683484200994 -0.005917938775136375 
0.008046508277158918 -0.002421218959896359 -0.005662334556321878 
0.009953243249037238 -0.008207476927689137 -0.004735018942151735 
-0.01852823292044953 -0.02593535766595737 0.02416554699139856 
-0.02670007767347341 -0.01740170071790263 0.03279048073207706 
0.008046508277158918 -0.002421218959896359 -0.005662334556321878 
0.005654753353987696 -0.004019474078227056 -0.001111197835380499 
0.008046508277158918 -0.002421218959896359 -0.005662334556321878 
0.008046508277158918 -0.002421218959896359 -0.005662334556321878 
0.008046508277158918 -0.002421218959896359 -0.005662334556321878 
0.008046508277158918 -0.002421218959896359 -0.005662334556321878 
0.008046508277158918 -0.002421218959896359 -0.005662334556321878 
0.002926329349306346 0.003684294145085430 -0.01120314244039173 
0.008046508277158918 -0.002421218959896359 -0.005662334556321878 
0.008088293590597410 -0.007204209696070618 -0.0004595828897233424 
0.001548814736471475 -0.0002141333928664528 -0.001741837852472406 
0.008046508277158918 -0.002421218959896359 -0.005662334556321878 
0.008046508277158918 -0.002421218959896359 -0.005662334556321878 
0.008046508277158918 -0.002421218959896359 -0.005662334556321878 
